835 100
</s> 0.004003 0.004419 -0.003830 -0.003278 0.001367 0.003021 0.000941 0.000211 -0.003604 0.002218 -0.004356 0.001250 -0.000751 -0.000957 -0.003316 -0.001882 0.002579 0.003025 0.002969 0.001597 0.001545 -0.003803 -0.004096 0.004970 0.003801 0.003090 -0.000604 0.004016 -0.000495 0.000735 -0.000149 -0.002983 0.001312 -0.001337 -0.003825 0.004754 0.004379 -0.001095 -0.000226 0.000509 -0.003638 -0.004007 0.004555 0.000063 -0.002582 -0.003042 -0.003076 0.001697 0.000201 0.001331 -0.004214 -0.003808 -0.000130 0.001144 0.002550 -0.003170 0.004080 0.000927 0.001120 -0.000608 0.002986 -0.002288 -0.002097 0.002158 -0.000753 0.001031 0.001805 -0.004089 -0.001983 0.002914 0.004232 0.003932 -0.003047 -0.002108 -0.000909 0.002001 -0.003788 0.002998 0.002788 -0.001599 -0.001552 -0.002238 0.004229 0.003912 -0.001180 0.004215 0.004820 0.001815 0.004983 -0.003111 -0.001532 -0.002107 -0.002907 0.002815 0.001579 0.000425 -0.002194 0.001524 0.003059 0.000194 
a -0.440999 -3.162078 0.672042 -1.422130 -1.570517 1.538338 1.065107 -0.980514 -4.601711 2.104307 -0.829155 1.584501 -0.067155 2.037925 0.758629 -0.019206 1.070447 1.761459 -3.210044 0.101969 1.196919 -0.249559 -1.363414 -0.969636 -1.732466 1.969623 0.780462 -1.592807 -0.925133 -2.729302 1.039879 -0.808402 1.321928 1.967850 -3.458409 2.100823 -0.218268 2.007025 -1.149116 -0.043830 1.224979 -0.795313 0.482343 -1.333103 -0.746671 -1.151659 -1.063518 2.522896 -0.826767 -2.043968 1.402708 0.243877 0.890181 -1.754086 -0.349752 -0.777801 -1.977270 -0.197244 -2.679020 -0.730257 0.718138 1.688800 -0.704816 -2.016002 -1.708004 -0.947148 -0.638887 -1.104197 -3.227468 -0.596218 1.159971 0.056868 2.723684 2.751743 -1.424279 0.018923 0.081761 -0.916211 1.542645 0.806404 0.254724 -0.929893 -2.103018 1.331444 1.189847 -1.820520 2.326699 0.302529 -0.664984 1.933278 -1.353009 -0.816280 -2.975872 -0.438159 -2.844226 -0.865943 1.332670 0.778126 1.023243 0.004378 
is 2.137913 -0.780008 0.941496 -1.713401 1.176935 -2.485003 -1.393907 0.492620 -0.954983 -0.692976 -0.893540 1.108950 -0.594663 -0.253648 1.555052 1.123794 -1.834361 0.313300 0.675818 3.360903 -2.552772 0.913050 0.695687 -1.447916 -0.477247 1.851673 -1.795705 -0.959181 -0.996960 -0.243101 1.838123 0.557852 2.838828 1.900500 1.111663 1.203927 -0.297071 -1.847913 -1.774949 -3.083869 0.170555 1.714856 0.129483 0.488826 0.951013 -0.357335 0.809669 1.097245 -2.219407 0.310566 -0.070120 3.194230 0.658211 1.339963 2.083320 2.078036 0.640175 1.418639 1.249568 3.341975 -0.628120 -0.200658 -1.642440 -0.246656 0.300726 1.854807 -3.350074 -0.388238 -2.683287 0.213628 -0.875436 -1.178125 -0.020966 -2.459101 3.758649 -2.569110 -0.607252 3.405206 -0.810390 1.420832 0.205900 1.151870 1.499095 0.358648 3.723902 -0.648565 1.310749 -3.815995 1.175579 0.347954 -1.164317 -0.627013 -1.947334 -1.340075 3.714924 -1.670627 -0.564391 -1.494134 -3.071598 0.036147 
black 0.301804 0.447546 -0.142633 1.650234 2.119886 0.877979 1.807647 -0.306904 1.514810 -5.054068 0.455859 0.421265 -0.892780 1.569085 2.291575 -1.114342 0.091366 -0.566725 0.125566 0.990738 0.213606 0.684932 0.380346 -0.478530 -0.738469 -0.506344 0.544635 1.168549 0.301782 -3.706478 -0.179283 0.691312 0.337128 -0.927041 -0.099881 0.998383 -3.368828 1.733589 1.820418 -1.616949 -0.695261 0.955279 2.038573 0.237006 1.482884 -1.141852 -0.451736 -1.497204 -0.904652 -0.282762 -0.055516 1.297271 0.737393 0.847778 -1.550328 -0.344683 0.508440 4.257190 -0.481137 -0.291751 -0.867591 -1.707005 2.212459 -0.069329 -0.458659 1.071752 0.460585 -0.329650 0.548304 0.488073 0.672739 1.094187 -1.377985 0.716034 -0.159320 -1.285650 -1.772943 -0.075458 0.495369 -0.452465 -2.636755 0.537553 1.267212 1.589833 -0.025332 0.296562 -0.114407 0.892928 0.406751 -0.475938 0.578347 0.111341 -0.357340 -2.348202 -0.442879 -0.353516 0.726680 -1.364871 -0.351847 1.536289 
and -0.537788 0.719232 4.080297 -0.150340 -0.425495 0.566735 -1.433127 -0.180860 -0.572421 2.010274 1.998339 -0.249247 2.646416 0.291282 -0.182614 2.650759 0.945630 -1.744839 1.602758 -0.572314 -0.907947 1.510164 1.140573 -0.177586 -0.156163 -1.555025 0.030185 -0.012350 1.494073 -1.026035 -1.346558 -2.862004 -1.444818 -0.994797 -0.187547 -0.167958 1.729408 -0.965866 -0.486410 -0.633583 0.485924 0.082059 -1.561909 1.927667 -1.165821 0.192913 -1.872254 -0.223595 1.423241 1.598861 -0.248504 -0.283009 -2.771672 0.149437 1.357955 2.007074 1.311178 -3.355201 -2.130202 0.976938 2.468491 1.794133 -2.433461 2.410239 -1.884356 0.197577 -1.832662 0.167299 1.488238 -1.221803 0.064597 0.700752 1.224211 0.919702 -0.975441 -0.153904 -0.357918 -0.697740 -1.694814 2.638270 -2.061076 -2.596142 1.453902 -1.647145 -1.662397 -1.126441 0.055266 1.779036 -1.250119 -0.512462 -0.371215 1.459281 0.903512 2.292691 -0.085357 1.070051 1.826358 0.152978 -0.459371 1.307057 
with -2.558757 0.065766 2.011223 2.758324 -2.200113 -1.003528 -2.032597 -0.541308 1.471950 -0.086189 -2.231914 -0.233700 0.656700 0.777835 -1.011140 2.132368 1.836155 -1.573098 0.823248 1.470627 -3.240593 -0.509581 1.537565 -1.997720 0.142371 -0.569997 0.249565 -2.755382 0.834063 1.508819 -1.985158 -1.925425 -1.338412 -0.655739 -1.597677 -0.235078 1.628956 -2.395300 -1.231538 0.247433 2.777148 0.841753 -0.508590 4.080739 0.901234 1.984702 -0.717005 1.122001 -1.348576 -1.089596 0.410823 0.619981 -2.657090 1.610844 2.927805 -0.028990 0.821382 -1.391263 2.216161 2.842105 0.134172 1.374341 -1.807641 2.531601 -1.281078 -1.262472 -1.035713 -0.176561 0.286180 -2.205853 1.459633 3.269621 1.358465 -2.148639 -0.668498 -1.084376 0.801504 -1.987964 -0.462866 4.218927 -0.014590 -3.284824 5.166622 -0.648928 -1.961301 -0.875342 -1.933579 -2.210277 -0.947891 -1.720244 -1.559778 -0.930355 -1.116200 5.365521 -1.079135 0.252107 -1.134313 -0.137828 -2.197325 -0.495703 
he -4.432503 -0.107446 0.790714 1.922984 -0.026883 -0.017445 0.354274 -1.376229 3.939187 -0.316126 0.951958 -0.708229 1.703910 1.711623 0.252693 0.271526 3.100587 1.743936 2.051727 -3.061550 1.022524 5.126787 1.763820 1.675028 -1.570294 -0.526341 1.252025 -2.531354 -0.042365 -2.522979 -3.257712 -1.205145 -1.671487 0.309319 -1.244107 -4.100822 -0.933585 0.046097 2.175740 -0.872963 3.271880 -1.078466 -0.368365 -1.663610 -1.049573 -2.548714 -0.609654 -0.270321 2.129818 0.518367 -1.065053 -0.197165 -2.431089 -1.299695 -2.094097 -1.714187 -0.572447 -0.436128 -0.857657 -1.687178 2.680410 2.011997 -2.480722 2.171231 -2.343779 1.829405 2.802250 -0.359132 -0.054606 0.169120 -0.601188 2.437558 -3.878814 0.914752 -2.632204 1.176106 1.358314 -1.917366 2.083438 0.009260 0.524267 -2.777538 -1.161023 0.489313 -5.456916 0.390496 -1.295090 2.202039 0.714112 2.027315 -0.441235 0.092927 2.046701 -1.603074 -0.620915 -0.361048 -1.841958 3.309494 2.837947 -1.228136 
wearing -0.727098 0.946744 1.468916 0.250455 0.101038 0.693584 -1.497595 1.119439 -0.393416 -1.141818 -2.020612 0.299039 0.610909 0.992638 0.144270 1.273767 -2.472520 -3.348458 0.290696 -2.854497 -0.832293 -0.988636 -2.264846 -1.740933 1.398616 -0.984410 2.131630 2.459659 0.584315 4.659753 -0.115332 -0.032209 -1.989691 -4.492852 0.243699 1.275268 3.654303 -0.195601 -0.390037 4.462951 -1.487827 -1.543700 -0.503442 2.149764 -1.334715 -0.015458 0.981847 -1.487515 3.624140 -1.524686 -1.035761 -2.691777 -2.455382 -0.500481 -2.218324 0.413906 0.171230 -0.929511 -0.119515 -0.203629 -2.663213 -0.808299 0.545902 4.435526 1.854209 -2.515600 0.431782 0.699456 3.006933 -0.910829 1.737351 -0.103571 3.017882 0.330960 -4.184452 0.332033 0.083428 -1.527312 -0.314119 2.007849 -0.255488 0.987366 0.686012 -2.980058 -2.034361 0.218212 -0.966119 -0.432449 -1.773141 -4.811856 0.094959 0.340232 2.057971 5.861338 0.019714 0.941230 4.226805 1.553509 0.663613 2.090810 
his 0.727004 -1.738876 -1.550299 -0.787271 1.788949 -0.069547 2.104778 0.391446 3.560028 0.792654 0.391148 1.471872 2.799751 1.617752 1.246179 -4.197009 1.812063 -0.165038 0.708861 3.208742 0.311806 0.537603 -0.908445 -1.351171 -0.945711 0.819113 -1.958961 -1.285522 -0.114567 0.701011 -0.464661 0.426419 0.810555 -1.667448 1.186934 -0.235775 1.315024 -0.939925 -1.965428 3.903960 -2.106596 0.835984 -0.576002 1.726097 -0.333164 1.961092 -0.099831 -0.326609 2.600132 0.858919 -0.359013 0.553183 1.549047 -3.415125 -3.315989 -1.642266 -1.334335 -0.170283 0.378443 -1.427906 -1.179643 1.687280 2.345490 1.406374 -0.435196 -1.550548 3.131781 0.263200 -3.209091 0.724110 0.383983 0.727487 -1.600439 -1.784852 -0.938191 -4.493277 -3.338901 -4.485326 3.298072 0.252676 1.255718 -1.251968 -0.613753 -2.596487 -4.578133 -0.576589 2.419150 2.837527 -1.371268 -0.590238 0.013683 -0.828199 -0.102699 0.229003 0.139545 -1.393888 -1.934778 3.128776 -1.133051 0.584859 
she -5.523623 2.678173 0.407397 3.407013 -2.261924 1.139655 1.198967 0.490671 3.329489 1.579098 1.670771 -1.103015 0.691391 0.064709 0.309695 -2.802279 4.536533 1.345516 1.925058 -2.383835 -0.523836 2.168692 -0.230484 0.415993 -0.413232 -0.258383 -0.169488 0.718928 1.039673 -2.900311 -1.754818 -2.659419 -1.443032 0.597529 -1.930838 -3.188133 -0.783189 0.999018 3.790816 -1.495267 2.932055 -1.222514 -1.756066 0.321894 0.477038 -1.812346 -0.620531 -1.730150 -1.092059 -0.749092 0.958519 -2.885556 0.095889 0.774129 -2.159905 -0.016647 0.866630 -1.932370 -0.280373 0.147133 2.242532 2.413930 -0.041843 1.621608 -1.823251 1.106992 2.041611 -0.691392 -0.012316 1.962975 -2.585696 0.538889 -4.141406 -0.441971 -1.021149 1.192931 1.737109 -3.225138 1.515549 -1.209359 -0.461531 -1.605968 -0.186778 0.579107 -4.779936 0.684697 -0.840282 3.253067 1.200150 1.815504 -0.125497 -2.227660 2.152556 -0.822609 -0.860119 -1.381710 -1.507663 1.311190 1.275717 -0.990318 
of -0.212191 -2.179508 6.024009 4.247005 -3.799777 -2.536546 -0.159270 -2.724164 1.231584 -0.123006 -0.425722 0.198615 2.932891 -1.316667 -0.102072 0.914164 1.250379 0.989627 0.211607 -1.919917 -5.215832 1.918696 2.323618 1.891279 -0.312045 -3.401330 -1.200096 3.408332 -3.524845 5.002042 -0.422574 -0.465667 -1.454530 -2.372299 2.960611 -0.349736 -0.483146 0.371986 0.955365 -1.899255 -3.526526 -0.796686 2.082070 2.132608 0.475829 -0.020133 -2.587666 0.504737 0.933193 2.140752 0.894395 2.574682 -1.915265 3.578316 1.679026 0.671696 0.659038 2.914635 5.348794 4.410769 -1.475241 -2.284050 2.099619 1.260401 -1.661449 -2.106852 -1.799981 1.765707 -6.340701 -3.604513 -1.322105 0.163393 -2.384565 0.227958 -0.671221 0.708172 -2.402804 -0.230564 -3.792928 2.651150 -1.036800 3.680997 1.536442 -2.647835 0.839929 5.140548 1.883424 0.699315 1.866755 -2.956013 2.031844 2.355362 1.175059 1.714842 0.578452 2.629193 0.623001 1.733318 1.058233 -4.340958 
the 2.846220 -2.196961 -0.263715 0.980709 -0.274213 3.463315 1.572081 -0.749113 1.406554 -0.032809 0.321015 0.139975 -0.898640 0.816700 1.885148 0.239173 -0.528130 -2.376981 -0.986696 -0.092933 0.412251 -1.175990 1.278083 -5.240968 1.733420 -0.737631 -0.938986 1.542166 1.563428 -1.750189 -1.648876 0.150531 0.018545 0.078282 -0.360494 1.325142 0.489108 1.411735 -0.641530 0.609444 -0.890782 0.057507 -0.931052 0.998760 -1.710501 1.098905 0.951930 2.594406 -0.467458 -0.692363 0.315320 0.472654 0.196756 1.812491 -0.240439 -3.512985 -2.046786 0.231312 -3.295301 -0.487908 0.938747 -0.456261 4.092180 -0.324881 -0.779094 0.252644 1.018923 -2.267555 -3.815151 0.213521 0.981805 0.300539 -0.449820 0.169792 -1.677912 -1.058070 1.176509 -4.122581 2.590414 -0.693497 -1.482031 -1.579002 -1.111085 -0.721337 -0.654216 -1.792220 -1.442785 -0.436905 -1.249191 0.953499 0.598373 0.426171 -0.598849 -0.621293 -1.329690 -3.173107 -3.285182 0.238949 2.148459 1.268870 
white 1.667863 -1.255504 -2.265902 0.027435 2.891736 -1.126500 2.772620 -0.444955 0.575456 -4.645234 0.454682 2.408038 -0.677824 1.326394 2.853203 -3.444959 1.661649 -0.497681 -0.277017 0.330474 -1.398580 1.318900 -1.021778 0.628787 0.477005 -1.068631 -0.863239 -0.134917 1.129902 -0.876958 -0.442276 1.126943 -0.621767 -0.815218 0.080684 -0.576032 -2.618161 1.797190 2.835131 0.178986 0.403771 0.766328 1.503642 -0.163371 1.258464 -2.281479 -1.250610 0.470443 0.137574 0.509863 -0.168486 0.216808 -0.840388 1.494225 1.235868 -2.754121 -0.341703 2.260575 -0.484454 -2.216639 -0.072836 -0.354305 0.889863 -1.125851 -0.518175 2.594157 0.040124 -0.635545 0.768405 -1.049570 0.469927 1.915215 -0.402532 1.173905 1.981789 0.397579 -0.160017 0.271474 -1.203350 0.435630 1.132636 2.926717 1.592659 1.686820 0.732650 1.017026 1.138524 -0.737980 0.560371 0.660017 1.208943 0.793548 -0.900742 -2.210082 2.711774 -1.687480 0.920167 -1.136490 0.341420 -0.362442 
on -5.102427 -2.825552 -0.200706 -1.700459 3.546795 1.690723 -2.091310 0.317555 -2.152804 5.022666 -0.824052 3.991505 -2.200862 -1.393446 -3.078636 4.359393 -0.513201 -1.855697 -0.604633 -0.270820 1.797317 2.791756 -1.655836 -0.930779 1.389170 -2.286332 2.180721 1.782499 -0.814056 -3.630794 -0.894652 2.018737 -1.603459 -0.929892 2.345052 0.326937 -4.079220 0.582688 2.413800 -1.055934 1.034931 -1.521745 -0.690972 -0.814403 -0.278632 -1.655701 0.693074 0.000771 0.728233 -1.102999 1.654816 2.222820 1.540485 2.975933 -0.933703 -1.711688 1.549222 -2.016627 1.536557 3.839927 0.610444 1.075254 -0.665224 -1.582896 1.073365 2.003916 -0.138159 0.799905 0.802482 -0.123292 3.430012 -0.055387 1.342895 0.739898 2.550483 0.268789 4.001715 2.727309 -5.659926 1.977899 -1.379752 2.099960 0.829932 4.225052 -1.426459 1.782254 -1.482398 -2.585542 3.954199 1.893990 -1.051792 0.959790 -0.182635 0.621187 1.789859 2.357164 2.180511 -0.053967 -0.798295 -0.581096 
hair 0.213001 0.959474 -1.386392 0.067991 1.085992 1.115808 1.637320 3.046734 -4.442036 2.726578 -0.310574 -1.362663 -3.484352 -0.458256 -1.013023 0.193863 1.713998 1.856903 0.986397 -0.146671 -0.912491 1.761249 -1.793235 0.676618 -0.125956 -3.061081 -0.868752 0.353349 -1.126508 1.447926 -1.303228 1.736124 -4.631167 2.261498 -3.049978 0.037291 -0.933947 1.964111 -2.841134 -1.950110 -1.018102 -2.392854 -0.194861 -1.795574 -0.359899 2.455524 -0.749732 0.172723 2.865638 0.236975 -2.479909 -3.124014 -1.464424 0.190474 0.238222 -1.503651 3.699253 0.421521 -3.488278 -2.216514 -0.629801 -2.491746 0.097078 -1.754343 -2.861001 -1.100590 -3.302215 -1.543683 0.593995 -0.430869 -0.975680 -1.424561 3.305720 1.894948 -1.511535 3.336976 3.252019 1.044490 -0.216905 -3.716634 4.340594 2.713834 -4.997333 3.176701 1.261602 -4.211501 -2.530961 0.894529 1.707840 1.342899 2.203058 -0.609858 1.086153 0.761269 1.084080 4.260950 0.159421 1.801026 -0.668684 -3.876135 
in -5.705638 1.183581 1.577601 -1.839398 -0.472927 -2.608016 -1.589320 1.030301 -0.868357 2.022791 -0.334255 -4.432512 -2.560726 1.676592 -3.075728 2.136237 -0.723178 0.098313 -1.797939 -3.926395 -0.322963 -0.287083 -0.362271 0.170162 0.355976 0.070778 0.275862 0.038930 -2.990829 1.318629 0.627011 -1.587963 -0.656983 -1.883282 -0.102549 -2.040267 -2.253258 3.443067 0.000861 1.335081 1.104804 -0.927403 0.370210 0.003412 0.641543 2.166227 0.910056 -2.810930 -0.954967 -0.109801 2.259166 1.485345 2.137271 3.415323 2.323147 -1.132299 0.106888 -1.191861 0.008739 3.401830 0.600315 1.654652 1.237150 0.634682 0.108161 3.976874 -1.640583 1.478166 1.642453 0.263159 2.610458 -1.077983 0.738692 -1.292712 1.034756 -1.045644 1.526267 1.313935 -3.621997 -1.488761 -0.013718 3.602710 3.381132 1.217804 -2.411193 0.193736 -2.598298 0.420374 1.962964 1.487930 -1.991151 1.538965 -0.637834 1.547049 -0.240703 3.699011 2.173077 1.922799 -0.013583 -0.799195 
her -0.912292 -2.909084 -1.326292 -1.079965 -0.191615 0.881117 2.678110 0.709642 0.554187 0.004704 -0.223801 3.975980 4.432764 -0.561557 1.710600 -6.738315 0.493250 -1.312507 -0.356635 -0.095460 -0.471247 -0.698848 1.144240 -4.527771 -1.020053 0.876179 0.807060 -0.248352 1.005446 0.435490 0.264578 -0.640578 0.987085 0.398222 1.729783 -0.929528 2.597568 -2.400059 0.524210 3.885115 -0.233464 -1.208789 -0.650155 2.191109 1.703968 1.851101 1.048171 0.133001 -0.053841 -0.301416 0.385376 0.427090 0.110237 -2.516747 -2.150194 -1.127722 -1.173277 0.245930 0.116633 -1.366097 1.728379 -0.778961 2.784448 0.571517 0.349314 -2.019699 3.362292 -1.858523 -1.405794 -0.298487 -0.886183 -0.513366 -0.744768 -2.755710 -0.813635 -2.538286 -2.024382 -3.695132 4.970181 -2.423026 -1.780707 -1.048939 -1.807062 -2.631418 -2.858982 -2.199494 0.982028 1.756665 -2.236666 0.897528 -1.382739 -0.808990 0.046156 0.134660 -1.491338 -0.478402 -1.752485 -0.649319 -1.951442 0.082705 
dark 0.902376 -0.326720 -0.676732 1.714322 2.383407 0.069631 -3.071089 -1.711929 1.259946 -2.923637 -0.185689 -1.539148 -0.750668 2.382021 0.900295 -0.892580 0.329424 1.134225 0.003365 2.625980 0.758656 -1.552942 1.734773 -0.398470 1.330369 1.980740 -0.392317 0.113964 2.421406 -2.281081 0.128735 0.667442 0.145482 -1.928846 0.688198 0.245229 -0.509474 2.211581 2.779593 2.026042 -0.030564 0.651783 3.121598 -0.509522 1.734843 -1.691740 0.773763 -0.489005 -1.441859 -0.372482 0.394907 0.198776 -0.068082 -0.720477 1.079306 -0.034593 -2.149951 2.349753 2.205260 0.427985 -3.317821 0.864785 2.293507 -1.249868 -1.575416 -1.310514 0.017674 1.470350 -0.380046 -0.308001 1.204382 -0.405265 -0.818617 -0.830814 0.680394 0.918592 -1.538405 1.215011 1.679587 -0.896889 -2.009409 2.146598 -0.112160 -1.421613 -1.489925 -1.221172 -0.547751 1.902884 0.214882 0.026644 -1.562089 -2.593516 0.002648 -2.418104 -0.565564 0.563379 1.067891 -2.182235 0.980196 1.950079 
coloured 1.184283 1.396658 -1.056491 1.273521 -1.972558 1.116181 2.367630 0.288561 -0.739334 0.702228 0.565801 3.038615 1.830094 0.179863 1.267028 -0.110831 -2.595259 -2.052897 -0.094909 1.129583 -0.099825 0.824575 0.003890 0.162779 -1.516393 -0.786544 -0.649453 2.404814 2.506415 0.137226 0.373942 -0.530167 0.214291 0.130980 -1.008680 -0.074311 0.788189 0.798838 -3.291242 -1.564128 1.943626 1.039602 0.019838 -0.922749 0.097840 1.754383 -1.457141 0.878652 -1.828754 1.297122 -0.604507 -1.490947 0.356510 -2.599021 -0.484959 0.737032 1.073588 0.874274 -0.776199 -0.810182 1.872776 1.512952 -1.790444 -1.682574 0.465545 -0.132245 0.445271 -1.153962 -0.661810 -0.913518 1.194634 1.111605 -0.267236 0.097929 0.076926 1.117264 1.107024 -0.260861 -1.173700 0.193260 -0.863326 -1.481196 -0.749169 -0.579078 1.896326 0.909876 1.424574 -1.754651 1.220768 2.126020 -1.753340 -0.559291 -1.069468 -0.401703 0.827196 0.578152 -0.748634 1.058276 1.692389 1.191129 
colour 1.895766 2.487637 0.266905 1.466600 -2.216141 0.395057 2.409818 -0.164486 0.166445 1.308433 -0.408389 2.048262 0.629609 0.375157 -0.082566 0.628390 -2.447937 -1.035524 1.668938 0.845773 -0.453494 0.511941 -1.203412 0.833288 -0.557265 -0.876861 -0.611511 1.648837 1.307229 0.112310 0.537105 -0.891202 0.977419 -0.320455 -1.404511 -1.522282 -0.747708 0.216319 -1.385297 -1.063472 0.786845 0.136599 -1.438864 -0.111504 -0.261048 -0.370337 -1.149310 1.502075 0.449920 0.250500 0.024328 -1.673334 1.641970 -2.930440 -0.974490 -0.620222 0.856420 -0.717691 -0.944902 1.534973 0.389993 0.564607 -1.332097 -1.126595 0.098468 -1.948284 1.082949 -0.772522 -0.657811 -0.998687 0.358425 1.221141 -0.373800 0.031912 -0.141300 0.844953 -1.071433 -0.687242 0.578229 0.756890 -0.699776 -0.925776 -1.520669 -0.396102 3.280479 2.235514 1.973603 -1.676917 1.436663 0.859459 0.365228 0.511090 -0.552157 -0.062116 0.347285 0.466454 0.536798 1.441509 -0.841398 1.950656 
shoes -2.040236 -0.258421 -0.403862 0.416463 -2.917032 -0.809967 1.126372 -1.269896 -2.872913 6.221504 -2.482315 -1.317615 -2.118298 -4.972641 -5.446966 4.230004 -0.674623 1.444702 -1.270351 1.791615 0.667131 -2.901089 -0.940526 2.999271 -1.482621 4.152102 1.474252 -1.520494 -1.047097 -1.186163 -0.267617 0.343032 0.167331 0.927256 -3.172793 -3.169277 1.108336 1.219767 -2.055733 1.170384 -3.211473 -0.573395 1.987790 -1.205267 -0.051497 2.064396 0.611262 1.546585 -1.854496 -0.954559 -0.109594 -1.111508 -2.259854 0.371009 1.389089 1.174484 -4.187604 -3.585877 -1.945298 -0.132714 -3.048039 -0.576760 2.039932 -1.587059 -0.123075 0.665697 1.546204 -0.793451 -0.713776 0.988918 0.031275 0.575840 0.393217 -1.800851 1.530536 0.444482 0.870612 3.859983 -2.339895 -2.494343 2.265018 -0.770062 -2.421310 2.388536 0.362385 -0.071803 -1.417480 0.879773 0.415011 -0.294248 -1.202306 0.121003 2.534789 -0.630157 -3.299978 0.251595 -0.632000 1.609054 -0.667401 1.935448 
pair 1.642620 3.447575 -2.039674 -4.909781 4.686337 -0.002321 1.697350 4.321814 1.923011 -1.707587 0.306349 2.193244 -2.431917 -0.152093 2.286082 1.455498 -2.437554 -2.114835 5.189206 5.059368 3.042753 2.154122 -3.344341 1.297840 0.217458 3.099644 -2.095977 -1.607603 3.949687 -3.264677 0.342123 0.639412 0.344127 -1.878433 -2.993518 -3.097356 1.220390 -1.328350 1.232357 -1.899668 -0.490121 2.100479 -4.064115 -2.498976 -0.582055 0.745703 -1.078989 0.565024 -0.617215 1.494549 -2.239065 -0.956968 1.613120 -0.485267 0.374445 0.588640 0.045250 0.995226 -5.650550 -2.275028 1.531047 -0.515343 -2.775020 0.329210 2.002371 4.370369 2.610246 -0.184211 11.103621 6.085604 0.858853 0.164573 2.382435 -1.072755 1.606422 -1.792726 2.777011 -0.597140 1.366247 -4.971529 1.458704 -3.324206 0.205879 -0.601567 -3.601618 -3.095986 -6.853585 -1.799240 0.032071 2.362096 -2.186503 -2.614616 -0.300055 -0.418460 2.324413 -1.594992 -0.607410 -3.467883 -0.719684 5.496636 
short 3.186707 -3.603117 -5.272058 0.920331 -1.941753 0.008082 -0.485848 -3.333219 -0.538994 -1.658738 1.146842 0.760739 -0.924083 -1.459145 0.476885 0.586239 -3.074561 -0.004929 0.045718 -2.139775 4.184071 -4.494972 -1.848221 2.247177 -0.380702 1.321013 -0.476238 1.528590 -1.403052 0.784264 0.459724 -1.906059 -0.363785 -3.742469 -0.934545 3.144118 -1.636836 -0.365171 2.830121 0.253835 -0.846222 1.925233 2.282353 -0.671275 1.590304 -2.626875 0.891382 2.708360 -0.676006 0.846071 1.625014 0.160279 1.917994 2.898123 -3.687510 2.574642 -6.491862 -3.158950 2.119305 0.840620 -0.747844 0.799809 -1.215319 0.817096 4.361546 2.524083 2.653570 -0.662695 -1.518318 3.229010 1.870243 -1.245483 -3.063949 -1.273352 -0.646667 1.215396 -2.101002 0.854614 1.188904 -2.729714 -1.004999 -2.197260 1.347286 -0.519039 -0.490399 1.262256 0.012256 0.551641 3.175416 -0.482223 0.366432 3.706050 -4.820468 -0.267509 1.860571 -1.676346 -1.541322 2.428205 1.636873 3.496653 
has 0.902082 -0.004079 1.353808 -0.640969 1.844465 -0.610029 -3.262734 1.708618 0.057842 -3.044418 -2.922072 1.373141 1.606764 0.545529 0.677305 1.921641 -1.420057 -1.111155 0.232686 3.800966 -2.586113 -3.608347 -2.327363 -1.884099 -0.562137 -0.240455 -0.731573 -2.180314 0.068829 2.169802 1.538847 1.914181 1.511429 -1.309974 1.733286 1.625740 2.885842 -2.300916 -4.127055 0.320649 -0.602187 2.428719 -1.136242 2.400717 -1.079971 2.443588 1.375710 2.264634 -0.803358 -0.349971 -0.956082 1.401491 1.036276 0.315733 0.850242 2.330551 1.002286 1.697032 2.585614 3.263679 -2.914227 0.671237 -1.013857 2.195479 1.528879 -2.871904 -3.092682 3.078951 1.079064 -1.878038 0.737079 -1.655213 2.153234 -1.299168 2.111644 -2.112684 -0.818844 0.570998 -1.961810 2.682750 1.029582 0.969865 1.419167 -1.022712 4.438328 1.378500 1.922208 -5.374660 -1.221565 -1.973065 -2.693277 0.906153 -3.510230 4.332932 2.193635 -0.585504 -0.082609 -3.138112 -4.186441 -1.300658 
or -1.938463 2.169051 2.267405 -2.530488 -1.684537 -0.263526 -0.346210 2.390641 0.620422 5.285045 1.203145 0.551414 2.425131 -0.053566 -0.232314 1.460372 -0.951919 -0.181369 0.284749 -2.283676 -1.344881 -0.331737 0.853555 1.758917 -1.040072 0.568280 -2.166835 0.514232 1.393695 0.104406 3.458624 -0.025838 0.511883 -0.348280 -1.396863 -0.320328 1.032806 -4.747887 -0.682795 -1.379101 1.791482 -1.944723 -1.528890 -0.392531 0.358697 0.985731 1.171830 -1.167671 0.588305 0.206383 0.168154 -0.772101 -1.599137 -1.557600 2.834579 2.462924 -3.276566 1.047746 1.619322 0.600663 2.040337 1.062390 -1.631971 2.251782 1.122637 -1.499510 -1.551953 -0.422664 -1.013050 0.321551 -0.161891 0.564816 3.044570 1.301360 -0.228212 1.144679 -0.402540 0.140747 1.632142 0.581205 -2.591497 -1.753553 1.218216 -1.016719 0.100150 0.391765 -1.704094 -0.312158 1.558739 2.409810 -3.348128 -1.299693 -0.288671 0.500770 1.651207 1.249094 -0.151199 3.646322 -1.031777 -0.981950 
grey 0.536867 -1.558248 0.832507 0.906244 2.232996 -0.148401 1.128569 -3.356223 1.941287 -4.602900 -1.099360 -0.357823 -1.660770 0.295854 2.603202 -1.142907 0.505189 -0.360170 0.597009 1.837276 1.237100 -0.375027 -0.428502 -0.561867 1.759585 -0.000869 2.503393 0.938229 0.929872 -2.392850 -1.523070 1.913046 -2.163718 0.013522 0.271479 -0.394051 -1.841602 3.338116 2.044442 -0.044787 -0.254557 1.581879 1.121170 0.598406 1.323892 -0.422891 -2.040919 -1.680428 -2.253249 0.575211 -0.403498 1.640219 -0.424627 -1.170107 -1.657894 -0.908662 0.401080 -0.143872 -0.197209 -0.450539 -0.829381 0.941862 2.200011 -2.471472 0.865709 0.807028 2.131235 -1.517712 1.965345 1.413619 2.073342 0.017377 -2.769686 -1.033626 -0.038702 -0.709941 -0.439930 1.288687 -0.411765 -0.797398 0.146154 3.594991 -0.794006 0.187660 -0.420888 1.587167 -0.076170 1.038349 -1.814022 -0.883301 2.351165 1.494852 1.623897 0.010302 -0.122513 0.955827 2.256385 -1.561329 -0.227764 -0.565178 
bag 0.961397 4.161467 0.253451 4.550836 -2.029212 -5.252591 0.251712 -4.817132 -0.343155 1.795825 -2.254926 -4.127529 1.867825 -2.735073 0.047770 0.074639 3.638057 3.408224 1.070449 -3.873236 -0.392861 0.480276 1.999464 0.160808 -0.001424 -1.179859 -5.332302 -0.118740 2.328444 -0.601113 0.352178 3.440953 3.193685 3.557221 1.552720 -0.482713 4.460100 -0.822966 -2.293641 2.024864 -1.333340 -2.006061 -0.740435 -1.165190 -0.587630 1.038634 2.308728 1.025508 -0.466222 0.983134 1.850403 -0.396568 -1.572905 4.557845 -1.748953 -1.025609 0.868849 -0.367849 -2.532794 -1.906501 -3.505395 -1.828023 0.850719 4.904013 0.111995 1.477349 -1.745951 -1.175500 6.606852 4.839743 -3.098727 -3.742539 -2.648098 -4.147742 0.820798 -0.267284 1.137067 0.910974 -1.206405 0.739022 -1.034794 -2.327137 1.640584 0.851430 -0.088988 1.001008 -0.197847 1.120744 -1.703058 0.625857 1.692802 2.303471 -0.594281 0.075950 3.837685 0.820304 0.794209 0.630555 1.064690 -2.094180 
right 2.737608 -0.034996 1.811922 1.667168 -4.662752 -0.453412 0.011746 0.954203 0.579081 -7.387949 1.329289 0.216724 -3.288887 -2.825680 -2.680329 -0.545304 -2.021772 -1.886828 -0.508707 -0.721600 2.085092 -3.467458 -0.551410 5.072646 0.872871 -0.698102 1.263006 0.719795 0.807542 -1.667586 0.809163 0.513966 1.423502 1.240604 -1.104788 0.859585 -2.381875 -1.035067 0.139688 -4.136175 1.698913 0.464099 1.898981 0.159578 -2.222916 0.184879 2.335105 -1.157140 0.747826 1.376702 -0.628330 0.599954 -0.565042 1.339635 -0.255062 0.913656 0.714079 -2.544271 -0.009797 1.171629 -1.439737 -0.569663 0.627482 1.503147 -0.233721 -3.948338 -0.285918 -0.005153 1.047794 2.815470 -2.587107 -0.852398 0.747567 0.961798 1.450517 1.286264 2.722708 -0.997535 -1.972251 -0.783219 1.267375 2.218900 0.347826 -1.126689 3.665847 -4.157715 2.313630 1.614847 1.241738 3.272904 0.064259 -1.474050 4.785124 -3.218883 5.024648 -2.189279 0.429726 -0.330935 -1.681484 -3.834020 
wears 2.113870 -0.557391 2.445490 -2.476615 1.038848 -0.974918 -3.164900 0.213983 -0.830924 -0.444135 -0.897774 -1.651703 1.224482 -0.776302 1.983524 2.736243 -4.761515 -2.007417 0.692800 -0.847371 -3.995229 -0.713050 -2.778151 -1.981523 0.350598 -0.811750 1.278900 1.703487 -0.833833 3.909703 2.392688 2.386575 1.730707 -4.168868 4.162661 0.653462 4.940621 -1.690334 -3.173252 1.540624 -4.585896 1.567250 0.356996 1.121450 -1.056966 1.102284 1.135885 -0.721007 -1.261911 0.472650 0.431748 0.802418 -0.751896 -1.488759 1.438754 0.684231 1.472151 1.527696 2.596115 2.418515 -1.615451 -2.178118 -1.433170 1.042863 3.567502 -1.028379 -1.414842 0.608574 1.783297 -1.454751 2.144909 -2.587276 4.563414 -1.593533 1.245577 -1.945941 -1.508861 1.984380 -1.197829 2.946841 -1.493972 3.178489 1.726414 -2.865764 2.803517 -1.787294 0.542488 -4.600920 -1.682328 -3.994777 -0.800185 0.509039 -0.265254 4.816545 3.850086 0.380187 3.358005 -1.291115 -4.517401 1.879824 
man -0.526354 -0.573097 -2.306420 -0.682798 1.586035 -0.311992 -0.689535 -0.722387 2.201119 -4.729602 -2.186231 0.981662 -2.061075 -2.015269 -0.852139 3.946496 0.265432 -0.976873 2.946283 1.956992 -2.983426 2.636348 2.739897 -2.431505 -2.938992 0.115435 -1.683123 -3.115069 0.854862 0.512883 -1.398026 1.353128 0.174906 1.698533 -0.820832 -2.768081 1.006688 -4.290894 -1.454782 3.048708 -2.298565 -0.382859 -2.353867 -2.045310 1.011424 -2.196900 -0.477256 -4.917545 1.982485 0.150785 -0.122129 -1.815546 1.050556 -0.410578 1.186695 3.224380 2.057256 0.447251 -0.969674 1.972337 5.350011 -1.216877 -2.593450 1.128565 -0.296859 0.642130 1.393105 2.149039 0.070738 1.820317 -4.603483 -1.555731 -4.208064 -0.766293 1.252645 4.815405 1.202738 3.487128 0.920784 -0.332739 1.041791 2.278397 -4.024908 -1.401756 -0.726181 -0.079925 1.860262 3.223567 0.449036 1.127299 -1.561116 1.129778 1.032915 -2.784261 4.013979 -1.383699 -1.182587 1.310525 1.530737 -1.555988 
left 2.416866 -0.142868 2.959320 3.758289 -4.880037 0.892203 1.078300 1.232228 -0.330484 -7.585726 1.692494 -0.411320 -5.117317 -1.075661 -3.302203 -0.955538 -1.916634 0.016079 -0.601777 -1.136178 1.841661 -3.868870 -1.957982 6.095984 0.306318 -1.491884 0.061693 -0.349096 -0.536938 -2.415354 1.252506 0.316993 2.367626 1.892110 0.243074 1.217626 -1.154280 -1.154077 -0.341884 -2.826079 1.182538 -0.218789 3.862955 0.868501 -2.015463 -1.034722 2.401039 -0.688250 -0.851676 1.642068 -1.091385 1.069937 -1.278852 1.813888 0.133980 0.375572 0.931285 -2.092585 1.533443 -1.705472 -1.102671 -3.738736 1.983438 2.239687 -0.026609 -3.199367 -1.255673 -0.878518 3.348165 3.502716 -3.328993 -1.945292 1.897025 0.553609 0.397548 1.266061 3.735683 -0.643593 -1.587233 -0.528109 1.789628 2.533071 0.101688 -1.044873 1.842008 -4.254330 1.450604 0.384836 0.701764 2.323570 0.649482 -2.026196 5.429819 -1.529180 4.750678 -2.171750 -2.255204 1.737037 -1.114665 -3.091998 
carrying -1.566824 -0.456835 -0.016946 0.146694 -2.271524 0.164610 -1.391870 5.565824 2.235216 -1.841044 2.518745 -1.412257 0.476525 -0.045756 -0.628624 -1.435414 -2.333291 -5.977898 0.527903 -1.856809 1.007133 -3.397638 -5.145425 1.791687 1.268022 0.167057 3.556733 1.644137 3.471956 3.421802 -1.896024 3.095919 -2.268645 -3.006468 2.933903 2.278666 -1.013520 -1.851302 0.190138 2.087693 -3.332453 1.599618 -0.623059 1.994030 -0.981722 2.432634 -2.115049 -0.309852 2.013699 0.611962 -4.750275 -2.494627 -2.529612 -2.748282 -0.285374 -2.855343 -0.208464 0.752359 2.830726 1.339969 1.636322 -2.665554 1.296782 1.178792 3.471426 -1.337280 -1.647224 3.605786 2.973065 -1.594059 3.990071 0.734763 2.859095 -2.909247 -0.013613 2.052998 -0.403675 -1.965243 -1.422785 -2.302714 0.632157 1.352907 -1.487391 -4.552774 -3.182415 1.911291 -1.264370 0.324391 -1.401446 -4.765368 -1.034601 3.073144 3.025231 5.046948 1.728043 3.152713 0.814625 -0.408015 0.220187 1.022078 
to -1.828621 0.166654 -3.838650 -2.426918 2.368007 1.409523 -3.943251 1.804160 -3.589288 0.442811 -2.874013 2.084661 -0.269268 1.141340 3.796674 3.950236 0.085995 4.420163 -2.729485 -5.060466 1.125573 -2.185378 1.427823 1.756829 -4.114067 -1.401127 -0.132869 -1.667290 3.345044 -4.206800 -0.662962 0.769071 -2.032162 -1.341426 1.688258 0.679714 2.962951 1.388691 2.058523 -4.637974 -3.866949 4.895444 1.135797 0.248088 5.532541 0.739287 -0.649718 1.613701 -1.130953 -1.969657 -0.086248 -0.431787 -2.177934 -0.686424 0.292331 3.166387 0.742565 -1.661188 -2.011544 -0.764392 1.048629 1.876122 -0.714287 1.921998 -3.379883 2.144278 0.815109 5.335273 -3.084571 -2.679927 -1.728464 -3.704682 4.239573 -2.385265 6.249873 -3.000003 -0.429643 -2.006593 -3.536506 2.852692 1.431268 2.604517 1.710087 -1.498357 0.763595 0.868591 0.926716 0.230687 2.794487 2.576298 2.830940 -0.314793 3.374310 -3.226136 -0.648682 5.738643 0.063424 0.499959 2.745837 0.820136 
hand 3.261389 0.107426 -0.525575 0.182760 2.310366 1.021165 1.371509 -0.190995 -1.671780 6.415416 -0.682208 -4.807649 0.914565 0.203295 1.709645 3.093998 2.299114 -3.253707 -0.762331 1.537493 0.588493 0.129020 2.081002 0.150844 -2.358723 0.576733 0.251776 -1.440328 -1.353686 0.105800 -1.465141 -1.793325 -2.864985 -1.771103 0.803105 -0.022440 -3.916315 -1.361546 1.194952 -1.958086 -2.496805 -1.278953 -2.363164 -3.921689 2.161591 -1.747911 2.289660 2.498602 -0.062661 -4.774344 -0.104179 -2.737777 -1.131982 0.185685 -0.153337 -2.547918 4.335266 3.544165 0.322643 -1.952633 -0.529536 -0.831843 -1.056162 -3.267462 2.395890 4.325080 0.673715 2.557647 1.811541 -3.493503 -1.646458 -0.521760 -2.550009 1.925921 2.840087 1.964097 -1.697002 2.890036 1.470862 0.753926 -0.790536 3.098412 -1.193457 2.437439 1.551836 3.454965 1.457646 0.206990 0.199310 -0.608086 -0.381985 1.380661 0.303106 0.024427 -4.483457 -0.287556 -1.357167 -1.966258 1.221836 0.930171 
be 2.773396 0.383662 4.442345 2.060067 -2.359449 -2.876446 1.884921 0.690973 -0.646235 -1.633099 2.359496 0.603489 -0.173320 -5.232615 3.501828 0.520897 -0.358849 -0.481296 -1.526245 7.060340 0.525486 -1.031480 0.782629 -3.450694 3.957757 -2.273229 -1.070303 -2.972609 -4.681169 0.445753 -0.779298 -1.441857 -0.735704 3.136577 2.576707 -2.495630 -3.552508 -0.394183 -0.807975 4.718707 -0.812590 -0.860450 -2.818067 -5.943650 -3.553324 1.613453 1.667180 -0.178459 -1.086649 -2.349915 -0.427326 -0.411332 0.497662 2.692291 1.061665 -1.127396 3.810791 1.592393 2.872047 3.310562 -0.166055 2.181123 0.297944 -0.796570 3.013814 5.848798 0.967508 1.715183 -1.355644 1.677170 2.432558 1.687659 -2.988101 -1.070688 -0.557634 1.333950 -1.212393 2.958699 1.610720 1.290645 -1.932438 -7.528736 -0.954594 1.702333 1.923269 -6.454710 1.619190 -3.601679 3.122871 -0.822999 -2.142204 -3.297212 0.017128 -2.534650 3.026024 -3.953903 1.718083 1.712374 -4.755597 -6.163044 
shoulder 0.186661 0.717911 1.343735 0.556664 -0.882078 1.549033 3.409238 1.921730 -2.931934 2.933683 1.513749 -10.160666 -1.710050 -0.454798 0.541295 1.342085 0.936091 -2.159183 -1.038054 -3.138262 -2.957384 -2.593470 1.070769 0.372535 -0.621860 3.636376 -1.009196 -4.918151 -1.931845 1.404496 -1.463004 -0.085107 -2.273782 -2.572387 0.670684 -1.019341 -0.138963 -0.460418 1.342971 -2.515091 -2.071653 0.162331 -0.909025 -1.447294 1.255421 -2.093181 -0.011702 1.215933 -0.664347 -6.214727 0.831448 -2.221273 -0.429642 0.826162 -2.369790 -3.410055 2.676590 2.477296 -0.184133 -2.604017 -1.264932 0.517373 0.558983 -0.205970 2.163476 4.599409 -1.641505 3.061413 1.062694 -0.672030 -1.682237 1.134298 -2.270820 -0.000165 3.621976 1.842440 -3.362852 0.217662 2.143377 -3.533643 -1.639004 -1.417149 2.262565 -0.287021 2.968381 4.859397 1.125956 2.117344 -1.303006 -1.360488 -2.380722 -1.118751 -2.870814 1.797078 -3.692027 1.975894 1.746089 -0.543765 1.164255 1.676148 
blue 2.679003 -1.816144 0.553027 2.009349 0.457878 0.756574 -0.316684 -1.018563 0.511014 -2.637177 0.286863 1.629404 -0.727283 -0.143487 -0.094190 -0.869147 -0.936221 -0.458878 -0.465391 2.154048 -0.238482 2.342569 -0.525400 -1.588504 -2.439333 0.579167 2.031394 3.075533 -1.914620 -2.717367 -1.261038 0.879039 -2.906558 0.958370 -0.473010 -0.432816 -1.011592 2.386775 1.271053 -0.614003 -1.361487 1.710381 2.283603 -0.462550 1.139858 -1.439911 -1.220084 -0.254204 -2.085545 0.475206 -2.388324 -0.371546 -1.379147 -0.880164 -2.654392 -0.278430 3.231142 2.096844 -0.836839 -0.644924 -0.486746 -0.533794 3.587286 -1.218067 -1.275195 1.697874 3.632611 -0.309197 -0.098351 -0.598478 3.618236 0.018666 -2.431117 -1.832343 -1.690156 -0.829439 0.908156 1.286284 -0.917368 0.663329 0.804764 3.261599 0.682572 -0.034271 -0.109824 -1.596501 0.796932 -0.864683 -2.033537 -0.127666 -0.939982 0.343057 -0.659421 0.805767 -0.701369 -0.192872 -0.405608 -1.205928 -2.066417 1.600905 
long 0.571671 0.390069 -4.492991 -2.331301 -2.189986 1.490233 1.349882 -3.133661 -1.431104 -0.811882 0.780866 4.626624 2.534242 -0.972531 0.480254 -0.445539 -2.174926 -2.159918 0.265883 -4.689006 0.984115 -2.939285 0.336433 -1.020687 2.207334 -0.169625 1.875833 -0.533683 -0.924768 1.260512 -0.044964 -2.241240 -0.438242 -0.678889 0.476446 -0.590577 0.097142 0.086718 2.784965 -0.376898 -0.114149 1.913154 2.600516 -1.545470 2.634457 -2.256555 1.027673 2.153275 -2.213691 0.329402 1.366021 0.854131 0.968287 3.241093 0.116726 -0.428411 -4.217914 1.088504 3.348999 1.809086 2.175352 0.937503 -1.511121 -1.260708 1.565769 2.066916 1.605263 -2.451101 -0.030358 3.746968 -0.333177 -0.400696 -4.969553 1.456679 -0.879186 -0.806785 0.771861 1.644898 -2.093267 -3.091092 -2.605414 -3.640398 -0.387557 -3.077226 -0.322362 1.658390 0.613099 0.191147 1.926526 0.171529 -2.427648 4.239818 -2.924085 -2.961759 4.023842 -0.725127 -2.775518 3.262251 -0.262970 2.054405 
probably 3.146291 -0.538551 -1.253279 0.019735 0.009955 1.490410 0.108762 -0.482132 1.453101 -1.255681 -0.765391 -0.879346 -4.448872 1.017316 -0.492680 0.931692 -0.753487 -0.251829 -0.594000 -0.497672 2.139166 -1.870954 0.484540 1.772638 -0.413278 -0.044293 -1.033809 -1.305940 -1.692978 1.746298 -1.592230 -0.833499 0.362032 2.104749 0.418302 1.479504 0.861028 -0.638046 0.935207 1.120906 -2.560078 1.867827 -2.560560 0.798819 -0.081664 1.482380 -0.824672 1.853855 -0.288237 0.040463 0.514317 2.084170 -0.312265 0.074058 -1.412765 -1.094617 0.385161 -1.526552 2.701798 2.179296 -2.651696 -2.308459 -0.460306 1.593168 -0.651417 1.340661 -0.206010 0.856756 2.791865 -3.167775 0.818058 0.010713 -1.966696 -0.370014 0.592917 -0.024803 0.631743 -1.224441 -2.143185 -0.631372 1.286806 -2.105349 1.771213 0.071643 -0.119543 2.952102 1.099736 2.811530 1.704333 -0.387453 -0.317859 -2.099821 -2.758377 -1.769247 2.760123 -1.465979 0.252162 -1.262092 -2.446517 -2.154045 
jeans -1.429346 -1.568765 -2.800347 -4.515184 -0.198409 -0.734199 1.008795 -3.780780 -5.209615 -0.386917 -2.004976 0.718399 -0.005761 -1.200053 -0.257786 -1.237945 0.234526 3.320435 0.243952 0.155390 -0.073680 -4.620055 0.034413 2.235497 1.240042 -4.221315 3.396202 1.988834 -0.618988 4.332054 0.217363 -0.494530 -1.483717 -1.606390 -0.518887 -0.342315 0.622685 -2.790543 -3.221960 2.647423 -0.427033 -1.305286 -0.877873 -0.613004 0.134177 0.993114 1.682088 -1.735897 1.706872 -0.385402 -0.786249 0.075388 0.641864 -0.785826 2.159295 -2.925951 -0.715207 -0.346223 1.343303 -2.569757 0.177792 0.295562 -0.099116 -1.880024 3.770796 -0.771388 -2.104769 -2.347790 2.222366 0.904710 -0.221168 -1.352692 2.033885 -0.522517 2.882317 -0.181751 1.189922 0.378490 1.957336 0.751007 2.484957 -0.761697 -0.678629 3.999907 1.321225 -0.338019 -1.391990 0.227846 2.880506 -3.019929 3.634420 0.075691 -2.130226 -2.753641 2.315871 -0.305653 1.452837 0.806575 4.506550 1.460575 
back 0.408940 2.084841 1.141073 0.308782 -2.129375 -0.808849 -0.235696 -0.063113 -1.759403 -6.148678 3.748232 -7.652309 -3.826172 -4.365044 0.758294 2.439626 -2.945503 -0.891112 0.354827 -0.909595 -0.337680 -4.433246 1.416907 3.951348 1.035161 0.758948 2.238943 -1.150697 -2.083982 2.874934 0.514073 -1.452946 0.003579 -0.405594 -1.684213 -0.230588 -0.484868 -2.456924 -0.922761 -4.441837 1.151575 -0.534568 0.095668 -1.163579 -1.763132 -2.345928 0.042951 -0.955657 -1.302211 4.140884 0.364577 -3.470128 -1.998226 -0.056397 2.298835 -1.468486 1.466889 1.730847 -1.919429 -5.288599 0.202841 -2.462476 -1.026204 1.609144 1.086142 3.118209 -3.695474 3.726272 -1.274407 1.198338 -0.681112 -1.490287 -0.394091 -0.705369 0.710524 3.674560 -1.655843 -2.300545 2.417650 -0.277734 2.243052 1.289538 0.464740 -0.152006 3.975363 0.710631 -0.416569 0.558601 -0.716875 -2.564056 -2.095085 -1.032532 2.449417 -1.614255 -2.112752 -3.059844 -0.743439 -0.832396 -1.626448 -1.807740 
pants -1.078949 -2.518465 -4.052748 -4.851982 -3.170367 1.813534 -2.616382 -4.031836 -3.745128 0.985622 -1.678038 -2.133990 0.097999 0.986648 1.081635 0.628313 -2.275263 2.078725 0.616944 0.130485 -0.285913 -1.851808 0.900362 1.995779 0.113831 -1.582967 1.785365 2.921539 -2.518914 3.721420 -0.574182 2.431121 -1.530769 -2.106501 -2.782627 -1.034233 -1.777475 -3.412112 -2.640706 0.750121 -0.216720 -1.307312 0.216097 -0.811300 1.580096 2.065449 2.835775 -1.840730 2.032778 -0.978253 -1.770449 -0.689482 -0.697113 -1.321258 1.178362 -3.136435 -0.995371 -0.675449 -0.407240 -2.351447 -2.007028 1.662937 -0.575141 -0.960526 3.206673 1.325658 -0.209766 -2.696133 1.011857 2.772676 4.711738 -1.915249 1.644422 -2.723799 2.917041 -0.913247 4.198312 0.610983 -0.823354 -0.452973 2.586378 -1.317071 0.282349 3.602928 2.213186 -1.678162 1.735544 0.135436 1.814551 -2.358848 4.154961 -3.254272 -0.204626 -0.654827 0.971352 -1.873475 1.005803 2.123501 3.769413 1.177421 
young 2.106695 3.512820 -1.271464 -0.848103 2.231300 0.465437 -0.202638 -0.309068 -1.282584 1.706101 0.675673 0.543301 -0.567555 2.278769 -0.244431 -2.522242 -0.550649 -0.385613 0.204812 -1.907456 0.173391 1.576441 -0.849261 0.956846 1.355088 0.581192 -0.986101 -0.650289 -3.478401 0.760975 -0.529235 0.777290 -2.075580 0.487246 -1.523315 2.467109 0.772840 0.439167 1.488720 -0.826478 -1.002854 -1.760484 1.635994 -0.470429 -3.056898 2.780190 0.443663 1.549173 -1.019796 1.128147 0.745987 -0.394285 -0.585065 3.346939 -1.517988 2.271492 -1.983861 0.439824 -0.168604 0.181724 0.000590 0.792753 0.593592 -0.168886 1.520454 -0.779659 -0.656139 -0.307154 -0.244451 -0.248787 -1.768828 0.116479 -0.328697 -0.540385 1.959262 -2.040707 -1.688124 -2.255655 1.578397 -2.737167 1.461826 1.042187 -0.510641 -0.326872 1.762726 -5.067819 -0.312458 -0.029010 0.986136 -0.855239 -1.949835 1.843963 0.780696 -1.450045 1.854413 -0.530866 2.110948 -0.016329 1.685274 0.863278 
it 6.274432 1.638796 -1.742853 0.231022 -1.895751 0.272887 7.286861 -0.294223 0.513984 -3.036677 -0.691895 -4.283852 2.301598 -2.012230 -0.077039 -3.193816 -1.419582 1.009071 0.028168 -1.079882 1.375718 -4.031685 3.058949 -0.495703 0.011252 -0.297905 -0.846412 -0.162038 1.746096 -0.133418 0.040565 -0.818946 1.366766 -2.019119 -3.157818 1.479297 4.054733 0.491769 -0.916331 1.953156 -0.930940 -0.022566 1.752035 -2.230506 1.362660 -0.092989 -2.158419 -2.428810 1.097047 -0.744778 -1.882839 -2.468957 -3.283421 -1.565545 1.964747 -2.541546 -1.154517 2.243493 -1.824594 -4.974941 0.075928 -2.862354 4.433273 -2.532216 -0.254076 -1.292316 0.702321 -1.128010 -1.678098 -1.067334 0.493104 0.124762 -0.833164 -3.208510 0.756195 0.043291 -0.472207 -1.653967 1.961290 -2.239488 2.607248 -0.717082 -0.516319 -1.502009 -1.830549 -0.748523 0.496893 0.105715 -1.236411 1.586689 -0.044975 1.058701 0.288603 -0.236733 -1.868233 -1.668733 -1.549716 0.719342 0.656599 1.238410 
shirt 3.533284 3.337115 -0.862635 -0.573662 1.390448 -2.747480 -1.506720 -2.559669 0.817586 2.046705 -0.550899 -2.305695 0.331413 0.781256 -2.970186 0.365622 -0.030423 2.133490 1.186244 2.006505 0.963882 -2.015547 0.210183 0.515771 2.353522 2.430561 1.420114 -0.430321 1.009444 1.026758 4.025867 1.563289 -4.606477 0.066162 0.707748 -3.228298 1.496535 2.066236 -2.353219 -3.702198 -2.202574 -1.221485 -2.493485 -1.984125 -1.030269 2.092862 2.313418 -1.375299 -0.839537 3.173702 -0.554019 0.525057 2.896893 -0.289782 1.955478 1.143316 -1.978891 -1.606790 3.183198 2.632624 1.541017 -1.854130 -1.784703 -3.452413 0.294475 0.245672 -1.814497 0.079073 -1.291983 3.288221 -2.629997 -0.694397 -1.591558 -3.755358 -1.049132 -0.919826 0.373287 1.505020 -1.818626 -4.328028 -0.943846 0.574270 -1.990709 -0.152935 -1.874995 4.754503 -1.331744 2.026653 1.600524 -1.483364 0.485464 -1.814487 6.891627 -2.160716 1.233909 0.535998 -0.577412 3.405385 2.399129 -4.253475 
backpack 2.647036 4.910041 1.930311 3.954179 -3.283806 -6.249138 -3.488873 -3.115380 1.689766 3.635020 -3.670437 -4.733325 2.212919 -0.480895 -0.461073 2.783801 1.560456 2.927329 0.166260 -0.644025 1.310400 0.316957 2.762480 -0.834032 2.172189 0.721393 -3.465922 0.162048 -0.795774 3.557285 -0.423418 3.119508 2.378473 -0.083667 -0.000489 -1.948934 4.027560 -2.401442 -2.900118 2.930655 1.213968 -0.957065 -0.903681 -0.360000 0.290530 1.704761 0.408676 4.281579 2.568490 -0.388533 0.977536 -2.793040 -1.703560 -0.030957 -3.235005 -0.781254 -0.995864 1.167530 -3.357165 -1.365576 -2.681987 -2.407493 2.154293 -0.794429 -1.620811 1.267821 1.172454 0.225997 5.114572 5.217731 -5.624391 -2.068171 -1.200376 -2.975827 0.865852 1.991895 3.092305 2.102114 -1.654306 0.098915 2.422607 -1.178339 3.144740 -0.374154 1.906292 1.770624 -2.262655 0.978048 4.378301 1.242422 1.424335 1.090584 1.882463 0.123742 1.440788 3.140349 -1.520656 2.285677 2.936337 1.110613 
brown -1.127669 0.067337 -1.658049 0.263924 0.481054 -0.116798 2.927037 -3.743183 -0.636231 -4.179928 -1.051730 0.047898 0.721521 1.037773 2.142601 -0.698695 0.906209 -0.759541 -0.999280 2.140314 1.347813 -0.526847 -0.612252 -0.615223 -0.293051 -0.337013 1.784492 1.164521 -1.024217 -2.669258 -3.034462 0.654180 -1.794473 0.585608 0.993732 -0.020813 -0.024863 -0.439134 3.962036 0.704515 -0.760686 1.023439 3.181850 -0.117151 -0.996101 -1.245842 -0.978154 -1.121060 -0.802538 0.995909 -0.008494 2.133962 1.538981 0.768912 -1.831372 -1.051061 1.508712 -0.780973 0.249625 -0.221504 -0.604622 1.678976 3.317562 -0.840260 0.403143 2.581523 0.579000 -0.153141 1.528399 0.527272 -1.134925 -0.217291 -2.557888 -0.398335 2.283551 -0.304581 -0.171856 0.204738 0.674520 -1.304217 -1.756181 1.903665 0.779028 0.479826 1.021203 0.232591 1.070150 1.505257 0.232376 -2.401405 0.792128 -1.044277 1.688059 0.463092 0.698699 0.440409 1.274951 -2.614275 -1.564557 0.272673 
girl -3.041102 2.451504 -3.452361 0.790098 1.175912 0.133968 0.836377 3.046506 -0.597028 -2.575480 -0.910612 0.789853 -0.186173 -2.246833 1.355126 -1.068649 2.109995 -0.996559 4.612318 3.539406 0.774206 2.699088 0.221087 -2.585629 0.064508 -0.333909 -2.804370 3.796844 0.812358 -2.232938 0.360333 0.923104 -2.628475 -1.232800 0.102595 -1.726384 -0.027274 -3.400893 2.326822 2.050558 -0.558305 1.609400 -3.693413 -1.755008 -2.029657 -1.569676 -1.884918 -4.584843 1.808643 -0.650558 1.243673 0.238214 1.606140 -1.909851 1.300417 6.820443 2.566541 -1.254207 1.246585 2.364498 2.748224 0.835657 -0.673980 1.808552 0.838910 0.528803 -0.205115 0.053858 2.110063 0.999156 -6.405890 -3.370797 -3.539408 -0.307170 0.275253 3.988859 -0.388187 4.937747 1.402482 -1.255280 2.588748 2.432017 -0.333958 -1.598297 0.390897 0.013541 3.806514 5.363788 -2.804863 1.173184 -1.412281 1.120783 3.596653 -0.978574 0.763912 -1.412381 -2.441402 2.100285 1.572720 0.228091 
red 0.060604 -0.251503 -0.275457 -0.125467 1.189931 -1.586874 1.644832 -0.589397 -0.542701 -4.408130 1.482512 -0.141516 -2.219186 1.987958 2.038225 -4.259260 0.193221 0.392169 -0.189761 2.010423 -0.104478 -0.546889 0.355961 -0.286447 -1.787597 -1.431355 1.871940 -0.316043 0.305748 -1.301348 -1.984773 2.386409 -0.338967 0.216775 0.196891 -1.328497 -3.960166 1.428636 1.834534 -0.052300 -1.222623 -0.059708 -0.203485 0.691398 -0.490811 -0.440561 -0.459717 -1.211601 -2.349697 0.700901 0.927647 3.801173 0.961015 -1.604865 -0.802285 -0.292292 -0.158325 2.869765 0.508125 -0.214038 -1.326743 -1.393335 2.510322 -0.136901 1.767259 1.553711 3.610119 -2.597442 0.348618 1.359697 -0.692318 0.421458 -2.337549 -1.181210 0.850120 -2.204251 0.378752 1.562193 -0.145068 -0.420466 0.672983 1.728945 -0.586296 -0.227897 0.528859 -1.121127 -0.759108 0.212621 1.216962 -0.307580 1.691272 -0.675792 -0.776949 -0.493793 -1.581025 -1.327582 -0.871604 -2.373715 0.169304 0.972583 
t-shirt 1.606977 3.045716 -0.562426 -0.484796 -0.177673 -1.813278 -1.497072 -0.481394 2.592047 2.934829 -1.724552 -2.139839 -0.369033 -5.721589 -3.153380 0.885926 -2.221567 1.655012 4.390174 1.798967 2.077635 1.412738 0.481076 3.179416 -1.427178 2.872285 0.824162 -0.493582 0.749825 2.533251 1.954615 -0.852133 -2.509183 -0.883745 0.000289 -1.881757 2.173696 0.112431 0.436203 -2.991119 -1.863353 -1.470124 -1.660337 -0.768587 -2.583928 0.813639 0.877067 -1.956525 1.465862 3.061310 -3.023528 -2.405172 0.333425 0.923980 1.397046 2.046823 -2.185109 2.313080 0.088169 3.009489 1.854881 -1.806265 -3.430465 -3.346261 1.038691 -1.471451 -2.997756 0.604029 -0.308039 1.181533 -0.741778 -2.458319 -2.666678 -4.816434 1.302445 1.228470 1.490166 1.451793 1.938125 -2.183774 0.075066 -1.101273 -0.489662 -3.048307 -2.545638 4.458049 -6.069628 1.255038 2.055998 0.030726 -2.846125 2.370029 4.119760 -0.003273 -0.753552 0.752427 -4.783025 4.068796 -1.271505 -2.321941 
camera -3.654123 0.005630 2.022246 5.923880 1.922913 -9.251513 -4.246614 -0.058664 -4.354544 0.415743 -1.015338 -0.225742 -2.110024 -2.628621 -6.971468 -1.609019 -1.127051 -3.501537 -1.363989 4.113664 4.610787 -0.798636 -2.508402 -0.868711 -0.678278 -3.343737 -3.364078 -1.375732 -1.501532 2.038036 0.729212 -2.244355 1.028832 0.693085 0.844933 3.172194 -2.909320 -0.768804 -1.036190 -1.383092 -2.139124 -0.871524 1.457819 0.014687 3.877267 5.271122 1.886451 -3.121424 -0.142617 2.013391 -1.762512 3.352961 1.243905 1.853783 -0.717770 1.059542 2.596893 1.517706 -2.117269 -3.545046 -0.045177 0.973633 -1.854064 -4.501152 1.021530 -2.563136 0.302541 0.477968 -1.220887 2.118822 2.480108 3.552230 1.970228 5.800228 5.366013 -0.057907 4.737250 7.341675 0.425667 -0.948445 -0.941112 -1.983210 -4.353981 -0.497629 -2.086763 0.513249 2.496370 4.724036 0.229234 -0.429796 -2.841515 -0.415475 -2.177182 -0.903951 6.161824 1.633662 0.020590 3.158646 -0.857489 5.007441 
jacket 3.306311 3.685439 -0.861364 -0.822313 -1.107748 -2.435673 -4.625381 -1.000727 0.762870 1.424304 -0.198215 -3.717866 0.534663 -3.024601 -3.346900 -0.048612 1.999741 1.439611 3.602956 -0.557269 0.663796 -0.460467 0.339860 3.004197 0.388740 1.162675 -0.063749 0.935498 -0.007539 3.830447 2.582171 1.843389 -1.208093 0.557144 1.647296 -5.034020 1.132322 -0.893725 0.942759 -1.420818 0.020598 -1.044028 -1.126334 -0.834811 -0.957173 -0.735725 -1.174747 0.178674 -3.737646 -0.513351 -1.490788 -0.798639 -0.993574 -0.208501 1.373948 2.132026 0.824244 1.028176 0.502469 -1.674579 1.215959 -2.338817 -0.464769 -3.553523 1.330384 1.494324 1.009191 0.181571 -0.525014 0.415839 -2.410469 -1.994781 -2.503953 -3.836719 0.706970 -1.679773 3.464710 1.791308 0.570403 -3.935986 1.304693 0.442287 -4.385817 -1.277841 -1.838735 1.565860 0.541912 -2.227479 0.300582 -1.092752 0.602867 0.893321 2.114269 -1.367825 2.277996 -0.493359 -0.756518 1.281635 1.708372 -0.797503 
top 1.261744 2.938561 -1.608966 0.005543 2.009691 -1.042238 0.568278 1.201459 0.340095 1.909868 -1.096986 -1.712224 3.671120 -3.253938 -3.800694 -0.066995 0.263111 4.667372 2.819212 0.744125 2.375994 -2.322207 0.609583 1.344516 1.413037 1.883269 -0.213653 -0.213772 3.750995 0.646162 0.103595 -1.369825 1.179314 -1.990510 -1.603137 -1.639727 1.434945 -1.985794 1.423124 -2.569917 -0.815354 -1.037457 -1.230033 -2.046382 -0.641978 1.951548 1.473863 -2.101736 -0.888347 2.048498 -3.072058 -0.899159 2.035902 -0.557905 -0.769280 3.291739 0.123020 2.803335 0.555184 -0.431315 2.445913 0.079208 -1.517549 -0.261438 1.503670 1.762894 -0.673514 -0.926168 1.509771 0.994540 -2.349102 -2.315760 0.335015 -6.006646 -0.046011 1.762699 2.095518 1.412166 1.803878 -4.458685 -0.802420 0.573061 -1.069074 0.625771 -2.321975 2.756944 -0.284530 1.738534 -0.159284 -1.697290 0.120098 -0.872822 3.147894 -1.573492 0.252144 1.277384 -0.915390 0.103482 -0.072924 -1.649207 
light 1.350094 -0.174957 0.920514 -0.860581 0.353536 1.017690 -2.088089 0.580410 -0.748858 -1.859569 0.486177 1.459340 1.090532 0.309810 -0.747389 -1.970360 1.951066 -0.256816 1.422843 1.597719 0.443365 -1.170189 0.079641 1.963083 0.849307 -2.671645 0.015958 0.998106 0.871060 -3.225196 -0.323580 2.089905 -0.031014 0.262861 -0.835941 -0.734355 0.727871 1.654877 0.317080 1.372350 0.725005 -1.349163 0.826658 0.650089 -0.324055 0.832995 -0.097156 -0.814306 -1.090890 -0.009911 1.284855 0.269020 1.613776 0.536656 2.883931 -1.729831 -1.941783 3.406988 0.596916 0.624001 -1.284182 -1.398756 -0.071961 -1.613423 -1.132097 0.065800 0.989992 -1.396384 1.070042 -1.898003 -0.156259 -0.424548 -1.663371 0.954703 0.823600 0.722165 -2.249048 1.099867 -0.533790 -0.253894 -1.950850 -0.635350 0.139216 -1.501583 -1.800022 1.952260 -0.736795 0.516753 0.286481 -0.091917 0.238582 -1.680110 -1.430636 0.215080 0.144317 0.970180 1.891798 -0.681120 0.840482 0.312881 
carries 0.340786 -1.352967 0.994883 -3.940624 -1.725853 -0.221629 -3.197026 5.050161 0.269937 -3.344991 2.536675 -0.475209 -0.406939 -2.171470 3.137857 0.483050 -4.697868 -2.914978 -0.127155 2.816431 -1.970383 -1.935771 -3.672041 -0.720787 1.747424 2.507927 -0.592162 0.664969 5.055343 1.757436 -1.666103 3.034398 0.453913 -3.576472 4.687013 3.129349 2.304273 -4.627066 -1.380736 -1.548307 -3.656755 1.729509 0.391046 2.405164 -0.772623 1.543948 -1.271495 0.350148 -1.690592 0.674234 -2.639331 0.664528 -0.290295 -1.307062 3.274569 -1.695106 2.147409 3.416348 4.058689 5.317746 2.452299 -4.999946 -0.675387 1.083932 5.653373 -1.487948 -5.235593 2.297330 0.815437 -1.867122 2.922480 -0.530546 3.459594 -3.673619 4.039316 -1.404920 -1.059794 1.783030 -2.918502 -2.051147 0.713027 0.058196 0.471243 -4.388689 -0.409163 2.955905 0.323162 -2.180055 -1.293169 -3.946272 -1.452053 0.419394 0.361379 5.038297 3.700207 2.141609 1.709017 -2.934356 -5.442594 1.340773 
holding 1.761475 2.423794 2.420679 -1.263983 1.258462 0.524224 -0.896979 3.013316 2.092475 -1.297302 2.754585 -1.769330 3.847927 -1.116340 0.237392 0.309491 -0.700798 -5.003067 -3.138365 -4.460028 2.222291 -2.908781 -5.160639 0.000780 -1.384912 -1.601429 2.000594 3.250379 2.913050 1.142786 1.289666 4.607604 -1.266839 0.015605 2.663091 2.979809 -1.873779 -1.498911 0.709853 2.368790 -2.590353 1.240965 -1.666503 0.589462 0.937230 1.715420 2.227666 0.340018 0.122205 -1.504891 -3.785651 -2.140103 -2.054086 -0.928997 0.481333 -3.494074 0.367571 -0.240337 3.253127 1.688615 0.253203 -2.234105 -0.008816 2.434213 1.532802 -1.453787 2.390411 4.871837 4.919321 -0.873820 5.155667 -0.775194 5.471906 1.006196 3.007041 2.005590 -0.600827 -0.557578 -0.269127 -1.752686 1.585359 2.004546 -1.726418 -0.980119 -4.756978 0.644797 -0.475093 2.480119 -0.466414 -3.643607 -2.221837 3.409713 1.415294 2.836542 -0.900345 5.044504 -2.509723 -0.527777 1.493092 -0.947964 
walking 5.130048 0.469281 -1.474630 -1.711861 -0.044546 -2.737410 0.105797 -3.982028 -3.292121 2.232472 0.432010 -2.443504 -0.525270 3.300571 0.836556 -1.243795 -1.280498 -3.799831 -0.019824 -0.211652 1.108254 -3.493896 -4.115501 2.629013 3.071097 -2.826282 0.965701 2.005524 1.787055 0.666177 -1.499621 1.029010 -0.441359 -3.794165 0.704940 2.478347 0.795340 1.298079 1.354634 -1.777171 -3.584751 -1.572362 -1.069497 -0.439703 2.828255 -2.478627 2.635837 -1.477493 0.988695 -1.769629 0.386072 1.146111 1.865752 1.276268 -1.003931 1.696521 0.268177 -0.162854 -0.398160 -0.446838 -1.494923 -1.014464 2.954117 4.138373 -2.631645 0.802163 0.260469 5.222614 3.129221 -4.428414 3.480461 -1.598111 -0.920573 1.621801 -2.596719 3.578395 -0.350932 -4.292330 -0.254670 -1.856247 1.958907 0.352524 -4.005673 2.959881 2.778407 1.939508 -0.511807 0.467352 0.344905 0.349988 0.213149 -1.325806 1.553228 0.066400 1.239955 1.301416 -2.576152 1.794912 -0.697411 1.484022 
tall 3.981960 2.567065 -3.813525 -0.016460 0.343935 0.608699 0.601922 -0.260010 -0.321506 -0.905825 -1.200716 2.785614 -3.976955 0.591425 -0.372472 -2.094932 1.501648 -1.624527 -1.136393 -3.682128 -0.205130 0.976111 -2.845556 0.424047 0.660813 -0.171228 -1.647570 -2.146438 -2.976635 0.084843 -0.315497 -0.704659 -2.836157 0.300852 0.844355 4.287690 -0.640395 0.555215 0.919784 0.100624 -0.707858 -1.508120 2.996688 1.140720 -0.724737 1.667043 0.309745 1.723434 -0.073734 0.700149 1.051017 0.554956 1.757188 1.614557 0.367303 2.300401 -1.966602 2.127558 -0.134285 0.934332 -2.043230 -2.409984 -1.297860 -2.380114 0.719813 0.628044 0.530859 2.806583 -0.806954 3.120951 0.304306 0.184654 -0.126330 -4.109823 -0.071267 -1.518273 -1.409660 -0.721359 3.327847 -0.656078 0.750778 2.002425 0.314962 1.516457 1.180290 -1.634503 -0.232775 1.231403 0.888118 -0.090184 -0.871867 -2.876304 -2.045069 -0.987318 -1.671957 0.374579 0.341313 -0.158820 1.482162 -0.345140 
shorts -0.247257 -0.048274 -3.898770 -2.399418 -2.156613 1.027870 -1.431546 -2.505009 -4.151136 2.214417 -0.822164 -1.626245 -0.488970 0.187567 0.189775 -0.286001 -0.998740 1.602025 2.432010 2.059731 -0.515085 -1.272039 -0.180448 3.697167 -0.658066 -0.085630 0.133514 5.876760 -0.921396 4.371424 1.141831 0.436879 2.116224 -0.923849 -1.709642 0.622379 -0.678539 0.100365 -2.842880 3.997088 -0.186591 -0.833860 -0.826842 -1.736182 -0.762417 1.364400 3.257541 0.914556 2.355261 1.221180 -0.952429 1.061681 -0.510705 -1.572725 2.217102 -1.881219 -0.966730 0.219007 2.217844 -3.522865 0.448785 0.537746 1.802017 -3.676850 0.881989 1.029789 1.515137 -1.190427 1.682615 1.775870 3.581428 -1.991249 3.852446 -0.282184 5.107447 1.411782 1.938411 -0.552199 0.567066 1.636280 0.290323 -1.847825 -0.411538 2.759391 1.263615 1.466993 -0.371433 0.291031 0.474555 -4.096107 2.246626 -3.180633 -1.622917 -1.400897 0.523848 1.733157 1.704126 0.805305 2.159107 -1.230247 
slim 3.637871 -0.831034 -2.187980 1.151338 2.842908 -0.497060 -1.232731 -0.111427 2.090708 2.358609 2.538045 -0.836519 -1.652988 1.208291 3.168231 -2.304336 -1.232269 4.771067 0.446555 -1.450341 -2.691423 -0.968394 -0.049441 -0.235215 0.260804 0.800816 -0.219104 1.129524 1.529694 1.675926 -0.442479 2.092036 -1.022437 0.918493 -2.509699 -1.820588 1.473533 1.887722 2.270357 -0.323551 -0.560385 -2.653445 -0.053347 3.154674 -0.291880 -0.807615 4.067563 1.406235 -1.336764 0.307530 -3.272246 1.293513 1.049984 3.095997 -3.122100 -0.237685 -0.301871 1.173066 0.538317 -1.454962 -0.572557 0.219633 1.750571 -0.084931 0.096391 -1.253960 -1.270002 1.034396 2.273354 -0.440377 -0.162754 3.900257 -3.102278 -0.174200 -0.563048 1.533789 1.444255 0.297408 0.837471 -0.845368 -0.730476 1.836439 -1.068951 -2.964698 -0.120043 -1.675469 -1.666837 0.784741 4.009543 -1.598956 -3.576304 3.803444 3.118315 -0.624452 1.176323 2.288956 2.153477 -0.692935 -2.338545 -1.547572 
trousers 1.437044 -2.310188 -2.255750 -2.776384 -2.508389 3.466449 -1.521426 -1.690268 -5.782054 -1.273608 1.610348 -0.813693 0.246257 -1.142060 -0.545937 -0.462686 0.667193 5.251253 -0.726322 2.468139 0.939169 -1.293305 1.447333 1.472482 0.346358 1.861426 1.067723 5.270851 -2.190307 2.169405 -1.266306 1.946532 -1.060411 -0.630533 -3.085269 1.054138 0.387270 0.001448 -3.766719 2.200451 -0.021975 -1.096507 -0.358293 -2.070258 -0.554582 1.565054 3.508588 -1.174369 3.882712 0.470337 0.091353 -2.872520 1.069991 -1.812056 0.978344 -2.121194 -2.245392 1.304075 -0.100562 -3.672608 -0.721768 1.305236 1.443491 -1.258699 1.513208 2.263050 -0.288368 -1.044901 0.757565 2.655174 2.418372 -0.728432 2.914608 -1.516056 1.275906 0.059114 3.520298 3.373390 2.038344 1.745553 3.597456 -0.367118 0.254936 2.032629 -0.821461 1.881340 0.482034 -0.717315 0.910426 -3.451819 3.047793 -3.605722 0.109273 1.027108 2.321627 -1.808159 1.136639 2.480819 3.269691 -0.418154 
boy -0.743079 2.412765 -2.483893 -0.635768 0.232235 -0.133148 -2.095269 -0.075868 -1.346035 -5.561334 -1.123810 1.994542 -0.314040 2.243585 -2.116638 3.082855 0.935891 -2.544310 6.168658 3.867746 -0.331776 1.798129 5.304851 -1.707793 -1.021787 -0.302455 -1.620438 0.937623 -0.717080 -0.544618 2.539837 1.119830 1.067553 1.132182 3.391773 -1.528959 1.130699 -1.735589 0.912722 0.845931 -3.156082 0.937447 -0.538370 -3.760742 -0.143177 -3.551600 -2.866457 -6.173835 3.225882 -0.840895 -0.963230 -0.827921 -0.577010 -1.779357 3.131317 4.200336 2.019414 -1.496119 -0.022612 1.743495 3.549451 1.051827 -0.770166 -0.459634 0.422406 1.400482 1.701883 2.153761 3.786889 0.441476 -3.289845 -0.356463 -4.000845 -0.255349 0.573783 6.264613 1.476990 4.014718 1.063706 -0.382722 4.036982 0.573807 -1.847190 -0.908319 -1.935383 -1.008297 1.454592 5.640180 -0.493832 1.261574 -1.988419 2.012806 2.341124 -1.888600 0.460396 -0.091580 -0.027099 1.351065 1.221239 -1.212516 
appears 1.228401 -4.043937 -1.588434 -2.278002 1.423539 -0.986619 0.773472 -3.015634 2.118567 -0.963149 0.489854 -0.541524 1.190344 3.440813 -2.265730 3.849520 1.893284 0.444230 4.272706 0.410071 -3.609876 3.433384 -3.582337 -0.306367 0.748924 3.367085 -0.063170 0.263518 -1.033519 3.303107 1.777502 -0.461651 6.241333 0.054518 -2.597575 3.129010 -0.254452 -3.441546 0.388025 -2.785590 1.710145 -0.777743 5.577269 4.933723 1.548174 -1.297868 4.460870 0.068981 -1.658722 2.788510 1.915978 5.140796 3.841467 -0.825103 1.644041 2.195244 -1.605792 -0.890323 -0.489528 -2.307157 -1.531127 -5.372636 1.920393 -0.603303 1.554641 -7.135015 -2.150615 -3.541754 1.854899 -1.210706 0.354335 -0.811370 0.110604 2.774142 -1.210321 -2.580930 -1.925199 1.403642 -3.929527 -1.617874 3.288996 4.586304 -2.132883 0.706530 2.849766 4.255927 0.965229 1.769520 -3.856786 -1.549807 -3.984522 -0.170412 -4.084308 5.847142 1.800559 -4.793987 -0.195644 -1.610608 0.839407 5.398317 
something 0.622284 -1.877615 0.044905 1.703943 -0.331185 2.342964 0.390848 -5.218940 -0.525853 1.760879 -0.144962 -3.287696 -0.021578 -0.968623 0.975631 -0.501557 1.393747 -3.162783 2.820616 1.079038 -0.007645 -0.796287 3.994481 -0.662902 -1.737558 -0.116984 -2.879021 0.961923 -1.172276 -2.752912 2.403720 -2.868963 3.192621 -1.228613 2.615929 0.989887 0.301538 0.435192 0.518839 0.968052 -1.750723 -2.831376 2.519487 4.216398 0.389766 -1.166204 2.461213 0.819506 3.024812 1.532848 1.451729 -0.018506 0.498407 0.715888 -3.770230 1.882564 1.131737 1.136396 -4.663337 -3.455650 1.211280 -1.848377 0.809104 -2.485493 3.720987 1.865687 0.269235 0.903802 2.095975 -3.565202 -2.831786 2.117756 1.021713 0.757793 -2.142067 -1.805079 -3.777147 1.702908 -0.085196 -0.170609 1.452720 0.663433 0.160308 2.767942 2.309971 -2.020186 0.517786 -1.973305 -5.074189 5.189157 2.064536 -1.029709 2.241380 -1.229777 2.751115 -2.855435 0.373097 -0.106643 5.331206 -1.616928 
woman -3.338390 0.530963 -3.558315 2.308354 0.765209 1.761960 -0.308921 1.265505 0.841832 -2.398424 -0.328390 -0.010678 0.309609 -3.220787 -0.353877 1.463048 0.089290 -2.032913 1.805579 3.840797 -1.857718 1.549389 0.832558 -2.794167 -1.843808 -1.660438 -1.631631 1.219597 0.672676 -0.779931 -1.829193 0.920949 -1.545852 0.402417 -0.594662 -2.912266 0.193057 -0.903453 1.767205 2.323189 -1.075925 0.471268 -5.427047 -2.521248 0.077453 -1.916715 -0.842792 -4.440247 1.412073 -0.120586 0.195318 -1.125953 1.842714 0.030624 -0.083259 4.316087 2.490039 -0.801547 0.188622 0.406509 5.337792 -1.351797 -2.446005 2.373204 0.085913 -1.656295 0.218752 -0.950337 2.234690 0.061898 -5.594588 -3.551970 -3.655903 -0.188137 0.969921 4.171967 -1.681668 4.749139 0.001218 -1.650530 0.846309 3.640530 -2.048223 -3.429780 1.390704 -0.540824 1.537483 3.869969 0.174040 0.774753 -1.391556 0.213754 2.149990 -1.812120 3.779815 -1.163031 -1.778004 0.406694 1.585638 0.496185 
an 1.795650 1.060142 -3.135331 -2.175203 -2.057715 0.366417 0.028802 0.704009 1.757618 1.512954 2.797025 -0.278766 2.375303 0.234974 0.457077 0.086394 -1.958359 1.016491 4.227281 -1.000158 2.382852 -0.062497 -6.381056 -1.209661 1.131714 2.004107 1.407458 -0.724866 -3.335458 -0.155772 -2.346222 -0.702729 -2.483977 3.413105 -2.817912 3.440980 2.999392 2.046278 -2.179197 2.388375 -4.150450 0.527507 -1.266266 0.996154 -3.370875 -0.743316 0.447353 0.250747 -0.285404 1.692246 5.194178 4.807727 -2.600459 -0.872447 -0.103081 0.809608 -0.933198 0.559941 0.012680 -0.552358 -0.576718 1.281761 1.529031 0.450451 -0.077421 2.004555 2.339377 -2.132542 -1.408016 -1.005877 -0.159970 0.939702 3.798235 0.809319 2.240387 0.533911 -0.371633 -0.954556 3.272573 1.569019 -5.337123 0.582900 -1.869718 -0.601357 5.974739 -3.000373 1.792085 0.945305 1.198664 7.199452 -1.060909 2.926533 -3.707897 -1.850604 -3.932740 -1.491115 3.351624 0.445969 2.778124 -0.536072 
tshirt 2.394361 3.477758 -2.620489 -0.454952 1.869526 -1.311436 1.153384 -2.109905 -0.088091 5.313456 -2.276335 -3.779023 2.079451 -0.599999 -2.559557 0.813272 -2.943335 3.125103 2.609958 0.735902 2.928405 -2.187170 0.732267 3.706820 1.794740 1.902359 -0.225726 0.704394 1.862561 1.277161 2.033690 1.840036 -0.411178 -1.917472 -1.560371 -3.482342 3.776026 -1.643146 -1.323315 -2.527926 -1.800466 0.816776 0.340077 -0.394852 0.332314 1.786051 -1.367024 -2.580723 1.327420 0.623632 -1.876682 -1.984408 2.559614 -0.469683 0.209445 3.981217 -1.871834 -0.203031 0.054401 2.655020 3.527238 -2.140419 0.540476 -3.874944 0.959711 0.075730 -2.564488 -1.800156 -3.656291 4.202258 0.586513 -3.781959 -2.133864 -1.847651 3.571860 0.956500 -0.076089 4.407495 -1.024868 -6.014022 -0.208988 0.917129 -1.770292 1.053604 -3.186577 0.635317 -1.064859 3.921886 2.850591 -0.126925 -2.153174 -1.058087 3.462291 -4.136574 0.944477 -2.753799 0.934044 1.784478 1.669695 -4.454289 
are 0.681625 2.008381 5.471624 -0.744419 -2.285300 1.122174 -0.962317 0.423186 -2.277302 -5.442765 -1.799001 -4.028923 0.034763 -0.807889 3.169587 1.763466 3.429141 1.951674 -0.390991 0.118610 0.395614 2.393816 1.676733 -1.633654 3.992736 1.017987 1.362510 0.221437 1.047916 -0.515157 0.763846 2.979923 0.876477 -0.227619 -0.264884 2.387973 -1.299268 -1.142908 -0.468233 -4.675481 -1.504601 1.858524 -1.127384 0.801478 -1.758582 -1.756314 2.581238 1.792816 2.799989 1.037314 -2.171598 -1.540799 -0.854862 0.835873 -1.287951 -0.567443 0.860791 0.790513 2.614333 -0.109187 -0.803441 -0.301591 -6.980478 -2.356305 0.506933 0.479244 1.046429 1.838522 4.867207 -0.752353 -2.217324 -0.251465 3.294694 1.286863 -0.206942 -1.128844 1.418592 0.739999 -3.219870 1.619774 -1.798092 -0.433118 -4.353952 1.947518 1.955777 0.760399 -0.545089 -4.744879 0.372664 2.605953 -2.230366 -0.693198 -0.854404 0.239302 0.663987 -0.640386 -1.654608 -0.295840 -1.994361 2.383873 
asian 0.814598 -1.594335 -1.347037 3.131780 0.100718 0.219829 1.155814 -1.772978 -4.503563 -1.531567 -2.867185 2.469632 -1.081179 2.438914 2.293070 2.433007 0.473748 -1.704378 -4.736391 0.125837 -1.539742 -0.947363 2.801044 1.134599 0.210662 0.831459 0.296086 1.184684 1.051198 -0.062942 0.947052 -0.223592 2.274522 -2.326004 -2.808912 0.148680 -1.846040 -0.120270 1.969956 -0.342451 -0.053509 -3.482528 3.895977 -1.373455 3.945978 1.233653 0.444538 0.291950 -1.135323 -2.438451 -2.514954 -2.725558 3.447850 2.449874 3.187901 -1.473417 -0.595577 0.207949 -3.275555 1.098591 1.216584 -1.354782 2.096503 -0.622916 1.997762 -5.547223 -4.050838 4.012190 1.972887 3.234468 0.860173 0.202582 0.524686 -1.050540 -2.768129 -4.654940 -2.814769 5.117764 4.842245 -0.162768 3.760264 2.240804 -2.995399 2.070242 -0.857307 -0.742319 -0.989632 -0.226973 -0.064055 -2.321734 -1.859956 2.724470 0.984101 0.052228 1.734666 1.163479 0.918495 3.305372 0.144615 0.090758 
this 3.065319 -0.238336 -0.946517 3.426395 -1.087558 1.982164 -0.777167 0.471410 1.535689 1.268096 0.345164 1.373755 -5.263600 2.052373 1.800728 -0.975619 3.022767 -1.432022 -0.283317 -2.962573 2.522252 -2.066613 -0.881499 -2.360497 -0.317874 -1.190211 -1.524736 -0.035223 2.108244 -0.341588 -4.238062 -1.697139 1.015159 3.926641 0.126653 0.614720 0.350159 2.641886 3.660929 1.862485 0.813171 -2.476104 0.417073 -1.336935 -2.001027 3.515413 0.645371 0.459455 2.167603 2.956954 1.424178 -1.490909 -1.093405 1.016629 -3.343603 -2.756820 -1.825839 -1.517597 -3.593145 -3.404425 1.007402 -1.485809 3.536993 3.077877 -0.100396 -1.734230 1.497145 1.130677 1.752651 -1.336693 3.882658 2.143653 0.484963 -0.816654 -1.221740 -1.409445 0.577961 -3.432644 -0.831875 -1.124986 -1.272761 -2.226684 -1.541572 -0.012930 -2.387299 -1.835179 -3.203760 -0.545393 1.657295 -1.248495 -3.155591 0.564394 2.899441 -0.610825 -5.392789 0.220946 -2.103260 1.205736 4.333327 4.226445 
green 0.063635 -1.030596 -1.152481 -0.372477 1.453185 -0.963390 1.808949 -2.586094 0.898445 -4.217285 0.449869 0.646195 -1.333688 1.459592 2.111363 -1.772197 -0.379399 0.245525 0.351062 1.256960 -0.314405 -0.729086 0.630653 1.445728 0.193238 -0.446440 1.124564 -1.200925 -2.019080 -4.150280 -1.265811 0.747391 -0.530741 -0.302964 -0.714521 0.887268 -2.851197 0.493916 1.855752 0.347767 0.010555 2.502729 -1.255597 0.357916 1.188576 -0.369754 -1.732672 -0.923828 -0.198338 1.572610 -0.238453 -0.270226 0.594263 -0.125152 -0.578988 -2.760928 0.938453 1.305493 -1.818341 0.373356 -0.468049 -1.061959 2.266588 -1.134939 0.276104 1.937150 1.970298 -3.147905 0.141690 0.583149 1.089832 0.133263 -1.934266 1.781272 -0.477166 -1.364170 -0.185878 1.284286 0.507520 -0.868581 1.124951 2.366868 1.442208 -0.493783 0.166052 -1.654267 -1.308204 0.128495 -1.246961 -2.973251 2.205830 0.969269 -0.764970 -1.371958 0.628586 -1.256160 -0.173946 -1.515035 0.956390 -2.378903 
beige -0.946545 -0.199344 1.524622 1.213517 0.522366 -1.480289 1.599306 -2.907727 1.818121 -3.678202 -2.197518 0.636389 -1.790033 2.137220 3.137509 -1.097615 0.379827 -0.111161 0.852164 2.074290 0.913127 -0.911018 -0.597343 -1.623644 -0.418258 -0.036878 1.038291 0.067543 -1.402496 -5.242789 -0.515942 4.094592 -0.553288 1.319968 2.107225 -1.229844 -2.468879 4.567015 0.969652 -1.280451 -2.129978 2.055155 0.656601 0.387612 0.355081 -0.720100 0.402945 -0.818468 -0.102140 -1.154413 0.828778 2.067844 0.932715 -0.190585 -0.798354 -0.354999 1.704316 -0.791319 0.697492 -0.248833 -1.516133 -0.840076 4.169192 -2.745849 0.834138 -0.304700 1.609271 -2.014595 1.570155 0.938359 0.419693 -1.233280 -1.503012 0.388867 0.340335 -1.843494 -1.915524 0.985095 0.549771 0.917570 -1.106765 0.644501 -0.282072 -0.695724 0.117197 1.057169 -0.001692 -0.044372 -1.884189 0.315899 2.432207 -2.246946 -0.502102 -1.046610 -1.942314 -0.181547 1.430163 -3.387738 -0.907724 -0.792518 
which -2.528782 0.136338 -1.765524 2.297832 -0.498821 0.339246 0.613007 -0.149005 -0.846784 1.123517 2.265589 -2.803179 3.199811 0.649358 -1.690321 -0.038415 -0.799984 -0.344998 2.387934 -0.957563 2.856508 -2.291743 2.680522 0.186369 -0.156749 -3.370242 0.897291 -0.167535 2.166025 -2.599994 -3.800967 -0.661987 -2.161543 0.326717 0.332154 0.636834 -2.121360 -1.555672 1.284194 1.561396 1.683562 -2.938456 -3.271157 -2.523321 0.767862 -0.405583 0.230346 -0.056066 1.676934 -0.048019 0.093202 -2.422885 -5.621023 -1.544430 0.255215 -1.979595 -1.930796 -4.142745 -3.860360 -2.546440 0.599356 -1.463142 0.025327 1.162484 -1.828540 -1.220379 2.080399 1.412044 -0.728744 -0.752660 1.433007 0.479889 0.822875 0.674240 -1.358801 0.213440 0.858920 -0.752378 2.556499 -0.791096 -1.617396 -1.736228 -0.855604 -0.606686 -2.998265 -2.378971 0.016767 2.090259 -2.062759 0.736584 0.748219 0.654457 1.944551 0.465228 -0.351338 -0.021507 0.025884 2.669287 1.883223 1.497511 
glasses 4.488824 0.645016 -6.191188 4.869024 0.290793 -0.755153 -0.021307 -3.800466 2.172818 0.157304 1.410363 0.192591 -0.120446 -1.131150 -2.367465 -2.864256 -0.827517 -0.715358 -1.889443 -0.617088 -1.303151 -3.934036 4.701270 1.294189 -0.852545 -0.397348 -0.271857 0.203882 -0.618884 0.024996 0.818557 2.373244 -2.496413 1.926554 -3.800180 -0.573821 -1.407024 2.316671 0.919081 0.385384 -0.864304 2.006848 3.725594 3.744324 0.171461 -1.208959 1.558485 -2.175193 -1.884480 0.499938 -0.138909 0.513409 0.929661 -1.146063 1.780636 -0.884298 1.300183 0.389143 -1.289711 -1.758028 -0.032632 4.000173 0.949561 -4.178817 -1.113329 1.511969 -5.398489 1.164733 -2.092260 -0.302820 2.210525 -1.620003 2.623145 -3.546183 0.295513 0.367118 0.548008 -1.208146 1.254695 0.895233 1.209325 -1.289465 -5.175787 5.242527 2.518067 1.123784 1.778750 3.686882 1.761012 1.995432 -2.051223 -0.472541 -1.892394 -0.127026 -1.820937 -1.484265 -1.812902 0.869020 3.560841 1.300933 
who -0.573828 1.702605 -5.262620 2.304275 -0.037912 0.928566 -0.745454 -0.932630 1.292149 0.877648 2.188157 -2.496128 -2.620672 1.792950 -1.003998 -0.027582 1.405936 1.312842 -0.248491 -1.927332 2.378629 -0.001841 0.468731 -0.859764 0.237004 -3.226726 0.772526 -0.737404 1.731516 2.711020 -4.600775 -2.178801 -1.992514 2.656340 -0.199800 1.923302 -1.644160 -0.171603 3.507650 -1.706732 -0.410212 -1.209826 1.564493 -0.976981 0.316765 2.532812 -1.277198 1.309338 0.003143 -1.001721 0.998491 -1.901090 -1.076740 2.860215 -0.440397 -3.499892 -2.935692 -3.076490 -1.649588 -1.200654 0.673837 0.378930 1.532906 1.610650 -1.419768 -0.758976 1.554271 0.081363 0.833732 -3.199487 -0.088597 1.429448 -1.530266 0.720265 -1.544884 -2.039237 2.095980 -2.937994 2.012450 -2.067983 -1.889278 -4.573469 2.461568 1.857383 -3.400956 -4.182054 -3.064687 2.482473 0.609228 0.697987 -0.707450 0.725328 2.809044 -0.721315 -1.077399 2.049234 -0.628699 3.992478 4.222222 1.979706 
facing -3.538887 0.112894 0.972633 -3.590582 1.568883 4.902944 -0.351757 -5.301373 0.659697 0.660050 0.037761 -2.843905 2.776470 2.008797 -0.279313 1.286003 0.420039 -1.345138 -1.721540 -2.498407 -2.394453 -4.017874 -1.631790 0.443308 -0.101493 2.024765 -3.224695 1.523674 -0.465258 -0.640358 -0.439127 0.208939 -5.887422 -0.851799 3.055542 5.136261 -1.691033 3.813424 4.412174 2.989012 1.838598 0.159402 -0.149170 0.293632 -0.819160 -2.235237 -1.448962 2.136443 -1.155980 -2.947391 0.670824 -3.380857 1.787281 -0.800961 0.222247 1.526756 0.152861 -1.313473 -4.385697 2.234524 -1.624329 -4.467062 -1.661443 0.574560 -0.602805 2.428404 3.161000 2.190590 3.078382 -4.345072 0.090616 -4.211098 -0.136426 2.011486 1.999560 5.190355 -1.683203 -7.098018 -1.566986 0.403041 5.681745 1.392958 -2.716186 3.563476 -2.261655 2.240634 -2.901509 -4.203811 0.954389 -0.981684 -2.065848 -0.504896 -4.150595 2.275001 -2.588564 3.281780 -1.881782 2.675010 -0.216589 -2.706931 
color 0.421887 1.140104 0.322792 -0.723670 -1.996298 0.160199 1.038583 2.911813 0.599771 -0.514756 0.537648 2.871061 -0.975490 -2.365082 -2.753796 -0.080563 2.403731 0.177907 0.605387 0.722671 0.451422 -0.336471 1.391370 1.795616 -1.124137 -0.188916 0.295596 -0.131618 1.036284 0.756334 2.373788 0.761757 1.143046 0.690283 1.065193 -0.485437 1.294110 0.268190 -0.643485 1.011181 0.330584 -0.928279 -0.827952 1.053116 -0.565489 -1.785530 -0.199383 0.531861 -0.795866 -1.079172 -0.649188 -2.516490 0.752825 0.648492 0.273018 -1.383791 -3.195889 1.280278 -2.134751 0.178743 0.946971 -1.398673 0.862731 -1.179309 0.566314 -0.769443 0.095179 0.787900 1.841722 -2.315952 0.637312 -1.385407 2.294868 -1.510142 0.868683 0.675841 -0.107430 -0.755944 1.489453 2.962947 1.191185 -0.981692 0.247238 -2.117364 -0.383287 1.570404 -0.560187 0.479873 1.584520 -0.128358 -0.883944 0.946097 0.483691 0.910193 1.571309 -0.683120 -0.936106 0.011996 -1.529366 1.098575 
sleeves 0.144307 1.134616 1.996600 1.413111 0.604638 -3.239949 -0.396904 2.876549 0.541824 -1.334391 -0.313469 2.197471 -1.611960 -2.123798 -1.806379 0.761792 -0.996046 0.350196 1.566539 -0.908041 4.374200 0.416499 5.433762 3.392875 2.199262 -0.320513 -4.589731 2.127532 -0.026883 1.291866 -0.412712 3.797163 -6.525896 3.919734 -2.334377 -1.313140 -1.348535 2.061163 -1.253452 1.631574 -4.742673 -2.868188 -0.738973 0.238136 -0.347724 -2.194355 2.741238 -2.640484 -1.824181 -2.651032 -1.356722 -2.836620 5.633885 -0.875836 0.680738 1.365887 2.071128 1.352163 1.422101 -5.251655 3.552232 -4.352810 3.401516 -4.293110 -1.079431 2.645996 -2.635839 0.155464 -0.416331 0.046951 -0.337932 -3.341440 1.416709 1.548040 0.171355 1.340887 -1.608461 1.806365 -1.272975 0.127996 3.004562 4.886368 -1.058249 0.092910 0.533533 -3.169017 0.643805 -1.865025 -0.749143 -1.745444 3.798387 -3.574910 -1.690267 0.568377 -4.279375 -1.946552 4.355680 2.983713 -2.221439 2.653266 
arm 2.980078 -0.900305 -0.362017 -0.306897 4.803321 2.921681 -0.006061 -0.236594 0.349970 6.854236 0.228991 -4.802826 1.466153 -0.264562 3.123096 3.117094 1.321937 -3.733030 -2.724316 -0.618155 1.417745 -0.087373 1.524585 -0.043064 -3.322321 0.953848 -2.182487 -3.252425 -1.405398 1.447647 -0.682658 0.251621 -1.081138 -2.704296 0.237933 -0.039883 -2.004801 -2.183952 -0.131675 -3.167749 -2.295404 -0.879495 -1.678579 -3.366539 3.764066 -2.824615 0.283201 0.990582 0.205142 -3.452086 4.932597 -3.697898 -1.418203 -0.072849 -1.887945 -3.179554 4.465066 1.578182 0.071986 -2.216843 -1.167125 0.048046 -0.577740 -4.014150 3.242388 3.539367 0.244815 2.243822 0.984473 -5.964770 -2.462072 -0.496523 -0.926286 2.238244 4.876984 2.143040 -2.304633 3.082312 1.943274 -0.347943 -0.647051 1.970758 -0.480465 4.537781 1.309634 3.896814 1.115163 0.364586 -0.654260 -1.690969 -2.939651 -1.378825 -2.656851 0.257420 -3.378175 1.398177 -1.043957 -1.336516 -0.726243 1.438237 
watch 7.292763 1.755756 3.039974 2.107152 1.810770 -4.453266 0.991174 -3.226646 0.834368 -7.202534 0.949652 -4.711767 0.387345 -1.062352 -2.030793 -2.391509 0.126999 2.808156 7.165246 -2.801756 2.119937 -3.432596 -0.500031 0.105538 -3.841878 2.814807 -3.300287 0.172562 3.736901 3.266721 -1.284783 -0.339235 0.183559 1.805178 -0.586056 -0.214061 -4.150887 -3.959264 3.347067 -1.236357 -4.530849 -1.067138 2.181303 4.558982 0.541460 1.062057 -1.853579 0.896570 0.810234 0.172726 -2.718011 -0.225385 -2.348842 -1.537869 0.722067 -8.218949 2.866866 -2.571969 -5.690891 -1.958694 0.832809 0.400094 0.122085 -0.047496 -5.053595 6.748231 -2.210659 2.639221 -2.217846 -1.085617 -1.746466 -4.854159 -0.921753 -7.599498 2.896015 2.237441 -5.010079 2.804185 -1.577528 -5.561275 2.872024 -6.253914 -1.093957 1.084935 -1.180612 2.182141 -2.364140 1.591494 -0.689765 -0.890836 -2.547275 -1.003310 0.004590 -0.077380 1.193943 4.050966 -1.844131 -2.311927 0.376921 -4.751068 
wrist 1.376058 4.377325 -1.777088 4.813646 1.531638 4.327264 2.106310 -0.900883 -2.802710 7.393034 2.045321 -4.471074 -0.442855 0.446766 4.446997 3.226446 0.484132 -2.267440 -2.579435 0.903279 -0.554128 -2.384815 3.353381 5.154986 -2.062342 -1.720465 -4.422394 -5.972092 -1.906932 3.408958 -1.513957 1.826081 -3.187550 -3.356036 1.335082 -1.341124 -0.510312 -3.064000 -3.018850 -0.860932 -2.419883 3.968749 0.713534 -4.996809 2.348854 -4.028236 -1.746063 -2.197538 -1.339558 -0.536658 1.051360 2.041224 -5.063552 0.939976 0.868726 1.597115 2.020037 -0.331163 -2.581518 -2.600626 -1.805173 -3.182140 -1.481629 -2.796115 2.091997 4.281745 -0.255068 1.527015 4.568788 -2.320155 -1.926765 -0.062410 -1.526231 -2.139668 -1.211286 1.943067 3.816065 0.679515 2.428373 0.910151 -2.307842 3.854608 -1.900505 0.882285 -0.250089 4.633714 -0.104044 -3.999918 -1.759374 -1.741646 -1.242332 -0.089908 -1.871955 4.056779 -2.414551 0.051723 -1.062447 0.039349 -0.195892 1.867602 
side -4.514260 0.364465 -1.720594 -1.178372 -0.578257 -2.358946 -1.924234 2.040895 -0.113944 3.334819 1.018889 -5.079624 -0.875860 0.919551 -0.015365 1.420978 -1.099294 -2.559599 -3.998531 0.616236 1.693740 0.642114 3.065907 -1.665395 -0.638754 -3.113390 0.417552 -4.047973 1.780013 1.251865 0.961429 -0.926496 -1.580534 -1.027702 -1.886981 -1.968593 0.752173 0.409075 1.195300 -2.095805 -0.944935 2.617547 3.072042 -2.292728 3.005829 0.167514 -1.478190 -0.248578 0.574245 -1.134377 0.822492 -3.173930 3.627804 -1.654968 0.342990 -4.735508 3.632051 -0.366047 0.754096 -4.619824 0.286559 1.728277 -2.488192 -1.467687 0.155976 6.407166 -2.269326 3.599632 2.032602 1.232325 -3.852571 -1.961452 0.575642 -2.078862 2.037344 1.500106 -3.324783 1.198376 2.036415 1.508061 -0.467888 -0.006160 -3.815619 2.636326 -4.144869 2.872751 1.989318 1.300824 -2.357020 0.020285 -3.928292 1.892648 -3.939762 1.426439 -4.040524 -0.805311 1.008345 -2.748357 -1.435491 -0.274124 
that -1.607363 -0.287336 -2.572754 2.463717 0.845800 -0.176571 -1.011261 0.029899 0.181878 -1.970448 3.746412 -0.350202 4.353817 -2.454796 0.661782 1.085256 -0.699961 -0.471357 3.008353 1.240152 1.226907 0.639888 2.269535 0.996268 2.974980 -0.920458 -0.385729 1.784878 0.627502 -0.478287 -1.809662 -2.092321 -2.653948 2.094840 0.070081 0.678928 -0.787210 1.591871 -0.492218 0.646396 -0.452243 -2.962024 -3.490549 -0.387886 0.914287 -0.644804 -1.854732 -0.829402 0.448572 -3.668879 0.101620 -2.069498 0.542971 -0.349295 -0.152356 -3.009494 -0.402436 -5.241094 -1.263562 -2.911808 -3.631643 -2.337543 -0.241576 1.281235 1.078585 -2.098463 3.744183 0.989460 -1.186591 -1.014732 0.730767 -0.083381 1.348876 0.622678 -0.580815 0.193643 1.039088 -1.549725 1.326509 0.371783 -0.798077 -0.750500 -0.483318 -1.654476 -1.192993 0.136920 0.455897 1.149455 2.617516 0.274013 -0.603397 1.407729 -0.215477 -0.177168 0.115594 -2.196806 -1.166688 1.030319 -1.103226 1.477370 
pink -1.967618 -1.202525 -0.405099 1.808692 -0.817703 -1.255790 1.828778 -2.071744 0.384169 -3.444273 0.008537 1.450796 0.239537 -0.573565 2.843621 -2.515637 -0.259608 -0.894251 -1.741756 -0.201516 -0.164266 0.120846 0.341362 -0.968961 1.154352 1.026134 1.681190 1.983504 -0.237295 -3.626456 -3.791831 0.686627 -0.301996 -0.035108 0.806675 -1.406847 -2.996614 0.455206 2.171182 -0.732880 0.091953 1.840455 2.601903 -0.023408 1.521315 -0.954748 -0.809461 -1.278550 -0.799623 -2.061413 -1.287191 1.471374 -1.662694 1.256549 -0.066249 -0.321334 3.448773 2.864052 -1.246826 -0.699950 0.163902 -0.942616 4.283020 -3.040192 0.208231 3.110644 1.657019 -0.979313 0.906039 -0.136246 1.376904 0.892349 -0.403683 -0.764732 0.691820 -0.001544 0.929212 -1.241056 -0.339971 -3.988765 -2.067932 3.690113 1.781710 -0.493343 1.291335 -1.813124 0.130702 0.639723 -0.147213 -2.951290 -0.036888 -2.496685 0.524187 -0.684576 0.301883 -1.339364 -0.565426 -3.178909 -1.350500 -0.347059 
very 0.572631 0.905036 -1.554916 -2.217674 0.816758 -0.196345 -0.428496 -0.622551 1.127963 -1.129423 -3.171826 -1.909305 0.702343 0.448479 -0.365965 -1.567453 0.285324 0.936576 -1.366619 0.037896 -2.405951 0.338039 -0.341504 -1.345815 0.071208 -0.811198 -3.104206 0.526567 -0.428326 0.210455 0.238825 -0.833442 0.082664 2.103129 -0.499162 3.116880 -1.629897 -0.768835 1.346965 -0.232128 0.367567 2.234629 1.962412 0.898483 -0.461396 1.724338 -0.671099 -2.043468 -1.334835 -0.511627 -0.022230 -1.443102 0.333877 0.255460 0.236380 0.273437 0.036941 -1.327564 -0.294158 3.128214 0.450684 -1.064914 1.197403 -1.038921 0.340144 -1.361935 -0.556328 1.500710 1.148371 -0.423969 -1.280178 -0.766635 -1.311030 1.075952 -2.906607 -0.473481 3.148903 -1.494028 1.311449 -0.670466 -2.670928 -2.121975 -0.478044 -0.236564 0.507732 -0.928446 -0.809162 1.135306 1.185537 1.214605 -0.755985 -2.380143 1.198248 0.973493 -1.485172 2.481633 0.287022 0.294707 0.453427 0.536150 
spectacles 3.971468 2.164918 -6.264635 3.825734 -1.206409 -0.563392 1.591761 -3.083367 0.467886 -1.950507 0.831881 -0.662559 -1.226290 0.551694 -0.365927 -2.203362 0.043742 3.281899 -0.552127 3.697313 2.687345 -1.969900 1.590389 3.254651 -2.675537 0.412035 -0.974423 -0.942847 -0.126764 -1.507322 -0.810705 1.033884 -1.397283 1.370855 -3.464428 0.258271 -4.914505 0.341734 -0.545115 0.260401 -0.825985 2.155852 2.515697 0.975040 1.054733 2.561068 -2.160800 -1.114304 -1.561479 -0.093731 -0.465027 1.749720 3.089352 -2.004867 2.397193 0.353479 -0.948049 -1.110445 0.414912 -1.060621 0.514721 1.638714 3.514912 -4.068253 0.325530 1.686839 -2.663454 -1.057233 -2.727017 -1.487931 2.923558 1.634099 0.200745 -1.629321 3.169965 0.878164 0.961149 -1.268402 -0.756323 -2.227856 2.645611 -0.227240 -2.160563 3.279721 1.797389 1.958478 0.629143 2.054765 3.492279 1.409275 -1.722136 0.238164 -2.147704 -3.071078 -0.900900 -0.296361 -2.241153 0.190650 3.266609 0.997029 
large -1.775706 0.902333 1.387617 -0.697684 0.226764 2.172904 -2.198827 -0.633771 -1.373273 2.360905 0.753754 -0.575726 -2.808216 0.268877 -1.858240 -0.763476 -4.201031 -1.729583 0.268813 -1.560284 -0.393804 0.349330 0.189996 -1.253362 0.465154 -0.655703 -0.193243 0.912601 0.579815 -2.210774 -0.289841 1.386749 0.330982 -0.415631 1.789967 -1.133709 -0.497534 -1.077794 -0.808507 -0.389216 0.765347 -0.202376 0.636106 -1.258255 -1.872176 -2.343397 0.331516 -0.640050 0.311100 2.833559 -0.146099 -3.340226 0.070177 -1.385288 -1.265066 1.270907 -2.093412 1.962152 2.603166 -0.045723 0.624066 -2.155490 0.168069 -0.751935 1.577036 0.944224 -0.315300 0.691544 -3.200854 -0.377038 -2.037455 0.890918 -0.850115 -2.003927 2.916702 0.204636 -0.041259 -1.918798 0.885234 -1.487822 3.561242 -1.867365 1.705065 -0.995702 -1.109623 2.435789 0.341131 0.975627 1.322354 -1.080676 0.764792 2.606134 -1.290974 -2.092133 2.044588 0.496852 0.397745 -0.431224 -2.892311 -0.050799 
straight -1.346247 -1.867107 -4.506511 3.574301 -3.412268 -2.418862 1.196114 0.814122 -1.291888 -1.169705 0.789368 0.551691 -0.766158 0.753170 0.352435 -0.951491 -0.128394 2.988457 -1.111435 -1.512151 -1.880912 -1.069412 0.606578 -2.335670 -0.357152 0.032848 -1.323140 -0.761354 2.219730 -0.505570 1.164252 -0.737086 -4.463500 0.839921 -4.167936 1.922614 -0.393885 1.136602 0.432470 1.790662 3.569776 0.817797 0.881905 -0.700762 1.561239 -1.462986 2.983681 1.316760 -0.325683 -0.964173 -0.766229 4.048493 5.312196 1.314556 -0.239212 2.447931 -4.093081 -0.539536 2.528286 0.736466 -0.908878 0.213417 1.157654 -0.299687 3.716730 1.120804 1.279641 0.294549 -0.902953 0.927364 -0.678337 -3.472213 -1.752416 -2.031654 0.817488 1.408113 -1.283411 3.056401 1.706421 -1.461093 0.538951 -0.472995 -1.613832 -0.962483 -0.158513 -0.218153 2.472264 -4.421187 -0.728213 1.805944 -1.357874 -1.407923 1.045500 0.794497 -3.167327 1.353254 -2.323514 -4.130772 0.055899 -1.161753 
seems 3.328493 -6.072040 -2.198102 -0.942252 4.172332 0.683523 1.304398 -3.900151 3.294155 -0.284026 1.785274 -1.940715 -1.831939 -0.083724 -3.144969 -0.273831 2.031411 -0.515625 3.764972 0.511605 0.788825 2.651976 -2.517704 0.173591 -0.057633 1.136800 -2.030081 0.959275 -1.862022 4.001173 1.341071 -3.261743 7.312408 2.650621 -0.893220 2.137356 -0.970402 -4.285301 -4.485602 -2.910917 3.722307 -0.868644 4.528148 2.845501 -1.868962 -0.260863 3.996900 -0.805035 -0.076782 2.159717 -2.101174 3.464455 2.881111 -1.409550 3.634397 -0.158227 0.132433 0.504569 -0.298246 -1.468433 -3.591310 -8.337970 1.587240 -3.099399 4.137909 -2.729723 -0.243831 -2.801285 0.994331 0.036565 -1.928409 -1.717583 2.489647 2.770226 -0.579080 -0.427132 -2.929209 -0.474357 -4.246899 -0.003365 4.292652 4.502406 -4.108401 -3.075971 1.687297 6.159752 -1.300824 -1.446474 -3.110215 0.554471 -3.655574 2.025131 -1.199324 5.305150 1.900878 -1.319315 -1.714367 -4.578811 -1.454044 4.863681 
over -3.135378 -2.589579 1.388157 -0.008143 3.321926 2.116662 -3.443641 0.849649 -1.286816 2.838125 1.960519 3.350164 -0.538965 -5.693997 -2.437545 3.548713 1.764017 -2.120671 -0.562822 0.352470 2.667657 1.100641 -2.595755 -0.554880 2.598174 -0.261835 0.011161 -0.040314 0.926820 -0.054175 1.942099 -0.582024 -2.185597 -0.278449 1.882875 -0.284625 -3.667944 0.192057 0.423560 -2.409093 3.349047 -0.052167 -0.947828 2.041165 0.769533 -1.121797 1.918079 1.558557 1.297056 -3.056164 -0.948476 -2.903854 -0.399685 1.441392 0.067661 -1.233667 1.399383 -0.536724 3.671362 1.618744 0.892462 -0.757790 -2.507293 0.797309 -0.925190 -0.296189 -0.473681 -0.512949 0.414013 -3.088673 2.334396 0.794125 1.556786 -1.177365 0.448009 0.840992 3.684959 3.678514 -0.095463 4.669084 -0.995922 -0.008530 1.717821 0.307236 2.462692 1.960374 -0.245558 -2.125457 3.937971 -1.500000 -2.544104 1.691545 -3.237239 1.969548 2.252057 4.512765 0.100118 -2.600648 -3.251975 -0.345750 
tee 2.820265 2.902291 -1.811164 -1.597571 0.184583 -0.872812 -0.952644 -1.098280 0.087271 4.641187 -3.169877 -3.974442 1.529268 -1.141654 -2.361689 1.330039 -2.735275 5.185647 1.505272 0.657954 3.270262 0.560536 -1.378248 4.656116 1.125246 2.729529 0.068458 1.742612 1.793611 1.079534 -2.018184 0.601971 -0.501961 -2.165323 -1.634943 -1.669073 1.799163 -1.139955 -2.466758 -0.950494 -1.453816 0.266720 1.216985 0.478214 -1.673510 0.001366 -1.466926 -2.537451 0.997733 0.222423 -2.296253 -4.325349 1.706923 -0.506800 0.113070 4.162429 -2.599388 2.077387 1.618137 1.462201 1.471532 -0.783850 0.018518 -2.860899 2.050404 0.749171 -2.105228 -3.150943 -1.388897 -0.224923 -1.808780 -3.022408 -1.254280 -3.675728 2.762254 0.569935 0.167817 1.340407 -1.379954 -6.483789 -2.248798 -0.022854 -2.773374 0.168204 -1.569390 -0.004569 -0.547552 0.791145 2.583409 1.513280 -1.467021 -0.033510 2.313360 -0.908201 0.418500 -1.398264 -0.079629 0.836222 2.766927 -4.252453 
sneakers 0.371961 3.291865 -0.375315 0.835254 -1.929457 0.252965 -2.521111 -2.170342 -0.286082 1.648872 -0.990248 -0.957372 -4.481348 -3.169466 -4.480651 2.179318 -2.616039 4.195952 -1.512659 0.284018 3.742936 -0.605332 -0.967040 -1.931363 -0.792265 2.485394 3.713055 1.516792 -0.397225 0.388589 1.065084 -1.229546 0.709593 0.285777 -1.353432 1.078034 0.669790 2.696219 -2.837231 -0.247556 -2.917867 -2.107519 -1.028963 -0.920097 -0.235035 0.513655 2.159846 -2.162666 -0.861517 -1.208227 0.236613 -3.046301 0.409646 -2.512132 -2.163749 2.445776 -3.802921 -0.598646 0.197702 -2.474677 -1.194679 1.159096 -1.101045 -4.572334 3.261358 -1.023144 -1.347202 1.512088 0.375927 -0.323927 -0.853408 -2.638087 0.824052 -2.411514 1.382682 1.479810 0.015166 -0.654713 1.935110 -0.942094 1.588523 -1.801457 -5.203960 0.047433 1.362148 2.031629 -0.574434 1.191524 1.845497 0.450170 -1.962565 1.309751 3.887013 2.055884 -4.985089 -0.171287 -2.396491 -0.444984 -2.437371 -0.461989 
picture 2.686079 3.678451 -8.046021 -0.973201 3.558134 -3.434492 -4.079316 2.674083 3.554999 -1.007342 3.122208 -1.668645 -0.651512 -0.169386 -3.022668 -0.673177 -0.721154 -2.534181 1.619635 1.153957 -0.601108 1.854504 1.156007 0.148038 -0.148136 -2.019032 -0.025046 -1.386422 2.874136 0.135381 -2.738353 0.070010 2.203368 0.842188 -2.185376 1.947521 1.928387 -2.904028 2.217843 -0.760176 -0.983388 2.355891 -1.658699 -1.447093 4.069392 -1.263217 0.665776 -1.081812 -2.857343 -1.264230 -0.402552 -0.886168 0.427467 -1.430453 -2.330502 0.529118 1.778411 -3.375372 -3.473493 -3.776483 -3.617901 -0.114024 -4.991327 -3.329813 1.016302 0.381169 -0.143055 1.569487 10.524279 4.047136 0.690985 3.040084 0.660995 -1.619207 0.267942 -0.899885 1.391300 -0.728651 2.168831 -0.960999 2.231023 -2.243140 -0.408093 -3.624748 -0.823768 -2.514350 -3.556075 1.524844 2.924226 -1.454383 -1.117796 -1.221907 5.492779 -2.306966 0.816258 -1.272976 -0.462157 0.527274 -3.363935 2.169993 
might -0.639261 -3.938503 -0.590464 -4.927543 5.566145 0.236292 0.417832 -2.176490 0.131027 -0.007162 -0.872204 0.465962 -2.517380 3.952775 -2.498760 2.093566 0.913843 2.483274 -0.266975 -1.642263 -1.803381 2.672191 -0.140393 4.823986 -6.445154 3.466079 0.340414 0.958234 0.211376 -0.388616 2.829272 -1.743320 5.485147 0.013089 2.218157 3.431035 4.599044 -1.801230 0.176490 -7.524846 -1.151688 6.254982 2.877617 6.138585 7.896894 -0.557526 1.830391 4.217468 -3.651345 4.230222 2.030925 4.342746 1.502353 -4.656390 3.116723 2.144046 -0.768139 -2.022341 -2.957601 -4.645703 -1.005815 -5.864834 0.419474 -2.226764 -1.842739 -2.253572 -2.826846 0.427806 -0.625104 -1.083024 -5.332880 -1.350323 1.765170 -1.483881 5.984565 -3.877102 1.723169 -1.402798 -4.208475 -1.276647 1.407869 8.727330 4.366270 -4.032611 3.427173 7.258047 0.653656 1.191790 0.102487 1.199938 -2.358636 2.392835 -0.894259 5.707277 -0.233548 -0.979640 -1.183137 -4.131152 1.022095 5.194716 
thin 4.542446 -2.574118 -1.579891 2.285098 2.150565 -0.113004 -0.096341 0.913795 2.841422 2.210996 0.586685 -2.273715 -0.946151 0.296004 4.164085 -2.840208 -3.208384 3.087136 -0.624326 0.063721 -2.365774 -1.297965 -2.537972 -1.330047 -1.060602 -1.312935 -0.701065 0.993694 0.571072 -2.190978 -1.627908 3.122364 -0.913626 1.205998 -2.048497 -3.006529 -0.562115 1.963893 3.616934 0.409543 -0.205931 -0.804924 0.376495 3.067125 -0.773127 -1.736984 2.304992 1.638767 0.857769 1.558250 -2.785708 -1.174755 1.876826 2.204941 -1.258722 1.978543 -1.195915 0.880849 1.655123 -3.548461 -0.348100 1.548319 2.360929 -1.572089 -0.446479 1.077899 -1.279774 0.101450 2.155124 0.622343 0.286795 1.234181 -2.429347 1.030885 1.193491 2.014785 -0.557481 0.196407 -0.145219 -2.447874 1.230289 -0.118479 -2.797514 -4.057389 0.464172 -2.082314 -3.665862 -0.036886 4.129722 -1.628817 -2.348611 4.022368 0.812344 0.216849 -0.215975 1.495751 3.521593 1.809521 -0.143420 -0.975407 
skinny 3.203116 -2.494281 -0.127126 2.414941 2.449613 0.521421 -1.651722 0.124618 0.988941 2.643046 1.595409 -0.854468 -1.473308 -1.674589 2.010278 -1.133778 -3.160662 4.129374 -0.322747 -0.246965 -1.431618 -0.256722 -2.767370 -1.937327 -1.228283 -0.299286 0.374730 1.836794 0.291937 -1.080705 -0.955553 2.420572 2.473006 0.481480 -0.863602 -3.446414 2.400387 0.162451 2.666303 -1.765970 0.410504 -0.282166 0.375879 -1.528957 -0.561012 0.293717 1.196037 1.669776 -2.494541 3.209527 -2.197812 -0.056872 -0.704323 0.252853 -1.128112 2.566399 -0.845752 0.845342 1.322292 -1.805931 0.144470 1.204184 0.964297 -1.177794 0.347286 2.097083 0.016833 -1.314848 0.433376 -0.942618 1.486693 1.574762 -2.581205 1.306007 -0.496240 1.068338 -0.441580 0.679989 -1.986339 -1.731910 0.778270 0.562872 -1.500805 -1.521092 -0.631296 -3.894279 -3.197815 -1.756745 2.591671 -1.130270 -3.237693 1.148870 0.884342 2.687618 -1.006463 -0.436333 1.370396 1.478599 -0.267916 -0.201049 
looking 3.348840 -1.169961 0.914711 1.828670 2.070589 0.887802 0.443279 -2.413884 -2.499599 0.526783 2.197475 -4.312679 -0.559711 1.014072 -2.975225 0.372288 0.248833 -0.745456 0.591377 -2.336706 -0.702855 0.107207 -4.014527 -0.618458 4.740652 -0.663437 -1.115130 -0.131730 1.604336 3.170619 -0.891930 -0.917424 0.694056 -0.853417 1.569000 1.536367 0.580909 1.351799 0.501778 0.141827 -0.379419 -0.868837 0.182487 1.422912 0.680342 1.707083 2.273776 -0.115309 -1.355094 -0.963345 0.281247 -0.698659 2.379593 0.257906 -1.546380 -0.395121 0.349408 0.092668 -0.243198 -0.219901 -4.759917 1.548384 0.703576 0.118747 -0.059651 0.682801 -0.399915 2.534929 3.375170 -0.979950 2.812863 -1.375667 -4.003463 4.189050 -0.871349 5.395095 -2.617547 -4.468008 1.826158 -2.354181 0.404258 0.972009 -2.965328 1.755915 0.680337 -0.984246 -1.817522 0.316340 -2.515952 -1.885164 -2.076938 1.878472 -2.349783 0.080770 -0.464054 1.209802 -0.905715 0.192852 -1.192661 -0.197923 
can -1.859715 -2.009567 -3.230379 -6.208444 -0.532546 -0.950584 -1.580428 -3.878265 3.504468 -1.095807 2.909693 4.603081 1.785461 2.931000 1.429560 5.935835 1.994488 2.689174 -1.100927 -6.351405 -0.586737 2.358282 -2.420735 2.136319 -6.177147 -3.675938 -1.028403 0.299272 3.515178 1.531131 2.134105 -0.361751 6.994151 2.578228 -0.086745 4.049242 1.059191 0.779404 1.943837 -5.922413 5.991905 6.049231 -1.676461 7.528776 0.690993 -1.545982 -3.429049 0.973779 -0.617845 1.677843 4.059794 3.980749 -1.882062 2.048650 -1.377711 2.165498 3.413409 2.550259 2.627699 0.097643 -4.949522 -3.775337 3.056334 -6.170994 -3.543983 -3.470722 -4.476130 0.764458 1.147520 -1.184914 -2.463973 -2.075263 4.479037 -3.555908 4.096155 -2.195780 -1.443018 3.633612 -1.206199 -4.545738 5.437790 6.481842 -1.120822 -0.447277 -0.379802 7.231627 3.085324 -3.894747 -3.247837 1.215884 -0.417119 -0.241404 1.190380 2.360056 -1.313521 0.179242 -0.780318 0.306220 1.504763 13.040318 
seen 0.420814 0.198380 2.877640 3.643082 0.593354 0.933289 -1.255163 0.010254 -4.505202 -0.218970 -3.712655 1.309169 -0.774831 1.448249 -3.021861 -1.910748 1.281119 -0.083963 0.415755 -0.786640 -0.533145 2.286506 1.417660 1.059924 1.361455 5.514415 -3.499747 -1.034620 -0.437811 -2.828662 1.675903 -1.404559 -0.549822 0.649831 1.473245 0.469930 1.184401 -0.365672 1.008770 -0.982729 -0.609462 -0.953506 0.340754 0.351901 5.558750 1.294318 0.660020 -0.678210 -0.126734 -2.388383 -0.603267 0.290104 2.271794 -5.160417 2.731918 -0.545885 -1.704608 -1.586782 -3.567526 -4.046913 0.421900 0.180261 -2.768854 1.425753 3.013274 1.211145 -0.435962 -4.555073 -2.755269 -0.028179 -1.200258 -0.628403 -0.205701 -1.271394 -0.316207 -0.011359 5.257053 -5.004845 -2.149968 2.374991 -2.422220 3.804264 0.810134 -1.067680 3.725561 0.861051 -4.902278 3.947379 -0.982515 -1.809886 -0.852544 3.533142 0.304948 -1.488509 -0.127594 0.300260 0.446728 -4.328758 0.468799 -1.440609 
profile 2.043838 6.854366 -9.026505 -0.917665 3.785174 1.732689 -1.587896 -2.729029 4.823442 2.034310 1.824573 -1.616775 -6.061878 1.619457 -1.919703 -1.014984 -1.746784 -6.286707 -0.207496 3.029326 0.870123 3.382758 -1.457777 -1.325877 0.048229 -2.776091 2.444208 -3.177012 2.836105 -0.534398 -3.388168 -1.551328 0.112491 0.840040 0.466108 -0.871248 4.962875 -2.446639 1.019962 -1.924466 0.080013 1.905405 -2.382330 2.053676 1.542164 -0.916753 -0.564572 -4.008723 1.152744 1.131647 0.053905 -0.093281 0.738036 -4.005327 2.784380 -4.816051 3.419882 0.653169 -2.053071 -1.178842 1.172797 0.981119 -2.844558 3.090912 2.090713 6.809679 -0.737653 2.309127 13.157744 6.519568 0.459672 1.026934 2.834162 -3.395602 3.858679 -3.056593 2.092723 2.380426 2.501123 2.148308 2.509913 -2.554679 -1.814347 -0.642105 -4.630342 -2.989790 -7.100003 1.197860 -2.144571 -2.769591 -5.099040 -1.949603 2.573775 -3.005205 -0.289495 0.340435 2.625389 -1.201751 -4.534846 4.656897 
along 0.233811 0.206975 5.540085 -0.122836 3.030497 -1.177985 1.311085 2.005736 1.332022 0.842386 -1.323320 1.519367 1.200621 -0.080703 -0.784781 -2.597923 -5.278012 0.331123 -0.045015 -1.978094 -1.630596 1.816022 -0.353418 2.456182 -0.159043 1.846020 -0.671920 5.074055 -1.213421 -0.020401 4.495035 2.111074 -1.728822 0.306660 1.340583 1.705905 0.925172 2.215084 0.421568 0.317285 -0.891405 0.890329 -0.516081 -4.799190 -2.111120 -0.434708 -3.853733 1.890038 -3.222368 1.441816 -1.886173 -5.899743 0.783346 -0.978786 -4.333680 4.105129 -2.893242 1.831872 0.817056 -0.956774 2.613413 -0.003769 -0.077362 -4.840340 4.087399 1.803437 -0.808991 -2.573120 -0.663831 1.409022 -2.203592 -1.169894 -0.551196 0.250533 -1.749620 -0.008515 -0.744568 3.209021 1.620468 -2.363931 -2.959054 3.543833 -4.678927 -0.591982 -1.545476 1.429593 1.401752 -0.195475 -0.337236 2.619450 -0.802364 1.257313 0.931508 -3.377525 0.640924 -1.847952 2.647637 -2.710588 1.422319 0.661511 
s 1.753435 -4.055361 0.912076 0.991783 2.203490 -0.897702 -2.425806 -1.418415 0.855650 2.393312 -2.365176 -0.657065 1.393468 0.829831 -1.266810 -2.481532 0.222580 0.571561 -4.613599 4.479002 -0.347111 -2.197066 -0.324767 -0.086707 -2.570807 1.108659 0.180744 -0.072534 -0.334544 -1.737951 -0.693989 -4.672387 1.157907 -2.753126 0.566167 -0.139039 -1.656040 0.062286 2.346893 2.121655 -0.917152 -0.174720 1.126611 -0.219540 -0.186853 2.512177 -0.540947 1.949735 -1.176639 -0.705517 1.477628 1.894592 0.710712 1.104835 -1.062623 0.343903 1.831612 -1.028607 0.687165 0.115151 -1.265173 1.022409 0.203745 -1.887451 1.621745 0.795455 0.972755 1.629359 0.692315 2.441713 1.236270 -0.334717 -0.991302 -0.146676 1.359714 -1.787051 -0.774683 -1.384415 -1.142544 2.108046 -0.016659 -0.562757 -0.335533 -1.592804 2.855899 0.104880 -2.330870 -2.323540 0.454610 -1.799127 -1.620315 0.578425 0.027240 1.784070 1.239251 -1.108919 0.337417 -2.253383 -3.162308 -1.747575 
like 3.524283 1.652760 0.938965 -0.257225 4.357217 -1.734486 -1.353001 2.362392 2.127036 -0.943747 1.198039 3.707294 -0.351320 0.051698 1.439988 2.113171 0.492760 0.341761 -3.222291 -0.410828 1.898462 1.063044 -0.143628 0.448688 -3.645009 -1.653173 -1.368179 -0.745654 -0.848263 3.195175 -3.684534 2.683173 -2.821978 3.063415 -1.072002 0.682259 0.438127 -2.850976 -1.202236 -1.074726 3.135381 4.324035 -3.930131 -4.369060 -2.089677 2.232472 0.198580 0.435968 -0.696054 -1.349300 -0.549246 -1.157227 -0.617624 -1.643407 4.707710 -2.289645 1.364752 -1.366721 4.071594 0.852059 -4.039146 0.601851 -0.963818 3.203844 0.651768 1.909552 4.352893 4.197872 0.798038 0.506880 -0.545537 -3.055615 -1.900905 -3.158917 4.236346 -0.394392 0.921174 -4.466447 -5.168351 -2.484021 -2.977610 0.633466 0.836577 -1.560009 -1.983943 1.290434 -1.413833 3.481661 4.899738 -1.373782 -0.052876 -0.444341 0.878361 -1.783318 0.388443 2.039517 0.332177 -1.068190 -5.564019 -1.068391 
colored 0.781171 0.574611 0.996294 -1.091627 -1.368845 -0.003860 0.087497 -1.088799 -0.632737 -0.725680 0.343466 3.499016 -0.557589 -1.654263 0.272727 -0.722291 0.286178 -2.394550 -0.294591 -0.585060 -1.982017 3.160708 -0.064830 1.893337 -1.176403 0.496672 -0.447240 2.582950 -2.997756 -1.503065 0.516690 -1.284707 -1.496592 1.774862 -0.781676 0.701807 0.793955 -0.111242 -1.612999 -1.907704 -0.449823 0.290486 -1.350219 0.683801 -0.231884 0.688415 -1.310614 0.173394 -2.548146 -0.592635 -1.906992 -1.530144 -0.773810 -0.510896 -0.470549 -0.440139 -1.310531 0.976761 -1.154910 0.545345 3.475388 0.078357 -0.572324 -0.947183 -1.680986 1.137560 0.360974 0.121327 -0.419878 -1.930838 -0.525410 1.791856 1.602128 -0.028380 -1.105420 -0.136658 0.659992 1.265911 1.631627 2.805657 0.297001 -2.771083 1.327016 -0.973338 -1.006485 4.367879 -0.423504 1.750559 0.889804 0.622636 0.934362 2.004123 0.086722 2.015172 2.272707 0.494893 -0.084196 0.387256 -2.843378 1.900720 
