835 300
</s> 0.001334 0.001473 -0.001277 -0.001093 0.000456 0.001007 0.000314 0.000070 -0.001201 0.000739 -0.001452 0.000417 -0.000250 -0.000319 -0.001105 -0.000627 0.000860 0.001008 0.000990 0.000532 0.000515 -0.001268 -0.001365 0.001657 0.001267 0.001030 -0.000201 0.001339 -0.000165 0.000245 -0.000050 -0.000994 0.000437 -0.000446 -0.001275 0.001585 0.001460 -0.000365 -0.000075 0.000170 -0.001213 -0.001336 0.001518 0.000021 -0.000861 -0.001014 -0.001025 0.000566 0.000067 0.000444 -0.001405 -0.001269 -0.000043 0.000381 0.000850 -0.001057 0.001360 0.000309 0.000373 -0.000203 0.000995 -0.000763 -0.000699 0.000719 -0.000251 0.000344 0.000602 -0.001363 -0.000661 0.000971 0.001411 0.001311 -0.001016 -0.000703 -0.000303 0.000667 -0.001263 0.000999 0.000929 -0.000533 -0.000517 -0.000746 0.001410 0.001304 -0.000393 0.001405 0.001607 0.000605 0.001661 -0.001037 -0.000511 -0.000702 -0.000969 0.000938 0.000526 0.000142 -0.000731 0.000508 0.001020 0.000065 0.000760 -0.001651 0.001438 0.000160 -0.000610 -0.000694 -0.000249 -0.000978 -0.001457 -0.000946 0.001426 -0.000590 -0.000893 0.000772 -0.000568 0.001586 -0.000535 -0.001530 0.000905 -0.000025 -0.001163 0.000325 0.000481 -0.000160 0.000608 -0.001319 0.000294 0.000606 -0.001003 0.000047 -0.000020 -0.000800 -0.000944 -0.001565 0.000008 0.000051 0.000003 -0.001311 -0.001654 -0.001582 -0.001442 -0.000182 0.000464 0.000395 -0.001061 0.001666 -0.000670 -0.000425 -0.000468 0.001578 -0.001255 0.000387 -0.000445 0.001063 0.000014 0.001423 -0.000940 -0.000868 -0.001397 -0.001222 -0.001066 -0.001038 0.000815 -0.000622 0.000893 0.001230 0.000452 0.000984 0.000825 0.000780 -0.001184 -0.001144 -0.001219 -0.000044 0.001377 -0.000912 -0.001020 -0.001399 0.001102 -0.001393 -0.000193 0.000726 -0.001539 -0.001493 0.000481 0.001175 0.001421 0.000715 0.001054 -0.001043 -0.001213 0.001325 -0.000922 0.000584 0.000191 0.000597 -0.000394 0.000066 -0.000562 -0.000376 -0.001478 -0.001087 0.001162 0.000335 -0.000788 -0.000531 0.000832 -0.001178 -0.000771 0.001578 0.001416 -0.001320 0.000290 -0.000750 0.000051 0.001002 0.001615 0.000662 0.001371 0.001049 -0.000077 0.001492 0.000845 0.001580 -0.000568 0.001582 0.001443 -0.000476 -0.001473 0.001611 0.000299 -0.000693 -0.000239 -0.000245 -0.001284 -0.000477 -0.000148 -0.001642 -0.001172 -0.000401 -0.000314 0.000597 0.000272 -0.000205 0.000982 0.000482 0.000183 0.001206 -0.000375 -0.000476 -0.000138 -0.000909 -0.001000 0.000067 0.001446 -0.000456 -0.000007 -0.001378 0.001236 -0.000507 0.000989 -0.000803 -0.000298 0.000031 0.001208 -0.000029 0.001478 -0.000248 0.000700 -0.000046 -0.001301 0.001417 0.000352 -0.001010 0.001003 -0.001382 -0.001451 0.001089 -0.001144 -0.000883 0.001176 0.001095 0.000228 0.001508 0.001619 0.001352 0.000588 -0.001450 0.000763 -0.001631 -0.000429 0.000504 0.000327 -0.000508 0.000979 -0.001536 -0.000470 -0.000437 -0.000552 0.001024 
a 0.522545 -1.022804 0.540491 -0.692209 -0.195342 -0.456343 1.912427 1.479652 1.901664 -2.809815 0.348581 -2.834680 -1.648452 -1.826465 -1.194428 0.153767 1.412018 -0.861104 0.584681 0.766318 0.802655 0.127064 -0.104953 1.218968 -1.552348 1.736906 -1.760585 -1.270571 -0.451257 -0.502136 -0.905155 -0.244559 1.027234 1.227768 -0.509751 -1.594137 0.610241 -0.526435 -0.122400 0.337475 -0.067068 1.195277 2.046673 -1.779932 -0.267259 -0.024416 0.737320 -0.390751 0.471993 0.149820 -1.144123 -0.323446 0.732012 2.220171 -1.167928 0.702268 0.576953 -0.020450 0.319434 2.010243 0.460007 -0.565948 -0.214712 0.243046 -0.137020 0.979508 0.183323 0.623751 -0.668584 -0.170210 0.065937 -0.535568 0.666185 -0.094549 -1.044149 0.516818 0.900897 1.567073 0.501116 -1.175202 0.505546 -0.087839 -1.380225 0.365092 1.172900 -1.404997 -0.058923 1.310511 1.183940 0.824578 -1.650156 0.752864 0.991602 1.063663 0.014475 0.834330 0.843456 0.153630 0.673695 -0.194916 -0.881273 0.332525 -0.450494 0.102173 -2.706811 -0.174113 -0.260233 -1.634889 -1.032329 -2.053830 -0.103504 -1.422573 -0.479575 0.975744 0.637263 0.354444 -0.201605 0.184792 -0.049329 1.093726 -0.855596 -0.016384 1.109008 1.046231 0.104800 -1.415027 -0.713650 -0.793081 0.077006 0.311737 1.140852 -0.187686 1.078719 -0.274517 0.049407 -0.152944 -0.549131 -0.085281 -0.427881 -0.061841 1.216392 -1.926967 -0.233132 0.066421 0.252468 0.318488 -0.175301 -0.598422 -0.638406 1.517145 1.044172 0.993903 1.251515 -0.106135 -0.449128 0.112753 0.059719 -0.266127 -1.516503 -1.904581 0.634328 -1.100382 0.152859 0.335571 -0.489529 -0.404638 0.023039 -0.184747 -0.555563 -0.578552 -0.161977 0.909736 -0.602402 1.004011 -0.889816 0.286257 -1.045459 1.469189 0.309630 0.785161 1.856217 -0.182441 0.937736 -1.293353 -0.736707 0.823921 -1.283523 1.599983 1.682292 1.178600 -1.038984 0.507517 -0.488884 0.581642 -0.331392 -1.574886 0.771350 0.479162 -0.033878 0.102565 0.233978 0.008752 0.209513 -0.832915 1.792565 -1.518300 0.471251 -0.515013 0.054013 -2.118130 1.214687 -1.121666 -0.579582 0.019859 0.142305 -0.222984 -1.692886 -0.157121 0.735002 -2.293989 -0.704421 0.315139 -0.722993 0.665288 0.679707 0.381884 0.372048 0.126516 -0.608687 -0.015142 0.475456 -0.833416 0.597390 -0.415972 -0.115039 -0.091648 0.886312 -0.374083 0.490856 0.525493 -0.969092 0.610025 -0.882104 -0.096098 0.345147 0.426702 0.177048 0.193481 -0.586175 0.448246 0.513292 1.085568 -0.979840 -0.387499 0.095421 0.199606 -0.397287 -0.492101 0.899426 0.930067 0.656372 1.156989 1.604049 0.408579 1.310037 -0.068450 0.065198 -0.078019 0.378180 0.826702 1.194456 0.392257 1.892994 0.278369 0.023419 0.332892 0.295497 0.260434 -0.034356 0.221414 1.768092 -1.104679 0.378804 -2.317110 0.427258 -2.716225 0.837241 0.747134 -0.607281 -0.475704 -1.439030 1.246674 -0.069636 0.199587 -0.889361 0.433516 -0.409425 2.170534 0.174048 0.221994 
is -0.587530 0.517515 -1.150200 2.488061 1.949265 -0.003608 3.012624 0.167371 0.340457 -0.458735 2.900437 -0.825901 -0.900287 -0.543620 -0.485992 -0.006278 -2.080475 1.586252 -0.393940 0.837817 -2.070278 -2.174889 0.837131 -2.446400 -1.940587 -0.482562 1.310142 0.756963 -0.747714 1.271150 -0.621223 -0.205127 0.667589 0.505146 -0.981943 0.177924 0.619759 1.200165 -3.131042 2.943571 -0.638836 -0.645770 -1.175645 0.367863 1.880567 -1.932550 -0.424760 -0.591273 -2.583560 -0.955808 -1.822101 -1.250444 -0.978260 -4.208881 -0.150404 -1.129624 0.366596 2.276608 -0.614183 -1.333441 0.542872 0.389766 -0.403917 -0.044061 -0.877878 -1.532274 -0.241348 -0.700121 0.259689 0.168446 0.122247 -0.042979 -0.259437 1.559996 0.222729 -0.536413 0.071457 -0.751340 0.560126 1.672109 1.521732 -0.703126 1.038731 -1.400669 0.063065 0.278472 -0.043107 0.270806 -0.527782 -0.349806 0.649753 0.089069 -0.241330 -1.130500 -1.221826 -1.209229 -0.426753 -1.163253 -0.630336 -1.275151 -0.132884 -0.155382 -1.372101 -0.823019 1.343744 0.575074 -0.522112 -0.282633 -0.535658 -0.770270 -0.093462 -1.957131 1.527372 -1.444485 -1.393226 -0.033214 0.546698 -0.716907 0.210724 -0.803917 0.932927 -0.535168 0.141835 0.491578 0.536584 0.268846 0.653374 0.388583 1.037220 0.301325 0.231560 1.118470 0.290709 -0.677306 0.567570 -0.226501 0.144049 0.457357 1.812329 0.793009 -0.968103 1.251295 -0.644564 -1.042115 0.679523 0.014858 1.055912 -0.231120 -0.516796 -0.717959 0.148815 0.132150 0.130957 0.367167 -1.083596 -0.259638 1.691898 0.883675 0.157694 0.960504 0.226333 1.286613 -0.382576 -0.051673 0.846905 0.936646 -0.104408 0.277855 0.224401 0.348717 0.078241 0.441201 0.841801 -1.617960 -2.688200 2.047925 -2.059423 -0.372270 0.495834 1.273806 -0.739400 -0.621083 -0.842747 -0.221832 0.416152 -1.211586 -0.648174 -0.071824 1.086094 -0.371152 0.873887 1.971564 -0.302538 -0.001869 0.288002 -0.171175 -1.241304 -1.631265 0.898860 -1.096774 -0.179598 0.389671 0.391889 0.919925 -0.243098 0.454644 -0.257252 0.605397 0.583356 1.254649 -0.255237 0.978517 2.021353 0.391153 0.053604 -0.411757 -1.051713 -1.102466 -0.510586 -0.889665 0.700934 0.486894 -0.489156 0.274219 0.212851 -1.614323 1.081329 1.161101 0.914577 0.019276 -0.275052 0.515376 1.090857 -2.425039 0.355324 -0.045907 1.054972 0.097234 -0.923963 -1.076596 -0.697631 -0.103154 0.021851 0.256066 -1.326022 0.040983 0.738005 1.021447 -0.725593 0.333965 0.524765 -0.012225 0.503891 -0.214613 0.397760 -0.923906 -0.536022 0.631391 0.444194 0.657830 0.106745 2.472375 0.299526 -0.029219 2.269125 -0.927483 -0.340610 -1.443130 -0.888788 -0.617502 0.498598 -2.213487 -0.868180 -1.002325 1.413380 -0.975459 -0.392905 -0.694306 2.028822 -1.025844 0.135152 -0.025899 -0.486421 0.401738 -0.489816 -1.488309 0.749277 -0.356126 0.617551 -0.725889 -0.308526 0.992299 -1.798848 -1.464235 -0.675338 -0.091604 -1.161157 1.113442 0.210506 1.853260 
black -2.571849 0.768878 1.012144 -0.637852 -0.132739 0.501639 0.404557 0.060783 -0.227095 0.707456 -1.433386 1.446253 -0.711039 0.685599 0.442972 0.266682 0.955889 -0.822606 -0.262866 0.781019 -1.143459 1.517503 -0.170035 -0.965662 3.028130 -0.678445 1.126715 1.865832 1.630824 -1.067258 -1.497297 0.784869 -0.113373 -0.923398 -0.072299 -1.195543 0.844248 0.255009 2.462034 -1.041129 0.029465 0.113677 0.313559 1.073244 -0.178045 0.345894 -0.562904 -0.306734 0.534397 0.677353 -0.324828 0.944138 -0.984918 -1.347875 0.112063 0.573386 -0.193675 0.199654 -0.578112 -0.175412 0.212833 1.503179 -0.084581 -0.271436 0.908548 -0.979275 0.135949 0.636726 -0.233783 0.506054 0.806884 -0.178086 0.255441 0.239476 -0.527586 -0.593396 0.698432 -0.343800 -0.221005 -0.682763 1.022774 0.973950 -0.152809 -0.054202 0.290887 0.459399 -0.395557 0.791991 -0.109431 0.398889 -0.386185 -0.393656 0.794194 -1.289430 0.504324 0.238499 -1.392100 0.191173 -0.300456 -0.461916 0.043682 -0.088641 -0.411227 0.173152 0.273755 -0.269319 0.309427 -0.373868 0.074304 0.326820 -0.557613 -0.658759 1.779415 -0.451476 -1.264316 0.312872 -0.119364 2.822794 0.798005 -0.259678 0.041618 -0.446541 -0.685746 -0.305268 0.020824 0.134744 -0.135676 0.606446 -0.230217 -0.319753 0.287161 0.180592 -0.045988 0.015425 -0.140107 -0.254961 -0.505555 -0.050655 -0.195465 -0.130272 0.280890 -0.751748 -0.434333 0.419325 -0.316094 0.200171 -0.473841 0.560118 0.254229 -0.270680 -0.518800 -0.882284 -0.027408 0.310252 0.530364 0.328040 -0.330050 -0.172465 0.375268 1.085067 0.399202 -0.191149 -0.588616 0.673883 0.904429 0.236213 0.353536 0.229051 0.339438 -0.142433 -1.071883 -1.664472 1.050938 -0.449215 -1.580950 1.188801 -0.749512 -0.926723 1.988810 -0.152494 0.152880 -0.143939 -1.134182 -0.135908 0.633463 0.203839 -0.157750 0.557724 0.095544 -0.420122 0.045163 -0.201172 -0.200385 0.183505 1.337718 -1.667474 -0.597818 0.051929 0.270181 -0.117700 -0.517423 -0.562230 -0.093156 0.549575 -0.074620 -0.668151 -0.579024 0.340387 -0.346362 0.730876 -0.146827 1.133554 0.604414 0.270457 -0.481172 0.174609 -0.587752 -0.869253 -0.686965 -0.102305 0.002951 -0.737331 -0.418334 0.245455 -0.617331 0.310941 0.277229 0.155914 -0.174350 -0.331334 -1.299015 -0.275709 1.311153 -0.457160 0.700303 0.080457 -0.214522 -0.354594 0.668328 0.686382 0.345925 0.308955 0.769760 0.275378 0.384051 -1.452128 -0.972192 0.269072 1.151358 -0.460548 0.338954 0.023227 0.436724 0.230573 0.225445 0.827687 -0.207240 -0.021896 0.180645 -1.676121 -1.276319 0.262537 0.669042 -0.591983 -0.077829 -0.393026 0.430647 -0.213393 -0.411283 -0.255836 -0.395029 -0.591242 0.505576 0.526191 0.319736 0.267662 -0.518128 -0.402644 -0.690179 0.287904 2.082467 -0.998604 0.620693 -1.084835 0.733208 -0.790179 0.121462 -1.315998 0.465703 -0.132643 -0.740865 -0.170086 0.007943 -0.019693 -0.767111 -0.458620 1.334409 -0.931514 0.426834 0.537442 
and 1.680698 -0.092183 -0.341420 0.609755 0.499466 0.888011 -2.712297 1.353334 -0.296755 0.685767 0.710894 -0.862817 1.383968 -0.361872 -0.452154 1.706265 -1.134212 2.124299 0.137724 -0.828055 -2.201770 1.737916 -0.665274 -1.364098 -0.943885 1.246505 1.002699 -0.882873 -1.262463 1.243698 0.665731 -0.950362 0.762614 -0.180126 0.638973 0.139630 -0.711221 -0.292404 -1.388596 -0.929106 0.071713 -0.521035 -1.204933 -0.027689 0.297531 -0.798004 -0.193121 0.042787 -1.916479 -0.677615 0.119111 -1.423272 -0.396321 -0.465473 0.593880 -0.369256 -0.861884 -2.679890 -0.214086 0.290010 -1.190321 -0.486841 0.196799 -0.257203 0.110528 0.430689 -0.363518 -0.119410 0.175347 0.283294 -0.731974 0.801947 -0.191639 0.387451 0.726547 -1.071605 -0.268095 -0.242255 0.600848 -0.182748 0.325089 -0.060498 0.910542 -0.110922 -0.382264 0.105667 0.629600 -0.714929 -1.214079 -0.998443 -0.549458 -0.333120 -0.619259 1.621917 0.662050 0.811160 -0.379040 1.379288 0.664618 0.722157 1.242799 -0.064054 1.100781 -0.518145 0.524822 -0.109608 -0.917275 0.146985 0.048305 1.133771 0.432824 0.839772 -0.934095 -0.104225 0.103761 -0.656615 -0.036965 -2.262919 -0.349038 0.124241 -0.398766 0.594311 0.050253 0.430807 0.043125 0.133636 0.382662 0.396632 -0.061519 0.021600 0.408699 -0.617861 -0.496731 0.680741 0.017679 -0.085930 0.088906 0.416561 0.970044 -0.296217 1.126492 -1.215926 0.614719 0.151559 -1.050598 -0.458484 -1.591720 0.130455 -1.123243 1.368775 1.119685 0.290290 -0.208890 0.221898 -0.575326 -0.330687 0.260043 -0.233493 0.765212 0.046702 0.049315 0.071111 -0.602779 -0.164528 -0.026300 0.249684 -0.281039 0.079495 0.122273 0.274097 0.252772 0.215372 -0.871688 0.317822 0.902630 -0.271175 -0.736120 -0.251915 0.516196 -0.757512 -0.534341 -0.674454 -0.075693 -0.739385 1.048744 -0.707192 -0.884039 -0.658084 -0.073352 -0.712121 0.380780 -1.099239 0.227600 -0.343481 0.125421 0.920902 0.265287 0.184027 -0.933812 0.511889 -0.274852 -0.125139 -0.089406 0.063732 0.566739 0.713339 0.232220 -0.465913 0.168643 0.125654 -0.463550 -1.258685 -0.076676 -0.286934 1.855235 0.099784 1.131674 -0.609439 0.517276 2.212216 -0.549703 -0.367703 0.615236 -0.433106 0.282234 1.014336 -0.892122 -0.426390 0.286412 0.854367 0.619909 0.649295 -0.773400 0.051910 -0.522883 -0.191600 0.575467 -0.092561 0.200088 0.804774 -0.201691 0.591760 -0.471185 -0.157548 0.267490 0.117803 -0.178538 -0.629277 -0.741655 -0.035625 -0.869902 -0.158033 -0.384341 0.374163 0.107865 -0.181895 0.835771 -0.468505 -1.383031 0.731232 0.060603 -1.265329 -1.098452 0.959800 -1.073820 0.266852 -0.221984 0.123348 0.121441 -0.173153 1.121693 1.363201 -0.141783 -0.211404 -0.844471 0.579903 0.184084 -0.659971 0.248836 0.043945 -0.307728 0.278111 -0.341894 0.409168 0.152554 -0.407502 -0.995485 -1.129644 0.024673 0.565294 -0.024679 0.459226 -0.587532 -1.602400 -1.220834 0.258362 -1.503607 -0.609622 -0.552940 -0.171204 
with 3.171523 -1.220994 -1.110562 0.733703 1.085959 1.224606 -2.810022 -0.502986 -0.749881 -1.040949 1.314193 -2.158084 1.126854 0.297328 0.417616 0.325133 0.197929 -0.072532 1.182843 -1.363630 -0.841229 2.772316 0.587842 -2.509110 0.245699 0.398196 0.190984 -0.984528 -2.176399 2.182555 0.919100 -0.374775 -0.187129 -1.114864 -0.040425 -1.011793 0.610934 1.631247 -1.744417 1.226397 -0.288956 -0.483703 -2.480749 -0.537430 0.231922 -0.495402 -0.100670 1.123269 -2.493668 -2.712597 -0.804537 -0.680659 -0.361494 -1.927777 0.849105 -1.764298 -0.017672 -1.062991 -0.504708 0.114754 -2.028866 0.415021 1.094353 -1.194835 -0.029270 1.443743 0.656766 -1.704778 -0.296052 0.338846 1.000393 0.599347 0.533538 0.814005 0.382654 -0.379437 -0.433577 0.042403 -1.418839 -0.884414 -0.432092 0.237739 0.795091 0.295922 0.158632 1.257496 1.046986 -1.767632 -1.348538 -0.782702 0.719451 0.125386 -0.880157 0.736704 0.201051 0.226392 0.271836 -0.260845 -1.065230 -0.086360 2.679023 0.694286 3.077720 -1.045230 -1.371155 -0.728728 1.003010 0.167955 0.607904 -0.879831 -0.666852 -1.347209 -0.388397 0.835249 1.264645 -1.034367 0.068529 0.020850 0.269918 0.266074 0.145664 0.411226 -1.021744 -0.234425 -0.424089 1.677098 0.232162 1.504706 -0.211818 0.926822 0.380106 0.783662 0.254944 0.686105 -0.036199 0.633293 0.689536 -1.170109 -0.511977 -0.917461 0.401128 0.271136 -0.366905 -0.362778 -0.695528 -0.317622 -0.825388 1.107402 0.161665 -1.421231 0.129707 -1.296770 -1.064470 -0.596133 -0.537028 0.311693 0.584273 0.288042 -0.347972 -0.392302 -1.696635 0.245595 1.603204 -0.710678 -0.249367 1.569420 -1.164400 -0.182521 -0.260827 -0.915055 -0.753018 0.512229 -0.575080 0.053279 1.622972 -1.514636 -0.570824 -0.914646 -1.593217 -1.701131 -1.319525 -0.315632 -0.200717 -0.063049 0.133936 -0.281860 -0.946515 -0.806747 -1.171535 -2.101640 1.429802 -1.722642 0.657125 -0.010118 0.194894 1.106099 -1.968803 0.670869 0.683190 0.991936 -1.061738 0.957861 0.146826 0.686847 -0.801605 1.171896 0.414777 -1.333169 1.342154 1.507702 -0.352931 -0.188016 0.452063 -0.284815 0.732758 -1.351652 1.304522 -0.130285 -0.826084 1.549976 1.649803 -0.009072 0.032085 -1.306080 -0.566209 0.211136 -1.027044 -0.128448 0.185447 0.479941 0.812851 1.233974 -2.205855 -0.321293 1.451766 -0.854590 -0.141564 0.369666 -0.857284 -0.153489 0.952305 1.026204 -2.065432 -0.375169 0.161209 0.159953 -0.504638 0.949896 -0.088418 0.798215 0.054550 -1.393212 0.545285 -0.234927 0.721269 0.024611 -0.181172 0.963205 0.322944 0.995456 0.329985 1.691504 -0.313592 -0.064817 0.526614 0.589892 -0.206859 -1.173375 -0.676536 -0.216500 -0.996019 -0.730725 -0.999825 -0.087943 0.451743 -2.167252 -0.199880 0.667777 0.557748 -0.656838 0.070631 0.076594 -0.535575 0.446877 -0.644630 0.533864 -0.198536 -0.949457 0.470519 0.539851 1.289625 0.038175 -0.947537 -0.703522 1.103114 -0.060417 0.418877 -0.712157 -0.104960 0.719955 
he 0.391016 0.521930 0.391894 -1.449578 -0.015411 -0.261009 -2.969646 -2.047995 -1.577382 0.736192 -0.486658 0.493001 0.516390 0.906920 2.171649 -0.606959 0.277323 -1.310710 0.510331 -0.539378 -1.530186 3.346837 -0.907790 -1.544712 -0.230181 -0.628133 -1.176928 -0.947215 -0.781494 0.763963 0.266006 1.349354 -1.005901 0.909494 2.101196 1.934853 -1.124677 -1.121686 1.599517 -1.146699 1.092392 0.238076 -1.640081 -0.087160 -1.404010 1.448588 0.784329 -0.641291 2.598652 2.428167 2.005852 -1.655677 0.125752 -1.456143 0.941751 -0.818768 -0.607760 -1.490231 0.163123 1.173393 -1.280685 0.213305 -0.175223 -0.510240 0.205504 2.188691 -0.338978 0.683901 0.091381 -0.663695 -0.001108 0.387024 -1.092559 -1.530721 -0.046228 2.058944 0.635876 0.719222 -2.302316 -1.930821 1.663684 1.897049 -0.345568 0.916952 -1.664257 0.669455 0.206053 -0.895237 0.101796 0.806476 -0.046016 -0.393452 1.502419 2.459562 1.493902 1.693203 0.494871 1.271573 1.486379 2.537536 -0.056790 0.067064 -1.066578 0.098215 -1.774375 -0.821099 0.510387 -0.573447 1.359657 -0.140543 -0.629034 0.615383 -1.167548 2.495286 1.505145 -0.882678 1.269013 -1.912468 -0.228368 0.397021 -1.233832 1.687211 -0.395247 0.519739 -0.100724 0.363316 0.741405 -0.381392 0.023917 0.235129 -1.552185 -1.009591 -0.623847 1.301928 -0.481446 0.460530 0.267116 -1.537475 -4.104660 -1.733948 1.339062 -2.810418 -0.469676 2.191936 -0.702595 -0.307408 -1.128296 1.415440 -0.297535 1.546073 -0.544214 0.262351 -0.869021 -0.367623 1.967929 -0.447659 -1.953913 -0.809365 1.985653 0.574685 -0.287406 -0.169095 1.048259 -0.474333 0.064861 0.483209 0.191966 -0.154294 1.201614 -0.152420 0.453215 0.719104 -0.660119 -0.710559 -0.650436 -1.644127 -1.857958 -1.881422 1.507467 -0.028913 0.148336 -0.460598 0.633106 -2.495934 -0.524730 0.530560 0.459357 0.052511 0.537552 0.214790 0.539136 1.299068 1.988554 0.353024 -0.554803 2.766018 0.813811 1.056520 -0.778560 1.173982 0.748888 0.488612 -0.034217 -0.232529 -0.054781 0.101287 0.157778 0.236204 -0.665322 -0.206735 -0.498444 -0.213169 -0.072113 0.245720 0.521404 0.952878 -0.678016 0.664531 -0.125238 -0.366206 -2.094095 0.607330 -0.917644 1.546464 -1.003924 1.208673 0.092954 -0.982662 -0.494384 0.256105 0.041036 -0.386892 0.816538 0.987857 -0.806075 0.649873 -1.626350 -0.190883 -0.507993 1.374997 1.493230 -0.355422 -0.608064 0.434547 0.542506 -0.116756 -0.439164 0.647057 -0.167236 0.629477 -0.866926 -1.170478 2.789371 0.471351 -1.686701 -0.251421 1.902167 0.231156 -0.244574 -1.680289 -0.168137 -0.324655 1.754421 0.793056 -1.245445 0.434420 1.369114 1.689668 1.297987 1.349309 -0.792375 -0.607477 0.539075 0.531380 -1.050686 -0.574684 0.608288 0.380452 -0.374496 0.909170 -0.349311 0.342840 -0.029883 -1.689345 1.344128 -0.122080 0.445891 -0.737409 -0.822869 -0.422503 1.429940 -0.355676 1.280222 1.396305 -1.056542 0.689591 0.047895 -0.939227 0.321885 -1.731904 
wearing 1.072041 -0.508316 -0.797474 -0.310499 -0.321973 -0.756571 -1.196960 0.490231 0.229058 2.665743 -2.530487 1.187762 0.439171 -0.171433 -0.750526 0.929810 1.161558 -1.620295 -0.596015 0.852082 0.036061 0.389889 0.566888 0.775504 2.936715 -0.311144 0.340328 0.309951 1.235647 -1.215599 1.456520 -0.756821 -1.149988 -0.375090 -1.039826 -0.920261 -0.604691 0.345280 -0.479578 -1.348508 -1.156249 -0.238399 1.599248 0.375710 -1.043118 -0.629170 -1.165593 0.693205 -0.167100 -0.010038 0.090161 2.184112 -0.091676 1.396730 0.440183 0.361188 -0.687945 -3.426925 0.228459 1.308560 -1.423753 2.661847 1.262769 -0.183204 0.538094 2.190957 0.491131 -0.762281 0.680858 -0.956297 -1.143012 0.216046 -0.113956 -1.149191 0.870440 -1.362444 -1.095637 0.156674 -0.107048 0.175616 -1.786720 -0.503572 0.702115 0.141522 0.269378 -1.454605 1.038784 -0.554424 -0.467895 -0.983810 0.986755 -0.502054 -0.544099 -0.517377 -1.291288 -1.274289 -0.770596 -0.567501 -0.157150 -1.397848 3.454130 0.640615 4.783140 -0.133265 -0.270663 -0.515081 0.152192 -0.723846 -0.099638 -0.355393 -0.777710 0.418500 -0.934118 0.413761 1.686286 -1.168318 -0.744081 0.677652 -0.705001 0.171824 -0.636206 -0.505008 -0.941475 -0.309298 -0.688951 1.826814 -0.007464 0.415515 -1.525049 -0.116395 -0.115301 -0.511885 0.936184 0.114423 0.675786 -0.519666 -0.380999 0.402013 0.362253 -0.134310 -0.442515 1.060787 -0.065681 -0.848355 -0.303167 0.665145 0.075453 -0.675230 1.357915 -1.355293 -0.554862 -0.465321 -0.817272 -0.773380 -0.086250 1.700755 -0.223926 0.110868 -0.879048 0.328704 0.048096 0.347306 -0.725984 0.016614 -0.927366 0.262258 -0.275108 -0.224363 -0.858014 -0.302714 -0.919627 -0.878816 0.427407 1.594465 4.652072 -2.348399 3.276317 1.973065 -2.659628 -1.147517 -0.720448 0.450020 -1.112381 1.756329 -0.401360 -0.045042 1.102520 -0.336037 -1.205832 0.783786 -0.494184 -3.457891 -0.357947 -0.046407 -1.379790 0.700633 0.016286 0.854450 0.156812 0.261329 0.118782 -0.976041 -0.612638 0.629096 0.412943 0.709802 -0.046701 -0.604248 0.664773 -0.594312 -0.098860 -0.101523 -0.171751 -0.720667 0.093577 -0.845501 1.976401 0.931580 1.022915 1.742943 0.977645 -0.420969 1.703977 -1.141375 0.276839 0.251403 -0.974742 0.241512 0.750141 -0.120512 -0.166175 -0.419013 -1.597365 0.820017 0.251308 -0.363170 -0.704222 0.288068 0.550817 0.982042 0.191325 -0.158714 0.800961 -0.857372 -0.105134 0.254041 -1.350013 -0.418325 -0.114405 0.386528 1.142868 1.325510 -1.759191 0.773327 1.793095 0.815629 -0.079046 -1.049159 -2.093348 0.141864 -0.090785 -2.535087 -1.903218 1.303541 -0.554091 0.573994 -2.051214 0.440193 -0.166562 -0.448416 -0.452192 2.438385 -0.710921 -0.010793 -1.016433 1.040810 0.672420 -0.018805 -0.745754 -0.546310 -0.121369 -0.315774 1.973629 2.109317 -1.695984 1.595577 -1.208654 -0.761864 0.688738 0.685305 -1.691269 -2.339201 -0.768046 1.508258 4.028118 0.146338 0.237113 -0.871774 0.109607 -1.215878 
his 1.851022 -1.665245 1.149100 0.606437 -1.351036 0.491282 -0.971004 0.622146 -2.176369 3.987649 -2.932277 0.922980 -1.799975 -1.155529 -1.311281 -0.201024 0.719457 -1.317716 -1.477549 -1.035342 2.221486 2.510878 -0.680580 -0.651517 2.795294 -1.742037 0.340174 -0.029962 -3.107924 0.495659 0.735744 0.386067 -0.555341 -0.676915 2.314638 2.163536 -0.407125 -0.466990 1.821121 1.247222 -0.627001 0.487521 2.992133 -1.239590 2.194934 -0.971543 0.818962 -1.869259 0.758281 -1.207998 -0.634845 -1.863655 0.261760 2.889910 0.092762 1.656283 -0.941470 -0.229222 -0.001530 1.465570 -0.529976 1.347299 1.334986 0.133133 0.914042 1.547129 0.336235 -1.595743 -0.456333 -0.510306 1.620866 -1.148250 0.488785 -0.846667 -0.737984 2.177422 -0.141107 -0.203215 2.468242 2.262034 -2.955102 -0.968471 -0.999502 0.729563 -0.565031 1.464272 -1.271563 1.038622 1.249870 1.036812 -0.053296 0.702782 -1.179929 2.139099 -0.578636 -0.856987 0.003067 0.858661 -1.165016 0.383906 1.151935 0.228365 0.917674 1.890637 1.218380 0.869480 0.841218 0.692295 0.207664 -0.179166 -0.395350 1.164897 -1.764655 1.115974 1.496273 -1.548285 -0.328296 0.028785 0.658034 -0.948681 0.553990 0.932087 0.608308 0.096782 -1.652221 1.171501 -0.368969 0.373751 -1.394242 -0.158554 0.211803 0.772856 0.422432 0.480591 1.601694 0.718756 -0.600324 0.663911 0.196927 1.932001 0.828631 0.339627 -0.951701 1.099748 -0.190527 1.198322 0.150944 1.507476 -0.615850 0.429312 0.154078 0.736969 -0.109120 0.540825 -0.708445 -0.716014 -0.655082 -0.671013 -0.617127 0.578673 -0.130132 -0.612210 2.433565 -0.609217 0.477848 1.280291 0.507660 -0.815886 0.214176 -0.477606 -0.751725 0.638165 -0.503184 -0.543984 0.030172 -0.187276 -0.641595 -0.860372 -0.192333 -0.062888 0.536870 -0.157553 0.659499 0.480194 -0.323049 -0.448859 0.025419 -1.159892 -0.174495 0.835386 -0.530615 0.510018 0.655329 0.337631 1.537706 0.402420 -0.728131 0.260737 1.020303 -0.320771 -0.788081 0.211516 0.679294 -1.516825 -0.263513 0.147381 1.396619 0.609979 -0.231790 -0.077640 0.276443 -1.730785 -1.075359 -0.025301 0.913415 -0.682274 -0.337614 -0.565528 0.051371 0.630688 -1.474310 -0.743294 -0.984147 1.097954 -0.522447 0.820533 1.013588 -0.145823 1.225774 0.940705 1.234454 -0.235154 0.739879 -0.926654 -0.661206 0.371429 -0.210164 -0.908673 -0.674323 0.955473 0.698412 0.037032 -0.327114 -1.822727 1.124649 0.724694 -0.645964 0.727436 -0.207541 0.445286 0.482503 -0.044605 0.462521 -2.212981 0.303267 -0.239977 0.149461 -0.065452 1.007646 0.023818 -0.916407 0.102221 1.491829 -1.238630 1.668230 -1.407652 0.473576 0.217382 0.378051 1.275636 -0.351684 -1.068190 1.454186 0.432062 -0.675080 0.708967 1.018410 -0.505462 0.355482 -0.244424 -1.348690 0.869372 0.622649 -1.195572 -0.086916 -0.179932 1.476627 1.036686 0.253223 0.159048 -0.777152 0.545333 0.749072 -0.848146 -0.420183 -1.280241 0.424234 -0.062080 0.879109 2.345569 
she 1.052993 0.228253 0.954467 -2.593009 -1.231806 0.384461 -3.324990 -1.116566 -1.985290 -0.257899 0.048208 1.034987 0.395725 0.784962 2.039979 -0.471660 0.349149 1.004492 0.209462 -0.881695 -0.077357 3.129218 -1.320681 -0.116414 -0.821442 0.275763 -1.369950 -1.310863 -1.386416 0.295260 0.438607 0.960852 0.302534 -0.188275 2.760000 1.899097 -1.107023 -1.222201 3.661494 -2.253039 0.499840 0.691641 0.114550 0.074544 -2.555204 3.899822 0.424570 0.330175 1.438306 0.914397 0.344941 -1.402950 0.152198 0.678605 1.084814 1.056717 -1.514817 -2.681005 1.394105 0.348347 -0.546888 -0.009603 -0.077350 0.683691 0.944116 1.436709 0.186971 -0.125106 -0.338240 0.246080 0.212887 0.165424 -1.412491 -0.784551 1.375360 1.735363 -0.419873 -0.231236 -1.757970 -1.046206 0.355170 1.129836 -1.431743 0.847688 -1.504124 1.905590 -0.090952 -1.377937 -0.699684 0.184651 0.263568 -1.298069 0.883825 2.783495 2.311656 2.048159 0.991249 1.864637 0.639054 2.665718 0.651426 -0.520325 -0.601133 -1.359010 -2.243212 -0.631802 0.938026 0.124713 1.071299 -0.536938 -0.177846 -0.950058 -0.832748 1.807588 0.523658 -0.087255 1.418813 0.050578 -0.008864 0.142307 -1.641544 0.471009 -0.988263 0.049511 0.034701 -0.063782 -0.373189 0.120200 -0.959315 0.194500 0.088154 -0.492474 -1.326615 0.329357 -0.619867 0.392204 0.211976 -0.619764 -2.249882 -0.991596 1.231189 -1.775288 -0.172887 1.940206 -1.392880 -0.504822 -1.097073 1.632299 -0.767240 1.103849 -0.742779 -0.022936 -1.053714 -0.003517 1.881023 -2.127240 -1.188988 -1.049244 0.566847 0.201307 -0.783788 -0.140321 0.434356 0.019545 0.418639 0.765617 -0.362069 -0.099625 0.811267 0.071320 0.540363 -0.117646 -0.395624 -0.747000 -1.938199 -1.269171 -1.505044 -1.773759 1.345070 -0.639311 -1.187440 1.565896 0.958920 0.191967 0.486094 1.593024 2.097109 -1.137675 -0.547595 -0.278994 -0.026408 1.179555 1.914936 0.729075 -0.240137 1.360483 0.254838 1.679038 -0.236306 1.327181 -0.157452 0.832013 -0.091976 -0.330359 -0.419096 -0.297565 0.009722 -0.749385 -0.711541 -0.870369 -0.915256 0.002198 -0.112610 0.765278 0.355829 0.817846 -0.874201 0.106787 -0.675500 -1.045867 -2.334834 -0.052474 -1.344655 1.559889 -1.366338 1.162665 -0.503373 -1.702228 -0.406026 0.778027 0.038622 0.551387 1.277678 0.528030 0.805900 0.721325 -1.615595 -0.118947 0.406759 1.176760 0.750283 0.064970 -0.508158 0.939097 2.247599 0.147562 -0.510183 0.695294 -0.130678 0.374792 -1.049630 -2.178627 2.475220 0.222270 -0.703854 0.346350 1.355807 -0.444682 -0.948851 -1.122764 0.286548 -1.542965 -0.030086 0.198413 -1.170403 0.652530 1.631953 1.270373 0.403845 0.762342 -0.321037 -0.515974 0.840996 0.387782 -0.202516 -0.760962 -0.143725 1.831859 -1.866876 0.754192 -0.289574 0.718538 -1.102352 -0.989758 1.168801 0.297908 -0.060435 -1.058504 -1.317186 0.528130 1.603438 0.287656 1.152332 -0.782371 -1.617122 0.091797 0.245209 -0.124150 0.158662 -1.203222 
of 1.232039 -2.111187 1.027044 2.457849 0.506541 -2.398103 -2.053756 4.106129 2.793842 -5.461987 4.596888 -3.891115 -2.178227 -2.169878 -1.915658 2.597354 -1.977826 -1.390344 0.445973 -1.348368 -3.012294 1.069622 -0.624762 -0.134451 1.769126 -0.989479 1.792739 0.902807 -0.927105 -0.163519 -0.007360 -0.837882 -0.890404 -0.292872 0.389552 1.376003 0.744692 1.288683 0.437391 -1.447661 -1.568246 -2.599704 -7.073217 1.269089 0.621216 -0.679795 -0.575208 0.482624 -1.137919 0.510232 0.312982 -0.162096 1.122887 -0.295150 0.787881 0.535614 0.573331 -2.281404 0.107243 -0.641204 0.487306 -3.065584 -0.483770 0.232467 -1.190114 -0.219522 0.650953 0.673049 0.955557 0.335500 -0.521676 -0.587958 0.562839 1.591341 -0.035565 -0.946072 0.088715 0.162923 -2.479166 1.445126 -0.883001 1.228006 -1.110676 0.643406 -0.238860 1.169757 -0.139513 -2.042480 -0.427388 -1.184645 1.733974 -0.887998 -0.595255 0.298918 0.149444 -1.263238 0.753496 -1.091536 -1.978958 0.268686 3.747531 1.127693 2.979212 -1.107894 -0.337878 -1.899993 1.014868 0.640153 -0.728175 1.530476 0.589516 1.051278 -0.204278 1.741077 0.654764 -0.618821 0.967352 -0.080334 -0.525975 -0.334905 0.513577 2.113261 -1.108264 -2.231364 0.514825 -0.649423 -1.113106 2.243765 0.984064 -0.798776 -2.991062 -1.413876 -1.544855 2.932006 -3.436914 -0.091475 -0.667967 0.943138 1.259217 0.714228 -0.385092 -0.251321 -0.090370 0.561583 0.009183 -0.222855 2.364159 0.478145 0.763553 -0.850220 -0.581863 -0.401303 -0.208129 -0.542469 -0.682172 -0.096145 1.021557 0.485412 1.354574 -0.529134 -0.416053 -0.494239 1.415827 1.455241 2.006346 0.931381 -0.099952 0.216340 0.599287 0.546917 0.271209 -0.930434 0.817118 0.243581 1.841656 -0.828431 2.102649 1.406670 -2.160539 -0.501360 1.527253 0.058012 -0.562414 -1.114983 -0.548733 -1.857504 -2.711754 -1.971875 -0.814366 -1.879389 1.880732 1.375062 1.788415 -0.911929 -2.815875 2.155064 0.516600 -0.069278 0.078143 -0.112628 -0.279816 -1.367889 -0.263585 0.107726 -1.002936 -2.095828 -2.385202 1.464256 -1.108381 -0.512920 -2.105398 1.137473 0.625845 -0.202613 -0.927434 0.923036 0.242084 2.018873 -0.346919 0.052296 -0.246491 1.041119 1.094667 0.286793 -2.247983 -1.723935 -0.698737 -0.312640 -1.013300 -1.589575 -2.603034 0.277578 1.044287 -0.473778 0.289706 0.562278 -0.293849 0.944281 0.576119 2.078146 0.026620 1.013419 0.765238 -1.528735 -0.862047 -0.989766 0.002296 0.834216 1.183958 0.456691 0.817369 -0.139758 -1.382793 0.818795 -0.190522 1.260565 -1.363531 0.566855 -0.135978 0.550902 1.398505 0.394242 0.392568 1.563643 0.417296 -1.097796 -0.178109 1.227337 -0.186021 -1.300377 -0.876697 -1.079116 0.288853 -0.447596 0.425604 -2.343105 -0.502177 -1.067295 -0.835487 0.304415 0.375060 0.450314 0.210668 -0.413827 -0.551282 0.292782 -0.286958 -1.997591 -0.228977 -0.428250 -0.353259 -1.876573 0.747151 0.721124 -0.327604 -0.659689 2.378175 -1.647040 0.518028 1.202725 
the 1.261850 -0.177484 -2.511660 -0.159761 0.617033 1.066337 2.969508 -2.040910 -1.264364 1.547773 -1.158934 -0.048087 -0.801985 -1.391714 -1.565166 -0.085112 1.689925 -1.323879 -0.428639 -1.310976 0.360263 1.979000 -1.395970 -2.018033 1.216293 -0.127413 0.673728 0.300010 -1.083401 0.411846 0.260999 0.182457 -0.011121 0.285537 -0.604953 -1.765371 0.371494 -0.565427 1.327027 -1.639856 -0.217908 0.280115 0.783414 -0.325002 -0.053599 0.634957 0.161713 -0.565859 -0.273163 -0.733917 -0.133778 -0.279133 0.323736 3.378228 -1.332312 0.388597 -1.886925 -3.540557 0.507264 1.950029 0.748133 -0.253702 -0.517318 -0.344811 1.764372 -0.386923 -1.187863 -0.376742 1.279548 -0.305893 -1.160350 0.821373 -0.603909 1.643818 0.931648 0.249059 1.041352 -0.103888 0.250071 0.334296 0.075737 -0.643393 -0.351486 -0.857384 -1.640989 -0.380852 -0.683215 0.723579 0.814966 0.962276 -0.818867 0.482770 0.405322 1.602659 1.064894 0.307313 0.382912 0.275003 0.479733 0.730892 0.069165 -0.268918 0.510512 0.681792 0.417443 0.222221 0.183212 0.608316 0.359676 -0.700424 -0.296979 0.345172 -1.774674 1.271064 0.856641 0.272633 0.529800 0.950956 -0.480003 -0.688849 -0.848552 -0.097726 1.165568 1.202721 -0.324969 -0.710162 0.260590 -0.423389 -0.980292 -0.716135 1.286691 0.200185 -0.083708 0.081413 -0.241245 0.635700 -0.350709 0.332764 -1.099889 0.425028 -0.004206 -1.055651 0.295749 0.547131 0.106908 0.657155 -0.422034 0.250041 -0.727642 0.689523 0.973087 -0.185891 0.554297 1.188349 0.890064 0.095656 0.373165 -0.909255 -0.526107 -0.078643 -0.741948 -0.552821 0.346164 -0.078805 -1.056887 0.019208 0.316406 0.025425 0.029592 0.177727 1.075381 0.871014 -1.330438 -0.987076 -0.367301 -0.297894 -0.882732 0.387708 -0.163274 0.839083 0.894956 0.227142 2.036756 -0.106092 -0.552008 0.077212 1.089071 0.970691 -0.621620 0.981297 -1.149537 -1.001310 -0.086880 0.951992 1.347900 -0.777660 0.092708 0.825289 0.305506 0.129270 0.197960 0.537612 0.215687 -0.826118 -0.784338 0.068939 1.359699 -0.356988 0.234216 -0.724215 1.122729 -0.670715 -0.694466 0.242786 0.148744 0.264260 0.748281 -0.860031 -0.023918 0.754193 0.449345 -0.289130 -0.461181 0.344461 0.460933 0.826352 1.229330 0.343548 -1.106014 0.827408 1.132100 -0.030318 1.480753 -0.190290 -1.014116 0.100510 -1.059919 -1.236405 0.357769 0.609869 -0.516766 0.065309 -0.363025 -0.142703 0.514907 -1.277394 0.024287 0.356840 0.934106 -1.156989 0.301690 -0.467212 1.070217 -0.976117 -0.029787 -0.484796 -0.241626 0.201946 1.470071 -0.735403 -1.140538 1.083225 0.452605 -1.085008 0.464952 0.655748 0.031358 -0.615961 -0.797160 1.103916 0.098672 -1.744415 0.070159 0.905043 -0.180672 0.259238 -1.202265 0.983930 -0.482805 -0.295712 0.228991 1.133837 -0.897897 1.356230 -0.257333 1.813114 1.245768 -1.238170 -0.122244 0.451740 0.314913 1.099393 0.201549 -0.916812 0.289372 -0.138392 2.463665 1.217058 0.200937 2.408493 
white -1.401972 0.910967 2.056084 -1.722252 1.470297 -0.675774 0.738582 -0.280846 0.086673 0.553652 0.965300 0.734280 -1.298234 0.031360 -0.518242 0.653854 1.522153 -0.162493 0.264915 -0.105445 -0.931541 0.307800 -0.717044 -1.134146 1.418615 -0.160281 0.198635 1.185521 1.287047 -0.923765 -0.768548 0.365058 0.252208 -0.832836 -0.209702 -1.055636 -0.814530 0.983385 -0.471455 -1.347452 -0.647887 -0.052528 1.011577 0.674684 0.892966 -0.447041 0.302206 -0.703094 0.693276 1.188158 0.342592 0.236831 0.290031 -2.470932 0.541441 0.009976 0.078555 0.124214 -0.235555 -0.163469 0.384147 -0.095451 -0.111456 -0.295980 -0.173230 -0.369493 0.861197 0.730342 -0.851152 -0.060602 1.235994 -1.161490 -0.277535 -2.534836 -0.449408 0.933046 0.591424 -1.352831 -0.549583 0.343867 0.401475 0.304762 -1.765255 0.279442 0.340549 1.185373 -0.843978 0.311775 0.405064 0.494405 0.295413 0.094194 -0.579009 -1.846043 -0.474820 -0.141653 -0.274736 -0.310323 -0.259903 0.151298 -0.231234 0.426082 -0.437525 0.332359 0.200878 -0.002435 -0.001247 -0.074171 0.037058 0.432737 -1.254803 -0.437211 1.421479 -0.959720 -1.484284 2.106728 -0.192641 2.821174 1.800901 0.370200 0.238092 -0.200269 -0.353609 0.729280 0.531246 0.604808 -0.582120 0.943978 0.997633 -0.051152 -0.874010 0.140754 -0.299445 1.416408 -1.919612 0.103285 0.312322 -0.675837 -1.538835 0.188366 0.225851 -0.083573 0.567315 0.011252 -0.675435 -0.512835 -0.847978 0.927807 -1.752707 0.477038 -0.518691 0.224551 0.447505 -0.155999 0.925166 -0.653415 -0.106392 0.203489 -0.024434 0.328084 -0.118918 -1.046576 0.367801 0.928489 0.865666 0.728314 0.298376 0.024981 -0.104992 -0.312746 -1.539027 -1.619177 0.811788 -0.459703 -1.274787 0.410617 -1.418124 -1.174922 1.305364 0.442225 1.198301 0.138967 -0.199596 -0.839515 -0.212122 0.480388 -0.029738 0.284581 0.410047 0.404712 0.334788 0.574110 -1.718708 -0.778457 1.792860 -0.748078 -0.011159 0.299867 0.031596 -0.714374 0.257350 0.368654 0.815098 0.347618 0.239628 -0.642122 -0.051696 0.865443 -1.146853 -0.639578 -0.703281 1.568090 0.832159 0.178334 -1.497907 -0.013220 -1.180134 -0.635657 -0.585217 -1.232655 0.331847 -1.038451 -0.128355 0.058328 0.040968 0.925065 1.002579 0.588841 -1.352525 -1.112968 -0.238825 -0.504629 0.927306 0.131860 0.243604 0.589576 -0.118392 -0.795874 1.309785 0.373518 -1.077109 -0.344435 1.466880 -0.448027 0.128302 -1.843286 -0.047360 0.504989 1.730152 -0.005469 0.338987 -1.121198 -1.267071 0.058121 -0.026665 0.938862 -1.505609 0.937039 2.039447 -1.534394 -0.360785 -0.755604 -0.138191 -0.973126 -0.007792 -0.180227 0.289518 -0.784838 0.120917 -0.556892 -0.512262 -0.122002 -0.007915 0.034307 -0.103679 -0.404269 -0.574395 -0.378926 -1.226149 0.414321 -0.065215 0.120967 0.424497 -1.225137 1.008010 1.331601 0.088301 -1.264347 1.946186 -0.037527 1.010808 0.350216 -0.406179 0.990324 0.209240 -0.586800 1.178388 -0.744530 -0.185374 -0.659600 
on -3.383944 0.200213 0.927749 -0.063611 1.208389 -0.669797 0.270475 2.156145 0.856663 0.010221 1.032853 0.645932 0.891486 0.310762 -2.047342 3.520294 -0.340986 0.522729 0.421546 -0.305817 -1.000580 -0.437606 0.631982 0.357208 -1.449466 1.571374 -0.333866 -3.077985 0.976249 1.211146 0.830633 0.195794 -0.203876 -1.315205 -0.632928 -0.694211 1.586906 0.483492 -3.200954 0.313399 -0.424034 1.703052 0.567890 0.676168 -0.630029 2.300967 0.460288 0.864683 -0.554697 1.220212 -1.072572 -0.165946 -1.618507 -2.355130 1.000974 0.221558 0.829172 0.210690 0.134595 -0.083374 0.984953 -1.344972 -0.739737 0.868521 0.195402 0.712664 1.104275 -1.176733 -0.821580 0.009224 1.281926 0.096319 -0.553557 -0.734120 1.072314 1.608263 -0.116545 0.817153 -1.090743 -3.405076 0.391582 -0.677491 0.795208 -0.074917 1.591913 -1.050951 0.841250 0.359562 0.732372 -0.014755 -0.955619 -0.573637 0.203394 0.284944 -0.821744 -0.666600 -0.924963 -0.750909 -0.522295 0.355183 -0.144776 -0.192022 -0.716641 -1.535340 2.099397 -0.626547 -0.293910 0.045288 0.203307 1.676671 0.229192 0.584058 2.590257 -1.246598 -2.649541 -1.052458 0.680863 -0.467803 -1.629258 -0.329440 -0.395173 -1.628267 -0.606703 -0.978280 0.354532 -0.014193 -0.538539 0.451876 -0.259351 0.084029 -0.611260 1.119027 -0.989202 -0.860777 0.198961 1.083260 0.362449 -1.416829 0.670981 -0.075186 1.679821 0.592410 -0.194033 -0.466904 -1.102638 0.841306 -0.616768 -0.517587 -0.629208 -0.004489 1.538820 -0.262268 -0.474377 1.781722 -0.362321 1.230411 2.928015 1.938214 -1.907756 -0.808767 -0.023730 -0.002379 0.773353 1.311308 0.377368 0.234999 -0.496314 0.082350 0.320487 -0.895168 0.422674 0.765945 -0.806887 0.639412 1.671732 -0.656203 -0.830816 0.167024 -0.378077 -0.127103 -0.465879 -1.159069 -1.928501 0.614979 0.802277 0.169294 -1.138353 -0.084774 1.010733 -1.169140 0.720103 1.178702 1.962562 -0.279598 -3.428874 1.244712 -0.087602 -0.342780 -1.817618 2.018843 1.174203 -2.797261 -0.484335 1.061473 0.715740 -2.160911 -1.618330 1.413430 0.549748 1.048604 -0.228588 -0.428586 0.181588 -1.093623 0.413173 -1.975167 -1.559375 0.614671 -1.234158 0.219445 0.926384 -0.639136 -0.720808 0.345441 -1.260086 1.301435 0.450014 -1.167823 -0.542601 -0.663936 -1.741048 1.129489 0.327768 -0.632963 -0.991184 -1.386508 0.494084 -0.126419 -0.852246 -0.965696 0.824126 -0.064338 -0.538219 -0.007688 -2.316087 2.362299 -0.644334 0.041583 -0.515999 0.630987 0.925906 1.748333 0.790359 1.253472 0.244949 -1.770473 0.467100 1.018576 0.826780 -0.875807 2.508968 0.351958 -0.731687 1.378083 -0.345033 -0.098618 1.259897 -0.371788 2.294716 0.492535 -0.373118 0.870877 -1.492353 -0.895118 1.601631 -2.326320 1.979664 1.252990 -0.261421 -0.243970 0.122216 -0.097634 -3.135018 1.247422 0.977023 2.000070 -0.783962 -3.762185 3.157858 -0.586376 1.656440 -2.027337 -1.216252 3.373565 2.602859 -0.286404 -2.182959 -1.885949 0.348541 -0.882371 
hair 1.260058 0.523315 1.098926 -0.177342 1.290729 0.000013 0.659564 -0.051756 0.980329 -0.686676 3.447124 -0.591996 -0.627239 -1.574365 -0.288666 -0.543539 -2.121791 3.552411 -0.759896 -0.246246 1.289886 0.837731 -3.152410 3.340922 -1.644531 -0.469984 -0.330077 1.374629 2.192107 -1.360165 -0.261413 -1.102560 0.498709 1.931725 0.280836 -0.167756 -0.848330 -0.496227 -0.088451 -2.220363 0.520680 -0.311229 -2.136615 -0.978446 1.852499 -1.370959 0.129564 -1.958468 1.210322 -1.343200 1.162006 0.040050 0.454949 0.471271 0.025539 -0.346773 -0.336660 1.298937 2.117616 -0.173535 1.107891 0.878494 1.133117 1.210622 -0.465660 -1.994352 -0.397678 2.792598 1.193875 -0.908468 -2.608309 -0.193941 -1.657718 -0.283596 0.161266 -0.544089 1.563578 0.703386 -0.274604 -3.034826 1.333713 0.721924 -1.510805 -0.106104 0.531674 0.626185 -1.263741 -0.850287 -0.253949 0.152707 -1.100242 0.120703 1.111740 0.218230 0.194725 0.942565 -1.824098 2.182338 2.314229 2.569351 -2.712356 -0.439400 -2.347510 1.493901 0.698115 0.054770 0.658243 1.320880 -0.042476 -1.023843 -0.248275 0.128986 0.035642 0.724216 1.364468 -1.016772 -0.190377 -1.300073 0.001583 1.174736 0.160723 -0.829349 1.166947 -0.007404 -0.025075 -2.272251 0.205028 -2.262061 0.953093 -0.080053 -1.384300 0.314796 0.491061 -0.966097 -0.906577 1.097634 0.306686 -0.993475 -1.153289 -0.566542 -1.767548 0.694295 2.239642 -2.490421 1.587173 -0.829992 0.120763 -1.520543 1.264740 0.150967 0.348790 1.173654 -0.541422 -2.977851 -0.632170 1.721156 -1.384035 -0.280797 -0.159028 0.132162 0.582227 -0.840860 -2.081733 -1.254687 -1.626412 -1.284230 0.131657 0.114145 -0.094514 1.139037 1.130124 -0.131398 -1.007483 1.014178 -0.039436 -1.796160 1.691094 2.281146 -1.835023 -0.244047 1.144122 1.213274 1.043978 0.803721 0.234502 0.195299 0.820115 0.732443 1.251867 0.818591 -1.047211 -0.376735 -0.428116 0.207527 -0.462058 -0.388516 0.757231 0.493519 -1.626131 -0.756252 1.420831 0.654604 -0.275598 1.417469 0.103613 -0.436091 -0.182077 0.403766 -0.452451 -0.483407 0.051510 -0.037942 -1.857497 0.193909 -0.074043 0.681973 1.255845 0.206162 0.993757 -0.499772 -0.361539 0.362692 -0.408446 -0.420613 1.563710 0.543109 -1.652632 -0.786182 -0.412498 -0.862985 0.100252 -0.249037 0.474245 2.002938 -1.506887 -0.938691 0.173762 1.054361 0.542484 -0.872175 0.289072 -1.384416 1.158721 0.929291 -0.300725 -0.130246 1.091594 -1.516111 -1.213233 0.448792 -1.483064 0.972787 -1.178081 0.622942 -0.748217 0.360672 -0.120277 -0.734647 -0.369342 -1.060008 -0.896513 -1.132611 -0.944222 1.015254 -1.820989 2.823544 -0.254226 1.358161 3.136491 0.611372 -0.712541 0.040364 0.576424 -0.449710 0.800555 -2.471669 -0.015242 2.916959 -3.214724 1.359569 -0.639620 1.264430 0.221272 0.236600 1.886438 0.473676 -0.390033 -0.199295 -0.471031 0.698528 0.479350 0.324900 1.477378 1.224806 -0.519004 0.617260 -1.681650 0.933054 0.392448 -4.414908 
in -2.281689 -1.348058 -1.539485 0.392161 1.032461 -1.129178 -0.059714 2.690002 -0.777075 0.020361 -0.523388 1.644964 0.576635 0.853727 0.155635 1.077186 -1.169087 -1.868970 0.913628 -1.664718 -0.849882 -1.605377 3.093795 -1.114013 -1.229604 0.956459 -0.106824 -0.159381 2.272425 -1.503287 -1.173631 0.074332 0.769716 -0.441675 -0.476511 -0.304450 0.969781 0.574328 -2.318699 0.714730 -0.081724 1.427370 1.206633 0.088413 -0.492065 -0.075251 -0.925731 1.292616 1.059240 1.927809 1.621815 1.165563 -0.578517 -1.132614 -0.415044 -1.959508 0.777241 -0.777059 0.657990 -0.289961 0.526734 -1.435754 0.196471 0.519452 -1.137361 -0.431134 0.151565 2.212371 0.325157 -0.033915 -1.368979 -0.546417 -1.468384 1.251940 0.323740 0.617077 -1.046953 0.834249 -0.466524 -1.706207 -0.717776 -0.378236 -0.812541 0.191383 -0.556363 -1.677980 0.659728 -0.784761 -0.666095 -0.817667 -0.051052 -0.506158 0.392081 -0.079998 -0.527194 -0.521940 -0.294760 -0.415775 0.178181 1.043990 1.123566 0.472327 0.620978 -0.830169 -1.881026 -1.417982 0.973058 -1.457501 0.783899 -0.226727 -0.160012 0.044669 0.094567 -0.714208 -0.814914 -0.989649 -0.204858 -0.864738 0.590699 -0.739533 0.757403 -0.282155 0.094661 -0.901613 -0.434085 -1.709982 0.195783 -0.693057 0.168150 0.294126 -3.558930 -0.135859 -1.956510 0.848389 -1.850594 2.006849 0.053722 -1.004125 -0.625130 -0.283426 1.997886 -0.440202 0.737799 -0.188483 -1.082178 -0.475370 -1.538866 -0.503209 0.446346 -1.119799 0.777557 -0.803339 0.021956 -0.317818 1.176722 -0.034156 1.320459 -0.729330 -1.258496 -1.171362 -0.570521 -0.087461 0.550967 0.673935 1.217050 0.581281 0.113601 1.396954 -0.169244 -0.956603 -0.089202 1.122335 1.097754 0.403355 2.551584 -1.574422 1.344948 1.593703 -1.934685 1.553067 0.488018 -0.416972 1.111769 0.865861 -1.203064 -0.426335 -0.197762 -0.452843 -1.272999 -0.550241 -0.320925 -2.454461 0.231811 -0.294274 -0.928105 0.131611 0.289170 -0.418426 -0.277856 -0.178114 -0.260949 0.137947 -0.156696 0.537522 -0.524743 -1.390576 -1.256491 -0.119770 0.860295 -0.758866 0.369515 -0.436742 -1.306693 -1.328326 0.618917 -0.939947 0.962528 1.327934 -0.141512 0.499720 1.197326 1.423936 0.466041 -1.230996 -0.592264 0.969194 -1.028162 -0.231221 -0.795729 -0.572207 0.478785 0.333410 -1.179781 2.065427 -1.730773 -1.496100 1.020828 1.431169 -3.515827 -3.730115 2.374935 0.089318 -2.245986 1.778515 -1.904772 2.486370 0.655614 -0.182131 -1.594685 1.303530 -1.010860 0.417347 0.532184 0.408694 -0.274212 -0.295262 -0.194069 0.668120 -0.348490 -0.540807 0.833860 0.452750 0.836263 1.746117 -0.401869 1.096215 0.209546 -0.327749 1.174280 -0.024784 -0.292260 0.063297 -0.941768 -0.112374 1.069899 -2.425687 0.484940 0.979791 0.101101 -0.097103 -0.786674 0.346932 -1.276903 0.070551 -0.585217 1.125747 -1.101133 -1.049712 0.740177 -0.216670 -0.484922 -1.298850 -0.670221 0.775739 -0.589250 0.780604 -0.415289 -0.882003 -0.035862 -3.547765 
her 3.050352 -1.662123 -0.384118 -0.259997 -2.070055 -0.233186 -0.522699 0.911118 -1.668948 2.426138 -2.802166 -0.079846 -1.099841 0.339366 -0.817991 -1.156847 -0.703898 -2.443262 -0.872205 -1.187773 2.291614 -0.647519 -0.389611 -0.696694 2.710455 -1.248987 -0.452792 -1.457511 -0.940660 -0.781048 -0.368015 1.678712 -1.128863 -0.139193 1.695115 2.540163 -1.216296 -0.863505 1.676393 1.277282 -0.983654 0.538025 2.574495 -0.931850 1.483489 0.956856 1.894878 -2.131599 0.387850 0.621786 -0.737632 -2.192175 1.003471 4.293053 -1.006603 2.568006 -1.322136 -0.478552 0.126327 1.811129 0.365223 0.457160 0.669355 0.824835 -0.118327 0.964562 -0.594381 -1.984662 0.434266 -0.646266 1.103360 -0.293164 1.090744 -0.388950 0.376545 0.960791 0.720008 0.493201 1.206812 2.605457 -1.376630 -1.083401 -0.016053 0.167008 -0.832861 1.293231 -0.322723 1.425890 0.623801 0.436731 0.792927 1.632622 -1.959618 1.637128 -0.539066 -1.109209 0.970093 1.172910 -1.005656 0.490572 1.880003 0.119114 1.929714 0.720156 0.723521 1.095278 -0.343854 -0.247496 0.235055 -0.776548 -0.679486 0.271519 -1.721702 0.802781 0.797349 0.004798 -1.087619 3.276544 1.150784 -0.244071 0.477599 0.628847 0.601725 0.043428 -0.828417 -0.687857 -2.279325 1.298645 -1.498760 -0.717367 0.245957 0.053492 0.139945 1.215670 2.003901 0.203921 -0.865941 0.833610 0.160537 1.555380 -0.347658 1.078501 -0.238998 0.557205 0.793112 2.000806 -0.242416 2.227516 -1.899081 0.782630 -0.015319 0.360620 1.052753 1.739053 -0.658033 -1.064965 -0.500124 -0.097616 -0.922302 1.052012 0.263586 -0.009683 1.047434 -0.954699 -0.068281 0.517654 -0.040477 -1.589522 -0.429590 -0.014191 -0.122468 0.303325 -1.845664 -0.242638 0.345158 0.653543 -0.177562 -1.268062 -0.605640 -1.161574 -0.088588 0.577617 -0.398151 -0.038415 -0.599143 -0.293686 0.428684 -1.068780 -0.926142 0.487958 0.999780 1.676888 -0.102192 -0.008087 1.998805 -0.165514 -0.292317 -0.696592 1.209810 -0.756926 -1.207851 1.250914 0.431423 -0.971790 0.602471 0.875374 1.248184 0.449897 -0.105235 1.013361 1.410991 -1.396971 -0.101579 0.562504 -0.242570 -0.337918 0.007301 -0.834070 0.081561 1.454139 -1.427582 -0.522013 -0.938422 0.518007 -1.028423 -0.018796 1.815209 -0.219134 0.090371 1.688878 1.318718 0.467957 0.583653 -1.908423 -0.369074 1.007873 -0.141399 -0.763812 -0.937676 2.038932 0.697819 -0.134139 -1.422131 -0.925883 1.265169 -0.643112 -0.287907 1.422930 0.843793 0.054689 1.136456 -0.273536 0.681612 -2.742679 -0.041589 -0.875459 0.962599 -0.429390 1.539229 -0.441700 -0.908227 -1.243357 0.781295 -1.419043 1.320131 -0.573349 0.989135 0.223481 -0.389340 1.033439 -0.139003 -2.276924 0.992795 1.237309 -0.696726 -0.287997 -0.023301 -1.118045 -0.084076 0.113019 -0.340453 0.066371 0.597547 -1.076227 -0.130575 -1.094766 1.553365 0.647928 -0.359633 0.130742 0.264047 1.123793 0.611942 -0.354939 -0.198222 -0.547957 1.231914 2.513494 0.449284 0.779799 
dark -2.263730 1.814451 1.615415 0.617729 -1.041066 -0.850873 -0.565247 1.165794 1.572236 0.059264 -2.438858 -1.378743 0.010775 0.944917 -0.426884 -2.223618 2.245030 -1.507408 -1.922094 1.626706 0.449995 -1.026061 1.229076 0.418908 1.425569 -0.469633 1.223292 1.959997 0.873683 -1.626583 -1.508029 0.344469 0.759023 -1.600679 0.151297 -0.433934 -0.516193 0.170913 3.779580 -1.208450 -0.065047 -0.511045 0.073421 0.081794 0.649588 -0.513623 -0.193370 0.630087 1.294106 1.026044 1.128410 0.562302 0.100242 0.119408 -1.120928 1.357457 -0.283151 -0.552199 -1.163245 -0.032120 -0.164289 1.363141 0.238028 -0.869843 1.000647 0.237141 0.684911 0.697987 -1.834960 0.240781 0.234159 -0.722852 -0.042551 -0.640268 -1.173232 0.048459 -0.549518 -0.911023 0.625489 0.082330 -1.192081 -0.193470 -0.022499 0.147480 0.178223 -0.803059 -0.010309 1.054311 -1.414179 0.579136 -0.465577 -0.653836 -0.477901 -2.404596 -0.360928 -0.619876 -0.658123 0.153824 -0.597379 -0.529215 0.568082 -0.403677 0.470274 -0.717719 -0.559635 -0.291962 -0.254659 -1.413130 1.252369 0.347729 -0.533872 -0.635551 0.759248 -0.126175 -0.562580 -0.494610 -0.188875 1.122275 1.303001 -0.778943 0.912002 -0.386332 -0.361507 0.664860 0.006909 0.215496 0.554963 -0.398634 -1.467437 -0.680657 0.391256 0.955506 -0.986191 -0.921652 0.589879 1.268090 -0.483316 -0.207996 0.259051 0.438580 -0.425346 0.214296 0.180582 0.173877 -0.165330 -0.113958 0.685361 -0.134958 0.311344 -0.326202 -0.712716 -0.694320 0.269130 0.280763 0.347369 0.465800 1.286513 -0.297922 0.001949 0.008266 0.586748 -0.349586 0.051224 1.515103 0.767157 -0.812576 0.295026 0.336773 0.551966 -0.164289 0.507817 -0.660739 1.303083 -0.830893 -1.253376 1.291803 0.368754 0.030451 1.426045 0.603089 -0.319983 -0.884192 -0.644794 0.242264 0.267263 0.193722 1.415776 0.220507 0.521642 -0.256848 -0.380612 0.832738 1.172876 0.634660 0.844058 -0.896800 0.069963 -0.521318 -0.031670 0.140841 0.186221 -0.468511 0.663790 0.111709 -0.439730 -1.801779 -0.764778 1.100531 -0.288174 -0.218124 -0.422882 0.396992 0.892929 0.058074 -0.215068 0.100310 -1.831681 -1.252705 0.076283 -0.018505 -0.602337 -0.399113 -0.510400 -0.164278 -0.418320 0.690207 0.677821 0.224719 0.011205 -0.216851 -1.142476 -0.806338 1.447032 -0.205089 0.422710 0.165964 -0.194627 -1.092824 -0.516186 -0.410996 -1.469403 0.130345 1.252831 0.034842 0.248451 -1.951966 -0.462847 1.287869 1.122155 -0.075199 1.029887 1.000976 -1.023458 -0.108063 0.837670 0.825127 -0.896367 0.117683 0.861334 -0.037064 -0.030665 0.309589 0.957741 -0.531355 0.041055 -1.082793 1.057557 0.427555 0.571346 -0.024641 -0.060018 0.347958 0.194000 0.274370 0.274509 0.891760 0.462839 0.647924 -0.487075 -0.085906 0.221193 0.032646 -0.027303 -1.015231 0.370342 -0.467806 -0.003336 -1.741781 1.269856 -0.052184 -0.424849 -0.136758 -0.352264 -0.280872 -0.679313 -0.686611 0.031267 0.057236 -0.579374 -0.649293 
coloured 1.116442 -0.297682 2.516143 -0.276952 0.622909 1.056409 -0.480126 -0.269790 0.696103 0.100954 -0.810960 0.122755 0.610095 -1.117452 0.569961 0.889208 0.306147 -2.288276 2.125007 -1.322963 -1.024400 -0.020402 -1.590817 1.063471 -0.887092 0.319865 -0.130266 -1.104145 -1.279840 1.400873 -0.446529 -0.901199 -0.281068 0.368231 -0.882666 -1.821049 -1.136517 0.192150 -0.842175 -1.022441 -1.433353 -0.406043 1.056647 0.768920 -0.507016 1.408486 0.279050 -1.011048 -1.468487 0.334428 -0.916002 -0.277182 -0.489224 0.027110 -1.195696 -0.710261 0.023530 0.263103 0.353916 -0.841513 -0.210653 -0.838094 -0.336899 -1.000133 0.418462 0.700752 0.361287 0.376990 -0.334413 0.363142 0.080607 -0.865850 -0.069556 1.348188 -1.179353 -0.758140 0.210089 0.433432 -0.367536 -1.058493 0.276063 0.297946 1.132202 0.428529 -0.197966 0.643826 0.434091 -0.881097 -0.807157 -0.819128 -0.245374 0.010295 -0.491308 0.875824 -0.136809 0.601338 -2.001620 2.362110 0.002752 -0.401005 -2.150694 -0.701763 -1.162394 0.712652 -0.379455 0.494154 -0.385157 0.084082 -1.037460 -0.655882 0.114805 -0.413231 -0.171669 0.248041 -0.978072 -0.042351 0.449168 -1.308918 -0.837193 0.109930 -0.554274 -0.176653 0.004217 -0.315352 0.697217 -1.438602 -1.371325 1.013168 0.840198 0.126500 0.693507 -0.870962 -0.407512 -0.171503 -0.950471 -1.262058 0.126369 1.170783 1.101816 0.023688 0.076356 -0.817049 -0.370320 -0.389445 -1.043377 0.701558 -0.112550 -0.585674 0.362641 -0.155172 0.577348 0.363588 -0.816168 0.056241 -0.742847 1.110891 0.996271 -1.076259 1.991021 0.212681 -0.186630 -0.086204 -1.257689 -0.794283 -0.652900 -0.943116 0.016362 0.152651 -0.043048 0.582150 -0.183990 0.290312 0.207340 -0.722759 -1.400788 2.397380 -1.178032 -0.499606 2.325327 -0.548928 -0.969375 -0.664019 -0.574891 -0.126023 0.606613 0.295656 -0.186162 -0.372676 0.878837 -0.674568 -0.573358 0.653886 0.336818 -0.639104 0.239865 0.132790 0.171044 -0.397024 -0.673465 0.105694 0.087317 -0.918822 -0.316959 0.172274 0.356533 -0.434373 -0.354360 0.655392 0.764324 1.215495 0.585981 0.186340 0.290754 0.521897 -1.205910 0.986544 -0.538575 0.913964 0.062125 -0.701806 0.243784 0.644367 1.560009 1.081057 0.363631 -0.522963 -0.417434 -1.434500 -0.533674 1.384936 -0.820147 0.087840 0.038217 -0.878249 0.103961 -0.581875 -0.198964 -0.500797 0.312325 0.837894 -0.238524 1.068710 0.423673 -0.300080 0.089896 0.328766 -0.376007 -0.397605 -0.045472 -0.189424 0.244667 -0.654286 -0.868942 -0.135793 0.572213 -0.011581 -0.602695 -0.127107 -0.167862 0.968605 -0.414342 0.502622 0.574796 0.524710 -0.761510 0.531680 -0.282355 0.853455 0.167625 0.478249 -0.300738 0.596984 -0.159790 -0.443386 0.093897 0.654314 -0.120707 -0.953841 0.077615 -0.418178 -0.519899 0.176303 0.438120 0.270823 -0.825465 0.468529 -0.241300 0.654314 -0.888790 -0.152212 -0.337026 0.312495 0.059972 -0.477607 -0.634277 0.475453 0.330041 1.299183 -0.328386 -0.158283 
colour -0.398744 -0.614778 2.321737 -2.204250 -0.849607 -0.319643 0.153283 2.116422 1.187171 0.245295 -0.648791 0.261748 0.829162 0.228466 1.131366 -0.867740 0.277621 -0.725828 0.732884 -0.578175 0.245820 0.120030 -0.957448 0.873671 -0.356891 1.002328 -0.640321 -0.727587 -2.333288 2.238436 0.641211 -0.599087 -0.720157 0.424095 -0.919157 -0.983763 -0.358433 0.435059 -0.243243 -0.391842 -1.080185 0.232642 -0.353956 -0.151546 -0.861734 1.261337 -0.963810 -1.136548 -0.086640 -1.181489 -1.102145 0.206459 -0.809588 -0.207179 -0.166383 -0.256265 0.111035 -0.102409 0.317012 -0.290862 -0.525387 -0.356320 0.091529 -1.318398 0.449688 -0.648558 -0.057032 1.127479 0.080083 -0.274576 -0.392003 -0.346209 1.009945 -0.326985 -0.409304 -0.090136 0.054824 0.648887 -0.443575 0.124521 1.792218 0.258262 1.925718 0.640940 0.349837 0.609822 0.576157 -0.154752 -0.373991 -1.413010 0.816347 0.243736 -0.591383 1.979326 0.237970 0.227551 -0.566478 1.209594 1.120553 -0.372965 -1.468263 -0.368818 -1.697638 1.106359 0.019744 0.123032 -0.555135 -0.421607 -0.758951 -1.107233 1.062205 -0.179605 -0.427400 0.361564 -0.493662 -0.456160 -0.183777 -0.429460 -1.389262 -0.035258 -1.065858 -0.154231 0.671085 0.059911 1.013670 -0.498162 -0.386229 -0.281383 0.041891 0.329077 0.730991 -0.062800 0.739615 -0.740455 -0.118787 -1.776833 -0.923229 0.867197 0.310707 0.004295 -0.157211 -1.384762 0.513926 0.308103 -0.883486 0.957723 0.507833 -0.051111 -0.427775 0.619412 0.245125 0.116023 -0.370232 0.939211 0.028095 1.239501 1.710400 0.525141 0.305221 -1.021488 -0.286466 -1.201033 0.137195 -0.208778 -1.727369 -1.217507 0.231046 -0.335515 0.412270 0.856483 0.491582 -0.298992 0.143073 -0.753704 -2.239976 2.086974 -0.783733 -0.666597 0.691210 -1.219060 -0.550957 -0.066800 -0.515806 -0.905149 0.332543 0.494585 -0.720545 0.227245 0.648661 -0.456583 -0.148021 -0.400273 0.509046 -0.188081 -1.000308 0.175130 0.262258 0.220268 -0.639848 0.920922 1.782623 -2.151668 -0.597040 -0.023545 1.357724 -0.514073 0.171051 -0.240726 1.319228 0.568847 1.177308 0.249920 -0.545051 -0.112941 -0.502132 0.129730 0.253346 0.838935 0.088536 -0.443265 0.205690 -0.796294 1.231325 0.567762 0.990815 0.007160 0.789544 -0.862886 -0.686676 1.379846 -0.050834 -0.138700 -0.259460 -1.616079 0.861651 -0.318461 0.612015 -0.885705 0.771169 2.989429 -1.170606 0.928711 0.031951 -1.010585 0.422679 0.823706 -0.211300 -0.291891 -0.215826 -0.840230 -0.104291 -0.248794 -1.228323 0.419123 0.349683 0.079413 -0.283467 -0.013117 -0.536710 0.977583 -0.265755 -0.109770 0.345678 -0.348730 0.044081 -0.496119 0.188079 -0.009668 0.812869 0.433941 -0.634183 1.049471 0.973707 -0.187497 -0.779940 1.154891 -0.461083 -0.409393 -0.176848 -0.113417 0.004513 0.883954 0.784755 0.823626 0.072436 0.331562 0.837087 0.916385 -1.227188 -0.107238 -0.962994 0.928251 -0.321350 -1.492163 -1.400871 0.310428 0.159964 0.640425 0.149134 1.735298 
shoes -1.762986 1.665309 0.944159 1.447437 -1.128546 1.218720 -1.267443 1.512470 0.288069 -4.336877 2.292677 -5.377376 1.159566 -1.790620 1.163247 -1.700883 1.009262 -0.487515 -0.732362 1.105523 2.719635 -1.643258 -0.999031 1.860218 -1.999936 0.102212 -3.070197 -0.495081 3.135289 -0.840198 -0.894099 3.307546 0.527417 -0.877167 -0.080867 0.536838 2.015795 -1.243364 -0.447584 2.685890 2.527145 1.017603 0.233721 -0.180419 0.851787 -0.489558 0.601162 0.280055 0.565286 -0.193073 1.073120 1.881713 1.515678 3.564322 -1.224253 0.655159 0.766705 -3.353494 -0.965414 0.839979 0.324423 -0.566926 -0.605079 -2.276160 0.484121 1.092618 0.395307 0.594521 -1.309681 -0.436033 0.346685 -0.115483 0.008713 0.640260 -0.387901 0.060008 -0.333032 0.636080 -0.571674 -1.359910 -1.805563 0.223065 0.675717 -0.149896 0.042406 -0.989797 0.346021 -0.033188 -0.895546 -1.326516 0.205222 -1.292046 0.849652 0.753162 0.118139 -0.657690 -0.669887 -0.448411 -0.605447 -0.018665 -2.092358 0.234623 -1.425619 0.630376 0.765562 0.597217 0.282452 1.651125 0.065249 2.282710 0.255604 1.362995 0.088471 0.284393 0.159572 0.350807 0.784792 -1.336437 -0.703287 -0.395223 -0.312765 -0.375604 1.324750 0.241279 0.299748 1.005190 1.711566 -2.033628 0.735647 1.327837 -0.974540 0.338075 0.838805 -0.790237 -0.534083 -0.417260 0.329964 -0.192232 0.352501 0.947461 0.254647 1.566138 -0.567496 -0.418734 1.393417 -0.756600 0.198895 -0.684749 1.508220 -1.223126 -2.467845 -0.505844 -1.706518 -1.676478 0.541270 0.564705 -1.709078 -0.356755 -0.598559 -1.112199 -0.087962 -0.854985 2.036013 -0.256360 -0.446004 -1.827619 1.737598 0.286377 2.565919 0.161671 0.555914 0.290405 0.708620 1.245922 0.693228 -0.090073 0.448185 -0.104303 -0.641302 0.880329 -0.051946 1.482075 1.119145 -0.349599 0.688994 1.116652 -0.694646 1.645767 -0.780756 -0.332604 -1.381486 -0.080757 0.988142 0.005040 -1.768059 1.116157 0.221017 0.162881 -0.425205 0.216629 0.061066 1.314123 -0.587030 -1.024168 0.981314 -1.611875 -1.361657 1.272153 0.961100 -0.561629 0.887764 -1.109638 -1.991906 0.263603 0.143404 -1.333530 -0.515737 1.089458 -0.331875 -2.404229 -0.246262 1.005519 -1.056025 -0.464153 2.555334 -0.077341 -1.004833 -0.898311 0.743549 0.025616 0.730579 -0.410761 -0.545252 0.829101 1.204534 -0.739114 1.715461 0.762943 -0.181509 -2.954137 -0.080376 -0.724372 -0.804145 1.303116 0.065021 2.392136 0.229191 -2.067119 -2.121295 -0.263900 -0.072838 0.157009 0.228965 -0.138340 -0.759360 -0.473915 1.461414 0.766362 -1.496746 2.616068 -0.041571 0.202565 -0.823668 0.021645 -0.419103 -0.401374 0.115675 -0.747344 1.781262 2.080626 -0.443302 -0.427832 1.839220 -0.018503 2.722209 -1.241788 0.969160 1.698571 1.736212 -0.088614 -0.924802 1.135809 -0.944626 2.225368 -0.035926 1.538088 0.140817 1.747807 0.458783 1.573625 -0.936809 0.266780 0.770370 -0.007494 3.369101 1.356496 0.096493 -2.697875 1.924591 1.130048 
pair -3.403773 1.321034 0.757886 -1.421482 -0.108858 4.199774 0.764174 -6.475938 -5.630290 6.520886 -4.738944 6.314585 1.818110 2.932302 2.020632 -0.937896 2.092442 2.571331 -2.834357 2.329429 2.653364 -2.276929 -0.440740 -0.080374 -1.734728 0.407792 -1.741575 0.800117 -0.420186 1.346792 0.129072 0.357571 0.474125 -0.779371 0.227320 -0.045993 -0.197422 -0.048635 -4.292389 -0.826730 1.896573 0.149015 3.692326 0.556908 0.554762 0.453121 1.898854 0.103231 1.208771 1.836491 0.340033 0.821772 -3.513157 -0.601905 -1.556686 -1.981607 -0.522820 3.410276 -0.522392 -1.444456 -0.010464 2.880171 0.299182 -1.937253 1.199676 0.358115 0.016015 0.461706 -0.330858 -0.344352 -0.471967 0.575273 0.033425 -0.696644 1.351181 0.438787 -1.663969 -0.980207 1.932099 -0.585226 -1.050181 -1.190796 0.372405 -0.173921 -1.612843 -0.363942 0.336584 1.242558 0.198309 -0.353231 -0.561129 0.355284 -0.107864 -2.341877 -0.472926 0.537670 -1.496919 1.808737 1.234910 -0.713202 -3.501487 -2.331475 -2.686001 0.681297 2.486931 1.583125 -1.702245 1.347766 -0.862314 -0.256052 0.916286 -1.883759 2.152863 -1.518555 -0.175553 -0.220460 -1.082211 -0.525926 0.823318 -0.207500 -0.986627 -1.862769 0.597286 1.928457 -0.360350 2.156235 1.636485 -0.232332 -0.697054 1.436721 1.701743 -0.259872 0.544127 -0.745640 1.950827 -0.014513 0.334369 -0.206591 0.036622 0.117647 -0.118097 1.027408 -0.303324 0.042854 0.436337 -1.256717 -2.939239 -0.426000 -0.086775 0.440570 -1.577794 -0.132107 -0.866996 -0.117380 0.284858 0.893324 -2.045864 0.871060 0.338639 1.527336 0.025104 0.294943 -0.149276 -0.671714 -1.824794 -2.297404 0.768166 -0.320356 1.266742 0.140140 0.243878 -0.512508 -0.443962 0.040983 -5.511632 2.158583 -4.392493 -4.256865 5.406487 0.254277 -2.532024 1.050713 0.028177 0.881234 1.101469 1.285233 1.632537 1.398599 -0.067218 0.598353 -0.566763 -1.360773 -1.380155 -0.284515 3.541260 -1.312389 -1.479666 0.725588 -1.415396 -0.728992 -0.619922 1.904769 0.077205 -0.529660 0.567506 2.537217 0.853327 -1.657216 0.856172 1.861577 0.487186 0.140038 0.433239 0.639219 1.291976 0.026230 0.805598 -1.890657 -0.280624 1.116190 -1.076259 -1.038440 -1.042438 -0.001439 1.424575 2.113590 -0.364804 -0.948360 0.610025 0.995327 1.543186 -0.082357 0.060635 1.049621 0.797769 -0.478248 0.070583 -0.759337 0.548228 -1.684245 0.109298 -0.885868 0.839855 1.764472 0.808168 1.500065 -0.179078 -2.077021 -0.826583 -1.153844 -0.587093 -0.813588 2.826311 0.544859 -0.930483 -2.291517 2.338009 0.394750 -1.092303 -0.743279 -1.705040 -1.285366 -1.318745 -1.165821 -1.596210 -0.927977 0.330154 0.719168 -0.020291 1.224788 0.700359 1.082326 -1.027975 0.030843 1.029458 0.443700 1.161988 1.691712 0.549333 0.601429 -1.001268 0.829408 -0.844457 2.172503 2.683506 2.619352 -0.619235 0.176382 2.332805 1.283149 1.709619 -0.619309 -0.406964 0.911612 3.760678 1.303597 -2.264576 -1.167367 -0.253633 -1.486009 
short -4.996823 0.280059 -0.875045 -1.273979 -1.775515 -0.397925 2.400276 -2.754761 2.227900 -1.799335 -2.562902 -0.474267 2.100444 1.780751 0.781536 -1.278514 -0.057439 -1.494076 -1.955701 0.716984 -0.290410 -0.512600 2.367139 -0.603190 0.208955 -0.588560 -1.079335 0.252244 0.019061 0.554238 -0.028142 -0.155706 0.396807 0.078494 0.083409 0.317375 0.794501 0.109584 -1.138880 2.260226 0.860554 1.369528 2.222229 -0.222126 -2.073016 1.170771 -0.730739 0.255932 1.795383 2.934031 -1.026755 1.955043 0.685100 4.533176 -1.795849 3.045015 -0.557841 -1.509618 0.062193 0.764818 -0.080444 0.419637 -0.327084 -0.827257 0.820627 -0.108912 1.475585 1.116946 -2.089997 1.038092 0.011662 0.557612 0.149175 -1.364863 -0.883538 1.069023 -0.961804 -1.104373 -2.842925 0.772782 -0.124878 0.816513 0.186658 -1.219568 -0.136546 -0.413176 -0.946248 1.285043 0.692467 1.581927 1.359335 0.454885 -1.387720 0.599077 1.315971 -0.345133 1.241089 -1.533076 -0.757375 -1.841895 0.877030 0.689765 1.303803 -1.391015 -0.506010 1.182266 0.503686 -1.046768 0.259331 0.970613 0.686633 -0.534363 0.850123 -2.356484 -0.866254 1.132014 -0.205463 1.090753 -0.202212 -0.485862 0.080154 -1.909638 -1.287331 -1.184558 1.006599 1.442852 0.970709 -0.264768 0.985301 -0.192163 0.195639 1.142631 0.259388 0.998964 -1.969804 -1.082619 0.111481 0.582332 -0.473241 1.061214 -0.588499 0.235654 0.103458 0.354206 -0.452673 0.588344 -0.382961 -1.370066 0.830362 -0.553892 -0.952168 -1.271443 0.392644 -0.031475 -0.614645 0.099657 0.947341 0.996216 0.449739 -1.080134 0.226091 0.210227 0.170424 0.351137 0.774450 0.563469 -0.791457 -0.468480 0.279083 0.092575 -0.745891 -0.190912 0.480597 -0.844213 -0.195790 0.005041 0.169384 -0.357907 0.269212 1.210708 0.400575 -0.934593 0.878420 -0.873352 -1.635588 -0.664051 -0.866835 0.421321 0.005934 0.266552 0.876337 1.038017 0.182443 0.586664 0.209926 0.243593 1.176834 -0.189029 0.299989 1.196334 0.881460 -1.448667 -0.261775 -0.390140 0.747789 -2.401193 -0.550256 1.552807 0.184238 -1.232252 -0.360690 1.377817 0.571257 0.166014 -1.542843 1.084615 0.055622 1.547608 -0.598302 -0.940644 0.288982 1.380731 0.384171 1.125044 -0.181974 0.559457 0.797537 1.081900 1.406521 0.800480 2.440400 -0.181710 -1.133232 -1.536602 2.524734 -0.417945 -0.640204 -0.208899 -0.433446 0.701968 1.663374 0.754390 -1.642068 -1.480101 -1.382420 -0.482463 -0.673859 -0.279696 1.791194 0.279712 0.171104 -1.120589 0.944422 -0.851707 -0.555436 -0.537808 -0.114137 0.887866 0.827081 0.082780 -0.198291 0.150166 0.019172 -0.836159 -0.489107 -1.768244 0.635264 0.513509 -1.385568 0.385562 0.271923 -1.576850 -0.695997 -1.020170 -0.641014 1.883540 0.787972 -0.679143 1.701496 -0.078595 -2.546078 -0.054169 0.662700 -1.381465 -0.552372 1.752273 1.295228 3.404985 -0.108795 -2.251469 0.376563 0.179947 -0.284751 -0.027547 -1.559065 -0.835574 2.274913 -0.343582 0.955923 3.538660 
has 1.889384 -1.450903 -0.960268 3.614789 2.048185 0.127879 -0.079081 -0.324713 0.153151 0.935131 1.559383 0.319654 0.851937 -0.908874 -0.942662 0.022809 -0.606174 2.323994 -0.232507 0.602490 1.982275 -1.584554 1.592238 0.058170 0.305301 -0.220999 0.842801 -0.305196 -0.838658 2.542310 1.220279 -1.133020 0.146087 -0.433913 -2.016349 -2.170803 -0.212848 1.569341 -0.683070 1.558943 -1.220070 -0.352926 -0.290460 -0.171855 0.853360 -2.576221 -0.734289 0.471882 -3.560647 -2.415763 -1.479077 0.675875 -0.730946 -2.656953 0.819491 -1.061700 -0.600234 1.183820 -0.388252 -1.038985 0.778519 0.262548 1.059780 0.071697 -0.333914 -2.143003 1.046934 -1.923443 0.121331 -0.203870 0.932489 0.223386 0.464426 0.273915 1.063886 -1.452855 -0.645533 -0.177567 1.661403 1.920843 0.975038 -0.881836 1.656790 -0.917459 2.327781 -0.906230 0.424167 0.085686 -0.705790 -1.026577 0.689934 -0.813923 -0.987364 -0.808692 -2.186159 -1.785135 -0.421700 -1.618652 -1.318093 -2.349417 2.603898 0.451428 2.529525 -0.488433 1.540598 0.430978 -0.557377 -0.259807 -0.821118 -1.101204 -0.067291 -1.623371 0.230888 -1.682501 0.167133 0.109558 -0.343105 1.978799 0.083093 -0.782871 1.804814 0.076444 -0.638002 -0.627186 -0.736369 1.262295 0.094767 -0.054418 -0.320112 -0.029407 1.484497 1.381739 0.431404 -0.908710 0.306021 0.684868 -0.224135 0.625234 2.753412 2.343915 -1.744781 2.460350 0.359002 -2.018733 -0.340487 -0.323738 0.944009 -1.524802 0.860091 -1.734007 0.469388 0.129001 0.436329 0.031897 -0.899480 0.127266 1.604484 1.149179 -1.880063 -1.099721 -0.105135 0.390005 1.190799 -0.715634 -0.190778 0.937118 0.010605 0.053344 -0.491511 -0.045378 -1.040118 -0.500101 0.501209 -0.060320 1.595908 -0.268787 0.685089 1.062843 -2.940741 0.225082 -1.268401 -0.763933 -1.307455 0.628797 0.768804 -1.504896 -1.390674 -0.101533 -0.258939 -0.614217 0.653687 -0.074338 -0.191419 -0.243320 -0.949766 0.219945 -1.072459 -0.259605 0.330827 -0.355782 -0.148877 -0.102783 0.036200 0.189417 -1.013406 1.227845 0.549912 -0.431067 0.985648 1.309448 0.285147 0.522323 -0.783130 -1.298345 1.397361 -1.199712 1.613077 -0.335860 -1.179858 1.894356 2.103052 -0.502062 1.033446 -1.325266 -0.136524 -1.073260 0.484132 1.519749 1.433585 -0.432880 0.157545 0.756966 -1.000669 -1.974319 0.118207 -0.410775 1.223348 0.024142 -0.475051 -0.494601 -0.123245 0.193435 -0.580245 -1.014944 -0.194770 0.498152 -0.225494 0.795731 -1.105595 0.261520 0.774360 0.612935 -1.340218 0.537561 1.696069 -0.532002 -0.556797 0.767176 0.179559 1.177451 0.331954 1.743105 -0.662306 -0.683430 1.552880 -0.173836 -1.602007 -2.396716 -1.060355 -1.094957 -0.617022 0.415243 -1.724189 -1.313020 1.274449 -1.293005 -0.386198 -1.898506 1.684724 -1.373044 0.340806 -0.918979 0.928895 1.070917 -1.023367 0.357890 0.408815 0.900774 0.932170 0.441915 -0.252992 -0.343600 -2.378484 -0.324355 3.477839 -0.454412 -0.875692 -0.383903 -0.103743 2.526046 
or 2.078406 -0.286826 0.334534 2.576280 -1.054211 -0.055023 -2.723731 0.702229 -0.773044 -0.773068 0.442057 -0.129670 0.979644 1.227391 0.387181 1.358696 -0.276062 -0.031971 1.607182 0.077579 -1.017313 -0.856626 1.346422 1.107311 -1.871430 0.312373 -0.301459 -0.561936 -1.352717 1.704006 -0.311904 -0.467550 0.326531 -0.322691 0.198694 1.327382 1.059536 -0.219354 -4.585131 0.922527 -0.186135 0.028355 1.100160 -0.374659 -0.430209 -0.812225 0.231746 0.452535 -0.674997 -0.303508 -1.063693 -0.872741 0.020963 0.953877 -0.449586 -0.279091 -1.090815 -0.429936 0.560747 0.500890 -0.590843 -0.075234 0.253942 0.566642 0.197694 -0.096570 -0.338801 -0.163720 -0.066207 -0.405048 0.431717 -0.280085 0.584588 -1.044863 -0.601715 1.206336 0.555324 0.541909 -1.552081 0.294447 0.337684 0.679576 0.688820 0.066226 -1.165569 -1.076229 0.348025 -1.444289 -0.256626 -0.353027 -0.166986 -0.368705 0.105733 -2.363854 -0.847722 0.966305 1.131448 -0.887199 0.523534 0.852080 1.200943 0.534994 0.430983 0.274908 -0.223183 -0.853111 -0.568485 -0.054400 -0.049881 -0.014925 1.758025 0.322619 -0.896962 0.282866 1.214934 -0.887571 -0.986054 -1.909270 -0.309593 -0.260170 0.173641 0.507185 -0.739043 -0.147026 -0.526250 1.173250 -0.099384 0.205663 0.411802 0.855242 0.922348 -0.335614 -0.450609 0.122841 0.122377 0.180628 0.012962 0.266928 1.112005 0.556549 -0.194212 0.019827 -0.178274 0.102218 0.031614 -0.288585 -0.074868 -0.878430 -1.070387 0.667709 -0.067759 1.302604 -0.803571 -0.426211 0.082588 -1.371202 0.302894 -0.365903 0.843595 -1.167295 -0.590609 0.771458 -0.467595 -1.599082 -0.686269 0.071580 -0.600968 0.461972 0.695089 1.546780 1.793473 0.892090 -0.574034 0.131944 -0.134752 -1.192244 -0.398664 -1.288616 -0.373497 -2.480146 -3.278212 -0.180113 -0.476318 -1.421931 -0.115676 -0.747272 -1.483989 -1.415924 0.150097 -0.110122 0.633170 -0.756742 0.287960 -0.812747 -0.705540 2.907735 0.146827 0.416641 0.086494 0.557588 -0.068673 -0.186126 -0.448649 -0.921130 -1.177274 2.702911 -0.104648 -1.992554 0.319098 0.180763 0.125046 -0.739632 -0.646428 -1.053048 1.281171 -0.330345 -0.046885 1.531688 0.239331 -1.507072 -0.592102 0.399833 1.210013 0.052707 0.284748 -0.231041 -0.972165 -0.681860 0.084515 0.815271 0.205766 -0.553209 -0.169875 -0.015257 -0.337874 -0.331576 0.976015 -0.682739 -0.082157 0.012113 0.949617 1.353067 -1.324933 -0.669464 0.222739 0.932879 -1.257433 0.687904 -1.526170 0.227493 -0.349831 -0.536002 -0.156893 0.108242 -0.453492 -0.791603 -0.758637 -0.216913 -1.390046 1.667262 -0.016846 -0.397166 0.037672 0.958142 0.126069 0.166379 -1.058453 1.120792 0.410940 0.580152 -0.508084 1.119453 0.061411 -0.595484 -0.496641 0.325207 0.545440 1.355415 0.065288 -0.113800 0.551655 0.533659 0.560012 1.810132 0.353912 1.577109 -0.926085 -1.468970 -0.056694 -0.046571 -0.149117 -2.149097 1.007888 -1.567688 0.540725 0.377732 -2.177684 1.949605 -0.977611 -2.127647 
grey -2.912802 0.869813 0.451790 -1.754994 1.067357 0.346151 1.190051 0.079690 0.097667 1.688105 0.680720 0.305016 -0.751672 0.920976 -0.423522 0.999206 1.072033 -1.443454 -0.944793 0.224551 -1.294513 -0.461217 -0.314073 -1.185435 2.954224 -1.068823 0.128114 -0.000287 1.904004 -1.725145 0.088064 1.511000 -0.575956 -0.284226 -0.813720 -1.281816 0.213896 0.561163 2.047074 -0.728764 0.648166 -0.130076 -0.491518 0.618848 0.515554 -0.905587 0.367752 0.903085 0.724383 0.247752 1.114731 0.341319 0.423035 -0.207450 1.002750 -0.128058 0.672644 0.793726 -1.493544 0.055394 1.283616 0.485158 -0.127814 -0.161418 -0.385701 0.483946 1.456466 -0.431005 0.482196 -0.858894 1.241904 -0.163849 0.454483 -0.536238 -0.448664 -0.431472 0.096484 -0.315506 0.406969 0.027486 0.320723 0.609273 0.621504 0.245849 1.126858 0.566999 -1.006055 0.938835 0.806825 1.108371 -0.171735 -0.332680 -0.678969 2.524100 0.353602 -1.132893 -0.500998 0.219082 -0.415142 0.924689 -0.705615 -0.626959 -1.207071 -0.154429 0.502328 0.116069 0.549449 0.419132 0.023308 0.779850 -1.253090 -0.762015 0.694549 -1.216289 -0.538355 0.829492 -0.058367 1.937141 0.546325 0.246250 0.152306 0.632885 0.106640 -0.145279 -0.491988 0.627849 -0.432774 0.843279 0.410647 0.473676 -1.236881 -0.360616 -0.143855 1.481211 -1.362859 0.373298 -0.247523 -0.368419 -1.327103 0.216238 -0.143876 -0.160987 0.451102 0.259515 -0.966615 -0.641692 -0.551196 1.279521 1.223542 -0.686435 -1.133915 -1.761124 -0.611911 0.011569 0.416370 -0.121088 0.047430 0.078146 0.221183 1.236147 -0.358256 0.395154 0.516488 0.496106 0.778931 1.015019 0.938527 -0.361984 -0.469676 -1.030190 -2.086213 -0.711159 -0.032251 -0.168101 0.384012 -0.418549 -1.338252 -0.578691 0.724554 -0.117868 1.551801 0.253163 -0.077070 -0.518924 0.314920 0.412832 -1.698483 0.611062 0.158845 0.668366 0.086288 -0.191848 -1.269887 0.717409 1.777663 -1.309755 -0.977942 0.023024 -0.112105 -0.894502 -0.634525 0.274441 -0.231691 1.043401 0.318126 0.451526 -0.146047 0.344794 -0.863594 0.233664 -1.564683 1.045093 1.564612 0.265288 -0.824209 -0.872020 -0.816260 -1.311974 -0.664750 -0.838362 0.290815 -0.882903 -0.585366 -0.009153 -0.065674 0.516560 1.045231 -0.032398 0.380570 -1.992310 -0.954721 -0.667302 0.442164 -0.223984 0.559419 0.395189 0.222804 -0.627047 0.879379 0.397650 -0.747896 0.205691 0.712138 0.086750 0.722716 -1.500309 -0.879122 0.139112 0.548863 0.203117 1.378289 -0.639040 -0.042279 0.738624 0.892529 1.296945 -0.437653 0.028304 0.210774 -0.923123 -0.086521 0.990852 -0.662089 -0.059235 0.393012 -1.098661 -0.242172 -0.063463 -0.446147 -0.682282 0.301603 0.083230 0.109163 0.154890 0.092892 -0.079641 0.220040 -0.620345 0.236458 -0.102979 0.417042 -0.124356 0.070108 -0.506836 -0.104427 0.618239 -0.071229 -0.614535 -0.346398 0.017326 -1.225730 1.540553 0.200228 0.235321 -0.932851 -0.162953 1.145437 -1.228967 0.373470 1.912492 
bag -1.363864 -0.182741 -1.566502 2.269952 0.409540 -1.335943 2.724304 -2.815570 0.170026 -1.110468 0.783915 0.942973 -0.844779 1.355264 2.366363 -3.030263 -1.029023 0.661892 1.092251 1.062353 -0.196628 0.495559 0.856507 0.862745 -0.288475 1.055732 -0.569753 -0.285636 -0.888878 0.955257 1.791657 -1.548867 0.396851 0.952824 -1.007796 2.316736 -2.744966 1.469926 1.309867 0.947764 -1.252731 -1.426796 -5.866768 1.843255 0.620457 -1.620831 -2.066226 -0.023736 -0.571706 -0.795738 -0.511821 0.028242 -1.033965 -1.541202 2.582206 -1.747375 1.371104 -3.303363 0.091563 1.739726 -1.980704 0.251550 -0.648588 -0.807938 -0.697224 0.859572 -0.663458 -0.350962 -0.829720 1.428584 -0.214315 1.125376 -1.122486 1.124048 1.932921 0.950065 -2.671789 -1.173287 0.946977 1.948687 -0.553403 -0.611947 -0.990519 0.780419 0.093006 1.712335 0.961092 -1.407654 -0.050929 -0.649489 2.392041 0.846007 0.333980 -0.820280 -0.730700 1.209488 0.353776 0.308311 0.743884 -0.359111 -0.510515 1.166384 0.122169 1.765378 -1.537487 0.490833 -0.120533 -0.741216 0.852742 1.190633 0.744788 3.223964 0.443938 -0.371654 -2.439254 2.059711 0.118864 -0.619753 0.538269 0.562502 -0.393361 1.014233 1.033187 -0.631254 0.099899 0.212240 1.213168 -0.860270 2.500120 1.052875 -2.899754 1.083884 0.553037 3.411523 -1.147510 -1.810959 -0.286588 1.035508 -1.374395 1.220798 -0.705790 1.895960 -0.576512 -1.846726 2.213188 0.934430 1.124864 0.826424 -0.559064 -0.165872 -0.938378 0.148782 -0.934558 -0.094273 1.238285 -2.618532 -3.675621 -1.725170 -0.214561 -0.177889 -0.896050 2.469458 -1.305110 -1.657588 -0.807793 -0.350071 1.660135 0.413117 1.819118 0.350779 -0.577563 0.470812 1.211451 -0.260252 1.354665 0.173069 1.976236 -0.855775 0.303758 0.541390 -1.716319 0.826580 -0.215734 0.697417 0.614102 0.852391 2.961420 1.264682 -0.629908 -0.489039 -0.715435 0.518682 -0.650471 -0.152266 -1.402908 1.016967 0.008866 0.010434 1.283879 0.762342 -0.147832 0.236480 -0.813365 -0.378842 -0.584968 2.151908 -0.198109 -2.137153 -0.904624 0.662334 -0.696339 0.715649 -1.884313 0.839301 1.504976 0.767530 3.050030 0.895415 0.050449 0.238834 -1.263218 0.669772 -0.231018 0.122895 0.444702 -1.960984 -2.453706 0.557814 1.845057 -1.219444 -0.653670 -0.580925 2.003110 1.391086 0.612552 1.684770 -0.394955 0.214509 2.028164 -0.766057 0.666030 -1.932581 1.545053 0.310109 0.271557 0.216336 0.215913 -2.254431 0.381248 -0.432816 0.068190 0.108180 0.052368 -0.847172 0.556457 -0.093749 1.208723 -1.375165 -1.151593 0.424917 -1.189922 -1.373467 -3.041442 -0.729652 0.487309 2.369562 -1.478905 -0.394095 -1.917231 0.869680 -0.297076 -1.019300 0.107266 1.764357 0.757432 0.328054 -0.128578 1.882222 0.311016 0.090807 -0.854903 -0.620567 0.246781 3.824537 -0.959324 2.551934 0.551376 2.294296 -1.106650 0.192275 1.143586 0.174340 2.390289 -0.154249 0.927086 0.256296 -2.815887 2.076359 -0.260217 -0.570251 
right -1.877706 3.690706 0.923348 -0.874856 0.027557 0.224512 1.347832 0.967359 0.231834 -2.592949 1.542919 -0.045722 1.333645 -0.013493 2.194918 -1.279687 -0.921522 2.678214 -1.392647 1.706023 -0.932185 0.331653 1.196046 2.267987 -2.326678 1.860486 -1.045627 0.559421 1.190105 1.061175 -0.710398 0.750937 0.899129 -0.020161 -2.891681 -2.095453 0.400849 -2.591599 1.773185 0.469646 1.239595 0.084863 -3.238054 -0.555433 0.322888 -1.188529 -0.661966 -1.260337 -1.155414 1.350807 0.492288 -0.954219 1.123952 -1.738074 1.679943 1.734695 0.468922 1.368994 1.097843 -1.102130 1.066432 -1.741784 -2.124186 0.534848 0.466338 0.678839 -0.315278 -0.157949 0.720095 -0.540563 -1.314402 0.758951 -1.944925 -1.865056 1.022294 -0.521137 1.171421 0.334137 -0.831240 -2.344100 2.179624 -0.294967 1.225289 0.626983 -0.876660 -1.788381 1.553173 -0.977592 0.139987 -0.441125 1.471418 -1.088153 0.393223 0.763330 0.641325 0.470575 0.220020 -1.498340 0.113557 -1.211776 -1.577922 -0.512405 -1.766140 -1.537889 0.085231 -0.550140 1.673578 1.991023 1.559847 0.759440 1.011549 1.706138 0.496304 0.432261 -0.547254 0.843427 -0.516981 2.405320 2.576908 1.312310 -0.575166 0.669708 -2.296056 0.442331 -1.285318 0.834179 -0.592103 1.129896 -0.127735 1.614229 1.067956 -1.893190 0.761285 -1.371987 -0.819905 -0.769789 -1.078052 0.219946 0.911753 0.795433 -2.649310 0.927966 0.162936 0.139378 1.489594 -2.382792 -0.278044 -0.079769 -2.207575 -0.710843 -1.563442 0.004662 -1.989759 -0.494543 0.693091 0.760483 -0.569485 -0.796331 -0.282841 1.117726 -0.026981 -0.317046 -1.707440 0.263337 -0.365893 -1.041056 0.108303 -0.048172 0.237543 0.270874 1.355233 -2.123654 0.832132 -0.075016 -2.597939 -1.694515 -1.130611 0.061601 0.527080 -0.383000 -1.003027 1.226066 -0.557419 0.303753 -1.282258 1.452410 1.253810 -0.964305 0.548225 0.038564 0.253712 -2.555691 -1.646824 1.786052 -0.584675 -0.925419 0.965644 0.472311 1.315707 0.087617 1.574865 -0.068247 -1.418918 -0.082727 -1.547832 -2.197204 -0.984042 2.408947 -0.838408 -1.847571 -0.511314 1.448677 -0.752346 -0.659801 -0.326032 -1.585322 1.452603 0.705916 0.777811 0.353382 1.606243 -0.200438 0.247339 -0.559896 1.354486 0.573273 -0.697271 1.430681 -0.398804 -0.285560 0.533596 -1.101261 -1.337381 -0.029664 0.805362 0.835557 -0.335183 0.724315 1.023216 0.308842 -1.190901 0.888141 0.406724 0.125379 -0.718522 -2.355727 0.375203 0.528759 0.091655 -0.667722 -1.589092 -0.480524 -1.350434 1.210338 -0.899474 1.931642 -2.964098 1.997660 -0.104339 1.217281 -0.044814 -0.495632 0.348820 0.294617 -0.361030 0.241468 -1.347694 0.042960 -0.760290 -0.824861 0.023265 0.712082 -0.409090 0.432883 -0.064358 2.039717 -0.727614 -0.463455 2.267893 -0.317316 0.949657 -1.834753 -0.431465 -0.013073 -0.684814 -0.696884 0.521666 0.702268 -0.978217 -0.357341 -1.457993 0.498194 0.006871 -3.463265 -2.270590 0.492513 0.099459 0.455597 -1.312459 -1.092726 
wears 0.543147 -1.101559 -0.956942 3.503642 0.329384 0.012883 0.922125 0.972852 0.348291 1.761201 -2.435358 2.168814 -0.735950 -2.053357 -2.143330 3.235249 -1.765295 -0.356500 0.087321 0.506790 -0.817003 -2.755041 0.556867 0.174181 -0.168561 -0.110813 1.441053 0.462369 -0.799490 0.896378 0.820315 -1.325796 -0.310696 -0.683325 -1.779443 -1.338492 -0.035675 2.413999 -4.410017 1.087959 -1.965992 -1.612065 -0.274445 0.811915 1.298191 -2.143202 -1.574741 0.155190 -2.057727 -1.410086 -2.037750 1.155860 -0.354802 -1.052576 -0.264259 -0.281886 0.090341 1.553066 0.156182 -0.403002 -0.249608 0.889708 0.687639 -0.522779 -0.313156 0.479977 1.021911 -1.379279 0.674675 -0.330384 -0.256686 0.550916 0.496012 0.609138 0.980017 -1.213542 -2.022780 -0.211059 0.735155 2.664987 -0.328086 -0.905612 2.653368 -1.360580 -0.851254 -1.323600 1.294334 -0.711644 -0.393380 -0.977494 2.205630 0.022547 -2.187034 -0.899050 -1.981910 -2.383181 -0.574240 -0.704697 -1.311425 -3.852416 3.099109 0.551908 3.923492 -0.014222 2.187824 0.330523 -0.640676 0.738252 -1.460078 -0.602254 -0.215334 -0.386374 1.724070 -1.165207 -0.475445 -0.496899 -0.496559 -0.572504 -1.042315 -0.819457 1.017046 -0.710400 0.094257 -0.643622 -0.321968 1.509138 0.104346 0.542528 -0.882086 -0.496803 0.348592 0.369904 0.819349 -0.731432 1.773571 -0.377992 -0.891044 1.142849 2.417404 0.560688 -2.522097 4.136269 -0.412829 -2.443043 0.918656 0.665400 1.798366 -1.102445 2.144311 -2.944132 -0.436514 -1.196627 0.164236 -0.230114 -2.280230 1.084374 1.752313 1.028971 -0.840676 1.521004 0.981533 0.869459 -0.807522 -0.088157 0.313178 1.210579 0.038757 -0.479934 -1.017155 -0.458908 -0.839695 -0.266790 1.040307 -0.575911 1.999179 -0.573945 2.197875 1.128468 -2.800316 0.210862 -1.293857 -0.647263 -1.008368 1.655711 -0.308385 -2.655931 0.433233 -0.640260 -1.646494 1.039030 0.193630 -2.577994 -1.571203 -0.525899 -0.075606 -0.431762 -0.609735 -0.161729 0.614180 -1.174623 0.206024 -0.632045 -0.268605 0.880707 0.052361 2.006194 0.342904 -0.734454 1.595074 1.632869 0.352686 1.351323 0.522922 -1.128746 -0.276658 -1.974720 2.333572 -0.085678 0.562300 2.480266 2.526498 -0.232368 1.610896 -1.797506 1.302096 -1.316537 1.039787 1.622506 1.466025 -0.733059 -1.134857 -0.549821 -1.895043 -0.958041 -0.014413 -0.086384 1.187977 -1.009609 -0.350074 -0.878237 -0.540356 -0.680123 0.809897 -1.886842 -0.854289 0.231764 0.006732 -0.680173 0.573986 -1.098191 1.180015 2.505265 -2.434100 -0.202906 1.689190 -0.539105 0.131787 0.015850 -1.482013 1.154051 0.494507 -0.347691 -2.759903 0.180625 1.664011 0.053433 -1.769199 -2.120955 -0.432775 -1.415876 0.366753 2.041621 -0.830017 -0.228798 -0.151625 0.001959 0.754056 -1.312217 0.227707 -1.297778 -0.001053 0.174531 0.713089 3.203047 -2.058543 0.869638 -0.946508 -1.188180 1.959831 1.101930 -1.763663 -1.395920 -1.996588 0.553860 3.956716 -0.472300 -2.303584 0.470329 -0.449388 0.973693 
man 0.487756 4.246972 -0.204296 -1.703930 -1.719596 -0.703490 0.518076 -1.112766 -0.343404 1.904733 -0.665032 2.334978 1.815263 2.324766 1.861579 -0.326833 -3.230016 3.650898 -0.004170 1.702738 0.440146 -2.155105 0.400974 2.596710 0.964211 -1.202007 0.604078 0.726546 3.596590 -1.154171 -0.719453 1.793526 0.566846 0.529737 1.754787 3.239847 -0.787588 -1.386652 1.334036 0.412338 0.526943 -0.797278 -4.292983 -0.954631 0.708508 -0.410780 0.230059 -1.174676 1.313042 0.952388 0.666748 -1.509525 -0.772115 -2.867288 1.700647 -0.216995 -0.138379 1.587288 1.186092 -1.196271 0.182367 1.073123 1.101184 0.864897 0.321884 0.684772 -0.072762 -1.273173 -0.308588 -0.592351 -0.215150 0.732255 -0.094574 -0.191698 2.099809 0.034694 -0.507011 -0.723176 -0.107304 -0.089522 0.489990 -0.232324 1.427909 0.961792 -1.827870 3.101654 -0.110677 -0.967065 -0.845662 -0.604912 1.105825 0.206657 -0.574420 0.780035 -0.424715 0.012161 0.924091 0.418270 1.453060 0.299179 1.147575 -0.439070 -0.564025 0.269100 2.325794 0.160366 -1.507670 1.142635 -0.185882 -0.143664 -0.083348 0.129026 -0.645940 -1.602583 0.849148 0.482106 1.099710 -4.417569 -1.844245 0.445805 -0.479939 0.686206 -0.644292 1.254199 -0.523888 1.291752 0.831358 -0.616413 -0.734588 -0.143439 0.055593 -0.350327 -0.003632 0.360291 -0.212632 0.711803 1.148747 0.224452 -1.285479 0.087072 1.670363 -1.576418 -0.061987 0.376709 -1.620877 0.382601 -0.729088 1.916200 -2.288927 1.271576 0.180989 2.060959 -0.096845 -0.143433 1.323478 -1.785636 1.583118 -0.976911 -2.249471 -1.955065 -0.441436 0.212287 1.882675 1.653021 -1.576249 -1.752257 0.994439 0.307793 1.443457 2.308759 1.143583 0.761393 1.408731 -0.939164 -3.326657 2.358170 -0.172417 -0.374740 1.519115 -0.540114 -0.473617 -0.794547 0.084993 -0.079256 0.725708 -0.181880 -0.746703 -0.177626 2.201974 -0.355056 -0.202288 2.202107 1.424976 0.411484 -0.674073 1.774472 -0.221396 -0.408341 -0.761305 -0.373782 -0.104849 -0.118022 0.555446 0.064957 -0.914965 -0.516420 -1.430856 2.341532 0.203475 -0.409728 -1.746711 -0.009198 0.113766 -0.044396 0.040509 1.225266 -0.512665 -0.407800 0.222801 0.361020 0.363774 -0.284182 0.503392 -0.924988 -0.747254 -0.189829 -0.986803 -0.504688 1.075660 -0.727715 -1.478273 0.718256 0.555836 1.349430 -0.199647 0.129662 -0.825208 0.496019 -0.713438 0.489461 0.315577 -0.871867 1.367541 -0.606830 0.507580 0.377466 0.467053 0.544567 -0.069849 1.054505 -0.123290 0.988862 -0.077516 -0.657571 0.619349 0.109338 0.240174 -0.119686 -1.071370 -0.677784 -0.262582 -1.790388 -0.148109 0.526996 -0.919645 -0.204576 0.380076 0.733355 -0.177862 -0.235631 0.359062 -0.090333 -0.054875 -0.674325 -0.842640 -0.213891 0.628784 -1.424073 -0.997300 0.847233 -1.340882 0.858278 1.331355 -1.564317 0.408273 -1.732290 -0.602270 0.937563 0.201032 0.304369 -0.633361 -0.945701 -1.208624 0.899504 -0.699579 0.447368 -0.707262 -0.992150 0.485881 -0.058034 
left -2.975317 3.584589 -0.587746 0.099503 -1.653506 -0.127838 1.310151 -0.099281 -0.554089 -2.436348 2.199023 0.662770 1.791742 0.673823 3.386402 -1.962280 -1.862473 2.327925 -1.408694 2.454031 -0.670474 1.321530 1.550727 2.652793 -1.965612 1.564859 -1.498592 0.121581 0.980596 2.310217 -1.227401 0.136971 0.458926 0.134957 -3.618534 -3.710700 0.753008 -2.109196 1.390827 -0.221006 0.733336 -0.536559 -2.637477 0.669673 0.280861 -1.709152 -0.903719 -1.619438 -1.133895 2.176062 0.941530 -1.438677 1.148135 -1.337348 1.709566 0.899078 0.251097 0.497727 0.942646 -0.440530 1.544976 -2.614753 -2.184331 0.511931 0.251910 0.306406 -0.720165 0.397989 1.712074 -0.789941 -2.174083 0.299390 -2.027332 -2.208277 1.696050 -0.378947 1.880586 -0.216833 -2.301301 -3.637774 2.257889 0.683693 1.423509 -0.044299 -0.413797 -1.910704 1.288267 -0.341974 -0.701692 0.034992 1.048543 -1.114260 1.367665 1.228421 0.732035 0.891448 0.897931 -1.719919 -0.612256 -0.728719 -2.529343 -0.444926 -1.481590 -0.994906 -0.172851 -0.454361 0.842685 1.481080 2.255695 0.756267 -0.240736 1.573907 0.146531 0.749766 -1.260303 1.075154 -0.742824 2.227314 1.803413 1.718819 0.143254 0.230533 -1.742798 0.186236 -0.502911 1.084339 0.525226 0.171768 -1.110092 0.175329 1.573471 -0.515743 1.428979 -0.437017 -0.839298 -1.167786 -0.799333 0.288352 0.639043 0.246002 -2.458761 1.264188 0.743385 -0.238361 2.132797 -2.060224 0.417814 0.647734 -1.508515 -1.297543 -1.901469 -1.083234 -1.254662 -1.287937 -0.116551 1.226985 -0.483630 -1.551614 0.362413 0.701192 -0.219336 -0.688389 -1.451684 0.076702 -0.064802 -0.289889 -0.337977 -0.396901 -0.227143 -0.386217 1.003741 -1.036114 1.529676 -0.169453 -2.710629 -1.380088 -0.685317 0.359243 -0.021059 0.055583 -1.213816 1.365114 -0.761524 0.933256 -1.399896 1.100793 1.617670 -2.072567 0.469487 -0.306704 0.520977 -3.025005 -1.981414 1.167916 0.646130 -0.936237 1.344404 -0.121681 1.539731 0.790249 0.472472 -0.121810 -1.192374 0.245030 -1.584121 -1.507164 -1.564576 2.240245 -0.944861 -1.272310 -0.395903 1.662469 -0.229386 -0.770572 0.205439 -0.767375 2.132735 0.393941 0.991198 0.849174 1.813632 -0.173584 0.562917 -1.642869 0.480270 -0.065667 -1.426696 1.604345 0.229263 -0.302596 0.095501 -1.373837 -1.923791 -0.068768 1.463369 1.383472 -0.282401 0.295681 1.919006 0.304183 -0.759641 0.863598 0.139973 -1.112978 -0.420053 -2.771108 0.660474 0.100724 0.480230 0.002335 -0.779510 -0.304830 -0.798031 -0.462270 0.054230 0.536651 -2.169898 1.969495 0.465677 0.541419 -0.837917 0.025371 0.115851 0.916596 -0.274595 -0.409682 -1.740482 0.255808 -0.665364 -0.361128 -0.069905 0.331940 0.870667 0.612613 -1.046019 2.807874 -0.864255 1.370816 0.802177 -0.037374 1.400383 -1.057183 0.555967 0.091395 -1.891655 0.076591 0.567495 1.340360 -1.196363 -1.172745 -2.554369 -1.102904 0.647784 -3.216060 -0.989900 1.311517 0.470141 2.217199 -0.639642 -2.270483 
carrying 2.092110 0.441575 0.230946 0.228812 -0.619791 0.711980 -1.038545 0.649084 -1.414659 4.562527 -3.375265 3.067687 -0.403760 1.166427 -0.904034 0.593061 0.300907 -0.836347 -0.394331 0.291652 1.912095 -0.846670 0.054733 2.734377 1.966745 -0.032982 0.163776 0.506717 -0.908962 0.351123 1.655022 -1.149056 -1.931039 -2.623035 0.045767 -1.316077 0.034384 0.448854 0.623219 -3.013230 -0.408079 -1.749314 0.939855 1.947646 -0.547218 0.582266 -1.575781 2.376667 0.867699 0.095782 1.780576 0.589166 -0.211154 3.167321 1.219306 1.925785 -0.464473 -0.984919 -0.576128 0.007056 1.011097 -0.751273 0.318794 1.538133 -0.260127 -1.906706 0.082385 0.467817 -0.412899 -0.125736 0.044090 0.050738 1.245528 -2.853630 -1.677681 -0.860739 1.908655 -1.240459 -0.681143 -1.959249 -0.502688 -1.042875 2.598876 0.175862 -0.123469 -0.142328 -0.259623 -0.741822 -0.231807 -1.196140 0.388364 -0.744481 -1.087664 -0.538878 1.556949 -0.062520 -2.645015 0.678176 0.163294 -0.900158 2.586010 0.335745 3.102224 -0.921613 1.067183 -1.730576 0.656149 1.755409 -0.608392 2.015694 1.296740 2.109762 -0.092418 0.266088 1.084216 -0.035504 -2.121371 2.422890 0.844040 -0.848494 0.292120 -0.188533 -1.614214 -1.640030 0.058263 1.055413 -1.154989 2.956018 -1.738507 -0.429469 1.317247 -0.953716 -0.716194 -1.986285 0.577339 0.610122 0.443981 -0.621067 0.978901 0.291728 -0.521693 2.012509 0.340414 -0.157808 0.386377 0.212104 1.062444 -0.085149 -0.324688 -0.565365 0.226078 -0.014253 0.471564 0.042569 0.064884 1.118232 0.181481 -0.478813 -0.612930 0.272080 -0.238784 -0.431635 0.725510 1.507025 -0.395302 0.225257 -0.005430 0.628533 -0.661937 1.196148 0.284547 -2.098825 -1.054595 2.361594 5.187430 -2.455485 4.269787 -0.255577 -2.435158 -3.071477 -1.987046 0.749279 -0.875575 3.129274 0.484787 -1.161973 -0.745953 -2.483529 -2.470939 -1.485008 1.439672 -3.516211 -0.615381 -2.216444 0.110760 0.510074 -0.552976 0.523411 -0.295520 0.222588 0.423880 -0.335502 0.158292 0.815428 -0.480620 2.598100 1.311794 -2.485038 -0.606215 1.706773 0.531425 0.539500 -0.560780 -1.255894 0.222002 -0.204478 4.287668 0.861308 -1.080949 3.987239 1.132060 -0.765235 2.084135 -2.260222 -0.285837 0.603272 -0.903528 -1.021234 -1.282300 0.557896 0.345894 0.138103 -3.334959 1.743213 -1.400350 -1.307815 -0.865462 0.596703 -0.775459 -1.720411 0.285446 0.080527 0.374777 0.142780 -0.377663 0.301255 0.490140 -0.213448 0.093011 -0.273222 -0.518098 -0.380581 -1.867246 1.698828 -0.248895 0.532093 -2.898807 1.692665 0.850347 -0.041102 -2.191235 -1.811678 0.874258 0.031489 -1.472322 -0.854624 -0.254786 1.212038 0.279592 -0.926084 -0.696466 1.305745 -0.967894 -0.360660 0.833955 0.977283 0.364226 -0.906650 -0.774543 -0.713713 -0.465211 -0.265480 0.805404 1.081205 0.759338 2.291554 -1.920755 0.334973 0.118524 -0.363033 -0.177559 -2.127589 -0.436798 -0.954202 3.013228 -0.996377 -0.040655 -2.796228 -0.448278 1.555307 
to -6.032969 -0.201820 0.797964 2.010318 0.868311 0.597167 2.380227 -0.411734 -0.908375 -0.125645 1.000223 -0.840033 0.424076 -0.255666 -1.697554 -0.368438 -1.277315 2.534504 -0.287348 -0.989107 2.228206 -2.094876 1.135496 -0.030847 0.401642 -0.513774 1.037564 1.007407 0.319031 -1.672949 -2.874554 0.143142 0.536781 -1.841110 0.913015 1.066576 -0.313428 0.846099 -3.326402 2.618969 2.207342 0.563538 -0.483021 -1.308692 -3.468734 3.499156 1.086720 2.035146 -3.740321 -1.689238 -1.758402 0.254517 -0.650815 -2.410488 1.404227 -1.552365 -0.425501 -2.956726 -1.464928 1.998026 1.615980 -1.672839 0.664368 -1.014828 0.259362 -2.652910 0.932464 0.137403 -0.854963 -0.603480 0.118598 -0.414395 1.594581 0.767120 -0.607291 2.477928 -1.502230 -0.946307 1.968982 2.255109 -0.035494 -0.847229 -0.491724 0.139601 2.248910 -0.285393 -0.314749 1.310975 1.612781 -0.116586 0.503543 2.197118 -2.204093 -0.163899 -0.116172 -0.916971 -0.499428 -0.079050 -0.326446 0.066453 -1.475082 -1.273083 -2.963629 1.660742 0.030537 -1.460883 1.279608 0.030076 -0.661563 -0.358501 -0.339673 0.233927 1.388484 -0.673814 -2.339267 0.668771 0.038299 -0.069982 -0.379817 -1.518690 0.834074 -0.304681 1.261819 -0.114792 -0.587643 -0.194916 0.001209 1.846265 -0.360803 -0.690899 1.237115 1.230139 -0.973873 -0.946913 0.316448 -0.486859 -0.040713 -1.812065 -0.308564 -0.561626 0.298728 -0.034790 1.585385 1.548901 -0.444830 0.818629 1.459441 0.973020 0.688786 0.962245 -0.096156 -2.439103 2.893698 0.707288 -0.342796 0.548279 0.158110 0.471243 0.775594 -0.556390 -1.563401 0.965935 1.027197 -0.358769 -1.822617 1.273982 -0.428478 0.820991 0.377802 0.248021 0.394765 0.671767 -0.592780 -0.988568 1.461893 0.420365 1.113232 -0.186680 -2.085471 -0.316482 -2.254083 1.094578 -1.150417 1.649740 2.610137 -1.600129 0.395040 -1.413247 -1.108055 0.099481 0.425343 0.753318 -0.405712 -1.134417 -0.893023 -0.151355 0.081673 -0.905078 0.391133 -0.825601 0.624244 1.563211 0.288388 0.357057 -0.373555 -1.331087 -0.503839 4.375487 -2.402278 -3.324361 -2.854475 -1.582648 0.307256 -1.741458 2.061731 -0.015659 0.015105 0.805868 -1.786769 -1.765239 1.824383 0.741813 4.631621 -3.300656 0.123927 1.225718 -0.362453 -0.355678 -0.079254 -2.196082 1.643199 -0.533814 1.008835 1.109854 -0.258824 0.077056 1.498216 -1.284161 -1.882912 -1.787816 -0.538569 0.556498 0.165953 -1.869662 2.068319 2.446657 1.078549 0.939600 -0.854481 0.373782 0.373815 -0.204631 -2.707023 0.583416 0.084951 0.210478 3.124565 -0.907888 -1.852180 -0.568794 0.902331 -1.213560 0.204154 -0.097072 2.693502 0.279520 -0.556007 -1.453704 0.388162 -0.893238 0.355243 0.070100 0.212524 2.971553 1.113497 -2.952726 1.806055 1.631902 -1.732000 -0.343965 -0.656916 0.587812 -0.748316 0.241803 1.497430 -0.225944 -0.645933 -0.026521 0.948010 0.051918 1.355128 0.687001 1.858655 -0.773355 0.526460 -1.593241 -0.493146 0.342589 -0.119098 0.881521 
hand -4.087081 -2.448469 -0.563894 -1.513478 -1.857449 2.288249 2.158854 0.197452 0.784606 -0.082147 2.764440 -0.282885 0.076730 2.240375 1.463969 -2.710938 -0.761378 0.441038 1.684061 1.494266 1.314668 -2.020193 -0.746119 0.820686 1.004309 -1.379872 0.049983 0.683370 -0.134298 -0.663863 0.479469 -0.140080 -1.206766 -0.452665 2.776530 2.438538 1.494567 1.329688 2.232875 -0.617070 1.853747 0.025458 1.503415 1.436548 -0.381873 0.598679 -0.066052 1.869601 1.098386 -1.861160 -0.696052 3.547240 -1.668770 -0.155041 -1.120999 -0.604543 0.097699 -0.351418 -1.095506 -0.340496 -0.711313 -0.198648 -0.169619 -0.029706 -0.644918 -3.271884 0.272489 1.009874 -1.646981 -0.361579 0.463107 0.540240 1.755209 0.902119 -1.664082 -0.825629 1.785843 0.580143 -2.010401 -0.761800 1.239086 0.139858 1.652688 -1.349996 1.210612 0.449890 -1.340277 -0.032159 2.029013 1.104218 -1.180308 0.016229 -0.493700 0.029543 0.702974 0.444296 -0.640569 1.565089 0.839145 -1.468688 0.866663 0.870972 -0.016069 0.688601 1.389851 -0.662031 -0.742524 0.758094 -1.646496 1.123782 2.158092 2.660364 -0.086872 -0.690468 0.792334 1.277329 1.405891 -0.562669 -1.654976 -0.591673 0.817982 1.996545 0.715295 -0.975895 1.041763 -1.278465 -0.049126 0.057900 1.073983 -0.506583 0.779087 0.200107 -0.043249 -0.972300 0.996088 -0.175256 0.245842 -0.152032 -0.308675 0.337731 1.872455 -1.698704 -1.892937 0.785240 -0.752436 1.007756 1.446712 -0.661731 2.633323 1.403309 1.485539 2.171756 1.559115 1.925208 0.517727 -0.254954 0.432718 2.378538 1.395362 -0.384439 0.317143 1.506255 -1.038568 0.232186 -1.702048 -2.250972 1.970492 0.815665 0.609806 2.346209 1.069449 -0.267014 -0.273558 0.797942 2.052043 1.032156 2.315281 1.574323 -1.391843 -0.524913 1.307951 -0.121531 0.675912 -0.463264 1.623287 0.288543 -0.431085 2.558671 -0.245706 1.152286 -1.013773 2.475455 0.904344 -1.289982 -2.096762 1.267669 -0.452589 0.959354 -2.209823 -1.135205 1.402428 0.429443 1.277920 -0.158724 2.159763 1.607008 1.458015 -2.557968 -0.080193 1.012355 1.547563 -0.332993 2.109958 0.817794 -1.893220 0.604279 -3.346564 0.337107 -0.071367 -4.344493 -0.076252 -0.477309 -0.568276 0.138179 0.532182 -1.308152 1.109765 -1.371494 -1.519823 -0.707711 -0.800093 1.552130 1.007258 0.288292 0.256573 -0.554733 0.098751 0.221592 2.772950 -0.114035 -0.921858 -1.286077 1.422643 0.381507 1.112548 0.090208 0.061388 -0.387032 0.590454 -0.977658 0.934007 0.250235 -0.671237 0.765364 -0.295211 -0.228301 -1.008023 -0.783463 0.578265 -0.352467 1.046368 0.269015 -0.139345 -1.397219 -0.067626 1.770133 1.496480 -0.325503 1.578401 -0.404151 -0.001307 0.783610 -0.813125 -0.660342 0.298301 -2.134572 -0.089536 0.183989 -1.885933 0.398680 0.521228 0.375005 -0.475230 0.614196 1.754124 0.155416 -1.576755 -2.185914 1.538029 2.054119 2.631100 -0.222446 -1.311209 2.752983 1.623397 0.604816 0.192036 -1.342966 -0.067643 -0.493792 
be -0.338655 4.531175 -0.554597 0.692443 -3.353118 0.322865 -0.681334 2.849291 -0.383882 -0.514347 2.758425 2.353298 0.150490 0.901885 2.276244 -2.028596 -1.191581 -1.158270 2.843580 -0.376655 -5.429471 1.817515 -1.748443 -3.387392 -3.018487 2.160313 -2.540748 -2.085051 -1.145094 0.644975 3.021498 -0.350403 -0.151478 -0.097178 1.611449 -0.225350 1.644383 2.613312 0.906809 -0.648165 0.253399 -0.799254 -8.122064 -1.222784 2.588230 -2.689938 2.788200 2.041661 -1.567384 -0.161535 0.750901 0.788396 2.817611 -1.007681 -0.463638 2.452002 2.657282 4.395565 1.533310 -0.562986 -0.503669 -0.506567 0.117898 -0.448829 -0.705609 -2.213154 1.559468 3.506098 0.798346 0.333414 -2.579232 -1.041175 0.161277 2.602632 0.187805 -1.009088 -1.122287 1.116487 2.625666 0.004053 -1.706106 -0.811877 0.542776 0.003648 -1.783618 -2.743282 -0.203734 0.261031 -0.307262 0.269188 0.332110 -0.358366 1.361714 0.401663 -0.602509 -2.620648 0.453794 -2.642649 -0.081048 0.315627 -0.415868 -0.100673 -0.869252 -1.367154 1.206163 2.161806 2.169229 0.577223 -0.134078 -0.165457 0.746357 0.686309 -1.004490 -1.619213 1.714426 0.336706 0.922240 0.434704 1.384559 1.079902 0.617787 -0.428587 -2.035132 0.706730 0.236474 -0.528902 0.460608 -1.635355 -1.925979 -0.454561 2.166922 0.851140 1.587495 -2.209139 0.979898 0.243131 -2.115396 -0.001578 0.824183 2.358446 -0.556320 0.587731 -0.805326 -0.728556 1.374980 -1.268766 -0.366136 -2.848734 -2.721953 -0.400925 1.279503 3.584827 0.092601 0.526472 -0.518928 -2.034236 0.325235 0.811368 -1.112391 0.565154 0.356908 0.306966 -1.606564 0.525738 1.884265 -1.678174 0.172830 -0.581580 -1.523102 -1.548467 -0.503267 -1.215617 0.491676 0.367241 -1.642510 -0.464721 -1.921111 -0.964524 1.560905 1.390695 2.227149 0.457665 0.405538 -0.065074 -2.821228 0.592222 0.179121 -0.295962 0.463809 -0.011657 0.641927 0.252274 -0.515869 -0.047525 1.895336 0.924288 1.285162 -0.373681 -0.714140 -0.701944 0.147392 0.361108 0.726296 -0.014653 -0.479834 0.246628 0.365559 -3.711348 2.698086 2.463135 4.102088 2.487474 1.588811 1.074302 -2.888800 -0.245437 -3.450369 -1.269627 1.158804 -1.274692 0.486803 1.911655 -3.185834 1.238686 0.950626 -1.068069 2.566451 3.135930 -1.168335 0.964462 -1.013923 0.078590 -0.758509 -2.598039 -0.051625 -0.040390 0.323332 0.138755 0.484466 1.166295 -0.225015 -1.169966 -1.067693 -0.719692 -0.057773 -1.066060 2.350221 -0.103202 2.025917 -0.406826 0.342965 0.478535 3.005319 -2.637159 -0.497508 -2.808765 2.090086 1.884272 0.862155 -0.053403 1.246230 -0.062816 -0.674450 -0.433170 -1.299234 1.993028 1.171935 -0.190731 -1.153200 0.501943 -1.726275 -1.535945 -1.995777 -1.632678 -0.332188 -1.470092 0.042730 0.313684 1.316633 1.167178 -1.591184 1.499771 1.644860 -1.268999 -0.560969 1.468378 1.522833 -0.340596 -0.134072 -1.586184 -0.538929 -0.568789 -3.070895 1.046454 2.864341 2.161156 -1.028238 -1.390050 -0.946663 3.729663 
