835 200
</s> 0.002001 0.002210 -0.001915 -0.001639 0.000683 0.001511 0.000470 0.000106 -0.001802 0.001109 -0.002178 0.000625 -0.000376 -0.000479 -0.001658 -0.000941 0.001290 0.001513 0.001485 0.000799 0.000772 -0.001901 -0.002048 0.002485 0.001901 0.001545 -0.000302 0.002008 -0.000247 0.000367 -0.000075 -0.001492 0.000656 -0.000669 -0.001913 0.002377 0.002190 -0.000548 -0.000113 0.000255 -0.001819 -0.002004 0.002277 0.000032 -0.001291 -0.001521 -0.001538 0.000848 0.000101 0.000666 -0.002107 -0.001904 -0.000065 0.000572 0.001275 -0.001585 0.002040 0.000463 0.000560 -0.000304 0.001493 -0.001144 -0.001049 0.001079 -0.000377 0.000515 0.000902 -0.002044 -0.000992 0.001457 0.002116 0.001966 -0.001523 -0.001054 -0.000455 0.001001 -0.001894 0.001499 0.001394 -0.000799 -0.000776 -0.001119 0.002114 0.001956 -0.000590 0.002107 0.002410 0.000908 0.002491 -0.001556 -0.000766 -0.001054 -0.001454 0.001407 0.000790 0.000212 -0.001097 0.000762 0.001530 0.000097 0.001140 -0.002476 0.002157 0.000240 -0.000916 -0.001042 -0.000374 -0.001468 -0.002185 -0.001419 0.002139 -0.000885 -0.001340 0.001159 -0.000852 0.002378 -0.000802 -0.002294 0.001358 -0.000037 -0.001744 0.000488 0.000721 -0.000241 0.000912 -0.001979 0.000441 0.000908 -0.001505 0.000071 -0.000030 -0.001200 -0.001416 -0.002347 0.000011 0.000076 0.000005 -0.001967 -0.002481 -0.002373 -0.002163 -0.000274 0.000696 0.000592 -0.001591 0.002499 -0.001006 -0.000637 -0.000702 0.002366 -0.001882 0.000581 -0.000668 0.001594 0.000020 0.002135 -0.001410 -0.001303 -0.002096 -0.001833 -0.001600 -0.001557 0.001222 -0.000933 0.001340 0.001845 0.000678 0.001475 0.001238 0.001170 -0.001775 -0.001717 -0.001828 -0.000066 0.002065 -0.001368 -0.001530 -0.002098 0.001653 -0.002089 -0.000290 0.001089 -0.002309 -0.002239 0.000721 0.001762 0.002132 0.001073 0.001581 -0.001564 -0.001820 0.001987 -0.001382 0.000877 0.000287 0.000895 -0.000591 0.000099 -0.000843 -0.000563 
a -1.888063 -2.932095 -1.563173 2.528504 1.178736 0.454342 2.163023 -0.110131 -0.523539 -2.236248 2.019690 -0.317709 0.917113 -0.009283 -0.476717 -0.769376 -2.698365 -6.145008 -7.127041 -0.378609 -1.551933 1.555859 -0.333206 1.335185 -0.578100 2.666814 3.872788 -0.603191 -0.889578 -0.604398 -2.145196 -0.244972 -2.006416 -1.296350 1.299623 0.717236 0.332332 0.245512 0.101169 1.500414 -0.303427 -1.951708 2.956819 4.020632 0.011090 -5.183238 0.125693 -0.607300 0.115622 0.912122 -1.213523 0.140856 -1.254445 2.691359 1.687477 -0.223405 -1.060265 -0.274287 1.005781 0.088268 -1.873131 3.413920 -1.313831 0.664423 3.349860 0.262215 2.736222 0.632439 -0.788550 0.545310 0.168799 1.068257 0.646385 2.004107 3.354374 -0.511211 1.443393 -2.737818 3.724829 -4.762280 -3.341749 0.358142 -4.321923 -0.379082 -2.222238 -0.190533 -1.306674 1.018060 -0.759322 1.284837 -0.497388 -1.062261 -2.523619 0.835810 -3.211734 2.413614 -2.378050 -3.550301 1.253544 1.127497 -2.305964 -1.182054 -2.612643 -0.156243 -0.541478 1.597532 0.199147 0.988455 1.928884 1.082035 0.436365 -0.079116 0.846391 1.394248 1.224605 -0.772618 0.034406 2.845257 -0.228041 0.163023 -3.091359 2.186888 -2.190236 0.621028 3.552068 -2.998992 3.882204 -0.632136 0.458037 1.430845 0.056459 -0.317231 -1.504457 -1.458422 -1.377034 -2.541773 -1.182141 3.267602 -3.757510 2.215421 -0.372269 1.073717 1.334103 -2.575902 -0.677489 -2.420982 -0.117786 -1.668098 4.125621 4.011673 -1.326765 0.910700 1.540208 4.564880 1.271958 1.737857 -2.322690 -1.131833 1.003060 0.545827 -3.199074 -0.137568 -2.230046 0.059388 0.112802 -3.540878 -3.525974 -0.652284 1.273678 -0.995113 2.022869 0.519494 1.261114 1.134110 0.883195 2.609633 0.748490 0.798828 -0.574263 0.442494 0.049290 0.590895 -2.036763 -1.678468 -1.653235 2.940747 0.188207 -0.124383 -4.177591 -1.169369 0.112308 -1.235857 0.965225 0.270227 0.131018 0.870848 -1.486135 2.432842 -0.703938 0.990648 
is 0.661141 2.263874 -1.848026 -2.324697 -1.591450 4.080295 3.114463 12.391742 0.432356 0.545261 -1.100738 -0.217366 2.135932 -1.030907 0.013199 -3.669164 -3.256088 -2.660228 -2.381977 -2.979004 3.820596 0.736381 0.761705 2.183404 6.085828 4.380955 5.832989 -2.736420 2.864108 -1.926356 -1.793521 -3.117631 2.739889 -1.909797 -3.752681 -1.024082 1.170599 0.567472 -4.264472 -2.293066 -1.151983 3.236192 0.229868 1.546258 -0.014877 1.553621 0.869114 0.548833 0.623073 0.445319 -0.112362 4.429725 1.471123 -1.409390 -1.043054 0.730266 1.747141 1.875262 1.632266 -0.735763 -2.317266 -3.573127 1.347598 -2.554408 -1.651525 -2.178696 1.630758 -4.041887 -0.713674 2.277576 2.407698 0.131340 1.939711 -2.457067 -2.239911 0.167904 -2.010170 -0.573633 -0.195887 -1.221943 5.769720 3.838099 5.633893 3.692164 2.308611 1.427207 3.763391 3.571188 2.523167 -1.213263 0.668810 1.924290 1.107219 -1.591785 -1.897300 0.478011 0.484216 1.338735 -3.458176 -0.206579 -1.428815 -1.736823 0.566300 0.231333 0.004247 -2.643478 -2.995056 0.168089 0.121652 0.093712 2.385426 -0.062960 -0.994512 -1.264179 -0.258563 -0.037247 3.094490 -0.065342 1.923787 -0.633523 -0.178340 0.095972 1.614141 -0.396857 2.365327 -0.616012 0.864992 -0.079614 -1.496391 -1.593630 -1.373643 -0.767615 1.806709 -1.122864 0.637605 2.124357 1.214751 0.053392 -1.429067 -0.841257 4.060529 3.587634 -4.876338 1.128880 -2.967322 -3.168085 0.329364 2.636218 -5.228416 1.363503 -0.847653 -0.613185 -1.642315 -5.452562 -0.823346 -1.543395 2.758442 0.317058 2.584581 -2.059461 2.993428 2.037697 -0.160581 5.098948 -2.654421 1.547493 0.931545 -1.307891 0.814387 -0.277518 1.344096 0.888195 1.638671 2.711115 4.265406 -0.049970 -1.663091 1.341965 -0.235248 0.329661 -0.699752 0.148717 -0.292881 0.613383 -3.913106 -5.204385 -1.207775 1.013702 0.788588 -2.004059 1.917024 1.694628 -1.196025 1.582706 -4.637577 0.103006 4.092397 -0.820257 0.486761 1.573462 
black 0.670939 1.232935 0.692099 1.481604 1.509938 -2.498537 0.372042 -4.541172 3.531578 -1.480649 0.756873 1.323718 -1.240923 3.044583 2.075256 3.131349 -0.869351 -0.749478 -2.885886 -0.793083 2.739046 1.691955 4.006413 0.045849 -0.408716 1.882877 -1.050787 0.818748 -0.093603 2.809823 0.002484 4.245986 -2.389130 -0.416372 3.741838 -2.615491 0.876613 2.877764 -2.499402 0.933192 -1.890786 -0.527074 0.250296 -0.919692 1.691490 -1.589282 0.378293 -0.522239 0.163645 2.447080 0.366397 -0.431482 -0.126016 0.772694 -2.929302 2.520070 -2.316235 0.430468 0.439574 -0.691588 1.841448 2.935906 0.441219 0.467511 0.318780 2.394570 0.597680 -2.171108 -2.046911 -1.031024 0.011793 0.221736 1.923352 -1.464473 1.714676 -1.501953 1.045684 -0.836985 0.641350 0.519518 -2.061413 0.740900 -0.777141 3.052683 0.579476 3.507720 -1.696975 -0.394098 1.187521 -0.115097 -0.334320 2.917282 -2.480298 2.686599 1.923656 0.995770 0.461378 -0.399193 1.036144 1.728340 -0.004948 -0.986452 -0.967518 -1.480371 0.956292 0.206816 -2.562478 -0.201364 0.857723 -0.515331 -2.695352 2.531278 1.657664 -1.220729 -3.155831 -0.878338 3.017033 -1.215007 -0.987757 -1.331467 0.608243 -0.952448 -3.617056 -0.966433 -0.594696 -2.273163 0.473850 -2.351740 1.956118 0.767822 0.061960 0.112059 -1.390587 0.494382 -2.030019 1.727348 -1.120095 -1.068256 -0.686516 0.471564 0.672654 -0.454646 -2.357501 -1.034562 -1.759116 1.734862 -0.389449 4.116355 -2.585360 -0.955075 0.499684 0.859725 -0.961436 2.820415 -0.474643 -1.636947 3.245573 -3.175645 1.407461 -1.193691 1.033793 0.486033 3.995450 0.246650 0.431519 1.708061 0.912331 1.126848 -1.777486 -1.464476 -0.475882 -3.928352 0.321041 2.172602 -1.554466 -0.523786 -0.090427 -0.829418 1.180290 -1.620755 -0.335228 -2.629219 1.637644 -0.627328 1.858963 1.646986 0.804827 1.811355 1.638247 -1.066268 -0.365607 0.070442 -2.982960 -5.454797 -4.626583 -0.912421 2.574609 1.932327 -4.273196 -0.085346 
and 0.600534 1.661258 -1.780412 1.933067 2.276468 2.998488 -2.602811 5.030541 -1.051414 -2.446198 -2.332274 -1.964357 0.185190 -1.043435 -0.975580 -4.616201 0.887261 -0.618478 1.057543 0.051604 0.530629 -0.692419 -1.580188 -0.685005 1.936529 -0.772304 -3.324989 -1.400511 -0.879749 -0.912200 2.035339 1.596397 1.109136 -0.320174 2.074566 0.368655 1.017130 -0.734376 2.001649 0.114514 2.089423 -2.104095 2.898930 0.604230 -1.157023 2.826788 -0.460085 0.082592 0.772220 -0.279637 -1.384330 -1.098064 1.449662 -0.631751 -1.171001 -0.402041 2.326456 -0.306142 0.396479 0.503647 -1.218200 1.474278 -2.660896 -2.330976 0.099000 1.745777 -1.347120 3.226497 4.220237 1.135507 0.750097 -1.046059 2.481537 4.553098 1.249203 1.345353 1.565542 -4.756957 3.339242 -0.980014 2.921332 -0.691105 0.271327 -0.076301 -4.128376 -1.389223 -0.836561 -3.770553 1.169053 3.887642 -1.557047 0.601212 0.855621 -1.511787 -0.531141 2.056582 -0.267714 -0.176592 -2.770432 -1.337465 -3.110446 -0.598954 1.324475 0.283453 -2.774398 -1.842378 -0.913054 0.177754 -3.193344 -3.884348 0.502417 -1.169870 -0.318635 2.564869 -0.241580 1.051523 0.563940 1.130957 -3.560766 1.052658 -0.657163 0.974874 2.619522 0.394667 -3.062883 1.986626 -1.406885 5.274038 -0.601962 -0.167272 1.930913 1.032624 0.305263 -0.188448 0.048559 -1.030206 -1.455249 2.553970 3.801085 0.755959 0.728941 -2.059248 1.976579 -1.010998 -2.920875 -4.452043 -0.654221 -2.409263 -1.382777 2.315629 -2.191590 1.756583 0.900598 -1.326725 -0.376142 -0.572484 -2.081387 1.280900 0.494026 -2.371232 -0.682940 2.885195 -5.817286 -4.609956 0.891626 -0.453175 -0.293983 0.665596 0.321604 0.258297 0.775605 0.585567 3.822444 -0.066237 -1.547370 -1.806021 1.405639 0.862401 -0.446354 1.971291 2.599406 0.452306 -2.065993 -1.069660 1.483560 1.585314 -0.980639 -0.557492 -0.529072 2.450733 0.118074 -0.848679 0.061760 2.164814 0.375420 0.545611 0.903591 -0.215497 -1.494535 0.551163 
with 0.990807 -0.367301 -2.652019 -1.336457 3.440837 3.039048 3.032126 4.301532 -0.968382 -3.150717 2.490208 -2.788753 -1.621601 -0.791254 2.968570 -8.128896 2.152437 3.454090 2.473307 -0.740974 -0.413026 -2.152316 1.858298 -1.481096 -1.078756 -0.901187 -4.284268 1.829298 -2.900501 -2.536737 2.093437 -4.707335 1.662558 4.405310 -4.078582 3.703381 -1.711549 -3.297807 4.474096 -0.039092 1.241707 1.318929 2.690303 -3.145269 2.072045 -1.697133 2.786405 0.157963 -1.643084 2.474714 -1.700578 -2.145005 -0.018102 3.215180 -1.470156 -0.734631 -0.399840 3.887785 -3.417556 -0.728176 -2.726730 -2.004305 0.865241 -0.538347 -3.260550 -0.758982 2.157802 -0.454466 -1.651202 0.222226 1.162715 -2.597216 2.888417 1.187253 -1.391272 -0.041827 -1.218773 0.870473 0.460941 2.100737 0.596874 1.562302 0.740263 2.601082 0.821253 -1.432925 0.534815 -1.375851 1.668041 -2.159586 1.923951 1.988242 -0.358332 2.253193 2.380468 -0.146563 0.249444 -0.050878 -3.700233 -0.379991 -0.132540 0.514961 -0.614042 -1.546564 3.347880 -0.932829 0.593892 -0.136222 -3.119353 -5.902720 -0.939518 -2.156221 0.326721 0.069277 0.191726 1.171465 -5.452575 2.454154 -3.012725 1.914271 2.018456 -1.827420 3.053210 2.206191 -2.507338 3.882038 -4.271153 0.517975 -3.927871 -0.092342 -0.704969 -1.617988 2.460964 -1.350992 -0.101972 3.487594 2.465675 -1.322811 1.851617 -1.680858 -2.572458 1.305450 1.639701 0.208909 0.995874 -1.278923 1.096832 0.173613 -0.425248 -0.034794 -0.416371 2.804829 0.929757 -0.250469 -0.464429 -2.259112 0.278267 -0.382045 1.093957 -0.769192 -1.488062 0.818528 -0.542031 0.059195 -1.568307 0.730030 -1.943930 -0.614489 1.994042 1.770944 0.205243 -1.935815 -1.508776 -0.523383 0.875275 -0.180110 0.213740 0.461040 -0.163391 1.488357 1.030749 0.589444 -0.081334 -0.447925 0.700246 -0.116679 -1.203743 0.249196 0.506002 3.333898 2.548005 -0.064854 0.816807 -3.309826 0.659256 -2.389847 4.385884 -1.228315 -0.197559 1.211408 
he 1.027391 -1.503760 0.808158 -1.623670 -0.762497 1.234401 2.286041 -1.429923 -3.215404 4.205704 -0.381563 -0.023078 -0.951004 0.003702 -0.270112 2.262508 0.085625 2.336182 1.410216 2.783060 -4.837883 -1.943895 -1.539775 1.194611 -2.351477 -3.461154 -7.856367 2.450731 -0.466334 5.855861 6.002373 3.836499 0.556171 6.570225 0.835629 -1.786412 -1.527448 -0.923379 0.392730 -0.382041 1.542969 -5.765415 -1.661731 1.073259 -1.075829 5.078629 -2.171422 -0.903883 1.196929 -0.590250 3.035184 0.364581 -0.444128 -2.338650 -0.193103 0.111151 -2.335715 -3.370258 -1.234817 0.433635 0.535183 -1.042338 -3.045835 1.700294 2.977098 -0.571304 1.709250 2.893501 -1.930836 -1.234650 -3.126773 -2.686355 -0.337786 3.008140 4.418809 -2.500014 4.778667 2.554792 1.644516 1.601318 -4.439916 -0.033316 -0.432782 -2.574390 -2.227039 0.869469 -1.981217 -1.608452 -2.561479 0.205518 -2.678651 -1.916051 3.437660 2.903116 5.108502 1.044161 2.838302 0.025862 1.763474 1.069740 2.570953 1.345391 1.515957 -0.122058 1.787795 -1.631549 -1.216589 -2.480779 3.895965 -5.417274 2.412716 -4.370836 0.840052 1.687433 -2.374810 0.350312 0.115542 -2.716099 -2.125715 0.546975 -1.073419 2.851165 -3.303174 5.193377 -5.329239 -0.164035 -2.019017 0.326529 1.854893 0.333777 2.499576 2.658917 -1.139281 -3.731057 -3.427424 -1.701699 -1.010404 0.108807 3.576226 0.326915 -4.304762 0.629003 1.354617 -2.580519 2.871001 -1.156674 1.625536 -0.332653 3.039158 -1.520112 -0.452878 1.595966 0.526136 5.906649 -1.223207 1.949820 -5.055019 -0.617006 3.034152 -2.699466 0.608589 -3.173993 1.436056 -3.719452 2.922763 0.676095 -7.172719 2.072482 -4.800081 -0.286915 -0.746064 3.838777 -4.403491 -2.040758 -1.798445 -0.293615 0.193791 -3.186746 -2.615715 -0.875075 0.828349 0.246625 2.120412 0.310882 3.082609 1.982758 -3.854576 -0.121931 -0.691568 0.047193 -3.604626 -2.086926 -1.245530 -2.017051 2.524570 1.222195 0.489880 2.759232 -1.141725 2.459278 
wearing -1.798478 -1.615402 6.575203 -1.361074 2.462635 -12.871974 -9.740045 -12.117796 -1.777889 -2.028493 -0.301241 -1.509293 0.299370 -0.317870 -2.360653 -5.600710 2.667006 0.883790 5.684434 3.869009 -1.424305 1.194613 -4.918869 -2.244241 -0.800548 -3.997104 -6.777104 -0.513321 -1.259471 -2.287788 -0.447100 1.174815 2.013525 0.403930 -1.778225 0.673369 -2.333951 0.262727 2.670408 2.536798 -3.547341 -1.012431 3.171443 -3.663123 1.230872 -0.986629 0.855196 1.037403 -1.245330 -3.143480 -0.205399 -5.761925 2.486547 4.520342 -0.429671 -3.468932 2.493852 -0.732044 -4.515439 0.003119 2.135309 0.700243 2.323612 -1.389459 -1.010551 0.720144 -2.601130 5.196983 2.019932 -2.156174 0.340143 3.516730 1.668600 2.224423 -2.748054 -2.143320 -2.385357 0.122473 3.480240 -1.612743 -0.311990 -3.847270 -5.063865 1.129228 -2.569113 -3.979080 -0.298937 -5.012459 -3.721380 1.701946 -2.198210 1.518432 -2.828472 -2.717674 0.974319 -5.491212 -1.454054 0.519607 1.719423 -2.234958 -2.166023 4.302493 3.217265 3.279006 -0.804825 -2.282684 2.496823 4.744610 -7.836491 -1.333935 -4.150945 2.624895 -0.603110 0.831217 2.614367 0.431722 -4.974168 1.585691 -1.710461 0.936372 1.420397 -0.317574 -0.913239 -2.662738 2.910208 1.083411 -3.251697 0.818501 -2.147824 -1.694170 -3.442451 0.108143 4.009398 6.028047 5.393991 2.530671 0.581548 -0.599113 1.252707 -2.097542 0.109639 -3.903729 1.263994 -0.273796 -1.378932 1.822004 -2.012789 -3.621053 0.973577 0.435897 2.616558 2.644061 1.954185 -1.093365 -1.068384 -0.574925 -2.087100 -0.150582 -2.733333 3.375514 -0.029831 0.732953 0.199866 -0.160351 0.970924 -0.028273 3.008426 0.238047 2.580793 3.476547 -1.501984 -3.678905 0.739173 -2.166381 -2.664840 -0.412441 0.181485 1.866636 -0.113474 0.920838 -0.174248 0.090558 -1.842604 -1.643633 -1.088680 -2.381017 -0.188283 -3.336987 0.929891 0.808518 -2.272909 1.023475 5.022512 -1.870074 4.628080 2.011351 -2.700970 -1.182704 2.996526 0.674534 
his -7.004087 0.982520 -1.521247 2.180757 4.872051 -3.033937 3.800063 0.669759 -1.447202 3.123628 0.381876 -2.495539 5.529550 0.717989 -1.820587 0.247994 0.793463 -3.885967 -0.230358 2.128328 -1.147566 -3.867722 -1.314769 -1.593779 -4.627535 -0.207316 -4.876431 2.224061 1.932660 1.070331 3.754957 0.583991 0.834615 2.904629 1.249565 -0.462297 2.598578 -1.501354 0.275652 0.657241 2.521794 -3.899388 0.714253 4.056975 -0.522212 -3.771924 -0.984979 -3.141095 -2.329208 1.071097 -4.604498 -1.082687 -0.457515 3.045741 -2.679479 0.715483 -0.277508 0.297433 4.793479 0.297276 0.575333 -4.880688 4.684099 0.490942 2.581865 -0.169275 -0.427335 0.678291 -1.565940 -3.931356 -5.210688 0.964476 -1.361264 1.497866 2.299153 2.252071 1.645933 2.078893 0.383417 -1.864437 -3.133821 1.091367 -3.814105 0.072421 -0.198899 -1.252972 -2.524204 2.794507 -4.270738 -0.745676 -2.605304 0.816336 -1.841278 0.288281 -0.281885 -0.512112 -2.591220 -0.583485 0.984636 4.074094 -0.338760 1.037856 -1.259192 1.111864 -1.862110 -2.980955 -1.252190 -1.719980 -1.102856 -0.589411 -4.970883 -2.699409 4.212908 1.311425 0.102430 -1.618922 0.840624 -3.317801 1.363414 0.680729 -1.038406 0.750864 -2.155196 -0.969623 -0.022971 -2.780183 0.953314 -0.346051 3.586316 1.044475 0.274231 1.912373 -0.539731 0.008577 1.895337 2.051912 -2.590212 1.008541 0.484745 -1.459469 0.261049 0.837691 -1.470466 -0.533647 -1.482992 -1.503621 0.990538 -1.091991 3.959950 2.359414 0.576131 1.711352 1.248028 1.742628 -3.214099 3.869730 -1.249904 2.290776 0.057183 -0.223226 1.614610 2.187860 -0.700635 -1.565989 0.668007 2.907513 1.411265 -2.508762 -3.657288 -3.446585 -0.732949 -4.338531 1.843389 1.282844 1.616498 -1.985306 -1.578661 -1.958750 1.670293 2.541246 2.490570 -0.023721 5.017819 1.751359 3.751273 2.550542 -1.933072 -2.994335 0.104726 0.411949 -2.054070 1.040216 -2.285243 -0.976049 -0.496799 -1.910170 -3.734206 0.890559 -1.758800 -1.961890 
she -0.404425 1.304480 -0.123628 0.800017 -0.275192 2.685313 -0.300533 -3.164912 -1.838817 2.738689 0.562788 -3.377124 -0.716978 -1.178715 -0.133390 2.320489 1.878438 2.491652 1.048821 2.063881 -5.365446 -2.166759 -1.688586 0.398338 -2.026416 -1.289134 -6.734473 2.991400 -3.491408 5.669040 6.101411 2.453573 1.350710 4.291519 2.405043 -2.807433 0.078287 0.710825 -3.370944 -2.042329 0.985778 -3.004058 -1.039242 -0.576689 -2.050866 3.017181 -2.244453 -0.439428 -0.071566 0.972251 3.676750 0.070931 -0.055598 -3.012361 0.725113 0.515395 -2.337440 -2.601317 2.906675 -0.754654 -0.238733 1.676865 -2.854119 2.032298 1.630869 0.727973 1.294953 0.875593 -2.063233 -2.368033 -2.088621 -0.342101 -0.571584 3.230971 5.619484 -0.275214 4.053857 3.749447 -0.362173 2.169503 -8.260081 -1.115929 -1.482648 -2.163439 2.233900 0.272477 -3.129348 -3.530574 -0.590774 3.218170 -1.430482 -1.586342 3.542250 4.022975 3.786237 4.072610 2.907658 -0.692111 3.915574 0.844007 1.121153 2.321342 2.351152 -0.511690 0.971242 -2.949583 -1.075795 -2.091255 1.866443 -3.868279 -3.119499 -3.634963 1.596758 0.882347 -1.001455 -0.395256 0.681181 -1.333866 -3.549533 -0.992454 0.900448 2.583848 -2.840091 4.631653 -4.325781 0.341003 0.730879 1.855240 1.597456 2.351035 2.350869 1.571415 -0.928640 -0.895860 -2.682132 0.168368 -1.121485 2.294417 6.328358 1.094888 -5.542552 0.658339 1.700426 -1.332138 2.489637 4.804837 2.735705 1.221967 2.405642 -0.891582 -2.130198 -0.948044 -0.577710 6.922359 -2.223150 0.586264 -2.617402 2.566094 0.881063 -1.811018 -0.002629 3.862981 -0.798575 -7.802859 2.855086 0.307710 -5.295554 0.503749 -2.963522 -2.612932 1.340352 1.496264 -0.907777 -1.184440 -0.970093 1.299721 0.860153 -2.262512 -2.372466 3.781755 0.192778 0.825517 1.957289 0.614789 4.112230 1.173538 0.912874 0.316260 1.273430 -2.789470 -3.192159 -3.183841 -2.894422 1.670362 -0.410805 -2.883337 -1.636745 3.996746 1.125180 0.323938 
of -1.371556 5.558630 -3.299868 -2.244752 -0.542330 1.026128 1.766970 1.658607 -0.130914 1.325135 -0.297220 -3.726306 1.346692 -3.231097 -2.650152 -9.203999 1.490319 0.298172 6.073984 -3.534082 3.013870 3.405668 -0.072183 2.636675 4.306315 -1.043851 -1.824625 1.084420 -0.912671 -0.240411 -2.849915 2.347817 5.216635 -1.430851 0.038300 3.250525 -4.555818 -3.570197 4.002107 -2.329871 -1.107688 6.311924 5.426072 -5.188652 -1.639486 6.136439 -0.290844 3.616069 -6.498068 0.093992 -2.247152 -4.189569 1.976304 1.183948 3.735902 -2.085625 2.655044 0.316073 -6.315083 -1.177302 0.429236 2.321221 -0.108442 2.158514 0.833050 -0.680665 0.410919 1.509815 2.918172 -2.520640 3.887438 2.703391 -1.328341 0.132332 0.797604 -1.406037 2.040591 1.723370 -6.341690 -2.751990 -0.475204 3.305275 -1.604128 1.963991 -2.110866 -2.640237 0.708767 -0.850513 3.534246 -0.796061 4.036163 3.862177 -2.527601 2.863057 3.015961 -8.153676 1.063520 1.740323 -2.329937 1.477701 -1.508549 2.823771 1.201002 -1.424514 0.343703 -0.144344 0.186423 0.085719 2.132787 6.204580 0.662621 1.418647 -4.855063 3.160735 -2.292266 0.922071 4.938818 -4.486242 2.848761 -0.062801 4.049964 -2.443424 1.788698 0.021400 -1.399428 1.900704 -4.623536 -0.926396 -3.614277 -1.750909 -1.077786 1.529052 0.294371 1.663925 1.597257 0.646081 1.625046 -2.583254 -0.216462 4.214371 -5.470186 -1.251225 1.445189 -3.077157 -7.513251 7.232264 2.675558 -0.561887 -2.018722 4.085469 -1.990945 1.426338 -2.236911 -4.517296 -2.676592 -1.474719 1.909806 -0.479479 4.585869 -1.967550 -3.757998 -1.560791 -0.822698 0.654526 2.706962 -4.529951 -7.360932 -2.995879 4.505177 3.924070 1.626963 1.666653 -0.005773 0.585404 -1.199113 -0.604247 -0.397940 1.411038 -2.568868 0.604601 -3.526732 2.806956 -5.077786 -2.416926 -4.192324 -5.410002 -2.566026 -0.328020 3.230689 -1.957339 -1.784078 0.446731 0.342886 -3.670080 -1.738257 -0.687746 4.294355 -1.717198 0.781233 0.793504 
the -3.722446 0.121985 -4.215080 2.163204 -0.782614 -0.738243 -0.746106 -2.922991 0.088873 -2.289475 -0.977018 0.398083 -5.220305 1.915340 1.915460 -2.598958 0.847920 0.278242 -2.949690 -0.440243 -0.435123 0.130361 -0.061970 0.186783 -1.235655 3.080539 0.833898 2.793740 -3.516657 1.225105 1.869815 2.895181 -0.521390 1.993256 1.708354 -1.403870 1.617158 -2.442068 0.253509 1.577678 -1.156231 -2.789915 -0.212755 4.876292 -0.941633 -3.734868 -1.712399 0.432372 -0.269798 0.042657 -2.752605 -4.132515 -0.308389 2.131717 1.076320 -0.454977 -1.234628 0.347579 1.249316 0.436465 -2.915776 0.547386 -0.516443 -0.052385 1.851792 2.246074 1.919470 -1.027898 -2.044839 0.813775 -0.551177 0.927022 -2.255632 -0.011724 1.741050 -0.344199 0.368427 0.706632 -0.204719 1.914694 -2.235918 0.597131 -3.412759 1.831354 -1.635278 0.250389 -2.061279 0.331654 -0.285420 4.356854 -0.086429 0.011035 -4.463490 0.866077 -0.435415 -0.188234 -0.783149 0.784339 -1.954054 1.719136 -2.957207 -1.374281 -2.137782 -0.577374 -2.428535 1.491956 0.089010 -1.345359 2.758126 -0.430237 -1.709748 -1.461503 2.109804 2.945513 -0.297841 0.386696 -0.593811 0.996928 -2.110728 1.001185 -2.207524 -0.379684 -1.420195 1.680357 -0.727492 -1.177263 2.485699 -0.276895 3.057914 1.773946 -2.294763 1.501775 -0.805436 0.320233 0.151571 -1.266718 -1.418787 1.602466 1.085993 -2.097560 1.242862 2.411687 1.639729 0.238242 -3.185985 -5.383487 0.264508 -1.160018 2.131055 2.347841 -1.087969 4.574061 -0.821156 5.486750 1.054743 2.741181 -2.686903 0.236686 -1.163186 -0.557234 -0.566865 -1.392160 -1.236016 -0.217269 0.678857 1.406675 1.658724 -0.884334 0.315515 -1.767967 0.094986 -0.862301 3.151690 2.088598 1.914412 4.293301 -0.243599 1.354491 -0.004230 1.637577 0.275695 -0.401243 -0.834310 0.744276 1.692248 3.730431 3.859663 2.323900 -1.131011 0.378511 -1.784192 -0.812501 -0.266834 0.382610 0.924716 0.215782 -1.288342 3.890282 2.127692 -0.523978 
white 0.111234 1.405778 -3.473672 -0.514140 -1.899152 0.634274 1.139114 0.101497 2.217934 1.220891 1.082116 0.415959 0.445607 1.963837 1.599196 2.977244 -4.546326 -1.275189 -2.342653 -0.831682 3.002250 2.061112 0.167619 -2.190221 -0.188484 -4.147482 0.146343 -1.581482 2.966290 1.635499 -1.257231 0.665098 1.828187 0.528022 -1.161587 1.267116 0.768797 1.428345 -1.490890 -1.057732 -3.044371 1.989476 -1.680359 -0.700054 -0.057540 -1.050706 -0.311184 0.544168 0.280949 -0.014296 1.665527 -1.317611 0.125371 1.337228 1.909541 0.857474 0.278456 0.382511 -2.109060 -0.924182 0.483935 -1.226308 -0.789702 -1.055895 -1.340362 2.994261 -0.403011 -3.408910 1.735476 3.974306 -1.170337 0.791950 0.095769 -1.133483 -2.712165 -3.429606 -3.041373 1.626342 -2.381760 -0.707211 -3.822774 -3.737092 -3.347319 -1.317412 -0.956014 -1.553970 -1.835518 1.194973 -0.734239 -1.222582 -0.992763 2.113971 1.461764 1.142513 0.393348 1.170664 0.567696 2.193140 -4.975609 0.805097 -1.049509 -1.820285 0.596157 -1.035115 -0.418033 -0.796978 -1.542248 -4.156066 2.725321 1.304878 2.316149 4.275605 0.526545 -0.713895 -0.898254 -0.930631 1.863169 0.646406 -0.225305 -0.440972 2.508062 1.504192 -3.635558 0.485145 -1.287143 0.216597 1.819493 -1.319391 2.696796 2.491817 -0.459959 0.277302 -0.583813 0.572096 1.365167 -0.250731 -0.998741 -2.716181 0.752829 -0.175896 0.071303 -2.450036 -0.938574 1.854600 1.681874 -1.649003 0.004427 2.856753 1.660695 -1.084041 2.695981 2.678881 -1.179991 0.536995 0.857827 -0.301565 3.111279 -1.465419 -2.767916 0.714617 -2.067438 -2.131751 2.840314 0.503492 0.653913 2.237353 -0.942520 0.999649 -3.097434 -2.015595 -1.885197 0.426595 -1.486292 2.342477 -2.009842 4.766243 0.701827 0.873666 1.353264 1.281233 -1.830240 -2.266942 -1.180701 1.117659 1.665928 -1.014478 1.889874 1.832446 0.978451 2.371990 -0.149039 -0.133511 -0.167485 -1.350716 -3.763092 -0.050814 1.350531 -2.180481 -1.640615 2.069956 
on 3.161459 -2.392173 -2.653586 -1.295881 -3.856988 -0.918180 -3.423421 -3.291427 1.570391 3.747369 -2.393663 3.354435 1.000050 -0.081429 2.874873 -1.113150 -1.361868 1.172959 -1.398473 -3.665055 -1.399005 1.360774 -0.658494 0.002637 0.900282 -0.830052 -1.353777 1.710249 0.314470 -4.183505 -1.697647 1.329590 0.098449 -3.104276 -1.661621 3.858530 -0.807882 0.820512 2.622460 -3.738754 -2.195154 1.988859 0.911355 -1.088583 1.514015 3.369939 -2.991773 1.777860 1.229349 -0.702151 -1.462226 1.968864 0.078914 -0.501158 3.991194 0.314450 0.905609 2.568588 -2.681527 -3.745263 -2.689518 0.576261 -3.725853 -1.574004 -3.299203 1.011920 0.353206 -8.852098 1.296173 1.037594 5.016334 -0.167460 -2.322206 1.367458 0.607789 -1.295953 2.127485 -1.105318 -0.696404 -3.949982 0.466352 0.102977 4.392684 -1.195631 1.210642 -0.194261 0.234025 1.493994 3.831637 3.826885 1.432501 1.572873 1.780193 0.813699 0.714524 1.316341 2.451141 0.489625 0.475720 -1.924081 -1.485568 1.327769 2.590624 0.206057 5.666657 0.962165 -2.340591 0.096156 -3.850682 -6.564637 1.530975 0.050483 0.099904 0.888448 -0.192201 -0.073460 -2.434540 1.788486 -1.142640 0.171445 1.231469 0.405727 1.676353 -3.902841 2.166117 -4.669619 4.981625 -2.213271 -8.798783 -2.316821 6.608377 -1.634762 -4.066380 -1.428731 0.875696 -1.274246 -1.049493 -2.942552 0.112245 -2.186807 -2.828256 2.812751 1.516148 -1.293555 -0.506271 -0.577770 -2.044411 0.520935 0.885033 3.373184 -0.661160 2.284571 0.507006 -7.973865 1.165697 -3.487512 -2.219542 -0.398391 -0.471064 -0.839472 -0.745595 -1.693206 1.356577 0.862707 3.044893 -1.635525 3.110691 -0.119826 1.082508 2.856020 0.274770 3.476687 -0.929221 -6.855989 -5.185036 -1.028300 2.163699 -0.482572 -0.787382 -0.911396 -1.362592 -0.732684 -0.007711 -0.878945 -0.842956 -1.655457 1.712574 1.163183 0.125581 -1.218133 1.127510 1.006871 0.835603 0.710310 -2.467683 -2.702787 1.912641 -2.049224 -1.084166 0.220040 
hair 2.125842 -2.851926 1.759599 -2.631714 -0.750124 0.485052 -5.839230 -5.471578 -2.412866 8.261301 -1.310306 0.940661 -2.199828 -0.771669 1.791665 6.061935 1.901769 -0.640898 1.609593 2.626645 -7.331399 2.607365 -1.585582 -2.374582 -0.269606 0.719097 -1.767154 -4.036155 -2.353866 -1.377917 -2.205852 2.082332 -3.252310 1.934175 2.756618 -0.124153 0.720584 -1.699161 2.868042 -0.848816 -0.399829 -2.524559 -0.752614 -2.970094 -3.403404 2.088433 -4.769485 3.178280 3.411777 -0.880388 -3.737838 0.883697 0.325671 4.362899 -0.015916 5.806148 -3.645207 -3.782834 0.571384 -0.946031 -0.156599 0.179160 -4.542896 -0.519007 -1.168736 1.046913 -2.820783 -1.456209 5.183299 3.977158 -1.136868 -1.083297 -1.357776 -3.539416 -3.427900 -2.104564 -1.752314 4.653728 -2.923516 -0.659785 5.808078 -4.320668 7.040304 3.588222 4.394720 3.310540 1.670439 -4.167021 -0.742187 -3.460589 0.932200 -0.283232 -0.573101 0.952869 -0.106327 -2.732955 -3.765689 -0.016866 -1.674351 1.271676 -2.451487 3.708989 -3.895206 5.199047 -3.262969 2.110562 4.795648 0.596176 0.773957 4.240939 -5.276023 1.760457 2.542194 3.535481 -4.574100 2.433904 -0.155816 1.188190 1.084442 -1.022037 -2.601919 5.038210 0.828823 2.411602 3.804320 -0.071993 -0.983449 7.014387 2.272631 3.887665 0.661693 1.394359 -1.812330 2.157420 -1.103386 -2.466709 1.657929 5.154911 3.052549 1.108845 -2.572203 0.411700 1.571993 -3.858738 -3.504668 -0.015850 0.407962 -0.426183 1.121980 1.607756 0.134572 -2.685119 -3.501390 -3.836454 -1.107559 -3.638000 -0.948208 1.119861 2.332903 2.350040 -0.601041 0.959194 2.017318 -1.339793 1.978741 -6.567422 -2.010823 -0.683716 1.526040 -2.404650 -0.816029 8.598662 -3.212760 -2.103974 4.437083 -2.814242 -0.748187 -2.103651 0.182369 1.003730 -3.236815 -2.193036 -2.233345 -6.130989 2.361917 2.521729 -2.937486 -4.381456 1.732947 -4.880447 -1.971240 -0.479528 -2.917653 3.786758 1.033562 -3.985065 -2.013654 1.315787 2.383812 1.405936 
in 1.266067 -3.710054 -0.799064 -3.652605 -1.384549 0.034736 -4.010257 0.048306 0.105060 1.756789 0.634504 1.240145 0.235780 0.275062 3.618286 -2.224249 -1.987656 -0.928450 1.153917 -0.716031 -2.257479 3.288296 0.790785 2.683496 2.846020 3.014509 0.488804 -0.456870 -0.804300 -4.561327 -0.336912 1.379858 -0.647909 -0.093340 1.177708 2.499590 -0.605216 1.779631 1.216646 -2.085934 1.109610 1.228549 2.167665 -5.533749 0.720086 5.799573 -0.427326 1.997694 0.869932 0.491110 -0.697545 -2.680335 2.606148 -1.088244 -0.870686 0.539035 1.770266 0.010131 -4.587428 -1.376441 -0.382237 -2.237017 0.353112 0.370658 -1.591418 -1.158352 -0.009616 1.400808 0.309470 -0.511098 3.887934 -0.226652 1.044717 1.303817 -2.642684 3.041268 -1.109846 -1.378641 -0.694154 1.979860 0.330318 -2.086362 3.662429 -1.596727 -1.587080 -2.876639 0.576741 -1.876522 1.797209 2.504362 -1.353905 2.390313 -1.404271 1.009927 1.031950 -2.593582 1.688030 -0.498756 1.718669 -3.378426 3.937862 1.679695 1.096432 -0.247107 -0.815240 0.076596 3.762181 2.066227 -2.315360 -0.486657 1.517730 -0.828790 0.539639 2.279074 -1.951402 0.636373 -1.848427 -0.197537 -0.917841 2.370612 0.823124 -1.892440 2.288810 -1.003378 -2.411027 -1.009480 -2.911698 -1.085538 -3.309497 -3.542502 1.937013 -4.051285 -1.530524 -0.579046 -0.073340 -3.238522 2.702462 -0.957549 -1.618977 -1.237928 1.267995 0.501758 3.583996 0.196785 0.743793 -0.667985 -1.438020 -0.215071 3.721572 1.399150 -0.339145 -0.077385 3.695785 -2.763872 -0.921024 -1.443138 -1.204900 -0.509107 3.661692 -2.401837 -2.663615 -1.194124 -0.041373 0.264423 -1.474318 -2.465022 -2.000805 3.124671 0.841092 0.367425 0.255888 2.364368 -3.465631 -2.320809 0.301464 -2.619613 -0.405068 -2.666825 4.252878 -0.150644 -4.431141 -1.487206 -4.937425 -2.104481 -6.144207 -4.898591 -1.252037 1.971997 0.588983 1.463776 -0.932585 1.600625 4.581069 1.576541 1.757743 -1.153036 1.723799 -3.485179 4.568917 -2.436013 
her -5.712217 2.790088 -3.344459 0.501674 1.635154 -3.656075 1.346403 1.057623 0.320537 -1.692916 0.249900 -0.917426 5.374429 0.087037 -4.805863 -0.536195 1.863218 -2.409589 -3.888613 -1.230491 -0.962542 -3.964250 -3.357435 -1.424505 -3.635087 -0.417981 -4.259278 1.805045 0.849262 1.555656 3.899095 -0.253116 2.168029 2.547747 -0.155429 1.382973 -0.252014 0.280254 -0.398315 1.504934 -0.139781 1.952125 0.243949 3.756927 1.217960 -2.192175 0.837265 -3.146509 -1.158109 1.337008 -5.237491 -0.450994 -2.815770 2.118894 -4.154204 0.017486 -0.914589 2.640307 1.033425 -0.320739 1.494513 -5.757127 3.040671 0.466596 1.469512 -0.814068 -0.922997 0.813120 -1.839602 -5.038138 -5.196895 -1.968422 2.150857 2.440105 3.872776 4.575094 0.118511 -2.334971 -0.499832 -0.513308 -4.726753 1.213343 -4.272980 1.951758 2.273576 -0.645427 -2.485394 -0.028133 -1.170126 3.230559 0.713730 0.619876 0.424173 4.484634 0.509253 -1.667132 -1.842188 -1.601328 -0.148580 3.309241 -0.540198 -0.042651 -0.104458 -0.429345 -2.396737 -3.888323 -3.165742 -2.693182 -2.663557 -4.220383 -3.821285 -1.604313 1.380255 0.111757 0.576945 -0.376674 -1.186122 -1.006208 0.564475 -0.052661 -1.712466 -0.416071 -1.176053 0.338778 -0.363004 -1.018588 1.384806 -1.737657 3.350291 0.333881 0.110606 0.638427 0.277674 0.019934 -0.198395 3.035164 -3.477899 -0.134646 -0.183487 -0.656242 3.212677 -1.984182 -3.456918 3.578768 0.287014 -2.475463 2.811805 -0.886599 0.679801 1.764391 2.473420 2.745152 1.540887 1.914439 2.095302 1.663223 -1.469227 -0.623223 2.016864 1.014513 0.844923 0.051207 0.635744 2.246542 -0.515523 3.628452 -2.141257 0.775678 -4.398736 -0.884402 0.702464 -2.611613 1.727605 0.832694 1.347734 0.516854 -0.300031 -2.042624 1.525171 2.487159 0.938018 2.568735 3.756668 0.084496 4.585817 2.590945 -3.046657 -1.510029 -0.314368 -1.235771 -2.719178 -0.489158 -1.278993 -3.111520 -0.527459 -0.469037 -2.392509 -0.790890 2.811659 -2.961348 
dark 0.798504 -0.798231 -1.263525 1.760886 -2.077124 -2.876058 -1.293491 -5.173034 0.384164 -2.019784 1.520154 2.581409 -1.656471 1.620528 -0.723127 -1.017608 -3.313200 -2.311746 -0.703280 2.506607 1.141505 -2.544799 -1.655007 -1.602894 0.432836 -0.767448 0.174683 -0.815531 -1.209818 0.266644 -0.268513 -0.065490 0.217544 -2.606166 1.705351 -0.976549 -1.165982 1.107853 -2.551482 1.102473 -3.191352 2.292547 1.096237 -0.027239 1.796235 -1.085751 1.381578 -1.146860 0.405397 0.241038 1.318026 -3.282738 -0.941162 -0.781133 2.429892 -2.943632 0.010723 0.464348 -0.460210 0.174644 0.530774 1.022150 -1.383461 2.153192 -0.606388 2.885744 4.170899 0.292344 -0.175831 -1.199738 0.945356 0.188469 2.221851 1.166309 1.405105 -0.077014 2.769595 -0.681187 3.237112 0.172050 -3.162654 -1.085344 -0.754731 -0.138720 -1.883894 0.826892 -0.283835 -0.659810 -3.940198 1.613358 -3.191842 0.420076 -1.519712 -1.304492 -0.405244 0.911747 0.021224 -0.794018 -1.161203 -0.718835 1.330659 -1.573517 -0.418334 0.262402 -1.540544 -0.181539 -2.514503 -0.437153 -0.220892 -0.145468 0.068093 -0.820012 -1.970448 -0.593167 -1.444954 -1.402936 0.894233 -3.695006 -0.391846 -1.290016 -0.253193 -1.739785 0.310786 -0.859613 -0.070801 -2.019842 -0.016337 -2.258358 1.515141 -0.758725 -1.518970 -0.625858 -1.621495 -0.688423 0.138943 3.289298 0.787433 -2.014904 -0.962506 0.042391 1.107025 0.061690 -0.888933 2.488251 0.451015 0.867726 -1.678929 1.460249 -0.818624 -2.876562 0.438813 -0.025171 -0.023014 1.494831 0.965044 0.763336 1.000027 -3.216553 1.031849 -0.568658 -0.939324 0.201791 0.491028 -2.219950 -0.351322 2.248489 0.377591 0.085381 0.257270 -1.127765 -0.634076 -1.879101 1.112459 -1.332587 -2.834315 2.428955 0.731577 -3.508858 3.240494 -1.277517 -0.973879 1.245949 -0.606080 0.897808 2.503414 -0.576361 -0.092500 4.482757 -0.878074 2.571690 -2.317953 -2.057619 -0.901047 -4.018373 -3.346490 0.027362 2.381672 -0.255805 -3.018967 -0.239600 
coloured 0.253748 -0.501768 0.876413 -0.518657 -1.499044 3.244696 -0.035945 3.072060 0.040691 -1.958604 -0.469444 -1.179433 -0.809162 -0.501763 -0.849288 -0.722641 -0.672942 -1.810152 -0.083564 -0.124262 0.154580 2.194013 0.997518 3.328403 -0.578867 2.353922 0.351894 -1.331727 -1.515649 -1.155702 -0.368037 -1.436283 0.123158 -2.185467 -0.768145 -1.895210 -0.596793 -0.513771 -0.926784 1.748076 1.083102 -3.499442 -0.642106 2.369592 -4.268219 -1.415714 0.851472 1.071587 3.448797 0.224137 0.486268 1.844203 -0.527574 -0.410762 -0.443632 0.456239 1.209393 -0.638723 1.660453 0.111981 0.382861 -0.859921 -0.568334 -2.215108 0.289473 -1.090099 -2.734350 0.068882 0.555912 0.868661 1.951018 -2.350535 -0.996431 0.114830 -0.650554 1.894273 -0.132623 -2.534530 0.500953 3.185724 0.863093 -1.230305 -3.524759 0.365804 1.261791 -0.419873 -1.592254 -0.957275 0.912018 2.672476 0.957534 -0.127685 -0.009661 0.254472 0.325869 -0.619644 -2.022577 -0.812352 -2.034207 -1.224808 -1.379768 -0.033813 -2.539949 2.483251 0.084675 3.297220 1.456240 -1.163450 1.437598 -0.740005 1.295806 -1.019521 0.612978 2.068944 -1.643308 1.218952 -0.197064 -1.361961 -0.269010 0.913861 -0.311932 1.089149 1.481758 -1.284010 -0.557946 -1.128394 -0.522268 0.902214 -0.912908 -1.026183 1.689768 0.157097 -1.902003 -0.520423 -2.193631 -0.014404 -1.581570 1.306912 0.949684 1.334810 -0.302004 1.085251 0.200515 -0.563166 -0.666448 -1.271604 0.385719 0.187679 2.247076 3.644399 -0.432007 -1.199360 0.508688 -2.735331 -1.246827 0.357728 -0.521129 0.547083 -0.359003 -2.221038 -0.598865 0.629591 -4.456263 -0.019610 -1.139116 -0.351363 0.098996 2.099254 -0.058354 -3.145620 0.437415 -0.072823 0.249992 4.723954 4.138177 0.194020 0.179920 1.125948 0.376200 3.085914 -0.158762 -0.191927 -0.432415 -1.774262 -2.239207 3.385565 1.074445 0.719160 0.817836 1.506789 1.579080 0.668202 -0.720927 2.211290 -0.761408 -2.574472 -1.744152 1.315373 2.926142 -1.062276 
colour -1.287357 -0.275686 2.471852 1.706100 -0.244505 1.045196 3.694155 -0.276246 2.105067 -0.466563 -1.302356 -1.159909 0.855554 1.563717 -0.934294 0.657344 1.395987 0.948547 0.893975 2.358079 -0.671192 0.974999 -1.466958 0.400983 -1.611152 0.351458 -2.270062 -1.252177 0.161102 2.481352 0.380871 -1.888894 1.796970 -0.575323 -2.644634 -1.347187 1.037682 1.369758 0.965987 1.643993 0.834090 -3.649280 -1.144065 1.411243 -0.164299 -1.729365 -1.039211 0.751095 2.130725 -0.308913 3.045169 1.063972 -1.834192 0.994520 -0.089798 -0.013164 0.858557 0.058097 1.000911 -2.064199 2.193368 0.158278 -1.140967 0.564242 -1.347421 -0.283946 -2.289029 0.105418 0.533968 0.335787 0.109865 -3.285511 -1.864080 1.986278 2.889492 0.462181 3.013621 1.624285 2.610345 0.604780 0.490092 -3.047202 -1.145750 -0.546267 0.303777 -0.090788 -2.550755 -2.267800 -2.888331 0.884822 1.972747 -0.921477 2.042154 -1.435366 -1.482128 -0.467722 -0.664124 0.900624 -2.677908 -1.264001 -1.436023 -0.515227 1.071652 -0.095596 0.965389 1.149142 -0.486325 -0.645721 0.000342 -2.410044 0.999265 -0.267347 0.249424 2.014193 0.555610 -2.370860 -0.578460 0.415547 2.281189 -1.852741 2.103589 0.383411 0.512388 -1.271769 0.760825 -2.280704 -0.777532 -0.754470 2.070259 -1.917016 2.699526 1.456493 1.000817 1.952856 -1.240692 1.625709 -0.829142 -0.648104 0.060542 1.391203 0.232843 -3.836119 -0.235673 0.153234 0.293096 -2.083357 -1.031014 -1.274307 -1.564494 0.990026 -0.330147 -0.445549 -0.559873 -1.059345 -2.877769 0.249074 2.845127 1.717055 -5.554507 1.730825 1.626231 2.698544 -0.544909 -3.263146 0.515340 1.730594 5.048274 -1.857584 -1.023886 -0.587587 -1.180760 2.543807 0.137254 2.797691 0.099260 -1.452815 0.480855 0.727306 -2.029982 0.543519 -2.125696 -2.398487 3.137190 1.897129 0.249612 3.382094 2.219910 -2.128561 0.476606 0.119526 0.392859 -0.627053 -0.490602 0.438900 1.566786 -1.436090 -2.269479 2.171512 -2.158694 1.739828 
shoes -1.233024 1.440838 0.229276 3.944142 -6.211020 -1.737295 -1.451549 -1.166244 -0.918098 10.105221 3.474049 8.563238 8.625957 -2.423246 -0.267792 3.044146 6.373688 -1.210913 2.453516 -0.774637 -6.132533 -0.854872 1.505591 3.431213 -0.879896 6.073880 7.890834 0.371470 0.624129 -4.585272 -2.412639 -2.397783 0.307784 -7.595526 0.823990 2.551368 -3.906712 1.573403 0.628241 -1.810262 2.908385 2.614748 1.196769 -0.680048 4.487464 1.254444 -1.062564 0.543388 -6.234116 1.179846 -2.299428 2.481505 -3.120255 4.325080 3.509265 -1.480548 -0.259139 1.480587 0.762070 0.994194 0.521019 3.907206 6.052116 6.305536 -1.000027 -4.715865 -2.586189 -2.150313 3.180664 -0.099452 0.491231 -2.342352 -4.880219 -3.632276 -2.795259 -2.600698 -2.829618 1.456735 -6.516831 1.317844 1.102822 1.278916 6.056940 -0.735188 1.479403 -6.364993 3.979625 1.942331 2.133799 -1.085800 2.377784 -5.152822 3.258394 1.139057 -1.726985 -2.642375 1.161543 -4.082392 7.330821 0.269270 1.018838 1.318630 -0.445974 -0.399455 -2.481392 -2.875155 1.560071 -0.189381 1.273550 0.637706 -0.428607 -2.580253 0.232061 -0.014442 2.955770 -3.868417 2.218625 1.292499 1.246754 0.378927 -0.913392 -1.150764 -0.290633 1.200823 1.342076 1.577155 2.794985 2.099339 1.905081 -2.391538 -3.884239 -1.315198 -0.969103 -2.508441 3.352111 -4.098903 -1.575890 4.147235 -10.123932 -1.920509 -0.657372 -1.839152 7.302463 -2.373591 4.266949 3.842374 -2.444202 -3.854839 3.743933 -3.966263 0.653242 -4.928338 0.643806 2.577922 0.635215 -0.266456 -1.603914 -0.057985 -0.319629 3.328686 -1.625773 -1.179838 0.616110 -1.727703 2.356025 -4.354324 -5.346925 -0.278835 1.940094 3.735858 1.802347 1.064384 -0.377448 -0.868645 -1.898980 -3.681602 0.509599 0.191440 2.629864 0.992115 -1.052604 -4.549741 1.165239 3.063283 -0.127816 7.550649 -0.507122 -3.243842 -0.222286 -0.112440 1.417525 1.827328 0.769443 0.017462 -4.873419 0.868646 1.146718 1.330996 0.304778 -2.962526 
pair -1.744350 -7.311042 3.979509 -1.825853 -1.337866 -1.816849 -6.389648 -3.645616 -1.413007 -2.152228 -2.320784 6.543077 -0.944331 2.632223 2.460056 12.663978 2.102783 7.328732 -2.862171 1.106758 -0.103054 -1.723484 2.271529 -2.956040 0.973740 0.805023 0.733277 -4.952403 1.911539 1.044130 3.513314 -2.983368 -2.786015 4.627865 2.027561 -4.961028 5.407495 1.761080 -4.851124 2.643630 -3.578191 -7.915230 -5.675495 0.019531 3.667904 -4.853001 4.544302 -4.606637 8.473182 -0.444780 0.800374 5.785986 -1.704515 -0.307859 -5.735522 3.299909 1.067661 1.541750 8.597381 -2.336336 -0.909517 -4.811614 -3.599580 -5.117970 -9.376350 2.257061 -4.092023 0.137396 0.469840 2.724367 -1.873468 -5.343248 5.309597 -1.027157 -3.459898 0.988211 -2.662072 3.432541 1.866059 6.889500 2.052801 -3.690359 6.499192 -0.986318 4.350448 1.564398 2.982377 -0.226395 -4.719601 -2.648708 -2.804122 -1.804902 6.754841 -3.569113 0.702653 5.788635 -1.763082 -1.352157 0.440101 -3.904536 3.690207 -4.352775 0.090548 1.362046 1.988954 -1.149426 -1.013447 1.377190 -1.227971 -6.184618 -0.415266 0.109234 6.936344 -5.371274 0.577092 0.089120 -5.588891 -1.984139 -5.489916 1.954490 -0.645997 -0.357321 1.890960 4.291160 0.547147 3.563538 0.955720 3.626328 4.378570 4.796181 -0.247916 -3.229507 0.551613 -1.126946 -1.697486 -1.092763 -0.071465 0.904024 8.175310 -10.618580 6.615214 2.186699 -1.843930 6.255435 9.467695 -5.561775 -0.918808 0.705744 -1.362403 -5.024433 4.068622 0.931794 4.028365 1.528987 4.014374 -2.599348 0.734800 -1.628540 -5.310444 2.539355 7.330185 3.208454 2.209074 -1.465522 -1.944286 10.713694 11.873973 4.629602 -5.037148 -3.503328 -3.913537 -3.372271 -1.543007 -3.342399 -0.100405 -1.883911 1.733283 -1.819631 1.742562 -2.916580 5.495927 0.167791 6.120768 3.035263 5.568365 2.536663 3.930322 2.582510 -0.372808 5.381952 0.282914 1.970943 0.485099 6.094923 4.053777 0.692804 -3.461605 2.391328 -3.698406 0.661830 
short -1.180194 0.031406 -1.365643 5.006437 -3.272943 -3.357482 2.777706 -1.021083 -1.443540 -1.338217 3.621149 -0.024693 3.765895 0.942502 -5.630739 -1.230298 0.422966 -2.116635 -2.029142 -2.390634 3.912123 0.008260 0.141976 1.087301 1.117311 -0.022639 4.381446 3.464339 1.168856 -2.527507 -0.718718 -1.668763 4.033877 1.631064 -1.245890 0.766196 -0.605206 0.463293 -3.999156 -4.101545 1.832175 1.728639 -1.565332 1.537241 1.041776 0.029230 2.099519 -2.500351 -0.663587 -1.215698 8.058131 -0.704669 0.277441 -6.443516 1.018075 -5.557104 2.116139 3.288266 1.730724 -4.884770 3.924336 0.108267 -0.126246 2.175288 0.990448 -1.135079 0.479305 -1.344006 -0.460589 -0.542143 -0.587173 2.847148 -1.781848 -2.775066 -1.455239 -1.088089 -3.283957 -0.394903 -3.304498 1.362205 -6.544209 1.080062 -5.995155 -4.635445 -0.927150 -4.623069 -0.073199 5.256726 0.198490 -0.416241 1.795345 -0.150656 -0.638741 0.280395 0.272248 -2.554691 2.566650 1.873182 3.420024 -1.534340 5.049449 -0.198204 2.372801 -3.364949 3.800221 0.131946 -0.927867 0.014049 2.948097 1.548132 2.376628 -1.480864 -1.203821 -2.463078 5.210605 -0.866082 -1.428957 -0.108454 -0.979881 0.401839 5.405384 -1.156745 -2.460460 -4.259737 0.286329 -0.365415 1.883176 -6.167458 3.288079 1.595427 -3.378319 0.225293 -0.359020 -1.451093 1.261905 -0.000299 -0.702807 -4.905376 -2.987468 -3.010951 -1.630269 2.036444 -1.983193 2.875316 4.265793 3.388067 2.127292 1.578694 3.128228 0.234158 -0.127035 0.612059 -0.744408 3.384495 3.457131 2.628073 1.375410 0.648489 -1.368057 -0.291812 2.093438 -1.070711 2.116934 6.467672 -0.012444 2.275739 3.236767 -2.418187 -0.935921 1.847768 0.620984 -5.884972 0.618077 -1.650478 -1.097157 1.397575 0.299174 3.044368 -1.485473 1.133746 -1.728173 -1.820092 4.267662 2.724737 -5.588456 -5.386766 4.768033 5.212915 -1.180913 0.169563 0.934084 1.673122 3.020005 0.117875 -0.122080 1.140397 -3.759680 -0.099377 1.385663 -3.653470 
has -0.121466 0.417682 -1.639320 -2.596419 -0.860820 -1.360835 1.889463 4.405746 0.460508 -2.901774 -0.370688 -2.356089 2.872233 -0.455193 3.034851 -5.044331 -1.703722 -3.172960 2.492942 -3.970243 3.316451 2.431114 2.129905 -0.022005 4.697188 3.762620 4.089016 -3.549066 3.199144 -2.592731 -6.605155 -5.436177 0.368264 -5.402439 -7.241872 4.237290 -0.408889 -2.768852 -1.704116 -0.956353 -3.044922 4.401581 1.981917 -0.074435 1.900527 -3.839442 2.365378 1.753932 -1.576715 -0.761410 -0.603456 1.512114 1.966969 0.575367 -2.385974 -0.989948 3.976965 1.771835 -3.412657 0.761408 -0.261559 -2.172308 2.874217 -2.310027 -4.949443 -1.435933 2.509773 -1.926943 -1.396055 2.174165 3.585014 -2.453025 0.783462 -2.370708 -5.684609 0.910625 -2.953496 -2.440286 1.595624 -1.957312 4.757812 1.389709 0.780201 3.017072 0.422900 -2.742347 2.452190 -1.700800 1.720443 0.466613 0.476779 0.415589 -1.738650 -2.882511 -2.604781 -2.224569 0.176959 -1.190817 -4.682074 -2.924294 0.393527 1.226888 2.443927 0.991615 1.537458 -1.406305 1.801272 4.013154 -3.787949 1.450731 1.034014 -0.787032 -2.264149 -1.340502 1.562754 -0.443033 -1.234457 2.643178 0.585430 1.385394 1.370295 -4.360461 3.861000 -4.980281 1.976081 0.404352 -1.761256 -3.848884 -5.752140 -3.038807 -0.874474 -3.413932 0.776540 1.358445 4.618573 2.040909 2.790770 -2.136167 -2.099601 -1.290765 4.107561 -0.011600 -2.519521 4.726321 -2.446807 0.612866 -2.256416 -3.874951 -4.181362 1.071388 0.253828 -2.181043 0.523934 -3.844053 2.111569 -0.126578 1.980968 0.025386 0.708249 1.331569 0.353499 1.840465 -1.798101 4.155786 -3.512600 0.372759 1.858968 -0.375436 4.260981 4.372025 1.707511 -2.894274 4.776099 -0.518200 -0.552130 0.263137 0.051127 2.238907 1.876293 0.575108 2.290388 1.784566 0.560733 2.694963 -4.284168 -2.318662 1.312003 -0.742668 0.235142 2.849036 2.733006 2.613271 4.207208 0.268196 -0.596909 0.834450 0.506857 -6.177277 0.535038 0.317177 
or -0.034062 -2.682753 2.207232 0.784963 0.235745 1.103635 -2.585502 3.055921 -0.834031 0.848856 0.812296 -2.789726 3.457782 -1.226878 -0.502745 1.422437 -1.563762 -1.484406 0.200979 -2.852807 -1.261927 -0.473548 -1.966950 -1.700910 0.343192 2.755389 0.973859 -1.483564 -0.790826 -3.115688 -0.942335 -2.026422 2.175405 1.068424 0.704567 -0.210061 -0.607977 -0.751781 -0.522973 -4.855186 1.503436 -4.615164 1.528793 -2.121616 1.655750 -3.452241 0.886764 -1.099010 -1.248809 -0.343934 4.756355 1.159200 0.712819 1.990131 1.206481 -1.086272 1.942334 1.342499 0.416537 -1.602258 0.484915 -1.349585 0.968007 1.131505 -1.865094 -1.478244 0.567697 2.720931 -2.222100 -0.277197 0.062364 -1.451714 1.618795 0.183718 1.466952 -0.573057 0.229200 -2.581628 2.085528 1.223459 1.933524 -0.601332 2.069000 1.398722 -0.102934 -0.037833 -1.643733 -2.052196 -0.923264 5.236659 1.280007 -1.077624 0.525883 1.457911 4.176313 -3.984406 -2.824869 -1.909329 1.760718 0.609204 -4.849368 2.310241 2.667884 1.386939 -1.306789 -1.340514 0.259170 2.633950 -0.309293 -1.336354 0.699727 1.242257 3.842034 1.518203 2.273957 2.337014 -1.014301 1.386057 -1.178537 0.771634 -1.962967 0.274423 1.109171 -0.745668 0.885380 0.773149 -0.997751 1.146842 -1.746879 0.503575 2.353856 1.359933 2.333504 -2.063635 -1.055365 -3.474589 0.386080 2.785874 1.024111 1.892289 -0.324105 0.346764 1.350438 -2.675565 0.023972 -0.584076 1.925949 -3.957253 0.009950 3.449283 -2.102108 2.621198 1.290655 -0.037469 -2.900450 -0.733537 -1.273914 0.618065 1.713434 -0.356646 2.337415 1.026041 -0.670175 -1.271421 -1.723249 2.924246 0.501165 1.668358 2.520301 2.770969 1.348513 -1.074810 0.574399 -1.688305 -1.950183 -0.031379 0.145726 2.244897 -3.835908 2.783609 2.074017 2.143301 -0.009326 0.165600 1.044592 0.985130 -1.066256 -1.982586 -1.579293 -1.695001 1.522459 0.719325 1.234817 0.842595 2.257282 -1.331074 0.060011 -1.239009 1.323988 -0.778993 
grey -0.381809 -2.287448 -3.540791 -2.676367 1.553785 -0.252753 0.652217 -4.569487 1.448722 1.500259 -1.917481 2.303666 -3.027534 1.551885 0.554174 3.106578 0.227554 0.361366 1.114109 2.535003 2.370993 1.117052 3.538241 -1.193787 -0.364375 0.329194 0.245199 0.509199 1.953737 1.326985 -0.380885 1.539653 -1.315376 -2.110740 2.171660 1.088166 2.288801 0.739155 -0.587713 -0.669944 -1.890766 2.111071 -1.434445 3.695822 1.537485 1.654662 -0.754303 1.546305 -0.341874 -0.284985 -1.096777 -2.633290 0.757898 -1.306964 -2.454132 0.153292 -2.355011 -0.777574 -2.043904 0.936934 -0.751320 1.599589 -1.468727 -1.076572 -0.330768 -0.343670 1.252583 -2.374865 1.993588 0.604207 0.317323 0.890032 1.037333 -0.475072 -0.637971 -2.966040 -3.659802 1.804035 -2.106744 -1.081059 0.762766 -0.495903 -3.777705 -1.276469 -0.372391 0.450195 -1.940037 -0.508491 0.552566 -2.121780 1.440586 2.264836 -2.216511 2.828357 2.364930 0.935660 1.284660 0.619633 -1.727887 -1.516620 -0.148341 -2.459185 0.088182 0.293463 1.887870 2.128567 -0.855751 -2.955595 -2.285368 -1.113822 -0.490181 -1.269041 0.682121 -0.766558 -2.741274 -0.716397 1.068327 -0.476622 -1.478071 -0.797114 1.155882 1.019624 -1.249792 -1.613668 -1.480145 0.292536 1.000715 -0.066358 -1.394336 -1.162056 -0.976870 0.878948 1.070622 2.476719 0.558946 4.175240 -2.172802 -3.627251 -0.685538 0.420809 -2.472558 -0.749095 -3.873314 -1.116949 1.802758 -1.192724 -0.643499 2.399219 -1.040892 -2.085917 0.995207 1.174412 -2.566616 2.552591 -0.315481 0.130638 2.036226 -2.083666 0.690895 -0.512898 -2.137640 -2.771120 4.715030 0.556122 0.529405 -0.329597 -1.293892 -1.945914 -3.428133 -2.186384 -1.580505 -0.703217 -0.100837 -0.948115 -0.557258 0.944808 1.609101 -1.481092 1.008884 -1.031944 -2.270071 -1.755761 -1.706424 -1.827912 0.607096 -0.150002 2.036563 3.844337 0.641660 -0.071357 -1.249223 -0.717237 -1.624057 -5.071726 -6.071420 -2.022705 2.237150 3.003602 -1.823157 -1.292504 
bag 2.605625 0.227395 -1.064073 -3.685599 3.094395 -0.521880 0.585202 -0.073338 -3.453721 0.421017 5.910632 -0.669153 -2.262387 -3.413357 -1.140431 1.175877 4.291538 9.364075 6.334826 4.338531 3.086474 -2.386100 -0.357017 -1.328672 3.836965 5.264217 2.489552 -3.371185 0.896087 1.763834 -1.000693 -1.109347 -6.195280 2.959243 -3.445008 -4.017306 2.261706 -9.697021 -0.931088 0.263328 -1.819264 2.225276 -1.113688 -0.975087 -2.396087 1.340794 -3.838019 2.357729 -0.234619 -1.509879 3.299229 3.495766 0.279028 2.841865 3.031533 3.226534 0.312122 0.581543 -0.453103 0.117020 0.368613 -0.874010 -0.834920 3.005675 0.158536 -1.148067 -0.942161 4.869133 -0.080927 3.128174 1.850617 5.207320 -3.628027 -5.134937 -6.994152 -0.983342 -1.680349 4.229759 -3.129393 2.321917 -5.224031 -2.702060 -5.419123 0.423960 0.557509 1.070904 3.874005 -1.204488 2.955333 -5.730634 4.826589 -8.735580 16.388086 1.785700 0.923565 1.464998 -1.911245 -0.906675 -1.919740 -2.998814 -1.851317 2.082545 6.562993 1.693579 -2.954696 1.371592 -2.120228 -1.153665 0.568436 3.996794 0.590437 -2.865632 -0.608584 0.337705 0.055789 1.901161 2.951436 -2.140404 2.635475 -1.643525 0.703581 1.215804 2.547394 7.569076 0.499978 5.515580 -6.329009 2.193484 0.825507 3.077961 -2.139750 1.305265 3.034714 0.585566 2.658359 1.019839 -0.266001 1.993823 1.219177 0.316047 1.451827 -0.406767 -0.283068 1.324896 3.484895 -3.455126 3.481106 -2.248035 -1.002115 -5.155730 2.249684 0.002146 -0.591096 -2.771357 -2.849109 -1.808326 1.566920 5.587806 -3.675661 3.073960 2.988620 0.056813 -1.162884 2.778102 3.619028 0.077269 -0.251892 -3.748213 1.168323 2.953235 0.920727 2.154711 2.610601 -3.708449 -0.004009 -0.137587 -0.380143 -0.122774 0.556793 0.332716 2.260397 1.790576 -2.902370 2.156762 1.466148 -2.632229 4.314878 -1.090106 -0.450400 0.380698 -1.158880 0.823534 -0.602682 0.221561 -1.950362 0.582469 3.003457 0.503448 -2.162825 1.079386 
right 1.294197 4.297016 -1.785664 4.302760 2.350126 0.867565 4.195742 0.884655 -5.708864 0.875822 1.481259 -2.857287 -1.933087 -1.090221 0.247089 0.438673 4.794837 9.727866 0.851691 2.515316 1.471167 1.082722 6.089107 2.892553 1.289402 0.805732 5.342635 -2.432518 0.869023 1.708413 -2.368769 0.478759 -0.067941 -4.765984 3.666369 -2.953988 0.259691 4.982755 -2.291132 1.337758 -0.960456 -2.511294 -2.290805 -1.807286 -3.352157 1.692654 -1.295396 4.226749 -0.456017 0.655914 0.110809 0.890059 0.077242 3.617951 3.130373 0.878889 1.180795 -1.993816 -0.688032 -3.067098 -0.268290 1.444053 -6.872739 1.281616 -0.110739 -0.725230 -1.717045 -0.412794 -1.075257 4.714106 0.237608 4.389603 -2.920747 0.865792 -2.513353 -0.189420 3.418013 -0.184719 0.049305 1.272939 1.574528 3.451250 -2.133927 -1.262727 1.090900 -1.917045 -5.242772 -2.138628 4.373888 -9.400082 -2.394817 -1.250654 1.154587 -3.870958 3.884583 -3.527805 1.196080 3.809344 -0.537568 0.285340 5.381958 -2.827661 -5.789143 -3.565229 -0.340795 2.500808 2.433443 5.546960 3.564355 0.177473 1.649072 3.584379 0.908613 -0.087336 -2.383033 -0.801784 -0.476080 3.839727 -3.529961 0.871779 2.068395 -4.097218 5.262854 0.567871 -1.296323 2.634010 -2.421636 2.741940 3.233474 2.566863 -2.200946 2.926487 -0.813181 -0.347231 -1.778903 0.713252 -2.399314 -1.302839 1.974742 -3.112301 0.379483 1.442346 1.130657 -4.035884 2.033153 -1.111486 -3.204476 -1.847346 -0.432525 -5.269787 0.440068 0.559583 -3.010959 -2.641429 -3.062843 0.777979 3.618159 -4.212918 2.448041 -3.622609 -0.313573 1.858044 1.895925 2.994467 0.488531 -0.246964 3.898827 1.073113 -0.196481 -2.134066 -1.511543 -0.215627 2.058471 5.857872 0.955977 5.706515 -0.909993 2.157241 -3.242241 -5.673442 -0.589594 -4.683712 -2.716891 1.373211 -6.200897 -1.284642 0.483292 3.263186 0.653279 -3.461954 0.379443 1.094887 -1.715512 -1.857043 3.645712 1.310340 4.734001 5.070757 -4.333599 1.513173 
wears -3.314442 -1.911144 1.647140 -1.905500 1.229198 -6.460074 -2.459829 3.476429 1.288930 -4.312935 0.124019 -4.009243 1.653175 -1.962452 -3.573575 -7.526117 -1.622132 -0.650259 -1.279422 -4.135860 5.119591 4.734056 2.846349 0.511441 2.923923 1.909994 0.010727 -3.448500 1.506348 -1.968532 -4.316299 -2.797666 3.835696 -2.504339 -5.676915 -1.278134 -1.918757 0.577188 -0.756838 3.071208 -1.289587 1.004425 2.976418 -1.763453 -1.745283 -2.685004 1.817236 1.593444 0.204990 -0.342106 -0.142905 -1.619567 4.235950 1.466261 -1.323346 -1.587701 2.712260 3.019326 -1.835184 -1.401335 1.695093 -2.460389 2.159263 -1.437814 -0.024053 -0.591583 -0.835136 3.257684 4.270511 2.515203 3.309344 6.590474 -0.285164 -1.738881 -4.009659 3.948110 -5.263691 -3.870694 2.339101 -0.590878 5.712029 1.099749 -1.673360 9.193363 -0.003801 -0.117244 3.507599 -0.942568 1.273144 -1.195576 -0.734683 1.592488 -3.743233 -2.744349 -0.934343 -3.873791 -3.345938 2.326454 -3.068852 -0.643771 -1.710538 2.576349 0.900887 3.674468 0.659751 -3.973179 -1.627765 3.577643 -10.901862 -0.240154 -4.578362 2.493137 -1.687770 -1.806089 0.955336 0.562345 -2.675978 -0.746279 3.313162 1.684977 1.374490 -0.869112 2.509602 -2.870734 6.902393 2.954585 -3.547891 -0.279747 -0.594724 -4.201431 -4.497169 -1.981438 3.931138 -0.419321 5.533263 2.129088 2.673280 -0.310723 -1.346214 -5.040573 3.522892 0.565466 -5.332813 2.808459 -7.049800 -1.343860 0.563158 0.216551 -3.884238 0.374263 -1.196900 0.175840 -0.063883 -5.467964 0.760411 -0.888579 1.222664 0.075025 -0.468202 1.325648 3.781597 -1.801010 0.359567 7.459273 -1.728817 2.037435 0.998882 -1.963359 2.918607 2.702192 2.881699 -5.946229 2.357233 -0.968623 0.158848 0.381462 -3.384471 2.497027 1.286592 0.421673 2.963612 0.745184 -0.541174 0.476583 -3.028705 -6.074331 -0.830802 -1.108470 -0.132836 1.692131 -1.680209 6.777219 0.480380 -0.975458 1.642750 4.022613 0.744145 -3.003626 -0.937606 4.337250 
man 3.494321 3.491874 1.375900 -0.453038 0.800889 0.808635 4.081373 0.219353 3.539519 2.494416 0.288422 2.144909 -0.391945 -1.182838 -0.182340 0.121842 -4.573596 -0.919413 4.933595 -2.273307 3.133916 -2.604686 0.643257 -4.961586 1.431712 -4.063345 -3.901374 -0.923747 4.026959 -0.130397 -0.238336 0.440044 3.764258 -5.056985 1.854310 -0.892371 -2.630883 2.664964 -2.523481 0.835947 1.715338 2.049061 0.939878 -9.854632 1.450783 7.710468 0.967517 -1.081504 1.590970 -0.754278 0.589721 2.654831 0.579856 -6.533299 0.994654 2.812313 0.394835 -2.765249 -2.951928 2.291398 -0.134275 -1.209520 4.360467 -3.306421 2.271801 0.812549 0.995379 -2.679789 4.167756 1.667567 -5.682456 0.037319 -0.988962 3.900443 0.775362 -1.495039 1.169622 2.127186 -0.793802 -1.658311 1.605299 2.858842 0.752175 1.359546 2.625471 6.500648 -2.282701 -1.163971 2.363242 -5.952988 -2.775541 -4.351207 14.119571 -0.709156 3.999729 4.539195 0.670275 1.382100 -2.564840 -0.063191 -1.308171 2.328267 0.931928 1.577108 2.778999 -3.603498 -1.651532 0.797731 -3.285380 0.101740 -0.685090 -0.287046 2.607645 -3.455706 -2.238832 -2.878932 -1.713108 -1.988828 -1.034913 -0.615680 -0.863014 -1.030357 1.446675 0.828352 -0.983609 0.382953 -0.063357 2.732836 -3.103378 -4.206968 0.617105 0.295431 -1.652237 0.992675 2.095482 0.464787 -1.147926 2.583440 3.082062 -0.686791 -1.322506 -5.309797 6.604487 -1.896526 4.274682 4.241175 -1.712948 -2.057859 -3.089678 -3.981420 -0.038929 -3.078692 2.036068 3.450886 -1.369472 -0.100889 -0.708492 -3.672725 -1.988006 -0.405963 2.781771 2.195336 1.638361 -2.936368 -0.691227 -0.460495 -2.401572 1.465060 -1.931544 -3.562950 -2.132597 3.842642 1.062503 -2.800441 2.375599 -0.865066 -1.222300 -5.408944 -2.068108 -4.419465 1.726415 4.840962 4.324223 -0.425081 3.767505 -0.567451 0.343408 1.122149 3.590306 3.043846 0.316630 0.116987 -2.163077 1.581236 -0.258489 0.413761 -1.661344 -0.024844 -4.260080 -2.073150 
left 0.869216 6.247447 0.268665 3.393948 -0.920700 1.281933 3.968617 2.900593 -2.973191 1.984610 2.661999 -2.145212 -2.979244 0.327859 -1.471898 -0.836507 5.001183 10.739969 1.085671 1.726531 3.008112 1.403339 6.796909 2.162103 -2.943010 2.544921 7.131175 -4.646479 1.012437 1.093699 -4.372719 3.202425 -0.856294 -6.175581 1.359548 -4.624569 -0.823167 4.588367 -1.776506 1.425959 -0.982294 0.416275 -2.766541 -1.275241 -1.324731 -1.736175 -1.518639 3.386695 -2.218854 -1.019188 -1.542534 0.039477 -1.633315 3.884769 6.264224 1.638586 2.868875 0.575152 -3.384608 -2.731769 0.456413 2.382221 -7.264331 3.148820 3.771165 1.511655 -0.731229 0.841320 -3.508765 1.828244 3.198903 1.207740 -0.361128 -1.437060 -2.085294 -2.025202 3.845509 -0.917488 1.646455 2.167391 1.720769 -1.299724 -0.412200 -2.622703 0.800605 -4.654487 -2.057632 -1.498383 2.285042 -6.865256 -2.054388 -5.228393 3.118376 -4.598331 3.284566 -2.308546 -0.484713 3.532514 -0.207109 -2.684978 2.499408 -1.754267 -7.547391 -4.461887 -3.178123 1.678982 2.712402 4.904713 3.945432 0.168108 4.010812 3.350559 -0.088758 0.540126 -0.703153 0.423567 -3.237203 5.197666 -3.930818 5.452301 -0.413722 -4.696782 3.457587 -0.530365 0.816724 3.298050 -4.153758 2.028434 1.157843 -0.880256 1.833785 5.504243 1.455179 0.800543 -0.312885 2.813598 -2.036547 0.589046 1.761011 -4.238756 -0.008714 0.391024 1.823997 -2.149845 1.826450 -1.943972 -3.337051 -2.285046 3.283163 -2.541808 0.502533 3.282743 -2.843931 -4.184677 -3.389390 2.283221 3.545413 -2.730416 1.569419 -2.374326 -0.595744 -0.438598 2.396572 3.844306 -0.180740 -1.145953 3.081465 2.649065 -0.177279 -4.561673 -0.990391 -1.272775 2.988809 2.509250 -0.137542 4.690822 -0.447178 5.091803 -1.834162 -2.942194 2.406217 -6.003549 -1.409431 1.587695 -5.862857 -3.645212 -3.907322 0.691766 -0.150424 -3.334378 0.711936 -2.085057 -3.795576 -0.479039 4.948175 3.983927 1.542025 2.991407 -2.241993 3.956209 
carrying -5.453611 -1.460753 2.567196 3.879469 3.431041 -2.765692 -3.855293 -6.357383 -0.964678 -0.808798 2.019970 1.015278 3.291289 2.837271 -0.875696 1.956075 2.762512 -3.105529 4.711794 -2.770797 6.787819 1.914845 1.953985 -4.765821 -7.667526 -2.845545 -4.545204 2.371015 0.230081 -0.274637 -1.395171 1.229759 6.859217 -3.609885 2.950266 6.362015 -1.779909 -1.754157 1.939232 1.630570 -2.305201 -0.301897 -0.761159 -2.073267 2.331894 -0.883010 4.548460 -0.508624 -1.266280 -2.233776 -2.780508 -9.601772 1.671619 -0.636568 -0.834095 -6.878244 0.665844 1.526988 -3.477823 -1.852492 1.874004 -1.351157 -0.945813 -2.464459 -3.974344 0.341719 -1.392488 -1.789978 0.622358 -0.100184 -5.463051 -2.454663 -1.784873 -1.343930 -7.405644 3.843633 -2.717426 0.510013 -1.288938 2.592413 0.059288 -3.980456 -1.119137 1.003641 -2.818527 -5.304840 -0.899142 -1.640985 -3.178200 0.938027 -1.269314 2.748681 -11.822110 -4.206109 1.161304 -6.195652 -0.705468 4.717475 -4.738898 -0.168605 1.531372 1.483645 -0.352267 0.492482 0.178152 -0.066924 1.246198 3.731550 -7.653372 0.064868 -2.622255 5.476112 1.481637 1.067983 0.119799 -0.283966 -6.304019 1.362441 -2.742752 3.174848 5.430942 -2.162402 0.297074 -6.092574 -3.503378 4.365796 -2.043230 -1.819005 -3.025882 0.531455 4.126854 0.614760 -0.437432 2.257144 3.480093 2.359834 1.165234 -1.132245 5.551680 -3.175213 3.218407 -4.994963 1.323538 -0.159775 -3.233393 5.277901 -0.688304 -0.760042 0.682950 -2.066347 2.760524 -2.593547 0.781051 -1.794101 -4.394199 -0.462867 2.648073 1.017228 -2.682628 -2.346835 -0.634768 0.776531 0.899018 -1.267748 -0.161805 4.112840 4.542985 -1.618648 0.393334 5.613427 -2.692329 0.182008 -1.284085 1.089300 -0.774897 -5.134454 -1.256018 0.830306 -0.709870 -7.065414 -0.916645 -0.327766 2.157976 -3.299633 -0.415556 3.534960 2.712882 -3.615758 5.277692 4.349711 -0.905584 0.987373 3.369725 -1.560804 8.631529 0.593382 -2.943817 -0.439370 0.938717 -1.969084 
to -1.775892 -2.276363 -0.356503 4.081217 -3.178271 0.790893 -2.677648 -1.753877 -3.082664 2.015691 -3.163077 3.163187 4.463383 -0.857479 0.847947 -1.970646 -1.035095 -3.196416 -1.322357 -2.126082 3.719575 2.258888 1.808635 1.546276 0.987736 -3.590431 -2.645313 -1.660277 -1.914182 1.890543 -2.225957 2.940929 0.914351 -2.055783 -4.017917 4.026438 -1.395042 -0.785695 -2.550803 -0.679881 3.110375 0.686333 4.599224 -4.904335 2.127586 5.101977 -2.327138 3.266864 2.066198 0.725081 3.214562 -0.407280 0.877275 1.670888 3.028611 0.206849 -3.152988 0.376561 -6.479804 -1.112557 -2.116786 2.345377 -3.602391 3.408415 1.373663 -2.400454 -0.696278 2.529964 -0.238358 -2.374106 10.558489 2.770737 -1.726632 -2.637869 -6.125612 -2.801099 -10.904507 -5.168262 -2.028570 1.112117 4.682318 2.161267 -1.372132 1.091380 -1.536137 0.658233 -1.290760 2.379188 2.083144 2.409795 -0.714920 0.855311 -0.789105 -1.432997 -3.106153 6.193078 0.529870 -1.269717 -4.677916 -2.903455 1.387656 1.625271 4.162418 -0.244579 2.431406 -3.573382 0.829180 2.856142 -0.356805 0.595754 -0.171047 0.115576 1.311654 -3.611841 0.543271 0.241916 -0.345299 -1.463413 2.788267 4.011581 6.647362 0.744610 0.618215 -0.620980 0.515551 5.292111 -2.083224 0.904971 -3.201756 3.431854 -0.513319 0.389176 -2.657491 -2.077790 -0.869141 -0.550366 2.218558 1.151343 -0.995150 -1.666535 -2.729348 -1.448686 -2.073143 0.363149 -1.563423 3.032575 2.711426 -1.071724 -0.550724 2.615943 1.536145 1.563500 2.983443 -2.326096 5.170951 -3.060514 0.616527 -1.781378 9.713265 -0.965954 -1.531176 -0.362802 -3.284627 -3.806130 -0.050590 1.958857 -1.258930 -2.211023 0.529051 -0.039750 -2.351532 -4.348105 -0.618649 -6.792038 -2.817195 -5.328480 1.252257 -4.216387 5.513766 1.642482 -5.091768 -2.571440 1.170145 -1.902608 4.190811 11.411399 0.653177 0.597861 -0.994166 2.157773 -0.133395 -0.915509 3.056737 1.307534 -3.124745 -1.491491 -7.130710 6.071434 -0.456748 -2.385112 
hand 3.861240 -3.291497 6.679832 -0.111802 -3.665508 1.364928 -1.948530 -1.794056 2.798148 0.118196 -1.522632 2.596161 -2.801837 2.904064 2.707003 1.880743 -4.147626 -9.104790 3.885530 -0.843975 2.762729 -2.057915 -2.529917 -2.509809 1.782049 -4.524847 -1.788227 0.081840 -0.706963 2.873881 -2.025088 0.225210 -0.821113 0.711564 -2.020001 3.946611 1.164957 -2.389085 -0.699427 -3.043828 -0.925762 0.228072 -1.498738 -0.606137 2.293251 0.759896 4.631622 -4.043144 0.789247 1.182677 6.299805 1.311547 1.986676 -6.816902 1.060751 1.016497 -2.655418 1.959913 1.988650 0.590082 0.910706 3.269386 2.442511 -0.881928 0.229637 2.325801 1.198573 -3.695088 3.371265 -1.877292 1.638295 -0.178697 3.006082 -0.539538 3.738149 -3.132766 -2.609381 -0.551650 -4.076334 -1.248781 1.232869 -2.286066 3.330188 2.391907 -3.367814 3.596340 5.539920 2.228764 0.322515 2.533190 4.976465 0.094284 -1.340688 3.057000 -5.358729 2.544435 0.959109 -5.285927 -1.615929 -1.653480 -4.118302 3.607279 7.277533 2.514411 3.544474 3.367195 0.630757 -1.169724 -2.743438 2.301277 -3.114610 -2.132777 0.480808 -1.471228 2.219758 0.171288 1.991994 0.024946 3.450580 -5.435306 0.649498 6.270847 -4.686833 3.491957 0.404093 -1.195620 2.927336 -3.571465 1.813935 -0.133145 -5.054111 -3.439166 -0.377850 1.849676 0.344349 -2.826877 6.504108 0.609990 -3.370630 5.154618 -5.257208 -2.268960 -4.550251 1.328977 2.048728 5.178812 3.807277 0.846711 -3.036882 2.185244 -2.533988 -6.736432 -0.750647 6.981109 2.239196 -4.705375 1.407855 0.751872 -5.512425 4.022550 -0.420237 2.332411 1.402285 -1.665257 -1.257731 -3.568239 1.135280 -2.780069 2.663310 1.549726 1.815534 2.919544 -4.341705 1.420570 3.503428 -0.781550 2.039617 -0.754704 -0.335101 2.836527 -0.997572 -0.030020 0.035953 -1.374274 4.797191 1.459695 0.172890 -2.921460 -3.248986 -0.960607 2.279990 -4.292431 -1.069036 3.003211 -1.686580 -1.653059 -1.593241 -0.064790 -0.041451 1.025868 
be -1.350630 3.170840 4.137477 -5.017520 -5.275074 1.455307 5.991117 2.037791 2.312106 1.326911 -0.741731 -3.354696 -8.795021 6.539225 2.284734 4.180212 -9.680067 3.024177 -12.034698 -4.318013 -0.657608 4.298166 -1.755856 1.636846 4.805649 7.246802 7.389495 0.856436 -4.353482 -9.533786 -2.583780 -2.029126 -0.181003 -4.259380 7.429097 -4.148772 1.087134 -0.461213 0.916879 2.243238 -0.282411 7.189290 -4.592728 4.254915 0.416319 5.658455 -0.210356 -3.086879 0.039189 3.694651 0.085727 -1.256832 0.914085 -2.936500 -3.417214 2.666473 0.107323 -3.588595 9.163870 -0.299340 -0.636904 -1.206895 1.835159 0.906421 -1.709172 3.910296 6.618199 -5.478388 4.139524 4.465233 -8.371195 2.008614 1.611205 -1.566100 10.913098 0.196074 3.347885 11.666349 -5.135708 -1.277238 -1.827376 1.058448 0.851176 0.445733 0.653069 1.135539 1.264171 4.085371 1.731849 -6.691779 1.038956 2.268459 4.200751 -2.890252 -0.279155 -9.779585 2.701457 -0.335180 9.677796 -1.820713 3.550948 -3.328515 -0.521058 -3.605559 -4.384997 6.111807 -3.046902 3.359533 -0.831331 0.897020 -3.521693 0.745616 0.863681 3.763907 2.985793 -2.993050 -3.888165 8.110898 -8.510286 3.626778 -2.869665 4.660324 2.775557 0.298694 -1.122156 -0.716452 -1.273227 3.278181 5.175801 -4.546890 -2.899778 1.367526 0.143592 6.525994 0.606646 5.264710 -0.982933 3.555451 -3.226625 4.834243 1.679485 2.835243 4.760926 -7.286136 -4.398396 0.014012 1.780748 3.278103 -3.624692 2.588355 0.555305 -1.749818 -3.370989 -9.952521 -4.559068 -0.562145 1.282751 5.560701 -5.628091 -4.546054 7.671996 2.025258 1.848871 2.021104 0.921088 0.631545 -1.491370 2.771536 -0.907100 0.296647 -0.178712 -6.214320 -3.505192 2.080460 -0.071177 3.748119 -2.167742 0.880483 -5.621728 1.400030 6.398103 3.974417 -4.542803 2.538939 4.115409 -7.951706 -5.830714 -0.749087 -1.118136 -1.901739 2.384327 4.439034 -0.850575 0.858390 -2.133211 3.801598 7.191046 -6.499122 -1.100186 5.289016 
shoulder -0.400842 0.492100 9.018232 -2.257202 -5.968854 2.522788 -1.286999 -4.278702 -0.408666 -2.617265 0.093118 2.255057 -1.897755 0.825688 0.621393 1.121378 -0.820002 -4.928924 0.751825 -1.202305 -2.482748 1.153600 -2.362870 4.500779 4.473212 -2.376254 -1.543578 1.429162 1.773245 1.417293 0.422355 0.453284 -4.530603 2.679965 -1.374916 2.051482 1.169955 0.510787 0.060219 1.197517 1.625581 -0.780283 -0.213825 -2.998605 5.246149 2.306438 2.596337 1.559606 0.980599 3.323829 6.325246 -2.608515 3.685315 -3.803915 -4.269787 -2.317457 -1.436857 -1.064715 0.291253 1.742414 1.245264 -0.884749 3.248290 -0.535553 -2.063167 -0.852722 0.340791 5.662341 5.743015 0.694896 0.257514 -4.521978 5.690164 -0.730314 1.907783 0.434744 -3.814999 -0.109188 -3.187904 2.608653 3.860925 -1.551227 2.149359 0.086042 0.225009 -0.272107 3.283796 -3.802629 -3.138945 2.542315 -0.378297 4.322058 -9.561076 -2.491994 -4.222682 -0.793482 -0.764554 -6.430395 2.280481 -3.658536 2.205549 -0.796577 4.927905 0.961593 -0.229163 0.598309 2.349800 -1.575781 0.580818 7.232908 -0.750773 -1.440568 -1.900827 -0.929099 2.252410 2.162837 3.760031 -2.545739 1.938428 -4.134191 -1.235450 3.756797 -3.135574 2.145200 -1.006638 2.559758 -2.777883 -1.113236 4.958133 -1.404180 -7.358034 -9.198133 3.355635 3.636669 -3.068465 -4.868567 6.379333 3.242195 -3.120902 3.119326 -0.303319 -2.105473 -3.110372 1.321337 3.077798 6.298156 -0.035505 2.228339 1.494437 1.758882 0.100536 -6.146960 -0.730509 8.239388 4.013258 -0.966841 1.588575 1.669931 -2.351919 0.912095 -0.999744 0.902246 1.039652 -2.523131 -3.961126 -2.126907 -5.766471 -0.419715 -0.117059 -1.480617 1.677603 1.228519 -6.016319 2.359255 1.419869 -0.933297 -0.139524 0.554577 1.090189 0.952938 -1.483072 0.414488 -2.797397 -4.496185 -0.914430 -0.988242 -0.071432 -2.254484 -1.187081 -0.611805 -0.278541 -0.994595 2.574409 1.562681 1.805390 -0.212952 -2.322141 1.464297 4.436521 -1.477564 
blue -3.853615 -0.814083 0.062249 0.668737 -0.920978 -4.644437 -1.487595 1.527883 -1.661424 0.453181 0.453106 6.903399 -1.330334 -2.206395 -1.151427 0.160178 2.876211 -2.117095 -1.883198 0.954810 3.748144 1.682911 -1.689961 0.247604 -2.476786 -1.303933 0.031056 1.418748 0.570396 2.045228 2.342193 2.363957 -1.338675 -1.812039 0.987685 1.221374 -0.126249 1.933140 -0.771450 -1.026734 -1.473934 1.554020 1.607254 2.682208 -1.102762 3.294140 -0.900638 -0.357620 0.426749 0.293563 -0.469283 -3.018445 1.654071 -0.186885 -1.314519 -0.100425 -3.209450 -1.266911 2.210276 2.618073 -0.794569 0.109845 2.305786 1.178845 -1.089308 0.229129 0.559358 -2.533209 2.013363 0.307467 -1.213622 -0.140120 0.178586 0.739233 -2.833343 -3.269445 -3.970036 0.797143 -2.516148 -1.886864 -0.827862 3.698260 -1.048349 2.113764 -1.505219 3.022750 -2.645719 2.862415 1.018610 -5.036310 0.359790 1.403164 1.020934 1.463870 -1.619538 -0.017994 1.084465 0.614837 0.140704 0.976869 0.631237 -1.614896 -1.040671 -1.557789 1.390155 2.642298 0.026538 -1.464500 -1.612750 -1.032570 -1.425205 -1.036697 -0.225061 0.444252 -2.081251 0.510406 2.533193 -0.321612 0.053910 0.321690 1.696880 -0.880896 0.578996 -0.375736 0.167104 -1.097365 0.041642 0.004849 -1.267207 -0.332759 0.103806 -0.795324 0.832264 1.749554 0.488328 4.887638 -0.493138 -2.989964 -3.293208 0.885832 -0.290382 -0.124268 -2.592810 0.043163 2.109117 -1.822993 0.521700 1.328486 -0.062949 -3.726007 3.397779 0.548951 0.288061 -0.944417 0.301791 -0.257298 -0.652102 -4.017082 0.366697 -0.451119 1.499555 -1.702549 3.312058 3.010037 -0.607067 -1.443147 3.124707 -2.470574 -2.448035 -1.832393 -1.230663 2.338974 -0.500575 3.362203 -1.506719 0.018079 -2.038184 -4.486980 2.183164 -4.249885 -1.695783 0.688096 3.464101 -3.290443 1.508662 -0.733497 1.432107 2.931046 2.577771 -0.608718 -2.885058 0.024963 -2.322066 -3.387245 -4.735484 2.114450 1.913930 1.384468 -2.065715 -0.382860 
long -1.825801 3.473893 -1.592118 -0.400860 -0.082245 -3.037102 0.952261 -0.259090 0.791753 -6.899528 -0.811203 -1.767927 6.583802 -3.161792 -7.103715 0.787978 2.223842 1.237433 -7.172303 -2.532355 3.023192 -0.764496 2.107135 1.617407 1.262105 -1.334529 0.281947 1.082593 0.886804 0.266800 2.360687 2.272346 -4.268884 3.856920 0.469075 0.375431 -0.832729 3.111876 2.333340 3.450074 0.183639 2.359791 1.435604 -1.626935 3.895087 1.050682 -0.494240 -0.240953 -0.011805 -0.802519 1.953518 0.884808 0.109289 -2.413540 2.022028 -0.185451 1.497761 1.618106 -3.382223 -0.869273 3.676060 -2.856973 -0.171582 -0.581365 1.817697 2.258269 1.553087 -2.536900 0.711750 -0.987022 -1.548079 1.894618 0.630531 -1.052028 0.042548 0.008187 -1.607911 -4.229751 -4.507535 1.839653 -5.844977 5.656572 -2.938148 -4.483823 0.982382 -2.804782 -0.792401 6.932788 3.228652 1.948910 -1.460272 -0.339818 2.627962 -1.381618 1.083033 1.978101 3.703029 2.270482 2.532900 0.904477 -0.967613 0.412629 1.575583 -4.785625 1.267004 -3.429124 -1.402918 -2.244999 3.763572 -0.680513 4.087644 2.686845 1.627933 -1.030857 1.190325 0.812480 -3.285630 0.928923 -1.213171 4.020391 -0.861981 1.097752 0.446396 -2.322188 0.433689 -1.769822 3.714196 -1.029649 -1.353435 0.953782 2.321486 1.874603 0.577555 -2.036226 0.267461 -1.434721 -3.304708 -1.508964 -3.120384 -1.600509 0.313717 -2.532603 2.202222 0.220256 0.996411 2.413174 1.494785 2.277065 -4.897141 3.367826 2.593165 -1.496413 0.627850 3.983751 3.782353 2.298491 1.776769 2.521453 -0.127738 0.051395 3.319993 -1.892044 -0.461604 5.467661 1.331214 3.066607 3.675772 -0.080085 -1.667362 -1.130085 -0.830243 -1.231358 0.598587 2.065149 3.420957 1.244541 0.109766 1.333513 -1.667301 0.312791 1.718033 0.084743 -0.502233 0.816474 -2.159285 -4.427102 2.467341 2.448996 -1.085343 -1.041478 -1.118919 -0.436079 2.032827 -1.063159 1.907877 3.911878 -1.464248 -2.328161 3.367533 -0.785147 
probably -1.339521 2.231539 -0.489251 -1.041100 3.340760 -3.281425 -1.202520 -1.838342 -0.750381 0.864008 -0.896306 0.340024 0.120853 2.314899 -2.307869 1.036654 1.006747 -0.473650 0.138541 3.324693 4.186236 2.090421 0.760257 1.653828 -0.860145 0.877664 2.899788 -0.393538 -1.060232 0.068516 -1.525485 -0.589036 -1.827345 2.227494 -2.382031 1.484046 -2.595706 1.331771 1.625939 2.021080 -1.675421 -0.495362 -1.436274 -1.481039 1.929276 -0.100639 1.164253 1.928995 2.492173 -0.733404 1.288259 0.126546 -2.207693 0.707796 2.630112 -0.881233 -0.321763 -1.082058 3.535022 -2.464715 -0.179733 1.825930 -1.486770 0.561829 0.086181 -2.633914 -3.190483 0.216756 -0.743701 -0.110329 -1.342260 -0.843404 0.653602 -2.338660 -0.473849 -1.383279 -0.376622 0.235179 2.948647 0.688716 1.524599 1.070965 -0.027983 -1.636344 -0.876663 -2.761311 1.233804 -1.131846 0.053317 2.913275 0.684358 0.600309 -1.269057 -1.341268 2.155769 1.224785 -0.273154 0.999097 -0.070508 -1.978420 -0.244974 1.019345 -1.245473 -1.398219 1.516819 1.709999 -1.175060 0.566824 3.352634 1.314710 1.025668 2.575962 3.308892 -2.590716 -2.325685 -0.135135 -2.390733 0.279047 -4.611875 -1.730823 1.113649 0.054786 -0.539025 1.374040 -1.900972 -1.699228 -2.769243 -3.988841 0.745859 4.172617 -1.062906 0.582163 -2.062545 2.509998 0.109571 1.109092 0.228135 -0.432267 3.535364 -1.326411 0.741401 -1.104705 1.720494 -2.223647 2.769460 1.837470 1.423975 -1.861699 -0.372046 0.891183 0.864191 -1.720563 0.194041 -0.488140 -1.604573 -2.025014 0.081777 2.011236 -2.517107 0.908611 -0.633438 -1.395844 -0.430885 -0.350086 1.741313 -0.726568 -0.617587 -0.017111 0.049973 0.424700 -1.440102 0.155628 -0.551975 0.981367 2.991532 -0.105035 0.355697 0.224046 -0.693332 0.727827 0.011509 0.192428 1.348930 0.831443 -1.025871 -1.680831 1.119324 0.003692 1.476800 0.328132 0.675808 1.026609 3.407038 -1.096109 -0.876614 -3.836324 -1.575550 1.208304 -1.144374 0.536142 
jeans -1.198208 0.953318 -1.307848 -0.214214 0.213903 2.685242 5.419628 -1.129405 2.103643 -0.904510 5.086642 -4.843805 -5.104014 3.119903 6.215381 1.582365 -5.134650 1.562987 1.402352 6.242314 1.710068 -0.476844 -0.331640 -2.806566 -1.854976 -4.067745 -0.208490 -1.197618 6.367911 0.310620 -0.715585 -1.823339 -5.346090 3.164051 -4.025079 -0.368574 0.528896 -3.142234 3.670771 -0.621936 4.362825 1.263027 0.732177 -6.395871 2.823184 3.172369 -1.871618 4.882221 0.611761 -6.658029 -2.460440 3.249218 2.232709 1.176654 2.725784 1.173874 4.786817 -0.735289 0.269452 -3.784845 1.297084 -4.998780 -1.466519 0.710445 -1.002688 3.137807 2.179626 -1.548852 -1.730480 1.193160 -3.500471 1.439914 -4.389904 -0.912713 1.734823 5.250472 4.235038 1.243309 3.955322 -3.973024 1.891732 0.390471 -1.095477 0.508524 4.208717 1.125803 0.341121 4.032935 -2.322092 -1.495439 1.869696 -0.435826 0.969907 -2.817783 -2.663278 1.284909 -0.087220 1.665344 -1.144336 0.138593 0.700418 -2.831707 -2.497026 -0.068344 0.977169 0.905952 6.183867 -0.545008 6.174382 4.613381 3.215801 -0.267058 -2.687197 -3.105094 6.392638 -1.979411 -4.480484 -0.009887 0.714452 0.786228 -3.353547 -3.642562 1.651019 -1.216564 -0.193782 -3.622394 3.735985 -3.104475 -1.863440 -0.070167 -0.339602 1.196220 -3.300680 -0.544523 3.738636 -1.095369 -2.448877 -0.344423 -2.316442 -0.077728 0.556801 3.899602 -2.097483 -0.052053 -0.875742 7.161276 -3.814277 2.724548 4.304528 2.163434 1.665290 -7.848953 -2.438967 -6.688174 0.390130 -0.152402 3.293964 1.753270 -2.735152 2.568451 -0.183965 -1.369444 0.477478 2.675234 -0.432915 0.232652 -0.194178 -0.269412 -0.844666 -1.284212 -1.881235 1.896748 1.044459 -1.193028 2.428439 2.991554 1.314127 0.885125 0.140731 0.238986 -1.978037 -0.064724 -3.687217 3.633010 -2.298599 -1.614168 -1.011409 -1.652372 -1.280898 -1.943217 1.672940 -1.911456 1.298435 6.184168 0.717501 -2.120903 -8.621585 1.966689 5.145143 -3.597883 
back 4.149651 0.330167 6.417228 2.073622 -5.835052 3.955980 1.297975 1.668230 -4.977035 0.930612 2.512394 -4.835113 -4.108881 -1.068346 -1.847934 3.500135 2.941293 2.673808 -2.727029 3.580196 1.222993 1.287607 0.244501 3.657400 0.326233 -1.323843 1.919777 -1.820901 -0.170215 5.126643 0.173220 -0.351716 -4.505132 -3.311766 -1.584404 -4.434261 -0.521254 1.510662 1.597506 0.228760 -1.551120 -0.772185 -4.224059 -3.237796 -0.829296 -1.815761 2.712806 2.355186 -2.125257 0.757433 2.089071 -0.167875 1.229364 0.503854 0.950056 -4.688523 1.916114 1.152537 1.022048 0.772957 4.996677 2.647689 -3.761980 -0.022709 -3.080279 2.721573 5.018714 1.334129 -2.527709 3.969527 1.087745 -0.493366 3.962259 -1.805458 -1.709857 0.976339 -2.323977 1.335015 1.696718 5.311173 7.758352 -1.159962 1.422533 0.136518 0.438467 -0.097589 -0.230138 -5.325401 -1.536604 -3.366307 -0.246518 1.840945 -1.632531 -7.044114 -1.485197 -3.336949 -1.340482 -1.075682 -0.528309 -3.040206 2.753092 -1.942007 -0.852489 -2.447699 0.664019 1.550275 5.671262 0.614674 1.462137 9.269396 0.265028 1.771461 -0.809538 0.751969 2.306858 4.026382 1.809051 0.297900 2.661361 -2.653641 3.027341 -4.299830 3.228893 5.162527 -0.274324 7.349989 -4.261414 3.326474 6.349828 2.568769 -5.635589 -0.772717 1.459556 1.792850 -1.663220 -1.580716 4.328592 -1.694168 -1.745965 1.966879 -1.287453 -1.254841 1.012037 -0.905786 3.962736 3.887094 -3.745543 1.346724 1.605576 -2.234629 1.482158 -7.137174 -3.196727 3.777959 -0.618843 0.216865 2.841702 -2.131463 -1.310591 -0.443192 -1.699173 3.142191 -0.360864 -0.945185 -4.801015 -3.626385 0.659332 0.114897 2.386277 -0.364845 -2.845528 2.602732 -3.529643 2.267048 -0.192086 1.022825 -2.682470 2.653115 -2.340926 1.670603 -3.191796 -2.682986 2.872248 1.769658 -5.883368 -5.014116 0.841982 0.548083 1.347845 -3.383520 1.935163 2.529684 -1.984481 -1.075924 7.138753 2.446240 2.697614 -4.270048 -2.979109 -0.980519 
pants 1.810599 0.450336 -0.027044 0.970719 -1.983430 -2.889647 3.271141 -0.700754 -2.482547 -0.648925 6.646325 -2.071954 -8.091782 1.874171 5.260890 1.585510 -3.393655 6.651873 1.525717 0.300732 0.462288 -3.213887 -2.702526 -0.765823 -4.418435 -5.186974 -0.128680 1.442179 4.926718 0.087326 1.493189 -1.535263 -2.943382 4.088881 -3.728131 0.791300 -0.886997 -1.832436 3.585300 -3.840277 5.270094 0.866703 0.872088 -3.723531 1.156554 6.649198 -2.474030 4.247290 -0.654666 -4.171195 -4.007330 -0.680424 7.286612 1.461468 -0.641468 -0.944341 2.479217 2.093303 1.321417 -0.412262 2.866116 -4.157592 -1.234032 -0.427212 -0.625796 4.146512 0.105466 -0.654543 -0.095730 1.455806 -0.991794 -0.627995 -2.695435 0.158743 -0.925400 2.813766 0.236375 0.613140 -0.218066 -2.953329 4.415449 3.540259 0.204952 1.930898 0.501813 2.166758 0.350012 4.569071 -0.824356 2.345203 2.986362 0.592462 -0.916390 1.294277 -4.543589 2.538229 -0.053663 1.748342 1.972156 2.622988 -1.430591 -0.086666 1.975515 0.151059 -0.802377 1.598016 6.397359 -0.208760 0.839962 6.514036 1.412996 0.599432 1.649699 -1.493097 5.236993 -0.537403 -5.103189 2.320333 1.949004 0.663205 -3.736265 -2.765305 2.030179 0.173725 -1.888931 0.115228 1.160097 0.726653 -3.613511 -0.299784 1.490222 0.883893 -1.389442 -1.175011 3.630157 -1.552373 -1.615679 -1.295840 -2.326124 3.344335 2.078741 0.659363 -3.422332 1.041280 3.118712 7.012449 -1.532184 -1.201246 7.917680 3.766431 1.513260 -7.101643 -1.565815 -7.569929 0.400318 2.512078 1.854110 -0.655967 -1.477194 1.266945 1.080985 -4.555238 4.009294 6.173186 -3.379560 -0.416011 0.823538 -1.645097 -3.174597 -3.604247 -0.907016 2.417881 2.174989 0.705377 0.996843 6.664737 -0.437190 -2.973567 -0.005824 -2.066326 0.070757 -1.887001 -4.947685 3.281184 2.245951 -1.813502 0.562911 -2.069244 -1.290251 -3.813008 0.928753 -3.055771 4.276700 3.861373 -0.196959 0.771831 -6.795994 3.449171 6.896583 -3.352167 
young 1.517183 0.130700 0.718825 -1.279091 -2.417365 -1.404172 -1.317144 0.853868 -5.735279 1.218098 0.817710 -1.269682 0.180444 -2.964193 4.401225 0.333965 2.199642 -0.855984 2.086531 4.519217 -1.932085 -1.884658 0.896205 0.242532 1.922197 3.149968 3.299369 3.230017 -4.248050 -0.434620 -0.041457 0.734888 -0.192206 1.006301 1.432190 3.212940 -0.724897 0.019803 -4.897078 -3.888257 -1.453340 2.253561 -2.027851 6.863202 -4.088964 3.417386 -2.099778 2.735307 -0.554203 -2.297765 -3.383420 -1.504318 3.071658 -0.508915 1.334721 -0.963858 0.551349 -1.437263 -0.201317 -1.060763 2.422970 -1.298265 -4.451278 -2.511733 1.792365 -0.826494 -0.108020 -2.991431 -3.495354 1.856293 -3.871926 1.651616 -1.697724 -2.608930 -2.303854 -2.277098 -0.431627 2.089078 0.327146 0.930077 1.792772 -1.289186 1.312010 0.262597 -2.799932 -2.010224 1.400967 -1.628972 -4.432002 0.810863 -0.268608 3.281112 -2.492799 1.293140 0.066853 -1.308231 2.033375 -0.403984 2.584226 -0.193407 -1.216690 -1.687197 1.506970 -0.368999 2.011237 0.386840 -1.776081 -1.429781 0.111528 1.041683 1.188904 1.067253 -3.765079 1.773837 -1.035155 2.374052 1.203282 -0.350140 1.293491 0.927839 1.072342 1.045012 0.172331 1.678071 -4.205457 0.390796 -4.087349 0.288555 -0.333031 1.222306 0.168648 0.111177 -0.567867 1.123601 -0.014463 -0.181041 -0.226186 -1.720286 -1.621567 0.534970 0.801849 1.841846 0.853717 2.134190 -2.547614 -4.123777 -1.590949 2.818471 -1.348942 -0.063613 2.478182 2.045366 -0.698489 1.423278 2.045583 1.298175 0.849694 3.635926 0.512822 -0.001017 2.853570 0.676729 -0.856584 1.622082 0.440318 2.664842 4.848344 1.764278 -0.755552 0.994923 -0.877538 -0.434149 -0.061976 -1.834551 -3.272510 -2.269968 -1.362160 1.001022 -0.229759 0.258137 -2.316807 -3.429429 -0.814380 2.505557 -0.082567 -0.468349 0.434343 -1.965105 1.432444 -1.252264 -0.155144 -1.179687 1.021715 3.330329 3.130146 4.401357 3.494081 -2.042134 4.970390 1.610786 
it -0.832733 2.735785 1.498328 3.610553 -0.309901 0.621966 0.006528 -1.401205 -1.699074 -0.058832 -0.317751 0.540706 -1.670984 1.267030 0.233800 3.580011 0.445763 -0.791010 1.530086 1.618045 3.372067 -1.969185 -1.536383 -1.016738 -2.791311 3.606018 2.995358 -5.224518 0.854158 -0.123883 -0.122261 0.539105 -2.023263 3.608893 3.113027 -5.627382 3.268578 -2.082929 -0.151229 1.760907 2.204422 -1.453781 0.256970 0.086990 1.033611 -0.954995 2.521311 0.990805 -0.628951 -0.618060 0.026182 -3.299249 0.461966 1.932949 -2.418217 -0.505408 1.105045 -2.430739 -0.966452 1.515750 2.000425 2.742086 3.077750 3.293466 2.966173 1.280952 -3.512033 2.766859 -0.386563 0.476661 -5.782169 -1.772641 -0.106260 -1.602349 -1.716906 1.316469 0.024221 -1.101032 -0.723727 3.405241 -3.613080 -1.816732 -0.354161 -1.022177 -0.834699 -0.948300 -4.087661 0.258012 -3.274418 1.454011 0.508458 -1.189860 -0.673493 1.831537 -2.010040 1.545387 -4.418643 -0.292892 1.619238 2.519560 1.150303 -2.861597 -3.540289 -0.867511 -3.440778 3.088546 0.895709 -0.779985 2.579499 2.408564 -1.115412 -0.359734 2.067372 2.656861 0.171638 -1.216846 1.513960 -2.073293 -0.403702 -1.351187 -4.461421 -0.820213 -2.806167 1.659117 0.390699 2.528999 -2.287572 3.751177 2.132437 0.938684 0.332649 1.955831 1.409206 0.356164 -2.621845 -0.284228 -1.885709 0.202197 -4.315782 2.340810 0.401291 -1.532768 3.640277 -0.238391 1.320459 2.845439 -0.219489 1.031652 2.513413 -1.190177 0.589241 -3.863151 -1.617912 2.175445 -0.892244 2.885866 1.269938 -0.115981 -0.944239 -1.249042 -0.006267 0.981293 1.242784 -2.839108 -0.909885 -0.507861 -0.157221 2.498572 -2.629279 -1.642837 0.333987 -0.351388 -2.147991 3.602786 2.241421 3.215180 -2.769200 -0.915429 1.438705 0.198583 0.891998 -1.557898 -3.807341 -1.383683 1.243817 0.881265 2.079204 0.695439 -1.599420 -1.796486 -1.591609 -1.277670 -1.504859 1.127360 2.656090 5.432552 -0.398208 3.653323 -1.952391 -0.274833 
shirt -0.538220 -1.522531 -4.114810 2.932971 -3.626519 4.678390 -3.304528 -0.948921 1.969344 7.004814 -4.929493 0.724359 1.742426 -2.870011 -4.143072 9.432736 5.722600 3.775089 1.408125 -0.851375 -3.231114 6.124890 -0.292931 2.364340 0.567774 3.082416 5.850812 1.505512 -3.301972 -0.944423 -1.301751 2.729435 0.549564 -0.511926 0.687876 -0.910491 -2.341567 4.645085 0.548452 -2.781852 -1.511709 4.156150 -2.906012 -3.331145 3.392054 4.739626 -3.902164 0.056233 3.278777 -0.106031 5.289461 1.442077 -2.382417 -3.701697 2.022467 -0.164988 -0.875306 3.321484 6.007022 -3.836400 1.243751 -1.250482 -0.373461 4.178857 1.106082 -1.681330 -1.914359 0.819717 -2.011200 -2.761802 -3.285719 -0.870043 -2.624974 -0.966183 1.745300 3.334047 0.954722 -0.012355 1.908925 3.791101 -2.963342 -0.537682 3.938284 -0.212630 1.927485 4.632333 4.704207 2.127249 -1.436087 -3.763932 -2.456678 -6.000333 4.264494 -4.915895 -0.544211 -3.643545 2.566057 -2.612349 3.804594 3.027806 1.482430 0.356606 -1.293924 -5.153652 -0.948602 -1.879381 -2.487693 -1.412332 0.042059 5.473842 -1.417477 -3.749516 -0.539973 -0.018444 -1.806867 1.880861 0.322165 -1.137853 4.259662 1.286078 0.573005 2.547262 -0.839003 -4.093649 0.048034 -2.529280 1.827367 -2.621964 4.437462 -1.459405 0.106777 -2.149621 -0.701794 2.630253 -2.093874 -1.112113 3.257553 -0.974601 6.015518 -1.890251 1.701744 -1.648435 2.172069 4.019490 -1.919667 0.108744 1.032907 -0.020478 -5.450382 1.073522 -4.830420 -2.236592 0.917544 0.083354 -4.064312 -0.294077 -0.468760 5.353197 0.676990 -0.807623 -0.725067 0.035191 -4.489839 1.385281 0.716231 -5.259433 1.413841 0.159573 1.556386 -0.142514 2.097761 3.028780 1.655258 0.328428 2.266795 -0.669045 0.212219 -0.201031 -1.778771 2.019736 -3.693671 0.934649 2.550754 2.024884 -3.829196 1.096090 -0.980973 1.626009 -1.966343 -2.521417 -1.011898 -0.558101 -2.875484 5.169216 7.554997 2.406525 -0.107522 -6.300229 5.893565 -2.387665 
backpack 1.040245 -1.671190 1.465358 -1.285532 -1.649340 -0.621595 1.700236 -1.967173 -2.909355 4.417880 2.088667 0.208648 -1.791229 -5.184490 -3.928114 -2.872600 1.780277 7.939665 6.697188 4.038633 -1.006979 -2.071770 2.679789 -1.728301 4.904852 0.643718 -1.271508 -4.434620 0.440107 -1.076141 -1.202439 -2.152224 -1.789597 3.415693 -4.396008 -1.209752 -2.159828 -2.369227 2.558761 0.840004 -0.019429 2.891021 0.435993 -3.685209 -0.195221 2.293965 -0.089850 3.811713 -0.099145 -1.531950 5.982030 3.402256 1.281415 -0.968612 1.505519 0.365846 0.318780 0.419183 -1.229846 -1.847554 0.329498 -1.584831 1.509182 4.339476 2.208605 -1.645105 -5.999296 4.199244 4.157802 -1.356451 -3.906437 -1.568016 -1.223135 -0.219809 0.343909 -0.546229 4.973503 2.581687 -3.924959 -0.428179 -2.544840 0.897603 -3.582727 1.376134 1.063400 2.951813 1.692949 0.320495 2.362870 -5.537684 3.400141 -7.023310 12.523491 4.747067 -0.725430 -0.572442 -1.209093 -2.614132 0.162351 -2.610033 0.351095 0.373291 2.526674 -0.799413 0.028614 -2.023853 2.444332 -0.834657 8.337856 3.992318 1.170072 0.368030 2.196248 1.348319 -0.241108 0.691974 1.101873 -1.052722 1.271769 0.793847 0.067191 1.990162 -0.170542 1.521328 0.026180 2.278651 -5.308549 0.311712 1.852594 -0.368400 -7.125283 -1.325232 4.607492 3.300355 -0.296270 2.101751 2.894581 -0.931319 1.054418 0.426348 -1.303192 0.568849 1.786926 3.630087 4.003897 0.147866 5.686724 -1.926815 -0.212160 -2.753935 -0.406228 0.511553 0.630743 -1.833899 2.612130 -3.185139 2.339501 2.224725 -1.854651 4.340464 -0.714110 -0.972829 -1.188542 3.262838 3.684641 -0.386631 1.569410 -2.774645 2.975957 -0.254179 1.463604 2.250995 -1.745922 -4.328756 0.909374 0.365737 1.883252 -0.932503 1.731944 0.638166 1.409398 2.170578 -4.873026 -1.575699 0.474682 -1.344372 1.172297 1.828712 -1.585304 -2.751340 -3.458952 0.269515 0.065686 1.835074 3.259131 0.626182 -0.626149 1.571333 1.815988 1.225503 
brown -0.812887 2.978996 -2.346740 3.163811 -1.916776 -0.119363 0.585282 -3.815543 1.359054 -1.648480 -0.401685 6.243413 -0.526277 0.862211 0.053590 2.437450 0.534329 0.499094 0.584319 4.257569 3.988257 0.787530 0.319003 1.210428 -0.063047 -2.776490 -3.092165 0.558542 -0.948718 2.015641 0.403078 2.207905 -1.051144 -2.012589 0.722002 3.171662 -0.063647 0.785156 -1.942313 -1.092697 -2.141314 3.303885 -0.558156 3.496867 0.579081 -0.189160 -1.850069 -0.892055 0.409085 0.768968 -2.470954 -0.768222 0.893788 -2.396080 -1.025270 0.277806 -0.348820 0.441389 0.245087 -0.785188 0.844199 -2.203397 -1.759392 -1.545066 1.112324 1.652235 1.741806 0.540706 -0.785899 0.981706 2.035525 -0.400007 2.344226 -0.681288 -1.601339 0.570827 -0.442063 -0.992286 -3.318564 1.294868 -2.923840 -0.322747 -0.820141 -0.330503 -0.198919 -0.518202 -1.184816 1.253906 -1.590942 -1.350023 -3.127089 0.165272 -0.944339 -2.076993 -2.183340 2.359624 0.002939 1.756895 -0.251244 0.654976 3.566968 -0.410547 -2.152608 -2.111709 -1.193689 0.841945 -2.452018 -1.636583 -1.211142 1.928704 0.280546 1.658140 -1.043069 1.840820 -2.328846 0.073420 1.805900 -2.409942 3.111620 -1.866479 -0.319505 1.594231 -0.518948 -0.502598 -1.337185 -0.328577 2.376248 0.987056 1.583644 -1.149336 -0.460364 0.007529 -0.958591 -1.779040 -0.708167 1.459929 -1.578649 -3.931185 1.046739 -0.330307 -1.008015 -2.708854 -3.729829 2.623762 1.178392 -1.020198 -0.768715 2.931088 -0.541937 -1.655961 2.123677 2.088677 -2.871098 -0.439078 1.839194 -0.143723 1.232769 -2.078061 -0.563393 -0.440865 0.213766 0.522499 3.839892 -2.301589 4.286000 2.059760 1.102158 1.906212 -2.236238 -3.004816 -1.696021 -1.201113 -2.420107 -0.755272 -2.645509 0.182144 1.032003 -3.352362 2.330311 -3.467303 1.893571 0.167475 -2.440043 -2.660295 2.342663 -1.942742 -0.739355 0.764267 0.687369 -0.551362 -1.594040 1.081454 -0.932298 -3.511318 -3.074987 -1.606648 1.432089 -0.521287 -2.772067 -0.812116 
girl 1.384909 5.672119 3.502762 -1.597085 0.024774 2.237988 1.325678 4.140013 0.249478 7.532938 -2.645921 -0.048032 0.895093 0.238872 -2.889758 4.406911 -4.506340 2.726131 6.631729 2.177954 5.841915 -0.548842 4.090106 -2.422969 1.308105 -2.240752 -6.382860 0.682999 2.355848 -1.148010 0.844787 -2.560319 5.449599 -4.217702 3.886896 -1.278367 -3.932422 4.271307 -4.618142 -5.804062 2.071902 0.338544 -3.369262 -4.527986 1.236174 7.303019 0.735143 -1.395922 4.585624 -3.110345 4.304332 2.152386 -0.664829 -2.575483 -1.048978 -0.052260 1.192635 -0.897950 -2.704515 5.067723 1.624548 1.891665 5.701518 2.813419 -0.237423 -4.277391 -2.753051 3.793708 5.248078 5.073532 0.886701 -1.368424 0.060771 1.082651 -0.398885 1.538222 2.778918 5.204473 1.099284 1.047951 -1.703239 -2.659960 3.263262 -2.728733 3.124077 3.282703 -0.294952 -1.924886 -0.738013 -1.814008 -0.953134 -0.929239 7.292185 -1.378257 1.000156 4.853432 1.730170 0.000773 -1.311826 2.263565 -0.113710 -1.678224 2.562491 -2.212425 0.187842 0.168480 -1.860437 -3.840315 -3.923301 -6.679402 3.000414 -0.318607 -1.563112 -1.630554 -1.241095 -0.297249 3.773423 -1.891495 -0.609885 0.547037 -1.237341 0.976045 -1.198301 3.442933 -5.470266 1.414332 -4.443463 1.161489 -3.755738 -0.651874 3.029948 -1.279691 0.093642 1.209434 1.090397 1.751652 -1.103461 -3.321436 5.421698 0.895599 0.921641 -1.843021 -0.992880 -0.049257 5.490053 9.244861 -1.017497 2.253639 -2.707991 -7.936949 2.202139 -9.353400 0.219484 1.889787 -4.570293 -2.009721 -0.252291 1.136976 0.450462 -0.334897 2.290775 1.029231 1.235183 -6.770839 3.217991 -1.410421 -4.590508 0.894628 -4.505932 -2.053074 -3.736020 2.058027 -1.865271 0.426993 -1.338138 -0.882124 2.505454 -5.108831 -3.104758 -4.471160 1.638394 2.960186 2.475554 0.795524 0.624063 -3.063826 -1.108489 0.116037 5.186720 0.302355 -1.498613 1.360004 -4.787738 3.286515 2.735316 1.955580 -1.277511 -1.051770 -6.134639 -1.653324 
red 0.387335 -0.446230 -2.960200 -0.372390 0.407745 -2.143131 -0.004630 -3.032991 -0.270336 1.480512 -2.228410 3.839400 -0.196486 1.683715 -1.541999 2.785727 -1.069682 1.093742 1.180467 1.512519 2.134607 2.528792 1.382249 0.159459 0.230947 -0.260103 1.310826 -0.085534 0.561806 -0.002572 0.394501 3.657484 -0.903178 -0.326710 2.620058 -3.099132 1.074098 1.269078 -3.179223 0.355345 -1.191426 0.272760 -0.518232 0.824233 0.681677 -1.262615 -1.334795 -1.632324 0.112065 -0.248692 -1.198338 -1.141631 0.232992 -2.282756 0.574039 1.474886 -1.086698 0.616442 0.663732 -0.440086 -1.731277 1.637154 0.327298 -0.977241 1.461568 -0.099113 -0.915161 0.119346 2.005704 -1.202507 4.831469 2.250346 3.021923 -0.932263 1.154996 -2.953430 -1.583152 -1.133647 -0.488804 -1.132353 0.225162 1.827195 -0.118781 -1.370612 1.499445 1.169564 -1.864488 1.767191 1.889941 -0.143919 -1.146814 1.505960 -0.406526 -2.171075 -0.478941 1.203759 1.169312 -0.839980 0.154950 -1.817533 1.214671 -0.787101 -0.454716 -2.252590 -0.770607 -0.293139 -0.409444 -0.928084 2.326051 0.606654 0.042715 0.701175 -1.098721 0.150990 -0.341625 -0.861408 2.405109 0.449516 0.804812 -1.303807 -0.630368 2.319224 -1.919290 0.441245 -0.488052 -2.480121 2.190938 -2.002845 1.402295 -0.885102 -1.124238 1.657943 -1.006460 3.102080 1.286763 2.549421 -0.744924 -3.545395 -0.794177 -1.720463 -0.422556 -1.330535 -2.997224 0.319537 -1.061769 2.014298 -0.025840 0.858852 -0.127858 -3.393097 -0.467736 1.395171 -1.549183 2.856297 -0.189413 0.904406 1.193186 -1.505538 1.462210 -1.031568 -0.210996 -1.706212 3.550514 -0.169149 2.086833 -1.146048 1.847648 -0.496338 -1.369813 -1.264328 -0.432921 -0.652476 -1.930204 0.483820 0.274449 1.460917 0.302744 -1.728720 2.503106 -1.644415 0.912313 -0.490160 0.358487 0.918225 1.156959 -3.352686 0.668846 2.992696 -0.478695 0.033222 -0.038736 -0.856362 0.303298 -1.962909 -5.832270 -1.246199 -0.284361 -0.973082 -2.695904 1.997536 
t-shirt 1.327701 1.881502 -0.191326 -0.557390 0.321805 1.598581 -3.341765 -2.729689 -3.275830 5.012419 -4.743192 1.243265 5.333877 -1.525190 -6.034653 2.799538 2.965544 4.320083 9.101309 -1.516190 2.233259 0.835397 -1.113251 -0.408088 2.409049 3.155292 0.693683 -0.382082 -0.018878 -2.101910 -0.049961 2.046428 7.686959 -2.093102 -3.942204 0.724304 -3.300031 -2.166624 -0.211005 0.640460 -4.054421 2.956855 -3.278373 -2.748786 2.672571 3.117174 0.686737 -4.759774 1.611030 2.153325 7.853361 -1.400330 0.491731 -3.728239 -1.602977 -3.381828 1.712554 0.239860 2.483932 -0.464644 3.371541 -3.877264 -2.811712 2.580143 1.572006 -6.250563 -0.047838 0.835646 -6.107009 1.002230 -4.645157 -2.891591 -1.233785 2.019356 -4.472543 3.054990 0.000644 2.298017 2.957531 4.221208 -2.278243 2.331849 0.452359 -4.172580 0.858680 0.657922 1.880138 0.716088 -1.018857 0.859404 -4.006251 -4.370009 4.225028 -3.786143 3.013542 -3.445682 -0.568918 -0.459863 4.134909 0.958069 8.456833 4.529691 0.193806 -0.869678 -1.811434 -0.218746 -0.339337 2.228189 2.626217 2.142648 -0.179014 -0.161773 1.495162 -0.855824 -1.207450 4.825034 2.509808 -2.012130 4.017964 -0.631651 0.265508 -0.500561 1.833558 2.805132 -0.296944 2.262598 -3.827038 1.421462 0.762375 -0.066391 -1.212596 -2.925519 1.700173 1.099744 -2.708293 -0.392001 1.576658 0.702218 5.647208 -2.108275 3.206812 2.289108 3.990401 3.069994 3.568641 -2.247053 4.457911 -1.071980 -4.381437 -1.153088 -0.498916 -2.788174 1.220335 -3.613887 -3.662348 -0.052936 -0.420325 5.379025 -0.754512 -1.501296 2.407047 0.210430 -2.632812 1.494612 -3.103116 -3.115170 3.470466 -0.159335 1.813624 2.116075 -0.974919 2.653022 -1.648056 -0.973475 0.808996 -4.063515 -1.141657 -3.449313 -1.230354 0.506359 -2.838343 2.738750 0.897278 -0.456687 1.183072 1.267040 0.918322 -1.907840 2.097267 0.181738 1.831653 1.713444 -0.295736 5.052625 9.606416 3.003160 1.202474 -4.817985 5.457530 -5.871276 
camera 3.205262 1.176196 8.706328 -5.342202 11.079006 -7.232848 -3.671422 -2.313330 3.062434 -1.617546 3.269267 -0.702380 13.478881 1.349050 -5.471220 9.720099 -5.365120 2.363390 2.042687 4.568200 1.166004 -4.815171 6.888118 1.001243 6.286510 2.220894 7.266063 -8.090745 3.728592 1.267808 -5.975873 -2.014399 -2.645360 -1.169645 -5.655767 4.214735 -0.318480 10.357512 -9.632791 -5.509466 -0.371467 1.334023 -0.338435 -5.359561 4.931462 5.389401 3.830408 -2.908111 8.040094 -8.061359 0.420930 13.048758 1.785969 -4.052258 -6.061123 3.749704 6.667806 0.657727 2.243938 -0.002855 7.374690 1.294116 0.206634 0.187523 -0.947690 -1.382845 -5.841707 0.333346 3.580601 -1.746892 3.303987 2.711216 2.342493 4.827441 -1.503890 5.355381 6.537548 2.274909 4.036791 -6.202842 -1.521364 -2.195370 2.797412 -7.635006 -2.011632 -5.478474 6.326988 3.285456 -4.040715 -4.108588 -1.590201 2.615436 -0.166481 -4.542686 3.532763 -0.745137 0.435971 -1.089436 0.619416 -0.779436 0.049898 -2.212132 -0.187794 -0.292821 0.916479 -3.640540 -0.169847 -0.011717 -1.805978 2.946230 1.496931 2.757735 -5.957499 -0.851524 3.379976 0.002521 2.162049 1.993450 2.637365 -0.002416 -0.995966 -0.010986 -0.361567 -1.982079 -4.242575 1.176929 -3.313068 -1.222310 -4.877192 -1.074305 3.611863 -1.207293 2.684311 -2.276632 2.807455 0.364468 -4.789173 1.383024 -3.618124 1.014252 -3.564366 -1.524849 4.092314 -6.659020 3.813338 -5.717170 -4.374063 0.699727 3.899343 0.537590 2.843137 -0.665127 -1.582301 -2.967107 -3.348450 -2.090849 -0.015763 3.517185 -1.733538 2.353559 -3.335396 -0.678772 3.553257 2.194595 3.160482 -3.357794 -6.681930 -0.422259 1.928578 1.797058 -0.871546 -2.144135 0.693081 3.687991 3.121400 -3.001444 2.641705 3.600056 -2.111245 -7.899716 1.866107 -2.161290 -7.687733 -1.382059 -2.785207 -2.867637 -3.784364 -7.601278 -1.419095 -2.171653 1.146258 -2.072044 -4.108698 -3.311732 0.332746 4.690422 0.605900 7.411483 -3.346053 -4.449722 
jacket 1.247484 1.706759 2.479907 -3.278808 0.194285 -3.495713 -0.669888 0.695609 -0.292924 4.614179 0.554842 2.044500 3.672701 -0.419367 -4.051675 1.750225 2.503520 6.017805 0.731802 1.222171 -0.327529 1.620170 -1.553922 1.264983 0.776661 2.636078 0.872942 -2.416490 0.075225 -0.342017 1.383458 0.094243 0.351018 -1.972974 -0.396576 -3.104310 -1.837402 5.256207 -2.588303 -0.643110 2.435161 3.829113 -1.787590 -2.387140 2.282779 1.389962 0.946633 -0.977227 0.791516 2.437552 4.332957 1.430898 -0.585101 -2.729250 4.104502 -1.903598 -2.034731 -1.046166 2.877133 0.966242 3.727295 2.007809 -0.796716 3.217582 -1.570062 -0.487417 -4.583505 1.193844 1.259535 -1.627020 1.687161 -2.826406 -1.433979 -3.431396 1.777948 2.249110 -2.564538 3.083491 -0.664084 3.206658 -1.903954 -2.334395 1.595694 -0.275930 -0.355251 0.579540 5.954280 0.588054 1.615772 -8.815098 1.069262 -6.732060 2.345923 -1.615190 -0.487830 -0.585777 1.991084 5.587971 -2.467685 0.098373 3.406375 4.298023 1.493000 -1.586666 -2.817827 -2.545271 -1.058438 -0.341779 1.533680 3.177436 1.542605 0.886525 -2.495396 -3.606567 -0.602770 5.411805 2.302204 -3.499131 3.307352 -2.402911 -1.623848 -1.842430 0.117206 2.147007 -0.035664 2.695231 -3.440197 0.423107 4.155811 -0.650467 -1.523074 1.392210 -0.933334 1.248316 -1.442177 0.915635 1.868939 -3.203378 0.836494 -4.559989 4.205629 -2.695801 -0.753892 1.381495 0.881122 3.875777 0.101008 -0.532304 -2.957583 -2.429477 1.043175 -5.849249 -0.046688 1.039371 -4.241323 -2.553254 1.918655 5.282892 -0.716544 -0.263642 -0.469211 0.105966 -1.388591 -2.144473 -1.207904 -3.313832 -1.582838 0.155320 -1.145678 -0.427915 -0.728580 2.425055 0.123642 0.709744 1.195570 -0.651827 -1.202838 -0.174854 -2.102203 -1.760413 -2.722475 -3.041131 0.785274 -0.228485 -0.478199 -0.765117 1.241993 0.109886 0.788821 -2.396531 1.092388 -0.785922 1.412764 2.678985 4.716618 1.180937 -1.991635 -2.575289 3.265309 -2.327214 
