878 200
</s> 0.002001 0.002210 -0.001915 -0.001639 0.000683 0.001511 0.000470 0.000106 -0.001802 0.001109 -0.002178 0.000625 -0.000376 -0.000479 -0.001658 -0.000941 0.001290 0.001513 0.001485 0.000799 0.000772 -0.001901 -0.002048 0.002485 0.001901 0.001545 -0.000302 0.002008 -0.000247 0.000367 -0.000075 -0.001492 0.000656 -0.000669 -0.001913 0.002377 0.002190 -0.000548 -0.000113 0.000255 -0.001819 -0.002004 0.002277 0.000032 -0.001291 -0.001521 -0.001538 0.000848 0.000101 0.000666 -0.002107 -0.001904 -0.000065 0.000572 0.001275 -0.001585 0.002040 0.000463 0.000560 -0.000304 0.001493 -0.001144 -0.001049 0.001079 -0.000377 0.000515 0.000902 -0.002044 -0.000992 0.001457 0.002116 0.001966 -0.001523 -0.001054 -0.000455 0.001001 -0.001894 0.001499 0.001394 -0.000799 -0.000776 -0.001119 0.002114 0.001956 -0.000590 0.002107 0.002410 0.000908 0.002491 -0.001556 -0.000766 -0.001054 -0.001454 0.001407 0.000790 0.000212 -0.001097 0.000762 0.001530 0.000097 0.001140 -0.002476 0.002157 0.000240 -0.000916 -0.001042 -0.000374 -0.001468 -0.002185 -0.001419 0.002139 -0.000885 -0.001340 0.001159 -0.000852 0.002378 -0.000802 -0.002294 0.001358 -0.000037 -0.001744 0.000488 0.000721 -0.000241 0.000912 -0.001979 0.000441 0.000908 -0.001505 0.000071 -0.000030 -0.001200 -0.001416 -0.002347 0.000011 0.000076 0.000005 -0.001967 -0.002481 -0.002373 -0.002163 -0.000274 0.000696 0.000592 -0.001591 0.002499 -0.001006 -0.000637 -0.000702 0.002366 -0.001882 0.000581 -0.000668 0.001594 0.000020 0.002135 -0.001410 -0.001303 -0.002096 -0.001833 -0.001600 -0.001557 0.001222 -0.000933 0.001340 0.001845 0.000678 0.001475 0.001238 0.001170 -0.001775 -0.001717 -0.001828 -0.000066 0.002065 -0.001368 -0.001530 -0.002098 0.001653 -0.002089 -0.000290 0.001089 -0.002309 -0.002239 0.000721 0.001762 0.002132 0.001073 0.001581 -0.001564 -0.001820 0.001987 -0.001382 0.000877 0.000287 0.000895 -0.000591 0.000099 -0.000843 -0.000563 
a 1.080449 -0.037623 0.062301 -1.689745 -3.078479 0.473545 3.050062 -0.015387 -0.259236 -0.145534 0.491217 0.033633 -0.862193 0.773408 1.843838 0.698764 1.263374 -0.031701 0.487729 -0.266956 -0.769270 -0.193878 1.576064 0.097208 -0.550608 0.850106 0.886400 -2.340865 0.626242 -1.156776 0.005882 -0.267219 1.342254 -1.032724 0.229516 1.105729 0.455379 -0.173902 -0.392793 -0.432235 1.094945 -1.869821 1.413544 -0.363527 -0.678529 1.031039 -0.288781 -2.273823 -0.885148 -0.317849 -0.427339 0.187152 -1.443314 -1.793755 -0.508037 0.578981 -0.170729 0.315288 -0.113132 1.005743 -3.341656 0.507955 -0.661293 -1.173471 1.106688 -1.321189 -1.721028 -0.091172 -0.699692 -1.431968 -0.421264 0.857307 1.804840 -0.508771 0.577226 0.036071 0.829300 -0.702473 -0.145248 0.127076 -0.669005 1.196233 0.583462 0.029315 0.428136 -0.431734 -0.023274 0.381829 -0.566929 0.322343 -1.351953 -1.289940 -0.326988 0.129295 0.047560 -0.891706 -1.093298 0.523102 -0.328851 -0.042772 0.889703 -0.624658 -0.358689 -0.169042 -1.791414 -1.581902 0.819890 2.202489 1.467223 -0.756050 -0.325657 -1.445241 -0.142472 0.886568 0.571242 -0.117107 -0.859187 0.942013 -0.809317 1.203508 0.698521 0.117914 0.121201 -0.141042 0.533237 1.144634 0.212257 0.228840 -0.032788 0.534798 -0.914452 -0.402209 1.437742 -0.770615 0.108963 -1.186152 0.558259 0.591421 0.571137 -0.742493 -0.817637 -1.106349 0.587505 -0.415204 0.435802 0.766711 -1.103099 0.254358 1.116816 0.722490 1.333010 -0.011691 -0.285809 -0.202098 -0.604751 -1.378188 0.294941 -1.042338 0.418153 -0.986990 -0.464814 1.266238 -2.843373 -0.375537 -1.600152 -1.146755 -2.045208 -0.429490 -2.320812 0.324243 -0.904353 -0.169806 1.079109 -0.385253 -1.457772 0.664788 -1.399482 -0.562042 0.107219 0.562956 0.545591 -1.335489 0.098935 1.821654 0.313070 1.175409 -0.278783 0.487608 0.900321 0.059433 -0.579752 1.895857 -0.729738 0.234579 -1.034080 1.570920 0.645550 0.613196 0.284339 -0.769809 
is 1.664305 -0.419531 0.579453 -0.768729 0.876348 1.438636 -1.678550 -0.441808 0.759386 -0.149230 -0.802380 -0.032097 -0.460650 -1.177112 2.800132 -2.402390 0.864044 2.394123 -0.056877 0.824368 -1.094806 1.975582 1.149813 2.226527 -1.687799 -1.371521 -0.932511 -0.568167 -0.074053 1.558745 2.207607 0.157559 2.043024 -0.188522 0.163953 1.659281 -1.306379 -0.630686 0.478042 -0.603179 -3.171628 0.921259 1.406747 -3.108957 1.337952 -1.583605 0.554168 -1.003731 -1.004122 0.763733 1.819811 -0.807310 -2.118035 1.207868 1.544133 -0.228448 0.215706 0.144639 -0.287125 0.778196 -0.235595 -0.815212 0.262633 0.759028 -0.815775 -0.641636 1.628755 -0.292098 -1.982644 -0.290138 2.785626 0.844586 -0.193439 0.419922 0.640433 -1.253326 -0.848097 0.779394 0.430230 0.264703 -0.394457 -0.969458 -1.738008 -0.023509 -0.762654 0.303395 0.299503 0.788141 -1.496704 0.692946 0.394330 1.232909 -1.641550 0.391753 -0.851537 0.189424 0.780579 1.472515 0.413584 -1.665690 0.842493 -0.481899 0.232914 -0.298751 1.305243 1.199361 -0.539887 -0.599627 -0.882168 -3.141051 -0.428953 0.694542 -1.551287 -1.290401 -1.640369 1.198623 -0.185306 -0.213368 0.216171 -0.548378 1.219778 0.761197 -1.420653 -0.459005 0.736450 0.771390 -2.410949 0.377952 -0.167442 -0.956074 -0.828973 -1.043238 -2.389682 0.068626 -0.971081 1.796048 0.471459 0.105552 -0.429893 -1.076726 -1.043073 0.560672 1.120394 1.325765 -0.005368 -0.578831 0.276431 -1.641323 0.722485 0.777076 -1.223441 0.031401 2.018177 -0.308790 -1.185760 1.055862 0.409189 -1.470983 0.070951 -0.499593 -1.396034 -0.413645 2.844969 0.629690 0.678493 0.401824 -0.747076 -1.379294 1.011999 1.259967 1.864955 1.121230 0.305166 -0.570291 -0.024551 0.296119 0.510722 1.691780 0.060063 -0.054747 -1.184947 0.021328 -1.852127 0.302312 -0.473304 -0.109258 -0.209581 -0.199115 0.737178 1.004213 0.309607 0.796168 0.992793 -0.838248 0.226449 -0.177342 0.154664 0.727698 1.277529 -1.395582 
black -1.125262 0.534490 -0.803425 -0.492943 0.836677 0.949470 1.633269 1.521617 -0.191258 -0.471496 0.302045 1.238880 2.884477 0.254900 -0.250110 -1.667042 0.656300 -1.574749 -1.261845 0.317442 -1.368374 1.398846 0.044112 -0.347541 -0.575788 -0.283792 0.574264 0.416748 0.530289 -0.003452 0.651295 1.568418 0.819441 0.946964 -0.367410 -0.243117 0.283613 1.101007 0.028662 0.650400 0.817730 -0.485807 0.474053 -0.626073 -0.567225 -0.221002 -0.732155 -1.381775 -1.071024 1.835171 -0.791320 2.203670 0.741488 0.170570 0.032518 -0.218751 0.856539 -0.231911 1.185035 -0.467597 0.551887 0.602532 0.259649 1.292036 2.459476 0.335119 -0.459974 0.405203 0.571217 -0.326473 0.180404 1.038971 1.016459 0.690738 0.529240 -0.383101 1.535234 -1.737439 -0.004305 0.808420 -1.316844 -0.014305 0.331337 -0.118232 1.360864 0.449207 0.866091 0.465264 0.458269 0.599483 -1.676482 0.335127 -0.538037 0.300674 0.679971 -1.194141 0.751706 0.861377 -0.495845 0.315915 0.636191 -0.184655 0.302365 1.566496 2.503663 0.715272 -0.643399 -0.925402 -0.102676 1.450820 -0.287064 2.983610 0.577964 0.100405 -0.150668 0.979166 0.778440 0.048839 -0.730687 0.983808 -0.265391 -0.078670 0.582496 -0.578226 -0.650188 -0.250024 1.005829 -0.039186 0.533220 -0.191503 -1.673578 0.590779 1.234178 -1.057388 -0.235558 0.503520 -0.602946 -0.513941 1.129657 -0.730330 -0.278084 0.375257 -1.190905 0.432933 1.556757 0.505711 0.187335 0.966740 -0.498522 -1.511095 -1.179403 -0.821040 -0.624452 -0.721596 -1.129496 -1.109682 1.134661 0.003905 -0.432459 -0.955368 0.506422 -0.960179 1.899193 1.157200 0.636205 -0.305473 -1.116996 0.376529 0.578046 -0.329604 -1.623635 -0.765573 -0.756662 0.011063 -0.608678 0.740820 0.684555 -1.017883 -1.178295 -1.644090 -0.550911 -0.186265 2.092307 -1.259706 -0.203471 1.105972 0.304221 0.596840 0.191799 0.339162 -1.925088 1.472684 -0.619017 1.579559 -1.414501 0.808286 -0.154881 0.250260 -0.705095 -0.267262 
and 0.114061 -0.888946 1.093858 1.327222 0.136862 -1.979586 -1.846590 -2.023735 0.113886 -0.738250 -2.232955 0.007411 -0.357581 1.212817 0.617645 -0.675254 -0.168006 -1.057197 0.592799 -0.584308 -0.102804 -0.072231 -1.064455 0.083043 0.073191 1.184922 1.040334 -0.433690 -0.660918 -0.625271 -1.151060 0.132948 -2.057389 0.561060 -1.408442 -0.416726 0.452673 -1.215330 -1.523202 1.019303 -0.449758 -0.822363 0.679858 -0.446270 0.715912 0.137764 0.135937 0.443216 3.227973 -0.924799 1.191383 0.713659 -1.384553 0.741062 -0.750430 0.580032 0.811738 -0.637408 -0.626204 1.082931 0.354139 0.672761 -0.716715 -0.297700 -0.226315 -1.095678 -1.277787 -0.315685 0.232516 0.933663 0.810072 -1.029946 0.333583 0.193000 -1.393629 -1.478117 -0.591568 0.185100 -0.547583 0.411332 -0.560915 0.919833 -0.725263 -0.279301 -0.158489 0.821962 -0.956592 -0.418218 1.219415 0.578229 1.028016 -0.952120 0.125998 0.660830 -0.561867 -0.334045 0.212647 0.051345 -0.828364 0.526658 0.002080 -0.075177 -0.660092 -0.722125 -2.449203 -1.288779 -0.309429 1.282327 -0.230197 -1.496260 0.214946 -1.026634 -0.264542 2.093948 -0.126691 -1.160739 -1.525761 0.552575 0.467148 1.040558 -0.414605 -0.883198 0.782434 -0.788528 0.120144 -0.541244 -0.253339 -0.482497 0.608838 0.962024 0.470321 0.374428 -0.269708 -0.314761 0.272856 -0.793086 -1.164734 -0.841308 -0.121164 -0.222932 0.563829 -1.167369 -0.012593 -0.319891 -0.367578 0.430569 -0.454726 0.441604 -0.725095 -0.373435 0.549010 -0.543022 0.114152 -0.669847 0.261788 0.130022 0.248317 1.142614 0.534947 -0.709387 -0.699019 0.450658 -0.170469 -0.009103 1.021219 0.239714 0.422077 -1.442335 -1.135719 0.889741 0.713189 -0.129731 0.720384 -0.134601 -0.454216 -0.144142 -0.696020 -0.099924 0.219730 0.815415 0.032391 0.634792 -0.138581 0.803152 -0.028057 -0.079374 -2.388784 -0.406334 -1.123326 -1.956838 0.752756 -0.500459 0.431293 -2.018290 -0.092856 -0.107491 1.609706 -0.599356 0.626549 -0.364072 
with -0.462239 -2.937641 0.472456 0.756422 2.058658 -3.087919 -2.624528 -2.056020 -0.742067 -0.659170 -2.301984 1.118617 -1.043835 0.202899 0.016059 0.330956 -0.143556 0.353339 -1.032242 -0.549867 0.775030 -0.838436 0.669674 -1.149305 0.394954 0.624826 -0.529921 -0.151275 -1.566958 -1.221159 -1.027790 0.207167 -0.672485 0.909388 -1.840394 -0.462136 1.654102 -0.269698 0.405197 0.915965 -1.414776 1.275928 -0.158163 0.358495 2.598000 -0.425550 -1.211733 0.009913 1.235313 -0.710066 0.506168 0.453010 -0.642854 0.717230 0.021904 1.649630 -1.918829 -0.687895 -0.971738 0.502073 -2.520686 -0.192782 0.587750 -2.508444 -0.858396 -0.577315 0.408210 -1.050963 -0.110665 1.544084 0.380304 -1.010733 -0.604353 -1.292689 0.234663 0.390201 -1.942881 -0.273610 -1.513638 0.460098 0.203681 -0.624379 0.453760 0.292362 -0.313559 0.304568 0.759710 0.854725 2.437073 -1.122688 1.598590 -1.183924 0.490428 -0.096819 -0.726665 -0.735044 1.280223 -1.489972 1.274630 -0.213668 -0.732544 0.974252 0.069106 0.763817 -0.175854 0.580177 0.206919 -1.191292 -0.663842 -0.322868 -1.460604 1.027912 0.616006 1.319619 0.517280 -1.197251 -1.577949 1.003484 0.216568 -1.092628 1.609825 0.297713 0.310888 2.298733 -0.587682 -0.712050 -1.140220 -0.371173 -0.741260 -0.626529 0.673948 -0.769052 0.913870 0.474442 -0.280582 -0.781758 0.127574 0.341776 -1.641106 2.796620 0.444647 0.128685 1.761829 -2.300282 -0.175936 -0.342910 -0.250264 1.092747 0.594281 -0.858746 -1.274574 -0.138201 2.029305 0.366639 -1.035550 -0.372694 1.418966 0.448330 0.334996 0.934944 -0.116393 0.709566 0.922463 1.086573 -1.069752 -0.278717 -0.034943 -0.114497 2.229314 1.187230 -0.587438 -0.350408 -0.858263 -0.595835 2.361543 -0.470726 -0.499413 0.052940 0.697075 -0.492197 -0.640819 0.503216 1.981239 -2.010734 -1.656395 -0.355846 -0.276113 0.079454 -0.006251 -0.593189 0.646946 -1.340120 0.461307 -2.093854 0.193531 -2.082937 1.416092 -0.445224 -1.523855 0.631355 
he -1.779682 -1.511238 0.180883 0.344947 0.273190 -1.020907 0.689402 -0.768948 -0.457795 0.727584 0.423234 2.116801 2.297127 2.906092 -3.018798 2.920940 0.843500 -0.461358 -0.131738 0.081012 -2.392845 -2.450867 -0.910472 -3.280298 2.195404 2.193764 1.334698 0.933122 -0.600783 -0.515353 -0.724958 2.253284 -1.731948 1.506388 -0.191911 -1.983368 0.781199 -1.125896 -0.223530 2.204267 2.811457 1.097120 -0.665761 1.751293 -0.692423 -0.633212 0.001597 3.587309 1.354681 0.649297 -1.983337 -0.779508 -0.115151 -0.353634 1.341557 -0.612322 -0.652493 -0.787669 -0.565677 0.165767 0.258138 1.908861 0.267090 -0.477755 0.603688 0.824417 -2.571044 -0.229374 0.894375 0.097075 -2.433835 1.531023 -1.529113 -1.267495 0.238040 1.109437 0.964810 0.625760 0.625842 -1.339006 0.729573 -0.031758 0.704035 0.811937 0.954064 -0.096011 1.418038 -1.254983 -0.108606 0.342147 -1.998383 0.555441 0.690221 -0.751128 0.526679 -0.531737 -0.359745 -0.225886 0.378088 -0.178750 0.572057 0.211048 -0.392801 -0.558702 -0.789012 -1.196346 1.214825 1.585691 0.634599 -0.651015 0.914463 -2.204026 2.230128 -1.429711 1.609494 0.053638 -1.141626 -0.916073 -0.775307 -0.424051 -0.487136 0.463069 1.791603 -1.571617 0.479839 0.241544 1.754796 -0.567872 1.961065 0.126559 0.258622 0.492135 0.755435 0.438469 0.557503 -1.306369 0.281204 -0.781284 -1.290806 1.565937 0.334154 0.080523 0.134397 -2.763320 -0.459426 0.555672 0.703744 0.732325 0.177865 -0.890819 -0.347907 -2.381717 -2.087085 -1.178423 0.101537 -0.210599 -1.587388 0.991432 0.277072 -0.791476 2.125770 0.964337 -1.012854 0.996443 0.341496 0.192923 1.665407 -1.758889 -2.185398 -1.542050 -0.724352 -1.309981 -2.742760 0.461518 1.056102 0.462799 -0.838795 -1.217427 -1.271914 0.080708 0.313005 -0.921610 -0.200588 -0.658641 2.119871 0.960307 -0.040964 0.000925 -0.496607 -0.965301 -2.095829 0.783742 -0.066563 1.219837 -0.383635 0.333437 1.305706 -1.520671 -0.282117 1.265165 
wearing -0.198885 -1.762446 0.649264 0.694640 0.423243 -2.994838 -1.525511 2.013337 0.503918 -2.791606 -0.739453 -1.840663 -1.062830 0.258668 -0.252403 -0.347850 -1.940031 -0.648909 -0.002864 -1.585961 1.842194 -2.032016 -3.260290 0.330210 1.553570 0.314774 -2.098724 0.519054 -0.799143 -0.758226 -1.014720 -1.419540 -1.537778 0.009499 -0.187966 1.140740 1.638318 0.810479 -0.195760 -0.972147 -0.892204 -0.604451 -0.316180 0.518813 0.245111 1.056264 -0.119414 -1.910368 0.566424 -2.188476 -0.588832 -0.061049 0.713221 -0.969301 -2.490735 1.616400 -1.201295 -0.521818 -0.054870 0.428601 0.588359 -1.410689 -0.129317 -2.552670 0.053561 -0.394664 1.681880 -1.263151 2.530483 0.561507 -0.004878 -1.584505 0.449285 -0.068472 0.672531 0.337630 -0.344580 -0.017688 -1.634749 -0.125884 -1.137011 -0.369421 0.667523 -1.469434 -0.290557 -0.642180 -2.277657 -0.876498 0.928903 -0.392387 1.034846 0.132158 0.463803 1.273079 -0.378273 0.203429 0.633413 -1.520091 1.044737 -0.143745 -0.585544 0.498141 -0.658319 -0.823074 0.305359 1.316353 -0.985910 -0.427360 0.679999 3.591760 -0.434568 1.712111 -0.325653 3.283509 0.706710 -2.727067 0.030964 1.254134 1.095053 0.695665 -1.865364 -1.571827 0.038614 0.918019 -1.640091 -2.425905 -0.843678 -0.160138 -0.154030 1.658797 2.694659 1.462210 0.381671 0.531035 0.996735 -0.226990 -0.290608 0.780932 -0.652133 2.507674 -1.141503 -0.919103 -0.958811 -1.421839 -0.020002 0.637927 0.730222 1.189796 -1.946324 -1.746598 2.022439 0.007002 -0.607481 0.989231 1.015918 -0.676518 0.562556 1.325435 -1.169360 1.362498 -0.101939 -0.661065 -0.449216 -0.941652 1.083437 0.445670 1.525888 2.048698 0.856290 -0.889237 0.346440 0.785063 0.860269 0.097477 -2.244700 -0.419790 0.983200 1.436200 1.464727 -0.041793 1.123727 0.000796 1.363722 -0.975151 -1.698443 -2.680993 0.798591 -0.967397 -0.938433 0.468143 1.628977 -3.711724 1.467739 0.806826 0.218599 0.387877 -1.221189 -0.291876 -1.273473 2.074886 
his -1.219078 -3.732193 0.638508 0.985775 1.710831 -1.111669 0.338910 1.347435 -0.200419 -1.766523 -0.103935 -1.082259 0.263150 0.588011 0.598352 -0.635339 -1.560463 -0.437962 -0.332953 0.707031 -0.187824 -2.071873 -2.541335 -0.313153 -0.379755 0.636206 -0.181752 0.098820 -0.540956 -1.230993 -0.014938 1.130623 1.672904 0.867557 -1.898556 -1.449717 1.456861 1.205163 -0.703219 0.890505 -0.397388 -0.480967 0.263622 0.271959 0.176613 0.682870 -1.124483 -0.114550 -1.276121 0.375237 -1.913451 2.076801 1.570738 -1.876300 -0.303223 0.464118 -0.072447 -0.706713 -0.120800 2.805062 -0.204690 1.107236 0.978940 -0.824594 1.316511 -0.664380 -1.534030 -0.416115 -0.661688 -1.204192 -1.577779 1.178548 -0.324916 0.067731 -1.913857 -0.898907 -0.330792 0.473349 0.204684 -0.928295 -2.271703 -0.066762 -0.692788 -0.538575 -1.100882 0.411460 -1.535358 0.163481 -0.716863 0.131089 -1.199245 -0.726509 -0.756767 0.994489 -0.320973 0.143355 0.581925 1.083578 0.422446 -0.912068 0.505389 -0.180435 0.475683 -0.995292 0.539385 -2.272046 -0.901341 1.559941 1.616927 -1.637286 0.713820 -1.622504 0.163720 -1.763967 -1.647442 -0.565768 1.162716 0.468177 0.086180 1.628174 0.620280 -0.618728 0.732601 -0.570237 -0.591206 0.779367 0.993646 0.741766 1.348901 0.878532 -0.024726 3.121388 0.057308 0.507623 0.627042 -1.076796 0.792411 1.822530 -1.099613 -0.077368 -1.615213 -1.879362 0.236644 -0.053073 1.766040 0.928857 1.503844 -1.819465 0.510715 0.426440 2.064565 0.986052 0.173893 1.550625 0.262698 -0.819080 -0.605671 -0.628519 0.379919 0.090519 1.935541 0.068600 -2.750227 0.506304 1.129372 -0.607997 0.184736 0.618959 -2.832780 -0.360105 -1.260819 -1.661463 -1.694998 1.675585 1.360566 0.407550 -0.192899 -0.768551 0.725861 -1.922900 0.335595 -0.819294 1.106886 -1.841891 1.839957 1.729299 -0.465648 -0.557715 0.143842 0.782804 -1.922719 1.498535 -0.689991 0.688392 0.640746 1.580447 -0.009628 -1.041173 -0.781027 -0.266163 
she -2.832307 -0.956907 0.140660 1.291042 0.205047 -0.006093 -0.124203 -0.864204 -1.280052 -0.113487 -0.060045 1.286395 2.225197 3.546323 -4.540561 2.344690 1.258385 -0.204175 -1.404636 1.654721 -1.459403 -0.567551 0.483493 -3.533414 0.741975 2.912994 1.761279 1.341985 -0.286684 -0.987994 -1.239548 1.059568 -0.931412 2.075458 0.272032 -2.389716 1.155269 -0.815386 0.230906 2.176521 2.626281 0.385536 -1.816230 1.402922 0.072824 -1.207099 -0.156455 4.218090 1.756223 1.387043 -1.314559 -0.553695 -1.553251 1.045591 -0.604960 0.561125 0.078915 1.138482 0.748958 -0.569555 -0.801895 0.832197 0.829868 -0.191134 0.260373 0.870890 -1.173751 -0.143752 1.406013 0.319124 -1.176698 -0.861871 -1.555221 -1.466459 0.554225 1.473647 0.744248 0.429202 1.016306 -0.197974 0.334227 -0.548115 1.909401 1.310377 0.502555 0.302062 0.409203 -1.057773 -0.433711 0.426067 -1.213781 -1.284052 1.172349 -0.464106 0.770738 -0.458699 -0.746538 -1.254219 0.459091 1.160944 -1.032862 0.623496 -0.339837 0.770941 -1.568803 -1.387780 1.077895 0.835939 0.424404 -1.174825 0.543143 -1.263166 1.375161 -0.936349 0.237912 0.970955 0.184789 -0.410777 -0.906792 -0.563895 -0.548481 -0.254686 1.670897 -0.003983 1.677356 -0.320359 1.624506 -0.575893 1.834003 0.694079 -0.310076 1.011056 1.417026 0.463236 0.310691 0.048658 0.676460 -0.078647 -0.610684 2.807163 -0.263880 0.139390 0.097678 -2.527823 0.321829 1.450755 0.834192 0.520678 0.781891 -0.679199 0.457244 -1.825967 -0.742447 0.004607 -0.072730 -1.739728 -1.098228 2.321344 -0.205243 0.184767 0.446117 0.053117 -1.946747 1.595611 -0.532734 0.251082 1.464052 -0.845857 -1.844892 -0.650632 -1.204203 -1.279952 -0.822537 -0.011083 0.678013 0.015663 -0.021501 -1.818765 -0.335671 0.451368 0.401456 -0.579298 1.334286 -0.953532 1.082580 1.133430 -0.242811 0.595283 -1.536430 -0.924298 -2.290584 0.571472 -2.332071 1.858662 -1.243405 0.973746 0.306227 -0.566055 -0.302424 1.244565 
of 1.202060 1.671382 1.809631 1.725356 1.053531 -0.670653 -1.062052 -0.315012 -0.178606 -0.046921 0.548295 0.303192 -2.343552 1.691082 -0.624555 0.998788 -1.303367 0.316766 0.205802 -2.508298 1.684311 2.539920 0.978857 -2.207025 0.106477 -0.500929 -3.152042 -0.826272 0.178906 0.881069 -0.299808 -0.145138 0.681196 0.362651 1.155252 1.157677 0.132498 -0.657033 1.165556 0.859513 -1.264517 2.088411 -0.902140 -0.439430 0.595796 -0.054051 1.612376 1.425061 -0.157350 0.432937 -0.244204 0.232086 0.032952 0.819177 -0.391757 0.220097 1.209365 -0.176169 -0.450401 0.992181 0.167864 -0.502116 -0.122080 0.165351 0.066508 0.369828 0.842675 -1.058852 -0.202619 -1.022161 -1.419226 -0.272543 -1.230497 0.301521 -0.412250 -1.245061 -0.149777 0.432367 0.476220 -0.202810 -0.813119 -0.055481 -0.776491 -1.883545 -1.628340 -1.476771 -0.460682 0.600922 -0.560098 -0.299097 -0.356076 0.459167 -1.792784 -0.152041 -0.166595 1.105108 1.915969 -0.882349 0.496571 -1.970773 0.035930 -0.683352 -0.561314 -0.478120 -0.534913 0.399165 -1.045247 -0.255721 -1.176043 -2.375187 0.253395 -0.042902 0.442111 1.930508 1.986986 -1.632040 -1.447129 2.121009 -1.459239 0.496449 -0.836997 -0.695345 -0.158561 0.247744 -1.861524 0.233398 -0.099749 -0.322564 1.144200 0.741565 -1.221876 3.008176 -0.157527 0.175202 -0.049009 -0.432799 0.012237 0.498532 -1.637258 1.101871 0.713452 0.642598 -0.928457 -1.359002 0.240466 1.085359 0.421550 1.975669 -3.656263 -0.985238 0.130408 -1.389033 -0.257481 -1.603358 -0.454622 -2.079234 1.770790 1.574578 -0.977194 -0.354807 3.764169 -2.446014 2.567655 1.981121 0.534383 -0.058628 2.927765 -1.427372 2.332114 -0.529469 0.575716 1.244223 1.367431 -2.018623 -1.967153 -2.873941 1.872311 1.255452 0.427590 -0.983755 0.610648 1.533470 1.530702 -3.917421 -1.062690 -1.964914 -1.090916 -0.571522 1.136954 0.322029 -1.286729 -1.256779 -0.101909 0.079944 1.121354 0.067397 -1.779366 0.470868 -0.816162 0.649181 
the 0.062631 -1.849438 0.192043 -2.275621 -0.150018 -2.681444 3.045176 -0.302178 -0.095031 -1.208786 -1.707120 0.496355 -0.297813 0.025594 -0.072838 -1.097323 -0.213848 -1.746403 -1.881739 -0.616424 1.064400 -2.965261 -0.025931 -0.792451 0.671065 1.237127 0.564619 0.603442 -0.837520 -1.212336 1.300545 0.658296 -1.486366 0.120017 -1.175466 -0.320102 -0.960882 0.781953 0.518464 -0.633642 1.135290 -1.074739 0.322775 -0.111894 -1.016856 -0.305669 0.484191 -0.286018 0.904783 -0.293815 -0.437796 -0.234243 0.943722 -0.400057 -0.790896 0.131584 -0.214879 0.791269 1.230374 -1.260386 -2.668299 0.335229 -0.509326 -0.533600 0.145896 0.887434 -3.130937 1.148844 -1.363341 0.060812 0.097023 2.499917 -0.601068 -0.073328 1.265950 0.067464 0.295907 -0.560061 -0.007279 -1.129633 0.060834 -0.778169 0.940321 2.287723 -0.395368 -0.437636 -1.101994 -1.197004 -1.446531 1.222485 -1.064986 1.005537 1.045974 0.039379 -0.038918 0.031141 -1.209110 -0.019471 -0.487662 0.916531 -0.681270 -0.606886 1.109323 0.005935 -0.329713 -1.430130 1.072070 0.160963 1.142346 1.417807 0.124596 -0.743855 -0.193178 -1.719836 -1.544567 1.390670 -0.198713 -1.645232 1.339236 0.280420 0.812694 -1.332095 0.234429 2.085481 -0.400821 0.032065 0.332734 -0.605044 0.162174 0.947073 0.818513 0.794712 0.083269 -0.523962 1.417075 -1.195621 0.092907 -0.084885 0.270526 0.594117 0.075407 0.516299 0.435915 -0.230524 0.205702 -0.125859 -0.850345 0.389442 0.417667 -0.146439 -0.796371 0.629679 -0.375186 0.598867 0.132003 0.277665 0.561004 -1.315014 0.428818 -0.712874 -0.770716 0.043181 -1.821641 -1.077751 -0.334604 -0.654889 -1.550374 1.084232 0.454822 -1.267703 -1.159927 -0.934973 -0.243259 -0.310741 -0.689895 -0.572776 -0.173467 -0.303909 -0.850742 -0.863779 0.383163 -1.749078 0.002776 0.192333 -0.375040 0.891191 -0.203256 -0.802068 0.533415 0.365397 0.745902 1.776623 0.895394 0.453331 0.203484 -0.053062 -0.214794 0.158291 -0.258963 -0.423502 
white 0.125613 2.223068 -1.349062 -1.152880 1.891500 0.336019 1.594781 1.224308 0.843226 -0.145791 -0.306070 0.399250 1.303498 -0.782143 -0.233561 -2.743119 0.804061 -0.272068 -0.234310 -0.025782 0.111592 -0.046445 1.787466 -0.458869 -0.931308 -1.570542 -0.407663 0.390470 0.090667 -0.349485 0.074437 -0.402596 2.458412 -0.566255 0.992242 0.356948 -0.727167 0.341093 1.578080 -0.420047 0.541135 0.460114 -0.766843 2.164496 -0.895206 -0.655693 -0.364940 0.495318 -1.187839 0.361428 -0.572942 -0.083998 0.380327 0.100272 1.989017 -0.460192 0.477553 -0.328083 -0.064892 0.691862 0.786682 -0.020176 0.243574 0.292206 0.002746 -0.616873 0.101012 -0.396451 0.083862 0.435694 0.138074 0.628683 -0.323756 0.807002 1.339043 1.580112 1.448007 1.256581 0.161423 -0.009678 0.663261 -1.021961 0.712925 -0.092963 1.706707 0.550124 1.198513 -0.612122 -0.140928 2.188925 -1.571533 0.978244 -0.268813 0.835455 -1.362760 0.182669 0.411052 -0.467249 -0.466821 0.650754 0.556643 0.942989 -0.573853 -0.728410 1.089347 1.061870 -0.462191 -0.950370 0.314139 2.051706 -1.463715 1.808287 0.428362 0.267436 -0.353312 2.888685 1.603496 -0.497076 -0.652438 -0.130303 -0.230063 0.524623 0.587394 0.138131 -0.648655 0.915084 0.049203 0.372944 -1.116886 -0.525650 -0.056202 1.603812 1.131979 -0.519445 -1.181044 0.037033 -2.247246 -0.162463 -0.319030 -1.452588 0.125856 1.090242 -0.649001 0.545163 0.520442 0.206473 -0.166403 -0.112334 0.926326 0.328681 0.109619 -0.288544 1.966186 -1.994432 -1.450120 -0.476630 -1.410123 -0.857918 1.818689 -1.682593 0.516239 -0.227927 1.046264 1.461441 -0.913213 -0.179377 -0.603575 0.297398 0.117324 -1.565860 0.854966 -0.210447 0.007441 -0.376478 -0.201226 -0.369790 1.466568 -0.190408 -0.588714 -0.425089 -0.534071 -0.854385 0.809977 -0.211912 0.374753 1.151958 0.501902 3.351769 -0.474681 0.019523 -0.967275 1.333538 -0.820045 -0.963529 0.592409 0.507448 -0.539994 -0.507674 0.022554 -1.347483 
on -0.054518 -0.010713 3.000014 -1.868384 -0.550386 -2.239995 0.929458 -1.994532 -0.471404 3.067392 -0.851405 -0.938078 2.548397 -1.193446 -0.554530 1.367374 -0.159285 0.710399 0.396530 1.501353 -0.113144 0.817919 -1.697996 0.833570 0.852906 -0.180187 1.871055 0.748263 0.508324 0.700742 0.204683 -0.424756 1.120871 0.181504 1.942981 -0.151907 -0.783547 -0.562734 -1.040565 -0.398280 0.536129 -1.696153 2.148357 -1.052793 -0.940966 -0.374264 0.274183 -1.257834 1.373160 -1.103594 1.429801 -0.650592 -2.170669 -0.297432 -0.782966 -0.272089 -0.883334 -0.951945 0.367614 -1.102339 0.671892 -0.440768 -1.134710 1.779724 -1.171701 -0.228940 3.055317 -2.466325 4.223243 -0.404950 -1.240709 -1.342856 -0.140481 -2.143451 0.091343 -0.627328 -3.403470 2.589198 -0.514072 -0.818913 2.900793 0.778408 0.535632 -0.026710 0.920299 0.889161 1.721101 -0.891891 1.004119 -1.077228 1.314921 -1.786357 1.088910 -0.965002 2.624561 0.415783 1.185857 1.147157 0.309682 0.054716 0.509537 0.037930 -0.371196 -0.603925 -0.172375 0.569806 -2.659252 -0.668451 0.831764 -1.280600 0.492692 0.411929 -1.580654 0.316733 -0.198658 -0.285864 -0.176452 1.175864 -1.752309 0.869221 -2.737843 0.885538 0.084886 0.777761 0.545596 -0.448313 0.067163 -0.351289 -0.062249 -1.300655 0.200043 -1.120792 0.541398 0.887439 -0.747043 1.176555 0.739784 -0.832759 0.331778 -0.688749 1.570095 0.128737 -0.001345 -0.886536 0.134202 -0.175907 -0.855965 1.298075 -0.530215 -1.526396 0.407907 1.906783 0.874822 0.536658 -0.783900 -1.183729 -0.371745 -0.724517 0.866479 0.187119 -1.611217 2.257655 0.947845 0.562499 -0.425949 -1.109457 -0.751552 -1.820704 2.399744 2.071386 0.531460 -1.268896 0.301990 -3.156479 -0.292763 -2.046618 0.428513 -0.523745 0.938033 1.153583 0.982663 -1.621843 -1.043685 0.105929 -0.920121 -2.239610 0.733250 -1.272319 -0.452662 -1.175165 2.215549 -1.836638 -0.627506 -2.010755 0.650315 -0.543339 0.624476 0.052636 0.217474 1.058897 
hair 1.067404 0.812519 0.745624 -1.346232 0.206207 -1.253775 -0.578981 -2.382966 -0.922855 0.801876 3.060400 -0.346801 -0.392076 0.122362 -1.142632 0.603743 2.291673 0.497033 1.749740 1.111076 -1.474756 -0.174236 0.405224 1.329965 -1.262033 -1.767437 2.371243 0.907640 1.089004 1.407564 -1.702715 -1.727289 0.266428 -3.317805 4.094260 -0.639015 -0.966817 0.386060 0.840252 0.014573 1.521201 -0.073853 0.529190 -0.081787 -1.413479 0.218903 1.711240 0.963027 0.547589 -0.014240 -0.583354 0.641313 1.809644 -0.716845 -1.040153 -0.976096 0.487966 -1.330258 2.814078 0.285015 0.175644 0.744899 0.321236 0.091271 -0.088290 0.018674 -1.188626 3.432309 0.294861 0.591017 0.046467 -0.212282 1.427676 -1.896481 1.313728 0.602459 -0.749098 1.505947 1.405360 -1.109437 -0.146752 0.059632 1.195920 1.001962 0.508603 0.267237 0.471526 0.740478 -1.396083 0.076863 0.059049 0.936087 1.317859 -1.456419 -0.315395 -0.634468 -1.838826 0.632849 -1.229001 1.484345 -0.026174 -0.916737 0.747710 1.945097 -0.572314 -0.894584 0.794200 -0.778702 0.368344 2.346979 0.519417 -0.971060 1.157118 2.163780 0.268941 -1.183145 0.778811 -0.107375 -1.547713 1.356344 -0.505702 0.415031 -0.401115 0.681403 0.373832 -0.043741 0.883761 -1.582034 -0.096748 0.437722 -0.855470 -1.571562 -2.686220 0.382777 -0.032165 0.258656 1.737500 0.403417 0.395847 -1.360127 -0.158718 -0.514292 -1.088884 0.033558 -0.550718 1.776395 0.338701 1.004701 -2.004237 0.006888 -0.002076 -0.286140 -0.702486 -0.391121 2.615745 -0.262244 0.039757 0.988740 -0.206301 1.502640 0.261499 -0.747363 -0.042662 -4.040840 2.464529 3.539714 0.353568 -2.953706 0.495870 1.041750 0.465877 -1.195895 1.969801 0.078848 -1.926303 -0.810742 0.641929 -0.113669 -1.480388 0.115559 0.016955 2.822221 0.464102 0.958458 0.497694 1.002088 0.898199 -0.142357 -0.218705 -0.613184 0.370870 0.071837 -1.418737 -0.812181 0.961220 0.509799 0.739780 0.489609 0.297321 -0.379391 
in 1.126296 0.491229 2.020385 0.468362 -2.682506 0.037244 2.098865 -0.629171 -0.095771 1.793558 1.638493 -0.368168 1.061874 -0.370894 -0.347150 1.058432 0.983110 2.865951 1.789794 0.362173 1.409477 0.059044 -1.378849 0.743602 0.795030 0.580829 0.557578 0.085429 0.387093 0.119133 0.387702 -1.786646 0.308824 -1.656757 1.906297 1.386057 -0.781086 -0.714505 0.657507 -1.275908 0.178013 0.844926 0.490796 -0.804031 1.382271 -0.066007 -1.659485 1.421499 1.627389 -3.209229 1.687857 0.182277 -3.909449 -0.330622 -0.635907 -0.218456 -0.924106 0.002167 -0.674119 0.864826 1.609459 -0.585925 -0.869615 0.933867 -0.012744 -0.906777 1.271240 -1.657964 0.902349 0.241664 -0.345140 -1.515815 -0.346711 -1.980964 0.590306 -1.830695 -1.941439 1.466655 -1.096363 0.099483 1.771117 0.559118 1.788988 -1.248631 -1.561319 -0.832500 -0.450824 0.505756 1.128406 -0.675163 0.714485 -2.209679 0.910742 -0.514172 2.541682 0.119615 0.039544 -0.078349 2.333681 -0.285127 -0.338712 -0.457234 1.087868 -0.433461 -0.538524 -0.418505 -0.272477 0.428451 0.055763 2.179216 1.570733 -0.996751 -0.338649 0.949229 1.624074 -1.275956 -1.628924 0.500911 1.117073 -0.445127 -0.163852 -1.498581 0.414167 2.266503 0.283135 -0.463553 -0.242146 -0.105499 -0.150395 -0.794048 0.449997 -1.282524 -1.136565 -0.091205 -1.227221 0.348270 -0.090176 -0.605422 0.602951 0.505839 -0.122411 -0.247594 0.649124 -0.513900 0.229431 -0.855341 -0.767787 0.214132 -0.250261 -1.212456 0.276368 -1.174298 -0.168499 0.544011 0.928893 0.242979 -0.427710 0.293463 2.671892 0.229508 -0.179299 -2.558736 1.057036 1.444763 -0.813421 0.611237 2.931456 -0.427654 0.357970 0.061686 1.881810 0.419301 0.669381 -2.754934 -1.115524 -1.509167 0.609310 -1.500309 0.502493 -1.183054 0.240094 0.639609 0.459058 -2.723621 -1.725560 -0.812153 -0.005870 -2.311094 -2.222267 -0.428569 1.437488 -1.666133 -0.791729 0.351966 1.348855 -0.342514 0.732611 0.068871 0.525400 0.623039 
her -2.152940 -3.907488 1.118906 0.331869 0.707098 -2.380513 0.457706 -0.072892 -0.385365 -1.456007 -0.456331 -1.024873 0.063082 -1.040541 1.496531 -1.853460 -1.520807 2.759696 -0.400616 0.112628 -1.842762 1.244158 -1.911253 -0.574969 -1.333313 1.101033 0.401284 0.108550 -0.929362 -0.708410 0.880950 1.452582 0.521144 2.518353 -2.121798 -1.235723 2.057106 1.209979 -0.579831 -0.007023 -0.779934 0.027710 0.700468 0.097691 0.154287 0.349254 -0.489514 1.573251 -0.340910 -0.621659 -0.174128 1.000551 1.442853 -0.497151 -1.287558 0.567576 0.279188 0.459861 0.197459 1.006085 -1.358999 0.450594 1.284716 -0.039877 1.418006 -0.932319 -2.392114 0.025674 -1.024561 -0.547087 -0.140260 0.514057 -0.370409 0.093605 0.769916 0.399833 -0.054892 -0.329491 -0.768889 -0.561999 -2.209000 0.166426 -0.270064 -0.332598 -0.628856 -1.275075 -1.547961 -0.006480 -0.142433 0.886128 -0.307044 -0.587321 -1.466276 0.388309 0.266908 -0.355954 1.466771 -0.892395 1.054366 -0.659393 -0.410186 0.402741 0.040555 -0.532488 0.307448 -1.889963 -0.735496 0.164617 1.308612 -0.549030 -0.910477 -0.881324 0.634068 -2.095142 -1.036802 0.860363 1.146218 -0.026768 -0.101632 0.851641 0.584558 -0.194404 0.427342 -1.104428 -0.499179 1.171304 0.723839 0.589245 -0.122597 0.959456 -0.638785 2.900064 0.878039 0.204300 0.099429 -1.360359 1.157301 1.700483 -1.320489 0.359826 -0.466242 -1.670461 0.734729 -0.961612 1.722282 1.033097 1.659159 -1.626874 1.289084 0.129414 2.507884 -0.777314 0.326585 1.424997 0.547412 -0.465380 -1.041594 -0.034039 1.089734 -0.077762 2.342479 0.237378 -1.330007 -0.747337 0.901166 -0.160956 -0.643561 0.222126 -3.278100 -0.521717 -1.019912 -1.646367 -1.133240 0.527663 1.029099 0.204337 0.040182 -0.397631 0.915693 -2.704815 -0.368041 0.491291 -0.088707 -2.019477 0.872664 1.945292 0.480361 1.779606 0.167147 0.286744 -1.846156 2.259807 -1.166688 0.435452 -0.105715 -0.591339 -1.886875 0.266447 -0.021565 -1.161174 
dark -0.241287 -0.494891 -0.655703 0.551937 -1.459734 2.540874 1.675576 2.254781 0.425735 -1.050457 2.053822 0.742216 0.637159 -1.658065 0.702084 -0.741494 -0.072443 -1.277470 -1.478070 -0.265658 0.365731 0.488966 -0.519659 0.845840 0.024208 -1.087428 -0.830193 -0.242442 0.642675 1.211348 0.728680 0.552184 1.388300 0.804216 -1.666893 1.699606 -0.516219 -0.133029 -0.646237 -1.050313 -0.788930 -2.560015 1.014198 -0.022997 -2.051512 0.645034 0.546081 -3.138986 -1.107568 0.642931 -0.545469 0.752181 -1.815397 0.173141 -0.270326 -1.030185 0.512998 0.893760 0.442569 -2.384490 2.352481 0.836683 0.613006 1.220569 1.172759 -1.424800 1.531306 -1.766059 2.507380 0.892194 0.578750 0.765443 1.824594 0.482832 -0.487301 0.405434 1.101696 -1.637760 -0.437324 0.263417 -0.465165 -0.606384 0.299389 1.362536 0.505004 -0.132613 -0.258162 0.026199 -0.122901 0.432974 -1.982250 0.511725 0.529966 0.371107 0.220683 -0.231901 -0.754912 0.702195 0.019650 0.607799 -0.543879 -0.184979 0.297165 0.220978 1.953898 0.331783 0.100087 -1.596159 0.421131 1.608873 -0.344638 0.506038 0.186338 0.877943 0.733510 0.514886 1.573395 0.206667 -0.321029 0.178445 1.063498 -1.378829 -0.242933 -1.317837 -0.490603 -0.247386 0.161048 0.278820 1.018511 0.421201 -1.299975 2.013931 1.029218 -1.398326 1.157138 -0.492083 -1.478781 -1.435393 0.589782 1.462149 -1.217473 -0.944740 1.011395 0.721281 1.201199 0.605353 -0.519983 0.641556 -0.867679 -0.630542 -1.850520 -1.677029 0.167385 -0.858168 -1.106233 0.555665 0.197373 -2.519584 0.445939 -1.094863 0.293196 -1.815046 0.409331 2.138645 -0.156311 -2.016004 0.443536 1.466694 -0.470974 -0.299470 -1.116919 -1.005365 0.399591 1.693563 0.078764 1.071311 0.010766 0.211729 0.635082 -1.025197 0.844080 -0.262739 1.440417 -1.204331 -0.143340 0.284780 0.477428 0.280584 -0.644250 -0.161402 -1.581788 -0.602777 0.995352 1.111068 -0.031865 1.447253 -0.152599 1.764332 -0.817087 -0.793964 
coloured -0.322301 1.290550 0.242715 1.188081 -0.816694 -1.725546 -0.448000 -1.248096 0.118229 -1.450483 -1.732043 -0.885367 0.361684 0.364907 -0.318943 -0.177748 0.319855 1.376870 1.817777 -0.982579 0.452029 -0.283048 1.514181 -1.014622 -0.623172 -0.534859 -0.765080 -0.335369 -0.119818 0.990869 0.068895 -0.593143 0.393952 -0.439133 -0.504030 -1.219548 0.465133 0.343785 0.229158 -0.572103 -2.457242 0.120946 1.564149 0.208487 0.260052 0.644348 0.292669 -1.767938 0.981523 -1.385496 1.065148 1.615862 -0.077239 1.031553 -1.735025 0.344076 -0.294600 -0.565411 -0.124022 0.250896 0.217715 0.364428 -0.804959 0.148687 0.564122 0.909725 -2.165940 1.020270 -0.890972 -0.990201 -0.817483 -0.295913 -0.548492 0.845524 -0.865300 -0.340955 -0.126758 -1.317376 0.796465 1.144792 0.707435 0.246978 -0.390019 -0.589580 -0.820023 0.121285 1.247523 -0.346424 0.326365 0.360522 0.188025 -0.267078 -0.713610 -0.699038 -0.716844 0.859525 0.569979 -0.541183 -1.161133 -0.293358 0.173714 0.807808 -0.939114 0.480532 -1.554670 1.155717 -1.001104 0.275698 1.244275 -0.102080 -0.621587 0.230372 -0.635017 0.255428 -1.044447 1.030486 0.819064 -0.815493 1.553657 -0.460407 -0.946955 2.004649 0.317217 -0.682302 1.057683 1.319920 1.256685 0.400382 -0.889301 1.422939 0.761765 -0.063553 -0.018690 -0.500947 -0.770982 -1.377654 -0.193938 0.428192 -0.482082 -1.170684 -0.464958 0.469868 -1.156859 1.003080 0.029429 -0.025096 -0.688901 0.862637 -0.128158 0.048691 1.125181 -1.204793 0.576036 -1.113228 -0.471309 -0.447297 1.661158 0.792440 -0.054167 -0.497706 0.105518 1.018911 0.251092 0.363061 0.077285 -0.622863 0.464276 -1.215108 -0.056420 0.134743 -0.138964 0.088721 0.295470 -1.096227 -1.908266 -0.822724 -1.381553 -1.044071 0.673486 -0.012883 0.731277 -0.663825 -1.834748 1.524861 0.547310 1.577752 -0.433096 2.053229 -0.558964 -0.941674 0.888704 -0.094130 0.407086 -1.965873 -0.567617 -0.062920 0.822991 -0.175537 -0.144847 -0.599300 
colour 1.115666 -1.452253 -2.063293 1.383329 0.740926 -2.197618 0.337726 -1.416748 -1.137672 -1.299411 -2.413103 1.952864 -1.777956 1.187226 1.848619 -0.722668 0.765956 0.704019 0.374429 0.845443 -0.882390 0.201157 0.037326 1.171484 -0.160037 0.334279 -1.189090 0.626520 0.052945 0.766581 0.298421 0.451334 -1.274620 -0.345727 0.985818 -2.141415 2.044838 1.994161 -0.054095 0.860383 -0.726967 -1.889532 -0.736398 1.842056 -0.720663 0.271829 -0.361243 -2.702962 -0.030097 0.384720 -0.658294 1.437705 1.197601 0.584896 -1.804311 0.266167 0.152125 -0.130239 0.174819 -1.768667 0.302749 1.539910 -0.902645 -0.583468 -0.487601 1.454016 -1.525931 1.729668 -1.261705 -0.626815 -1.191143 0.281999 -0.896441 0.141493 -1.098137 0.139350 0.796871 -0.819053 0.919257 0.140550 -0.519814 -0.340580 -0.702705 -0.686837 -0.504155 -0.144228 0.316003 0.088737 -0.880792 0.588323 0.176846 -0.390020 -0.036498 -0.484284 -2.030942 0.373584 -0.101621 -0.474875 -1.593485 1.060197 -0.310270 1.200318 -1.477274 -0.163369 -1.101347 0.276625 -1.244362 0.960590 0.356044 0.173517 -0.524514 0.912617 -1.296343 -0.544514 -1.360304 0.484345 0.788143 0.473939 1.764521 0.114033 -0.592400 2.503227 -0.621403 -1.823830 0.376270 0.865682 1.606235 1.036400 -1.646157 1.139049 -0.277230 0.521405 0.158503 0.649683 1.018611 -1.169844 -0.259755 0.897372 0.916078 -0.312637 0.089481 0.415552 -0.993850 0.979158 -0.638481 -0.283974 -0.157233 0.051100 0.000236 0.739614 0.640256 1.147763 0.392120 -2.412764 -1.521854 -0.851385 0.681571 0.696122 -0.680325 -0.445698 -0.768213 1.724586 -1.809110 -1.553966 0.045624 0.174259 -1.526782 -0.765154 -0.603319 0.111934 0.482699 1.738281 -1.450056 1.376154 -0.657718 0.841846 -2.169217 1.076209 1.134429 0.221153 -0.207331 -0.252892 0.474069 1.946240 0.758247 0.959948 -0.606981 1.636252 1.321839 0.404284 1.941012 -1.006575 -0.189457 -0.840866 -1.638969 0.682556 0.395437 -0.126963 0.337645 -1.690151 
shoes -3.130614 -2.635540 1.472722 -0.962720 -0.591975 -2.409469 1.441018 -1.411291 -0.133604 2.631963 2.799743 -0.162727 -0.611963 -0.509453 2.078532 0.931740 0.204673 -3.622729 1.996200 -0.471402 1.118038 0.070475 2.911642 -0.001666 0.516062 -1.083839 -0.157156 -0.591497 1.348440 1.848515 1.052400 -0.442024 0.684725 -2.723134 -0.240158 0.014146 -1.803381 1.862697 -1.249887 -2.584679 0.351306 -0.439991 1.111622 0.295086 0.185782 -0.616748 1.839934 -0.169129 -0.845547 -0.865536 -1.054613 1.838669 -1.990774 0.028828 -0.505013 0.526023 0.405531 -0.340820 1.966576 -1.757333 0.601452 -0.318029 0.993680 -0.641621 -1.005804 -1.164465 1.325260 0.181087 0.056949 1.011633 1.540533 0.431261 -0.018337 1.765774 2.559810 -0.475780 0.282825 -2.540859 -0.763072 -0.386604 0.875479 0.924065 0.933831 -0.126007 0.477780 2.273314 -1.547013 0.228223 0.389848 0.540547 1.558840 -0.330821 1.332438 -0.626499 1.289067 0.658081 -0.998406 -1.770650 1.201168 0.420143 0.122487 -0.863391 -0.260055 -0.353523 -1.860408 -2.270784 -0.066104 1.064003 -1.585797 -1.403567 0.288084 -1.975425 -0.020519 0.694602 1.359594 -0.875292 -0.130107 2.838478 1.071428 -1.349245 0.232606 -0.519543 -1.386944 -0.603310 1.777899 1.081147 -0.668007 -0.834392 -0.038562 0.430366 -2.558407 -2.476677 -0.950791 0.691419 -0.151820 -0.613838 2.926630 -0.132729 1.270794 0.755743 0.944342 -0.770223 1.854935 2.276088 -0.069766 -1.354580 -0.327056 -0.852939 -0.053671 1.532497 -1.018323 2.527545 -0.535771 -2.315328 0.215758 -1.921925 -1.198978 2.640894 -1.939561 0.851271 0.759567 0.464588 0.007680 -1.670477 0.978035 1.448702 0.446778 1.716855 -0.559041 0.220933 -1.397190 1.696411 0.315222 1.171441 -0.743909 -0.887898 0.535619 -0.163236 0.785661 1.598231 1.302983 0.634103 0.900592 0.187707 -0.132306 -2.008039 -1.883752 -1.110421 2.229434 -0.139364 1.097177 0.769097 0.993618 0.369196 -2.084259 -1.140901 -0.270221 -1.348368 -0.514591 0.195208 
pair -5.686242 -0.185900 -0.759207 -0.963060 -0.432004 0.612820 -1.293423 0.192969 0.155561 -0.120255 -0.338253 -2.421866 4.277205 -0.555656 0.349527 -1.632339 1.203465 0.652765 1.370227 3.063178 -1.055354 -2.442689 -1.087941 0.926644 1.444268 -1.918285 0.406247 2.698468 -0.196169 1.136175 1.634687 2.013320 -4.009685 2.240474 -1.722218 -2.153840 0.107088 -0.683577 -2.321430 0.974903 1.078924 -1.646205 -1.240048 0.777769 0.474377 -2.175052 -0.510265 -0.278228 1.682176 -1.412747 1.210993 -0.230185 0.336563 -0.107129 1.822031 -1.220966 0.084000 -0.494764 2.188460 -0.594859 3.094623 -0.318643 -0.199856 2.950277 -0.654898 -0.030021 -0.020342 0.724776 1.373662 0.912682 1.700089 -1.475540 0.668667 0.955035 0.713058 2.676185 -2.023879 -0.020232 1.165970 0.409558 1.838463 -1.288737 2.838247 2.192903 2.253311 1.520893 -0.607485 -0.937986 1.555303 -0.057033 1.887423 -0.139067 2.827439 0.034749 0.590131 1.143005 -0.698706 -0.370178 1.364639 2.032358 0.311353 0.498525 0.558979 1.974457 2.045276 0.530184 0.108571 -1.955669 -0.116859 5.144590 0.257106 1.234467 0.708403 -5.285000 -2.739660 1.740002 3.112172 -3.850611 2.729019 -0.933124 -1.238399 -0.079893 1.872003 -0.932942 1.090415 -2.160983 1.462399 -0.563748 -2.036201 -1.626158 0.044293 -2.308313 -2.808808 -0.288567 0.562896 0.896324 -2.173033 0.312571 1.728079 -1.815013 0.032074 1.289675 0.416105 2.704803 -0.294714 -1.076615 -0.185630 -1.483717 0.974270 -0.653379 -0.295458 1.823844 -0.224520 1.994222 2.691965 3.155857 -4.522273 -0.777528 1.028323 0.684359 -1.736262 2.685323 0.182883 -2.177932 2.227627 1.454986 -1.208886 2.232475 -1.604293 -1.253793 1.197025 -1.343928 -0.886879 -0.051389 1.630128 0.757890 -1.869073 -1.246134 -0.250543 3.750647 -0.919487 -1.116511 -0.698049 5.692218 1.530644 0.434634 0.428924 0.711390 -2.902616 -1.843962 0.488803 -1.594866 1.918320 -0.410680 -0.566745 0.194671 2.035879 -1.501032 1.123223 1.510205 
short -2.446789 -0.618926 -0.583837 2.390808 -3.619506 -1.019929 0.912949 3.566870 2.228944 -2.136730 0.506313 2.993551 -0.380214 0.889270 -2.285947 2.147021 -1.106338 -0.153005 0.251773 -1.910120 2.297728 2.625029 0.017301 -0.755522 0.956881 1.647165 1.481666 0.032654 1.076074 -0.013333 -0.606758 -1.203456 1.641524 -0.479800 0.357794 0.071587 0.510194 1.015962 -0.340930 -2.216232 0.374962 0.503584 -0.537894 0.946978 -0.649912 -0.705355 1.042014 -1.594979 -1.087267 -0.735764 -2.518026 -0.084488 -0.178309 -0.175626 0.898806 -0.386238 -1.461990 0.752466 0.531079 -1.136054 0.470264 1.481829 0.375970 -0.165579 -0.518406 1.363799 -0.160887 -1.014359 -0.402650 -0.297644 -1.986919 0.960697 -1.564970 1.949654 -0.594151 0.020711 -0.683970 0.065767 -0.764310 -0.491233 2.262428 -0.939851 -0.441821 -0.360675 1.313664 -1.315893 -0.906821 0.125810 -1.110253 1.749129 0.347648 1.203650 0.310799 -1.293521 -0.842141 1.698977 -0.897169 0.119650 -0.715034 -1.096837 0.231962 0.409645 -0.875439 -0.725001 -1.151193 0.073427 -1.293325 0.575148 -0.301878 0.844505 1.773514 -0.045291 -0.780293 -2.127748 0.128259 1.067739 2.439157 -0.064987 2.867535 -3.091950 2.526840 -0.420913 -0.794757 1.742891 -0.058089 1.887806 -1.627123 0.320946 -1.218670 -0.249490 1.224689 1.306094 -0.553164 -0.831411 0.885497 -1.050480 -0.257651 0.061889 1.372580 -0.833561 -0.999745 -0.436326 0.489804 2.369255 0.217101 -1.162787 0.753272 -1.836594 0.228054 1.567467 -0.450137 0.671220 -0.036395 -1.179691 -1.680865 -0.873181 -0.578908 -1.632370 -0.306142 -1.223961 0.420111 0.142760 1.104480 2.130283 -1.165886 -3.155297 -2.496062 1.941268 -0.101378 -0.345083 0.263698 0.804863 -0.708464 0.838277 -1.306749 -0.656518 1.585494 1.189181 -0.404210 -0.657000 1.091239 -2.653222 1.160872 -0.481640 -0.298389 -2.235947 -0.209063 -0.646505 0.116166 0.299442 1.813969 -0.197428 0.996584 0.528106 -0.519952 -0.487613 -1.490355 -0.366877 0.167874 -2.650512 
has 1.494837 -0.110024 -1.523674 -2.778915 0.631154 0.562447 -2.146282 1.700573 -0.914867 1.583922 0.913058 -1.743320 -1.897831 -3.392509 2.549714 -0.775415 -1.227594 2.146305 -1.015904 -2.048107 0.856436 1.353171 -1.202694 3.046157 -1.567882 -1.016771 -0.712688 1.467396 -0.789248 0.129864 1.065069 -0.171597 0.324832 0.275304 0.611881 3.244036 0.337335 0.014713 0.222494 0.014704 -1.636364 -0.182347 1.780295 -1.348170 -0.011801 0.067613 -2.070005 -2.585204 -1.723693 -0.215006 1.184692 -0.727668 -0.575835 0.746114 0.372547 1.745386 -0.846165 -0.395851 -0.970062 0.565712 -2.034397 -2.883550 -0.786796 -1.586675 0.747857 0.814512 -0.582785 0.388875 -1.305185 -0.339919 1.493275 -1.396354 -0.468269 0.058758 0.042707 -1.011002 -1.583062 -1.180087 0.237880 0.863047 -0.547751 -1.809522 -1.698973 -3.459357 -2.165369 -0.912608 0.618017 0.997097 1.012192 -2.209680 1.465783 1.038120 -1.663546 1.234306 -1.516690 1.506318 2.774107 -0.371954 -0.045582 -1.709983 1.029204 -0.330303 0.227929 -0.593119 -0.990878 1.681101 -2.797471 -1.422747 -1.529191 -1.463613 -1.204157 2.462142 -0.054892 2.967257 -0.737000 -1.577250 0.047483 2.443663 -0.115568 0.742174 -0.711486 1.266528 -0.974038 2.354398 -1.381343 -1.025724 -1.499462 -0.160429 -1.952215 -0.725557 0.887535 -0.597960 -0.242972 0.087916 -0.209785 0.021815 -0.330990 -0.751050 -0.186836 0.814979 -0.077207 0.047001 0.458926 0.353093 1.348488 -0.441999 0.678405 0.286318 -0.947036 -0.905157 -2.475778 0.693729 2.969997 0.231810 -0.588457 0.512451 2.323840 -0.413349 -0.369946 1.688229 -1.311448 -0.621262 1.439469 -0.525668 0.186325 -0.225757 -1.413334 0.985936 2.154474 1.127451 1.089183 -0.423579 0.198760 0.622942 0.485355 1.106267 0.724709 1.910142 -0.103256 -1.206454 -2.211727 -0.154806 1.348384 -0.932050 -1.290235 -0.655830 0.447095 -0.674370 0.356593 0.967024 2.088411 -1.277704 0.877699 -2.429801 -0.823740 -1.134673 0.074752 -0.974442 1.040001 -1.154719 
or -2.126719 -0.818573 0.376266 1.112087 -0.708205 -1.793859 -1.588753 -1.811284 -0.157227 0.446705 0.158138 0.746730 -0.227322 1.637196 -0.436655 -0.255447 -0.334930 -0.228182 1.464796 0.390022 1.702478 -0.247317 0.832025 -1.723359 1.043540 -1.913516 0.655782 0.965962 -0.908180 1.763755 -0.793729 1.565356 -0.973062 0.818094 -2.113446 -0.905039 -1.910146 -1.258038 0.122167 -0.549258 -0.240339 1.082610 0.163423 -0.579052 0.079460 -0.685842 0.275409 -0.336060 1.587664 0.175438 -0.024562 0.190818 -0.677681 -0.492691 1.149415 0.850462 -0.109021 0.219186 -0.801068 1.172892 0.085262 1.865503 -0.482900 1.330229 0.848525 -1.008200 -2.064533 -1.410919 -1.188391 0.423168 -0.033679 -0.402768 -0.880457 0.644628 -1.012081 -0.089877 -0.027767 0.868965 -0.566288 0.748546 0.630053 -0.217275 -0.323946 -0.144212 0.207186 -0.067383 -0.024048 0.178555 0.126319 -0.121935 1.438133 -0.877254 -0.637212 -0.064800 -1.094883 0.531087 0.490010 -0.410613 0.878061 -0.010528 1.774033 0.560415 -0.585667 -1.261861 -1.041145 0.082875 0.031580 0.156098 0.262092 0.257246 0.577782 0.993727 -0.572203 1.356933 -0.428410 -1.382674 -0.610364 0.352255 -0.630649 0.581167 -0.510974 0.449781 -0.570191 -1.442764 -0.847511 -2.051082 0.739252 0.083334 0.718949 -0.694210 -0.349786 -1.449820 -0.101509 0.770856 -0.314308 -0.389411 -0.290168 -1.085804 -1.089889 0.593007 -0.031166 -1.466570 1.495252 1.490494 0.509766 2.033339 0.988907 -0.259049 -0.358130 -0.983363 -0.758583 -1.835886 -0.104386 1.095029 0.635884 0.340942 1.476851 0.614097 0.342156 0.934191 -1.633744 1.514783 -0.750900 -1.362993 0.254495 0.498637 0.614482 1.368255 -0.198188 1.125743 2.084240 0.346283 -0.787840 -2.121530 -0.096506 -1.672284 -0.483094 -1.638708 2.566439 0.366820 -0.968568 0.245633 -1.031235 -0.222660 -0.071881 -0.183668 -0.532683 0.912199 -0.092177 -1.272087 -0.989075 -0.278486 -0.171552 -1.094925 -1.501881 -1.137328 -0.482773 1.773220 0.301456 -0.058863 
grey 0.117234 2.367063 -0.326671 -1.306582 1.495273 1.615204 1.646312 0.890878 -0.073544 -0.184320 -0.019706 0.145247 2.137679 -1.064695 -1.579898 -0.427046 0.291013 -1.425961 0.142325 0.540845 -0.510350 0.164560 0.528766 -0.227376 -0.056737 -2.199366 -0.336223 -0.418614 1.205920 -0.739501 0.480447 0.014538 1.217899 -0.263265 1.148015 -0.773185 0.266522 0.979523 -0.011243 0.816215 0.277293 0.122003 0.005599 -0.095996 -0.403117 -0.553164 -0.080346 -0.400841 -1.346747 0.195279 -0.916534 0.250894 1.696713 0.146149 -0.347105 0.072491 -0.852858 -1.196302 0.357383 1.063617 0.916195 -0.713191 0.108384 -0.501889 -0.243267 -0.474862 1.830279 0.403211 0.157787 0.796451 0.894093 0.072126 0.347090 0.542740 1.226169 0.409768 -0.064485 -1.426645 0.025166 -1.037456 -1.172752 1.330305 1.203905 0.088974 1.061844 0.266702 -0.115766 0.084202 0.672133 -0.515499 0.066487 0.459069 0.232617 -0.639583 0.270361 -0.876798 0.753970 -0.134866 0.062080 0.106285 0.082401 0.509356 -0.832773 1.267857 1.579424 0.949029 -0.418302 -0.264608 0.711500 0.670679 -1.376423 0.424369 0.433216 -2.120331 -1.317279 0.998758 0.637823 -0.670419 -0.140050 -0.299367 -0.312998 0.363288 0.046029 -0.920876 -0.376166 -0.300278 -0.760886 -0.509844 -0.312314 -0.299115 -0.639526 0.353949 0.439213 -0.578199 0.597972 -0.519198 0.118328 0.517792 0.248384 0.188937 -0.741534 1.707783 0.839727 -1.034413 1.609308 -1.628177 -1.137575 -0.083100 0.492514 -0.399418 -0.944710 1.147228 -0.047269 -1.071954 -0.270906 -0.698712 0.068626 -1.338739 0.224209 -2.401726 1.167453 -0.622506 0.753430 0.960305 0.436609 0.677778 -0.823117 -0.103245 0.234529 -1.300568 -0.268821 -0.195052 -0.833387 -0.735034 -1.464395 0.212554 -0.497476 -0.398010 -2.031331 -0.623331 -0.585023 0.509303 0.515306 0.241057 0.823795 0.779786 0.435466 0.834324 -0.802560 0.563292 -1.622165 0.470987 1.409068 -0.339844 0.471773 1.595297 0.434649 -0.918679 0.113926 1.629767 
bag -1.858049 -2.662223 -0.371212 -0.753975 0.307896 0.739110 -1.787693 -2.455973 1.171999 -0.213747 -0.123164 2.301829 0.256663 -0.514305 1.530675 1.111109 0.006305 -3.215639 -2.480022 -2.688696 0.294711 -0.805312 0.361374 0.119701 -0.668179 -0.638680 0.101586 0.106653 0.710775 0.885902 1.675692 0.294177 -2.350659 1.498786 1.642058 -0.152648 -0.538973 -0.272508 -1.281081 0.511209 -0.473345 1.799152 -0.909703 -1.885831 1.864453 -3.264532 1.113009 0.765683 -3.140723 0.900329 1.668441 -3.029830 2.885728 0.457932 1.528529 -0.405540 -0.200206 0.160740 1.031442 -1.076675 -0.086246 -4.129218 0.355747 -0.308411 -2.046318 0.303425 2.139850 0.344354 0.205901 0.843540 2.721073 -0.146536 -1.600927 1.213830 0.178810 2.054005 4.021736 -1.442748 2.549160 0.463760 0.122467 -0.811369 0.130768 -0.667956 -1.596325 -0.220225 1.615395 0.005258 1.487778 -1.650281 0.800946 -0.204009 2.138045 -0.244140 -0.710289 0.969600 0.730273 1.238724 1.517336 -0.953707 0.254287 -2.094296 -0.815642 -2.904221 -1.445239 0.091098 2.300165 0.796272 -1.117772 3.924760 0.530331 -0.903745 -0.051244 -0.044040 0.342451 0.352845 1.982788 0.468507 -0.267182 0.038467 -2.041075 0.035525 -2.406872 -0.386603 0.362076 -1.315848 -0.708545 0.737418 0.673360 -0.131936 -1.380696 1.395219 -1.673389 0.685311 -0.191518 1.918166 0.260037 0.100325 -0.901125 1.808202 0.675076 2.192312 -2.701900 -0.812699 -4.258739 -0.628387 0.469224 -1.974314 0.452428 2.170772 1.872387 2.029014 0.401237 1.580546 -1.029920 2.587625 -1.414147 2.244643 0.063838 0.889201 -0.547920 -0.642833 -0.445149 -0.442213 0.975928 0.042848 0.049872 0.434895 2.424021 -0.131195 -1.312818 1.444555 1.698919 0.118278 0.404915 -0.505524 0.569766 0.711362 -1.564288 0.665028 -0.709482 2.845133 -0.484026 0.312048 -1.648685 -2.022278 1.798522 -1.840533 -0.163967 0.071801 2.398367 -0.992130 -1.460763 2.752175 0.152155 0.354708 0.143038 1.583972 0.142335 0.882595 
right 1.719210 2.002376 0.354965 0.336146 -0.955590 -0.480475 1.101921 2.576090 0.166275 0.966957 -1.882507 -1.075374 -2.009482 0.457350 -1.058274 -0.461921 1.953388 3.371800 1.150533 1.983616 -0.402627 2.044985 1.443778 -0.371937 1.951244 0.536448 -0.306822 0.494230 0.689873 0.569001 0.134161 1.209273 -0.353386 1.620860 -2.187239 -1.035170 0.963800 -1.694284 0.364951 0.127549 2.629650 -0.844165 0.247300 1.881841 -2.593565 1.548617 0.172275 0.513960 -3.655368 0.459159 -1.008977 0.379654 3.623656 -2.593811 0.847386 -0.280328 -0.300824 1.058055 -1.618945 -0.388433 -1.734165 0.761898 0.168379 -1.821817 -0.726284 3.172889 -0.918048 0.229827 -1.281306 -0.296821 -0.413939 -0.430145 0.441749 1.509822 -0.613625 -0.270292 3.075388 -1.248533 -1.192730 0.351760 0.330401 -0.183701 -0.164409 0.936586 2.359736 -0.810048 0.535343 -0.147701 2.193400 0.213953 0.899724 0.805831 -0.573637 0.271003 -0.834637 -0.317563 -0.884956 0.739479 -1.678036 0.982944 -0.734051 0.373501 -1.887199 0.190372 -0.157688 -0.361719 0.746272 1.263252 -2.445681 -0.101859 2.087850 1.217338 0.726386 1.782823 3.168340 0.299096 -0.295634 1.678479 -0.272526 -0.301471 1.953427 -0.814672 -1.218677 0.562977 0.527372 0.632682 -0.125167 0.389568 2.187906 0.948428 -5.108296 0.731901 -1.747396 0.324397 -0.255366 2.522390 -0.205147 -0.473320 1.339936 0.479575 1.199063 3.107243 -1.828537 0.368648 -1.277121 -0.653800 -1.247289 0.321708 -0.804760 2.160411 -1.749392 0.373889 -1.438592 0.311200 -0.890460 2.492023 -0.605319 0.038639 -0.140695 -0.580541 -1.748664 0.180847 1.221067 -1.794900 0.258299 2.645578 -1.860638 -0.601880 2.548470 1.713071 -0.596419 -0.405644 0.887255 1.453950 -0.614432 -0.498225 -1.518413 0.098263 -0.387283 3.312260 0.546937 1.114884 0.698317 2.533492 -1.590766 -0.504959 -0.980676 -0.154876 -1.300143 -0.890362 0.936764 0.307534 -0.808461 0.344587 1.763588 1.506611 -1.670229 1.357783 0.415217 0.425456 
wears 0.922572 -1.951243 -0.313891 0.397056 0.130070 0.830497 -1.900990 -0.005355 -0.429220 -2.018739 0.029042 -3.507552 -2.271620 -3.963448 3.462382 -3.010420 -1.721457 1.621548 -1.291922 -1.468322 1.744614 -1.280893 -1.604857 1.770164 -0.163251 -0.470695 -3.029282 0.568115 -1.856481 0.118849 0.717597 0.610969 -0.464010 1.018649 -0.892477 1.420102 1.112618 0.506188 0.306076 0.115724 -4.880140 1.169891 0.788018 -1.993972 2.109942 -0.040159 -0.684031 -1.974186 -0.156017 -0.099753 1.255949 -1.777850 1.507911 1.029455 -2.186185 2.183051 -0.421870 -0.086145 -0.668581 0.817013 0.297605 -2.248944 0.657162 -0.683805 -0.185755 -0.023521 3.325181 -1.410173 -1.009820 -0.759356 0.908072 -1.334990 0.679372 0.915971 0.635050 -2.019043 -2.517133 0.424134 -1.246913 0.798865 -1.193392 0.134005 -1.875357 -0.711783 -0.084377 0.060423 -1.198326 0.455070 0.625695 -1.641217 2.126630 1.201674 -2.225944 1.987552 -1.115829 1.175869 0.987995 0.030360 0.604177 -0.656524 0.337204 0.740857 -1.118872 -1.455763 0.821765 2.110613 -0.515807 0.051670 -0.998688 1.240817 0.149344 2.976464 -0.579328 2.519055 -1.039108 -1.073447 1.384777 1.701429 0.436378 0.808519 0.287685 -0.469820 -2.127402 0.001109 -2.125359 -1.403324 -2.302146 0.410789 -1.831431 0.441097 0.372939 1.211642 -1.713455 0.623325 0.381124 1.222660 0.294165 1.033576 -0.916530 0.752279 -0.930572 -1.971285 0.614036 0.461695 -0.106467 0.185584 2.374557 -0.605966 -0.871165 -2.612058 -0.823835 0.042143 0.835247 1.666680 0.933159 0.998196 -0.298441 0.123266 -1.828736 1.345877 -1.379598 -0.632954 2.118849 -1.661950 0.379267 0.529117 -1.283463 1.970604 1.901772 0.142326 2.313075 2.163252 0.873492 -0.619519 -1.246732 0.366783 -0.197208 2.615649 0.609985 -0.354377 -1.711380 1.116579 -0.853939 -0.169627 -2.031614 -2.687243 0.338050 -2.139946 0.079634 0.610131 2.062696 -2.995101 1.887424 -2.773129 0.080624 -0.985500 -1.528952 -0.637575 -0.099240 1.164194 
man -2.256494 -0.433832 2.398724 2.217208 -1.488209 0.959969 -0.308606 0.272630 -0.514390 1.369669 1.771977 1.074153 -0.242744 1.567193 1.665287 3.771321 0.309856 2.575178 -0.188636 0.746864 -2.290231 0.394462 -0.138741 1.938547 -0.295652 1.000615 0.994527 -1.171876 1.862068 -0.423362 -2.217638 -1.734811 -0.048692 -2.796729 1.961494 -1.891050 0.058643 -2.379173 -1.284057 2.809844 -0.308270 -0.589000 -3.051605 0.958993 -0.508089 -1.485406 1.260219 1.202257 -1.419441 0.366962 1.806585 0.216578 2.255399 0.695589 2.028536 -2.480238 1.089043 0.837619 -1.689550 -0.212963 1.917372 0.180368 -2.241103 0.058320 -0.184145 -0.070026 0.811529 -0.170772 1.410715 0.572930 -1.007601 1.350465 0.342486 -1.180837 -0.722401 1.597992 0.717328 1.483664 0.173762 -1.858745 0.742595 1.329862 -1.391627 -1.941097 0.771824 -0.291153 -0.433734 0.493575 2.172965 -1.515640 -0.583120 0.675579 0.418500 -0.141310 0.814858 -0.360422 0.742932 0.271804 -1.222382 0.416023 -0.605151 0.199155 -0.137762 -0.193420 2.133113 0.531805 0.432771 -0.577551 -0.772990 -1.539171 -0.250740 -0.052174 0.786364 -1.019724 0.727266 0.726667 -0.544298 -0.743607 -0.209439 0.119560 -2.138475 1.560360 1.590455 -4.105900 0.520675 0.018504 1.141772 -0.098909 0.485181 0.716991 -0.286161 0.872436 -0.993558 1.188380 -0.441690 1.226114 1.053356 -0.394454 0.132710 -0.035917 -0.379048 -0.348208 -0.649396 -0.624512 0.155380 1.065725 0.058079 0.293684 -0.715934 -0.574511 -0.474586 -0.326416 -0.061668 -0.247851 1.107095 0.678140 1.423584 -0.427730 -0.340537 0.198971 1.461703 -2.994847 1.624704 0.753014 2.065262 1.479830 2.702076 -0.429793 -0.110467 -0.694533 -2.043025 -0.185667 -0.232042 1.680901 0.056215 1.675022 -0.240605 1.270444 0.640681 3.262931 -0.375181 -1.897975 -2.649367 2.653958 1.597877 1.114336 0.141866 0.484518 0.565124 -0.633734 -0.262549 0.485693 1.755706 -0.782224 -0.023373 0.634019 -0.341844 0.655680 -0.586445 0.525760 
left 1.051714 2.717695 -0.771159 -0.421213 -0.560677 -0.318299 1.093971 2.874025 -0.906577 0.969204 -2.428925 -0.715798 -3.095662 -0.000948 -1.629617 -1.835950 1.489009 2.302971 2.818608 2.646321 -0.526221 1.914562 1.819007 -0.175821 1.712311 0.054857 -0.533175 -0.649420 0.263816 0.817560 0.783689 1.062372 -0.384328 1.869220 -1.532165 -0.683750 0.154265 -1.273354 -0.220169 -0.669794 2.331419 -0.049795 0.099515 1.317190 -2.095154 0.581388 0.991116 -0.350783 -4.638609 0.598654 -1.453283 0.644066 3.843343 -2.186397 0.398669 0.066026 -0.076745 1.916512 -1.071169 -1.281679 -2.226501 1.358414 -0.051537 -1.124234 -0.273582 3.147482 -1.726237 0.057304 -0.800681 -0.291005 0.424163 -0.386289 1.032504 1.014428 0.344325 -1.425286 2.763214 -0.660359 -1.194359 0.723548 -0.103907 -0.298602 -0.540161 1.746017 2.706960 -1.237338 0.355597 -0.728905 2.400216 0.335910 0.833146 0.883644 -0.422683 0.279700 -0.341485 -0.256389 -2.010422 -0.335220 -0.474426 1.277684 -1.371465 -0.422123 -1.497770 -0.031582 0.022926 -0.648839 1.459359 1.301131 -1.482229 -0.273151 1.211201 1.330039 0.523792 2.222994 2.256199 1.205570 0.185934 1.980226 -0.764726 0.021192 3.049554 -1.595897 -0.654141 1.561702 0.807530 0.420704 -0.673061 0.721343 1.905459 1.038432 -5.080227 0.191056 -2.029458 -0.520550 -0.835666 2.749570 -0.328598 -0.154623 0.803551 0.019016 0.910430 2.905143 -2.142962 1.180662 -2.814907 -0.455998 -0.863258 1.310612 -0.684486 1.596578 -1.235260 -0.621900 -1.377454 -0.101069 -0.531662 2.952634 -0.543291 -0.289130 0.319408 0.340756 -1.565632 0.538919 2.165757 -1.158781 -0.031654 1.906023 -1.104248 -0.003722 2.413069 1.355986 -0.554551 0.020737 0.549522 0.812815 -1.178427 -0.076242 -0.747134 0.733881 0.446346 2.650432 0.397112 1.266361 0.326950 1.697748 -1.356532 -0.429217 -0.942726 -0.283225 0.092562 -0.632683 1.201870 0.135609 -0.960668 0.043325 0.968867 0.353457 -0.922724 1.455463 0.043455 -0.408419 
carrying -0.366337 1.438240 1.025382 1.724641 -1.358915 -0.459674 0.795277 1.155330 0.167833 -0.886873 0.449718 -2.673120 0.560486 0.126174 -0.591849 0.055080 -3.519568 0.592011 0.331589 -0.792228 2.772311 -1.407049 -3.663543 -1.710453 1.489877 0.519760 -1.779712 2.495821 -0.431570 0.044027 -2.048111 -1.343687 -3.265144 1.261205 -2.937806 -0.666785 2.480712 0.849320 -1.738539 -0.720923 -0.647700 -0.152820 -0.319201 0.989942 -0.441383 2.489531 -1.338235 -0.571217 0.586828 0.282865 -1.079978 1.271302 1.513771 -0.597039 -1.606706 0.496240 -3.413090 0.210694 -0.500190 2.476491 -0.041195 -0.482612 -0.739162 -0.759206 -0.727780 1.072752 1.487696 -1.103326 0.730060 -1.106132 -2.634627 -0.812827 -0.388481 1.582342 -0.943808 1.010714 0.552013 0.610224 -0.528891 0.216844 -0.830144 -1.553491 1.885732 -0.613405 -1.791203 -0.605419 -1.942773 -0.779742 1.110426 0.124270 1.255357 -0.632057 0.402297 0.857609 -0.307358 2.260793 0.690199 -1.143332 0.185665 1.533607 -0.962749 1.023330 0.083397 1.375363 1.326535 1.917196 0.089587 -2.089351 0.899812 6.588294 -1.317647 2.427561 0.420220 1.062864 -0.135266 -2.095204 0.076020 0.431778 1.357177 0.858268 -3.033361 -1.281256 -0.573707 1.527385 -1.731945 -2.775231 -0.026303 -0.520360 1.223201 2.448470 1.652244 0.485015 -1.442867 1.723558 1.070610 -0.213543 0.638008 1.142097 0.758514 1.621766 0.177171 -0.322228 -2.574320 0.078616 0.390219 0.271019 1.269407 1.472803 0.085308 -1.002568 1.854473 1.750143 0.733403 0.644633 1.842271 -0.679722 -0.564832 1.243405 -0.388851 1.112991 -1.139050 -0.971222 -0.513075 -0.976844 -0.023518 2.689596 1.983333 1.116204 2.650029 0.329037 0.197964 -1.723703 0.252029 0.703839 1.069726 -2.463065 2.455170 1.126910 1.544763 -0.571448 1.512219 2.460450 0.444001 -0.039554 -0.447483 -0.804487 0.701407 0.678464 -1.590305 1.417887 1.120409 -2.830426 0.750199 -3.533993 1.191236 -1.366745 -2.274505 -0.745390 -0.267255 2.243414 
to 0.741864 3.469071 2.381958 0.073564 2.613317 -1.661610 -1.616493 -1.927865 -1.736699 2.482483 -0.872305 -2.407654 -0.475765 -1.107818 -0.049282 1.865348 0.276480 -0.649649 -1.940937 -3.230703 -0.035829 -0.661597 0.859872 1.546299 -0.201354 1.023228 1.964722 -0.945914 0.659763 -0.190616 -1.906600 0.520647 0.533821 1.006326 1.823345 0.955763 0.834904 -1.495765 -0.241335 1.015845 1.019704 0.715151 -1.232310 0.708344 -0.111766 -0.046591 -0.975353 -0.457680 -1.854893 1.236068 -0.500544 -1.437265 -1.757664 0.328382 0.479969 1.175066 1.166356 0.030792 0.260050 -2.964409 1.693996 -1.656615 1.771251 1.756459 -0.565541 -1.390452 1.390383 -0.273193 1.514433 -1.533372 0.654156 0.443216 0.313081 1.166892 -0.589453 2.160690 0.367104 -0.345675 -0.370272 0.549590 0.139963 -2.165953 -1.029317 -1.686559 1.404725 -0.254433 -0.755651 0.329966 -0.898998 0.664501 1.936852 1.558283 -0.515772 -0.640320 -0.136368 -0.617396 1.640772 -0.431810 0.418496 0.174189 -1.537149 3.000033 -0.420795 0.670876 1.503385 -2.127181 0.527862 -0.103433 0.471160 1.769105 -0.925445 -1.297488 1.814799 -1.335930 1.919229 -1.762347 -0.171803 -1.500739 -0.366478 0.374105 2.548793 -0.965434 -2.052995 -0.662385 1.253003 1.271354 0.577331 -0.394832 -2.032192 -1.700645 0.042796 -1.154622 -0.626682 0.409845 2.717370 -1.220551 0.459470 -1.724502 1.024131 -1.385554 -2.154184 0.402216 -0.803731 1.248974 0.784274 1.286948 -1.616850 -0.469369 -1.012709 1.193785 -0.206051 0.620466 0.840658 -1.095756 1.061772 0.076085 0.642539 -1.063738 1.630104 1.021966 -0.505462 0.052071 -0.042878 -0.569170 -0.871777 -1.006259 0.969750 -1.141291 -0.101402 1.219472 -0.730633 -0.341289 0.794821 -2.982981 -0.777967 -2.026685 2.194436 -0.600636 2.007444 -0.757503 0.148887 1.085631 -2.357154 -2.758420 -0.984939 -0.925254 1.518676 0.037047 -0.353276 -0.473216 2.280520 0.109394 1.703650 -1.084225 -1.208145 -1.890293 1.496291 1.748644 0.903924 -0.241445 
hand -0.362257 0.972382 -0.195532 -1.441584 1.856065 1.830057 0.068246 -1.534342 1.550470 -0.557849 0.096051 2.407851 -0.763756 0.362149 0.149279 -0.842882 -2.332021 -2.478830 -3.596558 -2.945232 -0.524704 1.165715 -0.865543 -1.788410 -2.546056 -1.614465 0.489399 0.665658 2.999487 0.262947 -0.995309 -0.401915 -1.644022 -0.877962 1.870558 1.708619 -1.120822 1.930974 -0.869662 0.167914 -1.010909 -2.096929 -0.167217 -0.275860 0.165792 0.231339 0.126499 -1.257262 0.416387 2.130156 0.601318 -0.816187 -2.456336 2.055243 -2.299432 0.344918 0.574059 -0.755644 1.139179 -1.870350 1.407618 -2.028930 -0.338029 1.556094 -0.357349 1.032652 3.369824 1.368027 1.143500 -1.240102 0.320009 -1.479982 -0.717057 -3.809879 -1.013102 1.512975 -4.514692 2.802122 -0.173460 -0.061264 1.206724 -1.906555 0.683112 -2.078954 -0.076340 -0.817417 1.167633 -0.766412 -1.976851 -0.197512 -0.581894 -1.435265 0.466709 -0.680980 0.411379 1.239934 -0.084931 0.143165 0.829060 -0.694444 1.947011 -0.742977 1.873599 0.937829 -1.671023 1.008582 0.695963 -0.112457 -0.744819 -0.207562 0.191505 -1.193062 -0.490901 -0.284527 1.415338 -1.313424 -0.220066 -1.358917 -0.040049 1.237260 -3.841725 3.794235 -0.879630 -3.780733 0.162138 -0.596718 3.347760 1.546692 -0.426851 0.170769 1.547865 -1.186711 0.824803 0.252561 0.524282 -1.680938 0.974758 -2.276781 0.753415 -0.545975 -1.283243 0.459756 0.320762 2.478962 0.187157 -0.245426 -0.316491 -0.792422 -0.844539 2.017413 -0.229671 3.391191 -0.005588 -0.946309 0.412148 -2.134589 1.690356 -0.997912 -1.374074 0.841011 -0.124233 -0.444297 -1.138170 -0.531928 -2.219563 0.236626 -1.465358 -0.838070 -1.116664 0.457853 -1.515712 1.134183 -0.436263 -0.323834 0.307991 -0.569991 -0.695196 -0.228614 0.360158 0.747316 -1.063227 -1.718456 2.283019 3.263797 2.851205 1.376814 2.029808 1.747529 0.509208 3.684409 0.473091 0.231695 -1.915980 0.004531 -0.959385 0.384904 -1.602122 0.559036 1.062405 -0.273486 
be -0.048554 -1.850371 -0.810205 -1.931784 -1.791788 -1.024219 1.415868 2.404635 1.248217 0.552415 1.054033 -1.220904 -0.728508 -0.727989 3.443078 -2.285300 0.453620 0.770820 -0.787896 1.678121 -0.206352 -0.580893 0.375848 1.578383 0.359607 -1.381195 -0.758246 2.488626 1.023719 -1.948710 -0.609847 -3.105808 -1.767608 -0.583562 3.931549 -3.015121 -0.994009 -1.086269 2.969758 0.811484 -0.770469 1.246300 -1.228780 -3.910638 2.987707 -0.905982 -1.059720 -0.107201 2.142084 -1.058339 0.001408 -1.548278 0.715933 0.993803 -0.271319 -1.811438 0.583631 -0.815908 1.416414 0.358798 -0.342028 0.386758 -1.471641 -3.563703 -3.975482 1.522921 -1.430739 -2.048586 -0.388821 1.477574 -1.413407 0.075408 -0.278041 0.322552 -2.265642 -2.323634 0.420895 0.235930 0.875142 1.031371 0.239525 1.951700 1.192432 2.933477 -1.795387 1.540113 -0.320636 2.185712 -3.557890 0.151197 1.374682 0.113343 0.466263 -0.154181 -1.262335 0.140639 -0.367181 2.449411 -0.207069 0.293163 1.052617 -1.832136 -0.291240 -0.379994 -0.820630 3.300778 0.905343 -0.373273 -4.147519 -3.852911 0.243632 3.150950 -2.581204 2.009848 -2.072152 2.462851 3.767589 -1.666624 -1.151033 -1.406747 -0.205530 2.149318 0.602348 -2.223171 -2.607442 -0.322078 0.111611 1.070907 3.125041 1.834440 -2.018356 -2.451241 -1.960334 -2.171083 0.181933 -1.717657 1.098114 -1.451867 0.508666 1.237247 0.069935 -1.258238 3.401373 -0.893711 0.112598 -0.184709 0.685725 -1.715388 -0.914384 -1.084378 -2.485473 -1.586546 0.142881 -0.144578 0.238186 2.315331 -1.382421 -0.352825 -2.894311 2.391789 -0.827255 2.343131 4.294250 0.206010 -2.842262 -0.397252 -0.835197 -0.199078 -0.192489 1.174419 0.691847 -0.634504 1.444089 0.583968 2.573656 0.105238 -0.559378 -1.418037 -2.483603 0.613960 1.322093 -0.390463 1.151858 2.882409 0.293994 0.088314 -2.155527 1.796085 0.686278 -0.003476 1.007396 0.924677 -2.441204 2.992476 -1.239757 -1.309102 -1.187621 -2.331147 1.214002 -1.601018 
shoulder -0.558795 1.856761 -1.655904 -1.641248 -2.257563 4.471663 -0.889845 0.653472 1.735119 -1.842536 -0.371628 3.437914 -1.160876 1.561047 -0.540004 0.452261 -0.714859 -0.970620 -1.281343 -2.137923 1.209081 1.755321 -0.094632 -0.075252 -2.524674 0.168832 -0.841181 0.145472 0.529874 -0.603103 -1.337443 -1.469996 -3.054861 -2.782909 -1.329187 3.563037 -1.781162 0.074621 -0.319470 -0.633428 -2.511192 -0.239321 -0.477942 -1.557813 1.748703 2.564176 -0.541964 1.565883 0.314963 1.761716 0.889011 0.149747 0.181020 1.909600 -1.391142 1.933524 -0.363746 -0.030216 -0.198266 -0.814706 2.204189 -3.211024 0.627115 0.618874 0.610309 -1.160470 1.786472 0.405310 -2.389367 0.030854 1.664515 -1.537810 0.113814 -2.162436 0.523667 1.325164 -3.283908 1.476246 -1.681866 1.475221 0.327183 -3.307043 1.857642 -1.046839 -0.917277 -1.682320 -0.083120 -1.245693 -0.531985 1.446434 -0.686332 -1.333670 -0.415928 -1.186953 0.260345 0.226377 0.664414 -0.786723 0.884570 -0.298768 2.150702 0.295961 2.121404 1.335801 -2.738766 -0.149303 1.133576 -0.576403 -1.063390 -1.568147 -0.090452 -1.953659 -0.137716 -0.823755 1.901493 0.160226 0.517107 -1.202726 3.099616 -0.724493 -1.711257 1.647671 -0.530189 -1.304914 0.595893 -2.007364 2.188651 0.381843 1.131288 0.682572 0.787823 -0.954637 -0.087454 0.597862 -0.278723 -1.200432 0.420137 -2.511414 1.300558 0.173357 -0.126498 0.030088 0.595600 2.803216 1.989573 0.336053 0.657234 -0.258125 0.556341 0.095790 -1.521230 -0.325275 0.868234 -1.793054 0.664248 -1.147965 -1.214776 0.118808 0.371346 0.225955 0.730392 -1.627467 -0.387935 -0.294739 -2.011739 1.322210 0.794360 0.551486 -0.107607 -0.455335 -0.660094 1.219756 0.889369 -0.957897 0.731963 -1.290178 1.742570 -1.272212 -0.467198 -2.170533 -0.607367 0.767198 2.022631 -2.241434 1.428785 0.937082 1.587635 -0.014029 -0.348718 2.383245 0.729198 0.402990 -2.803736 0.404039 0.081595 -1.819377 -1.633396 -0.528446 0.549402 0.531878 
blue -0.411213 1.757284 -0.798040 -0.952490 -0.178143 0.327754 0.375374 2.069821 0.454764 -0.032411 1.174498 -0.913674 -0.576670 -1.289724 -1.954650 -0.384489 2.322752 0.801193 -1.769785 -0.521508 0.808644 0.543318 0.574060 -1.028124 -2.482758 -1.421265 0.222004 0.676599 0.498767 0.496413 0.543416 1.644475 2.887382 0.169387 0.449154 0.189496 -0.301882 0.615442 0.400238 -0.544111 0.138924 -0.211259 -0.722310 -0.044471 0.024798 -1.850281 0.438132 1.220536 0.344729 -0.054051 -0.545146 0.979630 1.573525 0.351468 -0.444495 -0.685098 -0.554801 -0.467453 0.491183 -0.301953 0.031578 -0.397172 0.093154 0.147785 -0.329340 0.252207 1.446974 1.376173 1.051319 0.298354 0.956724 0.799224 0.822509 1.561516 1.691096 1.906200 1.002454 -2.093559 0.243126 -0.280027 -0.183334 2.322894 0.735458 2.056002 1.231246 0.677108 -1.798060 -0.994994 1.389995 -1.440255 0.518080 0.609165 0.377939 0.706513 0.205950 0.009236 0.560684 -0.175324 1.027746 -1.178975 0.592382 0.760637 -0.630483 0.777081 0.118285 0.710324 1.224464 1.155411 0.520254 1.168344 -0.725454 0.881713 1.625609 -1.074550 0.063077 0.280202 1.417040 -0.768499 -0.419429 0.585922 0.638379 0.108330 -0.527078 -0.367207 0.009214 -0.043184 -0.267533 -0.466609 -0.453699 0.636944 0.924107 0.012657 0.523118 -1.355002 -1.218127 -1.341876 -0.037573 1.693546 0.536671 -1.826757 -2.088557 2.055696 0.160018 -0.797293 1.065412 -0.775805 -0.417622 -1.336417 1.188447 -0.596451 -0.808968 0.648269 -0.006753 -0.122748 -0.121162 -2.224517 0.548381 0.300604 -1.028440 -1.093428 1.664123 0.660704 2.879112 -0.126435 2.246363 1.137584 -1.109594 -1.628734 -0.145592 -1.000613 -0.482497 1.232563 -0.744672 -0.430441 -0.856811 1.428697 -0.883335 -0.250310 -1.724056 -1.174946 -1.220326 -1.220021 0.369376 0.209789 -0.349972 -0.031577 1.345853 0.449363 1.686875 0.226229 -2.904998 1.761155 -0.027366 -1.296778 -0.211314 -0.838487 0.552681 -0.157251 -2.239886 1.502399 
long -2.283710 -0.837170 -1.163232 0.517491 -3.785522 -0.809238 1.459681 -0.514715 1.361486 0.600091 -0.058456 1.373905 -0.539764 -1.217405 -1.941059 -1.666086 0.523255 1.973804 -0.053012 -1.677008 0.247488 1.583719 0.865869 0.496996 0.363697 2.848021 2.820768 -0.397055 0.961041 0.189154 0.039796 -1.394130 -1.305845 1.088960 -0.937942 -1.008788 -0.743627 -0.480016 -1.153957 -2.098783 -1.784507 1.168800 -0.670343 -2.310118 1.782972 -0.327575 1.368592 0.802358 -1.139799 -1.345918 -1.017176 -0.076771 1.955539 0.356027 0.300216 -2.614983 -1.776760 1.383631 1.037284 -1.809172 0.475646 0.815058 -0.852654 1.152413 0.548501 1.676293 0.392389 -1.160520 -0.489965 -0.552313 -0.700884 1.922514 -1.695926 2.399601 0.980131 0.364097 1.107042 -0.937514 -1.562695 0.594563 2.088827 0.194078 -1.103518 0.242870 3.240077 -2.389859 -0.153676 -1.741920 -0.140566 0.979802 1.390069 0.623177 -0.729711 -1.438067 0.201897 0.332012 -0.594037 -0.153875 -1.083542 -0.893811 -0.217191 0.372209 -0.760252 -0.065988 -1.041738 0.927493 -0.232482 -0.697802 0.355494 1.136964 -0.071617 0.445057 -0.963569 -1.041776 -0.955796 0.011819 -0.730198 0.201033 1.192930 -2.025408 -0.654105 0.138345 -1.395403 -0.310427 -0.459029 -0.056434 -2.404468 -1.285820 -0.598032 0.402439 1.325023 0.225201 0.865067 -1.485542 1.739574 -1.653245 1.055029 0.147936 0.366233 0.859586 -0.923351 -0.037010 1.469529 -0.431901 -0.701971 -0.246085 0.125146 0.117712 -0.274807 0.338092 -0.085152 1.032193 1.616078 0.633586 -0.264128 -1.213119 -1.348208 -2.226284 1.190802 -1.856045 0.964120 -0.991619 0.754916 1.511092 0.343358 -3.018083 -1.075099 3.418193 -0.385908 -0.836880 0.156431 1.715953 0.595862 -0.553536 -1.763598 1.395436 2.241154 0.722435 0.244431 0.172575 0.431278 -1.656238 -0.819463 -1.024165 0.092676 -1.219523 -0.587688 0.975676 1.626930 -0.292574 -0.108546 0.245444 0.713704 -0.189430 -0.713118 -0.468603 -2.082083 0.249601 0.572816 -2.679045 
probably -0.865316 -0.716473 -1.501092 -1.332000 1.932919 -1.339623 1.272505 1.977566 -0.583316 1.640367 -0.023721 0.856501 0.076290 1.107544 -0.974352 0.775496 0.147555 -0.080044 0.411084 1.154094 0.856399 1.078508 -1.417423 -1.639163 -1.377007 -0.836009 -2.274322 -0.610219 1.935945 0.029384 -0.522455 -0.888253 -2.351901 0.011372 1.056165 0.826440 -0.213585 0.369520 -0.698950 -0.020011 -0.199473 -1.833364 -1.058593 -1.893667 0.252228 0.059440 -0.480347 -0.605431 0.249963 2.120220 0.385345 -0.081503 0.797214 1.057227 -0.404990 1.036072 0.561312 0.466568 0.288213 -1.208016 0.738757 -2.283798 -0.326043 -0.494926 -0.415466 -1.022098 -0.306105 0.529133 -1.382459 0.302682 0.706541 -0.172477 0.675701 0.261944 -0.583335 0.425486 0.640570 -0.473285 0.075902 0.803005 0.808038 0.536107 -0.397387 1.448658 0.025620 0.636549 0.098151 -1.102881 -1.884776 -0.034022 0.125979 -0.254656 2.157374 -0.735174 -0.434609 0.998384 -0.424051 1.044377 0.266882 0.284565 0.887858 -0.850557 -0.474828 -0.492410 0.735905 1.543292 -1.006441 0.416130 -0.777096 0.563327 1.334919 0.482442 -1.961684 -0.480471 -0.357535 0.167629 -0.893377 -0.333422 0.070094 -0.153311 1.046418 -1.677313 1.502786 0.333061 -0.106901 1.258436 -0.399854 -0.246901 0.630042 0.329637 0.623779 1.683170 -1.106290 0.381692 0.259374 0.509855 -0.199596 -1.276262 0.329672 -0.206981 0.111958 0.615771 1.121602 0.055606 -1.303899 0.945353 -0.335407 0.385375 -0.926062 0.215743 -0.924168 0.150978 0.389348 -0.878731 -0.112677 -0.268659 0.657653 -0.836504 0.161845 0.558718 0.031512 -0.145292 -0.065168 0.335672 -0.866938 0.105082 0.924720 -1.410107 0.869808 0.789839 -1.344017 -1.641904 1.232475 0.655349 0.463558 -1.009902 -0.313149 2.016816 0.799755 0.420535 0.144352 -0.218029 0.187641 2.457891 0.515607 0.206669 -0.168565 0.245899 0.566204 0.863314 -0.673229 0.121694 0.291299 -1.880063 -0.599315 -0.255466 -0.226639 0.744081 0.357760 -1.025626 
jeans 0.139063 -0.958719 0.989486 -1.595061 -0.392960 0.691801 0.417513 -1.644577 -1.305237 -1.649918 2.147950 -0.471012 -1.509961 -0.192360 1.949190 1.127537 -0.080773 1.483783 2.535750 -1.952090 1.034730 -0.170784 1.346428 0.240450 0.321861 -1.471328 -0.326635 -1.213409 0.995317 0.812634 -0.783130 -1.518518 3.234702 -2.234500 1.658509 0.681045 -0.783756 -0.304039 -0.050447 -2.253732 0.780550 1.069242 0.663647 1.329212 0.166451 0.840073 1.175083 -0.085730 -1.467529 -1.663336 -0.249631 -2.349329 1.274141 -2.108112 0.879948 -0.528419 -0.034254 -1.432337 0.030063 1.143340 0.260065 0.028936 0.063555 -1.472723 -0.264790 0.894067 -0.401485 1.463437 1.612348 1.780362 -0.852786 -1.789588 -0.275866 -1.121310 1.259220 -0.279552 0.732016 1.967188 1.212129 0.259184 0.486638 0.296426 -0.259611 0.258851 1.842830 0.681353 2.333027 0.545877 0.510606 0.646337 0.151777 0.549373 0.913385 0.035647 -1.093268 -0.116074 -0.818680 -0.595415 -0.166617 0.849352 -0.864340 0.068367 0.434377 0.642969 -0.833877 -0.714917 -0.082176 0.498105 0.615501 3.624639 -0.700750 0.694002 -0.904230 -1.649583 -1.539095 0.908310 1.523593 -0.705299 0.348332 -0.600027 -0.385333 -0.248040 -0.663527 1.663095 -1.225888 0.196828 -0.994772 -2.123364 0.368730 -0.119509 0.216870 0.132724 -1.249077 0.579576 -0.063603 -0.486927 0.571197 1.373777 0.604938 -1.056326 1.500935 0.032851 1.265369 0.235415 0.508549 1.214100 -0.417708 -0.023242 -2.699511 -0.383355 0.134692 -0.986901 0.411582 -1.996982 1.564048 -0.740908 -0.508224 0.596801 -0.280503 0.054303 -0.962061 -1.701039 -4.110420 0.645401 -3.729611 -2.655183 0.469606 1.415161 -2.130516 0.547529 1.976051 2.614342 1.553074 0.344007 -0.319729 0.026577 -0.635943 0.129845 -0.266953 0.910881 0.051090 1.581782 -1.883367 1.917828 1.496278 -0.706594 -0.622665 0.707470 0.742739 0.774310 -0.393817 0.486896 0.562410 1.342621 0.847069 1.900348 -1.003316 -0.817749 0.579661 -1.828646 
pants -0.132134 -2.535839 2.101032 -1.138859 -1.206172 -0.208188 0.093824 -0.881053 -1.055001 -1.215069 3.510867 1.414092 -2.753361 0.106644 -0.195894 -0.127288 0.432670 1.672371 1.629853 -3.320688 0.800131 0.755523 -0.142040 1.899008 0.658279 0.574865 1.720408 -1.055081 -0.414404 -0.211447 0.579892 -1.575517 3.491693 -4.195950 0.870874 1.871649 -2.063711 -0.853635 0.130712 -3.233618 -0.771344 2.282431 -1.042835 0.546674 0.021399 -0.868329 0.132087 2.545403 -0.748380 0.200581 -1.452866 -1.868273 0.843232 -1.621989 -0.094859 1.073398 -2.574479 -0.582145 0.398766 0.851328 -1.035411 -0.664690 0.550182 -2.434631 -3.127426 -0.059998 2.191418 0.227563 2.274773 1.293424 -1.684619 0.311690 -0.068799 -1.017654 0.172144 1.375922 -1.938756 2.099463 0.058024 -1.655054 0.996780 2.182238 -0.550061 1.098537 2.039450 2.226325 -0.290385 -0.770142 -0.070510 -1.311306 1.018172 0.625510 -0.182104 0.136122 0.006524 -0.413186 0.588381 0.570090 0.854122 -0.477050 -0.650056 0.670781 0.325442 -0.545313 -0.429615 -0.058469 1.568610 1.136284 1.695597 4.456915 -1.392182 1.415043 -1.100792 -0.635929 -1.509393 -0.327043 0.497591 -0.425989 -0.086593 0.139513 2.129258 -1.552391 -2.428396 1.151698 -1.147572 1.567724 -0.977911 -1.123669 1.338122 1.595450 -0.129069 -1.523684 -1.000519 1.073869 -0.995881 -1.479137 0.813877 0.674027 1.060270 -2.113235 0.558819 0.457628 -0.141694 1.360060 -0.905723 0.002340 0.411927 -0.062645 -1.060805 0.503512 -0.247116 0.636753 0.318528 -0.114065 1.272678 -0.160611 -1.574908 -0.249273 -1.875405 2.313452 0.127579 3.577060 -2.569334 -2.514299 -3.231055 -1.180151 -0.299129 1.349802 0.038582 2.403781 1.918873 2.444989 1.900141 0.316884 2.044861 0.109619 -2.834831 0.456879 1.028389 0.071292 -1.010060 0.966304 -0.182288 1.871628 -1.110236 -1.817388 1.207446 0.340368 0.327219 0.174304 1.300348 1.224283 -2.078993 -0.337775 -0.769674 1.008348 2.360161 -1.449824 -1.934951 -0.378272 
young -1.252730 0.295757 -1.628065 -2.282625 -0.460334 -1.037125 0.664983 0.469149 0.172603 -1.567288 -1.636493 -1.140336 0.767789 -1.613921 -1.974966 -2.435535 -0.932403 -0.320728 0.190874 -0.808022 -1.342709 -0.532180 0.090236 -0.822167 0.538662 -1.210351 0.410154 -0.378800 -0.433419 0.564030 -0.752725 -0.444015 0.346250 -1.317847 1.459159 0.927689 -0.552454 1.952247 1.970274 -0.054780 0.747507 -0.853459 -0.239111 0.547675 -0.758480 0.466425 1.058422 -0.614793 1.101735 0.097440 1.082585 -1.236478 -0.782160 1.470397 0.050653 0.203551 -0.186344 -0.363796 -0.482258 -0.298318 -0.221914 0.799961 -0.005350 0.864306 0.890767 0.705295 -2.770353 -0.277160 -0.228741 -0.946352 -1.217635 0.189785 -2.072064 -0.102293 -1.066921 -1.158162 1.069281 1.069455 0.593746 -0.326518 1.461928 -1.495828 0.825037 0.903870 -1.958329 -1.911632 -0.820207 -0.646542 -1.966252 1.021896 0.330649 0.747681 0.946597 -0.290934 -0.361441 1.371319 -2.717456 0.598504 0.563052 0.030954 0.567790 -0.390711 1.104611 0.281444 1.334311 -1.432686 0.047443 -1.020217 1.858489 2.042538 0.652828 0.477795 -0.147138 0.538590 -0.443408 -0.438151 2.250652 0.076385 -0.312567 0.074333 1.273928 -0.446573 -2.219828 1.235577 0.369035 0.155097 0.459836 -1.242794 0.922324 -0.871480 -1.028684 -0.323321 -1.681114 -0.405493 0.033459 0.900374 0.870552 0.223241 1.280639 -1.203759 -0.794498 -0.580349 0.964164 0.208251 0.461848 -1.097934 -1.080935 -1.047220 -0.743855 0.972254 -1.308810 0.730880 0.601898 0.537891 0.680581 1.527221 -1.814842 -1.932898 -0.036304 0.675151 0.208082 -0.594241 1.905800 -1.087929 2.228050 3.192054 -0.016349 -0.872834 -0.590920 -0.080359 1.886857 -0.796974 0.570368 0.925926 -0.626435 0.175699 -0.083903 1.184324 -2.185715 -1.038569 -0.529795 0.117285 0.566096 -1.406586 0.504626 -2.091192 0.501698 -0.530555 0.973695 0.113231 -1.844495 -1.370204 0.195425 2.436265 -0.795634 1.360986 0.939056 0.252827 1.265398 -1.477059 
it 1.186166 1.686336 -2.409864 -0.803436 -0.638566 1.294552 2.820591 0.416486 -0.251799 -0.204900 1.631750 -0.705339 0.959131 -1.445158 1.104569 -0.649169 -1.155151 -0.964143 0.560037 -1.155621 1.516475 1.112455 -0.706860 0.142571 -0.731723 1.198647 -0.760856 -0.479980 0.335403 1.219792 1.521140 -0.461043 0.400040 -2.280922 -1.566054 -0.980846 -0.426591 -0.482075 0.827296 -1.834607 0.323978 1.735157 -1.626066 -0.434950 -0.874346 -0.578891 1.351331 -0.396826 -0.813658 -0.447131 -0.199317 -0.237728 2.958775 -1.276971 -0.354085 0.559787 2.351820 0.023383 0.582357 -2.108040 -0.309558 -1.012654 -0.681937 0.152234 -1.344177 -1.117348 -0.374104 2.495148 -3.355784 0.362952 -1.111078 0.901007 -0.487158 1.193685 -0.399664 2.230375 2.875779 -0.001523 0.064208 0.798492 -1.944959 0.119875 0.205441 -0.450045 0.914070 -2.767148 -1.993709 0.193569 -0.107693 1.744421 0.385803 -0.513932 -1.268006 -1.022185 -2.243335 -0.272549 -0.412935 -0.258685 -1.247848 -0.133570 0.357239 0.154132 0.293430 0.895573 -1.347887 -1.515941 0.434615 0.660094 0.253936 0.153429 0.463049 -0.644959 0.094475 0.389827 1.002803 -0.165281 2.376364 -1.329866 0.932636 -1.425729 -1.105422 0.298523 1.154164 -0.115224 0.361738 -0.978528 0.979434 -0.515219 -0.412248 1.704929 -1.172251 0.896203 -0.221425 -0.298002 -0.422127 -0.140151 -1.170704 2.739158 -0.031195 -0.541378 0.523284 0.346484 -0.923581 0.734692 1.307707 1.286052 0.709545 -0.372601 1.834737 -0.203144 2.517249 -1.355095 -0.045519 0.738632 1.695502 -1.266039 -0.722327 1.932128 0.037861 0.039319 1.295106 0.247500 -2.181587 -2.525121 0.534235 1.096687 -0.051142 1.450267 -1.811310 -1.600472 -2.617344 -0.080978 -1.028133 3.520547 2.660172 1.097020 -0.743563 -1.959183 1.123232 -0.584279 1.015731 1.097692 -0.293505 0.258424 0.321149 0.592463 -0.158174 1.508955 -1.271230 -1.258043 -1.829818 0.768984 -1.712316 0.573541 -0.797978 -0.092112 -0.345533 -0.384146 -0.220260 -1.435513 
backpack 1.581617 -2.304647 -0.757815 -1.037454 -1.472434 2.406717 -2.178176 -0.969120 1.140525 -0.192803 -0.294653 2.143446 -0.023206 0.676281 1.046560 0.568917 -0.058090 -1.954292 -1.290276 -2.950659 0.166204 -2.514648 -0.103162 -0.100645 -0.890753 0.541736 0.339679 2.736057 0.084860 3.284256 1.289594 0.595055 -2.117692 0.161177 3.243940 -0.675475 -0.319153 -0.412452 1.559107 -1.121976 1.440731 0.772694 -1.892090 -1.352962 0.448212 -1.272669 0.307917 2.250119 -1.445406 -1.518924 1.908219 -1.716739 1.970218 -0.219656 1.898750 -0.058144 -0.207924 -0.525810 1.543171 -2.925526 2.076010 -1.753175 1.161718 -0.084883 -2.787418 -0.982794 0.944536 0.906216 -0.193791 1.973541 2.474415 -0.105434 -1.137607 0.052229 0.484481 1.044971 0.644168 -0.812070 -0.259193 -0.817838 1.606017 -1.032439 -0.331081 0.028544 1.003570 1.440660 0.952330 -0.906336 -0.216548 0.036407 -0.708955 1.185690 2.332025 -1.186998 -0.330030 -0.076968 0.254587 1.109412 -0.249252 -1.486686 0.028341 -0.140555 -0.701694 -2.738204 -1.302926 0.945774 0.825592 1.086296 0.448147 1.246375 1.711178 0.459124 -1.238813 0.803172 0.401630 0.207369 4.357333 0.692765 1.456264 -2.353797 0.458480 0.002060 -2.269387 -0.815028 1.796459 0.181027 -1.357403 0.080385 2.149575 -0.426969 0.125809 -0.663469 -1.553172 1.708185 -1.357892 2.623331 1.030500 -1.032318 -1.623636 2.313550 0.094374 0.511804 -0.647848 -0.445787 -2.976773 -1.109180 1.943544 -1.590049 -0.137188 2.496327 -0.341317 1.496456 0.109513 -1.374132 -0.271908 1.002244 -0.994763 2.856275 -0.824158 1.991697 -1.242339 -0.366535 -1.155980 1.159203 0.904928 -0.011053 2.597075 -0.589905 1.569108 0.263530 1.977519 0.277961 -0.552936 0.839381 0.694615 -0.816380 0.345210 1.526810 1.049310 1.358001 0.162867 2.489526 -0.060417 -0.234245 -1.317894 -1.506659 1.144968 -1.946872 -0.206269 0.475201 2.073451 -1.828890 -1.978345 2.388838 0.958298 -1.280174 0.157034 -0.262782 0.824382 1.524206 
shirt 0.599541 1.515806 0.609143 1.384509 0.369007 -0.779799 -3.086034 0.990996 -0.611336 -1.016661 2.544470 1.402024 -0.501577 -1.159962 -1.804917 1.152344 0.518405 0.650751 -0.029845 0.858017 -0.478146 2.298214 0.306251 -0.732360 -1.144606 -2.077662 0.533535 0.004530 0.190852 1.676515 0.537068 2.039944 1.318333 -0.523758 -0.970897 -1.830683 -2.069673 0.174127 0.667551 -0.079786 -0.106001 -1.454698 0.010691 -1.007858 0.022770 1.959874 0.552689 -0.358565 -0.507380 0.945851 1.036477 1.336275 -1.278992 0.542139 0.863713 -0.261489 0.532078 -0.712687 0.095375 -0.294808 0.745275 1.331689 -0.273719 1.800367 -0.333580 -1.489723 0.689209 -0.485346 -0.454493 -0.246414 0.947926 1.112416 -3.006262 0.405981 0.084642 0.058557 1.819559 -2.026452 1.533298 0.298470 2.061346 0.013152 1.394649 0.096909 -0.427240 0.768163 0.029305 -0.504784 2.053243 -0.210401 1.504781 0.096233 0.298736 0.248389 0.818926 -0.174792 -0.848703 0.444943 -0.957783 -0.104691 -0.553751 -0.354058 0.115286 0.250756 -0.508343 -1.089346 0.844993 -0.972167 -0.123365 -0.775060 -0.828277 0.118603 -0.496368 -0.805952 -1.421075 -0.383640 0.170551 -0.998459 1.181994 -1.266196 -0.484093 1.433166 -1.567781 -1.677240 0.086346 -1.910445 1.417386 -0.875849 1.425018 0.815220 -1.759999 -0.491457 -1.762102 0.184272 -1.419758 -0.035369 1.412740 -0.013521 -0.006294 0.327421 0.012107 -0.804801 0.152068 -0.494817 -0.599098 1.205665 0.772320 0.308385 -1.629857 -0.520051 0.412436 -1.942186 1.813453 -1.714467 1.106747 0.060755 -1.704881 2.620018 -0.667280 1.750278 1.635296 -1.569392 -0.323870 0.582693 -0.382262 -0.329145 1.350430 1.817062 -2.246594 0.061600 -1.164877 1.553732 0.951488 1.849209 1.797885 1.818885 -0.594074 0.886766 0.123366 2.682119 0.027596 1.030226 -1.961221 0.270477 0.401277 -3.419553 1.596352 -2.482525 1.229647 -0.950016 -0.106509 -1.345334 3.343950 2.378264 -0.407205 -2.240778 0.990831 -2.235104 1.249639 2.263031 
brown 0.840458 0.932454 0.766952 0.053164 1.322082 1.950488 1.480679 0.296026 0.307420 -0.607627 0.332520 -1.105040 1.616546 -1.961959 0.429632 -1.051099 1.238218 0.243551 -1.015438 -0.664717 -1.844765 1.128131 -0.411297 -0.030671 -0.175612 -0.529477 0.368576 0.724764 1.952878 0.007907 -0.285737 1.064006 0.075009 1.189011 -0.856125 0.219297 0.329782 2.083002 -0.390614 -0.501902 0.443975 -1.667161 -0.111095 0.587291 -0.209678 0.566360 -0.426728 0.008620 -0.624176 0.081255 -1.924114 -0.921094 0.185644 0.265253 -0.411831 0.290668 -1.476964 0.549217 -0.834332 1.246221 -0.786784 -0.953981 0.032041 -1.700445 -0.353578 1.148868 0.653908 -0.447936 1.222436 1.027560 0.952902 -0.574336 0.238008 0.566871 -0.139588 1.138575 1.017477 -0.124689 0.230356 1.016539 -0.216417 0.008354 0.781545 -0.559183 0.593086 0.359654 -1.027673 0.602840 -0.511879 1.644506 -0.010840 0.415519 0.091997 1.038700 0.543065 -0.377759 0.989240 -0.294881 0.109472 0.061022 -0.364583 0.376240 -0.472874 -0.008706 1.383839 0.408184 -0.617886 0.045099 -0.643062 -0.702393 -0.256520 0.089681 1.446385 -1.093370 0.888166 1.408740 1.517473 -0.620008 -0.705930 -1.612706 0.074018 0.418092 0.476814 -0.408964 -0.048741 0.775379 -0.676435 0.271990 0.849021 0.473686 0.342843 2.441096 1.552329 -1.174529 -1.462465 -0.075131 -1.391272 -0.361046 0.698867 -1.343432 0.374878 0.484931 0.244967 -0.477473 0.738454 -0.895843 -0.756292 -0.201162 0.938664 -1.009149 -1.000157 0.989522 0.292092 -0.407237 0.163548 -0.834032 -0.867431 -1.049377 1.146993 -1.941563 1.053709 -1.700549 2.091367 1.383223 -0.703390 0.047548 -0.814708 -0.532347 0.645092 -0.825841 -2.236202 -0.418608 -0.235950 0.062229 -2.509268 -0.163043 0.375577 -0.880395 -2.677584 -0.309993 -0.590850 -0.165245 1.041690 -0.796657 0.292220 -0.116163 1.483120 1.627867 0.466115 0.359680 -1.346931 0.796360 -0.436361 1.626596 0.599980 0.895654 -1.548901 0.097398 0.037365 1.286906 
back 0.258062 1.569698 -1.615701 0.430154 -1.551072 3.563566 0.233798 1.452220 -0.886765 -0.100833 0.324565 0.939158 -2.010812 2.958050 -0.180620 0.612747 0.044034 2.119210 0.539755 0.694274 -0.738091 3.073945 1.778506 -1.236005 0.095940 -1.027266 -2.331754 0.055930 0.422034 1.502182 -1.909808 -0.434730 -2.260820 -2.998994 -2.675347 2.003281 -1.092794 -0.234917 1.173347 -0.078965 0.228374 -0.111150 1.413971 1.484370 -0.309515 2.782479 -0.476355 0.484936 -0.145829 1.333583 0.620871 -0.082025 1.462239 -0.672011 0.359453 -0.474909 0.789904 1.406545 -2.677408 -2.836634 -0.556258 -1.949225 -0.074670 -1.850335 -0.931588 2.091373 -0.041813 1.189430 -2.255778 0.716181 -0.866871 -1.108705 2.214316 0.488597 -1.912502 -0.591842 1.427342 -0.370915 -2.755190 0.977113 0.942458 -1.058574 0.243180 -0.905341 0.550338 -1.800101 -0.878119 -1.240261 0.130346 1.861669 -0.717961 0.860232 -1.131994 0.137108 -1.208365 0.224339 -2.064810 0.221871 -0.332809 0.317201 1.326152 -0.259846 2.049392 2.680544 -2.364230 -1.189763 2.639546 -0.291511 -3.063038 0.044765 0.148437 0.334346 2.501512 2.001443 3.548321 -0.660984 -0.769942 -0.895907 2.565946 -1.774439 0.632660 1.136363 0.828215 -0.192389 0.068866 -1.690098 1.350012 0.524628 1.057678 1.678637 -1.408599 -1.569036 -0.268116 0.390758 0.542271 -0.746019 -0.717011 -1.965424 2.740273 1.327057 2.740055 1.293913 -0.714986 1.126428 -0.302644 -0.806999 -0.853368 0.201600 2.566419 1.282193 -2.328598 -0.682039 -1.243112 -2.252670 0.001714 -0.112841 -1.245531 0.133932 -1.464771 1.449663 -0.166417 -0.945085 1.640014 -2.482243 -2.469955 3.697495 -1.060302 -0.209081 2.456705 1.374011 1.509073 2.646315 0.879492 0.335979 0.123900 -0.566472 -0.027357 2.026239 -0.659078 -0.356918 1.430500 2.055159 1.979528 -0.532308 -0.652846 0.917548 0.602493 -0.161780 -0.882170 1.005492 2.087827 0.853369 -1.061986 0.935041 2.233628 -0.281672 -0.575955 0.029836 0.169966 0.370697 
girl -1.729647 1.001228 -0.073823 3.019121 -1.017924 1.666506 -1.032257 1.637234 -0.880475 2.038976 1.846796 -1.541528 -0.335865 2.056595 -0.843834 1.829777 -0.723564 2.068604 1.354997 1.188486 -3.178041 2.351160 1.592474 -0.339856 -1.128067 -1.258231 1.395286 -2.038943 1.663446 -0.425357 -2.499274 -1.105758 -1.935534 -1.845090 3.107061 -1.940890 0.694597 -2.388150 -0.553464 3.234000 1.204414 -1.316656 -1.977162 3.584949 -1.165412 -1.746819 0.116298 1.918049 -1.778605 1.372783 1.345657 -1.158719 -1.178627 2.637685 1.656780 -0.946509 1.677726 -0.307456 -0.015254 0.099982 3.103449 1.250589 -0.200186 -0.810769 -0.052665 -0.015405 -0.329204 -1.833180 1.037836 0.518812 0.527740 0.839189 0.776633 -1.158371 -1.994819 -0.865920 -0.066024 0.459438 0.670613 -0.063638 0.802178 0.285210 -1.548694 -1.020304 1.035118 0.223423 1.792362 -0.096424 3.643621 -1.664092 -0.056691 -0.010729 0.760338 0.799199 0.628478 -0.281355 -1.656160 -0.832665 -0.794452 0.099637 -0.366753 -0.575944 0.516315 -0.928887 1.485724 -0.088810 0.790194 0.342723 -0.733857 -0.528919 -0.481452 -0.001224 1.008726 -0.441573 -0.533826 1.583703 0.076649 -0.494094 0.113456 -1.744665 -0.187004 0.157005 1.659777 -1.736588 0.913472 -0.619450 0.546138 -0.274146 0.924241 0.420695 0.424443 -0.451795 -0.173226 0.582731 -1.202294 1.273736 -0.212532 0.874097 -0.429243 0.243522 -0.837530 -1.572248 -0.124336 -1.323771 1.023778 -0.206109 -0.045933 -0.072995 1.278571 -0.014289 2.337805 -1.601352 -0.124950 -0.063747 1.133836 -0.525296 -0.196395 -0.375793 -0.069723 -0.080495 0.734718 -1.380132 2.058290 0.286264 2.828735 3.817828 1.190073 -1.447887 -1.528543 -0.285551 -2.601225 -1.093002 -0.774348 0.510127 0.141936 0.419167 -0.691884 0.104912 0.988774 2.103012 0.420534 0.761704 -0.676470 1.730957 1.730555 0.632691 1.599567 1.984766 -0.551999 0.728293 -1.850983 -0.813911 -0.768632 1.462529 -0.472446 1.219317 -2.838563 0.481124 -0.154943 0.899961 
red -0.094060 1.784663 -1.850381 -1.700430 0.612364 1.988488 1.695690 2.845901 0.086758 0.156998 1.008978 2.668587 0.795860 -1.252597 -0.193075 1.440631 0.020268 0.456580 -0.826643 0.725326 -2.228186 0.811887 -0.066386 1.304474 1.222490 -0.870943 -1.789866 0.248008 0.937084 -1.791150 1.268987 0.127236 1.474291 -0.062030 0.223933 0.256797 0.617269 0.985528 -0.173551 0.061215 0.248895 0.648076 -0.447051 -0.890300 -0.472562 0.936921 -0.169000 2.566439 1.337801 -0.301266 0.582473 0.966254 -0.248456 0.146161 0.001153 -0.027802 0.103951 0.170099 0.442771 0.014343 0.302145 1.020628 0.640012 0.108244 0.597207 -0.277829 2.151051 0.734402 1.814476 0.506418 -0.389110 0.671699 -0.090386 0.730578 0.835617 1.040124 0.794613 -0.415078 0.272606 -0.345697 -1.515129 -0.439460 0.096263 0.657001 1.960203 0.422564 -0.385328 -0.275613 0.211254 0.395140 -0.326447 0.675695 0.305550 0.581353 -0.510809 -0.743183 0.334441 0.050304 0.719087 0.372402 -0.150260 -0.754893 0.605754 1.598552 2.630572 0.209837 0.120383 -0.896503 -0.359042 1.656868 -1.829156 2.538014 1.096454 -1.361328 0.600697 2.157897 1.190363 -0.224538 -1.365899 0.351448 -0.286069 0.423684 0.196891 -0.527640 -0.368529 0.094592 0.190622 0.015932 1.024473 0.154212 -1.231129 -0.138587 0.637344 -0.338797 -0.605630 -0.113710 0.764901 0.489811 0.105154 -0.069715 0.349825 0.050422 -0.411402 -1.107254 1.404672 -0.738824 -0.231513 0.745543 0.502800 -1.211780 -0.109880 -0.977309 0.622730 -1.149057 0.367978 0.069224 -0.395262 0.235238 0.104478 -0.650935 -0.173787 0.325455 0.579625 1.362497 -0.432490 0.253283 -0.012612 0.765373 0.083845 -0.222402 0.605909 -0.642432 -0.207176 -1.054877 -0.614104 -0.052811 1.410999 -0.000206 -1.317968 -0.948290 0.492101 -0.845479 0.362056 -0.834807 0.007500 0.614157 -0.634024 1.987294 1.001809 1.676536 -2.072266 0.503187 -1.095140 0.664241 0.851565 -0.067903 -1.380180 -1.418015 -0.960649 0.576083 
t-shirt 0.100447 0.698577 -0.812368 2.144252 0.044031 -0.555363 -3.988758 -0.300493 -0.193127 -0.340756 -0.370920 0.380098 0.753356 -0.462119 -2.521098 1.391135 -1.536023 1.612770 0.940275 0.641791 0.950754 1.300455 1.964267 -1.586001 -0.155217 -0.546479 1.054049 0.658537 -0.185100 2.655152 1.519750 0.614285 -1.216528 1.794333 -0.786364 -2.897408 -2.509523 0.990342 -0.092390 -0.803718 -1.270048 2.117744 -0.008066 -0.836855 2.366691 -1.484549 0.653880 0.737860 -0.480157 1.025062 0.406094 0.509470 -0.627947 2.542174 1.057790 -1.475852 -0.503141 1.265721 -0.533211 -0.801708 2.888182 0.505576 -0.828338 2.230575 -1.571637 1.222511 -1.548848 -0.434156 0.014413 1.059036 0.271949 0.762239 -2.806468 1.710875 -1.280461 0.862806 -0.940370 -0.480177 0.028420 -0.011173 1.753121 -2.955636 -0.873245 0.494896 -0.076866 0.120844 0.438839 -1.057727 1.533785 0.453207 3.818101 -0.335675 2.488564 -1.636331 -0.558627 2.102803 0.133341 -0.912131 0.088456 -0.726922 -1.352395 0.783765 -0.149275 -0.127491 -1.322350 -0.528815 -0.085823 -0.586637 -0.133924 -0.245403 0.841705 -1.626981 0.014247 -2.275231 -1.709625 -0.083662 0.816732 -0.258387 3.764401 -1.578888 -0.651278 0.829643 -1.647628 0.648391 0.747751 0.208662 -0.549128 -1.067903 2.530901 2.182534 0.987939 1.244729 -2.714522 0.723490 -0.484882 -0.389327 2.461852 0.164499 -0.740898 3.577377 -0.702820 0.110373 0.744890 -0.792913 -0.593048 1.108188 1.242752 0.128565 -0.114812 -0.578987 0.138003 0.459165 0.453384 -2.515499 1.018014 -1.754053 -0.962301 2.684927 -1.381285 1.471839 -0.205145 -0.256922 1.242983 -1.393251 1.967327 2.569404 0.342864 0.237881 -0.058382 -0.075264 -1.219493 2.079486 -0.432672 1.091624 2.539695 1.331543 -1.069589 -0.158270 1.197414 1.207065 -0.204023 1.091095 -2.769214 0.449786 1.311721 -1.340357 0.495262 0.012327 1.187071 -0.549782 1.213895 -0.595252 0.750139 0.828489 0.036612 -1.828013 1.614485 -3.065107 -0.611668 1.240081 
camera -0.600262 -1.592585 0.134297 -0.873457 0.575543 3.939184 1.290501 -2.044378 4.100482 -2.106854 1.401555 -0.730844 -1.044812 2.862996 -0.968876 -2.320298 -1.509844 -0.582936 2.262901 2.806702 0.657217 3.660857 -3.683744 5.816022 -1.459065 0.646998 1.076021 0.124535 0.162413 3.369393 1.737466 -0.502613 1.546279 -1.226366 0.987217 -0.807928 0.544806 -1.459292 -2.128372 -1.481547 0.705802 -2.271998 -2.714307 2.908224 -0.776187 -0.725852 -0.708946 3.896848 -2.738599 -1.629964 3.427606 0.601476 0.565690 0.705086 2.512589 -1.567410 1.070176 -1.070717 -0.030424 -0.633790 4.213144 0.773310 -0.075284 0.018488 0.894998 -0.608228 1.550724 2.032190 0.483372 0.298578 0.144937 -0.340024 2.807934 -1.346351 -2.938789 0.790711 -2.263248 -0.918388 1.589109 -0.665936 1.019651 0.926765 1.912176 0.013351 1.579782 -1.333925 1.275074 1.960018 -0.168079 -2.509379 0.658919 -1.433228 2.617656 -3.068214 1.168091 -0.164041 -0.724517 0.197587 2.187708 -0.252205 0.747401 -0.781361 0.899171 1.263699 -2.094871 2.146430 -1.683141 0.219777 -1.571180 1.537139 -0.285693 0.177880 -1.813747 1.245701 2.743212 0.021647 0.233746 1.664991 -3.027605 -0.900483 -1.393110 0.849099 0.139464 -0.547553 2.443482 2.686615 -0.017471 -0.954114 -0.936519 1.210129 -1.927117 -1.130670 0.209086 -0.283766 0.502260 0.831042 0.279660 0.329660 -1.807922 1.091962 2.344928 -2.689300 2.231472 -1.045687 1.463690 -2.653170 -2.266155 0.163616 -1.594211 -0.413364 2.060119 2.441343 -2.751846 -1.551183 0.576441 -1.435015 0.549560 0.079510 -2.270152 0.090811 -0.678573 2.580268 3.231147 1.066584 2.704406 -0.168337 0.349745 1.050439 0.023325 1.569937 -1.004401 -0.121371 -0.472827 -1.017724 0.650220 -1.052181 -0.473308 0.609279 0.356750 0.694317 2.142222 -0.880857 -0.263873 1.960240 0.289932 -0.752105 -1.235859 -0.557213 0.234425 2.957606 4.423962 -2.716254 -1.240255 3.460797 -0.762497 -0.014972 -3.170509 -0.331704 1.039832 -1.598214 
jacket 1.070029 0.317438 0.253983 1.117728 0.809242 0.776356 -3.729120 1.297881 1.894136 -0.564114 2.418901 1.941027 -1.538457 -0.934350 -0.280980 1.748757 -0.624868 1.244578 0.368126 0.577747 -0.629129 -1.941098 0.339835 -0.999073 -0.109692 -1.999638 0.194179 0.796365 -1.351288 1.510921 -0.510220 -0.028563 0.768802 0.126509 -0.231810 0.003721 -0.098756 -0.294347 -0.039063 -0.061132 1.078911 -0.686801 1.687456 -0.035630 -0.099199 -0.606565 -0.984273 1.478024 0.309305 -0.872467 -0.495292 -1.825792 -0.273630 0.514322 1.222831 -0.484103 0.430804 -0.360739 -0.408947 -0.640611 0.447831 0.276647 1.327047 2.559281 -0.561355 -0.678287 0.128323 0.754792 -1.486363 1.000745 -0.968783 -0.770714 -0.118817 -0.100868 1.817671 -0.454252 0.630527 0.923267 1.186129 -0.789481 0.325477 0.198451 0.798827 0.517077 1.575193 0.164667 0.941640 0.204398 1.303786 -0.546645 0.859680 1.133747 1.440031 -0.328111 -0.122583 0.328682 -0.777052 -1.648471 0.613508 0.890103 -1.481222 0.393227 -0.584656 0.418217 -0.772120 -0.309600 0.109474 -1.089729 1.056785 -0.009749 -1.174485 -0.951330 0.159502 -1.125425 -1.550882 1.139094 -0.974460 0.212996 0.615784 -1.019672 -1.147666 2.062594 -1.887151 -0.680398 0.255037 -0.434201 -0.329385 0.143959 0.170157 1.550008 -0.960148 1.575036 -0.516752 -0.647287 1.246395 -1.812015 0.108769 -0.683810 -0.073128 1.043102 0.841451 1.502606 0.585260 0.421976 -0.656036 -0.371389 0.314339 -1.037148 0.458340 0.759269 -1.085605 0.354628 0.217635 -0.917669 0.162487 -0.135047 -0.266248 1.365167 -1.067658 -0.202573 1.206391 0.246510 2.272308 -0.847389 1.393326 2.621620 0.408280 1.550226 -0.406681 0.040166 1.000545 0.195830 1.166727 1.258424 1.490177 -0.324598 -0.763801 0.131556 -1.269776 1.618504 -0.748119 1.005716 -0.921457 2.226514 -0.695868 -2.964289 0.738676 0.601495 -0.399927 -0.854136 -1.365901 -0.351714 0.222122 1.809164 0.028228 0.465384 -0.016461 -1.710318 -0.011501 1.175884 
