835 200
</s> 0.002001 0.002210 -0.001915 -0.001639 0.000683 0.001511 0.000470 0.000106 -0.001802 0.001109 -0.002178 0.000625 -0.000376 -0.000479 -0.001658 -0.000941 0.001290 0.001513 0.001485 0.000799 0.000772 -0.001901 -0.002048 0.002485 0.001901 0.001545 -0.000302 0.002008 -0.000247 0.000367 -0.000075 -0.001492 0.000656 -0.000669 -0.001913 0.002377 0.002190 -0.000548 -0.000113 0.000255 -0.001819 -0.002004 0.002277 0.000032 -0.001291 -0.001521 -0.001538 0.000848 0.000101 0.000666 -0.002107 -0.001904 -0.000065 0.000572 0.001275 -0.001585 0.002040 0.000463 0.000560 -0.000304 0.001493 -0.001144 -0.001049 0.001079 -0.000377 0.000515 0.000902 -0.002044 -0.000992 0.001457 0.002116 0.001966 -0.001523 -0.001054 -0.000455 0.001001 -0.001894 0.001499 0.001394 -0.000799 -0.000776 -0.001119 0.002114 0.001956 -0.000590 0.002107 0.002410 0.000908 0.002491 -0.001556 -0.000766 -0.001054 -0.001454 0.001407 0.000790 0.000212 -0.001097 0.000762 0.001530 0.000097 0.001140 -0.002476 0.002157 0.000240 -0.000916 -0.001042 -0.000374 -0.001468 -0.002185 -0.001419 0.002139 -0.000885 -0.001340 0.001159 -0.000852 0.002378 -0.000802 -0.002294 0.001358 -0.000037 -0.001744 0.000488 0.000721 -0.000241 0.000912 -0.001979 0.000441 0.000908 -0.001505 0.000071 -0.000030 -0.001200 -0.001416 -0.002347 0.000011 0.000076 0.000005 -0.001967 -0.002481 -0.002373 -0.002163 -0.000274 0.000696 0.000592 -0.001591 0.002499 -0.001006 -0.000637 -0.000702 0.002366 -0.001882 0.000581 -0.000668 0.001594 0.000020 0.002135 -0.001410 -0.001303 -0.002096 -0.001833 -0.001600 -0.001557 0.001222 -0.000933 0.001340 0.001845 0.000678 0.001475 0.001238 0.001170 -0.001775 -0.001717 -0.001828 -0.000066 0.002065 -0.001368 -0.001530 -0.002098 0.001653 -0.002089 -0.000290 0.001089 -0.002309 -0.002239 0.000721 0.001762 0.002132 0.001073 0.001581 -0.001564 -0.001820 0.001987 -0.001382 0.000877 0.000287 0.000895 -0.000591 0.000099 -0.000843 -0.000563 
a -0.050448 0.246171 -0.279151 1.076340 0.191586 0.779742 0.280734 0.932984 0.629931 -0.149465 -0.666501 -0.423675 0.707753 -0.460515 0.015340 0.019555 1.083152 0.044578 1.644513 0.873711 -0.781852 0.625084 1.125093 0.424394 0.266530 1.179066 1.100095 -0.268453 -0.726213 0.431913 -0.540025 -0.154322 0.861390 0.163054 -0.029631 -0.646520 -0.872434 0.291627 -0.465255 -0.712573 -0.336617 0.212566 1.119563 0.468534 -1.122041 -0.141120 0.049719 1.270774 -1.021583 0.084892 -0.863393 -0.037417 -0.084095 -0.401567 0.273750 -1.407436 -0.870982 1.320953 0.019922 -0.442071 -0.346278 -0.200838 0.093740 -0.074913 0.056582 0.443462 0.563577 0.058020 -0.122890 0.350598 -0.999293 -0.306343 -0.163818 -0.237228 -0.800318 -0.049678 -0.252114 0.102764 0.901684 0.683248 -0.464370 -0.345352 -1.096120 -0.554751 -0.124765 -0.528071 0.796792 0.592293 0.238990 -1.651485 0.591918 0.190002 0.136451 -0.743135 0.066642 0.345394 -0.171241 -1.103871 -0.822887 -0.138333 -0.688800 1.339257 0.334210 -0.038801 0.335093 0.043046 -0.624214 -0.664564 -0.320113 -0.141923 -0.024458 -0.212750 0.265197 -0.946297 -0.011377 -0.299835 -1.312706 0.506608 -0.016211 -0.781072 0.341415 -0.671567 -0.324235 -0.016257 0.833695 0.598363 -0.015562 0.565995 0.338008 -0.175471 -0.406713 0.296821 -0.717372 0.246650 1.026995 -0.272458 -0.017924 0.355186 0.454627 0.872061 0.026157 -0.161869 -0.478352 0.194599 1.407595 -0.204009 -0.652479 0.110953 0.801414 0.723238 0.528631 -0.415497 -0.213094 -1.045276 -0.583504 0.490342 0.511724 0.767022 0.332298 0.115391 0.132415 -0.253083 -0.201544 0.168406 0.664531 -0.096680 -0.090905 -0.205302 -0.535075 0.675357 0.275700 -0.803591 -0.634162 -0.846319 -0.556623 -0.482048 -0.659099 -0.950098 -0.151511 -0.414423 -0.347009 -0.155715 0.497957 -0.799954 0.039119 -0.268975 0.128137 0.025515 -0.916890 -0.044883 0.139679 -1.317877 -0.240068 -0.681179 0.268171 -0.496064 -0.680424 0.561345 1.538824 -0.280424 
is 0.668507 -0.471777 -0.948987 -0.189514 0.285791 0.311113 -0.015366 1.718152 -0.714610 -2.077173 1.062462 0.186519 -0.207272 0.229514 1.188001 0.489803 -1.235089 1.223216 -0.362404 -0.027497 0.862339 1.923092 -0.338991 0.268976 1.207197 -0.054256 -0.352728 0.718774 1.370994 0.280012 0.985537 -0.567677 0.531955 0.253036 -0.369773 -1.330111 -0.249479 0.572007 0.175233 -0.007644 -0.677344 -0.323972 -0.093579 -0.274069 0.896013 -0.342752 -0.167995 0.315395 0.425271 0.002311 -1.140283 0.216244 -1.249274 0.790427 0.559387 0.505551 -0.521172 0.065791 0.993513 -0.681637 0.137539 0.327095 1.039127 0.904580 -0.511198 -0.270576 0.292364 0.169276 1.424955 0.683500 -0.019203 0.549012 -0.995259 0.022353 -0.607303 -0.048830 -1.214705 0.030979 1.085706 0.462492 0.696911 0.111462 -0.185064 -0.856959 0.925146 1.088305 0.794356 0.544266 0.563085 -0.116944 1.124252 0.740748 -0.646627 -0.036332 0.148097 0.452858 0.185690 0.842223 0.482750 0.302757 0.263054 0.471164 0.521107 -0.192112 0.590520 0.631149 0.273319 0.627296 -1.629340 -0.227300 -0.268471 0.399785 -1.378138 -0.438806 -0.298021 -0.379386 0.785947 -0.515116 1.390621 -0.006857 -0.424444 -0.496950 -0.111367 -0.314370 -0.156142 0.950011 -0.992483 -0.226675 0.164929 0.393457 0.305880 -0.152992 -0.118293 0.536604 -0.828937 1.085133 0.565094 -0.560302 0.750646 -0.945265 0.227088 -0.112395 -0.675563 0.522263 -0.937948 0.551442 -0.480159 -0.058754 -1.454291 -0.782874 -1.099232 -0.319920 0.314170 -0.756188 0.641565 -0.477264 1.328217 -0.627157 -0.951017 0.905992 0.023566 0.447290 -0.115977 0.090558 0.654627 0.437311 0.902289 0.540960 0.684546 0.797807 1.408993 0.741673 1.289172 0.804121 -0.813845 -0.403825 0.117934 1.268913 -0.957087 0.067315 0.618009 0.872209 0.327776 1.429487 0.905687 0.701915 -0.712123 -0.125328 1.051239 0.356739 -0.362937 0.096158 -0.909096 -1.127827 0.157811 -0.130670 0.319110 -0.839040 -0.775714 -1.399303 
black 0.122236 0.511750 0.106037 0.056539 -0.655859 0.842594 0.606479 -0.146014 -0.296380 -1.364448 -0.432957 0.278820 -0.672029 -0.467873 0.708657 0.008403 0.264214 -0.157923 -0.655986 -0.074455 -0.373681 0.139513 0.372269 0.391830 0.086575 -0.679727 0.366570 1.020617 -0.342124 0.430012 -0.455281 0.295363 1.710009 -0.598710 -0.455789 -0.676346 -0.523004 -0.617065 -0.098136 -0.245495 -0.755316 0.168565 1.142445 -0.191202 0.367225 -0.098955 0.578550 0.678601 -0.556864 -0.337057 1.234913 0.152899 -0.384601 0.141305 0.077589 -0.548675 -1.042103 -0.923670 -0.032937 0.429269 0.140664 1.178757 0.107718 0.553291 1.380280 0.316570 0.046580 -0.473525 0.355696 -0.582054 -0.462928 0.526846 -0.288133 0.247202 1.333219 -0.315078 0.725627 -0.144842 0.536003 0.035236 0.272640 0.338298 0.060646 -0.054488 -0.148745 -0.975272 0.010332 0.223394 0.495285 -0.351825 -0.002175 0.759874 0.145425 -0.161532 0.182923 0.449496 -0.335797 -0.158658 0.993983 -0.173023 0.845578 -0.591419 -0.315242 -0.524099 -0.270696 0.548258 -0.170993 -1.064010 0.854196 0.898043 -0.244995 -0.220134 0.316863 0.656785 0.817455 -0.296366 -0.259979 -0.511187 -0.008554 -0.097817 0.388998 0.839421 -0.813769 -0.030129 0.097222 -0.481723 -0.071447 -1.322044 0.758764 0.038579 -0.619692 -0.406121 0.125087 0.461955 0.063538 0.302761 0.777028 -0.315868 -0.677401 0.077545 0.164842 0.396965 0.427690 0.592267 0.503607 -0.024963 0.128178 -0.152806 0.767959 0.257725 -0.162502 -0.118432 -0.021587 -0.241789 -0.605846 0.408211 -0.163992 0.210473 -0.195295 -0.333520 -1.242821 0.134069 -0.710547 0.416250 -0.728757 -0.014729 -0.780416 0.213086 -0.021604 0.119466 0.704351 0.806163 -0.474242 -0.008426 0.010197 0.020053 -0.863751 -1.490922 0.270740 -0.382635 -0.187427 0.772994 -0.405006 0.356643 0.332702 0.753673 0.079301 0.740912 -0.363396 -0.019398 -0.910521 -0.028268 0.456090 -0.055760 1.183219 0.591188 0.009016 -0.309078 0.077440 0.314920 
and 1.300431 0.344565 0.416197 -0.557477 0.289258 0.392388 0.007496 -1.529243 -0.034527 0.633823 0.270337 0.302891 1.079598 -0.206439 -0.911568 0.797291 -0.393148 -0.156786 -0.464644 -0.749710 -0.503649 0.662284 -0.772434 -0.115479 0.095484 0.965959 -0.963884 -0.759974 -0.284804 0.644384 1.032786 -0.346550 -0.228009 -0.519446 0.930971 0.127289 -0.097741 -0.044154 -0.155895 0.308482 0.209066 -0.259483 -1.080528 -0.113992 0.064200 0.282406 -0.230726 -0.214821 0.676139 0.045061 -0.197104 0.367848 0.356646 -0.463242 0.155648 0.530435 0.407796 -0.371364 0.208936 -1.082783 -0.507169 -0.550459 0.282194 0.026225 -1.185720 -0.323797 0.154512 0.215093 -0.334326 0.064115 0.370642 -0.411925 0.148939 -0.378909 -0.347866 0.288232 -0.248925 1.215971 0.229335 0.641572 0.534865 -0.346709 1.556233 -0.058701 0.371193 0.910474 0.283138 -0.198590 -0.437754 -0.118108 0.289591 -0.120992 -0.218879 -0.304392 -0.301008 -0.603244 -0.196943 -0.121240 -0.315240 0.656177 -0.851064 0.616491 0.045358 0.173832 -0.250305 -0.389365 0.416596 0.081321 -0.277251 -1.132620 -0.065219 -0.837708 0.886157 0.104821 -0.105723 0.133631 -0.251019 -0.884898 0.366303 0.054207 -0.097295 -0.067364 0.443614 0.585927 0.718147 0.202939 0.491340 -0.079990 0.273481 0.700646 -0.510343 -0.137999 -0.019199 -0.693120 0.447732 0.035565 0.484409 -0.108686 0.633186 0.295948 0.011501 0.186528 -0.858220 -0.606544 0.028387 -0.492943 -0.491856 0.142712 0.021475 -0.278338 0.703468 -0.980386 0.048747 -0.097433 0.189371 -0.664747 0.213584 -0.156759 0.511647 0.098910 -0.140422 0.321723 -0.251279 0.505901 -0.090079 -0.574216 0.348320 -0.200914 -0.496110 -0.468218 -0.507330 0.470232 -0.279560 -0.054098 -0.317464 0.056763 -0.053107 -0.118584 0.036537 -0.207566 -0.034911 -0.116160 0.527032 -0.399795 0.097763 0.211953 0.510771 0.833397 -0.157120 0.200310 0.460978 0.399332 0.791603 0.241801 0.553472 -0.623355 -0.128481 -0.613386 0.401219 -0.103525 
with 0.685069 0.555506 0.740689 -0.365242 1.114727 -0.178427 -0.457578 -0.878965 0.057863 1.353778 0.579714 0.359823 -0.366146 -0.004072 -0.968149 1.177490 0.168985 0.470025 0.651017 0.557947 -1.120402 -0.375415 0.080974 -0.635053 0.239747 0.682226 0.271592 0.105557 -0.848819 -0.530300 0.527764 0.947046 -1.188738 0.477541 1.143670 -0.616621 0.565364 0.374428 -0.062135 0.866704 -0.450292 -1.522516 -0.608772 -0.417525 0.628784 0.163811 -0.138764 -0.611452 1.021264 -0.170762 -0.511516 -0.858811 -0.011262 0.864869 0.090486 -0.203744 -0.399361 -0.113758 1.461858 -0.091426 -0.924296 -0.393967 -0.319346 -0.255756 -1.068370 0.278218 -0.039168 0.349024 -0.211819 0.975748 1.155509 -0.891549 -0.099713 -1.852978 0.158745 0.204060 -1.706205 0.232218 -0.153901 1.512740 0.125745 -1.154616 1.666020 -0.184768 0.582950 1.549535 1.965755 -1.435643 1.037973 -0.023053 -0.609432 0.191009 0.444420 1.047243 -0.408428 -0.944808 0.061138 0.072347 -0.298042 0.533788 -1.075573 1.201742 0.112340 0.930647 -0.191737 0.038697 0.127352 -0.086160 -1.117813 -1.504443 -0.371218 -0.500643 0.312196 -0.636991 -0.702805 0.575422 0.909009 -1.281669 0.077218 -0.046283 -0.612859 -0.031203 1.194062 -0.148258 0.430237 0.094994 0.722261 0.380681 0.751902 0.407906 -0.201629 -0.268233 -0.400369 0.000110 0.067882 0.245480 -0.346603 -0.240858 -0.063500 -0.853404 0.612761 -0.395285 -0.384843 -0.639697 0.016625 -0.775561 -0.813362 -0.295454 0.027675 0.243889 0.236467 -0.986021 0.780452 0.027030 0.885075 0.380130 -0.290818 -0.696694 -0.242939 -0.250138 0.494408 -0.695235 0.459726 0.502650 0.333525 -0.171330 0.529381 0.214869 -0.538669 -0.362593 -0.034374 -0.555021 -0.653612 -0.136950 -0.492938 -0.080705 -0.286426 0.318212 -0.905825 0.131184 0.197337 0.355318 1.010233 0.010170 0.592316 0.219369 0.840413 0.242338 0.034624 0.718915 0.344209 0.868125 0.389897 -0.571665 0.039380 0.396330 0.470430 -0.906499 -0.100737 0.399404 
he 1.518443 1.548514 0.769585 0.506601 0.249461 0.110325 1.045109 -0.175642 -0.753661 -0.338140 -0.656175 -0.987424 1.228957 -0.379717 -0.498824 0.521712 0.725897 -1.491127 -0.364457 -0.754360 0.499237 -0.902209 -1.727268 -0.849953 -0.857390 1.821656 0.192653 -0.333810 -0.459975 -0.192044 0.250793 -0.050737 1.215510 -1.509879 0.157235 0.749201 -0.102146 0.355221 0.959839 -0.479711 0.681716 0.219155 -0.401001 -0.057844 -0.268822 0.848203 -0.508487 0.631359 0.626030 0.229214 0.094988 0.942292 -0.337503 -0.876230 0.252419 0.190651 0.299126 -0.357374 -0.418936 -1.127093 -0.069074 -0.778094 -0.755412 -0.038772 -0.770086 -0.008334 -1.034547 -0.267626 -0.382790 -0.089790 0.202895 -0.228239 0.120397 -0.454409 0.000829 0.035888 -0.990825 0.988977 -1.396329 -0.147383 0.305297 0.007329 0.935035 0.452756 0.062166 0.141492 -0.980026 0.392169 -0.507875 0.812883 -0.024288 -0.459523 0.384978 -0.882436 0.197194 -0.341142 0.918013 -0.175193 0.461661 -0.285305 0.509251 -0.827916 -0.366514 -0.337403 0.610810 -0.367563 0.123679 0.124111 0.303176 -1.198355 0.290254 -0.734384 1.166073 -0.943105 0.157076 0.006069 -0.516191 -0.138015 0.751301 0.249280 0.958853 -0.461490 0.666986 -0.228602 -0.197842 0.248593 0.569750 1.676160 -0.468401 -0.525082 -0.005793 0.403664 0.367059 -1.208972 1.127947 -0.514038 -0.391723 0.489930 -0.108762 0.465766 -0.259838 1.042684 0.674579 -1.070073 0.997361 -0.970089 -1.040962 -1.091315 2.229007 -0.796959 0.601472 0.037319 -0.672685 0.502530 -0.983307 -0.036355 -0.274019 0.153206 1.072073 -1.002725 0.406691 -0.169025 0.652418 0.232192 -0.780161 -0.098487 -0.169753 -0.229000 -0.468376 0.455593 -0.025472 0.662934 -0.999988 -0.989567 0.179075 -0.660372 -0.318699 -0.678459 0.152305 -1.380075 -0.306460 -1.444394 0.472172 -1.019848 -0.462416 -0.310696 0.749007 -0.377144 -0.311592 -0.918908 -0.096518 1.252257 1.967814 2.571632 1.570477 0.675451 -1.758376 0.693849 1.027147 0.603602 
wearing 1.937016 0.752730 0.490267 -0.173171 1.105526 -0.927076 -1.227066 -0.521626 1.976766 2.966693 -0.036161 0.118059 0.801034 -0.150522 -0.893636 -0.255808 0.094005 0.440640 -0.839077 -0.353875 -1.837306 -0.109315 -1.598384 -1.200630 -0.361486 -0.914760 -1.314448 -0.722850 -0.263481 -0.120544 1.117428 0.400846 -1.026038 0.034797 1.185301 -0.525844 0.646761 1.506658 -0.372525 0.029387 0.181886 -0.379459 -0.699882 -0.508184 0.852735 -0.000446 -0.292775 -1.142658 1.507718 -0.155233 1.297570 0.100228 1.366781 -0.677789 -0.902153 -0.209498 0.970171 0.027479 0.242733 0.328024 -0.566797 0.826981 -0.614163 -0.215734 -0.733743 0.210325 -0.944887 1.162705 -1.118584 -0.259415 1.045352 -1.586294 -0.214102 0.289906 -0.524932 -0.135782 1.436591 -1.074338 -0.810329 0.323446 0.173259 1.040107 1.521125 -0.505116 -0.612698 -0.033418 -1.481091 -1.036172 0.491075 -0.040290 -0.284464 -0.654570 1.011954 0.908957 -0.355546 -0.304074 -0.299479 0.814313 -1.218978 1.291402 -1.555161 0.276434 -0.002336 0.477987 0.122869 -0.818283 -0.114140 1.075201 -0.083786 -0.083765 -0.027698 0.723674 0.048503 1.576215 -1.361234 1.833504 -0.140049 -0.721886 -0.463042 0.835732 -0.689040 -0.085047 -0.139267 0.267517 0.347146 -0.465337 0.828039 -0.398716 0.323987 0.557032 -0.497973 -0.157862 0.598745 0.090757 -0.195576 -0.521543 -0.589143 -0.761275 0.170153 0.260394 -0.419324 0.058523 -0.277267 -0.796311 -1.164677 -0.395508 -0.385054 1.019485 -1.022724 0.915197 0.281990 -0.015575 -0.686371 -0.641413 0.825917 0.132856 -1.538076 -0.852875 -0.196168 -0.375571 0.207216 0.842067 0.228330 -0.333002 0.626736 -0.705158 -0.660356 0.482456 0.308688 -0.937113 -1.240160 -0.598455 1.091627 -0.277368 -0.446274 -0.877394 -0.138489 0.496029 -0.135799 0.608366 -0.657745 -0.280850 0.752651 -0.316670 -0.895395 -0.677375 -0.012468 0.534293 -0.109003 -0.472691 0.291715 0.668481 0.430037 0.573098 -1.512221 -0.308824 0.609847 -1.187084 -0.050899 0.612754 
his 0.798268 -0.360654 0.171589 1.124394 -0.379037 -1.598370 0.012409 0.220533 -0.431999 1.167736 -0.397438 0.191176 0.727152 0.014404 0.752513 0.073069 0.154738 -0.539771 -0.136342 -0.627189 -0.584645 0.777026 0.264309 0.432917 -0.120064 0.371631 -0.203677 0.499045 -0.398942 0.114524 0.084425 -0.482710 1.049373 0.034571 -0.952713 0.468240 0.327586 -0.037777 -0.247867 -0.460127 0.480699 -0.979598 0.213024 0.830685 -1.056532 -0.165626 -0.287988 0.621196 0.387215 0.347493 0.185304 0.205296 -0.484789 -1.269845 0.314024 -0.124939 0.520862 -0.344870 -0.443238 -0.522073 0.958487 -0.460429 0.787989 0.969560 -0.728913 -0.264224 -0.646442 -0.424540 -0.014965 0.040272 -0.407284 -1.035617 0.378036 1.058350 1.485515 -0.038117 -0.213642 0.373521 -0.857886 0.480544 0.227314 -1.309795 1.109802 -1.254315 -0.374965 -0.729160 -0.988005 0.676465 0.102155 0.398674 0.135699 0.280823 -0.247154 0.758690 -0.133304 -0.281183 1.368447 -0.825598 1.104213 -0.293478 1.749888 0.383030 0.637614 -0.054210 -0.420547 -0.389939 -0.471770 0.891794 0.502985 -0.938883 -0.537344 -0.203790 0.633158 0.458544 -0.002924 -0.367094 -0.155173 0.861970 -1.169697 -0.564373 0.612907 0.303778 -0.199338 -0.320221 -0.268181 -0.143957 -0.539216 -0.816819 -0.505778 -0.444843 -1.182710 0.666128 0.082833 0.890787 -0.074431 0.043736 0.415096 0.387663 -1.973337 0.654570 -0.281261 -0.166887 0.725603 -0.046317 0.520853 -0.537449 1.922544 0.855087 1.254261 -0.129284 1.242529 -0.177076 1.182986 0.172711 0.306441 0.686213 0.038633 0.826153 -0.225594 -0.681054 0.996678 -0.325426 1.263984 0.552627 0.018331 0.880420 1.923104 -0.597362 -0.697227 -0.596613 0.645840 -0.285206 -0.932155 -0.825871 0.142050 -1.204171 -0.584651 -0.952224 0.707044 -0.241857 -0.683098 0.991637 -0.232873 -0.001718 0.026823 0.385327 -0.656699 0.386877 0.694730 0.647448 -1.562103 0.097011 0.004877 0.625067 -0.391071 -0.395866 0.331701 -0.484919 0.237456 -0.318357 
she 1.738597 0.461266 0.514760 -0.251590 0.491506 0.460367 1.133782 0.281529 -0.942894 -1.480234 -0.658320 0.056750 1.043808 0.903694 -0.487077 -0.081155 -0.169712 -1.220625 -0.672888 0.237980 0.548078 0.018821 -1.110329 -0.726446 -0.095465 1.708983 -1.168894 -0.653281 0.194251 -0.068780 0.511130 -0.227854 0.322083 -0.577544 1.035376 1.178584 0.015976 -0.499855 1.099809 0.172175 0.939766 -0.536147 -0.681094 0.026759 -0.309405 0.474358 -0.238435 -0.123675 1.268224 0.410694 1.105845 0.786951 0.172199 -0.845608 -0.235026 0.031508 0.333227 -0.323368 -0.660579 -0.259627 0.359959 -0.509816 -0.885826 -0.039228 0.249076 -0.410207 0.607704 -0.941424 -0.505789 -0.423605 -0.523860 -0.442850 0.648532 -0.496743 -0.290965 0.256514 -0.775464 0.857553 -1.259459 -0.103865 -0.112736 0.117164 1.232953 -0.318282 -1.362623 0.361051 -0.156806 0.407596 -0.656637 0.676306 -0.704506 -1.024993 -0.292428 -0.416705 0.017908 -0.186954 0.007656 -0.015425 0.390954 0.239222 -0.078774 -0.687464 -0.944194 -0.359741 0.549806 -0.617143 -0.274445 -0.222646 0.840953 -1.621776 0.767888 -0.555932 0.987294 -0.746663 0.676233 -0.215210 -0.015505 -0.458390 0.704885 0.227633 0.129104 -0.423847 1.410776 0.603919 0.070374 -0.133352 0.858141 1.512143 0.295931 -0.439367 -0.278771 -0.321382 -0.034144 -0.836390 1.575115 -0.191262 0.078423 0.916188 0.131591 0.802947 -0.631781 1.041306 1.201863 -0.995089 0.082943 -1.381650 -0.979830 -1.054073 2.214084 0.092368 1.166184 0.090481 -0.280359 1.316088 -1.175552 0.201239 -1.218574 0.197260 1.393286 -0.665750 -0.107663 0.785495 0.558476 0.395616 -0.364292 -0.403960 -0.660405 0.026269 -0.431537 0.270548 -0.008459 1.605641 -0.939791 -1.467579 0.076364 -0.738537 -0.162538 -1.505510 0.454292 -1.186475 0.260698 -1.261974 0.582973 -1.310183 -0.846861 -0.063615 0.371284 -0.135682 -0.155666 0.170164 0.356089 0.707117 0.621105 2.874167 1.376812 0.241222 -2.004901 0.380458 0.887651 0.129030 
of 0.409701 -0.213440 1.046834 0.820310 -0.654516 -0.187052 -0.190788 -2.030264 -0.275620 2.224420 0.961974 -0.115033 -0.648048 -1.793534 0.042129 1.302912 -1.342938 0.579657 -0.063720 -0.881922 0.086045 0.006522 -1.354243 -2.013375 0.677737 -0.188033 -1.030383 -0.794684 -0.093142 0.167215 0.118421 0.365776 -1.909299 0.841059 1.111092 0.419228 0.684428 -0.906281 -0.649608 0.943971 -0.106338 -1.437405 -1.671441 1.072707 -0.345926 -1.272471 -0.256961 0.339821 0.325955 -0.345106 -0.711661 0.200388 -0.798117 2.025343 0.640540 -0.845028 0.785291 -1.101394 -0.114743 0.086879 0.676250 2.204970 -0.868116 2.212627 -0.854057 1.133242 -0.661657 0.627017 -0.354937 -0.066472 -0.213137 -0.430858 -0.544851 -0.383572 0.232723 0.044270 -0.024180 -0.225271 0.846847 0.438507 1.222302 -0.559099 0.267020 0.142261 0.115124 0.455511 0.080803 -0.794385 0.660284 0.069700 -1.624524 -0.354016 0.269849 1.587480 0.086390 -0.047716 0.425260 0.217498 -0.874339 0.185739 -0.944947 0.234034 -0.265129 -1.163204 -0.305719 0.099297 -0.408296 -0.260593 -0.705992 -1.910136 -0.597065 0.321618 0.738862 1.817852 -0.463195 1.051498 -1.155486 0.197975 -0.919730 1.613807 0.075041 0.046794 0.217007 0.715688 0.174473 -0.666359 2.359780 -0.003418 0.174793 2.026983 0.062916 0.864477 -0.259974 -0.500545 -0.943283 -0.310541 -0.547167 -0.959165 0.919333 0.114658 -0.710505 -0.336621 0.003584 -0.682502 0.170422 0.518643 -0.440520 0.950508 -2.466547 1.177543 -0.228934 0.451567 -0.148105 -1.163894 0.486045 -0.845588 0.138768 -1.878361 -0.139250 -0.090782 0.400189 0.174477 0.255223 0.043461 0.572691 -0.878543 -0.060724 1.723043 -1.155946 -1.114054 -1.287597 0.843621 2.280534 -0.792961 -1.462711 -0.589181 -0.236765 -0.049386 0.744290 0.838799 0.746746 -0.034895 -0.571468 -0.223065 0.489245 -0.668515 0.632873 0.577234 0.182048 0.185037 0.234890 0.924995 2.231963 -0.417396 1.647794 0.495505 -0.854903 0.032207 -0.368753 0.859681 
the 0.033104 0.128813 0.349342 -1.439804 0.896818 -1.220157 0.373699 -1.044587 -0.286618 0.076217 -1.172459 0.123221 0.794570 -1.007507 0.065630 1.582848 1.011485 -0.006364 0.464317 -0.828720 -0.242919 1.450520 0.258236 -0.259102 0.779769 1.778766 0.303052 0.099412 -1.287296 -1.343644 -0.245927 0.839599 1.168068 0.918350 -0.606282 0.457135 -0.463115 0.865616 -0.245315 -0.073414 0.027799 -1.054165 0.836459 -0.326686 -1.100754 -0.604482 -0.261434 -0.414301 0.196531 0.051681 -0.817138 -0.529575 -0.247863 -0.694464 -0.064720 -1.066546 0.589299 0.125544 -0.367516 -0.753712 0.429922 -1.095828 0.399447 0.579060 -0.594961 0.434234 -0.037391 -1.145724 1.007330 -0.502933 -0.165290 -0.108813 -0.073319 0.185335 0.264747 0.318779 -0.656219 0.039215 -0.403795 0.384046 -0.754912 -1.231055 0.024384 -0.262960 0.359894 -1.315124 0.648137 -0.514499 0.445117 0.615574 0.178714 0.097417 0.003475 1.135419 0.227593 -0.393116 0.528533 -1.277712 0.184906 -0.401474 1.045506 0.603937 0.173975 0.486166 -0.021389 -0.162166 0.197552 0.863088 0.499611 0.783983 0.094912 0.532839 0.247557 0.274586 0.544234 -0.069623 -0.051228 1.212689 -0.504238 0.413527 0.187385 0.186960 1.189150 -0.959164 0.157269 -0.138803 -0.633231 0.282893 1.131691 -0.149633 -0.217245 0.239308 0.074963 0.370876 -0.700102 0.203407 0.231551 0.682247 -1.222429 0.229557 0.008611 0.011211 1.291305 -0.760689 0.363339 -0.469373 0.891848 -0.553045 0.320226 0.752274 0.361364 -0.294439 1.102316 1.170858 -0.011459 0.474283 -0.400498 0.944034 1.118049 -0.098029 0.617253 -0.563252 -0.258540 0.857192 -0.121840 -0.114671 0.585616 -0.333066 0.379293 0.742017 0.346869 -0.338588 -0.047598 -1.385883 -0.678221 -0.676300 -0.400634 -0.062386 -1.501450 0.323412 0.326407 0.672816 0.272131 -1.027405 -0.272402 -0.217666 0.053849 -0.884746 0.667344 -0.753902 -0.447495 -0.567738 -0.058262 -0.500920 -1.347569 0.823980 -0.011728 -0.095443 0.124077 0.779878 
white -0.597792 0.381910 -0.355977 0.968067 -1.798102 0.126952 0.594812 -0.034545 0.233889 0.048871 0.188295 0.655316 0.099281 -0.801263 -0.086432 -0.106955 1.302148 -1.010298 -0.424480 0.398220 0.326736 -0.999469 0.636997 0.408315 -0.127040 0.241707 0.038215 -0.330094 -0.399882 -0.639860 0.467362 -0.041234 0.030912 -0.780077 0.004030 0.293596 -0.578603 -0.579616 0.000171 0.175897 -0.054933 -0.933492 0.995660 0.444519 -0.694467 -0.243169 0.473848 -0.261996 -0.962624 -0.208570 -0.398279 -0.268957 -0.905607 0.161402 0.297530 0.018428 -1.248630 -0.883270 -0.469423 0.877106 0.186908 0.703790 0.063386 0.820948 1.131404 0.512150 0.201066 -0.130887 0.416195 -0.376213 -0.975176 0.492780 -0.241924 -0.093964 1.407732 0.052762 0.494747 -0.070479 0.074698 -0.582992 0.054385 0.204646 -0.766905 -0.126731 0.732862 -0.911550 -0.298164 -1.033676 0.663596 -0.099946 0.454496 0.383086 -0.685295 0.487191 0.020456 0.470215 -0.233385 0.160609 0.788253 0.315711 0.131282 -0.578685 -0.149014 -1.087824 0.025066 0.730221 0.777993 -0.412197 -0.278539 1.822741 -0.086877 0.459210 -0.507537 0.414259 0.536479 0.067022 0.397542 -0.418622 1.561654 0.539685 0.145450 0.823641 -0.658761 -0.763064 -0.709997 -0.247911 0.028425 -0.202493 0.143835 -0.201906 0.070206 -0.438729 -0.036916 0.977548 -0.292088 0.931302 0.743109 -0.354006 -0.393109 -0.493403 1.279110 0.004758 -0.403962 0.660293 -0.536337 -0.116806 -0.476894 -0.018463 -0.399837 0.695138 -0.655938 0.441163 0.208647 -0.071093 -1.268067 0.367598 -0.604182 0.605720 -0.181301 -0.585898 -0.141239 -0.529718 0.388245 -0.221430 -0.085073 1.509062 -0.070060 0.287306 0.213798 0.744237 0.831760 0.944892 0.248017 -0.156270 -0.579269 0.054598 -0.340891 -0.827477 -0.018871 -0.257353 0.362177 1.644774 -0.392904 -0.378575 0.520037 -0.102607 0.094685 0.197275 -0.760383 -0.339473 -0.323385 0.301567 1.032475 0.306179 0.707612 0.761417 -0.450934 -0.039296 0.717087 -0.166720 
on -0.131078 -0.101620 0.717206 -0.616647 0.199155 -1.497191 0.594983 -1.878887 0.992891 0.399794 -0.776934 -1.626085 -0.149571 1.191196 -1.497033 -1.504723 -0.945884 -1.120396 -0.362996 0.553327 -0.789661 -0.695654 -1.518843 0.427624 -0.362006 -0.196146 -0.652098 0.220869 0.652803 0.554343 -0.136123 0.832914 -0.359726 0.659944 -0.095591 1.581017 0.291972 -0.573007 -0.818368 0.791745 -0.635269 0.586850 0.872675 -0.355209 0.247244 1.018278 1.335175 0.794402 2.199664 0.350417 0.303242 -0.144875 0.387710 -0.765386 -0.929881 0.463175 -1.213821 -1.224065 -0.122358 -1.010416 0.406987 -1.841169 -0.139435 -2.449419 -0.554878 1.354378 1.661422 -1.310195 0.844433 -0.320742 0.569778 0.192740 0.464332 -1.181679 -0.092601 -0.874402 -1.155168 1.393283 -1.445835 0.633692 0.758413 0.160739 0.529607 0.010648 0.921619 0.888414 0.226156 -0.883578 0.073840 -0.250243 0.367028 0.215568 -0.553855 0.250946 -0.083040 0.774994 0.366322 0.444302 0.156188 -0.454212 0.473820 0.625526 -0.062827 0.566911 -1.112477 1.104552 -0.504431 -0.169792 -0.286680 -0.528940 0.366145 -0.704425 -0.851000 -1.341917 -0.522140 -0.966405 1.477305 -0.630649 0.423984 0.000733 -0.688380 -0.253459 0.291139 -1.141720 0.846135 -0.064056 0.863162 0.456489 -0.049990 0.310002 0.175577 -0.076292 0.682158 -0.419668 -0.632150 0.378546 0.543557 -1.669134 0.567230 -0.290593 1.061639 -0.767613 -1.704245 -1.197765 0.119893 -0.044728 -1.797679 1.044642 -2.003274 -0.259963 -1.088819 -1.081040 -0.141789 -1.351579 0.234120 -0.902512 2.025460 -0.554623 1.168338 0.614442 -0.550019 -0.576892 0.835735 -0.257216 0.179951 1.405691 1.496189 -0.466521 0.903531 -0.050535 -0.110074 -0.609681 -2.035559 0.727160 -1.371105 -0.247951 0.656035 0.880273 -0.491607 -0.755029 0.270010 0.310931 1.362111 -0.617088 0.327527 0.817069 0.538003 0.100549 0.965459 0.468820 0.598750 -0.484566 0.638226 -0.854008 0.596720 -0.268617 -0.400910 0.345581 -0.856832 0.774004 
hair 0.190948 0.169254 -0.963740 0.340082 -0.337285 1.092625 -0.062061 1.454567 -0.282567 0.358166 0.232913 1.389225 -1.004635 0.954922 0.461780 -0.683647 -0.940089 1.221478 -0.661474 0.359470 1.018386 -0.280117 -0.501642 -0.841629 -1.062480 -1.036558 -0.079698 -0.450277 1.161697 0.580265 0.372578 -0.521333 -0.534808 -1.237452 0.585002 0.737684 -1.221912 1.068495 1.003540 0.121574 -0.540318 0.562632 -0.473578 0.367306 -0.409929 -0.710964 -0.828116 -0.656483 -0.597693 1.319289 -0.083853 0.528398 0.090709 0.995123 -0.418145 0.094518 0.127904 0.507493 -1.110149 0.705023 -0.012043 -0.035173 -0.614230 -0.106123 -0.384406 -0.376932 -0.768376 0.083667 -1.294167 0.063810 -0.280470 -0.127193 0.936106 0.038152 -1.533099 -0.077838 -1.335943 -0.208335 -0.337491 -0.724395 0.072331 -0.618466 -0.441193 0.747658 -1.365565 0.719904 -0.151554 0.414081 -0.662569 -0.237708 -0.163518 0.195923 -0.204016 -0.538459 -0.240092 0.016288 0.433804 1.512770 -0.071952 0.302336 1.122709 -0.953619 -0.432444 -0.497023 -0.016947 0.441531 0.175543 -0.309800 0.488496 0.372536 1.415832 0.290589 0.363248 -0.058269 0.369972 0.836117 1.280857 0.202861 -0.029508 0.385395 0.175386 0.762749 0.055179 0.225769 -0.321801 0.469710 0.635439 1.046941 -1.134515 -0.045985 1.775430 -0.681541 0.731093 -0.112653 0.051447 0.469624 0.123751 -0.046588 0.109669 -0.233459 -0.326307 -0.385519 -1.321606 0.603712 -0.598696 1.094914 0.662004 0.186520 0.250556 -0.946080 0.316775 0.686445 -0.760962 -0.292198 -0.796365 0.016162 0.723766 0.769102 0.564383 0.705786 0.008426 -0.423501 -0.257617 -0.364773 -0.247667 -0.662460 -0.918524 -1.560702 -0.236224 1.112964 -0.723596 0.009572 0.120151 1.069316 0.688671 0.789286 -0.201624 -0.285067 0.614368 -0.303727 -0.308822 -0.165373 0.379475 -0.506451 0.576561 -0.589909 0.735900 -0.291787 0.137462 0.649527 -0.040043 0.220664 -1.241118 0.759042 -0.062470 -0.732717 -0.388592 1.167598 -0.267986 -0.170858 
in 1.238780 0.157271 0.302748 0.291273 -0.798700 -0.308260 -0.619529 -0.500333 0.899877 1.088347 0.327280 0.389182 -0.700244 0.973628 -1.091438 -0.109725 -0.753771 1.103389 0.706984 2.201709 -1.072679 -1.578383 0.145351 0.558500 -0.280179 -0.494248 -0.513022 0.540609 -0.288019 -0.687939 -0.533936 -0.006415 -0.678847 0.550762 1.018301 -0.171322 -0.089035 -0.109782 0.823594 0.690583 -1.366896 -0.166504 0.411687 -0.627235 1.118022 0.939755 -0.207141 0.155512 1.447464 -0.208320 0.704466 -0.481855 -0.227062 0.119821 -0.784112 -0.050736 -0.137703 -0.550604 0.227258 0.205808 1.590113 -0.385533 -0.638831 -0.653056 -0.887000 -0.246385 1.282027 -0.584534 0.971366 1.264377 0.382503 -0.691112 0.841599 -0.693416 -1.869328 -0.067438 -1.848290 0.941019 -0.824160 -0.532844 1.208875 0.949003 0.942917 -0.715017 1.092683 1.791198 0.683183 -1.033788 2.692947 -0.039517 0.903675 0.203202 -0.005226 1.211986 0.786359 0.714224 0.223547 0.307653 0.352746 -0.595166 -0.039626 -0.200797 0.698749 0.751595 0.754517 0.244340 -1.013531 -0.201900 -0.017511 -0.819921 -0.386520 -0.699312 0.638564 -0.839925 -0.709357 -1.324943 0.412173 -0.104280 0.039733 0.547497 -0.745161 -0.340336 0.325186 -1.147586 0.500315 0.087831 0.546080 0.361665 -0.275410 0.429382 0.673429 -0.527160 -0.200579 -0.343150 -0.103752 -1.302844 -0.419222 -0.574173 0.537895 -0.575707 0.424002 0.046218 -0.457630 -0.932355 -0.887788 -0.885434 -1.122478 0.140904 -0.891646 1.362445 -0.502361 0.935637 -0.502356 0.451235 0.680276 0.093509 -0.454250 -0.615267 1.065891 0.242388 0.195172 -0.124924 0.925379 -0.320400 0.981108 1.079078 0.330808 0.757845 -0.805549 -0.176460 0.137949 -0.760045 -0.757439 -0.369479 -0.232245 0.622274 0.557027 -0.465379 0.549713 -0.293943 0.288953 -1.182301 -0.545030 -0.725687 -0.551020 -1.025567 -0.943208 -0.979369 -0.427672 -0.617419 -0.034405 0.125502 1.282905 -0.267374 0.186661 -0.079180 0.281667 -0.502227 0.255992 0.228797 
her -0.669384 -0.597781 -0.250843 2.032242 -0.394018 -1.243655 -0.497992 0.331165 -0.162863 0.154640 -0.440141 0.530751 0.669447 -0.197003 0.339666 0.782554 -0.338483 -0.157852 -0.517584 -0.073544 -0.342471 1.609602 0.045311 0.708647 0.735742 1.426255 0.873133 0.521216 -0.472729 0.804951 -0.661575 -0.366336 1.690313 -0.995825 -0.271717 1.148054 -0.302284 0.121276 -0.100184 -0.772150 0.778576 -1.535042 -0.312094 1.488287 -1.553721 -0.016541 -1.103231 0.081532 0.943429 0.149634 0.579530 0.285302 -0.358978 -1.259078 -0.374272 0.622662 0.615235 -0.600317 -0.492289 -0.982935 0.863764 0.220184 0.609188 0.157654 -0.386877 -0.191105 0.038889 0.029167 0.850591 -0.279768 -0.982827 -0.536504 -0.343219 0.246938 1.417614 0.146662 -0.490367 0.725514 -1.326982 -0.222844 0.173831 -1.509718 0.739095 -1.501768 0.125088 -0.768164 -1.169444 -0.333476 0.133325 0.068067 0.657924 0.236014 -0.030508 0.835071 -0.967441 0.059897 0.347718 -0.564616 1.238712 -0.247475 0.831267 0.567720 1.148245 0.046402 -0.852906 -0.586963 -0.525065 0.431289 -0.425547 -1.678627 -0.843970 -0.324337 0.088710 0.803899 -0.239715 -0.497246 -0.460564 0.664013 -1.225707 -0.311203 -1.009673 0.177142 -0.269651 -0.160853 0.240525 -0.209812 -0.773263 -0.661774 0.321893 -0.166478 -1.245751 1.046685 0.452374 1.475609 0.010871 0.398896 0.206072 0.526795 -1.257912 0.703856 0.064822 -0.630934 0.722849 0.066696 0.571532 -0.242384 1.655122 0.169778 0.976258 0.253588 0.314594 0.293828 1.166454 -0.058883 -0.264156 -0.570217 0.531754 0.680008 -0.354396 -0.254778 1.306747 -0.260290 0.115431 0.237964 -0.160680 0.560174 1.463800 0.067770 -0.185454 -0.273822 0.948137 -0.330191 -1.283082 -0.821350 -0.690772 -1.573328 -0.390108 -1.152204 0.048582 -0.158964 -0.194238 2.122542 0.266275 -0.180621 0.870403 0.123145 -0.498951 1.045597 0.347393 -0.140032 -1.583823 -0.598909 -0.709736 0.503143 0.143763 -0.324148 -0.468399 -1.296849 0.585188 -0.903222 
dark -0.080585 -0.009234 -0.915211 -0.205008 1.646045 1.031419 -0.407349 0.289179 -0.489697 -0.520749 -0.234735 -0.216124 0.943222 -0.325417 0.426555 -0.419048 1.536003 -1.282247 -0.161780 0.939112 -1.055188 -1.093195 0.709972 0.326866 0.451430 -0.150480 -0.366898 0.006277 -1.690647 -0.864907 -0.996716 1.122884 -0.110254 0.032588 -0.878859 0.295347 -0.123488 -0.968574 0.057185 -0.258035 -0.235059 0.532093 1.349686 -0.210108 -0.598027 0.144944 0.535920 0.499413 -0.557287 -0.459043 0.531123 0.514323 -0.005023 -0.455749 0.155491 -0.040455 -0.033885 -0.149065 -0.673419 0.028097 0.787429 0.641469 -0.026472 0.070278 0.537360 -0.357108 0.324245 -0.596034 0.320045 -0.045759 0.398052 -0.061334 0.182083 0.313126 0.390986 -0.125132 1.134894 0.258523 0.500978 -0.074768 0.016331 0.509707 0.028122 0.240548 0.043672 -0.682846 -0.669838 -0.115556 0.569202 0.081739 -0.041218 -0.368534 0.541263 -0.055682 0.029150 -0.200820 0.017138 -0.850876 0.362397 -0.107616 0.280561 0.207347 -0.416832 0.102404 0.649224 1.142375 -0.353521 -1.399423 0.678385 1.728987 -0.232327 0.714979 -0.145032 0.795846 -0.218810 -0.020687 -1.109623 0.079718 -0.734705 -0.055011 0.558462 0.332515 -0.518623 0.371149 0.041481 -0.399374 0.176718 -1.446236 0.105931 -0.727372 -0.896149 -0.021556 0.190449 0.226124 -0.292790 0.227038 -0.605324 -0.292722 -0.535368 0.832557 0.775093 0.419535 1.006546 0.543228 0.396963 0.066777 0.456804 0.552639 -0.131164 -1.218304 -0.643245 -0.424404 0.028309 -0.480748 0.397763 0.285422 -0.782130 -0.044927 -0.377552 0.092736 -0.610275 -0.370853 0.120555 0.155297 0.159386 -0.289043 0.556802 0.847924 0.624247 -0.439690 1.007403 0.779122 0.360154 -0.270167 -0.146207 -0.291242 -0.530433 -0.908635 -0.257095 -0.828982 -0.955774 0.971449 0.556585 -0.636394 -0.078373 1.632607 -0.409790 0.917743 1.258788 -0.680351 -1.518898 -0.452690 -0.614038 1.251893 0.818511 1.061115 -0.247820 -0.100014 0.124329 -0.781112 
coloured -0.429655 0.898967 0.224913 0.401207 -0.810181 0.387931 -0.459539 1.142049 0.782031 -0.679965 0.133105 -0.392407 -0.119658 -0.454666 -0.274685 0.283375 -0.001929 0.327495 0.034201 -0.443489 -1.460701 0.479024 0.386210 0.860145 -0.204324 0.455931 0.812948 -0.520502 0.006694 -1.036444 -0.324862 -1.767203 -0.612636 0.464402 -0.040206 0.061677 -0.771495 -0.414082 -0.265814 0.776428 0.321719 -0.300110 0.154450 -0.146984 0.063192 -0.656290 0.616855 -0.689497 -0.570116 -0.064804 0.811503 -0.286977 -0.056802 0.736826 0.474265 0.468344 0.790971 -0.545835 -0.294486 -1.107285 -0.152007 -1.807190 0.529304 -0.477004 -0.572290 -0.512676 1.328213 0.056997 0.354975 0.891516 0.347238 0.978312 -0.350275 -0.583677 -0.323443 1.110685 0.345951 0.056749 -0.251885 0.111036 0.264539 -0.307185 -1.073197 -1.210451 1.052001 -0.166998 -0.451058 0.371971 -0.169631 -0.440474 0.212255 0.636431 -0.364144 -0.736933 -1.014601 -0.495720 0.080496 0.172644 -0.396039 0.030556 0.696126 0.121288 0.274339 0.120685 -1.318028 0.290684 1.489831 -0.085469 -0.886435 0.332318 -0.215278 -0.415672 -0.780585 0.078124 -0.067733 0.827412 1.321190 -1.335225 1.277888 -0.373224 1.187977 0.465144 -0.397620 0.407879 0.128967 -0.771064 0.516658 0.058202 0.499603 0.229969 -1.298815 -0.619218 -0.998291 0.636313 -0.018626 0.150850 1.290846 0.266969 0.403248 0.189042 -1.113133 -0.388706 -0.861518 0.374270 0.917057 0.366634 0.628067 -0.446872 0.538296 0.266543 0.074722 -0.461289 -0.450893 0.637217 -0.024721 0.146682 -0.283342 0.649179 -1.287388 0.328286 -0.434713 -0.253431 -0.977616 -1.124390 0.506404 0.619999 0.096677 -0.393269 0.556507 -0.596598 -0.542404 0.104130 -0.111179 0.664231 -0.750738 -0.089773 -0.037689 -0.823322 -0.382430 -0.075921 -0.208251 1.468872 0.074454 -0.399017 0.111376 0.102045 0.294668 0.419833 -0.254566 0.911283 0.216087 0.463500 -0.835571 0.136086 -0.325597 0.043356 -0.708999 0.192851 -0.323844 0.254524 
colour -0.590020 0.422589 0.937150 1.094343 -0.526867 -0.164787 -0.473514 0.673092 1.080393 -0.611722 -0.525974 -0.322536 0.040329 -0.283023 -0.289539 0.462420 -0.626103 0.165783 -0.205003 -1.129160 -0.227179 1.481668 0.786268 0.663359 -0.158965 0.292196 1.335564 -0.425561 0.325554 -0.843785 -0.468483 -1.848864 -0.140928 0.916037 -0.478713 0.189793 -0.329856 -0.243203 -0.852184 -0.125679 0.521898 -0.370154 0.277221 -0.162186 0.099025 0.890636 -0.032696 -0.383097 -0.910125 0.385234 -0.315231 -0.309702 -0.147281 -0.149563 0.289588 -0.017892 0.707121 -0.032858 -0.125726 -0.959610 -0.565890 -1.722177 0.559588 -0.752753 -0.455174 -0.076087 0.895880 -0.061547 0.513686 -0.274304 0.063110 0.706079 -0.234395 0.131053 0.059288 0.307139 0.279997 -0.676732 -0.538555 0.130861 -0.038713 -0.364760 -0.862882 -0.973089 0.288013 -0.429758 -0.132783 0.237217 -0.929586 -0.319282 -0.394793 0.507011 -0.470058 -0.256485 -0.398810 -0.494143 -0.818076 -0.993047 -0.115980 0.119671 -0.014421 -0.624170 0.006514 0.667037 -0.706461 -0.007435 1.417521 -0.053709 -0.822969 0.663702 -0.129466 0.254687 0.091283 0.650994 0.485516 0.771870 0.164636 -0.366060 -0.162975 -0.746777 1.116426 0.406904 -0.642981 0.754248 -0.425629 -0.040940 -0.066587 -0.225311 0.128379 0.299869 -1.029876 -0.919029 -0.137023 0.564376 0.459579 -0.014538 1.107258 0.498299 -0.385199 0.382654 -0.533852 -0.612077 -0.044474 0.486735 0.361297 0.912292 1.114440 0.283874 1.237993 0.164408 0.344786 -0.607967 -0.219241 -0.004960 -0.209181 0.415446 -0.362913 0.990927 -0.894974 0.086894 -0.128618 -0.393353 -0.552025 -0.469099 0.093336 0.410301 0.172089 -1.053147 0.184671 0.618024 -0.364389 -0.047053 -0.101673 0.307754 -0.939090 -0.164790 -0.125316 0.076153 -0.344431 -0.307138 -0.103434 1.579080 -0.101207 -0.468147 0.339042 -0.001930 0.784423 0.450092 -0.266414 0.573927 -0.248539 -0.318397 -1.069852 0.639627 -0.512157 -0.660407 -0.156242 0.781397 0.115010 -0.646764 
shoes 0.042268 0.242781 0.034549 -0.757952 -1.081833 -1.192310 -0.082514 -0.295754 0.014982 -0.483025 -0.239410 -0.809272 -0.898736 -1.103181 0.941790 -0.201762 -0.231951 1.198822 1.146319 2.055737 0.264225 -0.495682 1.244960 -0.337604 -0.300675 -0.675629 0.130330 0.129772 -0.365279 -0.053542 -0.101408 -0.517095 0.302468 0.590752 -0.960435 -0.189160 1.044162 0.080220 -0.089948 -0.779633 -0.203520 -0.295114 -0.357843 1.162170 -0.301660 -0.249830 -0.372829 -0.523787 0.185426 0.588291 -0.036962 0.280019 -0.268446 0.190644 -0.555071 -0.342946 0.175358 0.853888 1.008451 0.147036 0.311801 -0.360253 -0.340536 -1.391404 0.200770 -0.457424 -0.704472 -0.436654 -0.152686 -0.365843 -0.356679 1.194081 0.179880 0.663107 -0.448927 -1.118268 0.291095 0.244524 -0.264366 -0.319155 0.400147 -0.324047 0.681172 1.300523 -0.642307 0.269728 -0.144417 0.544826 0.341987 -0.889643 -0.505984 0.055457 -0.705379 -0.247456 0.105412 -0.170783 0.193504 -0.715934 -0.616422 0.457420 -0.153364 -0.550443 -0.397115 0.496378 0.205092 0.061125 -0.752755 -0.647339 1.121595 0.673822 0.219328 0.909817 -0.548247 -0.295243 -0.240859 0.584609 1.087415 0.587262 -0.738690 -0.358421 0.704177 0.050973 -0.912855 0.354551 -0.366506 -0.581230 0.094410 1.031129 0.540156 -0.040336 -0.631388 0.110189 0.083542 0.514537 -1.365032 -0.659988 0.067628 1.036592 0.693504 -0.401899 -1.038726 0.132740 -1.203029 -0.364617 1.458452 1.437263 0.560364 1.667807 0.187704 -0.335667 -0.072243 -0.628372 -1.170439 -1.455779 -0.085838 -1.953736 0.489015 -0.926627 0.120817 -0.371953 0.959403 0.391213 0.408325 0.578182 0.553212 -1.385025 -0.423775 -0.389997 -0.745461 -0.317314 -0.190302 -0.935184 -0.303624 -0.971313 0.479140 0.696746 -0.483121 1.121694 1.013028 -0.059254 -0.051241 -1.683610 -1.092793 0.050919 -0.563464 -1.592039 0.125785 -1.674095 -0.384644 -0.618932 1.716174 -1.180080 0.009815 0.760881 -1.858708 -0.832434 0.902447 0.538487 1.098981 -0.227587 
pair -1.068074 0.909133 -0.252196 -2.829492 -0.843904 -0.530438 2.373083 1.936808 0.477595 -2.340217 0.226084 0.086783 -0.784405 0.026731 -1.119679 0.113595 0.749981 -0.268472 -0.946018 -0.153225 0.014728 -0.530429 1.107723 2.039649 -0.205821 0.256716 -0.037822 0.613406 -0.338846 0.667845 0.900895 -0.218322 0.152829 -0.003215 -0.256184 1.685157 -0.727192 0.701107 -0.812333 -0.686219 -0.290051 1.205761 -0.331395 -0.548122 -0.592651 0.061905 -0.568881 -1.259733 0.665084 0.613382 0.096334 0.649259 0.430412 -0.911008 -1.650817 0.131444 0.903482 -0.556986 -0.674469 -0.359337 -0.000183 -2.234222 0.431595 -1.937268 0.234323 -0.116925 -0.933910 -0.488429 0.154618 0.049576 0.550767 -0.332677 -0.075584 -0.227052 -0.316947 1.050657 -0.076477 -0.076697 -1.433155 0.610852 -1.267422 -0.250552 -0.222837 0.374953 0.521849 0.213795 -1.742700 0.458424 -1.668021 0.689552 1.919524 -0.503459 0.500942 -0.713309 -0.449533 0.016716 0.571809 0.375838 0.099341 -0.214539 2.181510 -1.562479 0.227469 0.798902 -0.155116 -0.071561 0.198205 0.318380 0.739545 1.784829 1.281199 0.331146 -0.677332 -0.251645 0.842301 0.155984 1.572959 -0.083700 1.296438 -0.095980 0.759438 -0.157088 -0.339944 0.556740 -1.100610 -0.255755 -0.791279 -0.670773 0.495066 -0.297566 -1.026351 -1.014281 0.402439 -0.775960 0.381482 -0.906819 0.899700 0.151474 0.875637 -1.250577 1.737057 -0.515581 -0.982898 1.705087 0.757205 0.502986 1.334867 -1.191402 -0.364430 -1.346291 0.471304 1.428506 0.299673 1.380756 -1.357695 -0.408032 -0.052025 1.671806 0.515319 -0.036058 0.459129 1.120015 -0.417408 -1.489249 -1.537767 0.513187 -0.643867 0.033394 0.502112 0.411245 -0.708161 0.164655 -0.923311 0.691394 0.355756 -1.460182 0.228130 -1.745478 0.349641 0.054891 -0.494581 0.770264 0.194653 -0.969121 -0.553657 0.410948 0.804259 0.555972 1.073928 0.611200 -1.018437 1.238551 -1.259182 0.451113 -0.737274 0.625454 -0.039906 0.738864 -1.144254 -0.465707 
short 0.524941 0.216105 0.429649 0.114788 -0.146582 -0.469265 -0.217816 0.868676 0.319486 -1.080204 -0.792000 -0.864767 -1.096853 -0.546491 -0.056224 -0.433353 0.773552 -1.412304 0.517611 -0.606364 0.692587 0.720655 1.535721 0.699188 -0.150329 0.953240 0.603640 0.082933 -0.546872 -0.679668 -0.369160 -0.362625 1.232590 0.222767 0.325515 -1.328208 -0.072287 0.083757 -1.119289 -0.617143 0.945473 -0.049248 -0.184276 0.232023 -1.200334 -0.044556 0.203723 -0.266238 -1.041585 -0.424000 -0.293212 -1.201210 -0.148431 -0.712153 1.453038 -0.544176 0.183569 -0.006557 0.466737 -0.083450 0.550743 -0.836793 -0.250469 0.000455 0.027908 0.294053 0.816884 0.020931 0.755340 -0.020833 -0.690564 0.927664 -1.419412 0.723078 -0.067447 0.209527 0.493042 -0.435198 0.135948 0.022548 -0.330689 0.938749 -0.861479 -0.352285 0.588038 -0.069334 -0.350261 0.138244 0.265289 -0.071466 0.402598 0.109291 -0.087004 -0.479143 1.066106 -0.024857 0.364718 -0.250185 -0.709156 -0.062535 -0.514180 0.631966 -0.616059 -0.438631 1.013444 -0.452148 -1.324346 -0.264736 1.008548 1.793798 -0.766827 1.113641 -0.327172 0.298720 -1.845536 0.548988 0.597116 0.712474 -1.055728 -1.138948 -0.069703 -0.328280 -1.643914 -0.415178 -0.414269 0.512206 -1.649381 -0.427510 0.499938 -1.102150 -1.214394 1.890546 0.596491 0.501514 0.417624 -0.127983 -0.325601 0.509729 0.058016 -0.179445 0.320600 -0.803550 0.584581 0.259827 1.416108 -1.059013 0.505787 0.525607 -0.293495 0.016148 -0.697045 -0.011813 0.300923 -0.315859 -0.843676 0.117663 -0.799432 -0.083379 -0.233368 -0.928022 1.370653 -0.129790 0.619893 -0.235232 -0.098989 -0.000619 0.696456 0.853032 0.035876 -0.947824 -0.261118 -0.028778 -0.268249 -0.917529 -0.937554 -0.265540 -0.193437 -0.467894 -0.496632 -0.615421 -0.689683 0.225222 -0.095792 -1.271768 -1.336884 -0.710009 0.079433 -0.128986 0.683634 0.087290 0.130256 -1.048004 -0.864976 0.634641 -0.808483 0.358930 -0.176098 -0.584257 -0.177948 -0.210143 
has -0.858896 0.541679 -1.141489 0.171639 0.818633 0.147904 -0.967919 1.341514 0.812034 0.318776 1.157897 0.411744 -0.601147 -0.514712 -0.163439 0.208792 -0.843633 0.885855 -0.089384 0.647226 0.665767 0.766273 0.707056 -0.356771 -0.730522 -1.489833 -0.682656 -0.469742 1.912805 0.159378 0.833456 -1.318378 -0.414691 0.716469 0.257858 -1.195015 0.399499 0.587963 -0.044562 0.458050 -0.442123 -0.100938 -0.669985 -0.194180 1.449032 -0.159886 0.900324 -0.560855 0.623275 -0.186013 1.452393 -0.276731 0.887674 0.968913 -0.221209 0.119111 -0.613810 -0.140667 1.151512 -0.230614 -0.053835 -0.109969 0.579895 -0.049847 0.367154 0.078560 0.076257 0.789908 0.591214 0.566420 0.859380 0.471933 -0.415630 -0.013591 -0.320156 -0.965888 -0.843103 -1.001663 0.406234 0.005462 0.331977 -0.148992 0.508149 -0.816104 0.326884 0.542825 0.669860 -0.244566 -0.300419 -0.302110 -0.342861 -0.042113 -0.085683 0.236640 -0.040266 0.150113 0.758886 1.630014 -0.470978 0.745536 0.111055 1.664844 0.765989 0.090572 -0.540216 0.523678 0.007379 0.045569 -0.618824 0.576551 0.278340 0.547754 -1.406673 -0.578941 -1.225695 0.078063 0.995447 -0.530692 0.359050 -0.347313 -1.135302 -0.038425 -0.814820 -0.146765 0.457992 -0.070268 0.492720 -1.365593 0.050489 1.905361 0.548567 -0.344406 -1.264658 0.192074 -1.076855 0.319485 0.213202 -0.673341 -0.434657 -0.560648 -0.214117 -0.988205 -0.532324 0.440397 -0.025844 -0.275488 -0.290292 1.245609 -2.215009 -0.658259 -0.123786 -0.690722 -0.131954 -1.677747 1.013169 -0.841462 0.990160 -0.425681 -0.912841 0.272889 0.677345 0.008429 0.566405 0.333237 1.515371 0.235207 0.663249 0.686882 0.902032 -0.324719 0.657925 0.229487 1.034997 0.703564 -0.932152 -0.114334 0.479279 1.555902 -0.592884 1.407846 0.074731 0.323060 0.076110 1.709850 0.630037 0.071316 -0.824935 0.485818 0.759861 0.611646 -0.077009 -0.522352 -0.533806 -1.977533 -0.942621 -0.090127 2.514663 -2.642968 -1.143234 0.275751 
or 0.191810 -0.239024 -0.803088 -0.774307 1.564955 0.667207 -0.893742 1.051515 0.840998 0.346031 0.903384 -0.280971 0.701390 0.443021 0.114956 1.290599 0.657276 0.207380 0.527475 1.037980 -1.252471 -0.760048 0.622019 0.659081 0.418986 -0.453388 -1.131412 -0.942949 -0.001860 0.653004 0.737217 -0.428622 -2.104832 0.953175 -0.554217 0.374367 0.374536 0.086423 -0.397038 -0.206076 -0.160859 -0.755287 -0.010820 0.111822 -0.281539 0.079170 -0.268769 -0.626018 1.108501 -0.245740 -0.317076 -0.327253 -0.232705 -0.251869 -0.548089 0.597698 1.794787 -0.291353 0.956145 -0.918033 0.894819 -1.729461 0.252190 -0.830522 0.210635 -1.005866 1.017478 -0.069777 1.165858 1.183576 0.776233 -0.382698 0.342066 -0.142860 0.621224 -0.128468 -0.329527 0.614717 -1.234878 0.390554 -0.154440 -1.001456 0.484780 -0.089996 0.166014 1.226360 -0.408583 -0.537176 0.246889 -0.492048 0.153885 -0.692317 0.352271 0.715285 -0.363848 -0.476141 -0.358303 -1.029368 0.398463 0.290366 -0.577979 -0.626504 1.658347 1.765286 -0.290064 -0.756993 -0.105526 0.712601 -1.174090 -0.772239 -0.320788 -0.454721 -0.823744 -0.252526 0.566651 0.159850 1.156206 -0.080030 0.434796 -0.541170 0.393562 -0.347532 0.404805 0.475075 0.082056 -0.109780 -0.222071 -0.296730 -0.127295 0.114206 -0.241472 -1.240754 0.227563 0.506211 0.176904 -1.303562 0.012986 -0.076363 0.246212 0.992140 0.127433 -0.043463 -1.083662 0.260252 -0.096570 1.209990 0.362264 0.332297 -0.983192 -0.026609 0.031799 -1.484228 -1.460034 0.002821 0.704017 -0.528584 0.569267 0.512488 0.403266 0.671824 0.106711 -0.015439 -0.251069 -1.085346 0.085009 1.069843 0.957864 0.719879 -0.516461 0.344586 -1.609429 -0.318932 0.176605 0.723737 0.214808 -0.227274 -0.800344 -0.221612 1.211985 0.851866 0.606216 -0.699102 -0.174451 -0.202445 -0.189661 -0.036514 1.112302 -0.185775 -1.000548 0.303752 1.320780 0.534663 -0.047247 0.878572 -1.015726 -0.035979 -0.890872 0.466239 -0.673881 0.223641 
grey 0.445727 0.011553 0.551217 0.729632 -0.921747 -0.118659 -0.157866 -1.788093 -0.181171 -0.520734 0.181385 0.616237 -0.947145 -0.133615 -0.049912 -0.701183 0.352086 0.243418 0.200116 0.340497 0.175940 0.019279 0.616148 -0.472749 -0.799478 -0.541274 0.710442 -0.185974 -0.181801 0.175237 -0.295737 0.568120 1.021111 0.001103 0.051677 -0.775420 -1.446091 -0.909358 0.213047 -0.668760 0.347704 -0.268064 0.584911 -0.670168 0.942736 -0.238452 -0.214829 -0.290429 -0.890357 0.723097 0.528861 -0.724308 -0.400058 0.182495 0.014496 -0.325124 -1.023579 0.311709 -0.170750 0.264870 -0.854796 0.899093 0.793513 1.408485 0.537794 1.050050 0.845843 -0.675100 -0.329082 0.661448 -0.528309 0.101232 0.318969 -0.257625 -0.197372 -0.466070 0.031209 -0.043873 -0.560532 0.476335 0.664997 0.736822 0.049279 -0.834292 -0.076734 -0.814839 -0.140724 0.415371 0.256577 -0.052712 0.530599 0.812352 -0.263462 0.248895 0.029172 0.110770 -0.218642 -0.104273 0.518634 -0.400260 -0.039986 -0.433671 -0.538588 -1.319378 -0.199318 0.385352 0.695791 0.179498 0.364297 0.823848 0.207646 0.689653 0.714068 -0.291281 1.141601 0.197653 -0.985331 -0.244023 0.442638 -0.721992 1.047630 1.287711 -0.694390 -0.566666 0.575684 -0.448129 -0.007579 -0.430158 0.495454 0.098890 -0.727618 -0.979353 -0.594157 -0.263084 -0.358421 0.094647 0.869373 -0.089004 -0.204687 -1.171713 -0.043172 -0.619032 0.067007 1.288687 0.582447 0.025865 0.091584 -0.277633 0.165779 1.459730 -0.653929 -0.978710 -0.286540 -0.314023 -0.236976 -0.268256 -0.202212 -0.513765 0.369591 -0.482083 0.130813 0.030125 0.180726 0.766983 -0.516038 0.282966 0.354113 0.547526 -0.878879 0.347362 0.375037 0.943301 0.197421 -0.215072 -0.508488 0.216860 0.002668 -0.899543 0.023955 0.604387 -0.735911 0.849677 -0.017152 0.220370 0.231439 -0.382295 0.631888 1.063711 -1.346054 -0.196873 -0.277942 0.916545 0.571259 0.188618 1.136576 -0.141092 -0.363961 -0.487022 0.369244 -0.496015 
bag -0.212261 -0.166467 0.252191 -0.465054 -0.592397 -0.409129 0.515345 0.761130 -1.265152 1.176924 1.802836 0.444165 -0.915725 0.752517 -0.069725 0.863654 -1.369638 2.191564 0.834661 0.558250 -0.132420 0.022679 -0.652309 -1.452436 0.340620 1.010334 -0.699009 0.000865 -0.858798 -1.141135 -0.782108 0.185108 -1.231009 1.884352 -1.138601 0.923232 0.981466 -0.565980 -1.132233 -0.306220 0.505884 -0.604813 -1.145089 0.544956 -0.528171 1.464477 -1.801564 -1.525715 -1.440734 0.458305 -1.890970 -0.177922 -0.185617 -0.230798 0.354289 0.911135 0.961076 -0.487002 0.380039 -1.160383 0.051283 -0.652998 -0.875473 0.750584 -0.432197 -0.018925 -0.087152 -0.124021 0.357474 -1.212062 -1.502143 0.828463 2.105066 1.022407 -0.315541 0.211523 0.854968 -0.415840 -0.682097 -0.663596 0.596448 -0.343791 0.386563 3.009003 0.187405 1.161194 0.353802 -0.483508 -0.232567 1.806203 -1.176511 -0.280780 0.599442 -0.341741 1.044450 -0.722819 -0.924370 -0.980750 0.868333 -0.900181 -0.861303 -1.971763 -0.022343 0.561449 0.181602 0.184052 0.576396 -0.688306 -0.585956 -0.368048 -0.375007 1.024266 0.066521 -0.578227 0.747355 0.569959 1.577282 -0.039656 0.836317 -0.327202 0.624313 0.228834 -0.118841 0.715074 -0.186365 -0.790155 -0.099244 1.170822 0.778216 -0.071467 0.096154 0.085621 -0.130908 -0.022284 0.667427 -0.461403 -0.486615 -0.085562 2.634951 -0.391654 -0.078770 1.046052 -0.288189 0.361065 0.527451 0.039429 1.225063 -0.933196 -0.082961 -0.324534 0.257248 0.684438 -0.369335 -0.117980 -0.785987 -0.765453 0.233307 -0.180112 0.002375 -0.919587 -0.068819 0.544190 -0.728596 -0.681900 -1.035645 -0.643519 -2.247849 -0.380481 -1.257109 -0.430363 -0.999264 0.260317 1.433087 0.128858 0.305728 1.256436 -0.891056 -0.169005 -0.000374 -0.080771 0.857576 -1.165797 -0.427224 -0.345945 0.675853 -1.072916 0.616269 -0.496228 0.126952 0.633974 0.339247 0.316664 0.070138 0.628877 -0.655510 0.598604 0.944639 -0.634396 -0.339355 -0.031847 
right -0.511178 -0.137213 -0.189387 -0.125210 -1.030445 -1.430532 -0.503161 1.287829 -1.504020 -0.812805 0.859804 -0.489035 -0.996947 -0.207334 1.963566 0.376393 -1.478276 -0.010803 0.047451 -1.308137 1.359582 0.625556 0.375859 -0.147591 0.814744 -0.184645 0.481392 1.807229 0.716267 -0.018829 -0.983438 0.307227 -0.176679 1.134737 -0.051860 0.080819 0.768454 -0.224502 -0.132983 1.344103 0.088454 1.615094 -0.988454 -0.264095 0.549189 0.451314 -0.211146 -0.479126 -0.651196 1.159478 0.508907 -1.399098 -0.124514 0.234526 1.504575 -1.407154 -0.274646 0.459722 -0.366977 -1.085525 0.047002 -0.014898 -0.974838 0.921193 -1.053584 1.044528 -0.933176 -0.191506 0.002364 -1.808514 -1.748085 2.428437 0.429880 0.086137 -0.104107 0.763368 0.906569 0.838997 -0.612192 -1.324614 -0.624289 -0.762510 -0.563453 2.685813 0.270005 -0.270937 0.550969 0.723430 -0.994339 0.109619 0.354247 1.096392 0.294561 -0.391069 -0.025472 0.017296 -0.367210 -0.378529 0.433202 -0.523807 -0.848628 -1.158617 -0.102700 -0.475467 -0.385254 -0.862188 1.215230 -0.547235 -0.212298 1.773134 0.307136 -0.326772 0.459150 0.856063 1.336693 0.216612 0.048936 -0.873135 0.229399 0.514034 0.698608 0.604291 -0.285709 0.522453 -1.160937 0.563573 1.085199 -0.129682 0.252188 0.642620 0.112093 0.642525 -0.071854 0.281072 1.106105 0.386806 0.101655 -0.710542 0.080109 0.423784 -0.778756 -0.309774 -0.851635 -0.798958 -1.275521 0.470577 1.504613 0.495400 0.706585 -0.862758 1.588266 0.181434 -0.150046 0.098062 -0.340960 -0.431284 -0.291178 1.090263 0.825482 -0.246789 -0.014394 0.432601 0.565087 0.300951 0.349622 0.305814 -0.567440 -1.021648 1.245767 0.345836 -0.366476 0.156221 2.058903 -0.836549 1.896175 1.099954 0.592386 1.134616 -0.063435 1.249877 1.231246 -0.069821 -1.839627 0.245768 -0.353729 0.132543 1.103349 -0.037006 0.192329 -0.134988 -0.255894 -0.565017 -0.632589 1.260096 0.206308 0.196940 0.276244 1.045320 0.568692 -0.955840 
wears 0.977044 0.081171 -1.082799 -0.759382 -0.042576 -0.908706 -0.959732 0.605519 0.708338 1.032354 0.796163 0.589281 0.641922 -0.023081 -0.522279 1.341554 -1.363246 1.530102 -0.927134 -0.160603 -0.136087 1.043361 -0.421855 -0.987449 0.343552 -1.941483 -1.029602 0.149432 1.402890 1.217845 0.546590 -0.002773 -0.387921 0.702513 -0.112480 -1.436129 0.923400 1.325738 -0.589075 0.264839 -0.591107 -1.266040 -1.379471 0.122853 1.525060 -0.022564 0.271783 -1.057304 1.295265 -1.177939 -0.470876 0.671337 0.545158 0.389732 -0.717686 1.236662 0.824474 -0.519846 1.443333 -0.595571 -0.151887 -0.056596 0.018843 -0.477279 -0.060261 -0.729705 -0.544999 1.314054 0.308249 0.230282 1.027502 -0.743029 -0.736057 0.185118 -0.626689 0.220000 0.296296 -1.472849 -0.333562 0.213351 0.802728 0.630070 1.135258 -1.136678 0.550799 1.160782 -0.907976 -1.187825 0.563964 0.129203 -0.069492 -0.509876 0.606539 1.496285 -0.139094 -0.164173 0.519364 1.096632 -0.653685 0.842800 -1.430447 1.130387 0.704177 0.743868 0.078829 0.042336 0.555305 0.171509 -1.116916 0.283983 -0.917993 1.583627 -0.843522 0.751833 -1.958504 1.247052 0.646977 -1.084814 0.621362 0.252958 -1.234349 -0.709609 -0.232252 0.112104 0.436540 -0.620555 0.335080 -1.024837 0.362059 1.503462 -0.721819 -0.204052 -0.165873 0.296423 -0.696732 -0.010099 0.167592 0.109691 0.291586 -0.081742 -0.671913 -0.505126 0.033535 0.374190 -0.592155 -0.089301 0.512841 1.044225 -2.331139 -0.026527 -0.599992 -1.085868 -0.412044 -1.721783 1.600540 -1.671258 -0.296020 -1.238829 -1.634855 0.453121 0.843126 1.059434 -0.082482 -0.237019 1.019284 0.002852 1.240465 1.494469 0.307639 -1.157408 -0.331410 0.197584 1.649196 0.816004 -0.368486 -0.213848 0.772009 2.455393 -0.576774 1.552549 0.832514 0.631797 -0.142123 1.859676 -0.007483 -0.750426 -1.416667 0.485496 0.451427 0.634223 0.587523 0.054903 -0.043836 -2.061779 -0.755708 -0.389688 2.178944 -2.624400 -1.379887 0.127129 
man 1.569689 0.437364 1.886541 0.671197 -0.591535 -0.131828 0.858369 -2.484072 0.688130 0.112967 0.256052 -0.720697 1.146100 1.449391 -0.020940 0.730265 0.158613 -0.468558 -0.082290 0.451174 0.505088 -0.488539 -0.829624 1.034065 -0.397218 0.379553 1.187203 -0.845732 0.112826 -0.146683 -1.233357 -1.561870 0.678985 -2.339665 -0.609182 1.391742 -1.025041 -0.255887 -0.185929 -1.570600 0.149229 0.932167 0.171402 -0.142871 0.444222 1.284636 -0.270012 1.464848 -0.194535 -0.818300 -0.393495 0.325697 -0.413575 -0.092851 1.055282 0.967638 0.752839 -0.781977 -0.184453 0.157052 -0.175658 1.697204 -0.520648 -1.328579 0.266661 -0.523119 -1.239974 0.394082 0.167666 0.043119 -0.024210 0.970666 -0.418726 0.329712 -0.111137 -0.530167 -0.041459 -0.177025 0.344541 -1.106746 -0.911320 -0.383142 -0.436195 1.313390 -1.189190 0.970193 -1.037507 0.940099 -1.323668 0.461465 -0.093862 0.148877 -0.015405 -0.877659 0.302230 0.154924 0.089646 1.056881 -0.594507 0.146185 1.026367 -1.793088 0.716692 0.995035 -0.110043 0.291828 0.412074 -0.341415 -0.196391 -1.127409 1.223625 -0.256813 -0.159056 -0.697724 0.243352 -0.704339 -0.195940 -0.479713 1.465719 -0.041541 0.510066 -0.193668 -0.096020 1.069160 -0.354762 0.078766 0.871206 1.231140 -0.959042 -0.329468 -0.044834 -1.011292 -0.070442 -0.403280 1.029800 -0.000905 -0.394380 -0.020048 0.196333 0.600003 -0.566892 -1.052427 -0.314085 1.065412 0.663578 0.351615 0.009464 -0.801519 0.244100 -1.178163 0.272726 0.118935 -0.759401 0.019619 -0.418726 -0.314997 0.565021 -0.438909 -0.190939 0.803180 0.164805 -0.033870 -0.173785 0.077256 0.548492 -0.170499 0.403281 0.505475 -0.492258 1.213364 0.036043 0.565484 -0.449561 0.005189 -0.307282 -0.081667 1.023644 -0.535579 0.635643 -0.848409 -0.043772 -0.525703 -1.884803 0.447850 1.107454 0.492449 -0.503061 -0.300125 0.721709 -0.263304 0.014605 -0.744639 -0.783485 0.483473 0.432002 -0.051648 -0.960661 1.435563 -0.611827 -0.653726 
left -0.449624 -0.233507 -0.121456 0.170950 -1.030357 -1.218773 -0.392661 0.951799 -1.075580 -1.411290 0.462971 -0.923014 -0.831258 -0.366594 1.976045 0.027027 -0.569973 0.633136 0.480945 -0.969795 0.584098 0.553115 0.279738 -0.092345 0.642553 -0.047870 0.265324 1.745875 0.659315 0.079838 -1.181709 0.268824 -0.382211 0.780634 0.195410 0.318200 0.617509 -0.227099 -0.429365 0.900392 0.530263 1.745949 -1.139169 -0.533276 0.381177 0.671530 -0.837353 -0.346600 -0.794321 0.963468 0.977882 -1.676586 0.564452 0.061880 1.561109 -1.515815 0.121474 0.682866 -0.290667 -1.581658 -0.197952 0.144737 -1.049276 1.439547 -1.730626 1.232095 -0.906201 0.047064 -0.151116 -1.908074 -2.078606 2.181447 0.297246 0.164115 0.184482 0.561532 0.821090 0.878201 -0.813895 -1.151650 -0.387114 -1.066020 -0.368466 2.930934 0.311980 -1.022226 0.510059 0.320794 -1.324036 -0.264967 0.400418 0.464450 0.727918 -0.621083 -0.101774 0.160195 0.083884 -0.451858 0.593287 -0.221362 -1.211011 -0.971459 0.021307 -0.828088 -0.728518 -1.049502 1.281095 -0.337254 -0.254992 1.918795 0.201036 -0.357996 0.595359 1.196929 1.270923 0.257250 0.065074 -0.469484 -0.106643 0.354334 0.330584 0.658289 0.148723 0.973864 -0.802236 0.707090 0.839951 -0.069398 0.368003 0.725320 -0.250780 1.082102 -0.089760 0.351159 1.355888 0.427866 -0.408181 -0.678541 0.727482 0.431280 -0.650421 -0.358466 -1.249271 -0.764643 -1.038070 0.781734 1.459434 0.526792 0.477119 -0.784341 1.579444 0.282998 0.462701 0.283147 -0.378698 -0.518635 -0.236824 0.868465 1.022979 -0.352349 -0.052432 0.180167 0.588896 0.623745 1.075687 -0.190134 -0.200830 -0.754599 0.876092 0.605801 -0.195662 -0.121055 2.190614 -1.251856 1.433392 1.255190 0.742267 1.110412 -0.432394 1.288111 1.452124 0.101451 -1.732921 0.182320 0.196781 0.160836 0.632233 0.221039 0.280761 -0.175159 -0.336382 -0.831422 -0.489132 0.764473 -0.091832 0.015486 -0.059598 0.851835 0.755232 -0.803243 
carrying 1.237366 0.663929 -0.776733 0.526192 0.710313 -1.630766 -0.966586 1.105883 3.039601 3.578834 -0.756121 2.126662 0.233575 0.835692 -1.239612 -0.652474 -0.781079 0.406917 -1.462368 -0.507410 -1.154438 -0.706590 0.072119 -0.478092 -0.102630 -1.329041 -1.484346 -0.231593 0.228203 -0.193511 1.055795 0.766926 -0.737552 -0.062383 1.478527 0.026229 0.438926 1.935114 -0.028214 -0.536485 -0.066480 -0.964452 -0.945880 -0.248417 0.325562 0.093568 -0.210603 -1.522704 1.666073 0.304408 1.313858 0.314558 1.512526 -1.947978 -2.665520 0.399215 -0.244451 0.502264 -0.888302 1.175837 -1.088449 1.319776 0.525957 -0.943183 0.134216 0.613052 -0.700451 0.734738 -0.634761 -0.308739 0.633057 -1.505353 -0.435837 0.805154 -0.814032 -0.232619 0.551790 -1.696336 -1.691217 -0.465766 -1.088341 0.794482 -0.387448 -1.598140 -0.657944 -0.975379 -1.467935 -0.190046 0.671334 -0.831119 0.709935 -0.629402 1.320592 1.101904 -0.888594 0.208608 0.053837 0.422531 -0.807659 0.920093 -0.792926 -0.437481 0.691257 0.632979 1.186602 -0.317776 1.207211 0.595383 -0.779025 1.249010 0.229433 0.591896 -0.377298 0.949398 -1.198212 1.648929 0.515851 -1.939380 0.064869 0.308747 -1.161876 -0.558919 0.590710 -0.422269 0.144445 -0.777093 0.837162 -1.124828 -0.527708 0.178179 -0.243835 -0.075003 0.099662 0.336065 -0.421266 0.458936 -0.482643 -0.202726 -0.311069 0.745438 -0.064425 -0.306233 0.410110 -0.458581 -2.486292 -0.307749 1.199475 1.159038 -1.343051 1.210380 -0.078220 -0.049206 -1.614133 0.365144 0.568063 0.708609 -0.537445 0.754141 -0.253533 0.436543 0.127342 0.242075 0.350436 -1.038089 0.479202 0.654717 -0.011752 0.289295 0.611912 0.098318 -1.826519 -1.285352 1.011887 0.375164 0.014126 -0.659488 1.019445 1.148196 -0.388389 1.449341 0.629754 -0.482001 0.632333 0.295120 -0.947845 -0.864604 -1.159073 -0.062121 -0.250122 -0.883890 0.291571 0.214575 0.947302 -0.733550 -0.650252 -1.082566 0.255878 -0.965315 -0.070308 0.993937 
to 1.306327 0.499755 -0.065459 0.218653 -0.413480 -0.366024 -0.743825 -0.410644 -0.042054 0.768604 -2.538004 1.586362 1.252539 0.994298 1.142688 0.390338 0.947546 0.317115 0.316815 0.162318 -0.571108 0.073879 -0.526863 -0.369191 -1.435360 -1.943612 -0.937780 -0.610927 0.655396 0.349914 -1.122713 1.574753 -1.422428 -0.055573 0.564465 0.562677 1.211516 0.406024 -0.023048 2.367344 0.945670 -0.925685 -0.236528 -0.310775 -0.191378 0.375133 -0.757900 -1.570607 -0.111484 1.056686 -0.508608 -0.365050 -1.344817 0.265016 0.800748 2.246784 -0.986855 -0.267472 -0.359165 -0.885673 -0.002387 0.056157 0.398282 1.004523 0.318716 0.289627 1.098070 -0.792338 0.245979 -1.259185 0.423651 0.887539 -1.546075 0.845973 0.618888 -0.452009 -0.093073 0.153866 1.540167 1.969071 0.911358 0.129773 -1.188687 -0.696225 -0.923639 0.071306 1.001356 1.388779 -0.782700 1.719580 -0.527037 0.149561 -1.314469 -0.011246 0.246928 0.046749 0.051542 0.316493 1.035634 0.440472 -0.503472 0.748197 0.042911 -0.417301 1.291770 -0.770277 -0.851869 0.237075 1.009682 -0.366782 -0.004320 -1.240756 0.793060 -1.346733 0.084099 -1.424453 -0.978509 -0.643671 0.224014 0.224859 0.961779 1.023535 -0.101072 -0.615409 0.232392 1.186586 -0.065098 -0.210228 -1.312052 -0.994511 -0.304494 0.434394 0.169488 -0.875461 -0.585888 -0.081535 1.103850 -0.038272 0.655557 -1.634274 -0.614163 -0.149659 -0.330305 0.436539 0.355026 1.811476 0.156680 -0.499698 -1.511041 -0.697691 -0.024555 -1.851714 -0.552133 -1.195520 0.670329 -1.322924 1.467807 0.047759 0.550293 1.271486 -0.259013 -0.744625 -0.805361 0.055030 0.706488 1.390389 1.641068 -0.400237 0.126968 -0.326831 1.041070 0.963000 -0.009964 -0.596840 0.710257 0.871733 1.350965 0.329277 -0.355184 -0.987526 0.201565 0.998508 -0.592957 0.056825 0.254774 1.063112 -0.359371 -0.417405 1.034856 1.571272 0.491218 -0.208007 -0.651204 -1.064905 -0.353018 -1.543812 0.556596 -0.222339 -0.207515 -0.408345 
hand -0.659761 -0.168777 0.243902 0.555822 -0.502988 -0.099941 -1.756059 -0.247968 -0.413415 -0.912713 -0.915873 0.783044 0.850600 -0.746728 1.258221 0.916472 -1.059687 -0.781413 -0.226667 -0.266843 0.580327 -0.018626 -1.160368 -0.991079 0.099106 -1.505592 0.207194 0.227224 0.673200 0.638607 -0.103627 -0.002051 1.837715 0.228459 1.128752 -1.801307 0.635164 0.504560 0.649088 0.003394 0.199249 -0.649778 0.037350 -0.038362 0.165378 -0.526553 0.215840 -1.083469 -0.643276 -0.946995 0.656415 0.018214 -0.470324 -0.225106 0.150189 0.781328 0.508943 0.423960 0.434705 2.441817 0.117482 1.016696 0.286132 -0.210924 2.094604 -0.415360 0.500155 -0.495387 0.648248 0.086532 0.869987 -0.119622 -0.260502 -1.069068 -0.293508 0.465103 0.189333 0.248108 1.532744 -0.281099 -0.200776 -0.459020 0.551844 -0.931668 0.157269 -0.386870 0.643210 0.023010 -0.096547 -0.564792 -0.269757 -0.766530 -0.134923 -0.372833 0.478872 0.212906 1.077582 1.567671 -0.214415 0.999524 1.208902 0.477658 -0.003401 0.248380 0.563128 0.622641 0.271169 -0.395349 1.692891 1.720579 -0.396793 0.852908 -0.722174 -1.337925 -1.063525 -0.522486 0.235740 -0.262955 -0.621654 1.323107 0.235942 0.177257 -0.359191 -1.429264 -0.137843 -1.272231 0.617431 0.801547 -0.142141 -1.111320 -0.413936 -0.407610 0.185663 1.255592 -0.190204 0.287693 -0.237071 0.128014 -0.669180 -0.078998 -1.117149 0.474013 0.351418 -1.051820 -1.445246 1.032105 -1.705031 0.391479 0.001071 0.305986 -1.273533 1.550626 -0.083064 -0.779876 -0.244587 -0.467755 0.581426 -0.568165 -0.328857 -0.029308 0.432494 -0.222619 -0.198196 -1.099876 -0.079096 -0.180584 -1.039871 -0.784174 0.347171 -0.513997 -0.096425 -0.928422 -0.516782 -0.222184 -0.712599 0.826785 0.547653 0.236617 1.177532 0.280207 -0.499317 -1.059419 -0.698343 0.453177 -0.095865 -0.613918 -0.020772 -1.044803 0.266209 -0.334810 -0.178560 -0.167393 -0.428419 1.279268 -0.963631 -0.796669 -0.433892 1.641303 0.622549 0.301281 
be -0.771790 -1.374309 1.200971 -0.310300 -1.814622 -1.303732 1.690963 1.750027 1.551663 -0.905214 1.139744 0.007042 -0.076767 0.721595 0.916080 -0.232344 -1.113378 1.297699 0.065585 0.123115 0.827917 2.717273 -0.547414 0.499026 1.125591 0.370091 -0.370842 0.680945 0.891968 0.739308 1.320956 -1.659316 0.443962 0.374060 0.846097 -0.679705 -0.935352 0.564790 0.187840 -0.685140 -0.593832 -0.164835 0.526462 -1.490503 1.652511 -1.060064 -0.957639 -0.744641 0.811082 0.342467 -1.176101 -0.052144 -2.060154 0.645647 0.437142 -0.829490 0.370019 -0.181792 0.664643 0.567315 -0.174200 1.016440 0.492766 -0.113666 0.021841 -0.410770 -0.120173 -1.404931 0.445438 0.928123 -0.949737 1.133904 -0.750314 -1.156001 -1.164738 -0.070344 -1.032067 0.605335 2.090864 0.447333 0.296272 -0.696962 -0.182745 -1.242246 -0.067020 0.596603 1.066546 2.248085 0.162894 0.767510 0.644659 0.352086 0.219569 -1.288814 -0.227926 -0.086219 0.147391 -1.063165 1.912085 -0.772098 1.529945 -2.682423 -0.214905 -0.145112 -1.142961 0.509350 0.574447 -0.335411 -1.107086 -1.120067 0.421605 0.620244 -2.959429 0.512198 0.868158 0.261100 1.325955 0.270465 1.100498 -0.756412 -0.329906 -0.433709 0.513395 1.090808 -1.073617 -0.327726 -0.977515 0.656515 1.133503 -0.048501 -0.399620 -1.893214 0.070726 -0.644626 -0.259823 0.048504 -0.394072 -0.980950 1.416405 -1.016724 0.758828 0.554069 1.127874 0.767757 -0.284043 0.927279 0.018927 -0.629833 0.203439 -0.988203 -1.791176 0.693111 -0.199712 -0.324468 0.093279 -0.799817 1.506469 -0.594954 -1.379959 0.895943 0.179494 0.030631 0.904137 -0.941482 -1.230618 -0.421873 -0.159318 0.349406 0.582395 0.637806 0.277973 -1.131038 1.123039 0.877300 1.764834 -0.268759 -0.988982 1.082649 -0.054089 1.568735 0.104856 -1.243140 2.558847 0.776110 -0.042146 -0.445572 0.969017 -0.764902 0.990861 -0.317290 0.430691 1.026367 -1.786472 1.201676 0.110180 -0.309121 -2.049433 -0.058082 -0.297514 -2.551111 
shoulder 0.114744 -0.363636 0.149466 -0.053151 -0.524147 0.693967 -1.746008 -0.057554 -0.967284 -1.389598 -0.947371 0.671688 0.389280 -0.688446 1.594632 1.450839 -0.044720 -0.276305 -0.185318 0.860341 0.878694 -0.173776 -0.559116 -0.383933 -0.488631 -0.744475 0.123835 0.287181 0.537975 0.107830 -0.150651 0.050660 1.709736 -0.259702 1.108357 -1.440087 0.347617 -0.232134 0.598198 -0.168354 0.670128 -0.795809 -0.346556 0.193481 -0.104797 -0.925630 -0.288727 -1.423591 -0.507961 -0.620177 1.703182 0.100265 -0.363723 0.515088 0.172188 0.137402 0.264653 0.784816 -0.322440 1.910270 0.323690 0.494501 0.211926 0.281645 1.679920 -1.375769 0.030835 -0.391290 0.848183 0.163539 -0.007884 0.199171 -0.832135 -0.782143 0.037915 0.491391 -0.865214 0.631909 0.855465 -0.322927 0.632495 0.281358 0.031607 -1.516776 -0.169264 -0.392975 -0.302975 0.183302 0.507498 -0.364474 -0.133422 -1.710108 -0.040816 -0.782817 0.552971 -0.098015 1.163377 1.876012 -0.038477 0.943048 0.812662 0.301319 -0.632818 -0.390384 0.584664 -0.605455 -0.670993 -0.049437 2.034205 1.111813 -0.460970 0.719963 -0.298571 -0.580129 -1.237859 -0.429225 -0.187593 0.758385 -1.062450 1.793509 -0.220720 0.359996 -0.872467 -1.030026 -0.225912 -0.881832 0.482813 -0.080936 0.068547 -0.717827 -0.693965 0.132715 0.129183 1.102069 -0.761961 0.190337 -0.072319 -0.286779 0.012146 -0.536535 -0.396899 0.520025 -0.358906 -0.335796 -1.427372 0.156581 -0.942376 0.700869 -0.756926 0.341906 -1.069542 2.156509 -0.390351 -0.446188 -0.256979 0.279572 -0.274842 -0.554667 -0.013499 0.392244 0.824591 -0.535689 0.386891 -1.520436 0.358942 -0.063892 -0.842941 -0.132570 0.121585 -1.260030 0.058932 -1.088214 -0.273865 -0.762624 -0.602026 1.051675 0.325631 0.225607 0.644011 0.387550 -0.567040 -1.479666 -1.296461 0.364547 -0.833838 -0.992654 -0.025954 -0.891626 0.200088 -0.476084 -0.284106 -0.098684 -0.347864 1.565910 -1.320019 -1.006581 0.237694 1.059922 0.955898 0.184528 
blue 0.503744 -0.717519 0.401484 0.896865 -1.927970 -0.703858 -0.302022 -1.553406 0.026230 -2.110233 0.111966 2.342283 -0.495774 -0.533643 0.996920 0.456702 1.064017 0.323238 0.056907 -0.248575 -1.096205 0.094011 1.205535 -1.093612 -0.614763 -1.008432 0.741750 1.325455 -0.090132 -0.038474 -0.135304 0.575116 -0.165777 -0.057610 0.578465 -1.541545 -0.767770 -0.210563 0.805134 0.705572 -0.160709 1.195555 0.835416 -0.890474 0.738474 -1.128958 -0.307164 0.206077 -0.216159 -0.086735 0.302600 -0.244529 0.325818 0.126078 -0.251363 0.234302 -1.260533 -0.236827 0.136979 0.491152 -0.273616 0.015658 0.198585 1.696343 0.237925 1.422210 1.719518 -1.140156 -0.753810 0.221529 -0.594376 -0.074965 1.439822 0.445895 0.161839 0.409009 0.438293 -0.174472 -0.234611 0.824083 0.526619 -0.295595 -0.522480 0.158682 0.102886 -1.271684 -0.094930 0.448433 0.339315 -0.652047 0.653998 1.119874 0.272745 0.513005 0.034884 -0.013727 0.077673 0.029276 0.909053 -1.136648 0.984289 0.421674 -0.338244 -1.762647 0.212941 0.689195 0.125248 -0.451384 -0.950173 0.915828 0.239984 -0.278185 0.826856 -0.045601 0.812599 -0.104831 -0.125591 0.002906 0.234335 -0.429542 1.001385 0.003059 -0.299778 -0.179346 -0.033324 -0.342124 0.335383 -0.008711 0.169070 0.070532 0.479458 -0.638362 -0.046505 -0.389984 -0.699692 0.175440 0.805260 0.420876 0.307483 -0.550849 -0.067358 0.483435 -0.728263 0.667554 1.333432 0.233735 0.269411 -1.031941 0.868372 -0.004360 0.450985 -0.363825 -0.452127 -0.192625 -0.240165 -1.277854 0.249468 0.614923 0.306522 -0.332694 -0.411144 0.911302 -0.354510 -0.006217 0.002358 0.031371 -0.538470 0.133271 -0.373331 -0.361955 0.141121 1.391545 0.046282 0.429176 -0.865748 -0.473338 -0.933162 -2.123654 0.942112 0.313827 -0.316406 -0.246004 0.316270 0.347481 -0.545747 -0.542099 0.386286 0.710626 -0.803864 0.262109 -0.134629 0.360025 -0.050225 -0.152606 0.602741 0.110554 -0.731618 0.083734 -0.073450 0.567476 
long -0.963002 -0.947583 0.729518 1.189936 0.408819 -0.914951 -1.986112 0.028325 0.475722 -1.011423 -0.281408 -0.983694 -0.768647 -1.131660 -0.463012 1.097576 0.283048 -0.873754 -0.125927 0.264726 -0.330652 0.065540 0.924127 0.086541 -0.586728 0.347221 -0.199072 0.049756 -0.299282 0.279030 -0.240771 0.271196 1.622618 -1.198689 0.563577 -0.274491 -0.176053 -0.169476 -0.711770 -0.495169 0.427951 0.395734 -0.179097 -0.010622 -1.537271 -0.331807 -0.019204 -0.289130 -0.761453 -0.532343 0.322319 -0.293859 0.330510 0.035922 0.946273 -0.133631 0.033604 0.024180 0.666342 -0.797377 0.113312 -1.024872 -0.899756 -0.303231 -0.175225 0.333959 0.565853 0.007345 -0.035432 -0.201205 -0.511420 1.371380 -1.341577 0.473500 0.898005 0.981748 0.798967 0.802264 -0.202388 -0.387061 0.294164 0.914162 0.039694 0.292468 1.586829 -0.179484 -1.215487 -0.625015 0.495673 0.444724 0.609199 -0.899072 -0.145923 -1.005587 1.025204 0.422607 0.023953 -0.662237 0.172707 0.199474 -1.200179 -0.601929 -0.395233 -1.235195 -0.289082 -0.692383 -0.793245 0.165245 0.374834 0.904729 -1.505483 -0.355865 -0.054381 0.952872 -1.955251 0.320811 1.438571 0.249267 -1.451684 -1.107173 -0.469615 0.377801 -2.269575 -0.517021 0.122378 0.138352 -1.361446 0.054922 -0.191392 -1.042613 -1.733502 2.198534 1.428784 0.499995 0.847463 -0.186562 -0.535018 -0.216375 0.942991 -0.355132 0.633580 -0.837201 -1.257373 0.304148 1.306622 -0.140664 0.081819 1.194243 -0.475458 -1.103975 -0.833043 -0.621850 0.307535 0.282795 -1.457622 -0.270486 -0.484462 -0.391415 0.243384 -1.043259 0.438869 0.155586 -0.179379 0.525932 0.066548 -0.268288 0.703019 1.290264 0.285811 -0.501488 -0.770606 0.007418 -0.538986 0.361398 -0.414154 0.381929 -0.158315 -0.825146 0.012527 0.025873 -0.903076 0.310510 -0.404848 -1.658945 -0.806704 -0.668026 -0.066504 0.784394 -0.174599 -1.027115 -0.391825 -0.263077 -0.266219 0.939924 -0.336466 1.261699 -0.162311 -0.392674 -0.324546 -0.381953 
probably 0.152706 0.188552 1.010559 -0.376983 1.566943 -1.378117 0.360423 -0.482741 0.673205 0.347125 -0.289676 1.068823 -0.377891 -0.898199 0.459406 0.935519 0.467893 -0.027445 -0.127131 0.161640 -0.703648 0.017141 0.535562 -0.527364 -0.131486 0.893921 -0.674500 -0.743976 0.780265 -1.628476 1.143736 -0.273894 -0.626399 0.160199 0.774390 -0.387080 1.168196 0.518304 -0.002278 0.321958 0.004759 1.059255 -0.508945 -0.633664 0.279602 -0.305582 0.123693 -1.537303 -0.394469 0.578011 1.279261 -0.000715 0.683317 -0.131125 -0.179288 -0.264228 -0.258075 0.155657 0.845240 -0.995064 0.110977 -0.306170 -0.935395 0.152910 -0.049360 1.244552 0.096506 0.228462 0.215862 -0.771759 -1.329456 0.048880 -0.721480 -0.742909 -0.380412 -0.286508 0.062162 -0.716347 -0.203272 1.052379 0.352469 0.563114 -0.161937 -0.396744 0.420853 -0.714722 0.322039 -0.153673 -0.287982 -0.381356 0.047736 -0.104933 0.927286 -0.674125 -0.261334 -0.074209 -0.635891 0.108656 0.533313 0.411463 0.522841 0.869368 -0.475038 0.400851 -0.265457 -0.474256 0.211997 -0.921524 0.683290 0.811613 -0.495084 0.442264 -0.633163 0.392982 -0.985694 -0.553475 -0.255328 -0.289079 -0.094620 0.031211 -0.773050 -1.555767 -0.090597 1.014566 -0.413880 0.659923 -1.167759 -0.123627 -0.603462 -0.149069 0.910128 -0.716951 0.290723 -0.369515 0.075798 -1.323796 0.112879 -0.466979 -0.031546 -0.317109 0.352866 0.490250 1.732548 -0.705310 0.087212 0.386320 -0.954051 0.125118 -0.639005 0.245650 -1.402314 0.659192 -0.515278 -0.426661 -0.021548 0.057204 0.250688 -0.238691 -0.992502 0.592877 -0.171626 -0.385644 0.845020 -0.258595 0.145158 0.528661 0.259354 0.412975 0.132501 0.631162 0.539619 0.581783 0.543881 -0.616291 -0.398000 -0.221158 -0.698440 0.299287 -0.305291 -0.626918 0.329644 0.735382 0.477062 -0.437876 0.058549 -0.436132 1.389150 -0.498410 1.573139 -0.365007 -0.473958 -0.516392 0.283141 -0.155555 -0.478602 -0.122062 -0.420090 -0.480811 0.445728 0.296742 
jeans -0.958112 -0.454970 0.258479 1.010589 0.958771 0.107806 -0.621607 0.649199 -0.009038 -0.313440 -0.563781 0.444681 -0.926719 0.528964 1.288449 -1.064005 0.611040 -1.700342 -0.634046 -0.535581 0.100585 -0.155066 2.182637 0.289690 -0.977649 -0.682484 0.509856 -0.842694 0.668450 1.089853 -1.015955 -0.405692 0.444059 -0.942500 0.832107 -0.567557 0.312502 0.331911 0.574008 -0.667727 1.024573 0.047245 -0.525558 -0.078642 -0.718277 0.373217 -0.146277 -0.342560 -1.078538 -0.441452 -1.377857 0.108499 -0.686070 0.605646 0.210687 0.848740 0.308097 0.678224 0.399498 -0.181238 0.953558 -0.352025 -1.149942 -1.499200 0.569818 0.446981 -0.469494 -1.076634 -0.379853 -0.417670 -0.733004 0.692841 -0.765898 -1.143616 -1.622564 -0.022367 0.106362 -0.383987 -0.435987 -0.315944 -0.870790 0.188754 -0.591742 0.313381 -0.370195 -0.083679 0.084524 0.332559 1.071674 -0.051525 -0.454154 -0.147173 1.200180 0.589824 -0.132440 0.925229 0.432954 0.656540 -0.188123 -0.152676 -0.061036 0.509254 -0.735781 0.179016 -0.036110 0.332938 0.216887 0.916101 1.205815 2.632160 0.445947 1.828322 -1.267928 -0.383352 -0.235196 1.017202 0.041317 -0.557345 0.327986 -0.453200 0.742558 0.857129 -0.018727 -1.144543 -0.793075 0.094498 0.091380 -0.345138 0.095127 0.422688 -0.916062 0.655552 0.557982 -0.198651 0.066442 -1.037123 -0.665128 0.045821 -0.286504 0.939187 -0.297699 -0.254542 -0.674638 -0.982463 -0.907506 1.338939 -0.518994 1.035053 -0.937590 1.176336 0.102441 -0.307763 -1.312738 -0.857524 0.480738 0.768607 -0.796367 -0.064696 0.227250 0.387376 0.318505 0.027178 -0.075225 -0.452071 0.048545 0.531460 0.048703 0.257484 0.005978 0.327911 -0.598292 -1.099593 0.378679 -0.454400 1.071315 0.695758 0.190673 0.769251 0.876472 1.676252 0.333143 -1.528158 -0.316225 -0.204189 -0.585302 -1.364152 -0.349915 0.459402 -0.322649 -1.530049 -0.373705 -1.118619 0.003046 -0.688843 -1.254609 -0.034388 0.095783 0.379153 -0.359866 1.439108 
back -1.506802 0.079660 -0.233720 -0.240981 -1.957742 0.497503 -1.002384 0.794910 -0.663546 0.027088 1.054360 0.571464 -0.574536 -0.557632 0.886799 1.343879 -1.010208 -0.174339 -0.630388 -0.525148 1.020192 1.027886 0.071948 0.707116 -0.809658 -0.588586 0.905301 1.643593 -0.231921 -0.712551 -2.117332 -0.251271 0.383296 1.355170 0.795295 -0.081449 -0.392234 -0.318925 0.611935 1.123197 0.565540 1.018303 -1.809627 0.404050 0.070559 1.330034 -1.073829 -0.521027 -0.928823 -0.238674 0.502471 -1.123794 0.570789 0.818566 1.451992 0.058744 -0.434777 1.030090 -0.095704 1.068061 -0.447414 1.979973 -0.193825 1.065483 0.478060 -0.523902 -0.225475 0.347541 -0.199703 -1.287004 -0.992448 0.921685 0.802729 0.226140 -0.622250 0.253821 0.156464 1.126376 -1.056352 -0.990590 -0.286382 0.194704 -0.223102 1.590506 0.031061 0.186204 -0.206719 0.806971 0.552845 0.094529 -0.342242 -0.891441 0.527342 -0.271381 -0.220028 -0.016049 0.766817 0.323247 0.114950 0.073166 -1.148607 -0.821156 1.117034 0.022778 0.937298 -0.539016 0.485088 -0.289367 -0.149713 0.949958 -0.756488 1.071439 0.204572 0.122120 0.928483 -0.425296 -0.227952 -0.608343 0.120774 0.165701 0.640803 1.323750 -0.982529 0.179412 -1.388897 -0.806392 1.466615 -0.441401 -0.169214 -0.037492 -0.433920 -0.488394 -1.096509 1.041311 0.403798 -1.051589 -0.401554 -0.705107 1.509613 0.229388 -0.309444 0.829630 -0.704025 -0.001510 -1.146824 0.747901 -0.384539 0.125568 0.473180 0.545180 0.603324 0.634833 -0.408433 -0.224748 -0.196527 0.307753 -1.013927 -0.013519 0.116949 -0.221083 0.079339 0.324276 0.416726 -1.460419 0.419038 -0.193306 -1.747414 -0.462747 -0.247341 -0.170123 -1.289973 -0.951635 1.556508 -0.808009 1.281097 1.025328 -0.203416 -0.234368 0.249362 0.428794 0.045571 -1.571106 -0.734162 0.511124 -0.049451 -0.625312 0.109766 -0.781591 -0.008538 0.622261 0.040776 0.262717 -1.288432 2.272249 -0.712251 -0.615981 -1.020487 0.176930 -0.589773 0.503479 
pants 0.439628 -1.053436 -0.186061 0.508676 0.204247 -0.112742 -1.765487 1.089073 1.009151 -0.041287 -1.112651 0.875180 -0.281756 0.269673 -0.009835 -0.777181 -0.428544 -0.365456 0.354727 -0.393615 0.917020 -1.350316 0.602813 0.176773 -0.412870 -0.907163 0.123999 -0.825128 1.412791 -1.336340 -0.208537 0.133027 0.480692 -0.728260 -0.071438 0.244098 -0.648866 1.524621 0.927576 0.010226 0.195246 0.676319 -0.493163 0.319324 -0.486135 -0.317623 -0.725009 -0.298079 -1.551208 -0.661582 -2.307576 0.217441 -0.428196 0.888458 0.441341 -0.201355 0.151723 1.562309 0.123837 1.557059 -0.635193 -0.105569 -0.575105 -0.591390 0.071492 0.239832 -0.323970 -0.415016 -1.246135 0.444274 -0.401608 0.320500 -0.284568 -0.005986 -0.817551 -0.057614 0.195987 -0.302322 -0.434291 0.337092 -0.849961 -0.066166 0.098170 0.766805 0.180315 -0.634093 0.548700 -0.244289 1.380403 -0.527612 0.163908 -0.515655 0.458281 -0.129046 -0.133536 -0.482494 0.475637 0.218151 -0.617530 -0.644192 0.283558 0.773461 -0.356116 0.480103 0.935800 0.916362 0.062057 -0.267738 0.798286 3.358170 0.409830 0.776341 -0.543431 -0.055732 -0.623000 0.300949 1.159527 -0.553555 0.384950 -0.511619 0.267642 -0.107718 -0.213461 -0.196168 -0.161857 0.110099 -0.389729 0.366087 -0.329077 0.211902 0.044845 0.621768 -0.038846 0.041868 0.153205 -1.442291 -0.398393 -0.026414 0.269941 0.365391 0.049751 0.370918 -1.092843 -0.652680 -0.465850 0.798084 -0.533841 1.325804 -0.069082 0.274538 0.929444 0.190520 -0.210827 -0.160119 0.105520 -0.208152 -0.088698 0.245480 0.195158 -0.197411 0.711026 0.647180 0.510313 -0.460759 0.273054 0.428905 -0.454299 -0.473637 -0.926400 -0.556865 -0.761933 -0.671819 -0.542560 -0.327601 1.311623 0.759061 -0.525064 0.070763 1.501133 1.531278 0.052349 -1.272350 -0.434863 0.557083 -1.486878 -1.618997 -0.120113 0.393467 -1.222576 -0.600230 0.160671 -0.437897 0.137280 0.724676 -0.770573 -0.611471 0.404464 0.563023 -0.158326 0.748087 
young 0.041842 -0.650770 -0.630076 -0.928759 0.699142 -0.267545 1.052812 0.236574 -0.024801 -0.961408 0.257300 -0.096010 -0.457787 0.365715 1.490158 -0.129268 0.934570 0.775161 0.057050 -0.259050 -0.899300 0.123666 1.575022 0.297798 -0.636889 0.469749 -0.049394 0.769925 -0.951913 -0.244557 -0.482213 -0.064538 0.024695 -0.554413 0.027270 0.525536 -0.561574 0.592577 -0.089072 -0.842727 0.700688 0.369460 0.307328 0.354293 -0.866372 1.092793 -0.667050 0.704435 -0.856167 -0.482793 -0.039104 -0.463369 0.469315 0.018459 0.464154 0.020308 -0.503872 0.117179 -1.232579 0.046665 0.076810 -0.436325 0.201834 -0.174855 0.330639 1.253657 -0.206886 -0.343720 0.470673 0.075143 1.194783 1.085733 -0.513787 0.350047 -0.423062 -0.176961 -1.082590 -1.142129 0.911236 -0.115544 -0.080368 -0.331170 -0.920190 0.680410 -0.531767 -0.574137 -0.176051 0.522118 -0.432235 -1.085161 1.298150 0.365849 1.050935 0.487131 0.062639 1.271322 0.235737 0.864959 0.877331 0.768568 1.652929 -0.117825 -0.386799 -0.472719 0.605157 -0.092266 -0.300587 -0.634121 0.846535 1.783190 -0.575152 0.116315 0.211266 -0.678259 0.242176 -0.563736 -0.484210 0.169500 -1.374990 0.175584 0.533789 -0.122426 -0.504210 0.124832 -1.101507 1.223965 -0.180345 -1.461959 -0.247160 -0.077558 0.510029 0.929124 0.236565 -0.482346 0.453541 0.219972 -0.022169 -0.041069 -0.760357 -0.251409 0.529711 0.176962 -0.129672 -0.204329 -0.624576 -0.757845 0.665456 -0.454590 -0.077945 0.775602 0.237951 1.718418 1.108068 0.265469 0.050434 1.398297 0.325742 0.473645 0.458774 -0.315307 0.527220 -0.473899 0.035271 0.590509 0.364247 -0.123179 -0.458372 -0.320150 -0.110693 -0.309128 0.218587 -0.582658 0.048756 0.165358 -0.309918 0.947122 0.444132 0.493460 0.201403 0.534180 0.346305 -0.432682 0.429738 -0.706983 -0.198683 -0.607487 0.149220 -1.339950 1.561834 0.359924 -0.773446 -1.361157 -0.247838 -0.184168 0.107169 -0.668437 1.111077 0.433447 0.623385 0.419494 
it -0.467572 0.149006 -0.950516 0.938221 -2.066782 -1.596267 -1.109271 0.623145 0.533507 0.157084 -1.429285 1.187404 0.775317 0.414523 0.895821 0.373712 -0.299966 -0.405003 -0.185071 -0.178022 -0.718816 -0.624192 0.485011 -0.063245 -0.194724 -0.870477 -1.241312 0.503709 -0.890661 -0.172665 -0.556269 -1.212748 -0.078210 -0.624450 0.756007 0.978271 0.667075 0.978913 0.216082 -0.006639 1.124644 -0.435304 -0.139223 -0.167281 -0.710256 -0.989212 -0.563176 -2.173940 -0.698557 -0.724286 0.022788 -1.532967 0.694842 -1.245188 0.642467 -0.227894 0.635342 0.091449 -0.192812 0.577646 -1.123273 0.895065 -0.215350 -1.148750 0.730864 0.637220 -0.640478 -0.492009 0.063796 -0.876426 -0.548904 1.811092 0.387634 0.899131 0.123194 0.604260 1.352660 -0.071415 1.661230 -1.341913 -0.295204 0.703409 0.019765 0.527668 -0.243396 -0.781358 0.094891 0.410947 -0.373709 0.628390 -1.191392 0.065819 0.823827 0.745881 0.490134 -0.002423 0.827043 0.560201 0.701117 0.609777 0.832248 -0.587957 -0.256799 0.415234 -0.313254 0.265070 -0.453952 -0.151026 0.759427 -0.311312 -0.054562 0.955653 -0.668781 -0.024173 0.164868 -0.413058 -0.442469 -0.299542 0.531599 -0.011961 -0.485781 1.515113 -0.038609 -0.105114 -1.245120 -0.603138 -0.620229 -0.275822 0.276616 -0.584338 0.702905 -0.551644 -0.067855 0.018855 0.519672 0.331143 0.032505 0.474594 -0.458199 -0.115983 -0.088027 0.616058 0.059949 0.649738 -0.374960 -0.269131 1.917498 -0.494432 0.856324 -0.048462 1.445485 0.116895 -0.793412 0.377912 -0.809310 0.769050 -0.099129 1.546246 -1.335729 -0.905458 -0.158210 -0.452034 1.148461 0.117125 0.689277 0.778619 -0.941939 -0.756946 0.613198 0.015658 0.734495 -0.820405 0.098841 -0.427222 0.025391 0.366112 0.702450 -1.164757 0.008916 0.480056 0.889078 0.118724 -2.064513 -0.406259 -0.772187 -0.530557 -1.773447 -0.323493 -1.830484 -1.322401 -0.747346 -1.141233 -0.578037 0.635434 -0.236965 0.505620 -0.010050 0.527424 0.914744 0.043771 
shirt 1.175615 -0.733896 0.016884 -0.804862 -0.276103 -0.505221 -0.732030 -1.188535 0.083206 -0.453322 0.058836 -0.902520 -0.709703 -0.804681 0.568034 -0.247185 -1.055248 1.283618 0.043396 1.036344 -0.281871 -0.417527 -1.092697 -0.717764 -1.215227 -1.491903 -1.543404 0.752476 0.472109 0.832957 -0.063687 0.273760 -0.163761 -0.111298 -0.521020 -1.101030 0.991118 -0.621859 -0.241247 -0.412076 0.061189 0.118565 -0.064403 -0.057954 -0.233345 0.269759 -0.969391 -0.514206 -1.351105 -0.235616 -0.607975 0.762336 -1.019709 -0.314336 0.248553 0.747474 0.644879 -0.530867 -0.791696 0.020893 -0.499045 1.214956 -0.363508 0.210325 -1.281085 -0.609456 -1.363832 0.156754 -0.984586 0.039072 -0.421854 -0.053170 0.831882 0.292976 -1.550205 -0.762807 1.521358 0.333997 -0.503794 -0.525855 1.714704 0.541779 0.822480 1.415718 0.416228 0.416102 -1.131425 -0.783504 0.834473 -0.420194 1.080979 0.081622 0.184506 -0.406422 0.020288 0.282508 -0.042394 0.094468 0.966166 0.175571 -0.054564 -1.439755 -0.095201 0.479396 -1.005518 -0.463211 0.521129 -1.049029 0.864869 1.524079 -0.616028 -0.063902 0.423509 1.334095 -0.269549 -0.048871 -0.813150 -0.292149 2.058768 -0.352146 0.292929 0.405586 -0.994135 1.163270 -0.117298 -0.144514 0.557692 0.947276 0.512325 0.489147 -0.875151 -0.618750 0.126857 0.066201 0.041194 -0.235894 -0.317693 -0.253587 0.044102 1.303678 -0.653511 0.029405 -0.830361 -0.419233 -0.459408 -0.175643 0.246083 -0.585668 0.669941 0.628011 0.276088 0.395034 0.443313 0.282543 -0.448935 0.459175 -0.544013 -0.609696 0.462187 -0.205912 0.993838 -0.073090 0.257585 0.213412 0.771171 0.577980 0.967931 -0.099316 -0.189197 0.144857 -0.450851 -0.462301 0.017401 -0.019783 0.344234 0.012191 -0.935977 0.305734 0.203539 -0.124595 -0.425519 0.648441 -0.983194 -1.535941 0.408379 -0.463452 0.926206 0.183507 0.238223 -0.685828 -0.762994 0.123864 -0.717005 0.841181 0.091812 0.217781 -0.888634 0.889487 -0.199218 -0.517311 
backpack -0.416380 0.222500 0.201562 0.104268 -0.061676 0.379857 -0.383940 0.545634 -0.728227 0.612224 0.592224 0.834685 -0.829740 0.266580 0.350811 0.575385 -1.989402 -0.507242 -0.830115 -1.255807 0.753042 0.337412 -0.661224 -0.589348 0.028148 0.355805 -0.286238 0.859900 -1.015562 -0.507858 0.199676 -0.170933 -1.332041 0.429793 -0.515061 -0.213678 0.825096 -1.112508 -0.593346 -0.270799 0.336555 0.386417 -0.254129 -0.082589 -0.401719 0.432637 -0.713892 -1.263120 -0.998962 0.201017 -0.496472 0.482389 -0.102647 0.454464 -0.445331 1.675581 0.421421 -0.477354 -1.125893 1.107121 0.093470 0.062413 -0.246063 0.137757 0.228980 -0.813257 -0.850181 0.448653 -0.524969 -0.709427 -0.921042 0.702107 0.842201 0.636434 0.080650 0.034479 0.472289 -0.284671 -0.094003 -1.010671 1.132973 0.685210 -0.399288 0.768740 0.636550 0.648588 0.166188 -0.250078 0.683734 0.916752 0.187470 0.282680 0.126729 0.005537 0.103178 -0.406286 0.578880 0.585876 0.871748 -0.100132 0.618359 -0.715499 -0.149196 0.220064 0.328489 0.024155 0.337789 -0.463026 1.000508 1.774210 -0.431140 0.742867 -0.701874 0.092589 0.179058 0.189238 1.268067 -0.862484 1.019350 -0.086715 -0.430071 -0.043959 -0.274419 -0.045291 -0.695197 -0.735888 -0.139553 0.525997 0.587291 -0.341905 0.305296 0.627158 0.006389 1.004224 -0.428051 0.022047 -0.464610 -0.180242 1.798307 -0.423950 -0.029377 0.753523 -0.367337 -0.013072 0.280331 0.560897 0.787626 -0.967306 -0.575669 0.727735 -0.610234 1.273953 -0.595539 -0.425877 -0.046016 0.431081 -0.117168 -0.459585 -0.497132 0.080964 0.974889 -0.509826 0.329843 -1.207552 -0.146128 0.320038 -1.216963 0.266411 -0.594098 -0.465659 -1.020418 -0.598474 0.950378 -0.172944 1.098530 0.290565 -0.482749 0.478198 0.755861 0.541040 0.299442 -1.399462 -1.521257 -0.080049 -0.478646 -1.431757 0.486417 -1.312451 -0.152849 0.031220 0.736490 0.313267 0.009238 1.184229 -1.249873 -0.013767 0.033928 0.457871 0.344855 0.367023 
brown -0.969421 -1.272238 -0.989789 0.694824 -0.050467 0.819402 0.369785 -1.062653 -0.365463 -1.341448 0.852344 0.772243 -0.662257 0.797321 -0.149168 0.325187 0.498799 -0.103789 -0.965863 0.976992 -0.252352 0.147160 0.244964 0.410410 0.265352 0.299689 0.907952 -0.483536 -0.288177 -0.974361 -1.180749 0.482641 0.669540 -0.814170 -0.821392 -0.287812 -0.727521 -0.792285 -0.648347 -0.579393 -0.528368 -0.807662 0.751858 0.196015 0.668206 0.989351 -0.330684 -0.129717 -0.078687 0.388432 0.978135 0.330919 0.301823 -0.724877 -0.639473 0.195585 -0.892007 -0.602892 -0.065977 -0.792059 -0.121269 -0.512837 -0.405283 0.380343 0.902798 0.564639 0.535348 0.305353 -0.161405 -0.071690 -1.193178 0.160803 1.209571 1.106888 1.612633 -0.473640 0.735883 -0.365551 0.033272 0.365880 1.131475 0.718538 -0.338594 0.318894 -0.137097 -0.291182 0.394597 0.426654 -0.527256 -0.258168 0.792171 0.264220 -0.097271 -0.421631 0.414732 0.474268 -0.596413 -0.010180 0.674279 -0.384483 -0.233265 -1.080974 -0.029550 -1.211173 0.193723 0.520394 -0.088506 -0.817882 0.272555 0.984186 0.243618 -0.265213 0.585048 0.616973 0.765693 -0.325290 0.161134 0.005607 -0.413623 -0.667262 0.563710 1.218746 -0.997201 -0.713760 0.720947 -0.597948 0.563288 -0.493898 0.152116 0.221184 -0.333790 0.072464 0.729514 0.577228 0.126526 0.708604 0.424145 -0.171023 -0.074372 -0.338174 0.273712 -0.418966 0.618943 0.945398 0.231298 -0.285576 1.040683 -0.242707 -0.395395 0.501344 -0.655974 0.139312 0.328357 0.555414 -0.474302 -0.100960 -0.777177 -0.880183 0.437478 -0.883007 0.362673 0.242973 -0.073181 0.497850 -0.467067 0.211840 -0.158183 0.773658 -0.150283 -0.227069 0.679537 0.717378 0.814358 -0.872142 -0.625701 -1.077120 -0.862119 -0.509142 0.215557 0.183196 0.204867 0.479069 -0.129422 -0.138588 0.169904 -0.001691 0.717037 0.221841 -0.372256 0.473139 -0.028689 0.986197 1.530634 0.296448 1.771371 -0.156218 -0.676177 -0.572157 0.215948 -0.537853 
girl 1.165304 0.514593 2.186857 -0.239132 0.033027 -0.943405 0.926286 -2.180968 1.052927 -0.089322 0.588722 -0.699919 -1.220555 2.218279 0.318929 -0.804017 -0.864742 0.687491 -0.651147 -0.056833 0.973444 1.029629 -0.443383 0.420018 -0.741700 0.320219 1.014417 -0.791267 0.927511 0.030390 -1.368609 -2.485881 0.168568 -1.407904 0.153230 0.880776 -0.473352 0.030772 0.376420 -1.223721 0.992721 0.175500 -0.984814 0.258743 -0.025241 1.359219 0.133915 1.174503 0.241714 -0.655736 0.288072 0.750917 0.155714 -0.493732 0.283973 0.848990 0.561103 -0.731141 -0.339184 -0.337003 0.840324 1.436463 -0.696087 0.187460 0.040943 -0.605162 -0.475119 0.037238 0.829161 -0.074805 -0.327044 -0.246328 0.339450 1.592788 -0.216463 -0.567240 1.226383 -0.953867 1.859183 -1.420375 -1.812883 -0.640095 -0.417955 1.362395 -1.507164 0.922366 -1.203471 1.343842 -2.199558 0.141162 -0.371508 -0.238420 -0.659882 -1.295678 0.232881 0.023235 -0.171661 1.641367 0.552830 0.821849 1.208152 -1.111149 0.209823 0.080206 0.138606 -0.096784 0.698184 0.069078 0.331993 0.313938 1.872796 -0.088215 -0.167488 -0.312076 1.174325 -0.768521 0.164479 -0.035407 0.996880 -0.948983 0.540452 0.814674 -0.649766 0.929940 -0.893609 0.065228 1.072960 -0.452554 -1.373952 0.242314 0.716799 -0.994421 -0.281397 -1.204958 0.671318 0.560521 -0.666107 -0.332311 0.051427 0.455592 0.033317 -0.506314 -0.968408 1.207374 -0.041868 -0.483812 0.956762 -0.331017 1.138499 -1.233944 0.643196 0.646235 0.186808 0.638215 -0.940731 0.423888 -0.468717 0.316910 0.705167 -0.075921 0.260235 0.018049 0.271810 0.259164 -0.344984 -0.516109 0.004465 -0.824939 -0.299269 0.983946 0.429938 0.752941 -0.240512 0.680938 -0.391671 0.035900 1.237704 -0.792029 1.203227 -0.984658 -0.697004 -0.234887 -1.219456 -0.470379 1.427733 0.544745 -0.569647 0.470044 -0.178603 -0.197289 -0.333656 -1.010362 -0.103635 0.705270 0.457006 -0.244973 -1.507921 1.542848 0.635644 -1.778014 
red -0.259925 0.509654 -0.162750 -0.036189 -0.166180 0.506670 0.628312 -0.652637 0.640037 -1.505543 -1.292325 0.798780 -1.153221 -0.381309 0.618671 -0.936226 0.495502 1.059468 0.598314 -0.488593 -0.907537 -0.173832 0.227982 -0.521782 0.255038 0.230700 0.730573 0.052513 -0.564143 0.316307 -0.214268 0.647979 -0.375430 -0.358772 -0.103292 -0.092347 -0.393248 0.671706 -0.672989 0.046890 -1.095020 -0.078319 1.389698 -0.252909 0.588381 -0.637910 -0.209487 0.511619 -0.432207 0.568389 0.518786 -0.096479 0.023255 -0.121179 -0.489812 -0.557100 -0.643891 -0.286150 -0.815198 0.290324 0.286867 0.148651 0.420770 0.335299 0.351475 1.459097 0.217705 -0.126960 0.630924 -0.586881 -0.806599 -0.204911 0.896265 -0.060218 0.968915 -0.761095 -0.300046 -0.200553 -0.900266 -0.202183 0.871525 0.629490 -0.431729 0.732802 -0.141105 -0.997451 -0.548116 -0.523783 0.149038 -0.116511 0.445139 0.489589 0.759310 0.119129 0.431289 0.320833 -0.816816 0.638507 0.563461 -0.275365 0.680738 -1.034335 -0.201917 -0.636895 0.236359 -0.399092 -0.968326 -0.164929 0.868784 -0.580149 -0.030664 -0.205759 -0.633589 0.212629 0.442531 0.276251 -0.405676 -0.586692 0.437351 -0.065699 -0.906584 0.627996 -0.866254 -0.844962 0.133486 -0.646683 0.442771 -0.742043 0.766778 -0.250290 0.133028 -0.198548 0.330639 0.739617 -0.302290 0.375395 -0.452347 -0.458633 -0.715184 -0.813983 1.001702 0.436004 0.853140 0.813485 0.235389 -0.452950 -0.296339 -0.426884 -0.301789 0.688751 -0.220232 1.115854 0.258911 -0.275306 -0.172932 0.951092 -0.831739 -0.395113 -0.928701 -0.617150 0.079507 -0.164946 0.012498 -0.283104 -0.793058 0.343318 -0.826137 0.416043 -0.966878 -0.199425 0.693461 0.306362 -0.335881 0.041965 0.297146 -0.208171 -0.606611 -1.009616 0.145081 -0.126055 -0.632396 0.458286 -0.664064 0.013755 0.696344 -0.311029 0.534161 0.236154 -0.294722 0.292190 -0.435589 0.770545 0.496333 0.580985 0.645696 0.774243 -0.776601 -0.005149 0.560539 -0.064131 
t-shirt 1.752737 -0.908253 0.187514 -2.087123 0.857964 -1.806085 -0.800699 -0.689274 0.426658 -0.113937 -0.209580 -0.568982 -0.309592 -0.357273 0.349680 -0.388000 -1.904382 1.484308 -0.465733 -0.721157 0.607987 0.109744 -0.142193 -0.452087 -0.688928 -0.877462 -1.479112 0.002062 0.928705 1.056628 0.602752 -0.356837 -0.416767 -0.030214 -0.106556 -0.381803 1.392672 -0.889925 -0.873494 0.300036 -0.195687 -0.277366 -1.060309 0.119101 -0.282292 -0.926054 0.382804 -0.909727 -0.937117 0.275811 0.244506 -0.066894 -0.387029 -0.481958 0.085238 0.697207 1.287283 -1.305052 -0.268158 0.386173 0.328154 -0.198496 0.414460 -0.094501 -0.646944 -1.276590 -1.029150 1.202472 -0.682288 -0.262474 -0.244436 0.043735 -0.001431 -0.133587 -0.228948 -0.153916 0.866432 0.659154 -0.508293 -0.417858 0.783791 -0.042546 -0.183700 0.424675 0.308532 1.212619 -0.809871 -0.413501 -0.419074 0.097158 0.508666 -0.041934 0.386816 0.105835 -0.274664 0.814413 0.644092 0.365532 0.154855 0.465406 0.383701 -1.677251 -0.077097 -0.550148 -1.071024 0.067117 1.333763 1.107934 0.476917 1.104880 -0.607158 0.694602 -0.129640 1.235738 -0.505502 0.719297 0.576675 -0.022881 0.366239 0.790790 0.411334 0.317072 -0.783768 0.181103 -0.029518 -0.160401 -0.349350 0.862910 -0.103547 -0.007223 -0.090905 0.111193 0.107643 0.469523 0.525473 -0.710996 0.204746 0.741358 0.126731 0.875485 -1.195065 -0.276258 -1.121067 -0.239967 -0.503683 -0.380961 0.544000 -0.939666 -0.064578 0.257649 0.975244 0.864246 -0.340345 0.242111 -0.665419 0.093355 -0.535325 -0.011398 -0.012241 -0.241174 0.932774 0.387474 -1.290083 -1.519972 -0.130333 0.739432 -0.499083 0.432239 -0.988864 -0.226714 -1.542882 -0.520304 0.584638 0.318402 -0.320827 -0.149062 -1.429497 -0.802783 -0.048552 -0.209590 -0.500575 -0.238942 -1.387468 -0.838905 -0.441920 -0.958495 -0.057381 -0.190615 0.114725 0.410330 0.287695 0.678422 -0.679243 1.630306 -0.541309 0.799050 -0.421862 1.040988 -0.790166 0.617297 
camera -0.546140 -1.156503 0.491532 -0.039296 -0.874935 0.668090 0.378892 -0.189632 0.751288 -2.220462 -0.415912 -0.481683 0.365773 -0.902333 0.372320 -0.091416 -0.220304 -0.157107 -1.060054 -0.184535 1.367260 0.432492 0.670300 1.121353 0.677310 -1.362744 0.725761 1.569612 1.582342 0.210972 -0.394862 -1.444102 0.952341 -0.453967 0.158513 0.112029 -0.763631 0.287285 0.783666 0.146471 -1.200847 -0.074076 -0.056401 1.135611 0.430022 -0.100316 -0.785005 1.797291 -1.229255 -1.527197 -1.121817 1.123089 0.639924 0.798219 0.955129 0.059634 -0.665675 0.209809 -0.017403 1.081293 -0.192829 0.351590 -0.083832 -1.135264 -0.178688 0.790052 -0.799188 -0.763703 0.463655 -0.469586 -1.007713 1.643625 -0.392844 0.103915 0.060436 0.271701 -1.413173 -0.134809 -0.582947 -0.753643 -0.769374 0.903578 0.582118 0.603677 0.113335 -2.045382 -0.936155 1.649463 0.023083 0.130521 -0.668629 -0.018311 1.656270 -0.402253 1.162359 0.431027 0.859596 1.031231 1.484090 -0.812930 1.240222 -2.126684 -0.610302 -1.281002 1.157997 1.626533 0.336102 0.488480 -0.772076 1.974909 -0.181995 0.831597 -1.239938 -0.080216 0.903144 0.610781 0.500541 -0.857529 0.299511 -1.212734 0.206702 0.593509 -2.172221 0.061509 -0.589237 -0.606913 -0.115030 -0.942757 0.739617 -0.088895 -1.027407 0.054580 -0.182438 0.718981 0.151024 1.360427 -0.180267 -0.548395 0.097226 -0.032520 0.066309 0.987761 -1.039561 1.305536 -0.121656 2.218709 -0.162687 1.588442 -0.194152 -1.343737 -0.307302 -0.116165 -0.020394 -1.385533 0.136829 0.776807 0.705876 -0.919959 -1.950092 0.626814 -0.552880 0.330845 0.356704 -0.065098 1.669866 -0.396876 -1.020374 0.726369 0.110991 0.484647 -0.239136 -1.565400 0.574719 1.079344 0.151729 0.204645 0.478185 0.771368 0.697419 1.309757 0.380520 -2.604096 -1.479782 3.002765 -0.965117 -0.311255 -3.098433 -1.151564 -1.242339 -0.609379 0.103189 -0.873228 -1.458572 0.675847 -0.039781 0.692496 -0.369616 1.618881 -0.097651 -1.103875 
jacket 0.388597 -0.927902 1.503389 -0.312743 -1.557482 -1.281874 -1.093953 -0.633125 -0.644788 -0.926019 0.239099 -1.109509 -0.440774 -0.858323 1.274530 0.589139 -0.522047 1.523780 -0.263738 0.239620 0.303901 -0.377439 -1.368880 -0.662485 -0.413839 -0.497363 -0.336601 0.063765 0.615207 -0.139671 -0.830458 0.035953 -0.165067 -0.164161 -0.237048 0.147572 0.877747 0.040369 -0.208181 0.216650 0.497882 0.258267 0.043626 -0.457936 -0.186309 0.299329 -0.512091 -0.348427 -1.014872 -0.099343 0.097570 0.859871 0.014220 -0.307861 -0.008564 -0.128213 1.591836 -0.168134 -1.460010 0.172408 0.031083 0.329725 -0.215920 -0.178078 -0.308020 -0.840527 -0.369723 0.277390 0.238196 -0.123006 -0.365605 -0.596097 0.988388 -0.113544 -0.989676 -0.248182 -0.141836 0.031445 -0.708723 -1.264117 0.644394 0.260713 -0.308310 1.584190 0.266951 0.776869 -0.924424 -1.252466 0.390712 -0.667543 -0.283793 -0.988654 0.854534 0.467281 -0.145227 -0.520973 -0.335398 0.759138 -0.126706 0.746361 0.251616 -0.800058 -0.185643 0.396453 -0.100239 0.749717 1.220041 0.352428 0.092538 1.313871 -0.028272 1.186184 -0.759029 0.684892 0.292841 1.128188 0.631370 -0.511806 1.842366 0.422406 -0.080668 0.520271 0.098891 0.376000 -0.363406 -0.711368 0.460697 1.070166 -0.125118 -0.219934 -0.013138 0.000795 0.740690 0.601094 -0.440675 -0.045557 -0.823322 0.023610 0.755094 0.672161 -0.046461 1.082236 -1.089564 -0.141119 -0.652657 0.747309 0.670568 -0.079903 -0.109108 -0.624786 0.027898 -0.067585 -0.468480 -0.068222 -0.983706 -0.803126 0.058246 0.733526 -0.071979 -0.648186 0.333994 0.180209 0.135245 -1.029805 -0.096801 0.034500 0.055513 -0.491976 -0.258363 -0.411353 -1.146467 -0.492677 0.867497 0.329272 0.739289 0.024936 -0.331176 0.490084 0.084747 0.148412 0.351011 -0.235010 -0.612126 -0.578514 0.281925 -0.584840 -0.321951 -0.251365 -0.280792 -0.512534 0.464208 0.585049 -0.207699 0.666801 -0.847058 0.222298 -0.229574 0.508315 -0.197904 0.514421 
