1139 100
</s> 0.004003 0.004419 -0.003830 -0.003278 0.001367 0.003021 0.000941 0.000211 -0.003604 0.002218 -0.004356 0.001250 -0.000751 -0.000957 -0.003316 -0.001882 0.002579 0.003025 0.002969 0.001597 0.001545 -0.003803 -0.004096 0.004970 0.003801 0.003090 -0.000604 0.004016 -0.000495 0.000735 -0.000149 -0.002983 0.001312 -0.001337 -0.003825 0.004754 0.004379 -0.001095 -0.000226 0.000509 -0.003638 -0.004007 0.004555 0.000063 -0.002582 -0.003042 -0.003076 0.001697 0.000201 0.001331 -0.004214 -0.003808 -0.000130 0.001144 0.002550 -0.003170 0.004080 0.000927 0.001120 -0.000608 0.002986 -0.002288 -0.002097 0.002158 -0.000753 0.001031 0.001805 -0.004089 -0.001983 0.002914 0.004232 0.003932 -0.003047 -0.002108 -0.000909 0.002001 -0.003788 0.002998 0.002788 -0.001599 -0.001552 -0.002238 0.004229 0.003912 -0.001180 0.004215 0.004820 0.001815 0.004983 -0.003111 -0.001532 -0.002107 -0.002907 0.002815 0.001579 0.000425 -0.002194 0.001524 0.003059 0.000194 
a 1.123510 -0.296896 -0.602898 -0.360776 -1.007746 0.370136 0.735138 0.354481 0.373877 -1.845883 -1.172353 -0.064472 -0.417126 -0.826030 0.453516 0.893906 -0.666189 -0.554026 -0.631686 0.119203 -0.543439 -0.765928 0.225026 -1.019456 -1.000078 1.554990 -0.510533 -1.478041 0.730574 -0.148704 0.315241 -1.082793 0.404723 -0.414271 -0.770235 0.333940 -0.631065 -0.959248 -0.295211 -0.222088 0.627918 0.140448 1.577167 -0.372964 0.119792 -1.370435 -0.012263 0.617197 -0.488818 -1.041071 0.803539 -0.120417 0.742159 0.772335 0.466941 -0.433819 -0.890007 -0.416891 0.257922 -0.026047 -0.461242 0.156067 -0.223904 -0.218903 -0.383567 -1.396471 -0.382333 1.294775 0.348791 -1.462250 0.705531 -0.325766 -0.501963 0.547401 1.586845 -0.564944 0.584826 -1.167651 0.039282 1.122400 -0.510628 0.425094 -1.064087 -1.115297 -0.665426 -0.721647 -1.222043 -0.357999 -1.894919 0.457944 1.292492 -0.708658 0.029480 -0.062264 0.175240 -0.589669 -0.437192 -0.423107 0.907100 -0.613716 
is -2.238542 -0.075308 -0.804121 0.798073 -0.270603 -0.338896 0.364289 -0.303550 0.040349 -0.652960 -0.245004 -1.482028 -0.104113 0.062892 -0.613587 0.122269 0.090965 -0.076738 -0.263469 -0.949869 0.835888 0.924740 -0.541702 1.677886 -0.433968 1.325362 0.082434 0.649874 -2.316700 0.574644 0.648125 -0.918112 0.523386 -0.513520 -0.148614 -0.095771 0.596237 -1.071857 -1.037395 -1.078176 -0.151975 -0.328456 -1.471112 0.833058 1.089597 0.045999 0.702500 1.292025 -0.071990 0.254344 -1.008973 0.104174 -1.277697 0.108704 1.003928 0.630542 -0.164912 -0.353035 0.220996 0.382291 0.444099 -1.952011 0.460062 0.458385 0.884351 -0.526064 1.149727 0.672804 3.311969 -0.117808 -1.337429 1.093988 1.236431 -0.809097 0.308909 -0.858777 -0.302565 1.685918 -0.229327 -0.180137 0.781647 2.273476 -1.115214 1.777334 2.398001 1.200180 1.141781 -1.631296 1.954644 -1.034786 -0.363207 0.087697 0.902854 -0.693487 0.087006 -0.984882 -0.536143 -0.193299 -0.171590 -1.188498 
black 1.873168 0.137976 0.014770 -0.822571 0.855088 0.385836 -0.088648 -1.125279 -0.531759 -0.456701 -0.041526 0.625819 0.469950 -0.665038 0.306843 1.154130 -0.661609 -1.094793 0.169926 -1.203714 -1.495295 0.105681 -0.930340 -0.159115 0.100050 0.321352 0.472365 1.123948 0.107043 -0.371750 -0.603831 -1.111870 -0.055743 -0.161885 0.530461 0.724294 -0.649323 -0.584611 0.037628 -0.807181 -0.191644 0.264716 -0.637472 0.705049 -0.037766 -0.406754 -0.876789 -0.490205 0.560961 0.317191 1.845464 -1.994108 0.311060 -0.419750 0.126067 -0.241383 -0.544588 0.935934 0.033257 -0.286923 0.384182 0.729447 -0.862675 0.268980 1.172790 1.523566 0.329868 0.738258 1.316312 0.486411 0.663604 0.531393 0.428968 -0.188451 -0.449182 0.612282 0.350409 0.163310 -0.408893 -1.204591 0.618212 -0.908909 -0.406432 0.449816 -0.064920 -0.380193 -1.119138 -0.545282 -0.872658 -0.354542 0.455599 -0.801143 1.234018 -0.476166 -0.063368 1.251984 0.809315 1.120846 0.658129 -0.815312 
and -0.176613 0.376456 0.851404 0.584223 -0.735681 -0.485884 -0.885190 -0.450094 0.030149 1.241416 0.038352 0.326292 -0.169911 -0.111781 -0.796986 -1.133267 0.498757 0.726130 1.024194 -0.106137 0.444229 -0.742763 -0.412591 0.552639 -0.607477 -0.278392 1.013206 -0.511006 0.377800 -0.475197 0.719286 0.759990 0.249644 -0.219679 -0.097463 0.872668 -0.432179 -0.216038 0.604988 0.399036 -0.095762 -1.017478 -0.213581 -0.266901 0.390454 -0.408965 0.687575 -0.701466 -0.606636 0.397377 0.235924 1.407997 0.312180 0.776940 -0.973300 0.810218 0.110119 0.690987 0.803229 -1.167529 0.054595 -0.162809 0.947966 -0.728788 0.555798 0.286145 -0.425824 -1.444606 0.278270 0.398102 -0.553847 -0.227306 -0.736472 0.033517 -0.537993 -0.216337 0.569965 -1.214068 0.794506 0.548685 -0.179670 0.241010 -0.483238 -1.649081 0.404618 -0.279862 1.078592 0.404302 1.580839 -0.264767 -0.937659 0.526491 -0.791421 1.256631 0.000022 -0.442692 0.034499 0.132605 -0.682215 0.281405 
with -0.360308 0.104534 -0.254548 -0.089566 -0.667457 0.029115 -0.133590 1.152056 -0.402316 1.137470 0.745640 0.544727 -0.329924 -1.147147 0.767589 -0.773812 1.320065 -0.942491 1.523368 0.860823 1.266442 -0.488096 0.029582 1.881801 -1.426640 1.114882 1.012122 0.455642 1.108254 -0.818774 0.059407 0.959696 0.315692 0.832903 -1.197069 1.466672 0.358882 -0.021073 0.911152 -0.578531 0.713099 -0.043152 -0.353665 0.551934 0.586134 0.582200 0.016869 0.356540 -0.195454 -1.195086 -0.313314 -0.244361 -1.038862 0.395074 -0.921983 -1.170509 0.020627 0.560124 -0.601504 -0.384245 -1.276206 -0.176238 1.134238 -0.714727 -0.241490 -0.215645 -0.732673 -1.632826 -0.984797 -0.348325 -0.305284 0.443675 -1.321605 0.523548 -0.942260 -0.640642 0.951359 -1.027371 -0.368600 -0.149140 0.706610 2.019830 0.828763 -0.769789 1.023580 1.153929 0.762836 0.422593 1.485674 -0.170913 -1.074859 1.503260 -1.462608 1.500404 1.162320 -0.157094 -1.322976 -0.136406 -0.504801 -1.004120 
he -0.738196 -0.015053 1.552883 0.823429 -0.107252 0.800297 -1.093917 -1.341312 0.131778 -0.165040 -0.154048 0.463186 -0.817248 0.973391 -1.500597 0.203795 -0.945738 -0.427187 -1.908715 -0.093933 -0.790884 -0.196285 -0.014451 1.028330 0.594553 -0.602699 1.042368 0.305594 0.490511 -1.210569 -0.606734 1.873611 -1.653865 0.454498 1.265411 1.537592 -2.168319 -0.258518 2.127370 -0.012406 -0.619828 -0.355540 1.265316 0.140262 0.357323 0.389940 -0.459234 0.659542 0.083756 -0.464183 -0.312403 1.189041 1.263093 0.286291 -0.560610 1.631885 -1.857564 -0.250385 0.717596 0.557912 -0.896396 -1.483709 1.111444 -0.903284 0.207265 0.245419 -1.036396 0.576197 0.690632 1.306029 0.861674 0.338169 -2.086660 0.479447 0.191375 1.282986 0.833630 -1.878395 0.758948 0.328605 -0.311027 -0.039409 0.106555 -2.852086 -1.259409 -1.547204 -0.355561 1.886694 -0.368360 -0.722858 -0.047101 1.363398 1.706952 -0.326923 0.673062 0.161495 0.258841 -0.382511 0.355034 2.937403 
wearing 0.876642 0.928614 0.207424 0.293384 0.208026 -0.410610 -2.153566 -1.799460 -0.255150 -1.201860 2.856875 0.535474 0.610874 -0.966532 1.013906 -2.178324 2.477919 2.978537 1.834457 1.301993 1.033548 0.249951 1.099329 -0.925724 0.818333 -0.647814 0.746467 -0.381243 -0.120230 1.285726 1.103449 -0.442983 -0.455747 0.432449 -0.923927 -1.057829 0.652401 0.165755 0.685591 1.468332 -1.559607 -0.156362 0.990135 -0.879388 -1.588989 1.007181 0.482685 -0.033191 -1.537855 1.432634 1.437971 -0.839537 -0.021298 1.284663 -0.248819 -1.650716 -1.066368 0.387026 0.688375 -0.541692 -0.914088 0.740014 0.566640 0.096606 1.157827 -0.497396 -0.015736 -0.673292 -3.083564 -2.090234 -1.643973 -0.136648 -1.346312 0.633070 -0.911485 0.456191 0.307337 -0.777609 0.680957 -0.574680 -0.563904 -1.384353 0.034258 -0.603428 1.474068 0.647941 0.749995 0.299765 2.618785 0.599924 -1.097870 0.865758 -1.482828 0.119570 -1.555700 0.196409 -2.203013 -0.048630 -1.628129 -0.027252 
his 1.822136 -1.334619 0.268441 -1.956090 -1.053887 -1.130859 -0.974320 0.370739 -0.197095 0.089110 -1.067528 -0.842020 -1.444908 0.441282 -0.540209 -0.051251 0.529880 -0.126284 0.137298 -0.422970 -0.123479 -1.172270 0.492773 -0.587405 -0.854513 -0.564414 -1.338605 0.148791 0.643208 -0.109574 -1.931721 0.948555 -1.462450 0.721815 -0.379326 1.435282 0.801370 -0.460185 0.438032 -0.728097 -0.627071 1.235658 0.505457 0.090860 1.392601 0.443175 1.135018 1.155026 2.107271 1.316948 -0.817730 0.244616 -0.168686 0.841397 -0.240624 -1.337183 0.590626 0.309862 -0.223544 -1.336713 -0.051673 0.192705 -0.185006 -0.386275 -1.677304 -0.382318 0.589627 -1.697962 -1.494523 -0.519411 0.036662 0.781928 1.085846 -0.701766 -1.035243 -0.012050 -1.408964 -0.201104 1.195156 0.685930 0.699334 -0.984179 0.167714 0.854800 -0.351408 -1.085418 -0.770176 -0.042049 -0.403237 -0.814901 1.085409 -0.443747 1.434595 -0.167111 -1.455384 -0.202294 0.196749 0.411982 0.144048 0.492990 
she -0.886711 -1.121044 0.506111 -0.073628 -0.291314 1.547209 -0.409588 -2.034764 -0.201674 -1.537998 -0.600934 0.463318 0.799690 0.390041 -1.418784 -0.095719 -2.074150 -1.442266 -1.120655 -1.352847 -1.430930 -0.798788 -0.021272 0.122781 0.401949 -0.889985 0.575229 0.709161 0.309558 -0.322134 0.068755 0.785886 0.221822 0.944888 0.939518 1.021662 -3.110186 -0.612810 0.422321 0.364265 -0.102498 -1.305357 1.423663 -1.118034 -0.999052 0.125742 -0.067568 0.048009 0.270144 -0.596064 -0.553234 1.234623 1.597783 1.582422 -0.528277 -0.131064 -0.478904 -0.069495 -0.133367 0.684528 -0.230375 -1.571829 1.578888 -1.126150 0.232517 0.223787 -0.341841 -0.370122 0.187482 1.155314 0.126161 0.247697 -0.841891 0.420619 -0.675483 1.480056 0.340987 -1.792313 0.410733 0.356786 -0.509453 -0.545603 -0.284187 -2.477034 -0.400185 0.435553 -0.327586 1.806212 -0.008964 -0.328160 1.149945 1.077955 0.274853 -0.029077 1.326323 0.136847 1.271190 0.373906 -0.315289 4.391610 
hair -3.960855 -0.790074 -0.666743 1.415093 0.418247 0.258111 0.695031 -0.053058 -1.014040 0.350132 -0.093142 -0.195968 0.103486 -0.472465 -0.509027 0.383211 -0.583603 -0.119774 -0.053782 0.444981 -0.778177 -0.235542 -0.319654 0.499483 0.704364 -1.201534 0.222387 -1.893021 0.294482 2.014478 0.476394 0.589377 -0.833910 -1.196077 1.067074 -0.332903 0.268107 1.972031 0.666927 0.467353 -1.455189 0.039249 1.499079 -0.431922 -0.486109 -1.839715 0.260567 -0.636060 -0.101010 0.455799 0.319512 -0.780068 -0.706577 -0.343382 0.172731 0.442829 -0.218449 0.093671 0.297522 2.360935 1.520864 -0.256387 1.047195 1.449237 -0.772118 -1.442619 -0.358427 1.517644 -0.820283 -0.091800 1.418711 -2.453628 0.917085 1.029525 -1.002564 -0.467496 -0.842202 -0.685814 1.204300 -1.083034 1.537233 0.554138 0.902888 -1.304849 0.028127 0.080641 -0.247848 0.683516 -0.166826 -0.840194 -0.434660 0.933207 -0.468038 1.266365 1.642801 -0.280801 -0.594993 -1.550336 1.191085 0.870021 
white 0.489150 -0.357980 0.979771 0.935942 1.610434 -0.395156 0.091728 -0.669189 -1.579090 0.597044 0.261743 0.386627 -1.341519 0.489016 -1.218068 1.085188 0.170348 -2.344930 1.003941 -0.578634 -1.286545 0.723227 0.053624 -0.394925 1.318344 -0.050293 -0.588304 1.162098 -1.548557 0.893614 -0.113207 -0.892460 -0.192993 -1.418281 0.342178 -0.294352 0.481701 -0.741289 -1.240597 -0.730931 -0.637619 -0.220846 -1.256292 0.564326 0.299797 0.427149 -1.350028 -1.685081 0.292182 0.786849 0.834592 -0.789014 0.609860 -0.866239 0.230620 0.536260 -0.652844 0.422500 0.207813 -0.276494 -0.348790 0.184586 -0.148003 -0.694134 0.221904 0.375461 -0.518597 0.402197 0.585947 -0.227145 0.334474 -0.150755 -0.867435 0.309247 0.680931 -0.247262 0.158303 0.410523 -0.905612 -0.017667 -0.401062 0.164799 -0.408444 0.206415 -0.621527 -0.056683 -0.046646 -0.945165 -2.054602 0.631250 0.524139 -1.700264 0.373307 -0.918703 0.316160 0.686557 1.757972 1.618383 1.453376 -0.743189 
dark 0.068309 0.096067 0.724748 -0.528209 -0.997383 -0.972768 0.513790 -1.137345 0.431503 -0.100583 0.361366 -1.113899 0.608943 -1.059664 -0.170894 2.003193 0.026348 0.758460 -0.819827 -1.538747 -1.194021 -0.152310 -0.932182 -0.819925 1.659692 1.081162 -0.560513 0.376586 -0.376674 -0.504840 -0.375546 -1.999435 0.973180 0.285604 1.061613 0.039592 0.529115 0.115435 0.339236 0.691415 2.082037 0.794737 -1.306214 -0.495739 0.275306 -1.735692 -0.622948 -0.606401 0.666463 -1.872003 1.937621 -0.687622 1.100007 0.499215 0.371447 -0.985283 0.249133 1.484493 -0.250571 -0.456226 -1.077099 0.620670 0.158490 0.443156 1.208913 0.196718 0.254530 -1.650115 0.762133 0.518345 1.302099 1.424618 -0.957370 -0.736266 0.660868 -0.582942 -0.059925 0.686660 -1.374864 0.853128 1.340726 -0.571479 1.404533 -0.680664 -0.722457 0.158046 -0.622205 -0.740258 0.261734 0.680668 0.351482 -0.660215 1.570609 -0.461604 -0.327785 0.902298 -0.339426 1.457689 0.609989 -1.494317 
in 0.767734 1.229509 0.643438 -0.881586 -0.242802 1.625648 -2.204159 -0.398454 -1.021235 -0.005826 1.677420 1.334459 -0.042763 -0.331028 0.187665 -2.270836 1.465007 0.198242 1.683506 1.573847 -0.054227 0.673398 1.645944 -0.998381 0.341628 -0.545016 0.118992 -0.268271 0.435878 -1.710679 -0.171839 1.900631 -0.833393 1.915268 -0.199423 1.302023 0.467700 -0.551926 1.588434 -0.518226 0.773958 -0.240042 -0.085462 0.053816 0.591709 -0.734506 -0.888785 -0.082512 -0.268331 -2.031266 -1.386294 1.610796 1.162265 -1.735656 -0.855938 -0.615497 0.380152 0.446345 0.432524 0.866744 -1.912089 0.183454 0.265120 -0.069647 -0.865177 -1.465936 -0.811279 -0.078824 -0.102312 1.073638 0.811374 -1.341562 0.876071 2.651211 -2.015579 1.231712 0.300838 0.525906 -1.445064 0.779272 -0.395602 2.064078 0.671947 0.323812 0.523916 0.818081 -0.024675 0.152043 1.272852 -0.352777 -0.200718 0.813887 -0.097299 0.106179 2.228069 -0.318755 1.105335 -1.106375 -1.616778 -1.207553 
her -0.421271 -2.132775 1.078293 -3.052112 -1.106106 -0.911032 0.289729 0.973565 -0.293888 0.128591 -0.036094 -0.899492 -0.883496 0.856283 1.009954 -0.760458 1.326692 0.958898 0.228317 0.134090 0.176631 -0.974512 0.107765 -0.895477 -1.060385 0.237173 -1.665232 -0.494676 -0.238752 0.665246 -0.759167 1.077950 -1.745569 -0.045543 -0.076169 0.998834 -0.137449 0.565673 -0.554144 -0.384514 -0.928009 0.576708 0.183556 -0.429710 2.123616 0.528415 0.100769 0.659806 0.851339 0.531471 -1.149155 0.139612 0.197785 0.928466 -0.678450 -2.105193 0.754541 -0.390215 -1.459003 -2.042853 -0.209752 -0.870032 0.072136 -1.483624 -1.185036 -0.208038 1.268369 -0.798452 -0.728015 -0.911254 0.734618 0.481558 1.569882 -0.548404 -0.337260 -0.158860 -0.356011 0.505804 -0.066962 0.684944 0.615869 -1.736338 -0.657606 1.642962 -0.441243 -2.109307 -1.575184 -0.310842 -1.433991 -0.474229 1.312620 -0.773035 0.509362 0.354102 -0.288173 0.737683 -0.135276 0.334653 -0.125061 1.569017 
coloured 0.608289 -0.296427 1.487267 0.560004 0.174375 -0.844774 1.635704 -0.015599 0.451466 1.408943 -1.287089 -1.564372 1.282703 -1.039571 0.011067 -0.207844 0.293464 -0.578025 1.607982 0.710413 -2.080613 0.810136 -0.155511 -1.365461 -0.701803 1.174327 0.977997 0.418006 0.249995 0.562670 0.863796 -0.958201 0.459707 -1.853337 0.632729 -1.078443 0.255145 -1.213868 -0.904845 -1.431901 0.322951 0.935590 0.043009 0.770838 -0.585865 -0.618128 -2.116809 -0.751572 -0.777766 1.208422 0.358810 -0.633553 -0.107045 -0.931263 -0.772994 0.049566 0.401584 0.484757 0.470948 -1.668133 -0.463151 0.576882 -0.840278 0.232008 0.200416 -0.762434 0.891275 0.218518 0.273576 -0.072159 -0.056971 -2.257972 0.545355 -1.112748 1.283553 -1.870667 0.125759 -0.224779 0.287036 -0.903431 2.041251 0.293633 -0.357749 -1.205987 0.347757 -0.103718 -0.447241 -1.290244 0.257016 -1.578788 -0.163285 -0.449383 -0.731318 0.301484 1.014780 -1.049420 0.103309 0.323896 0.064169 -0.229849 
colour 0.730309 -1.968590 -0.568428 1.360785 -0.150794 -2.121269 2.812845 0.123975 0.372044 0.720757 -1.377465 -0.075963 0.325720 -0.913204 0.886105 -0.342445 -0.626892 0.028372 1.258977 0.005983 -0.464128 0.274105 0.262979 -1.517210 -1.561659 -0.929756 0.543419 -0.184664 0.280585 0.583534 0.267904 -0.582115 0.419947 -1.906062 0.759317 -0.494228 0.539204 -1.522234 -0.973705 -0.478572 0.197970 0.875681 0.704804 1.285906 -1.245700 0.360914 -1.443078 0.074302 -1.293111 1.328714 -0.402907 -0.513496 0.113653 0.253484 -0.407594 -0.513560 1.143813 -0.048659 -0.163312 -1.987489 0.195502 0.412157 -1.036289 0.125273 -1.028683 -0.397616 0.041128 0.825710 -0.341322 -0.111158 -0.466798 -1.151578 -0.441442 -1.415692 2.040144 -1.090087 -0.140872 0.435280 0.932894 -0.521420 1.021514 -0.658168 0.014144 -2.138917 -0.184279 0.260847 0.509098 -0.777500 -0.892289 -1.189854 0.202874 -0.249785 -0.362657 0.639694 0.016887 -1.031088 -1.129325 0.463417 0.828947 -0.543891 
pair_of -0.792972 -0.976007 2.698351 -0.162541 0.598874 -0.946268 -0.012402 -2.763552 -1.556757 -0.546530 1.111161 -0.461637 -0.490712 0.739177 -1.143838 -1.143244 -0.877594 -1.344956 0.296740 -0.136162 -1.808223 0.300139 0.330002 0.142541 -0.365135 -0.980313 0.095683 -0.432992 -0.238538 1.446063 -0.628504 1.129955 -0.132895 -0.804596 0.759100 -0.272713 0.210539 -0.100538 -1.387095 0.394848 -0.059825 -0.065949 -2.138019 -0.272647 -0.210381 0.151796 0.216255 -1.365455 1.227674 0.063384 1.266928 0.081344 -1.630363 -1.430392 1.038548 0.640902 -1.145217 -0.924658 0.789670 0.288196 0.503701 0.348375 0.601995 0.457896 0.928319 1.489997 -0.623137 0.389565 -0.533464 0.458781 0.486306 0.354366 -1.254030 -1.534932 1.115300 0.058462 -0.684502 -0.057426 0.053668 -1.815451 -0.503717 0.851529 0.077018 0.329388 -1.082955 2.104508 0.916667 1.847397 2.007433 -1.732129 -1.590688 1.015950 0.979180 1.009771 0.269863 0.591027 1.199113 0.152643 1.074895 0.370034 
or -1.146610 -1.465433 1.740357 -0.125800 -0.082743 -0.847534 -0.058384 -0.444858 0.178278 -0.375990 2.219572 -0.569259 0.776827 -0.413546 1.203542 -1.512996 0.883434 -0.424634 1.733903 -0.016722 -0.346286 0.702197 -0.530188 -1.257150 -0.804918 -0.502955 -1.021228 -0.311561 0.542582 -0.450391 -1.343356 -0.321112 -0.525664 0.345052 -1.048598 0.139679 0.591950 -0.386807 -1.337975 -0.201005 2.350042 0.260550 0.006126 0.870718 -0.179272 -0.110642 1.140737 -0.540692 -0.353640 0.289799 -1.306842 0.884125 0.753017 0.573157 -1.268446 -0.293896 0.064085 -0.235245 0.135002 -1.479112 -0.265761 0.895419 0.806131 2.106099 -0.417184 -1.433124 -1.067097 0.823219 -1.582234 -0.790145 0.166602 0.299196 -1.584811 -0.082081 1.454566 -0.293697 0.232952 -0.354777 1.126600 1.069224 -0.709905 0.502346 -0.448055 -1.715144 -0.109198 0.884670 1.386402 0.868684 1.637388 -1.054029 -0.753948 -0.714351 -1.535138 1.364784 -0.217837 1.053728 0.740342 -0.203383 -0.656119 -1.245315 
has -1.387350 -0.545201 -1.523121 -0.164629 -0.674875 -1.353871 1.046057 1.321171 1.061526 0.549497 0.818477 -0.206932 0.902466 -1.491095 0.252132 -1.517566 1.580676 1.405086 2.255029 0.479302 1.169852 1.555098 -0.241712 0.975514 -0.682956 0.175128 0.580697 -0.513482 -1.052721 0.094138 -0.075510 -1.045125 -0.892228 -0.655712 -2.199809 0.164230 0.753019 -0.971593 -0.315469 -0.925903 -0.897683 1.149064 -0.202058 0.496001 -0.131253 0.750235 -0.276989 0.603930 0.682098 1.259419 0.067350 -0.893357 -1.510446 0.663121 0.505227 0.404006 0.265803 -0.376036 1.147966 0.993859 0.915633 0.304077 -0.329531 0.428261 0.763801 -0.449219 0.300086 -0.021207 0.547361 0.204294 -1.451663 0.512186 1.230183 -1.049672 -0.812491 -1.531518 -0.230615 2.406675 -1.876920 -0.290232 -0.090608 1.285408 0.689469 0.681542 1.944936 1.532221 0.991178 -0.881924 2.918172 0.281055 -1.319488 1.489272 -2.097960 0.631935 0.753781 -0.326000 -1.473543 0.770393 -1.789914 -1.443250 
short 1.463791 1.586812 -0.928063 -1.339875 -1.290346 -1.492458 1.659406 0.010365 -0.962303 -0.153007 2.473924 -0.542259 -2.008708 -1.046018 -0.710763 1.114311 -0.892521 0.086147 -0.768390 -0.122105 0.668721 0.506846 0.393368 -0.096250 0.633986 1.156716 1.099538 -0.761762 -0.484946 0.103470 -0.857769 -0.087605 1.062095 -0.076365 -1.089700 -1.470833 0.605165 -0.281200 -0.273255 -0.349591 0.485866 1.611501 -0.068963 0.054500 -1.212056 -1.018069 0.169345 2.384983 0.137845 -0.891853 0.116671 -0.067560 0.496589 -0.748896 0.172032 -0.023182 1.530685 0.060194 0.925996 -0.684556 -1.126763 1.387395 -2.960745 -0.583398 -0.382013 0.096077 0.750269 -0.794972 1.060687 0.072173 -1.369205 0.965487 -0.667529 -0.784833 0.942034 -1.788967 -0.494529 0.702600 -0.547969 -0.376351 -0.955699 -0.775469 0.129355 0.443366 -2.476696 -1.731748 -1.211390 -0.362280 -0.475945 -1.596368 1.444633 -0.460917 0.627734 -0.698163 -0.750226 -0.345297 -0.141745 -0.214910 1.053156 1.751565 
the -0.391030 0.107975 -0.577977 -1.281911 -0.076642 0.980211 -1.427488 -0.029511 1.570912 2.264000 -0.295720 0.579072 -0.772717 0.548718 -0.067332 0.158205 -0.017111 -1.221086 -0.771059 1.170896 0.860200 -1.792371 1.012829 -0.851353 0.671387 -0.739594 -1.593202 0.444392 0.793956 -0.241903 -1.414969 0.082035 -0.596444 0.081967 -1.049675 0.795924 0.278859 0.461534 -0.926589 -1.255505 0.498082 0.349316 0.600525 1.908171 0.648269 1.024982 2.038106 0.778198 0.126953 -0.061993 -0.230477 -1.490739 -0.827151 1.575187 1.248388 -2.069314 0.053826 0.406033 -0.975411 -1.171227 -0.698275 -0.515208 0.108363 -1.420309 -0.470703 0.687389 1.747216 -1.515196 0.557011 0.394628 1.038952 1.209650 -0.781383 0.218303 0.226101 -0.452914 0.297351 -0.787423 -0.235244 0.147090 0.095267 0.514561 0.553139 0.151169 -1.233390 0.444258 -1.424161 0.470328 -0.898534 -0.410270 1.660858 -0.413186 0.183830 0.537270 -0.442790 -0.384571 -1.077029 0.507486 -0.226216 2.242422 
on -1.022170 1.507992 0.428167 0.652250 0.346189 -0.125572 0.162798 1.897717 2.290840 1.199252 -0.769502 1.298091 -0.401009 1.498318 -1.767584 -0.983212 0.384699 0.557665 2.045048 1.360351 -1.361638 0.523760 1.419434 -1.061687 1.066083 -2.005228 1.645812 1.341063 1.179443 -2.384386 0.147649 1.866944 0.494317 -0.374595 0.305355 0.287711 -1.070182 -0.793083 0.592670 -0.308259 -0.810296 1.076600 -0.277237 0.271448 2.701204 -2.277192 0.524790 -0.826987 0.462671 -2.600220 0.122015 1.092239 1.077262 0.349778 -2.819243 -0.288148 0.138772 -0.759015 -0.549108 -0.936781 2.092484 0.404575 0.370964 -0.354760 1.246722 0.071841 0.851886 -0.472186 -0.717878 -1.753889 -0.531435 0.348552 -0.439010 -0.136410 1.002990 -0.178453 0.858172 1.267956 -0.611157 1.688203 -2.043635 0.984050 -0.669123 1.468540 0.656469 -0.135823 0.292935 -0.792592 1.208073 0.016248 -0.586935 1.844582 -0.660222 0.585478 1.055026 0.138130 0.350187 -0.024188 -0.776473 -1.248500 
grey 0.079290 0.081067 -0.149449 1.158183 -0.054852 -0.317721 0.169275 -0.643324 -0.564539 1.190255 -1.711517 0.843594 -0.129559 -0.105188 0.098598 0.081249 0.455335 -2.422101 1.158669 0.985698 -0.553209 1.758399 -0.358438 -0.772985 0.281403 0.175035 0.905788 0.765963 0.979416 -0.444789 -0.814019 -0.937627 -0.102412 0.892036 0.772854 -0.004969 -0.410572 -0.152552 0.444568 0.678148 0.287075 -0.132099 -0.311201 0.728235 -0.046281 0.268136 -0.897739 -0.103683 0.381802 -0.356149 0.525802 -1.912284 -0.225027 -0.787211 -0.909714 1.121611 -0.748946 0.044486 0.420044 1.449449 0.017170 0.746080 -0.864988 -0.492355 -0.240420 1.644276 0.036927 0.646227 0.706221 -0.149017 -0.215873 0.216007 0.764262 -0.684912 0.254655 -1.424349 -1.039725 -0.724233 -0.475931 -2.183477 0.834031 -0.143549 -1.962506 0.236930 0.479080 0.109435 -0.014338 -0.179580 -1.230540 -1.910128 1.370544 -0.882440 0.915006 0.677454 -0.163654 1.824927 0.331420 1.960081 0.972885 -0.241811 
wears 0.021109 -0.173199 -0.810301 0.339399 -0.097141 -2.131272 -1.249050 -0.207654 -0.344433 0.265136 1.850377 -0.947306 0.888814 -0.898788 0.984365 -2.387622 2.099036 3.500354 2.431795 0.067902 1.946334 1.186331 0.458937 1.170332 -0.614747 0.547701 -0.137552 -0.977858 -1.913777 1.818867 0.617847 -0.253658 0.468803 0.183822 -1.411090 -0.604285 0.811761 -1.182498 -0.615868 0.657170 -0.442194 0.058165 -0.818321 -0.914388 -0.110858 2.226979 0.204646 1.066942 0.445417 1.409132 0.292577 -0.359696 -1.299950 0.781266 0.751658 0.045235 -1.115178 -0.647998 0.575133 -0.598641 0.896410 0.437581 0.097895 -0.037482 1.131227 -0.429995 0.165999 -1.395625 -0.257744 -1.245085 -1.763283 1.079594 -0.117890 -1.940352 0.801521 -1.052005 -1.368409 1.951111 0.317793 0.142927 0.075829 0.236045 -0.431799 0.836613 1.561839 2.382632 1.167959 -1.209635 4.417044 -0.948996 -1.663470 2.372399 -0.554390 -0.636432 0.347938 -0.006506 -1.089224 0.627176 -2.693486 -3.116425 
shoes -0.587270 -0.229402 -0.634382 0.095051 2.257792 0.041157 -0.801188 0.215360 0.511722 -0.586314 -0.186840 -0.451839 -1.274578 -1.388409 1.439443 1.996067 -0.163283 2.154726 -0.199611 2.478309 0.553657 1.349676 1.759558 -1.782754 -0.228229 -0.549608 0.344586 -0.826952 -0.427661 0.299386 0.009285 -0.252509 -0.055675 -0.087724 0.076274 -0.911195 0.384823 0.835017 -0.330762 0.788010 0.297623 -0.878798 0.631090 0.293560 -2.727545 -0.937753 0.441163 1.920570 0.103751 -0.105144 -0.090841 0.088141 0.013301 -0.286180 1.142399 1.239246 0.452092 -0.432358 0.163400 1.857814 0.557729 1.308861 -1.544074 -0.138234 -1.419197 -0.769351 0.142629 0.441359 -0.549408 -0.954008 0.729478 -0.408702 0.583364 0.268501 -0.110857 -0.233415 0.241756 -0.513443 2.535537 1.244031 0.140946 -0.316915 0.465516 0.127242 -1.132429 -0.545885 -0.303783 0.651813 0.496720 -0.331426 -0.708552 1.005599 -1.660677 -0.059177 0.742197 0.547012 0.008634 -0.056871 0.099128 -2.452339 
carrying -0.931878 0.638268 -0.633039 1.304231 -0.786135 -0.348666 0.089042 -1.641659 -1.398011 -1.322053 2.578765 -0.184175 0.263275 -1.704998 1.045263 -2.041166 2.359828 3.546608 1.552568 0.640684 1.640342 0.102277 -0.130000 -1.604131 2.507267 -1.142074 -1.442377 0.530110 -0.017536 1.533253 0.614439 -0.161065 -1.132186 -0.432129 -1.698338 -1.243751 0.938422 -0.106206 -0.856061 0.722410 -2.297339 0.666179 1.253818 -0.883864 -0.675862 2.227018 -0.311126 -2.256592 -1.074824 2.082279 0.848395 0.018686 0.694714 0.284089 0.289013 -0.245096 -1.366193 -1.321668 0.123163 -0.374510 0.026988 -0.252360 -0.265128 0.804546 0.738960 0.297356 -0.645043 0.247336 -3.640566 -2.188459 -1.552610 -1.482274 0.508845 2.071106 -1.213529 0.181202 -0.719235 -1.661687 0.503138 -1.034219 0.299494 -0.998852 1.161912 1.006452 1.301867 0.991222 -0.489565 -0.436513 2.542566 1.736710 -0.489362 0.446779 -1.652627 -0.600911 -1.189000 0.422992 -2.761916 -0.202524 -2.752845 -1.162385 
man -0.774558 -0.335641 -0.029366 -0.378244 -1.009042 0.098193 0.026574 0.149186 0.067288 1.111578 -0.288169 3.046911 -0.450456 1.158746 -1.199892 0.718955 -0.506266 0.524630 -2.157999 0.205438 -0.908465 -1.142228 -1.472062 -0.254719 -0.199910 -0.769758 -0.348815 0.120724 -0.147705 -0.254783 1.474182 0.114406 -1.723317 -1.122356 2.731290 -0.462790 0.532805 0.678611 1.285087 -0.754155 -0.558259 -0.487702 0.999964 -1.059289 -0.764445 0.216980 -1.058757 0.224697 0.851208 1.051933 0.113806 0.752880 1.501917 0.453928 -0.875808 1.231883 -1.635201 1.368660 0.013574 -0.762278 2.601281 -0.839578 1.970393 1.615224 -1.233025 -0.200935 -1.213125 0.673849 1.500512 1.286524 0.782607 -1.760452 0.803641 -1.161488 0.879377 1.175206 0.268207 0.589641 0.452466 1.132098 0.429266 -0.904743 0.061832 -0.126363 -0.584411 -1.338951 1.318386 -0.037968 0.568878 -0.452559 -0.850103 -1.064564 1.390672 0.556044 -2.466496 -0.102919 1.824509 -2.025859 1.943834 0.236010 
backpack -2.064028 -0.307206 0.958644 0.200326 0.574459 -0.545078 -1.041504 -0.360672 -1.608583 0.303855 0.184003 -0.911902 -1.448972 -0.492554 -0.446467 2.557923 0.029704 1.434946 0.217962 0.245994 1.530457 1.555176 1.037480 0.180527 0.740836 -2.306386 -0.281754 -1.527978 -0.333819 0.555924 0.026397 -0.446146 0.376004 0.124282 0.007351 -1.047447 2.255548 0.573523 0.049696 0.682224 0.372464 0.144015 0.278139 0.275371 -2.453536 -0.000513 0.733991 0.100833 -0.628658 -0.977347 -0.705376 -0.056014 0.250951 -1.984567 0.833721 0.323436 0.348358 -2.070875 0.030731 0.989582 1.103881 -0.697677 -0.530696 0.466439 0.717417 0.854245 -0.511577 0.266235 -0.715689 0.121917 -0.494890 -0.746015 -1.424294 1.464565 -0.586373 -1.113892 -0.466932 1.707093 0.696427 -0.055510 -0.378784 -0.606816 0.980006 -0.673943 -1.916183 1.191570 2.109212 0.689117 1.110614 -0.337941 -1.242747 -0.165934 0.029396 0.696026 0.659807 0.624161 2.092960 -0.319519 0.128882 -0.483376 
long 0.885050 -0.531090 2.841905 -0.717123 -0.502473 -2.259691 1.850190 -0.286435 -0.482870 -0.817038 3.485449 -1.031198 -2.170537 -0.840731 0.428995 -0.542321 -0.282023 0.683796 1.148721 0.768024 -0.161420 1.218376 -0.130891 -0.957526 0.512614 0.454472 1.019123 -1.473276 0.510839 -0.271664 -0.104642 -0.488291 1.103716 -0.018691 -0.546943 -1.333654 0.960701 0.838927 -0.055682 0.150680 0.383576 1.190679 -0.041031 0.105879 -0.694232 -0.028844 0.100689 1.507559 0.254418 -2.608444 0.065269 -0.737664 0.216171 -1.138163 -2.031589 1.397869 1.633986 1.115954 0.397070 -0.484362 -0.503660 0.925354 -1.574464 -0.213054 0.912288 1.956554 0.807253 -0.672272 1.592115 0.175266 0.550025 1.907576 -0.347584 0.775174 1.223312 -0.168787 0.640135 1.008185 0.217413 0.125521 -1.434229 -1.328896 -0.638563 -0.027930 -2.429318 -1.630951 -1.028994 0.166586 -0.829026 -0.413755 0.863600 -0.106772 0.343517 0.732852 -0.597991 -0.204907 -0.444341 -1.290322 0.900113 1.289244 
brown 1.584681 0.578648 2.043611 -0.491518 -0.742032 -0.482869 0.772365 0.215293 -1.307076 -1.310557 -0.200873 -0.979606 0.036218 0.146099 0.074908 0.300712 0.432650 -1.393487 1.163706 -0.247463 -1.294178 0.614467 -1.158472 -1.118708 0.682643 -1.175092 1.264925 1.039852 1.161229 0.174399 -1.770633 -2.308862 0.776822 0.021146 0.781370 -1.100562 -0.926026 -0.819253 0.708965 0.510706 0.807567 -0.593621 -0.106616 0.419816 -1.790455 -0.314998 -2.517010 0.627215 1.389807 1.061260 0.933718 -1.684633 0.535958 -0.585247 -0.916859 0.077849 -1.439572 -0.248534 0.049824 -0.254112 0.872375 1.090724 -0.261005 -0.006757 0.129276 0.076875 -0.378520 0.431680 1.361687 0.590596 0.316411 0.143020 1.122857 -0.784138 -0.895577 -0.106411 0.136053 -0.612852 -0.353695 -0.024592 0.893544 0.958876 1.713997 0.253846 0.104993 -1.136569 -0.038251 -1.739301 -1.450950 -0.009777 0.281982 -1.393170 0.845377 -0.828916 0.486696 0.999665 0.813431 -0.023913 1.580552 1.200441 
probably -0.126633 2.196954 1.204513 0.352055 -1.287152 0.399243 0.912414 -0.171818 0.416770 0.837851 -0.308711 1.423304 0.137643 -0.401802 0.527649 -0.299081 -0.222720 0.149373 -0.788615 -0.302230 0.222223 0.536367 1.504644 -1.630155 0.424340 0.367305 -1.233758 0.331040 -0.781957 1.086058 -0.764475 -0.220461 0.435708 0.287656 -0.412052 0.034308 0.091858 -0.216296 -0.160096 -0.831356 0.107144 -0.607070 0.484501 -0.097131 -0.255559 -0.266037 -0.644038 0.711709 0.046631 -0.093940 1.235104 -0.592164 0.493874 -1.320184 1.166546 -1.455777 -0.481101 -0.919090 0.421803 0.036138 -1.168694 -0.505754 0.813227 0.131534 1.384525 1.302277 1.017302 0.927424 0.613093 0.546976 -1.039403 0.698285 0.036489 -0.037283 0.227344 -0.490478 -0.191647 0.093081 1.378933 -0.957651 0.243325 -0.656349 -0.418301 -0.546184 0.296581 -0.291434 0.664852 1.422709 0.714670 1.236921 -0.140111 -0.133444 0.834279 -0.311912 0.196163 -0.089460 -0.605306 0.751896 -0.739532 -0.539619 
pants -0.113084 -0.522179 -1.740898 1.670224 0.858912 -0.934506 -0.138067 0.451949 -0.364406 0.579778 0.617289 1.390661 -2.524167 -0.390792 0.047398 1.906828 -0.738294 1.173590 1.541633 1.636827 0.449563 1.390266 2.356223 1.450452 -1.235600 -1.403709 0.002595 -1.771193 0.084563 0.769107 -0.254479 -0.077070 0.145948 1.033337 -0.869907 -0.205631 0.613319 -1.076039 -1.649808 1.139720 0.374105 0.890720 0.773842 1.102393 -0.882068 -2.106873 1.136282 0.957830 -1.399509 0.881706 0.014924 -0.438104 -0.322916 -1.204676 2.376782 1.316658 0.524165 0.008633 0.248068 1.174017 0.593217 0.049506 -0.314039 -0.144255 -1.042087 -1.213149 0.558690 1.620039 -1.143463 -2.724418 0.841415 -0.096782 -0.169271 1.381432 -0.523337 0.628448 0.608551 -0.418354 -0.842124 0.381512 -0.909414 1.052185 1.639807 0.488262 -1.058408 -0.738510 -0.854240 2.010651 -0.549265 0.394466 0.874145 1.116035 0.270441 1.737178 0.402879 -0.129836 -0.856390 -1.132119 -0.184928 -1.067073 
red 0.735309 -0.219515 0.916987 -1.794210 0.751175 0.278085 0.282644 -0.688477 -0.082912 -1.231894 -0.564594 -0.177128 -1.429489 0.334533 0.850174 0.139358 0.032514 -2.095255 -0.070019 0.464949 -1.127970 0.349669 -0.471145 -0.843341 0.469987 -0.537420 0.614823 1.987124 0.099542 0.160517 0.015431 -1.409565 0.166078 -0.295844 -0.004531 0.334948 0.055169 -0.781903 -0.930218 1.182686 -0.072285 -0.883361 -0.769243 -0.761749 0.176706 -0.312838 -0.796961 -0.165145 0.439050 -0.084461 1.760383 -1.056862 0.375661 -1.553291 -0.405913 -0.436245 -1.394440 -0.221786 -0.305425 0.528557 -0.808634 0.641190 -0.165664 0.000242 1.024259 1.642936 -0.635340 1.299301 0.107010 0.588749 0.275191 0.431427 1.128668 -0.046685 1.210671 -0.487500 -0.795227 -0.331661 -1.314559 -1.234304 0.751785 -0.586973 0.286737 0.808482 -0.640836 -0.409745 -0.007292 0.524855 -1.080555 -0.332517 0.127128 -1.401322 -0.123820 0.647874 0.134628 1.736896 0.973384 1.032704 -0.438255 -1.174837 
jeans -1.356355 -1.117267 -0.833091 1.745743 1.700553 -0.689077 -0.987327 -0.105666 -0.026917 0.120907 -0.997137 1.106774 -1.825927 -0.125595 -0.451093 1.199984 1.939633 1.288734 1.202009 -0.108518 -0.106432 1.416564 1.942859 0.478437 0.411727 -0.514689 -0.138618 -1.637512 0.636497 0.796667 -0.910534 -0.726870 0.364818 0.086170 -1.033412 -2.606121 1.031029 -0.855283 -1.918589 1.032323 0.811904 0.296148 -0.120252 1.069244 -1.495563 -1.311585 -0.066033 0.076163 -0.836028 0.001647 0.311251 -1.109460 0.632153 -0.837921 1.439668 -0.171810 0.838097 0.134492 0.520645 1.213829 0.003870 0.965083 -1.064897 -0.726608 -0.129753 -0.695121 0.582641 1.371106 -0.433072 -2.078163 -0.522397 -0.610027 0.229432 0.651499 -1.346247 0.919160 -0.754545 -0.920316 -0.175219 0.028021 -1.298686 0.306477 1.806319 0.708058 -0.439795 -0.674957 -1.061256 -0.423269 0.547497 0.977577 -0.228462 -0.098412 1.079079 1.113083 0.008920 0.706774 0.040175 -1.939334 -0.326453 0.848591 
back 0.905554 0.643529 -1.997673 1.057773 3.485229 1.246717 1.536263 -0.274599 -1.575207 -0.407060 0.433267 1.187589 -0.731315 0.292638 -0.134298 2.484306 0.205137 0.767916 -0.832772 -0.222790 0.195819 1.442496 -0.674069 -0.036798 0.126541 -1.687431 0.422790 -0.000722 -0.224162 0.448192 1.591660 -2.753750 -1.030290 -0.228771 1.504317 -0.119902 0.862451 -0.134082 0.372883 -1.382465 0.319877 -1.111362 0.836864 -0.448933 -0.456509 0.656727 -0.765892 -1.272318 -2.085606 0.228484 -2.314065 0.540169 -0.612355 -0.066348 0.654086 1.054562 1.155668 -0.784986 -1.792810 0.358629 -0.534888 0.629253 -0.169858 1.578696 -0.968612 -0.859721 -0.011578 0.559949 0.689532 0.860267 1.119740 0.099873 2.617018 -0.289557 -0.803897 -0.428090 0.169616 -0.305406 0.390372 -0.751129 1.659962 -1.311713 1.860394 -0.825042 -1.550404 -0.499271 -1.413540 0.990836 -1.719653 1.595953 -0.963184 -1.376778 -1.198601 -1.496564 0.374659 0.084344 -0.651789 -0.942848 1.346360 1.387573 
carries -1.385669 -0.592034 -0.199458 2.653827 0.293032 -1.206994 0.674032 -0.846374 -1.204914 0.842585 1.147836 -1.494551 0.459173 -0.028396 1.383289 -2.329224 1.137283 2.093142 1.756126 -0.943583 1.758087 1.330690 -0.195229 2.132311 0.745449 0.599052 -0.699533 0.776371 -2.789875 2.111658 -0.106237 -1.633325 0.291203 -2.270645 -2.099960 -1.551476 0.921531 -2.366138 -2.571527 -0.213952 -2.621206 0.095321 -0.459671 -0.462048 -0.761004 3.166287 -0.847338 -1.291046 0.429868 2.644456 -0.234329 -0.489278 -1.637691 0.617863 1.236218 0.532189 -1.250328 -1.557850 -0.344412 -1.440258 1.262879 -0.983582 1.016173 -0.421643 2.348668 1.013773 0.090568 -0.504692 -1.789474 -1.013675 -1.796216 0.034952 1.508145 -0.136550 -1.030282 -1.297803 -1.649650 1.676935 -0.426872 -0.923857 0.313509 -0.284392 0.976502 2.203951 0.633688 2.554123 0.050659 -1.073455 5.541253 -0.348524 -2.939438 2.298265 -1.073553 -0.465857 -0.343269 0.576135 -1.434576 -0.075750 -3.196604 -2.394450 
blue -0.374639 0.963989 1.456066 -0.124042 0.317200 -0.514855 -1.026601 -1.534408 0.605527 1.306211 -1.217692 0.698092 -1.131753 -1.082566 0.864972 0.634224 -0.092164 -2.603053 0.614516 0.590338 -1.400279 0.550359 -1.564931 -0.260053 -1.561480 -0.784320 1.111893 1.011893 0.009970 -0.611448 -0.918194 -1.626245 -0.912128 0.080921 0.101502 -0.246648 -0.615080 -1.200282 -1.478384 1.645899 0.259827 0.217705 -0.109316 -0.122736 0.737520 -0.508248 -0.045538 -0.123009 0.958881 0.437812 0.804179 -0.296591 0.390077 -1.223462 -0.000500 0.629004 -0.831241 -0.025431 -1.250916 0.735959 0.556852 0.422419 -0.877406 0.013915 -0.321978 0.859377 -0.133041 0.735210 1.006961 1.274786 0.338483 -0.537908 -1.002928 0.649495 -0.269926 0.321982 0.833236 -0.228012 -0.822530 -2.148548 1.419852 -0.664104 -0.410685 0.648388 0.812302 -0.054670 0.231878 -1.254962 -1.357489 -0.603142 -0.078196 -1.302009 1.505484 0.659903 1.520983 0.131764 0.625074 -0.131839 0.881180 -0.451594 
t-shirt -0.729588 -0.300071 1.496312 0.244441 1.352702 0.719616 -1.739045 -0.773605 -0.721109 0.398508 0.470449 -0.088145 -0.697503 -0.193608 0.486863 -1.319048 -1.299017 1.037629 0.461140 0.287588 0.423636 0.721297 0.900982 -0.054394 0.264058 -1.551618 0.588929 -1.691710 1.484130 0.252737 -0.631337 -0.649066 -0.922926 -0.281027 0.228525 -1.140915 1.778306 0.518681 -0.617781 0.731862 -0.951252 -0.791867 0.161047 -0.986671 0.112735 0.157446 0.156244 -0.098701 1.185885 0.189833 -0.619302 -0.410502 0.450172 -1.207070 -0.383530 0.938862 2.120082 0.917104 -0.195213 -0.166706 1.203303 -0.211026 -0.590367 0.862662 -0.871329 0.166049 0.009399 0.336096 -0.288771 0.904172 -1.008729 -2.055333 -0.496535 0.398382 0.043253 -0.278015 -0.421479 -0.081169 1.760714 -1.062982 -0.137353 -1.664548 -0.506333 -1.457734 -1.315477 2.119516 1.283817 1.519454 2.030180 -1.475775 -1.084212 0.188202 0.810761 0.866332 -1.116565 -1.072698 1.247926 0.620637 -0.132058 -1.578992 
top -1.452949 -0.005465 -0.721844 -0.155316 0.996495 -0.455311 -0.841557 -2.261259 -0.184079 -0.767500 0.522232 0.657157 -1.232913 -0.038682 0.681855 -0.032885 -0.942474 1.228407 -0.178274 -1.148769 1.045757 1.286416 -0.312223 -0.704641 -0.411619 -0.489298 -0.857659 -1.123287 0.375399 0.101037 -0.430308 -1.723366 0.814209 1.283976 -0.241771 -1.122794 0.796542 0.347464 -0.017678 0.836336 0.067013 -0.144151 -0.606228 -1.159925 0.536229 0.512282 0.465615 -0.048593 0.688325 0.366965 -1.386034 0.027139 -1.045659 -0.775719 0.179885 -0.051279 2.493518 -0.363694 -2.349408 -1.317979 0.905296 -0.205209 -0.364194 0.599047 -1.436452 -0.457423 0.185028 -0.124923 -0.270610 -0.414070 1.207963 -1.287694 0.797262 0.274776 0.191879 -0.658983 -1.273809 0.225708 -0.305477 -1.705347 -0.120086 -0.776327 -0.058265 -1.213663 -1.200234 0.581908 1.436989 1.576346 -0.014532 -0.515022 -1.991220 -0.911488 -0.958668 0.889776 -0.052303 1.542739 1.060569 0.579727 2.286159 0.794645 
it -0.944840 0.050241 -0.014231 -0.983385 0.950582 0.270052 -0.816608 -1.415461 0.236441 -0.665017 2.100096 1.752856 -0.280427 0.987017 0.360518 1.698987 -0.384220 1.898537 -0.002283 2.273473 0.071490 -0.086210 -0.383625 -1.294604 1.369171 -0.392869 -0.337619 0.176961 -0.585929 2.039899 -0.835515 -0.972958 -2.136951 1.018303 -0.968102 0.351309 0.938257 0.745975 0.125251 -0.715209 0.415054 -1.100068 -0.853539 1.310013 -1.332202 0.793381 -0.017651 -0.226605 1.065120 1.589234 1.117157 0.995036 0.781275 0.377807 -0.489488 0.148526 1.183017 0.652585 -0.575551 -0.182046 1.184956 -0.464361 1.409733 0.058878 -0.301088 0.300829 0.703167 0.830734 0.525614 -0.260113 0.667042 -0.450396 0.076635 0.174989 -0.719430 0.683924 -0.557160 -0.652740 1.009965 0.059301 -0.684507 -3.003155 0.950511 -0.267264 -1.036666 0.630331 -2.489527 0.970120 -1.010122 0.651823 2.830301 -0.644163 0.791352 -1.584606 0.003525 0.533799 -2.764626 0.607248 -1.597855 0.752026 
jacket -0.605728 0.907088 0.884985 -0.283080 1.801252 -1.458675 -0.821562 -1.448964 0.145764 0.010823 0.391466 1.011101 -1.534917 -0.026707 -0.167678 0.491970 0.686346 0.248045 1.243779 0.658107 0.785335 1.420467 1.296110 0.100919 1.530261 -0.068247 0.434244 -1.845119 -0.215888 0.575574 -0.142390 -0.098308 -1.115757 -0.045661 0.377558 -1.432101 0.736827 1.726694 -0.345106 0.388316 -0.413459 -0.371117 -0.138967 -1.038300 -1.613843 -0.078375 0.049847 0.807920 -1.777205 0.578613 -0.566587 1.218183 -0.439328 0.123403 0.478728 -0.552237 1.386688 -0.468210 -1.286189 0.278285 2.260132 0.607306 -0.389843 1.475418 -0.265299 0.901538 0.581993 0.957427 -0.354473 1.165189 1.078406 -1.984878 -0.932493 0.691117 -0.107248 0.903478 0.215483 0.110503 0.659261 -0.879686 0.921086 -0.933129 -0.322889 -0.660529 -1.347251 1.791435 0.718283 1.663379 0.532651 -0.447712 -0.334188 0.095311 -0.555926 1.103155 0.464617 0.075526 0.780149 0.225211 0.451194 0.081418 
tall 0.177468 1.460875 -1.340003 -1.710844 0.178357 1.555229 1.221374 0.934206 -0.966292 -0.627684 2.472474 1.778061 -1.841014 -0.566219 -1.478799 1.285145 0.740776 0.088927 -1.947752 0.261317 -0.011252 -0.253308 0.671874 -1.191792 -0.620602 0.751314 -1.217477 -0.427845 0.505297 0.509576 0.143286 -0.437702 0.240871 0.143645 -0.637018 -1.085107 0.375010 1.146575 -0.144300 -1.133819 0.996813 0.591758 -0.057456 0.339086 -0.009362 0.471576 -0.574692 0.949257 0.473388 -0.958471 1.046134 -0.913858 0.324745 -1.783255 0.281065 -0.030375 -0.499424 -0.593241 1.163813 0.709190 -1.345537 -0.698351 -1.014768 0.098998 -1.346212 -0.400797 0.410524 0.125191 -0.141322 -0.960852 0.172107 0.588436 -0.309023 -0.322082 1.184744 0.815261 0.108721 -1.088206 -0.623045 -0.115765 -0.516927 0.153551 1.283432 1.512142 1.105947 -0.309277 -0.667121 -0.763678 0.132765 0.311870 0.335431 1.023527 1.161580 -0.074847 -0.572340 -0.864943 -1.429550 0.457833 0.014334 0.258730 
of 1.680178 -0.494328 2.495159 0.433281 -0.871873 0.440514 1.205156 0.009269 -2.107045 0.145715 1.521404 1.916333 -0.027965 -0.142907 2.002273 1.706910 1.757136 -0.667423 0.649273 0.014649 2.199980 0.314113 2.164874 0.566428 0.741810 -1.559381 1.768835 -0.405349 1.224965 -1.170138 -0.063536 -1.712852 -0.506742 -0.262664 -0.068837 -0.514687 -0.165586 0.335054 0.247101 0.443634 -0.206925 0.683980 0.112636 0.648758 1.356732 -0.038250 0.056761 -0.321617 -0.030850 -0.054115 -1.111893 0.516029 -1.106052 0.309322 0.109141 -0.198773 0.342578 -0.426471 -1.573723 -1.228871 1.618423 0.926166 -1.069853 -0.116610 0.718442 -0.239983 -0.328488 -0.452599 -0.713999 2.351186 -0.539607 0.451652 0.700265 -0.489307 -0.317824 -1.162154 -1.983405 0.124237 -1.592154 -0.148652 -0.529980 0.707658 -0.614180 -0.861840 1.844249 0.555704 1.707676 -1.012824 -0.737917 0.657577 -0.080362 2.585235 -1.127042 1.783176 0.036580 -1.051216 1.429471 -0.856833 -0.661877 0.375909 
right_hand -1.585315 0.549223 -3.346892 1.440031 2.293958 2.171652 1.780962 2.422899 -1.669869 -1.282733 0.130280 1.599758 -0.104975 -1.157718 0.750351 2.459419 -0.911266 0.088330 -0.377717 -0.993374 0.124569 1.129688 0.399950 -2.002190 1.370703 -2.498455 0.453692 0.451304 0.337449 0.962647 0.717325 -2.187174 -1.084838 -1.634606 1.195122 -0.731176 1.317547 0.568803 -1.218374 -0.536220 0.114739 0.132056 0.969486 0.314895 -1.088320 1.200957 0.088330 -1.087100 -1.250957 1.383027 -1.885347 -0.494319 0.008834 -0.269027 1.249172 0.220047 0.841449 -0.902923 -1.321558 0.088622 1.085488 -0.197560 -1.270286 2.232656 0.524768 1.689268 -0.176344 0.935795 -0.201517 0.297884 -0.483136 1.836829 1.127350 -0.809387 0.878792 1.157036 1.050529 1.287988 1.894215 0.134028 1.760310 -2.276604 0.971076 -0.765287 -0.741474 -0.864780 -0.122217 0.666969 -1.258098 1.787303 0.006778 0.022422 0.151781 -1.985195 -0.736637 -0.750723 -0.568993 0.578001 1.616045 0.930801 
bag_on -4.330516 -0.329122 2.643299 -0.204722 -0.505671 -1.781785 -1.950909 0.919352 1.127217 1.037926 -0.597002 -0.983403 -0.762383 0.763273 -2.359864 0.149119 -0.305587 -0.486818 1.369283 1.221667 -0.286785 0.322302 1.266776 0.206921 1.851585 -3.634639 3.007384 -0.317478 -0.016677 -3.486007 -0.773880 1.312246 0.215540 1.544989 0.535832 0.427919 -0.341897 0.661924 0.723735 0.064070 -0.479432 -1.948563 0.096157 -0.561828 0.398488 -1.359966 0.571471 1.077354 -0.814517 -1.477506 -1.893896 0.816414 -1.165436 -3.774930 -0.836984 -0.014540 0.640521 -0.086232 -0.037099 0.610898 2.798805 -1.606071 2.138925 -0.169581 1.259322 0.701882 1.072994 -0.030153 -0.674900 -0.048931 -1.415854 -0.782842 -2.101938 0.044033 -0.264191 -0.051003 2.312433 1.410967 0.368889 1.655385 -0.679679 0.802435 -0.065165 1.394007 -0.077250 0.274509 2.595480 0.622173 2.374172 -1.800439 -0.992258 1.948299 0.819546 2.401343 1.833215 -0.592672 0.682583 1.244687 -0.450774 -2.329974 
girl -0.801393 -0.458849 -0.379081 -0.049607 -1.154441 1.913435 0.993505 0.258428 -0.290378 0.980571 1.048611 2.071905 -0.752925 -0.670183 -2.685630 -0.903564 -1.665604 -0.682221 -1.157412 -1.353766 -2.090653 -1.207138 -1.105659 -1.867095 0.248380 -1.151513 -0.939279 0.376511 -0.615293 0.653568 0.889746 -0.361831 -0.497492 -0.542204 2.181772 -0.234439 -0.721074 0.861693 0.314690 -0.036350 -0.951461 -0.184757 0.820335 -1.790515 -0.824161 0.250506 -0.460285 0.925529 -0.493856 1.825047 0.747559 1.223462 0.776377 0.748468 -0.070471 1.207158 0.290068 1.525960 0.930912 -0.198948 2.185835 0.079678 1.214825 2.265519 -1.295585 -0.088203 -0.277184 0.893930 1.450191 1.094371 0.379775 -2.257155 0.925959 -1.574222 0.129534 0.501138 0.171878 -0.054301 -0.588507 0.187351 -0.382456 0.023507 -0.209257 0.119423 0.235175 -0.176229 1.222707 -0.124618 0.501946 -0.001876 0.283453 -1.320923 1.080928 0.278434 -1.166031 0.400476 0.951236 -0.702181 2.634014 -0.195468 
shirt -0.733502 -0.556592 0.785318 -0.955807 2.584231 -0.125473 -1.329192 -1.355373 0.421276 -0.387207 0.746149 0.891958 -1.606068 0.247270 -0.228535 0.198453 0.103236 0.787485 -0.056422 -0.625574 0.757481 0.681554 1.341643 -0.171914 0.679699 -0.269575 -0.107933 -1.429522 1.461589 -0.035989 -0.477454 -0.791665 -0.405286 0.299130 0.727322 -0.972528 0.675965 1.123778 0.856716 0.413698 0.023034 -1.715988 -0.857962 -1.024545 0.131402 0.246948 0.622505 1.205893 0.877243 -0.902221 0.156405 -0.934959 0.381004 -0.879635 -0.514909 0.051228 1.852122 0.503043 0.407635 -0.372439 0.937406 -0.031430 -0.805629 0.823188 -0.374015 -0.807342 -0.307393 0.686415 1.383366 1.006756 0.822242 -1.044611 -0.464490 -0.127618 -0.051167 0.065586 0.226666 -0.987073 1.499198 -0.930467 -0.562403 -0.327147 -0.331520 -0.487535 -1.104089 1.268911 1.169918 1.371383 0.594449 -1.507518 -2.126082 -0.889092 1.314601 0.944093 -0.545870 -0.000015 1.273346 -0.002186 0.500282 -1.844548 
trousers -0.266701 0.009746 -1.482946 -0.191872 0.164003 -0.692553 -1.542369 -0.762912 -0.164146 0.443959 0.348727 -0.177319 -2.815716 -0.363085 -0.513054 1.591946 -0.515035 0.281269 -0.128701 0.661216 0.036933 0.604427 1.686844 -0.184486 -0.492525 -1.130197 0.287684 -0.831581 1.086638 0.284894 -0.753203 0.562842 0.363745 -0.580327 1.281298 -1.281825 1.833505 -0.078940 -1.376979 1.172478 1.086585 0.837638 0.625624 -0.216994 -0.502600 -1.936259 -0.203561 1.057193 -0.107672 -0.689939 0.730504 -1.234135 0.110699 -1.207793 0.160858 -0.437579 1.483327 -0.976561 0.794323 -0.244984 0.569388 -0.157239 -0.393484 0.776795 -0.587183 -0.752164 0.486209 1.052474 0.306849 -1.243161 -0.576265 -0.677619 1.423971 0.490310 0.379927 0.676468 0.783559 -0.379002 1.675605 0.096647 2.074573 0.094927 1.119453 -0.153017 0.342495 0.386275 0.617064 1.419542 -0.851465 -0.050841 -0.303816 0.538535 0.496446 0.890981 0.484457 0.317405 1.124769 -0.147554 0.483622 -0.855918 
shorts 0.021820 -0.649853 -0.938318 0.188545 0.854192 -0.350556 -0.334676 0.129158 -0.143955 0.242744 -0.304203 -0.983378 -2.142575 -0.330333 -0.022188 0.593941 -0.184352 0.983909 0.115770 -0.000901 0.714587 1.106315 2.259003 -1.211246 -0.740718 -0.589103 -0.302654 -0.533146 2.221662 0.070005 -0.459291 -0.863088 -0.009827 -0.068101 0.547212 -1.004407 0.569015 -0.979472 -1.054435 0.994498 1.052634 -0.151232 0.282567 0.364306 -0.658685 -0.484137 0.583300 0.620292 -0.218862 0.292403 1.165130 -1.377492 0.683723 -0.827367 1.976206 0.187411 1.082823 -0.492917 0.003130 0.677907 0.691233 -0.423672 -0.805180 0.608275 -1.786875 -1.754921 0.677682 0.616445 -0.360553 -2.421413 0.358886 -0.411596 1.053817 0.357401 -0.293833 -0.074003 0.186560 -1.211051 1.365628 0.320441 -0.110155 0.467725 2.111571 -1.198750 -1.360000 -0.829124 -0.731861 1.661177 0.582966 0.462867 0.758842 0.083689 -0.875978 0.953302 -0.111488 1.128772 -0.239192 -1.458529 -1.840374 -0.889478 
holding -0.759649 0.973907 -2.090857 0.376406 0.324220 0.342851 -0.680069 -2.061750 -1.476294 -1.531438 2.297670 0.485016 0.559102 -0.129760 1.868316 -2.079303 1.763835 1.167508 -0.126201 0.391618 -0.845273 0.970293 0.678908 -2.705115 1.219683 -0.876371 -0.691116 -0.182363 -0.332175 -0.018022 0.195943 -1.587493 -1.314518 -0.697340 -0.488125 -0.515972 1.166780 0.109896 -0.606158 -0.070643 -1.368509 0.997793 0.776906 -1.504879 -0.442230 0.755301 -0.021173 -0.704227 0.518005 1.460623 -0.690366 -0.408535 0.216932 0.093875 -0.205748 -0.708024 -0.929973 -0.443034 -0.035023 0.373777 -1.336697 0.384784 0.489095 -0.140891 -0.586874 0.716878 -0.173495 -0.703423 -3.505605 -1.737084 -1.280291 -0.852792 -0.204620 1.454637 -0.878870 0.886990 -0.677126 1.034478 -0.914337 -1.401411 -0.164564 -1.899733 0.395551 0.864238 0.831101 -0.206679 0.884502 0.797599 0.812708 1.290641 -0.330295 0.693856 -2.062257 -0.933893 -1.779667 0.790439 -0.418056 -0.042687 -3.603642 -0.695909 
left_hand -0.373261 0.461585 -3.709949 1.778299 2.700301 1.184739 1.046308 2.574278 -1.204541 -0.488734 1.959940 1.795160 -0.076098 -0.894681 1.804329 3.373383 -0.112120 0.080450 -0.130274 -1.381107 -0.381246 1.434811 1.346186 -2.150167 1.472213 -1.982923 -0.176497 0.177436 0.613841 0.150796 0.772822 -2.509608 -0.726473 -1.364243 1.157985 -0.143690 0.614143 0.142526 -0.246879 -0.371624 -0.299660 0.107708 1.705916 -0.396835 -1.364696 0.340787 -0.414798 -0.535098 -1.594476 2.186434 -1.733988 -0.492027 -0.647909 0.031938 1.575642 0.439436 1.356790 -0.281892 -1.744892 0.222837 1.122981 0.624848 -0.682984 2.042980 -0.538341 1.053363 0.398644 0.916388 -0.177123 0.984099 0.549576 1.487686 0.335107 -0.853960 0.138523 2.232970 0.956368 1.294596 1.551335 -0.091948 1.142950 -3.348088 0.932543 -1.491076 -1.647533 -1.316446 -0.124803 1.000134 -1.456059 1.184424 -0.383741 -0.473722 0.525731 -1.768167 -0.864435 -0.841870 -0.524257 0.154630 1.094524 1.201185 
bag -1.528750 -0.504435 0.312358 0.287987 0.258320 -2.397509 -0.702855 0.025298 0.834211 -0.100493 0.022006 -1.705392 -0.523058 0.298270 -0.219553 1.749194 -0.603297 -0.757071 -0.061901 1.041794 1.182910 0.807591 -0.095045 -1.116228 1.636228 -1.377690 1.470670 -0.763279 -0.260467 -0.079416 0.460142 -0.866866 -1.141524 0.123227 0.642263 -0.863476 0.216357 1.087271 -0.355735 0.098451 0.528940 -1.868038 0.423128 -0.766255 -0.979950 0.088717 -0.604321 -0.509988 -1.321684 -1.125918 -1.561199 -0.387577 -0.976909 -2.544743 0.271398 -1.079097 0.881524 -0.837906 -0.054063 -0.175541 3.941075 -1.165021 1.601851 0.261106 -0.433541 0.865475 -1.176445 2.097454 0.417026 -0.493436 0.797116 -0.465860 -1.458262 0.689499 -1.316100 -0.565598 0.315549 -0.008275 1.448679 0.283524 -0.335373 -1.442944 0.997132 -0.091394 -1.212664 -0.586568 2.703621 1.732586 0.981258 -1.337092 -1.212714 -0.184774 1.907712 -0.536980 0.058184 -0.439927 -0.390262 -0.589820 0.502413 -1.768463 
slim -1.532482 1.293549 0.353788 1.789796 -0.118838 1.442022 0.864427 0.334251 -1.276361 -0.685550 0.730008 0.484119 -1.602400 -0.752047 0.356661 2.509340 0.593484 0.693447 -2.103965 -0.113202 -0.287772 -0.191647 0.104198 -0.911667 -1.160163 0.818505 -0.841919 0.827276 -0.724384 -0.130336 -0.352667 -0.023838 -0.657532 0.469766 1.438975 0.876157 0.493794 -0.630954 0.150244 -1.287257 -0.286837 0.015707 0.716326 -0.141835 -0.032188 -0.156410 1.211368 0.881818 -1.401952 -0.634460 0.785813 -1.633178 0.202028 0.942580 1.734665 -1.801938 -0.325555 0.353205 1.240637 0.389633 -2.122921 1.520731 -2.013566 0.238638 -0.786747 -0.195343 0.658370 0.303636 0.571521 -0.433941 -0.541826 -0.220464 0.933947 0.336861 -1.205299 0.577935 -0.087701 1.303892 -0.661752 -0.597623 -0.025798 0.323113 1.263436 1.334177 -1.091462 1.375265 0.051814 0.908817 -0.464651 0.739156 0.408039 -1.980155 -0.638746 -0.262859 -1.714386 0.638306 0.805460 0.316182 -0.468314 -0.332827 
tshirt -3.357787 0.243728 2.059375 -0.124507 2.597021 -1.088070 -0.179971 -2.932028 -0.232454 -0.215018 0.932470 0.625155 -0.187660 -0.353972 0.413160 0.113356 -1.808054 -1.228769 -0.937205 0.189159 -0.177695 -0.445745 0.435911 -1.182269 1.823327 -0.575949 -0.257633 0.422020 0.148923 -0.140209 -1.103685 0.486626 0.988196 -0.272677 0.676444 -0.678347 0.500050 0.957590 0.578277 0.150540 0.783920 -1.039679 -0.834683 -0.552856 -1.446471 0.391673 0.894799 1.067461 1.211515 -0.776364 0.437863 1.861491 -0.003476 -1.056461 -0.366599 1.253192 1.240963 -0.587846 -0.188274 -0.033067 1.052192 0.144872 0.491094 1.643062 -0.506255 -0.596140 -0.537468 0.194174 0.342438 -0.369191 0.454850 0.195902 -0.494111 -1.122445 1.065664 -0.583037 0.565637 1.204409 1.228732 -0.011836 -0.441367 -1.187761 0.125189 0.291748 -2.757036 0.796620 0.721132 0.098067 1.885277 -2.636401 -1.571422 -1.602354 0.674511 0.895319 0.463648 1.753862 1.993006 -0.765130 1.889435 -0.799460 
boy -2.928428 -0.443516 -1.487849 -0.628836 -0.460285 1.053793 0.016885 -0.936834 -0.188584 1.826801 0.719183 1.828724 -1.098357 -0.455161 -2.676106 0.502037 -2.252568 0.168998 -1.821803 -0.617381 -1.031895 -1.371034 -1.958009 0.250277 -0.260203 -1.947270 -0.356584 0.161213 -0.015145 -0.537512 1.070768 1.175044 -1.971714 -0.625344 1.852386 -0.558024 -0.130482 0.996915 0.964591 0.156319 -0.662227 0.217203 -0.058876 -1.506703 -0.803700 0.823729 -1.466218 0.932088 -0.085105 0.960192 0.431029 0.936976 1.353739 0.616773 -0.451632 0.396605 -1.174599 0.567017 -0.000552 -0.839061 1.294194 -0.432522 0.960989 2.123665 0.292855 -0.980168 -1.337516 2.428237 0.898886 1.864178 1.100512 -1.472607 0.804089 -0.605878 0.960377 1.806633 1.033470 0.162657 0.557545 1.043640 -0.858286 -0.492853 -0.641610 -0.629398 0.196332 -1.188750 0.984153 -0.411247 -0.513258 0.768185 -1.480165 -1.032078 1.283306 -0.899965 -2.440903 0.686610 0.758535 -2.147527 3.116175 -0.131028 
green 1.391322 0.808165 0.734065 1.485200 0.447188 -1.196470 1.023063 -0.018316 -0.150224 -0.212113 -1.231388 -0.366332 -0.089892 -0.060876 0.262395 0.358156 1.693897 -1.477672 1.473422 1.029981 -0.445337 1.536161 -0.572971 -0.185185 -0.736420 -1.343897 -0.579843 -0.756707 -0.043976 0.961596 -0.326978 -0.642956 -0.958021 1.865015 -0.209087 -0.764562 0.477613 -0.543682 -0.835481 0.784911 0.147305 -1.301773 -1.104215 -1.614525 0.235324 1.288970 -0.719192 -0.180494 0.364096 -0.128231 0.774110 -0.219928 0.184110 -0.902679 -0.374237 0.885310 -0.902654 -0.435919 -1.507024 0.165965 0.273373 0.936365 -0.276625 0.781326 0.727633 -0.397322 -0.649547 1.222203 0.594208 1.433611 0.101855 0.308431 0.482940 1.131129 -0.004564 -0.230408 -0.076436 -1.464863 -2.371924 -1.997993 0.268838 -0.470175 -0.995634 0.759757 -0.481582 1.202192 -1.681425 -0.393555 -1.622764 -2.401402 0.781640 -1.510032 1.353306 0.928239 0.849469 0.712492 -0.030075 1.129162 1.886462 -0.519025 
beige 1.851000 -0.874022 0.002596 -0.022729 0.266995 0.277850 0.611898 -0.889464 0.273614 -1.319646 -1.245281 -0.418420 -0.531991 1.276684 1.136166 0.183113 1.389850 -0.308728 0.815856 0.524025 -1.617979 1.606119 -0.601865 -1.783032 -0.314846 -1.041079 0.172514 1.215148 0.944049 0.149865 -0.964054 -1.252782 0.274302 1.325254 0.725583 0.545620 -0.772281 0.035939 0.691728 1.314377 0.285325 -0.990740 -0.706840 0.002637 0.601234 0.978221 -1.376181 0.593957 0.130310 -0.159294 1.529203 -3.282508 -0.085025 -1.888566 -0.633819 -0.127445 -1.141353 -0.838154 0.318718 -0.548045 0.128333 -0.397018 0.404656 -0.801738 0.096558 0.948544 0.000869 0.547941 1.629014 0.769677 1.913263 0.471308 0.709488 0.328945 -0.586083 -0.219049 -0.232824 -0.185950 -0.354737 -0.471272 -0.153770 -0.200775 0.345349 0.365554 0.916513 0.203879 -0.566712 -1.598669 -0.022539 -0.728573 -0.085959 -0.857181 1.012266 -0.145550 -0.393832 1.369792 0.115946 2.822885 0.784005 -1.748441 
woman -1.827539 -1.294744 -0.752126 -0.446483 -0.167753 0.391321 -0.346927 0.437291 0.217559 1.297309 -0.098139 2.128668 0.385589 0.303994 -2.514807 -0.481094 -0.736632 -0.576484 -1.021242 -0.214767 -1.571379 -1.309856 -1.564830 -0.197595 0.371803 -0.557105 -0.903354 -0.197463 0.110209 0.603253 1.497629 -0.837356 -0.774656 -0.310548 1.068076 -1.128312 -0.191289 0.089932 0.393963 0.654716 -0.912474 0.079754 1.068294 -1.831463 -1.396842 0.446834 -0.373679 0.332811 0.226514 1.167317 0.688271 0.257049 1.193922 0.477700 0.092645 -0.063561 -0.523141 2.090924 -0.344026 0.000546 3.227554 0.201886 1.460295 0.887838 -1.011878 0.329702 -0.684711 0.856161 0.820592 1.597299 0.578628 -2.212751 0.928280 -0.838108 0.138492 1.559162 0.641848 0.351481 -0.178666 0.667771 -0.487178 0.487070 -0.705258 -0.500080 0.036302 -0.543892 -0.114724 -0.179890 0.893435 -0.080092 -1.053439 -0.282725 1.373005 -0.049297 -0.891436 -0.383286 1.396836 -0.955839 2.790094 1.206697 
young -1.080512 0.142561 1.278470 -0.000668 1.571489 2.311997 0.768417 0.708044 -1.755226 0.213880 0.950854 1.235842 -2.584516 -1.179399 -0.647853 0.511731 0.190932 0.104433 -1.697344 -0.111653 0.135431 -0.028230 -0.360535 -1.771127 -1.724440 -0.383211 -1.090878 -0.549943 -0.463928 -0.625895 1.361255 -0.095908 -0.945979 1.657731 -0.119567 0.172393 0.725116 0.279982 0.397161 0.144096 1.849128 -0.069331 -1.175158 -0.689983 -0.490061 0.351742 -0.383168 0.646846 0.568171 -0.449852 0.273538 -2.340529 -0.420474 -0.100301 0.206607 0.411017 -1.047289 0.387027 0.924200 0.912490 -0.721395 -0.011327 -0.104409 0.019146 -1.392278 0.229061 -0.416787 0.816483 0.352341 -2.120024 -0.295984 1.002252 -0.232747 0.522825 0.806047 0.695454 -0.314837 -0.010741 -1.352471 -0.240906 -0.059715 -0.243015 0.691922 0.981317 -0.269376 0.072280 -1.887067 -1.353735 -1.215093 0.281975 0.704578 0.542567 1.279457 -0.489911 -1.285642 -1.408703 -1.645062 0.262138 0.185740 0.093258 
walking 0.131136 0.200252 -1.475369 1.437188 -0.447396 1.943477 0.314910 -1.106990 -0.964453 -1.753573 0.810379 2.746180 -0.125363 -0.589160 1.315955 -1.332961 0.786464 0.563420 -0.716430 0.383969 0.691550 1.024176 0.387117 -1.874340 2.274717 -2.066890 0.447363 -0.400234 0.133655 1.463009 0.207492 0.605305 -1.301577 -0.692606 0.771033 -1.116978 1.613808 1.509667 -0.181569 -0.302839 -1.975665 -0.152402 -0.545664 -0.468116 -0.450821 0.374954 -0.070017 0.372453 -0.539051 0.475689 0.510959 -0.410160 0.008130 2.377275 0.288097 -1.298813 0.071494 1.864888 -0.096894 0.138632 -0.798263 0.503434 -0.427274 1.498046 -1.647897 0.799162 0.517973 1.080038 0.881175 -2.159451 -1.050488 1.419280 1.394027 0.802208 -1.224094 1.638571 0.749123 0.728886 1.114772 -0.151001 -0.117584 -2.370867 0.879486 -0.902589 -1.623298 -1.604853 -0.720574 0.558313 -0.655465 1.839738 1.527446 -0.258450 -0.396141 -1.127249 -1.679644 -0.748093 -1.793543 0.217855 0.650727 0.351104 
appears_to_be -1.780969 0.043533 -0.887262 1.364059 -0.898758 -0.303367 1.224973 1.076920 -0.380339 -1.561353 -0.192034 -0.245870 0.813676 -0.647696 1.444880 0.510572 0.061738 0.463892 -0.041669 -0.516644 0.874100 0.200553 -0.070773 1.774490 1.251067 1.993971 0.020861 1.402455 -1.944432 1.285187 0.666740 -0.771090 0.255836 -0.100117 -0.845956 0.227338 -0.090984 -1.067946 -0.972261 -0.348024 -1.308028 0.452762 0.444421 -0.479481 1.824847 -0.621207 0.978260 -0.046510 -0.610498 1.173597 -0.697749 -0.790798 -1.313878 -0.070246 2.188318 0.236099 -0.568197 -0.658257 0.456924 0.007192 -0.355871 -0.976205 -0.169806 1.423099 0.675013 -1.287545 0.879981 0.869732 3.193807 -0.306520 -0.762479 1.873933 1.993846 -1.542606 0.643994 -1.531166 -0.364460 2.333671 -1.509976 -1.102253 0.755505 0.705541 -2.121463 1.170064 1.406258 0.431776 -0.262829 -1.184624 3.042451 -1.763004 -0.314990 0.988079 0.164590 0.146006 0.786703 -0.399984 -1.184162 -0.073244 0.150751 -1.334963 
this 0.831691 0.355612 -1.616635 -0.420743 -1.111473 0.822224 -0.022319 -2.944939 0.016890 -0.953258 1.535431 3.193142 0.283515 1.992591 0.671350 0.979889 1.614187 -1.446091 -1.420000 0.984390 0.250815 -1.100972 1.004735 -2.600611 1.559834 -2.019978 -0.304962 0.347228 -0.700209 0.405640 0.313699 -0.091684 -0.914898 0.826682 0.849209 0.365715 0.913648 0.055123 1.225236 -0.502647 -0.704338 0.847204 0.631082 0.583810 0.389072 2.222001 -1.160271 1.351517 -0.898305 -0.035475 -0.610117 1.471532 0.008686 -0.164382 0.253972 -1.043167 -1.020881 -0.977400 -0.829497 -2.029745 -2.932741 -0.109984 -1.948700 -1.969673 -0.808349 -0.306676 0.319084 -1.563445 -1.262399 -0.034089 0.579065 0.303460 -1.972666 1.779086 -1.592133 1.175879 0.455846 -3.378495 -1.166617 1.616025 -1.174967 0.283046 3.024573 0.056350 -0.605164 0.095016 -0.257853 0.250513 1.638327 0.825360 0.106588 0.886405 0.957498 -0.093573 -1.414430 -0.208156 -3.476479 0.567722 0.742591 2.582580 
light 0.461899 -0.548095 1.824805 1.268855 -1.642211 -0.178554 0.811122 -0.377366 0.925834 -1.137230 1.299712 0.439983 -0.841306 0.159811 -1.354039 1.292338 -1.383631 -1.793984 -1.053746 -0.422879 -1.107721 -0.025726 -1.472097 -1.043625 0.308413 0.273893 -0.604354 1.539146 -0.619217 -0.273250 -0.379115 -1.408494 0.471519 0.343263 2.428343 0.509160 -1.218786 -0.729498 -0.657229 2.685780 1.588195 1.313477 -1.724875 0.691628 -0.290229 -0.134972 0.402925 -1.286737 -0.844853 0.535894 0.787403 -0.016064 0.742258 0.093196 -0.080179 0.178671 -0.023117 -0.201491 -0.616831 -0.953385 -0.930664 -1.624465 -0.374715 -0.333273 -0.421863 0.733416 0.045325 0.439747 -0.477517 -1.082922 0.703679 1.550354 1.057079 -0.414777 0.988394 -0.070529 0.540964 1.151797 -0.746188 -0.371944 0.922746 -0.026893 0.236241 -2.257838 0.202075 -0.697251 -0.093306 0.031097 -0.215941 0.104703 0.675983 -0.248105 1.374563 1.354369 2.024872 1.682615 0.240156 2.131905 -0.976125 -2.670155 
which 0.289087 -0.575717 -1.634863 -1.210857 -0.639328 -1.955633 -0.546196 -0.208871 -0.863050 1.235969 1.157551 0.375850 0.539197 0.636673 -0.223631 0.631959 0.267514 -0.324402 1.162291 0.211849 -0.005822 -0.343708 0.056462 -0.981871 1.468832 -0.765267 0.470438 -1.039327 0.613888 -1.716967 0.649998 -0.500522 -0.940464 -0.380114 1.324632 0.866854 0.267680 0.714171 1.894975 0.776275 -0.989794 0.385091 1.466908 -0.787487 -1.104751 0.541150 -0.309901 0.394924 0.094120 0.175596 0.164706 2.185484 1.845213 1.570629 -1.333161 0.001246 -0.972665 0.090245 -0.778244 -0.817583 -1.619571 -0.960397 -0.225722 -0.436291 0.404337 -0.647290 0.464337 -1.393094 -1.723519 0.297614 0.583365 0.050149 -1.371125 2.372934 -1.202157 1.258651 0.448862 -2.126664 0.509606 1.266715 -0.702477 -0.613830 -0.626340 -0.880688 0.147360 -1.034255 -0.343073 0.552975 0.675147 -0.014142 -0.507612 0.957414 -0.686427 -0.934135 -0.314444 0.851176 -3.464354 -0.889974 -1.823897 1.051236 
young_man -2.222959 1.935098 -0.440084 -0.119857 1.566324 0.408402 0.254877 -0.088338 0.168183 1.432404 -0.133396 2.187016 -1.394956 -0.193207 -1.873434 1.275864 -1.281461 0.497999 -1.005552 -0.223342 -0.814131 -0.521877 -1.442140 -0.244159 0.130384 -0.256771 -0.297768 -0.295885 -0.317169 -0.175353 1.543411 -0.454317 -1.857581 -0.470716 1.319432 -0.378704 0.399142 1.704948 1.785792 0.511864 0.154227 -0.148873 -0.056034 -1.622191 -1.025047 -0.319682 -2.098160 0.404508 0.971773 2.067462 1.697470 -0.417352 1.306801 -0.457707 -0.341556 1.148324 -0.350068 0.976075 0.829878 0.334918 2.289272 -0.499962 1.798605 1.824017 -1.033033 -0.629115 -0.747452 1.769372 0.020967 0.692638 0.646479 -1.983966 1.446721 -0.715776 1.371861 0.772433 -0.665574 0.883292 0.384334 0.194285 -0.090801 -1.679490 -0.248744 -0.349610 -0.919717 -0.480069 0.062291 -0.239565 -0.945689 -0.430620 -2.030667 -0.110615 1.649202 -0.133547 -1.300109 -1.295003 0.948826 -0.809611 2.213350 0.262275 
left_shoulder 1.923157 1.279025 -1.765607 0.430336 2.728235 1.818614 1.167870 0.679760 -3.231771 -0.777082 1.253241 0.109437 0.205931 -0.965653 0.339837 3.076956 1.095829 1.396791 -0.539458 -0.436293 0.242567 2.852449 0.885901 -1.335875 -0.592243 -1.536527 -0.529170 -0.243408 -0.106628 1.363013 1.184948 -3.178070 -0.589543 0.262856 0.337932 0.360313 0.507333 -0.074698 0.588975 -1.280760 0.029328 -1.226673 0.804200 -0.710436 -1.131780 1.419358 -0.202189 -1.464295 -2.378001 0.546540 -2.749945 -0.293415 -0.633385 -0.220370 1.676845 -0.092722 0.902156 -1.693832 -1.275765 1.706976 -1.266426 0.176197 -1.159737 1.522279 1.084210 -0.155353 0.135112 0.942611 -1.400538 0.477443 1.954334 -0.023297 3.397919 0.607665 -1.545264 1.378741 0.857529 0.563872 0.306841 -1.881756 2.418889 -1.588307 1.081492 -0.259084 -1.185323 -0.404658 -1.572001 1.689982 -2.069738 1.148835 -1.803578 -0.946824 -0.858334 -1.490768 0.704986 -0.062909 0.285752 -0.483954 -0.099656 3.291769 
to -2.532942 -0.890600 0.608674 -0.586896 1.412641 1.981660 0.822123 -0.996000 0.297090 0.493711 -2.378772 -0.270264 0.469810 -0.135667 -0.752425 0.211162 0.428357 1.522824 0.256270 -0.128840 0.836874 1.780787 0.501924 -1.307159 1.088289 -2.750303 1.652710 0.304210 0.419575 -0.692915 0.469147 0.399609 -0.574580 1.449324 -0.029556 -0.406016 0.240559 -0.594749 2.103919 -1.214251 -0.229931 0.969480 -0.571281 -0.212820 0.925764 -0.243233 1.532443 -1.281558 0.563455 -0.127470 -1.520790 1.418459 0.982169 -1.971217 -1.345614 -1.841170 1.206311 -0.154672 0.148103 -1.506419 1.553617 -0.288236 0.245527 0.643423 -1.273261 0.459284 -0.895410 -1.699106 0.705208 2.096349 -0.772036 1.178467 -0.618354 0.003597 -2.501909 0.939899 1.313425 -0.409729 0.197395 -0.017813 -0.119597 1.967759 -0.498327 -0.130865 1.839765 -2.158293 -0.437185 -0.308330 -0.040759 0.072119 1.110134 0.235537 -0.306517 -1.457219 1.065533 -0.128913 0.218650 0.300391 -0.808322 -0.538762 
her_right_shoulder -0.186468 -0.876349 2.832444 -2.183718 0.348323 -0.917206 2.014519 -0.665049 -3.310162 -1.499836 1.412382 -3.244485 -1.872210 0.310088 -0.242154 2.130081 1.614687 1.783589 -0.262279 -1.367833 0.252488 1.212887 -0.113131 -2.295637 -1.622017 -0.921404 -1.541885 -0.383868 -1.324699 0.346292 0.039410 -1.800731 -0.622144 -0.135869 -0.027785 0.281470 -0.636483 0.024148 0.089614 -0.699708 -0.294014 -0.440011 -0.344552 -0.800030 -0.474160 1.361098 0.040628 -2.085771 -0.442531 -0.042953 -2.114807 0.060602 -0.483431 0.634394 0.858168 -1.316480 1.249601 -2.014741 -1.652972 -0.605360 -0.544540 0.159282 -0.664904 -0.390943 0.985274 0.369823 0.409143 0.250079 -2.722291 -1.514367 2.045599 -0.197920 2.941897 1.108939 -1.859705 0.470958 0.766128 1.540826 -0.425923 -1.081489 0.704970 -1.726298 1.000836 2.086844 -2.137786 -1.031785 -2.957737 0.200997 -2.729191 1.593214 -1.361693 -1.961299 -1.088143 -0.114898 0.108011 1.260271 -0.235916 -1.009970 -0.024707 3.408300 
glasses -0.526682 -0.550832 -0.861792 1.166712 1.017952 2.201493 -0.303062 -1.673784 -2.665672 -0.355895 -0.209027 1.897855 -1.120901 0.163167 -0.279480 2.575316 0.056832 0.532405 -1.597248 -0.359491 -0.554491 2.250260 0.179314 -0.766238 -0.789430 0.638618 -0.006516 1.046385 -0.311282 -0.094058 0.247343 -1.080540 2.242235 -0.836552 1.412375 -0.005456 0.095052 -1.791244 0.461970 -0.427963 0.442157 0.292446 0.016150 0.711072 -1.932270 -0.928054 -0.113072 -0.870921 -1.212851 -0.908307 0.077246 -0.231058 -0.223054 -0.451615 0.418958 0.805993 -1.252063 -1.759862 0.917246 1.143701 -1.058295 1.023735 -0.902389 0.142428 -0.473216 0.047186 -0.635380 -0.068626 -0.267286 -1.231361 -0.064993 0.212983 0.203186 0.574217 0.338086 -1.211320 -0.614324 0.524288 1.598924 -0.462060 1.228039 -1.616721 -0.135192 -1.395608 -1.510869 -2.757214 -0.822141 -1.670326 -2.581263 -0.387982 0.620292 -1.921603 -0.800175 -1.705019 0.023410 0.632043 0.519050 -0.664621 -0.804336 0.408360 
pink 1.094646 1.393677 2.528710 -0.000434 0.937388 0.493626 -0.222477 -0.687407 -0.878074 -0.333655 -0.375347 -1.190257 -0.656242 0.124437 0.183246 0.019633 0.244662 -1.853114 1.455148 -0.628061 -0.955987 0.743104 -0.005266 -1.775694 0.669950 -1.074348 -0.332592 1.489258 -0.415106 0.116240 -1.148917 -1.057151 0.008358 0.275037 0.217048 -0.320265 -1.094865 -0.128815 -0.646139 1.706352 0.454134 -0.717302 -1.421895 -0.228069 -0.184043 1.968183 -0.331113 -0.529108 0.952899 0.755969 2.053072 -1.260362 0.286700 -0.535523 0.101466 -0.109721 -1.386407 0.341372 -1.651347 -0.469508 0.286060 -0.216209 0.211342 -0.117788 0.660087 1.056095 -0.442162 0.272392 1.244184 0.797102 1.264492 0.222849 -1.302783 0.216289 0.452719 0.996325 0.422064 -0.826860 -1.004138 -1.013095 0.789152 1.029586 0.381535 -0.344380 -0.353091 1.572057 0.103744 -1.008707 -2.202734 0.865813 1.320088 -1.535665 0.102078 1.044814 2.444215 1.036119 0.421117 1.504899 1.528037 -0.859626 
large 0.401704 -0.385792 2.369524 -1.846636 0.852303 -1.648478 1.968177 1.420688 0.206855 -0.640561 0.407889 -0.889132 -2.136686 0.074420 -0.507008 0.738484 -0.909388 -1.097697 -0.858657 -0.542476 -1.669728 -0.652171 -0.710623 -0.213548 0.189935 -2.170776 0.176576 -1.125974 -0.365841 -1.504746 -1.351807 0.824651 -1.268213 -0.518078 1.080154 -0.001405 0.031590 0.200334 -0.739192 0.689938 0.146872 -0.926176 -0.412384 -0.795120 -0.618142 -1.086613 0.553479 -0.352633 0.330716 -0.826444 -0.881208 -0.055182 1.537155 -0.740136 -1.648503 -0.444350 -2.052968 -1.178604 -0.345138 0.079336 -0.775660 1.060904 0.549206 -0.454455 1.147839 0.350355 -1.459452 1.079749 -0.374832 -0.143413 -1.650737 -0.852860 -1.839262 -0.229493 2.099168 -0.449508 0.888081 -0.965631 -1.363492 -1.190042 -0.960576 1.187123 -0.692224 1.477241 -2.240028 0.622228 -1.813392 1.282495 0.030942 -0.512044 -1.026173 1.368637 0.336326 0.810075 -0.386443 -0.820476 -0.212125 0.557374 -0.041047 -1.515343 
color -0.144373 -1.651411 0.303781 0.159565 -0.349314 -2.135723 0.795200 0.955386 1.132034 -0.771362 0.185370 -0.269646 -0.155147 0.056811 -0.300014 0.203670 -0.219939 1.697086 1.655952 -0.300049 -0.375235 -0.465686 0.271010 -1.342035 0.379105 -0.378940 -0.227950 0.329350 0.304703 1.091749 -0.321075 -1.275263 0.178412 -1.363951 -0.424845 -1.125899 1.603117 -0.674803 -0.891744 -2.376821 -0.353334 0.407963 0.656381 1.155503 -0.418063 -0.064304 -1.264264 -1.400257 0.477552 1.128851 -0.695702 -0.590712 -0.790227 -1.146033 0.415094 -0.512227 0.911083 0.141521 -0.993666 -1.843979 -0.265655 0.329602 -0.627125 -0.077423 -0.962620 1.070632 0.352837 -0.103543 -0.922269 -0.316969 0.559662 -0.733452 -0.927987 -0.337631 0.759085 -0.143145 -0.907801 -0.946465 1.760445 -0.823496 0.587043 -1.654481 0.533297 -0.746129 -0.146430 0.530308 0.598699 -0.050881 1.269939 0.235964 0.356478 0.064415 0.158445 0.000299 0.100743 -0.202087 -0.032785 0.906984 0.880475 -2.344578 
spectacles -0.666524 -0.880131 -1.071587 0.395658 0.304195 1.581576 0.446022 -0.044984 -1.836925 0.330122 1.177297 1.873936 -1.027924 -0.114046 0.204965 2.673640 -0.347584 -0.265650 -0.855102 -1.220122 -0.839800 1.240036 1.515000 -1.569256 -0.632654 0.314936 -0.777720 -0.101338 -0.888466 -0.097986 0.343982 -1.514043 1.888626 -0.944930 1.631382 0.392545 -0.092086 -2.417468 0.427050 -0.273156 0.468191 -0.233549 0.910413 0.141731 -2.092237 -1.622569 -0.775967 0.653395 -1.596175 0.212639 1.189086 -0.329541 -0.049880 -0.033350 1.875315 1.172154 -0.956159 -1.272618 1.426783 1.175938 -1.832690 1.510261 -1.327071 -0.004834 -0.364319 -1.630077 -0.020880 0.760973 1.180875 -1.036115 0.156789 -0.911982 0.448135 -0.205636 0.797373 -1.188005 -0.708654 0.101907 0.820302 -0.195584 1.295473 -0.689463 0.052112 -1.101807 -1.797354 -1.256974 -1.361317 -1.252283 -3.167339 -0.403976 0.426731 -2.461045 0.743664 -1.769260 -0.425817 -0.483300 0.141867 -0.886712 -0.020802 0.418863 
right_shoulder 3.294841 1.896871 -2.721046 0.148093 3.744309 1.616608 1.051372 1.338895 -3.760626 -0.750136 1.662344 1.489099 -1.168604 0.619235 -1.147050 3.996538 0.819121 1.757903 -1.456421 -0.480574 1.442552 1.366535 -0.487443 0.557716 0.007702 -1.949778 0.166696 -1.188052 0.413346 0.313712 0.329302 -3.093171 -2.905901 -0.037792 1.054860 0.610088 2.711491 -0.468076 1.141778 -2.274125 0.269347 -0.206666 0.834751 0.838344 -0.329848 0.970539 -0.758186 -0.707138 -1.883236 0.398214 -2.212445 0.146498 -0.632069 -1.005571 1.048204 1.760157 0.204255 -2.042854 -0.659888 0.723217 -0.496570 0.212698 -2.740711 1.788558 0.638590 -1.182732 -0.683630 0.781028 -2.020880 -0.311900 1.114925 0.015200 2.903503 0.768288 -0.203510 -0.400027 0.606682 0.099100 2.642834 0.544972 3.353525 -1.872506 1.151123 -0.561909 -1.129135 -1.297687 -1.805127 0.111233 -1.847462 -0.351239 -2.253649 -0.487052 0.884056 -1.638071 -1.145825 0.870777 0.218842 -0.798436 0.504708 -0.260552 
sneakers 1.118664 0.546016 -1.221278 -0.293346 1.314201 0.434382 -0.031345 0.040594 -0.316334 0.177980 -1.023390 -0.152646 -1.314096 -1.248133 0.781578 1.485147 -0.758345 2.957561 -1.592718 1.791331 -0.028417 1.698742 1.346961 -3.257636 -1.050270 0.080967 0.407836 -1.089525 0.172447 -0.203027 -0.107123 -1.296461 1.301701 -0.746786 0.213347 -1.102432 0.174521 -0.008824 0.701991 -0.410927 0.440600 -1.166269 0.130750 0.257816 -1.141229 -0.122710 0.155891 1.254979 0.564659 -0.930410 -0.273439 -0.990286 0.307471 0.129354 0.154323 -0.088863 1.271664 -0.557165 -0.209405 0.445763 -0.020267 1.118635 -1.517791 -0.689905 -1.448806 -0.568790 -0.208341 1.250631 0.953919 -1.343653 -0.630271 -1.065994 0.065498 -0.928356 0.952145 -0.444559 0.512639 1.079809 1.882201 0.347130 0.158263 -0.543202 0.312166 -1.066733 -2.296367 -0.049951 0.568343 0.832080 0.074543 -0.430545 -1.996518 0.107607 -2.036315 -0.793972 -0.258091 0.230939 0.118977 -0.281018 -0.489641 -0.942496 
left 1.509781 1.328435 -2.172555 0.922827 3.014767 0.124676 0.647609 0.050991 -0.115640 2.837804 1.342150 0.789941 -0.273843 -0.271731 -0.958819 4.178222 0.544527 0.255991 0.367980 -0.158150 0.441773 0.926582 0.870278 -0.487027 0.957522 -1.024087 0.687553 0.778183 0.488881 0.435880 1.253193 -0.259521 -0.476301 0.603265 0.697027 0.295320 0.083001 1.058979 -0.033746 -0.266019 0.472532 0.043411 2.324409 -1.568029 -0.015940 0.737539 -0.087857 0.986930 -3.415064 -0.753546 -2.338914 -0.008873 -0.740048 0.823475 0.931664 -0.364912 0.914897 -0.063949 -1.578663 1.163352 -0.283602 0.717247 -1.387731 1.325486 0.187960 -0.081715 1.060488 -0.423047 -0.190286 1.852527 1.605157 0.039464 3.285859 -0.234525 0.924520 1.174443 0.079423 1.464604 0.015743 0.124878 2.087510 -1.619063 -0.261036 -0.010402 -0.264203 -0.836204 -1.474021 0.071060 -1.772257 0.839225 -0.022064 -0.189060 -0.919268 0.239039 -0.643105 -0.938456 0.603050 -0.875829 0.930486 1.058392 
right -0.338173 0.564110 -2.318362 0.848588 1.906723 0.563711 -0.601046 0.111566 0.117729 1.275151 2.000729 -0.484593 -0.478100 0.470938 -1.715341 3.915148 0.508101 -0.050100 0.330286 -1.544188 -0.838682 0.815202 0.034040 -1.138793 0.313790 -0.304541 0.032981 0.701283 0.461347 0.460760 0.550518 -0.852301 0.057853 -0.049070 0.627685 0.617901 0.072512 0.628818 -0.292082 -1.321717 0.469057 -0.836613 1.741900 -0.017093 -0.681757 0.210326 -0.096689 0.851923 -3.376955 0.096617 -2.397986 1.633623 -0.941054 0.558037 1.128993 1.704023 1.512032 -0.034335 -0.470620 1.240924 0.273688 0.040888 -0.595971 1.478916 -0.312105 0.051897 1.687175 0.431762 0.554299 0.432577 1.570534 -0.461995 3.256393 -0.383447 0.346357 1.511335 -0.249767 0.913265 0.815040 0.584568 2.078305 -1.828636 1.517937 0.504695 -0.428190 -0.629166 -0.807408 -0.147667 -1.776147 0.932238 -0.741316 -0.536552 0.026189 -0.521199 -0.276885 -0.314293 -0.367095 -1.404502 0.236734 0.948098 
on_it -2.987462 -0.060474 -1.252964 0.767115 1.392463 -0.474440 0.581027 -1.401381 -0.818128 -0.414046 -0.005385 2.425354 -0.218440 0.390033 1.453136 -0.897080 -2.805418 0.457411 -0.107471 -2.363075 -0.299140 1.334947 2.489861 -2.774874 0.018824 0.205368 -1.137406 0.184964 0.166845 -1.579143 0.158258 -1.872895 -0.649153 -0.565356 -0.018624 -0.001125 -1.040176 -1.408954 0.602906 -1.314427 -0.110659 0.755544 0.855106 0.798214 -1.546694 -0.099097 -0.904195 0.680142 2.060311 1.951170 -0.182758 -0.480837 2.825648 0.358581 0.342622 1.410696 1.749214 1.217002 -0.891572 0.261597 1.077795 -0.494329 -1.904072 -0.662931 -1.229243 -0.623415 -0.064970 -0.806234 -1.792479 -1.817293 2.139543 -0.063465 0.189210 0.547236 -0.770606 0.431274 -0.830027 1.576409 -0.991782 -0.787910 -1.413473 -1.795775 -1.052147 0.925379 0.138722 -0.333673 -0.850153 0.467478 0.114781 0.994833 0.540721 0.483362 -0.447693 0.584612 -0.517783 1.759944 0.676789 -0.868207 -0.465925 -0.938052 
that -0.080593 -0.103399 -0.784526 1.266776 -1.132509 -1.897078 -0.447484 -0.374430 0.379047 -0.211282 0.955360 -0.814525 -0.445585 0.298694 -0.199103 1.986888 0.343582 0.737073 0.977413 0.035987 1.246703 1.034891 1.703436 -0.052373 2.005509 1.222971 -1.140496 -0.257217 -0.165847 -0.930496 0.517224 1.767505 -1.189978 -0.263019 1.694669 0.027092 -0.606930 -1.230401 1.230016 -0.492653 -1.219246 1.794473 -0.167575 -0.658335 -0.542804 1.175890 -0.518124 -0.777756 -1.975500 -0.509253 0.556607 2.458568 1.045406 2.733149 -0.254197 -0.201513 0.925912 0.424563 -0.577358 -1.529200 -0.218300 -0.519975 1.182419 -1.253206 0.527615 0.641055 -0.007852 -0.918949 0.221980 -1.124735 0.172329 0.575964 0.229756 -0.148802 -1.010452 1.809252 -0.530632 -1.405504 -0.316118 -0.410551 -0.973815 0.537689 -0.493248 -1.823686 -1.274156 1.040181 -0.208037 1.525851 -0.762702 0.577495 -0.164049 -0.753180 0.267883 -1.707182 0.057343 1.504843 -1.526337 -1.105805 -2.091083 0.915504 
straight -0.186541 -0.150760 -0.192586 -0.974063 -1.295081 -0.196433 0.214274 1.402826 -0.970524 -1.036422 2.058346 -1.005384 -2.428348 -3.035305 1.107975 0.801549 0.063694 1.891327 0.773198 -1.016673 -0.777035 -0.680972 0.852686 -0.446711 1.555221 2.181068 -0.573115 -0.788836 -1.055907 -0.265669 -1.105510 0.777371 1.469092 -0.202139 0.712932 -0.942797 -0.098414 2.182410 -0.162873 -0.275538 0.255323 -0.029557 0.807042 0.689747 -0.775028 -3.296133 -0.124870 0.807100 0.236961 -1.876294 1.061679 -0.929107 -1.798938 -0.371183 0.809243 -0.632567 1.699661 -0.059447 0.018355 1.394191 0.346127 1.539099 -1.703585 -1.095168 -0.428576 0.908381 0.421886 -1.605118 1.873292 0.396144 0.406445 -1.375044 -1.238981 -0.784319 0.422754 -2.502266 -0.576016 0.236261 -0.862706 -0.163288 2.047608 0.680781 2.346753 0.617129 -2.585576 -1.174544 -1.735581 -0.873729 -0.190619 -0.497985 1.488377 -0.602865 -0.044670 0.075106 -0.283294 -0.068456 0.306177 -0.104901 2.406781 2.828727 
light_grey 1.942420 0.727616 -0.182065 1.282541 0.249314 -1.164803 0.775234 -0.759763 0.377639 -0.066789 -0.157271 0.386958 -0.592490 0.619411 0.532770 1.120778 0.542614 -3.109026 0.890299 -0.815607 -2.087162 0.256097 -0.884562 -1.678042 0.759042 0.011966 -0.314257 0.536964 1.279034 0.033653 -1.247436 -0.977727 0.205906 -0.993914 1.623919 0.605313 0.467600 -0.925475 -0.432109 1.333322 -0.377557 -0.770180 -1.982670 0.511479 0.426951 0.123514 -0.251899 -2.805303 -0.150543 0.517678 0.850959 -0.893677 -0.461034 -0.085523 -0.681764 0.351323 -0.105591 -1.175339 0.220150 -0.931215 -0.957303 0.074883 0.209069 -0.321657 0.421002 1.738187 0.068888 0.971386 1.847417 0.770214 0.303989 0.924389 1.704085 -0.453528 -0.740471 0.370415 -0.512412 -1.196769 -0.605048 -2.043847 0.480268 -0.753611 -0.912178 0.526173 -0.581024 0.919708 -0.543151 0.317662 -0.694287 -0.444567 0.614954 -1.597367 1.192464 0.197462 0.126278 1.334225 0.112790 2.567770 0.956133 -1.878776 
also -1.175987 -0.627756 -0.714942 0.156638 -1.010792 0.042950 1.105121 -3.349683 0.052890 -1.081234 0.339253 -0.721455 0.190130 0.242237 -0.340263 -0.230391 0.654548 -0.737134 -0.963432 -1.394497 -0.044821 0.470888 0.285403 0.016409 0.754838 -0.466736 0.212813 -1.316985 -1.017131 1.424907 0.366021 -0.741269 -0.295745 -0.547155 -1.013938 0.402880 -1.055229 -1.000305 -0.281663 -0.102908 -2.492255 -0.592479 -0.030612 -0.929404 -0.296676 0.564892 0.309682 0.405477 -0.478425 1.813962 0.167594 0.229711 -0.953057 0.458880 1.739554 0.771392 -2.649653 -1.003711 0.936245 1.172195 -0.876448 -0.994137 0.279226 0.012327 0.484231 -0.589896 0.358801 1.253247 0.060250 0.263792 -1.415006 0.126651 0.969933 0.744226 -1.698735 -0.079679 -0.389996 -0.778164 -0.079660 -0.991449 -0.915598 -0.010123 -1.370831 -0.027948 1.150734 -1.051049 -0.471892 0.311983 1.037520 0.445543 0.760792 0.909946 -0.121973 -1.071338 -0.395207 -0.990630 -1.252658 -0.921805 -1.791624 -0.937734 
along_with 2.418901 0.159329 -1.554438 2.451981 -0.890004 0.190936 -0.665691 -2.039673 0.862256 0.962462 -0.530455 -0.211965 -0.136994 0.058586 1.526044 -0.264496 0.941086 0.642055 1.591136 0.236720 0.250629 0.389151 0.651496 1.070405 -1.075005 -0.796343 0.373788 0.382048 0.112554 -1.622895 0.703304 -0.761410 1.281276 -0.066373 0.453695 -0.431911 -0.434593 -0.833702 0.042500 0.197833 1.563086 0.813386 -0.214859 1.117745 0.694480 -0.405211 -0.713991 -1.176395 0.581877 0.362099 -1.289361 -1.360459 -0.514130 -0.940725 -0.736345 -0.134063 0.521528 -0.337500 -1.793888 -2.240371 0.353984 -0.308394 1.281837 -2.570027 -0.012162 1.427454 0.178798 -0.445616 0.009595 0.674413 0.375210 -0.716423 -1.378586 0.008702 1.484765 -0.859743 -1.432047 -0.820839 -0.106171 -0.185112 -0.758807 1.155847 0.101153 -1.585616 -0.189439 0.776292 0.982699 -0.615951 0.798859 -0.498040 -0.446307 1.964785 -1.172241 0.417028 0.819120 -1.042300 -0.216419 0.848807 -1.047411 0.275123 
very -1.627712 0.935582 -0.357755 -1.405811 -0.515695 1.960101 0.115026 0.198268 -0.358158 -0.208970 1.859886 -1.612942 1.084094 0.084655 0.815708 1.409357 0.812442 0.785682 -0.467163 0.773692 0.131333 0.299040 -0.719541 0.014055 -1.087124 -0.684451 -0.529351 -0.305656 1.061262 1.021024 -0.916384 0.139671 0.624022 0.688678 0.004921 -0.229265 0.388276 1.090946 1.338383 1.319642 -0.921158 0.247502 0.729938 -0.036076 -0.770019 0.334107 0.581828 1.256604 0.534368 0.375555 1.543835 -1.969916 0.556675 0.625976 -1.001235 -1.388692 -1.154928 -0.748981 1.361610 -1.704082 -0.242186 0.225860 -0.718197 0.148038 1.175472 -1.653490 0.518346 1.307887 1.494261 1.617441 1.132473 -0.658746 0.427561 0.544154 -1.352925 -0.589437 -1.057069 -1.394532 -0.444261 0.277048 -0.714765 -0.311421 1.493750 -0.976843 -0.643301 1.069990 0.787001 -0.077946 -1.312706 -0.320336 0.025692 -1.744377 0.550537 0.955535 0.554657 0.634285 0.462526 1.124813 0.971094 0.076450 
s 0.762114 -0.412637 -0.238655 0.304733 -1.803622 0.490171 0.712570 -1.900235 -1.414007 -0.199821 -0.126593 1.040789 -0.121417 -0.303740 -0.911619 1.529851 0.435718 0.888039 -0.801179 0.504624 1.630593 -0.672359 0.555786 -0.395526 1.465640 1.412330 -0.010444 -0.854874 -0.534207 0.045628 0.245451 -0.578692 -0.150302 -0.265593 -0.313328 0.032097 -0.481127 0.168580 0.424613 -1.944038 -0.858377 0.580848 0.882951 0.683668 1.702845 1.282410 -0.633116 0.576692 0.055508 -0.461159 -0.983947 -0.709922 -0.773170 -0.406237 1.443735 -0.450426 0.024304 -0.678770 0.316708 0.886953 0.468515 -2.052093 -0.833129 -1.522048 0.980017 1.614310 1.043453 -0.405154 0.530068 -0.114666 -1.755486 1.819449 1.317621 -0.692764 -0.633223 -0.677338 0.567636 1.001273 -0.894102 0.701335 0.690789 0.822329 -0.421171 2.984199 2.088894 -0.775344 0.016240 -2.124512 0.718905 0.747367 0.847038 1.540745 -0.268136 -1.854552 1.192437 0.179697 -0.129352 -0.559383 -0.958346 -0.629156 
left_wrist 2.081888 0.060141 -3.844710 -0.900638 2.246473 2.662327 -0.042141 5.273873 -2.358298 -0.321489 3.811513 1.789608 -0.868114 -3.168774 0.218387 5.194635 0.633400 2.038955 0.754154 -2.303705 -0.841414 1.988162 1.052650 -0.308306 -0.620635 -1.157909 -0.337402 0.334678 -0.638356 0.166661 1.697100 -2.754618 0.951238 0.259866 0.558342 0.803671 0.746065 0.616416 0.060353 -0.644920 -0.141795 -0.314389 2.325019 -0.222722 -2.603460 -1.325180 -0.787904 1.010459 -2.056354 1.633746 -1.969594 -1.138046 -0.707012 0.304651 1.194272 0.374047 0.049863 0.705989 -0.847360 1.661188 -0.930265 0.627509 -0.816827 2.195035 0.536457 -0.684569 1.692020 1.592904 -0.696964 -0.324755 0.294154 0.071009 2.334239 0.218696 -0.003061 1.778592 0.181528 1.807015 1.535911 0.857884 1.741896 -3.229760 1.022003 -0.882381 -0.455718 -1.847789 -0.197516 0.806454 -1.869826 2.205791 -0.490758 0.469913 -0.819419 -1.196144 -1.145318 -1.237919 0.132666 -0.295405 -1.148702 0.208481 
over -1.793646 1.065162 -1.280119 0.718042 -0.222538 -1.192776 1.015152 0.914359 0.499504 -0.449952 -1.361910 -1.386104 0.005135 0.734184 -3.050199 -0.301291 0.668707 0.243196 0.566691 -0.482553 -0.458681 0.658065 1.711887 -0.996895 0.715214 -1.135518 1.423861 -0.239783 1.190218 -2.764796 -0.786107 -0.005661 0.199597 0.975484 -0.401294 -0.650492 0.085899 -1.075472 0.596328 -1.620561 0.191157 0.669365 0.561215 0.256750 0.145760 -0.829913 -0.323140 -0.029832 1.804522 -0.653054 -2.310271 0.358798 1.144218 -1.673848 -1.319801 -0.884939 1.575610 0.449280 -1.272809 0.264463 1.635681 -0.256103 0.137070 -0.578479 1.089922 -0.300753 0.793202 -1.445496 -1.845780 0.854213 -2.374061 -0.450464 -0.191990 1.333339 0.248143 -0.375322 -0.347890 0.196152 -2.046828 -1.083215 -0.775415 2.533678 -1.730226 -0.049600 1.804293 0.152090 0.546504 0.206680 -0.715165 -0.874214 0.459331 1.174244 -1.687308 1.259956 0.059025 -0.317022 0.570151 -0.425104 -0.847399 -1.526178 
blue_jeans 1.147318 -1.058659 -0.406621 0.937860 0.068922 0.303932 1.149029 -0.199172 0.991612 1.762576 -0.558908 2.273567 -1.974613 -1.076970 0.331517 1.531606 1.037793 1.169514 2.385572 1.977636 -1.736845 2.493321 0.165252 -0.887410 -2.713003 0.215082 0.919154 -1.429080 1.062667 0.476487 -0.297799 -1.668980 0.920641 0.066013 0.283511 -1.055364 0.067041 -0.736412 -2.089656 0.750217 -1.025043 -0.434201 0.188531 0.050924 -0.752491 -0.708520 -1.549326 -0.479488 -0.095584 -0.149140 1.108715 -1.091285 0.195323 -0.260771 -0.608629 1.779555 -0.498129 -0.080009 0.471066 1.797079 0.346234 1.337606 -1.025271 0.219156 -0.549655 0.007100 1.928356 1.427054 0.010149 -1.786955 -0.547746 -1.082521 1.390414 0.991512 -0.677178 0.241518 0.213461 -0.814486 -0.268504 -0.431935 -0.815760 -2.171318 -0.119617 0.416071 -0.490730 -0.216848 -1.550715 0.727976 -2.345588 0.875361 2.432888 0.250917 -0.760720 -0.421573 -0.740029 -0.124374 -0.917462 0.870103 -1.205349 0.278425 
something 0.666868 0.140518 -1.124199 -1.353654 2.328960 1.021733 -1.440305 1.326816 1.292194 -0.197166 -2.140706 -1.488943 -1.897052 -1.751306 0.777532 1.490359 0.225224 -0.441256 -1.126972 1.230889 -0.706453 0.747016 -0.573726 -1.901237 0.309216 -2.222652 0.027979 -0.659661 -0.068342 0.244510 0.572553 -0.900647 -1.508818 0.881382 0.785662 -0.794310 1.557565 1.365149 -0.902755 1.467992 0.336875 0.136395 1.024070 -0.894750 -2.084505 0.819001 0.428718 1.760449 -1.109024 0.174875 -1.441200 -0.492007 0.057779 -0.089839 -0.107852 0.219723 -0.792729 1.301868 -1.509155 0.631022 0.679154 -0.474471 1.511836 -0.151444 -0.985082 1.119579 0.495779 0.344371 2.534237 0.812317 -1.006897 0.668238 -0.734075 0.142813 -0.093069 0.478812 0.155265 0.256633 0.017783 -0.462100 0.611849 -0.543653 -0.542648 -0.323171 -0.889913 -0.682934 0.084436 0.822728 -1.671223 0.060478 0.691565 0.422272 1.034651 -1.659398 -1.694579 -0.882180 -1.037951 -1.267995 0.487810 0.371033 
possibly 1.992682 0.765643 -0.128873 -1.026889 0.059663 -0.832491 1.166765 0.541713 0.187336 1.615430 -1.015421 0.396431 -1.455210 0.930446 -0.264662 -0.042171 0.783403 -0.353041 -0.216042 1.050384 -0.383880 1.076814 1.250335 -1.853062 1.376529 -0.257061 -0.547399 0.860588 -0.497846 1.968049 0.330666 0.270953 1.099433 1.072979 -0.320588 0.837484 0.491387 -0.224510 0.797030 0.842249 0.085031 0.385666 0.059965 -1.479385 0.399646 0.639602 -0.176142 1.301190 -1.101847 0.348079 0.256184 -0.419162 0.095785 -1.004260 0.567696 -0.612888 -0.690843 -0.067637 0.820969 -0.660070 -2.808888 0.158026 0.837852 1.189216 -0.711930 -0.628251 0.383982 0.092134 0.764090 -0.222726 0.292291 -0.542288 0.758022 0.408640 -0.062665 -0.414731 -0.300858 -0.588392 -0.455225 -2.205871 0.082132 0.381698 -0.288396 -1.361553 -1.022969 -0.366428 -0.855575 0.968263 2.082362 0.084124 -0.575497 -0.733802 -0.485676 -0.147514 0.052584 -1.004820 0.032525 0.179115 -1.275844 0.503403 
hand 0.226433 0.621096 -0.361445 1.093239 2.030669 0.995395 -0.040258 1.641617 -0.662096 -1.052649 0.512899 -0.721035 0.666846 0.179342 -0.266322 -1.731496 -2.352528 0.737805 0.775004 0.386430 0.001449 -1.100906 0.042807 -1.165653 2.194186 -1.451012 0.812679 -0.364046 0.250787 0.473506 0.231981 -1.535429 -0.457382 0.317100 -0.567543 -1.138851 -0.708783 -0.382256 -0.668696 0.872481 1.183001 -0.943520 0.895620 -0.829383 -0.711808 -0.387393 0.554532 -0.622578 -1.644478 1.203593 -1.846863 0.063466 -0.105905 -0.666034 1.350939 -0.279263 0.983826 -0.272114 -1.758650 -0.528400 2.717469 -0.474590 1.268074 0.251881 0.410167 0.943011 -0.404783 -0.192228 -1.354730 0.287510 0.912524 0.100094 1.385521 -0.763624 0.493359 0.488257 1.557016 -0.895689 -0.223388 0.126807 1.895425 1.300901 1.263461 -0.799577 -1.030461 0.672408 -1.891186 0.386348 0.973605 -0.105309 -0.212274 0.019988 0.391145 0.888330 1.768249 1.097728 -0.095771 -0.046531 1.969297 -1.952965 
thin -0.951949 1.110344 -0.549590 1.119838 0.774588 1.280290 1.420972 -0.314135 -1.637918 -0.627716 1.360319 0.259211 -0.120590 -0.055851 0.312983 0.420947 0.215966 -0.146193 -1.323679 0.079255 0.123563 0.021693 0.149553 -0.320053 -0.894129 0.660396 -0.308406 -0.391771 -0.461021 0.954248 -0.265261 0.489675 -0.018287 -0.514827 0.548338 0.262777 1.023717 -0.901385 -0.151122 -1.007642 -0.860539 0.643417 0.617187 -0.614838 0.003560 0.393204 1.740449 0.665810 -0.167604 -1.451056 0.739059 -1.311491 -0.750574 0.949045 1.239212 -1.523481 -0.364356 -0.722794 1.924941 0.402402 -0.494567 1.549760 -1.625221 -0.449574 0.341431 0.228948 0.185103 -0.957274 1.631364 0.365051 -0.192222 0.798726 -0.393047 -0.406550 -0.693542 -0.507476 0.098436 1.240814 -0.649374 0.104808 -0.018260 0.351918 1.469511 0.306578 -2.252745 1.623923 -0.032767 0.309224 -0.049968 -0.208875 0.555306 -1.800840 -0.147028 -0.509206 -0.988912 0.151299 0.792694 0.093946 -0.265931 0.090788 
profile_of -1.192054 -0.735158 2.301928 0.292256 -1.320551 -0.136970 -0.173152 -4.005027 -0.371102 0.261911 0.861252 3.163426 1.639788 0.766000 -0.610661 -1.996504 1.937940 0.576860 -1.243183 -2.153959 1.367683 1.284778 -0.489962 2.232661 -0.536371 -0.463684 1.009005 -0.721598 0.393557 0.183790 0.460716 -0.732933 -1.396745 1.097118 -0.345944 -0.074129 -0.212367 -1.594901 1.011948 -0.960227 -2.053449 -0.978951 0.178975 -2.518680 0.699000 2.713256 -0.479995 -0.877470 -1.287815 -0.007933 -0.948596 -0.173032 -0.546352 -1.817630 0.407035 -1.090466 -1.286864 -1.489982 0.677962 -0.339182 2.139606 -1.421209 1.942449 0.404681 1.718017 2.130584 -1.314625 0.051740 -1.519509 2.003042 -1.583631 0.392511 -0.488292 -1.279068 -1.965372 0.539878 0.270570 -0.580692 -1.086948 -1.436214 -0.181552 -0.281627 0.734685 0.956483 2.274027 1.497072 2.311278 0.602471 2.930904 1.827471 -2.186774 1.787906 0.394974 1.125979 1.510905 0.372835 -0.518411 2.032058 -0.760619 -2.154676 
are -0.079627 -0.340603 0.028480 2.774968 -0.876669 -0.491583 -1.312926 2.200181 -1.531503 -1.331133 0.386473 -1.349777 0.643776 -1.257506 0.506998 1.540577 0.099839 1.450788 0.851638 1.598813 -1.347937 -0.202651 -0.244920 0.711938 -1.105313 -0.613062 0.259976 -0.404100 0.858020 0.723865 0.226943 -0.039516 -0.274884 -1.623030 0.318161 -0.334778 1.354204 1.747145 0.707343 -2.184995 0.303462 -1.143703 -0.135792 2.654984 2.182823 0.412088 2.092830 -0.248365 -1.275970 -1.032762 0.195078 -1.939291 0.851484 -0.624844 -1.007773 -1.585172 1.227617 -0.740249 0.368742 -0.091637 -0.863115 -0.751809 -0.717462 0.717098 1.124592 0.302523 0.709090 0.569144 2.304343 2.533264 0.287362 0.143148 0.179434 -0.941070 0.879841 0.272251 1.168287 1.167848 1.477773 -1.476294 1.113720 0.776897 1.139924 -0.471054 1.268844 2.976009 2.194602 0.734647 -0.093301 -0.971351 -2.900166 1.218080 -0.141146 -0.838387 1.057359 -0.135203 1.123375 0.966465 -2.100117 0.893944 
face -0.585387 0.925332 -1.239563 -0.548518 1.698949 2.010894 -1.406144 0.636609 -1.161767 -1.469341 0.882467 1.644419 -0.327765 0.252110 -1.725020 0.791057 0.736765 0.661966 -0.196625 -0.562979 -0.319040 1.916369 0.672101 -0.920373 1.220036 -1.845850 1.035876 0.157562 0.279761 -0.109339 0.797066 -2.167565 1.192342 -0.192586 0.381527 0.307217 1.795417 -0.416973 1.484396 -0.138148 -1.595180 -1.529868 1.103578 -1.484396 -0.652441 0.439724 0.247031 0.073879 -1.645465 0.941238 -1.697364 2.043077 -0.990107 -0.361184 0.384182 0.600979 -0.151348 -1.296197 0.350810 1.405507 -1.236039 -0.600366 0.143071 2.703472 0.549799 -1.436474 1.064761 1.197060 0.286138 0.590796 0.484288 -0.121527 2.038892 0.898321 -0.775645 0.088966 -0.007793 -0.403449 1.156824 -0.252339 1.803950 -0.594843 1.492371 -2.144936 -1.401691 0.547023 0.211513 1.308675 -0.388668 0.536034 -0.900549 -1.305758 -0.381003 -0.287080 1.129954 -1.493538 -0.760218 0.371245 2.152687 2.317712 
colored 1.528319 0.042592 1.487478 -0.275410 -1.125257 -1.014322 2.296358 0.656315 -0.077151 0.584427 1.187933 -0.654206 1.409814 -0.740965 0.166930 -0.179089 -1.336458 -0.326080 3.007121 0.970389 -2.213305 1.458657 -2.168943 -1.067892 -1.327034 -0.498098 0.231753 0.059062 0.895137 1.610723 -2.010448 -1.693352 0.117378 0.347942 -0.940647 -0.456352 1.154869 -1.554687 -1.595376 -0.808746 -0.039325 1.616371 0.375346 1.689506 0.207127 -0.329678 -0.378473 -1.933529 1.367661 0.168707 -0.523852 0.142582 -0.510239 -1.292950 -1.182031 1.597753 -0.264743 -0.939573 -0.359379 0.172140 1.032885 -0.056575 0.455969 0.487665 -0.580905 0.724128 -0.057033 -0.426008 -0.763101 -0.344270 -0.342398 -0.220865 0.087092 0.199609 0.607005 -0.563265 -0.519885 -0.757185 0.639033 -0.891333 0.861833 -0.125081 -1.196094 -0.631529 0.744013 0.673614 0.655807 0.829996 -0.791728 -1.533974 0.561291 0.624661 0.161565 -0.063730 -0.615829 1.251471 -0.027371 0.855610 -0.540067 -0.341433 
mobile_phone -1.152806 2.225884 0.502178 1.541694 1.817727 0.891643 -0.349539 -0.091009 -1.458216 0.557945 -0.103031 0.795739 -0.195708 0.038005 1.039184 -0.073280 -0.487159 -2.833353 0.398128 -1.053737 1.466476 0.962929 0.276735 -0.124985 0.955974 -1.897853 0.649333 -1.414211 0.023394 1.924515 0.691706 -0.866453 0.364090 -1.483386 0.429297 -0.297742 0.876578 0.278533 -0.400576 1.197764 0.321271 -3.166752 0.887966 -0.984755 -3.289833 0.653456 -1.266616 0.345562 -2.106764 -0.192092 -0.792085 1.023097 0.408957 -0.646545 -0.805767 0.526173 1.000001 -1.814261 -0.545329 -0.066724 2.455730 -1.276052 2.435571 1.060755 -0.377100 2.846931 -0.896013 1.623925 2.826214 0.668987 -0.804087 -0.516743 0.788918 -0.481395 -0.222257 0.196929 0.411000 0.537072 0.588812 -1.020482 1.267841 -2.283151 0.786266 0.022639 -1.114430 0.937585 0.863454 0.315665 0.684497 0.049344 -0.326366 0.246586 1.986011 -0.878576 2.515918 -0.906135 0.501981 1.052076 1.712400 0.079040 
left_arm 0.396729 0.590878 -2.102078 0.804704 2.585875 2.503556 -0.124529 1.814068 -2.971465 -0.681942 0.328700 1.301694 -0.435642 -0.471513 -0.326422 2.812624 1.350047 0.776532 -0.390794 -0.838098 0.501861 1.709011 0.851407 -0.807578 -0.300859 -2.166482 -0.295572 -0.638152 0.024521 1.202993 0.491973 -2.983235 -0.398738 0.154905 0.229495 0.677051 1.448044 -0.200984 0.287255 -0.842681 -0.420348 -1.863019 0.533780 -0.174055 -1.496562 1.375100 0.331791 -0.867529 -1.271765 0.098865 -1.941828 -0.225121 -0.651285 -0.080245 1.468101 -0.431938 0.581044 -1.364580 -1.265135 1.661056 -0.177016 -0.658409 -0.463676 0.983790 0.487917 1.212174 0.283081 1.318329 -0.840041 -0.438420 0.025013 0.192911 1.799105 0.945795 -1.135610 1.623342 0.978774 0.805618 1.797507 -0.281725 1.935484 -2.536077 1.258901 0.011077 -1.211909 0.073706 -1.046601 0.717174 -0.976032 0.723302 -0.592417 -0.695174 0.629819 -1.423632 -0.029727 -0.375937 -0.072989 0.850197 0.276081 1.334879 
the_camera -1.147625 -0.986406 0.133140 -0.405703 2.412342 1.530643 -0.896445 -2.245611 1.073743 2.521616 -0.408864 0.518855 -1.520141 0.738870 -0.109744 0.169353 -1.367768 3.869861 -1.102173 0.156806 0.217111 0.416895 0.024829 -1.037046 -0.411997 -1.184659 -0.370262 -0.517418 0.349618 -0.366195 0.829221 -2.115885 -0.530120 0.153187 2.488072 -0.409961 0.183978 -1.547174 0.520767 1.878061 0.147311 1.922174 1.476516 -1.450421 0.264297 -0.485489 0.245106 0.019196 0.146099 0.786321 0.065200 -1.387639 -1.063689 0.348381 1.901742 0.610400 -0.015884 -0.592603 1.178840 -0.500623 -0.286222 0.345304 -0.628439 0.150725 -2.335843 -1.017895 1.921236 0.024956 0.507750 -1.908015 1.508933 1.218086 2.922263 -0.383311 -0.287348 1.152901 -2.257423 0.425723 -0.686601 0.819970 -0.233748 -1.585276 2.664227 0.124027 -1.900112 -1.157691 -1.888674 0.202954 0.372743 0.428074 0.833133 1.133296 1.319810 -1.761614 -0.722275 -0.620720 -1.536982 -0.806244 0.809737 2.085969 
shoulder_bag -1.334731 -0.542233 2.026482 -0.828439 1.419201 0.245515 -2.649514 0.285980 -1.356520 -2.003274 0.388899 -0.821152 -0.864872 1.393788 -0.178707 1.512459 0.219215 -1.252228 -0.418196 -0.165826 1.192359 1.729521 0.570164 0.154941 0.504864 -1.981898 0.972957 -0.692018 -0.358493 -1.153296 -0.624334 -0.650308 1.067910 1.056273 0.668461 -0.056576 1.813820 1.034217 -0.235039 1.848370 0.501306 -1.564439 -0.275107 0.327770 -3.410341 -0.915138 0.792649 0.992533 -1.374803 -0.382547 -3.058451 1.222499 -1.900233 -1.363876 0.502380 0.075409 -0.162941 -1.061527 -1.063951 0.993409 2.759309 -1.082808 2.300447 1.264084 0.641022 1.273755 0.484825 -0.035862 -0.616267 -1.011893 -0.529682 -0.282461 -0.573402 0.656692 -0.249457 -1.827696 -0.491069 1.338362 1.460144 0.465843 1.424976 0.494220 0.644467 -1.524103 -1.783394 0.072829 2.195801 1.132142 1.113000 -1.032131 -1.338200 0.800223 -0.783574 1.978017 1.204294 0.400422 0.690537 0.432223 0.939341 -1.312690 
wearing_eye_glasses 0.791975 1.754888 -2.106019 -0.779335 1.443156 0.604557 -0.484848 -0.226357 -1.400273 -0.181206 3.373096 1.338401 0.186085 -0.969476 1.719926 2.307376 1.711475 3.025180 0.975368 0.286626 0.698621 1.286898 1.782719 -0.615021 0.560530 -0.804122 -0.062208 -0.181624 -0.530952 0.540848 -0.189047 -1.067500 -1.167116 1.155874 0.306152 -0.437025 1.929879 -0.268558 0.822323 -0.340782 -0.138065 1.333817 1.436042 0.475549 -1.547055 -0.053183 -0.611322 1.840042 0.155608 0.595203 0.676186 -0.663756 0.705825 -0.510046 0.948013 0.589517 -1.043309 -0.316903 1.797467 0.872913 -1.447940 0.753360 -2.471403 0.562903 0.562165 -1.908413 0.778315 -0.815634 -1.490433 -1.802639 -0.776934 1.112162 -0.030487 0.089040 -0.770781 0.780378 0.090322 -0.075647 1.003788 1.738954 0.375287 -1.768464 2.614336 0.845154 -0.400807 -0.577997 -0.437396 0.126923 -0.011698 0.253682 0.343852 -0.203038 1.419420 -1.404147 -2.533803 0.300668 -0.858652 -0.584995 -1.161570 0.356563 
seems_to_be -1.064622 0.483609 -0.974394 0.807371 0.440995 -0.546684 1.691425 1.077399 1.037607 -0.159600 -1.212124 -0.956464 0.158674 -0.224750 -1.418805 0.458279 0.989529 0.300396 -0.451498 -1.295032 0.251685 0.412487 0.075619 1.131723 -0.399828 2.093213 -1.032261 0.163732 -1.640059 2.245447 0.498864 -0.680641 0.591398 -1.283215 -1.322509 -0.450777 0.237303 -0.745168 -2.094131 -1.947509 -0.475726 -0.602307 -0.636205 -0.305606 1.217629 0.032753 0.700190 -0.043401 0.375625 -0.403220 -0.859268 0.678352 -0.847496 0.763405 1.513200 -0.175942 -0.434989 -0.398259 0.634938 1.298888 0.835338 -0.892203 0.407588 1.309218 1.222858 0.677224 1.205247 1.224371 3.658192 -0.165358 -2.346930 1.601638 2.160414 -2.751208 1.890825 -0.444434 -1.037719 1.189913 -0.584703 -0.809657 0.574872 1.546339 -1.724118 2.273735 1.982507 0.269317 0.249776 -1.549299 1.929891 -0.397521 0.213324 0.000829 -0.111512 -1.494987 -0.027427 -0.769255 -0.606291 -1.189389 -0.349617 -1.011009 
tee -3.594228 -0.308390 1.379640 0.067164 2.866580 -0.947049 -0.032484 -2.882175 -0.890116 -0.613338 0.689187 -0.504722 -0.338427 0.700444 -0.545807 -0.466647 -2.744181 -0.345459 -0.377778 -0.247940 0.010189 -0.493220 0.827019 -0.484246 1.408741 -0.724280 0.308834 -1.231949 0.404867 -0.057126 -0.999117 -0.007458 0.194556 -1.453502 0.685446 -1.183531 0.438102 0.789871 -0.443697 0.223502 -0.247529 -1.133543 -0.957019 -0.715548 -0.667393 -0.474881 1.495105 0.286251 1.737260 -0.155340 0.680773 0.696756 -0.848867 -1.237707 0.268456 1.392254 1.930795 -1.072860 0.344796 0.383893 2.619775 -0.152606 -0.201327 1.228801 -0.209278 -0.917011 -0.355436 0.119454 -0.284906 -0.934021 -0.143560 -0.742069 -0.599326 -1.583174 1.059296 -1.142791 0.730161 1.144900 1.593932 -0.016760 -0.335989 -0.407122 -0.539826 0.350196 -1.817741 1.193110 1.042020 0.646136 1.733278 -2.055625 -1.157103 -1.193046 0.350175 1.354266 0.043903 1.033267 2.138482 0.085903 2.044396 -0.754418 
