1139 200
</s> 0.002001 0.002210 -0.001915 -0.001639 0.000683 0.001511 0.000470 0.000106 -0.001802 0.001109 -0.002178 0.000625 -0.000376 -0.000479 -0.001658 -0.000941 0.001290 0.001513 0.001485 0.000799 0.000772 -0.001901 -0.002048 0.002485 0.001901 0.001545 -0.000302 0.002008 -0.000247 0.000367 -0.000075 -0.001492 0.000656 -0.000669 -0.001913 0.002377 0.002190 -0.000548 -0.000113 0.000255 -0.001819 -0.002004 0.002277 0.000032 -0.001291 -0.001521 -0.001538 0.000848 0.000101 0.000666 -0.002107 -0.001904 -0.000065 0.000572 0.001275 -0.001585 0.002040 0.000463 0.000560 -0.000304 0.001493 -0.001144 -0.001049 0.001079 -0.000377 0.000515 0.000902 -0.002044 -0.000992 0.001457 0.002116 0.001966 -0.001523 -0.001054 -0.000455 0.001001 -0.001894 0.001499 0.001394 -0.000799 -0.000776 -0.001119 0.002114 0.001956 -0.000590 0.002107 0.002410 0.000908 0.002491 -0.001556 -0.000766 -0.001054 -0.001454 0.001407 0.000790 0.000212 -0.001097 0.000762 0.001530 0.000097 0.001140 -0.002476 0.002157 0.000240 -0.000916 -0.001042 -0.000374 -0.001468 -0.002185 -0.001419 0.002139 -0.000885 -0.001340 0.001159 -0.000852 0.002378 -0.000802 -0.002294 0.001358 -0.000037 -0.001744 0.000488 0.000721 -0.000241 0.000912 -0.001979 0.000441 0.000908 -0.001505 0.000071 -0.000030 -0.001200 -0.001416 -0.002347 0.000011 0.000076 0.000005 -0.001967 -0.002481 -0.002373 -0.002163 -0.000274 0.000696 0.000592 -0.001591 0.002499 -0.001006 -0.000637 -0.000702 0.002366 -0.001882 0.000581 -0.000668 0.001594 0.000020 0.002135 -0.001410 -0.001303 -0.002096 -0.001833 -0.001600 -0.001557 0.001222 -0.000933 0.001340 0.001845 0.000678 0.001475 0.001238 0.001170 -0.001775 -0.001717 -0.001828 -0.000066 0.002065 -0.001368 -0.001530 -0.002098 0.001653 -0.002089 -0.000290 0.001089 -0.002309 -0.002239 0.000721 0.001762 0.002132 0.001073 0.001581 -0.001564 -0.001820 0.001987 -0.001382 0.000877 0.000287 0.000895 -0.000591 0.000099 -0.000843 -0.000563 
a -0.988839 -0.476996 0.134975 -0.741390 -0.917365 -1.030452 -0.347572 -0.010862 0.661817 -1.211477 0.187826 1.609372 -0.368724 0.009655 -0.009872 -0.297565 -0.237843 -1.090978 -1.349506 -1.221568 -0.012293 -1.025962 -1.334015 0.208228 0.146492 0.190791 0.839381 0.390304 0.249688 -0.428459 0.628843 -0.137903 1.089024 -0.904813 -0.081691 1.044605 -1.198829 1.166599 0.926162 -0.193814 -1.085868 -0.743606 -0.339647 1.745092 -0.744503 0.484252 -0.414891 -0.234210 1.117586 -0.048868 0.260011 0.440570 0.217948 -0.255740 0.267902 0.831008 -1.019357 -0.690700 -0.222200 -0.213642 -1.074877 -0.862638 -0.417097 -0.203535 0.027529 0.103381 -0.137042 0.056917 -1.186627 -0.246424 0.096848 -0.574434 -0.239167 -0.372169 -0.585660 0.355759 0.242180 0.320184 -0.850920 0.030248 -0.556914 -0.419381 -0.121256 0.827297 0.240952 0.469907 -0.682896 0.172253 0.041620 0.554624 0.624056 0.241071 -0.474737 -0.877809 -0.931732 0.010056 -1.655130 -1.295898 0.861069 -0.979999 0.023469 -1.063263 0.623857 0.246421 -0.106692 0.175603 0.402203 0.433770 0.134036 0.293824 0.258590 -0.064835 0.931238 0.048837 0.572835 -0.257624 -0.448906 -0.196672 0.390715 0.395934 0.393964 0.260175 0.798104 -0.521375 -1.071209 0.433844 0.456198 -0.740450 0.116948 0.475188 -0.667030 0.294754 0.079182 0.165096 -0.346986 0.045286 0.538413 -0.910530 -0.791770 0.672432 -0.092742 0.631756 -0.116114 -0.925132 -0.279665 0.361038 0.757294 -0.168433 0.042421 0.154720 -0.697005 0.198913 -0.066506 -0.054697 0.163880 0.016463 0.303692 0.478546 1.354170 0.046898 -0.005540 -0.122566 0.044409 -0.609054 -0.625018 0.084458 -0.236111 0.327954 0.460143 0.365312 -1.196034 0.019941 -0.123268 -0.117335 0.785585 -0.023612 0.282030 -1.332491 0.146988 -1.074634 -0.049330 -0.255026 2.036430 -1.306095 -0.624748 0.363073 0.836394 -0.216318 -0.092865 -0.470697 0.251774 0.051189 0.440682 -0.015593 -0.657661 -0.307827 -0.029370 -0.540807 -0.071108 0.148626 
is -0.087266 1.017398 -0.594099 -0.717459 -0.071116 -0.667206 0.273236 1.352061 0.611311 2.644821 0.122662 0.759971 0.912961 -0.594490 -0.788713 1.106236 1.113774 0.742419 1.314895 1.223894 0.163158 0.779902 1.979252 0.354745 -0.264688 -0.180962 0.160532 -0.299378 -0.305849 -0.410635 0.059458 -0.227131 0.631842 0.037621 -0.883097 -1.171797 -1.141960 1.481612 0.115994 -0.646613 -0.861727 -1.093343 1.398514 -0.117784 -0.466390 -0.538059 0.989082 0.240269 -0.268839 1.395925 -0.397114 0.675805 0.442296 1.497124 -0.308445 -0.448707 -0.400336 0.246598 0.727182 -0.953982 0.058661 -0.623396 -1.288279 -0.225189 -0.491536 0.023519 1.837739 0.792057 0.229763 0.114112 -0.552815 -0.771829 1.265669 0.557812 -1.021933 0.942026 -0.526678 -2.072869 1.326197 0.599565 -0.978658 1.082813 -0.998638 -1.220597 0.482816 0.488092 0.194953 0.926781 0.323470 -0.299217 -0.690861 0.218328 -1.295142 -0.191468 0.367711 -0.679416 -1.313409 -1.934796 -0.849950 -1.248128 -0.273729 -1.099342 -0.149927 0.395638 0.343361 0.830122 0.082867 0.526203 -0.056582 -0.738425 0.637738 -0.681822 -0.535038 -1.181207 -0.697586 0.752715 1.772968 -1.458924 0.097016 -1.109283 0.755637 -0.664841 -0.493573 1.093773 1.606466 0.880179 -0.616437 0.324694 -0.011267 -0.450115 0.087548 -0.547437 1.396831 -0.189918 0.175526 -0.112030 0.430907 0.070945 0.539767 -0.400370 0.269813 -0.188478 0.538727 0.397133 0.746345 0.138855 -0.012255 -0.988950 0.593131 -0.729510 -0.262607 -0.280068 -0.320141 1.178117 -0.290260 0.192493 0.708445 0.376527 -0.431680 0.862617 -0.333120 -0.500607 -0.006912 0.531556 -0.418633 0.182357 0.883096 0.125226 0.906688 0.258610 -0.651929 0.550059 -0.241367 1.009552 0.218031 -0.774223 -0.201580 -0.527455 0.063564 -0.643132 0.014669 -0.677708 -0.167583 -0.076777 0.269928 1.163596 -0.286465 -0.878847 -0.379040 0.015685 1.616384 0.082473 -1.927675 -1.243436 1.105253 1.059051 -0.914768 0.676917 -1.317013 -0.887310 
black -1.082959 0.255676 1.625455 1.020717 -0.326721 -0.826082 -0.744484 -1.049196 -0.362942 -0.461910 0.294011 0.900561 -0.147425 -0.002167 0.861397 -0.640222 -0.394877 -1.284775 -0.510162 -0.253820 -0.345469 -0.043196 1.008593 -0.034335 -0.009655 -0.022212 0.420142 -0.303147 -0.155163 -0.861723 0.209962 -0.372264 -0.258946 -0.000496 0.371676 -0.998433 0.317522 -0.484933 0.366149 0.024870 1.588556 0.884745 -0.281040 -0.914417 0.691749 0.870786 0.564550 0.155423 0.412674 0.104530 -1.348698 0.328818 0.582409 -0.506919 0.206146 0.044530 -1.059244 -0.790088 0.767617 0.503700 -1.381411 0.705661 0.545994 -0.340338 0.025781 0.887852 1.174418 -1.608174 0.120495 0.535788 -1.341237 0.803524 -0.469275 0.106560 1.058543 -1.003375 0.546686 -0.099675 0.362481 -0.796402 -0.300423 0.515436 0.612713 -0.277823 -0.388344 -0.418362 -0.173898 1.261528 1.167666 0.370357 -0.942392 -0.675357 -0.477224 -0.076195 -0.210213 -0.272441 -0.516983 -0.840878 0.812693 0.175627 -0.381549 -0.346220 -0.082138 0.149651 0.611139 0.446228 -0.582496 -0.293269 1.050266 0.179236 -0.178401 0.126100 -0.777353 0.077965 0.520960 -0.306182 0.041124 0.685387 -0.436112 0.426455 -0.301027 0.828822 0.251125 -0.503424 -1.109896 0.036165 -0.744936 0.295131 -0.864375 -0.134967 -0.385126 0.114537 0.979662 -0.235335 -0.627579 0.920800 -0.032491 0.317131 -0.721519 0.053925 -0.639940 0.059406 0.122270 -1.053868 0.560257 0.734399 0.566979 0.479488 -0.742192 -1.273988 -0.328595 0.429247 -0.211567 -0.300716 -0.846163 -0.261887 -0.276392 -0.554856 -0.405481 -0.679134 0.352471 0.489285 0.689625 0.975320 -0.576472 -0.481058 0.221393 -0.306693 -0.289731 -0.181883 0.810910 0.368765 -0.791945 -0.002660 -0.553784 0.224144 0.126681 0.260775 -0.376382 -1.522051 0.024962 1.093819 0.257004 -1.240003 0.267707 0.205530 0.439350 -0.034225 0.233523 -0.256132 0.440548 -0.248737 0.124350 0.549140 -0.384234 -1.200731 -1.142623 -0.147010 0.038196 -0.129950 
and 1.011531 -1.253104 -0.448056 0.142458 0.388904 0.855078 -0.391687 -0.687346 -0.202173 1.312746 0.453217 0.494322 -0.212616 0.059961 -0.594833 0.716723 -1.299655 0.996815 -0.867775 -0.386040 -0.102207 -0.637183 -1.448247 -1.094045 0.035004 -0.218331 -0.259663 0.426650 0.286497 0.247609 0.193483 -0.359435 0.960566 -0.389062 -0.600622 0.540720 -0.187686 -0.122142 -0.003824 -0.219055 0.687624 -0.152261 -0.717749 0.110594 -0.488883 -0.262106 -0.918496 -0.759623 -0.622041 0.041061 0.367379 0.658751 -0.706836 -0.579082 -0.791794 0.515770 1.260584 0.232451 -0.161384 0.363325 0.219651 0.366985 0.377077 0.983945 0.777142 -0.948831 -1.192723 0.688925 -0.445690 -0.676620 1.297216 -0.100199 -0.046199 0.534806 -0.598301 1.399703 1.077595 -0.643531 0.845390 0.272200 1.285659 -0.422869 0.215977 0.566201 0.612486 1.099554 0.729240 0.028554 1.044831 0.383456 0.550871 -0.591687 0.082211 -0.080523 0.530121 0.756260 0.953895 0.671724 -0.284498 0.143418 0.056002 0.223622 -0.236818 -0.090809 0.497656 -0.700610 -0.896306 -0.496192 1.017900 0.229329 -0.619180 -0.098574 -0.044919 -0.682166 -1.250229 0.369700 0.171610 0.016937 -0.112847 -0.527522 0.074553 -1.027912 -0.599030 0.337359 0.436456 -0.364537 -0.389113 -0.516226 0.736678 -0.014720 0.031458 1.103407 -0.018918 -0.047023 -0.368007 -0.002768 0.310901 1.040321 -0.111415 -0.266554 -0.248546 0.753989 -0.339853 0.028478 0.683017 0.391880 0.317088 0.212593 -0.603538 -0.540589 0.650489 -0.667720 0.405642 0.393042 0.447349 -0.623357 0.348227 0.293770 -0.231602 0.070722 0.515018 0.302661 0.288654 -0.634234 0.845014 0.726652 0.448109 0.438946 0.386712 -0.596268 -0.213933 -0.042147 0.420543 -0.324787 -0.435289 -1.121355 0.021745 -0.435562 0.262793 -0.074678 -0.135474 -0.118677 0.335121 -0.612844 -0.595949 0.497829 -0.782845 0.507338 0.320282 -0.432433 -0.691293 -0.057929 -0.156237 0.602936 0.649428 0.144215 -0.748034 0.686237 -0.348908 0.589060 
with 0.812595 2.581969 -1.237757 0.143471 -0.070614 1.713560 0.927755 2.432356 -0.010611 0.199391 0.561423 0.092252 -1.631135 0.440935 -0.910471 0.939134 -1.367742 1.741325 -0.240721 -0.726908 1.634308 -0.671992 -0.647779 -0.826646 0.978940 -1.188542 -0.706207 0.930432 -0.854729 1.420013 1.538000 0.693653 1.482583 -1.465922 -0.668039 -0.603538 -0.549800 1.314102 -0.339383 -0.766541 -0.094889 0.220171 -0.607505 -0.159799 0.303991 0.599719 -0.421914 0.398900 -0.102888 -0.704151 -0.215070 0.648286 -0.298341 0.966923 -0.120893 0.460520 0.708883 1.282505 -0.276839 0.422443 0.967767 0.412633 -0.236637 1.029189 1.201602 0.049874 -0.970765 -0.065585 -0.548471 -1.016370 -0.285647 0.793710 -0.389196 0.892635 -0.539425 1.067754 0.875673 0.384255 0.874070 -0.358631 0.712446 0.334038 -0.023928 0.973321 0.437205 0.715339 -0.508836 -0.960910 0.117342 -0.447095 0.545545 0.589084 0.242343 -0.338669 0.437676 -0.301179 0.304989 0.338958 -0.757767 0.391153 -0.574120 0.615627 -0.423428 -0.476711 0.381912 -0.295200 -1.382713 -0.846372 -0.515490 1.238134 -0.053630 0.473898 -0.571829 0.086740 -0.626002 0.712238 0.810324 -0.610492 -0.497046 0.029150 -0.236412 -0.164001 0.867393 -0.555427 -0.146503 0.138683 0.481326 0.673395 1.130549 -0.313998 0.143914 1.047670 0.275996 -0.161528 -0.139491 -0.325188 -0.321237 -0.027883 -0.139870 -0.368201 0.405584 -1.069904 -0.327542 0.798191 0.571693 0.421626 -0.454936 0.192884 -0.451285 -0.002551 0.120318 -0.376364 0.277800 0.192719 -0.031578 -0.331565 0.163486 -0.162473 -0.285007 -0.682360 -0.422404 0.092055 -0.301611 0.684125 0.055905 -0.617997 1.024539 0.487611 0.327144 -0.165479 0.059084 0.214544 0.401223 0.013898 0.215518 0.093953 0.935169 -0.495751 0.459828 0.960123 0.220981 0.011537 -1.337581 0.209923 0.413063 0.422531 -0.477133 0.479507 -0.326023 -0.594641 -0.181634 0.543161 -0.832412 0.404498 0.630504 1.384830 -1.319909 0.511801 0.422899 0.017375 
he -1.017391 -1.277660 0.658993 -0.282862 -0.462167 -0.283046 0.441935 -1.166812 0.191230 -0.153186 0.048720 -0.100271 1.017971 -0.194605 0.943119 0.049357 0.233581 1.678702 0.193205 1.012477 -1.601174 1.121629 -0.052353 0.790945 -0.130970 2.435842 0.871255 -1.101379 0.651381 0.104314 -0.199086 -1.848858 0.124412 -0.398640 -0.887848 0.304857 0.388231 -0.041859 -1.459781 0.018103 -0.139887 0.481264 -1.122178 0.610657 0.230293 -0.509754 -1.259647 -0.578055 -0.605681 -1.102201 -0.124533 1.623546 -0.371023 -0.968588 -0.241039 -0.473537 0.161872 -0.054648 -0.367215 1.272156 -0.579948 0.604138 1.207716 0.186046 1.058599 -1.579597 -1.173028 0.774049 -0.426369 -1.358386 0.605344 1.424141 -0.792757 0.481501 1.314296 -0.421023 0.296781 0.083711 0.679116 -0.936291 0.425520 -1.189237 0.798892 0.038303 -0.238635 1.028099 1.177345 -0.696522 1.885037 -0.426094 1.500853 -0.160248 1.395863 -0.531971 0.822530 0.604280 1.507909 1.787923 0.322067 0.863082 0.755042 0.935081 -0.576123 -0.018783 -1.146928 -0.813585 0.693654 -0.637805 1.007996 -0.213970 -0.251669 0.175032 0.559750 -0.780552 -0.770643 0.456041 -0.040278 -0.117328 1.030688 0.431478 -0.029359 0.248896 -0.164559 0.419390 0.147757 -0.741457 1.294266 0.117933 1.344031 0.459326 -0.823078 1.048511 -0.081717 0.738216 -0.291260 1.029976 -0.239588 -0.062342 0.534780 0.381092 -0.604377 0.411329 -0.666456 -0.939439 -0.245968 -0.338000 -0.003884 -0.409187 0.786723 0.202636 0.950765 0.481226 -1.006144 -1.398252 0.213983 -0.690781 0.366127 0.392201 0.161359 -0.679092 0.404596 -0.091040 1.010837 -1.228098 1.158747 0.759164 -2.492100 0.172259 -0.448703 -0.350304 -0.759525 -0.128873 -1.231874 -1.956093 -1.829411 -0.544217 -0.515595 0.089676 1.654386 1.000575 0.693985 -0.659470 -0.010955 0.236004 0.269833 -1.625164 1.054149 0.508636 0.247319 -0.665075 -1.284749 -1.649953 1.168060 1.745636 -0.326699 -0.512213 -1.271931 -0.069464 -0.441085 1.177151 
wearing 1.096544 -0.866374 0.867918 1.549371 2.053239 0.563695 -1.175845 -0.169870 0.743462 -0.464673 -1.260571 -0.701029 -0.978474 1.781149 -1.348597 0.365743 -2.051225 -0.027890 -1.343799 -0.612039 1.083845 -1.532995 -2.228688 -0.815819 -0.069014 -1.505953 -1.397786 0.597436 1.415489 0.397210 0.575788 0.795385 0.468787 0.189182 -0.839705 -0.204383 1.099963 0.357099 -1.186190 0.631863 0.155030 -0.376696 -0.197551 -0.471437 0.008033 0.392411 0.100495 0.162006 -0.417565 -0.308130 -1.045718 0.567423 0.125525 -0.902323 -0.411091 0.244208 1.735685 1.107930 -0.605323 0.147601 0.598767 0.359324 -0.121739 0.383127 0.699993 -0.191894 -0.045092 0.050442 1.035608 0.485816 -0.311960 0.133398 0.520076 -0.066722 -0.192445 0.616481 -0.075263 0.874233 -0.275170 0.584233 0.752491 0.589882 0.052690 0.738593 0.316757 0.629007 -0.420264 -1.283197 -0.736685 -0.862104 1.184909 0.809334 0.642096 1.048979 0.500748 -0.538546 0.077885 1.718595 -0.514211 1.821224 -0.989406 0.644799 1.068751 -0.412117 1.429847 -0.794498 -0.035173 -0.529599 -0.643978 2.397502 -0.475442 1.044760 1.380105 1.570937 0.077739 -0.554607 -2.835316 1.122604 -0.926068 0.181815 -0.409606 -0.644035 -0.079237 -0.240268 0.151371 0.633692 0.433243 -0.444145 -0.346954 -1.181717 1.215376 0.081738 0.946405 0.186709 1.383222 -1.288508 0.144334 0.430800 -0.694357 1.139899 0.786191 -0.691316 -0.704619 0.231845 -0.771280 -0.192685 -0.569499 1.222814 -0.420890 0.336629 0.519647 -1.603774 -0.532421 -0.550476 0.654653 0.084179 -0.360013 0.570795 -1.660351 0.752778 -0.411750 0.722624 0.041460 0.373890 0.843322 -0.535340 1.862033 0.510863 -0.827408 -0.342290 0.102003 -0.921832 1.108118 1.481185 0.657249 1.635997 0.663613 1.110545 0.162961 1.466176 0.496118 -0.235475 -0.906621 1.371885 -0.263814 -0.461349 -1.007823 0.064601 -0.858517 0.642364 -0.417730 0.292579 1.011039 0.553244 0.257053 1.220197 -0.574189 1.148380 1.196766 0.373434 
his -0.349652 0.802580 0.975613 -1.642197 0.578358 -0.894970 0.005739 0.262381 -0.406997 0.205424 0.292508 0.240810 0.629048 0.589981 0.118405 -0.797705 1.145522 -0.497145 1.443778 -1.212585 0.516323 0.709143 0.923352 0.053370 0.095005 -0.020330 0.436596 -0.544477 0.813012 -0.688567 0.281174 -0.534861 -0.084832 0.157756 0.038174 0.708926 0.790258 -0.123126 -0.184685 -0.026679 1.454220 0.396783 0.354288 -1.287225 0.543304 0.611932 0.437609 0.074171 1.433006 -0.741251 -1.105132 0.550139 -0.048148 -1.079252 -0.060344 0.067329 1.360324 0.389381 -0.232866 -0.405094 0.963040 -1.004480 0.299522 0.261384 0.226965 -0.852339 -1.409978 0.865070 -1.149979 -0.159236 1.137955 -1.152694 0.618335 0.313405 -0.172715 -1.074103 1.470008 0.329184 -1.493733 0.228485 -0.388098 -0.869089 0.241341 -0.901523 -1.140324 -0.638621 -0.181394 0.743177 0.335856 0.132677 -0.226740 -0.500355 0.029743 0.178547 0.299357 0.128465 0.611128 0.404149 -0.047697 0.189128 0.647966 1.036034 0.510922 -0.066186 0.608876 0.040566 0.028697 1.588526 0.160855 1.952350 0.682371 0.455483 -0.475523 -1.014550 0.703349 1.814443 0.809281 -1.881710 0.661151 0.589130 -0.066390 0.498947 0.809182 -1.341560 0.033291 -0.452755 -0.664095 -0.412299 -0.592307 0.265064 0.009884 -0.265525 0.686366 0.613903 -0.424317 -0.042055 0.517908 -0.850904 -0.060700 0.603686 -0.792412 0.883466 -1.221999 -0.666408 -1.126727 0.265220 0.664001 0.441341 -0.943932 1.638553 0.912301 -0.302376 -0.662414 -0.366711 0.916199 0.126919 -0.476448 0.705528 0.636256 -0.345044 -0.628681 1.311039 -0.900882 0.050197 0.769102 0.429424 -0.271972 -0.865872 -0.178780 -0.223357 0.289739 -1.205229 0.424658 0.633334 1.267373 0.201232 0.644561 -0.125353 0.476963 0.534154 0.550771 0.024700 1.504351 -0.564383 -0.753883 -1.192389 -0.382401 0.146555 0.595026 -0.376073 -0.321121 -0.530534 1.953412 -0.480214 -1.875432 -0.694037 0.651584 -0.571380 0.339791 0.172302 
she -0.060241 -1.662042 0.354666 -0.339045 -1.159244 0.544468 0.472504 -1.030010 -0.576083 1.285143 1.188533 -0.179304 0.045670 -0.020995 0.991558 0.914429 0.433924 0.530027 0.453425 0.564644 -0.815153 1.940553 0.147102 1.505974 -0.765159 1.348483 0.314900 -0.636867 0.329612 -0.327457 -0.065447 -0.459899 0.062486 -0.508863 -0.851386 1.232398 -0.066579 -0.877570 -1.499984 -0.263323 0.232400 -0.217609 -1.086426 0.618207 0.438770 -0.541674 -0.370014 -1.398937 0.153828 -0.862635 -1.021270 1.281900 -1.457488 -0.641531 0.516591 -0.522737 0.193667 -0.551958 1.175819 1.447654 -0.673545 1.191266 1.191099 -0.064819 0.414657 -0.586536 -2.099151 0.584155 0.025578 -0.638555 0.217025 1.165840 -1.095834 0.188785 1.277904 0.084125 0.169409 0.476866 1.075257 -1.081515 0.430981 -0.688856 1.151124 0.678895 0.275145 0.630211 0.037745 -0.761904 1.682624 0.025277 0.946702 0.311510 0.016923 -0.331447 -0.644561 0.211574 0.863032 1.998330 -0.014262 0.778851 1.155441 -0.023209 -0.005378 -0.582832 -1.044401 -0.831321 1.077488 -0.452537 1.046521 -0.691112 -0.526044 -0.729226 1.343202 -0.104684 0.439379 -0.070556 -0.572336 0.054490 0.836361 0.053398 0.191650 -0.182347 -0.227924 0.620411 -0.915059 0.521493 1.066377 0.199113 1.419439 1.114731 -0.230821 0.488199 0.251563 0.692770 0.045372 0.527483 0.481162 -0.125707 0.141514 0.637435 -1.565635 -0.166030 -0.613266 -0.679664 -0.368894 0.096381 -0.903910 -1.017490 0.708243 0.842323 0.847057 0.506550 0.132355 -1.585662 -0.850114 -0.921281 0.280129 -0.426955 0.312825 -0.828188 0.025038 1.053317 1.409009 -0.583162 1.165358 0.128038 -1.805688 0.216896 0.066906 -0.070652 -0.053446 0.864580 -0.486514 -2.220020 -2.545432 -0.606591 1.133486 0.001793 0.864179 -0.015958 0.904473 -0.258624 -0.398478 -0.503441 0.429964 -0.457575 0.227092 0.602345 0.271755 -0.830791 -1.515502 -1.111063 1.231778 0.685807 -1.613428 -0.199466 -1.142805 0.858510 -0.263645 1.075121 
hair -0.770114 -0.449255 -0.531053 -0.629285 0.786069 0.156412 0.911515 0.175626 0.009742 -0.080026 0.486959 -0.213841 -0.328803 -0.619956 0.684565 -1.533633 -0.721895 -0.940961 -0.450981 -0.267691 -0.776547 0.502012 -0.696009 0.487232 -0.480534 1.663312 0.522668 -0.724506 -1.107485 -0.539298 0.000730 -0.566135 -0.171408 -0.134124 -0.321939 1.026769 -0.409416 -0.074138 0.846924 0.733616 -1.379489 -0.460764 1.108637 0.621299 -0.126257 -2.026198 0.151079 -0.758712 -1.293576 -1.035096 0.814577 -0.925972 1.037689 -1.005230 -1.496740 0.698199 -0.035660 0.216997 -1.729045 0.510171 -0.190877 -0.423216 0.248133 -1.021406 -0.060028 -0.023015 0.726773 -0.424961 1.141812 0.220773 0.175602 -0.455980 0.810434 -0.398403 0.507798 -0.174195 -1.223359 0.008844 -1.119984 0.107227 -0.247185 -1.198918 -0.580163 0.510079 0.656824 0.834497 -0.481670 -0.668173 0.825166 -0.829286 1.522854 0.327587 -0.241132 -0.738884 -1.292948 -0.247504 0.274866 0.285080 -1.258987 1.198560 0.430647 -0.076541 0.615592 -0.946796 -1.075104 -0.990487 0.878012 -0.720557 -0.611622 -0.681411 -0.680326 -0.395086 0.972080 0.650110 -0.928198 -0.436530 -1.419850 -0.165275 -1.538483 0.339781 0.319404 -0.405969 -0.679756 1.908877 0.920859 -0.709576 0.701136 -1.067075 -0.752296 0.165490 -1.080771 -1.075932 -1.270438 -0.548389 0.502850 -0.727620 -1.405809 0.720022 -0.675442 0.493378 0.049220 -1.211275 0.749169 1.443796 -0.322996 0.385196 -0.156150 -0.853715 0.945562 1.465559 0.964994 -0.800288 -0.549947 -0.433821 0.496204 -0.913055 0.161815 0.541827 0.332238 0.778316 0.166186 -0.495508 0.251963 -0.687323 0.248322 0.233862 0.176677 1.599672 0.981080 -1.584306 -0.476951 0.489814 -2.451514 -1.282429 -0.872045 0.009061 0.959974 -1.790158 0.543513 -0.127884 0.009980 0.767143 -0.266642 -1.155749 0.768760 1.316076 -0.250944 0.895795 0.251827 -0.133163 -1.068830 1.841202 -0.347384 0.122056 -0.234682 2.221610 0.038896 -0.321755 -1.071536 0.644337 
white -0.639143 0.372817 1.429260 0.911017 -1.346615 -0.175436 0.403650 -1.703986 0.345001 -1.062193 1.435284 0.768016 0.560981 0.144520 0.873091 -0.467214 -0.209285 0.115266 -0.240902 -0.616378 0.404750 -0.617061 0.989147 -1.141689 0.536585 0.075550 0.245839 -0.321610 -0.013847 -1.184771 0.087091 -0.884728 -0.445436 0.589931 1.207440 -0.043895 0.798260 -0.244231 0.674086 0.734633 0.143029 0.306778 0.535095 -0.873516 -0.011802 -0.775878 0.587235 -0.071687 0.598101 0.876397 0.116007 -0.320451 0.996728 0.551283 -0.221611 -0.869274 -0.775770 0.524233 1.384114 -0.634274 -0.033171 0.876094 -0.978205 0.141894 -0.069233 0.849890 1.862219 -1.614832 0.562513 1.635614 -0.842870 0.630470 -0.484941 -0.599962 0.842170 0.122635 -0.160275 0.059468 0.116815 -0.742040 -0.112597 0.511929 0.482208 -0.591152 0.597649 0.880146 0.710220 0.855053 1.327130 0.563027 -0.884988 -0.125218 -1.153590 -0.354121 -0.825537 -0.431387 -0.012631 0.121243 -0.790554 1.047510 0.131106 0.137824 -0.065272 -0.064856 -0.532268 0.592933 0.350341 0.522035 1.100189 0.692164 0.452252 -0.144859 -0.056447 0.749643 0.869054 -0.319068 0.188177 0.034690 -0.186256 0.371254 0.168263 0.850806 1.338540 -0.738759 -0.222410 -0.269658 0.358573 0.515167 0.074172 0.286727 0.240896 0.446384 -0.450326 -0.093943 -0.650008 2.147991 -0.185374 -0.515154 -0.095619 -0.948009 0.345829 0.549438 -0.467447 -0.319852 0.582301 -0.155029 0.286827 -0.057551 0.776413 -1.145823 -0.198309 -0.217169 0.299121 0.275878 -0.058985 0.794417 -0.144789 0.018316 -0.055419 -0.399026 -0.113370 -1.017504 -0.039927 0.922391 0.000094 0.595952 -0.122425 -0.035270 -0.978511 -0.308040 0.904985 0.247433 -0.399952 0.820059 0.109600 -0.003695 -1.167817 -0.246439 -0.173624 0.319243 -0.839704 -0.210270 -0.037825 0.403807 -0.012609 -1.050871 0.831106 0.593820 -0.419101 -0.021860 0.108073 -1.141604 -0.096143 0.030208 -0.231531 -0.240809 0.872257 -0.933025 -0.287144 -0.144706 
dark -0.258335 -0.722852 0.756526 0.861302 0.629881 -0.523932 -0.365228 -0.988255 0.058853 -0.286146 -0.442506 1.093274 -0.278202 0.626397 1.203456 -0.945616 0.222694 -0.561130 0.266334 -0.437928 -1.500775 0.049497 2.141584 -0.663086 0.091063 0.326848 -0.496934 0.039846 0.578369 0.175160 0.816207 0.595253 -0.620005 0.229500 1.860502 0.571604 0.366195 -0.769579 0.713057 1.138358 1.280951 0.304895 0.073790 0.057501 0.049896 -0.438134 -0.095008 -0.008076 -0.240434 0.522601 -1.800290 0.912298 0.264652 -0.001101 -0.275860 -0.585264 -1.620127 0.268394 0.512648 0.069848 -2.281072 0.453363 1.164123 0.667885 0.398991 1.193985 0.922148 -1.098031 -0.923025 1.084117 -0.932641 0.188384 -0.179864 0.079454 -0.286957 0.287669 0.050287 0.008568 1.276469 0.161217 -0.411790 -0.061640 0.552630 0.604725 0.850671 0.292152 0.570462 0.698921 0.411214 0.453113 -0.361672 -0.103498 -0.396067 -0.708322 -0.488944 0.137235 0.188668 -0.513234 -1.092058 -0.474218 0.593817 0.851268 -0.157336 -0.022896 -0.229581 0.946102 -0.800010 0.457723 0.576144 -0.173283 0.529293 -0.069001 -0.192672 0.186812 0.625948 0.318423 -0.468415 0.442404 0.207406 0.151339 0.086352 0.621794 -0.031962 -0.101353 -0.728121 0.630215 -1.093449 -0.830332 -1.735643 0.826433 -1.028948 0.464809 0.834882 -0.067627 -0.567737 0.087912 0.161121 -0.304649 -0.524964 0.743816 0.197458 -0.210804 0.627061 -1.103578 -0.168552 0.955507 0.038651 1.365076 -0.995632 0.422367 -1.047188 1.561291 -0.044939 0.050506 0.735713 0.321486 -0.146949 -0.784642 0.217605 0.135901 0.365600 -0.718694 -0.728894 1.246950 -0.390145 -1.182191 -0.106326 -0.932877 0.526103 0.162155 0.461151 0.106083 -0.265846 0.497629 0.123608 0.000429 0.071356 1.089259 -0.185137 0.186092 -0.886207 -0.206198 1.721859 -0.008684 0.150536 -0.176696 1.122176 -0.427872 1.046102 0.571273 0.815124 -0.250545 0.901419 0.391194 0.581128 -1.691039 0.110038 0.592205 0.124350 -0.574266 
in 0.829800 1.211555 -0.176186 -0.494795 -0.611046 0.621800 0.331441 -0.229498 0.128591 0.740593 -1.039274 -1.709226 -1.371720 -0.023007 -0.784815 -0.774043 -0.189123 3.328595 0.884637 0.612549 0.537389 -0.401920 -1.117229 -0.643434 -0.334395 -1.606358 -1.701591 1.174719 -1.376457 1.606709 -0.127180 0.245478 -0.536271 0.493552 -0.045256 0.388141 0.917713 0.739567 0.687339 -1.201993 0.377570 0.355889 1.398158 -1.270185 -0.397699 1.064420 -0.688497 -0.143083 0.095312 -0.027830 2.532052 0.102568 0.499990 0.928548 -0.137528 0.441242 0.161562 -0.049385 -0.568684 -1.255117 0.922450 -0.001821 -1.522484 -0.080978 0.132568 0.429454 1.293028 -1.446905 1.352953 -0.193704 -0.216025 0.352628 0.060203 0.275825 -1.165812 0.515494 -0.725608 -0.088940 -0.723644 0.079508 0.852642 -0.995140 0.548041 1.812583 -0.198539 0.478501 -0.937004 -1.045816 -0.569382 0.229905 0.178697 -0.314820 0.940664 0.330997 0.286603 0.023098 -0.124702 1.062530 0.197573 0.339735 -0.072429 -0.752107 -0.291934 -0.615586 -0.605756 -0.632107 -0.305481 -0.541441 -0.539168 -0.388065 -0.402569 -0.191623 0.497925 0.565679 0.507236 -0.344201 -0.939791 -0.081427 0.398086 0.936894 0.040191 -0.391309 -1.151076 0.219642 -0.120197 1.583459 1.135474 0.974763 1.424505 1.116579 1.123356 -0.188123 0.736846 -0.737523 -0.184662 -1.506389 -0.748442 -1.270705 -0.232420 1.157535 -0.002283 -0.821488 -0.200861 0.574661 -0.234412 0.392296 -0.298454 -0.965296 0.891996 0.950452 -0.456927 0.342636 0.173082 -0.301806 -0.459324 0.598119 0.381456 0.672622 0.937871 0.284272 -0.229725 -0.769529 -0.916741 0.450442 -0.176297 -0.427085 -0.028722 -0.468825 -0.489814 0.639971 -0.147222 -0.239413 -0.201845 -0.131543 0.282208 -0.066742 -0.674019 -0.586267 -0.519676 -2.520009 0.937477 0.424960 0.588996 -1.198647 -0.681233 -0.428361 1.080634 0.517107 -0.162399 -0.805458 -0.283151 -0.363513 0.851925 0.557043 0.299121 0.166491 -0.203998 0.606838 0.808153 1.144897 
her -0.463453 0.152277 -0.275526 -0.732835 1.090335 -0.242958 -0.127657 0.107370 -1.128707 1.853058 0.454985 -0.355211 0.389595 -0.324649 -1.064048 -1.008622 0.788289 -1.172015 1.758605 0.009016 0.421143 0.881169 0.889670 -0.105524 -0.259732 -0.417390 0.257647 -0.551910 1.379275 -0.170028 0.052475 -0.968903 1.200882 -0.198476 -0.735386 1.544719 -1.213841 -0.232829 0.810622 -1.128530 0.859516 -0.797681 -0.445373 0.704453 -0.408679 0.240925 0.670350 0.348083 1.221971 0.147539 -1.229188 0.339339 -0.560314 -0.268465 0.595207 0.110342 1.478392 1.037120 -0.214079 0.320695 0.785888 -0.709727 0.756868 1.377219 -0.002459 -0.080500 -0.602424 0.038973 -0.653940 0.997589 1.122053 -0.047311 -0.631142 -0.601106 -0.027194 -1.098949 0.381204 0.407314 -1.248340 -0.508797 0.732313 -1.090641 -0.369994 -0.406963 -0.938536 -0.268320 -0.526625 1.078891 -0.171738 -0.125419 0.095436 -0.988292 0.315531 -0.011070 -0.238922 0.435444 1.036104 1.875526 0.123156 1.092473 -0.242905 0.584159 0.559458 -0.196239 0.846133 -0.172018 0.526585 0.934784 -0.307253 1.782474 0.029903 0.371464 -0.460449 -0.596608 0.343013 1.262667 0.281814 -1.038469 1.250578 0.309305 0.233286 0.191537 0.187862 -1.166119 -0.822338 -0.174761 -0.151741 -0.288551 -1.502512 -0.036648 0.579986 -0.431282 -0.600295 0.315447 -0.723085 0.958832 0.871709 -0.520741 -0.675316 1.113016 -0.769508 1.163466 -1.216076 -0.955981 -0.969960 0.055533 0.764980 0.616618 -0.280581 0.582701 0.728378 -0.561525 -0.186089 0.049028 0.492693 0.547957 -0.619153 0.882532 0.378197 -0.313144 0.150802 0.075641 -0.274078 -1.069935 0.576827 1.007469 -0.170730 -1.215065 -0.497825 0.150023 0.104938 -0.376171 0.096402 0.440698 0.223045 0.416765 -0.443067 0.361990 0.241124 0.716937 -0.843616 0.357738 0.631958 -0.355902 -1.037124 -1.238357 -0.547003 -0.340661 0.532266 0.166120 -0.159155 -0.669187 1.439841 0.329565 -1.165823 -1.508145 1.456779 -1.304190 0.864703 -0.195554 
coloured -0.889438 -0.754736 0.648448 0.454189 -0.284329 -0.500664 -0.548039 -1.287533 -0.460973 -0.081780 0.703451 -0.154788 -0.781571 -0.674274 0.302813 0.026758 -0.322139 0.237586 0.049060 -0.181061 0.382052 -0.171611 -0.264072 -0.639492 0.228236 -0.145236 1.213344 0.249622 -0.122586 -0.290969 0.394018 -0.399522 0.853222 0.115471 -0.294624 0.116220 -0.372188 0.570899 0.405397 -0.850187 -0.349090 -1.508828 0.426460 1.313979 -0.738263 -0.666214 0.042715 -0.709078 -0.511934 0.722016 -0.149109 -0.821018 -0.798844 -0.767253 -0.327395 0.540600 0.055725 0.982714 -0.648875 0.755256 0.208097 -0.594654 0.492845 1.944314 -1.272259 0.154902 -1.179495 0.011512 -0.554435 -0.336823 -0.170797 -0.757703 0.060485 0.005938 -0.912332 0.247707 -0.646982 0.789059 -0.656011 0.567310 -0.537136 -0.509893 -0.588239 -0.176286 -0.445737 -0.708655 -0.613079 0.660887 -1.188150 0.904141 -1.001565 0.155610 -0.920715 0.445608 0.137403 0.345092 -0.569083 0.080603 0.235711 -0.318969 -0.653707 -0.786540 -0.239902 -0.211289 0.530643 -0.325325 -0.284261 -0.547937 -0.364489 -1.027713 -0.387108 -0.471314 -0.072552 0.064268 -0.479036 0.099336 0.029763 0.228252 -0.643031 -0.679131 -0.159128 0.136341 0.641096 -0.432231 -0.042844 -0.474052 -0.274988 1.232509 0.655680 -0.537410 -0.016727 1.009589 0.005742 -0.042501 -0.264392 0.641163 0.190016 1.714955 0.650518 -1.739072 0.115423 0.250253 -0.140159 0.305980 2.286988 -0.057427 0.795133 0.286138 -0.213592 -1.956197 0.353082 -0.626792 0.127808 0.223841 -1.369925 -0.630517 0.011681 -0.917338 -0.447882 -0.301988 0.443424 -0.005219 0.162544 0.207710 -0.641867 0.458654 0.472544 0.625003 -0.262332 -0.121265 0.880170 0.773320 0.309593 0.711358 0.664679 -0.500056 -0.667793 -0.185710 -0.295277 -0.748672 -0.165217 0.415154 -0.160274 -0.271576 -0.008753 -0.058153 -0.233612 0.057171 -0.668635 0.301549 -0.345914 0.495219 -0.475399 -0.166578 1.197561 1.023438 0.203719 0.185933 -0.305632 0.019055 
colour -0.945875 -1.001606 -0.025648 0.480473 0.205416 -0.854912 -0.216126 -0.486395 -0.655649 -1.539445 1.000288 -0.100606 -1.066909 -0.680747 -0.155013 0.219538 -0.620817 -0.550814 -0.839545 -1.381049 0.574874 -0.443983 -0.357841 -0.311020 0.099660 1.376984 2.110982 -0.487852 -0.315908 -1.365959 -0.299548 -0.043651 0.965186 0.163524 0.174389 0.190397 -0.060499 -0.150764 0.010102 0.437839 -1.395295 -1.502395 -0.013033 1.915308 -0.888190 -0.231032 -0.133709 -0.342688 -0.310834 0.473487 -0.333652 -1.318606 -0.583566 -0.625087 0.288273 0.698476 -0.785342 0.779498 -0.278224 0.760466 0.120617 -0.545869 0.501515 0.567469 -1.691414 0.521023 -1.147193 0.515166 0.316971 0.225244 -0.324934 -1.225235 0.266854 -0.855280 -1.512877 0.737383 -0.652138 0.317606 -1.373093 0.341567 -0.020538 0.316420 -0.467988 -0.639195 -0.335851 -1.009407 -0.283879 0.735034 -0.847187 0.504334 -0.598558 0.278065 -0.393444 0.553204 -0.496702 0.227978 0.235888 0.090958 0.115773 -0.024443 -0.099838 0.337817 -0.081453 -0.399476 -0.045544 -0.028071 -0.589824 0.226906 -0.125767 -0.297521 -0.572771 -0.691485 -0.447679 -0.311402 -0.655438 0.421269 0.802368 -0.135633 -0.659141 -1.018314 -0.493423 -0.120586 0.454661 -0.305759 -0.016216 -0.513875 -0.482391 0.540096 0.106153 -0.574696 0.796030 0.719613 -0.749335 0.089254 0.483491 0.826432 0.252483 0.819814 0.574889 -1.768600 0.439639 0.397367 -0.184038 0.412491 1.200679 -0.282958 0.470434 0.411110 -0.181460 -1.085333 0.503143 -0.691039 0.607403 0.365241 -0.829078 -0.167756 -0.620954 -0.691411 -0.563199 -0.739182 0.299317 0.016233 0.545969 -0.591736 -0.064272 0.487220 0.653153 0.271882 0.065449 0.225100 0.524798 0.513881 1.080610 0.031655 0.066084 -0.295408 0.062702 0.274654 -0.501178 0.027444 -0.053053 0.550378 -1.208620 0.197461 0.158670 -0.498336 -1.129624 0.081562 -0.413506 -0.083137 -0.561161 0.050481 -0.490669 -0.332643 0.880998 1.021568 0.249994 -0.092961 -0.262287 -0.611241 
pair_of 0.521776 -1.625551 0.749144 0.765803 -0.826283 0.891435 -0.891078 -0.869363 -0.327684 -1.253065 -0.128190 0.228744 1.147733 -0.774837 0.713259 -0.012465 0.272626 1.381031 1.466633 0.529509 -0.540925 0.508396 0.732061 -1.042580 0.240976 0.052119 -0.552762 -0.011160 1.419171 -0.484972 -0.137788 0.162231 -0.154107 0.900709 -0.347408 0.304024 0.640529 0.331625 0.684715 -0.465269 0.949631 -0.287500 0.866489 -1.755150 -0.022659 -0.727837 0.521860 -0.957372 0.871079 -1.164508 0.111301 0.170146 1.360704 0.354261 -0.065584 -0.164659 1.244146 -0.442283 2.023020 -1.490906 -0.011983 0.154214 -0.155310 0.428142 -1.260471 -1.030232 1.222263 -1.479300 2.289028 1.300881 -0.664299 0.164663 2.403505 1.776733 0.462122 0.131371 -2.203299 0.540127 0.817893 0.711526 1.278130 0.267725 0.661963 0.075858 -0.052638 0.065222 0.713468 -1.395095 0.640075 0.289722 -0.390521 1.045160 -0.527342 1.324781 0.192127 -0.745903 2.009044 1.853361 -1.418633 1.153738 0.746577 1.459404 -1.160726 0.143362 0.449621 -0.226963 -0.229585 -0.379807 0.040637 0.693257 -0.032960 2.013728 -1.791318 -0.117953 -0.381501 -0.803600 -0.029549 1.741482 -0.020380 0.798203 -0.709972 0.078779 -0.410280 -1.346501 0.043874 -0.943453 -0.149321 0.847752 1.350889 -0.567977 0.121584 0.689460 0.249525 -0.509169 -0.783887 0.995014 0.792040 1.611015 0.762696 -1.679569 -0.440148 0.130000 0.176010 1.810997 0.859710 -0.408622 0.522629 -0.188523 -0.618728 -1.302290 -0.141089 -0.802058 0.173153 -0.822172 0.148779 -1.428200 -0.091270 -0.940168 -0.646718 -1.045801 0.174098 -0.424782 0.955819 -0.176038 -1.369074 -0.865696 -0.564495 -0.044167 -0.175961 -1.554472 1.953851 0.832323 -0.382818 -0.395733 -1.834765 -0.124312 0.319267 0.850475 -0.969735 0.472060 -1.148534 1.072535 0.237432 0.524483 0.212618 0.845342 0.179750 0.347462 0.897037 0.607182 -0.887197 0.286855 -0.092523 -0.212963 1.451980 0.804764 -0.480402 0.211594 -1.095265 -0.334636 
or 0.674602 0.196113 -1.561618 1.069645 0.065822 1.576792 -0.740900 1.274940 -1.267013 -0.402745 -1.013472 -0.557321 -0.038596 -0.049483 0.461731 -1.827467 0.177764 0.553219 1.131849 -0.561181 0.181037 -0.129735 0.342926 -1.128052 -0.168463 0.643273 0.452886 0.362519 0.109044 -0.871168 -1.366937 0.956757 1.056735 -1.074015 -0.614194 0.735995 -0.326734 1.294886 0.565574 0.240519 0.094509 0.636590 0.198302 0.156039 -0.970703 0.246843 -0.327652 -0.423785 -0.314826 -0.767652 0.029860 0.768554 -0.477098 -0.433179 0.293193 0.781909 0.385285 -0.815193 -1.092245 0.856289 -1.124821 -0.112418 0.626757 1.263530 0.080456 -0.220122 -1.284756 0.529672 -0.957987 -0.347029 -0.039353 -1.381707 0.748897 0.463968 -1.432012 0.253268 -0.892759 1.023997 0.078816 1.437890 1.595101 0.054593 0.835934 3.081356 1.401001 0.577415 0.768927 -1.580963 -0.600736 0.633130 0.276054 -0.947892 -0.163553 -0.435594 0.121606 0.003320 0.265653 0.727100 -0.190826 -0.264552 -0.006121 0.481575 0.873255 0.421372 -0.503310 -0.088861 -0.730391 -0.484332 -0.367676 1.372999 -0.371448 0.918929 -0.736948 -0.524353 -0.092835 1.145825 0.925561 -0.283733 1.015554 0.553889 0.096577 -0.280886 -0.972893 0.166041 -0.184333 0.700313 1.486191 -0.420551 0.448910 0.370193 0.061315 0.024335 0.525935 0.664051 0.196431 -1.270625 0.110671 -0.493592 0.784492 -0.527802 1.246297 0.297439 -0.210305 0.885359 0.939852 -1.058357 -0.856436 -0.209314 -0.305930 -0.484402 0.047272 0.126082 1.581945 -0.370146 0.361523 -0.475950 -0.763997 -0.844518 -0.282840 0.367315 0.020001 0.940908 -0.056098 -0.228553 0.003682 0.089054 0.660540 0.784370 -0.280701 -1.068113 0.872872 0.268371 0.363711 -0.288486 0.723513 -0.345902 -0.487586 0.255197 -0.282920 0.304603 0.678374 -0.093913 -1.061391 0.756259 -0.392372 0.260809 -0.369725 0.283526 -0.286842 0.860382 -1.562855 -0.405641 -1.687512 0.215636 1.742178 -0.179727 -0.086974 0.426445 -1.046161 -0.442126 
has 0.240272 3.168809 -1.174494 -0.636692 0.816494 1.139837 0.256209 2.041012 1.104600 1.847193 -1.638925 1.161697 -0.308481 1.353905 -1.645402 0.888307 -0.187800 0.803880 -0.259682 -0.006424 1.252558 -0.902542 0.239479 -0.892906 0.603236 -1.787208 -0.113631 0.863180 0.654874 0.079185 1.235039 0.168508 1.122468 0.129072 0.230057 -1.261143 -0.442075 0.988175 0.216438 -0.317496 -0.244220 0.167782 0.206112 -0.279928 -0.175168 -0.482001 0.150512 1.024496 -0.366840 0.036249 0.199260 0.101757 0.807170 1.333015 -0.921489 -0.365352 0.768776 2.070602 -1.097079 -0.938954 1.477343 -0.266276 -0.269854 0.748541 0.384793 0.103726 1.665490 0.254403 -0.130183 -0.040728 -0.557698 -0.474412 0.222380 -0.004374 -0.394325 0.726576 0.817912 -0.622421 -0.630042 0.155584 0.444214 0.742179 -1.154407 -1.238658 0.089509 1.002919 0.395687 -0.011478 -0.524175 -0.275701 0.062128 0.296853 -0.081752 0.502525 0.379594 -0.206180 -0.076386 -0.840893 -0.792272 0.629656 -0.469014 -0.013889 -0.450898 -0.812075 0.839807 -0.090883 -0.737006 0.419502 -0.393158 -0.734911 0.389470 -0.910869 -0.623424 -0.032132 -0.130894 0.360460 0.781333 -0.907692 -1.599855 -0.431606 0.514837 -0.002415 1.757070 -0.277961 1.585810 0.168689 -0.784956 0.451685 -0.612434 -2.010713 0.661423 -0.148588 -0.164622 -0.159981 0.274591 -0.419292 0.203730 0.710094 -0.348479 -0.895180 1.104633 -0.991694 0.575647 1.830547 -0.397226 0.176195 0.028436 -0.516801 1.052330 0.645037 -0.206093 -0.915439 0.198012 1.385744 1.911917 0.225137 -0.023899 0.758219 -1.818937 1.890006 -0.908062 -0.521733 -0.640643 0.690035 -0.388546 -0.867261 1.954666 0.367204 0.645388 0.269127 0.393053 -0.434586 0.422583 1.781689 0.393825 0.389126 0.570822 0.851305 -1.849850 -1.788377 0.058529 0.428752 -0.494243 0.647076 1.043667 1.300074 -1.422881 -0.736308 -0.608506 0.937442 1.515073 1.223201 -1.272591 -0.459289 1.550526 0.807810 -1.624398 0.440144 -0.666017 -1.265270 
short -0.109159 -0.003985 1.783959 -1.562348 0.384439 -3.517649 -1.688869 -1.293356 0.554727 -2.354377 -1.363378 0.418563 -0.210184 -1.783651 0.838261 -0.002444 0.307754 -0.109614 -0.546125 -0.409157 -2.163451 0.393571 0.779177 -0.479892 0.181752 -0.543461 -1.409103 1.185996 -0.191016 -0.372329 0.419210 -0.040052 -0.459678 1.022678 0.622482 -0.456551 0.019306 0.479964 1.423858 -0.365398 0.535339 -0.549686 0.572064 -0.912342 -0.635815 0.086719 1.565679 -0.936472 0.789755 0.123968 0.888650 -0.607054 0.749191 -0.266395 0.356391 0.906148 -0.668377 0.314148 0.911927 -0.321930 -0.393849 0.473375 -0.182962 0.555297 0.898944 -0.937284 -1.246742 1.643819 -0.152557 -1.649781 -0.590368 0.329593 -1.025142 0.578829 1.359437 -0.518677 0.197297 -1.427229 0.418457 -0.091735 -1.009659 0.222857 -1.273738 -1.487214 -0.801171 -0.056452 -0.369291 0.804908 -1.135163 0.586219 -0.874290 0.213014 -1.526060 0.264564 -0.830359 -0.676121 0.717203 0.359506 -1.475558 0.451709 1.054348 -0.091303 0.217593 -0.257894 -0.053714 0.361236 1.079147 0.463791 -0.325298 0.209848 0.543310 0.246023 0.099404 0.638583 1.034101 -1.261832 -0.911839 0.917760 -0.065702 0.914559 0.754146 -0.734840 -0.307516 -0.436422 -1.102021 0.495661 -0.485000 -1.320121 -0.504283 1.129430 -1.280298 -0.614757 0.701272 -0.176289 -0.549233 -0.329199 1.684643 -0.074108 0.367412 -0.794857 -0.850025 0.414681 0.428932 -0.228485 0.459671 -0.305863 0.013790 -0.247419 -0.397848 1.352570 0.053746 0.543256 -0.075989 0.914830 0.216620 -0.918226 -0.917338 -0.623756 -0.249971 0.385465 0.575223 0.648251 -0.320123 0.487899 -1.126976 -0.384875 0.804667 -0.655414 -0.089237 -0.555722 -0.034122 0.793938 1.510731 0.710689 2.192869 -0.157303 0.858196 -0.325620 0.041479 0.240397 0.429475 -0.398970 -0.549177 0.090003 -0.146562 -0.396860 -0.835701 -0.361833 0.611851 -0.766469 0.242178 -0.163024 -0.430997 0.736034 -0.312842 -0.403441 0.222435 -0.841346 0.678251 -1.475200 
the -0.629934 -0.360922 -0.802384 -0.525432 0.559900 -0.393888 -0.179490 -0.508580 -0.787799 0.417243 -0.655672 -0.437354 -0.745338 -0.467167 -0.549331 -0.555650 1.288362 0.384748 -0.684964 0.476636 0.388276 -0.849251 -0.910145 -0.461055 0.590403 0.262602 -1.240161 0.453179 -0.290717 0.943696 1.174024 1.277140 0.705375 -0.933405 0.389886 0.911263 -0.874990 1.076074 0.862159 0.132660 -0.844528 0.379974 -1.151878 1.347047 0.216576 0.071385 -0.049297 0.039357 2.169320 -0.367038 0.262696 -0.904797 -0.502393 -0.128537 0.772918 0.409095 -0.280535 0.052116 0.896682 -0.759136 0.064267 -0.835722 0.227069 0.774113 0.504443 -0.638156 -1.103982 1.602245 -1.001861 -0.088078 0.738628 -0.511979 -0.734293 0.004655 1.199368 -0.251268 1.333778 -0.056548 0.060153 -0.441427 -0.541717 -0.162466 -0.441149 0.505816 0.738907 -0.104983 -0.597954 -0.228148 0.333881 -0.782441 0.759605 0.278058 1.046672 -0.392721 0.406291 0.442073 -0.186318 0.356251 1.110738 0.455134 -0.314160 0.226279 0.282928 0.117664 0.801046 -0.052444 0.592864 0.160670 -0.600326 1.616071 0.418599 0.629829 0.685642 -1.242954 0.884155 0.365125 0.505418 -1.411461 0.454083 -0.033844 0.321130 1.046755 1.221578 -0.615569 -0.145491 -0.092719 -0.084928 0.002126 -0.590527 -0.144620 -0.869792 -0.105038 -1.004444 0.376752 -0.346886 0.994507 -0.074878 -0.034557 -0.927651 0.957241 0.013972 0.628676 0.019356 -0.095052 -0.280308 0.593856 -0.502185 0.585396 -0.666977 0.374081 0.563770 -0.277114 -0.207429 -0.949422 0.210618 -0.333657 0.225587 0.427995 0.137845 -0.700822 -0.412153 0.727443 0.248723 -0.062221 0.243882 0.240351 -1.030210 0.002191 -0.133846 0.076169 0.103607 -0.051587 -0.972563 -0.009238 -0.449183 0.088948 0.027544 -0.151558 0.817440 0.203500 0.760578 -0.381495 0.124520 0.491048 0.387975 -1.632397 -0.029064 -0.159567 -0.220295 0.055832 0.098318 -0.410078 1.864336 -0.427558 -1.820695 -0.215162 0.932084 -1.090414 0.620905 0.615898 
on 1.661459 0.986493 -0.229438 0.272940 0.180063 0.957840 0.777721 0.519863 -0.556625 1.791640 -0.864200 -1.276147 -1.000253 0.568787 -1.030051 0.716642 0.364159 2.012136 -0.301616 0.983185 0.423872 -1.038406 0.169077 0.472180 -0.034724 -0.669968 -1.195799 0.406363 -0.421194 -0.560619 0.148141 1.204149 -0.949785 0.805512 2.296495 -1.061775 1.200237 -0.111010 0.215068 0.471391 0.505804 1.831131 0.055677 -0.709839 0.083364 2.020522 -0.387427 -0.451923 0.942967 0.273993 0.854125 -0.775397 1.086874 0.007907 0.303540 1.756518 0.327532 0.208409 0.432986 -1.315486 0.955195 -0.638118 -1.389725 -1.655250 -1.102001 1.390172 0.236422 -0.418192 0.245885 0.453187 -0.579449 -0.659332 -0.644692 -1.049306 -0.677444 -0.179958 -0.570691 0.265941 -3.085644 0.051571 0.039697 1.197789 1.217378 1.643649 1.959977 0.482476 0.004057 -2.008334 -0.846374 0.833411 0.054035 0.762368 0.693771 -0.027436 -1.103148 -1.876535 0.193077 -0.038285 -0.698907 0.742707 -0.234864 0.787471 -0.589756 -0.523512 -0.865737 -0.216876 0.523213 -0.232448 0.011043 -1.043111 -0.079516 -1.064426 0.774750 -0.745161 -0.798087 0.650645 1.819893 -0.709909 0.202018 -1.498066 -0.512081 0.125209 0.687380 0.920617 -0.500054 0.216879 -0.889076 0.483719 -0.101558 0.786786 1.030375 0.014649 0.217336 -1.535952 0.170884 -1.661129 -0.575109 0.412281 -0.036228 0.607005 -0.303866 0.118211 0.868019 -0.385703 -0.254630 0.012213 0.513740 0.195137 -0.499644 0.290636 -0.104929 -0.596518 -0.225245 0.792840 -0.072479 0.047922 -0.429248 1.122137 1.226549 -0.170038 0.592044 0.438719 0.774998 -0.667377 -0.558681 -0.193264 0.300533 -0.578870 -0.011961 -0.538186 -0.576520 -0.514292 -0.358774 -0.111774 -1.004474 -0.566975 1.038932 -0.849901 -0.593026 -0.404690 -0.491058 0.438918 0.721137 -0.998433 -0.652945 -0.277995 -0.500834 0.136330 -0.179425 -0.821153 -0.537036 -0.000404 -1.154614 1.901448 0.117110 -1.189288 -1.742951 -0.655410 -1.124416 0.348559 
grey -1.339633 0.950494 2.230764 -0.507040 -0.205740 -1.735320 0.180054 -2.102392 0.424865 -1.288035 1.284845 -0.524072 0.244141 -0.165174 0.616466 1.543233 -0.930938 -1.762564 -1.189541 -0.872111 -0.080166 0.272881 0.683588 0.407987 -0.321940 -0.208699 0.151269 -0.821266 0.484936 0.045340 0.300736 -0.832838 0.785788 -0.224420 -0.072516 -1.645540 -0.315695 0.912057 -0.609505 0.458669 -0.161694 0.443013 -0.316207 -1.314407 0.829209 -0.133140 0.758255 0.473098 0.484430 0.115487 -0.665914 -0.287133 0.088113 0.155028 1.055648 0.310313 0.449888 0.223365 1.175812 -0.253285 0.117836 0.112521 -0.394887 0.047506 -1.412491 0.458479 2.386250 -1.597597 0.612245 2.236619 -0.594382 0.581459 -0.291963 -0.425542 -0.256924 -0.136475 -1.265048 -0.399297 0.550771 0.730000 -1.134148 0.199358 -0.124259 -0.214993 -0.777863 -0.527308 0.605410 0.582555 0.053679 0.358483 -0.768829 0.263768 -0.247857 -0.302314 -0.143731 -0.155710 -0.325859 0.084861 0.793583 0.168658 -0.376790 0.332560 0.185448 -0.205675 -0.505436 -0.438115 -0.766210 0.039212 -0.078116 -0.550796 0.194193 -0.635907 -0.665308 0.906969 -0.185535 -0.450713 -0.472163 1.418991 -0.423711 -0.095118 -0.154709 0.444734 0.991329 -0.628373 -0.482525 0.107974 -0.018913 0.356520 -0.154892 0.196412 0.199806 1.112705 0.048141 -0.041451 -0.905784 1.459280 0.271646 -0.342450 -0.286116 0.267858 -0.812098 -0.093395 0.075187 -0.670112 0.576309 0.642517 0.815399 0.331001 -1.393734 -0.493131 -0.070397 0.686116 0.441948 -0.520173 0.569045 -0.366138 -0.225202 -0.202820 -0.181717 -0.692141 -0.122411 -0.147750 -0.071592 0.259445 -0.442985 -0.518343 -0.035573 0.025193 0.275022 -0.544576 -0.008174 0.000599 -0.029032 -0.115127 -1.081312 0.881648 0.263986 -0.251280 -0.730584 -0.550216 -0.732349 0.939684 0.985776 -0.920245 -0.058059 -0.305500 0.628117 0.949246 0.593766 -0.622007 0.011415 -0.423811 0.321838 0.202691 0.986450 0.022411 -0.751030 -0.458557 -0.336750 -0.406411 
wears 0.484648 1.949384 -0.370380 1.758978 0.160988 1.088891 0.494118 1.980339 0.411359 1.185377 -0.694749 0.571332 -1.058241 1.390849 -2.125178 1.500097 -1.188915 0.243918 0.170867 1.670852 1.753060 -1.799774 0.127499 -1.098100 0.266646 -4.199310 -2.486552 1.284981 0.983847 0.167997 0.128695 1.040259 -0.684849 1.064024 -0.552298 -2.008692 1.132661 1.889055 -1.290275 0.066416 -0.404730 -2.125869 0.531720 -0.112247 -0.845266 -0.474695 -0.162240 0.503587 -0.298846 0.912437 -1.271680 0.564484 0.222756 0.282892 -0.713829 0.128730 1.797545 1.307977 0.076974 -1.025141 1.602313 -0.015241 -1.317010 -0.068925 -0.820949 -0.354313 0.522612 0.932620 1.247633 0.621019 -0.025761 -2.346044 1.727411 -0.037875 -0.556915 -0.099496 0.238702 0.125484 0.066597 1.047758 -0.154090 1.308485 -0.570491 -0.247852 0.929454 1.301505 0.583150 0.066298 -0.642735 -0.803297 -0.226896 -0.569358 -0.462578 -0.173668 0.617021 -1.115219 -0.089544 -0.744309 -0.943965 0.067607 -0.926425 0.598117 0.245969 0.558800 1.909415 0.401256 -0.810625 0.903733 -0.479796 0.430074 0.903780 1.127131 -0.418296 0.072559 -0.422565 0.212986 0.093059 0.051103 -1.375109 -0.868501 -0.513290 -0.862492 0.220448 -0.455717 1.883143 0.122539 -1.394322 0.062611 -0.850328 -1.472354 1.025624 -0.563198 1.210851 -0.486677 1.165809 -2.330551 0.115385 0.145963 0.914361 -0.821253 1.256508 -0.204801 0.277529 0.924909 -1.027205 -0.108708 0.668738 0.103200 -0.254304 0.273070 -0.701669 -0.719150 0.179090 1.331264 1.349652 0.348572 0.636640 0.447601 -1.261673 1.372912 -1.313118 0.265397 -1.056539 1.699496 -0.716869 -1.003910 2.827460 0.163179 0.892820 0.740774 0.003209 -1.235101 1.509900 1.682985 1.439332 0.766146 1.042679 1.311885 -1.227977 -0.232274 0.410055 -0.172941 -0.049668 0.671232 0.128295 0.768971 -0.836885 -1.114078 -0.645967 1.456761 1.888859 0.359073 -0.858972 -0.776750 1.638511 0.943175 -1.861288 0.422076 0.223463 -0.278034 
shoes -0.386338 0.395838 0.396440 -0.716477 -0.521292 -1.408015 -0.063331 -0.375171 0.652002 -1.922330 -0.805351 0.322742 0.548253 -0.768324 0.003363 0.018683 -0.071861 -2.270027 -0.722099 -0.836471 -0.669941 0.659216 -2.361498 -0.013541 -0.660128 0.745085 0.048466 0.800999 -0.603978 1.655589 0.483139 -0.042880 -0.595569 0.211100 -1.277381 -0.599169 0.101340 -0.910912 -1.225822 0.169299 0.443982 -1.364965 0.230808 -0.080332 1.080738 0.311672 1.535534 -0.507848 0.218550 -0.911537 1.620526 -0.626738 -0.131069 -0.740118 1.058636 0.026336 -0.401633 -0.992588 -0.481612 0.109833 -0.593333 -0.387205 0.498105 0.947469 -0.785366 -0.712842 0.560838 0.005164 1.106726 0.432999 0.682691 -0.228144 1.047923 -0.206309 -0.154642 0.161203 -0.871461 0.406949 0.898123 -0.077363 0.502401 -0.199384 -1.106662 0.865039 0.427466 0.342572 0.237510 -0.256253 -1.639444 0.098674 -0.901519 -1.252480 0.234175 -1.209201 0.488078 0.207326 -1.202400 -2.656949 -0.020025 -1.159189 -0.750079 -1.199229 0.824671 1.358880 0.034428 -0.690407 -0.120965 -0.229233 -0.320303 -0.433882 -0.133307 0.340814 -0.541937 -0.200138 0.232522 0.035986 -1.304527 0.921010 1.032262 0.293615 -0.201512 -0.942727 -1.738070 0.729172 0.459313 0.549692 0.862688 -1.089413 -0.450932 -0.784467 -0.978375 -1.493031 0.317227 -0.202695 1.488373 -2.485605 -0.090860 -0.546423 0.361383 1.133761 0.716498 -0.013018 -0.297210 0.768859 -0.253958 -1.128219 -0.679068 -1.483710 1.198791 1.710357 0.368944 0.544261 0.128367 -0.091897 0.288006 -0.025886 0.037572 0.761778 -0.076261 0.219767 0.693077 0.913945 -1.050875 0.246734 1.313498 0.013523 -0.565326 0.407217 0.436751 -0.547878 -0.260378 -0.446825 -0.497990 -0.842102 0.196696 -0.743877 0.335689 -0.558887 -0.041959 0.442492 0.557861 0.209079 -0.647612 -0.489775 0.147514 0.627393 -0.236558 -0.657941 0.867718 1.480918 0.106279 0.568467 -0.819508 0.768359 0.465726 0.356098 -0.254348 -0.085898 0.464498 -0.680501 
carrying 1.746583 -0.309341 0.357070 -0.466631 1.637607 0.927344 -1.482978 -0.935584 0.226796 -0.095785 -1.253998 -0.962208 -1.569799 1.618243 -1.545153 -1.229545 -1.052568 -0.393307 0.041313 -0.265809 0.469371 -2.571286 -0.642719 0.707752 -0.355337 -2.010266 -1.709767 -0.125770 0.928996 -0.229033 0.379252 0.237795 -1.723980 1.778793 0.327386 0.623496 1.959258 -0.604693 -0.311915 1.179677 -0.410699 0.311448 0.292616 0.027488 0.190875 0.117780 -0.025295 1.555949 -0.881549 -0.453483 -2.058103 0.072729 -0.273303 -0.339690 -1.265562 0.384392 1.421570 1.021667 -0.830103 0.350505 1.674111 -0.255664 0.012569 0.556049 -0.602622 -0.744508 0.543281 0.431834 1.317797 1.333037 -1.544844 -2.123216 2.173623 0.509502 -0.936326 0.478610 -0.474726 2.422283 -1.622411 1.094162 1.393785 0.258469 0.789862 -0.122547 -0.218643 0.598723 -0.364758 -0.670794 -0.150789 -1.341869 0.867864 0.857276 1.111694 1.418981 -0.355135 -0.720229 1.012453 1.575783 -1.184052 1.634958 -0.001886 1.707009 0.415817 -0.781519 0.814614 0.347884 0.069739 0.139011 -0.775823 3.889842 -0.879507 2.609129 0.900418 2.633225 0.522392 -1.394904 -2.467891 1.424632 -0.728316 -0.439836 -1.444864 -0.337770 0.123961 -0.267644 0.664548 -0.777462 -0.533454 0.976911 0.649711 -0.114832 0.687969 -0.275399 0.462620 1.505644 0.790194 -1.169376 0.350105 0.378467 0.222439 -0.348239 -0.300001 -0.865227 0.418140 1.329082 -0.218231 -0.836617 0.577616 0.759967 -0.045934 -0.020437 0.270128 -2.036668 -0.179059 -0.893621 0.438197 0.509124 -0.433707 0.898131 -0.320032 0.369686 -1.088083 -0.347345 0.039890 1.124597 0.260762 0.365340 1.533341 0.973888 -1.597794 0.157628 0.795194 -0.879474 0.588115 1.858034 1.780097 1.733394 -0.243282 0.595873 -0.996778 -0.797143 -0.018259 0.098970 -1.001943 1.692893 -0.161131 0.134867 -0.182430 -0.036665 -2.105471 0.951168 0.052592 -0.404176 0.632713 -0.762680 -0.599216 0.315865 1.408123 -0.476193 0.994372 -0.397128 
man -0.321024 -1.655761 1.535098 -0.281739 0.556449 -0.500853 -0.408754 -1.237424 0.917119 -0.487934 -0.058081 -0.491023 1.729275 -0.166430 0.313113 -0.986015 0.024177 -1.029272 0.302902 0.295898 -3.070284 0.305225 0.069777 -0.079301 -0.054772 1.446141 2.094972 -1.447659 0.724370 -2.710092 -2.797537 -0.585208 0.618829 0.510759 0.394814 0.063927 -1.381179 -0.453403 0.620555 0.561116 0.660595 0.189639 0.076532 -0.784463 0.186534 -1.425669 0.708478 -0.562352 -1.317196 0.628391 0.866236 -1.184452 1.134010 -0.743704 -1.562345 -0.703522 -0.725448 -0.551198 -0.347517 -0.024234 -0.497423 0.389399 0.135700 -1.298271 1.606590 -0.316719 -0.023075 0.116137 -0.422134 -0.574506 0.713659 0.528070 -0.771019 -0.734309 -0.191074 -0.413183 -0.071990 -0.746055 -0.478084 0.727241 0.587939 0.862356 0.170195 -0.319842 0.745836 0.585778 0.622435 -0.412299 1.587731 -0.566769 1.443485 -0.767063 1.297530 1.002116 0.562419 0.795261 1.706981 1.393733 -0.190246 -0.030034 0.798719 0.275011 -1.095362 -0.491669 -0.240184 0.637981 0.913457 0.092708 -0.429548 -0.853408 0.312497 -0.210631 0.215724 -0.062634 -0.677884 -0.443236 0.239922 -0.154858 -0.437917 0.506933 0.083386 -0.333418 -0.289543 -0.000739 0.091608 -1.341829 -0.010065 -0.491462 0.150529 -0.157551 0.559332 0.196739 -0.355563 -0.409387 -0.013665 -0.261158 -0.573699 -0.293821 0.721176 -0.797837 -0.301078 0.254587 -0.342949 -0.141848 -0.204904 -0.741672 0.254239 0.407076 -0.851322 -1.569082 -0.725392 -0.511472 -0.671328 0.236539 -0.887323 0.207330 0.500852 -0.270963 0.794443 0.167431 -0.225851 -0.317652 0.501595 -1.563229 -0.431162 0.722260 -0.887790 -0.133404 0.858190 0.346744 -0.169414 0.397344 -0.139515 -0.585401 -1.221396 -0.184488 -0.090643 0.262546 -0.100907 1.394126 -1.074463 0.194438 0.319890 0.516287 -0.229649 1.642725 -0.123296 0.301721 -0.117043 0.248233 -0.507533 1.025388 0.290285 0.387581 0.289691 0.072912 -0.601505 0.928194 0.016469 0.450754 
backpack 0.236389 -1.270271 0.128298 -0.513439 -1.579674 -1.658517 -0.131278 0.003125 0.904179 -0.651136 -1.570764 -0.698184 0.009214 -0.395710 1.490097 1.322700 -0.892350 0.383285 0.740231 -0.488165 1.200445 1.038637 -0.445968 -0.140999 -0.072320 -0.026118 -1.698352 0.156333 0.106482 2.230593 -0.153433 0.263059 -1.171326 0.048834 -0.350325 -0.172914 1.611483 0.104737 -0.803243 0.270001 -0.659704 1.220100 -0.031725 -1.030835 0.313126 -1.914456 0.051857 0.156052 -1.269376 -1.465874 1.802456 -1.321663 -0.384038 -0.240564 0.342402 -1.237676 -0.646346 -1.650810 0.290894 0.270392 -0.995507 1.489852 -0.042041 -0.057859 0.541705 0.247774 0.042996 -0.178799 0.989591 -1.008879 -0.543938 1.832403 1.553919 -1.215299 0.190686 -0.395349 -2.394222 0.987919 0.127448 -0.698428 0.488708 -0.101331 -0.787402 0.723272 -0.323770 0.292410 0.364510 -1.009644 -2.265816 -1.993166 0.267342 -0.511524 0.716151 -0.508945 0.194548 0.622382 0.662342 -0.534993 -0.074521 -0.974285 -0.666869 0.325625 -0.449863 1.089955 0.128956 -0.233876 0.687577 -0.522807 -0.903731 1.651966 -0.018528 2.461859 -0.067932 -0.803930 -1.179422 0.617521 1.137099 -1.045561 0.582357 1.008192 0.254012 -1.584436 -1.556760 0.810887 1.736867 -1.167725 0.728345 -1.903018 0.563962 0.356168 -1.752273 -0.905197 -0.952166 -0.185717 -0.642770 -0.079881 -0.925282 -0.105908 0.322762 0.526560 0.076785 -0.257534 0.995554 0.960314 -0.268787 -1.651080 -0.982437 -0.194483 1.118596 0.441828 0.733183 0.331977 -0.122796 -0.644381 0.463852 0.197053 1.132516 -0.549470 0.239525 -0.556219 0.550580 -0.888093 -0.930502 0.023647 0.719189 0.760843 -0.669564 0.130464 -0.075198 -1.986634 -0.351844 0.447048 -1.777379 -1.153785 -1.726030 -0.960420 -0.066291 -0.908202 0.530770 2.478997 -1.889809 -0.879201 -0.918330 1.047464 1.066655 1.107915 -0.108460 0.438127 -0.077134 1.078509 0.004148 0.126171 -2.247920 1.346340 0.250977 1.174873 -0.465164 1.263517 0.509477 -0.059158 
long 0.379136 0.107403 1.397574 0.947721 0.768001 -1.364388 -0.830653 -1.014535 -0.601580 -0.577159 0.261796 -0.161788 0.126056 -0.576473 0.727746 -1.536872 -0.203924 0.993247 2.044733 1.106663 -1.151325 1.061441 1.466644 -0.685070 0.214247 -0.784640 -1.523274 1.097564 1.464493 0.477455 0.877007 -0.363049 1.392487 0.961504 0.479759 -0.255378 -1.038431 1.501080 1.077475 -0.089754 0.237195 -0.991740 -1.104697 0.431449 -0.031895 0.808434 1.071347 -1.305731 1.526307 0.635620 0.981140 -0.202234 0.871126 0.119522 0.864554 1.372818 -1.306400 1.488621 0.784331 -0.362018 -1.384453 0.451772 1.572639 0.793337 -0.464625 -0.841926 0.260398 0.480500 -0.566618 0.378365 -0.851362 -0.037192 -1.105591 -0.073277 0.149465 0.058557 -0.508649 -1.668306 -0.306533 0.084101 -0.955754 0.525006 -0.879326 -1.439432 -0.981902 -1.954694 -1.660807 1.116031 -0.883284 0.550964 0.062287 -0.992556 -0.134271 0.036033 -1.533013 0.389690 0.738346 -0.564606 -1.852599 -0.421267 0.074834 -0.216121 0.106685 -0.380587 0.014068 -0.047416 0.421865 0.841192 0.028878 0.556354 0.277290 2.141475 -0.433770 -0.369975 0.443093 -0.865838 -1.206713 2.443927 0.490213 -0.421069 0.988200 -0.875648 0.028988 0.056046 -1.804833 0.462321 0.535163 -0.866754 -0.422852 1.535719 0.071534 0.165702 -1.899172 -0.358312 -0.241019 -0.898910 1.095904 0.861457 -0.700094 -1.575903 0.143125 0.755438 0.457580 0.147660 0.179065 -0.782713 0.013789 -0.540704 -0.110190 0.260057 0.294145 0.049811 0.612952 0.673629 -0.385220 -1.134907 -0.687654 -0.568872 0.101870 -0.780042 1.953789 0.697283 0.617885 -0.828323 -0.715930 -0.059121 0.135449 0.039287 0.114696 -1.089972 -0.386331 0.654885 1.599531 -0.403480 1.094553 -0.890792 0.477649 0.128151 -0.736497 0.247791 -0.646908 0.226285 -0.612241 -0.134027 -0.345840 -0.048871 -1.151278 -1.194468 0.913696 1.029283 -0.087923 0.075398 -0.965377 2.298235 0.817451 -1.100689 0.425269 -1.651949 0.108438 -0.654097 
brown -0.782174 -1.138170 1.814358 -0.307557 -0.280108 -0.400654 -0.147836 -2.552768 -0.130631 -0.754908 0.429409 0.517312 0.161013 -0.054339 -0.011427 -1.012335 0.615868 -1.071289 -0.788793 -0.960142 0.494112 -0.118265 0.648414 -1.010378 0.076990 -1.025988 -0.360853 0.307866 0.366932 -0.165071 1.166449 0.069114 0.770538 -0.811802 0.954212 0.958197 -0.668783 0.564576 1.334696 -0.453367 0.319446 -0.673019 -0.688629 -0.147135 -0.476665 0.345008 -0.175275 0.312101 0.378430 0.369984 -0.362743 -0.011793 0.323835 0.212861 0.337268 -0.558615 -0.355799 0.824421 0.266074 -0.744319 -0.378752 1.159812 0.041161 -0.284373 -0.460598 1.397278 1.486765 -0.788416 0.627005 0.938253 -1.159125 0.928862 0.089720 -0.608517 0.404866 -0.663614 -0.084011 -2.147069 -0.162304 -0.616310 -0.463476 0.784943 0.283444 -1.149319 -1.228081 -1.349615 0.357942 0.770490 0.126349 0.290057 -1.281328 -0.842250 -0.148717 -0.368262 0.170918 -0.292952 1.489957 -1.271835 -0.997434 -0.260032 -0.494916 0.462268 -0.773981 -0.343347 -0.255522 -0.325637 0.450329 0.706708 0.667275 -1.453112 0.198829 -0.116847 -0.412542 0.826705 -0.002657 -0.621014 -1.331408 1.775759 0.357236 -0.938733 -0.491000 0.489864 0.344133 -0.511962 0.297896 -0.802729 -0.111771 1.613848 -0.044253 -0.718311 -0.480366 -0.485418 0.149016 -0.302226 0.241366 0.973061 0.476583 -0.197834 0.884695 -0.299873 -1.185634 0.940579 -0.604064 0.024859 0.395404 -0.160949 0.374303 0.219324 -0.336083 0.426547 0.133517 0.147297 -0.046812 -0.406862 -0.080168 -0.201457 -0.240925 -0.679028 -1.076164 -0.778554 -0.076102 -0.198120 -0.622482 0.839026 0.936658 0.315647 0.013217 0.305560 0.372407 -0.815970 0.574035 -0.400005 0.053117 -0.848410 -0.819946 -0.149949 0.784590 0.557296 -0.644326 0.155713 -0.760171 1.039273 -0.058365 -0.844696 0.761392 -0.168793 -1.337392 0.116491 0.665985 -0.118099 0.175242 -0.204130 -0.622965 0.237042 0.782424 -1.091859 -0.447936 -0.217925 -0.125437 -0.921343 
probably 0.585144 -1.643351 -0.887863 -0.444333 0.158155 -0.084405 0.006335 1.079430 0.193161 -1.596071 -0.774989 -1.800428 -0.192584 0.079420 -0.196094 -0.154800 0.275998 2.245471 -0.503002 -0.240108 -0.963007 0.000838 -0.535066 -0.470799 -0.376389 0.126753 -0.989866 -0.296336 0.422491 -0.731444 -0.326443 -0.370473 -1.166866 0.147633 0.559453 0.411036 0.693708 0.746011 0.021242 -0.273564 1.075039 0.162440 -1.567005 -0.659156 -0.222651 1.631230 -0.781261 -0.895382 0.611311 0.309153 0.286634 0.039508 -0.434618 -0.187852 0.832716 0.104603 0.099769 0.068220 0.856192 0.261414 -0.583977 0.533638 -0.028380 -0.064353 -0.802037 -0.339019 0.765599 0.095995 -0.351689 0.470542 0.003733 0.084044 0.124414 -0.652354 0.044449 0.299406 -1.234683 0.187811 0.034603 -0.320613 -0.635208 -0.380455 -0.383221 -0.102064 0.515802 0.832229 -0.739553 0.192524 0.391561 -0.960825 0.945750 0.099031 0.104854 0.152511 0.165682 0.422209 0.071455 0.182860 0.168054 -0.832174 -0.565185 0.568615 0.086277 0.351127 0.332824 0.657333 0.219933 0.603117 -0.171506 0.845696 0.140479 0.715507 -0.314205 -0.138467 -0.039123 0.459147 0.628887 -0.597464 0.146408 0.136966 0.684024 1.002711 -0.472169 -0.182859 1.033671 -0.066860 0.571782 0.745364 0.112115 -0.378679 0.040113 -0.131967 0.724128 0.571036 0.609156 1.100569 0.331458 -0.457183 0.445666 0.603273 -1.107270 -1.121553 0.632398 -0.342160 0.063990 0.333605 1.554842 -0.017973 -0.307530 -0.808730 -0.069892 0.287395 0.253300 -0.697505 -0.863163 -0.594645 -0.582336 0.142702 -0.923153 0.470423 -0.596517 -0.381634 0.049104 0.832274 0.640415 -0.321823 0.058528 0.456396 -0.235399 0.342325 -0.236232 0.929066 0.605367 1.246935 0.675112 0.746318 -0.027508 0.789110 -0.153696 -0.185696 0.502264 0.519106 -0.803565 0.390993 0.224772 -0.619867 -0.837710 0.542347 -0.239017 0.396794 -0.823277 -0.514472 1.051548 0.284311 0.507296 0.045755 -0.888261 -0.561920 0.019334 -0.339556 
pants -1.191663 -0.164962 0.625442 1.545862 -0.090673 -0.381219 -0.088624 0.941130 -0.149660 -1.641993 1.785646 0.425111 0.882912 -0.689661 -0.130613 1.716586 -0.805387 -2.288482 -0.814792 -2.618944 1.665654 0.430775 -1.788861 0.188736 0.157614 -1.206936 -0.977743 -0.042481 -1.285627 1.155461 0.195973 0.425826 0.233327 -1.330150 -0.607246 -0.775090 -1.195178 0.943176 0.153460 0.010245 -0.587286 -0.684213 0.054437 -0.309832 1.042585 -0.093819 1.100568 -0.608292 -0.240001 -0.750290 2.032931 -1.637920 0.170905 0.411887 1.246302 0.732424 1.216201 -0.530018 -1.247332 -0.256391 1.220304 -0.370675 -0.260878 -0.033726 0.536035 0.409719 0.502827 -0.254581 0.254031 0.333477 -0.099866 0.104055 -0.832603 -1.017366 -0.410757 -0.870298 -0.562985 -0.453370 -0.654268 -0.076060 -0.488746 0.153760 -0.943910 0.682476 0.999761 0.672671 0.325320 -0.816348 -0.987801 -0.614757 0.318670 -0.331036 -0.177789 -1.232055 -0.689089 -0.301802 -0.428295 0.084635 -1.873158 0.192527 -0.537128 0.787638 0.517586 -0.109820 -0.305967 0.694292 1.058019 -0.745919 -1.342523 0.058909 0.499913 0.254584 0.706000 1.793257 -0.615517 -0.043940 -1.675756 -0.094017 0.022931 0.029369 0.526318 -0.139166 -1.133057 1.069404 0.732446 -0.084156 1.228984 -0.446573 -0.591113 0.499964 -0.249355 -1.869242 -1.138917 -0.141380 0.964729 -2.204262 -1.321085 -1.536575 0.673188 0.399080 0.428459 -1.004430 -0.389312 0.245088 -0.403940 -0.762719 -0.141112 -1.570072 1.213213 2.991623 -0.211077 1.096336 -0.048970 1.684121 0.785983 0.764251 -0.913520 0.382144 0.216734 2.298655 0.024019 -0.328348 -2.029109 0.828342 0.124728 -0.382077 0.466255 -0.106001 -0.507465 0.227237 -1.127082 -1.292790 -0.026556 -0.178187 2.311947 0.458658 -1.055404 -1.109459 1.274995 1.107864 1.463866 0.119887 -0.467816 -0.296441 0.435777 -0.512300 0.341111 -0.152417 -0.249223 0.648251 0.468062 0.350124 -1.230400 0.554105 0.122190 0.879488 0.066813 -0.148556 0.620879 0.061033 
red -0.793948 0.139118 1.746458 1.839098 -1.942015 -0.310972 0.871894 -1.871116 0.637157 -1.663763 1.163280 0.434471 0.088406 0.474801 1.161721 0.032366 -0.362869 -0.708865 -0.026926 -0.289494 0.143514 1.510966 1.635351 -0.120842 0.379446 0.233038 1.095761 0.037840 -1.382928 -0.663463 0.216242 -0.204274 0.212580 0.087143 1.111532 -0.835465 0.723369 -0.418384 -0.153318 -0.378751 0.054395 0.842425 -0.165460 -0.208617 0.537603 -0.199872 -0.397660 0.529234 0.902453 -1.389532 -0.497805 0.372509 0.486988 0.467169 0.931831 -0.151629 -0.948884 -0.134768 0.632118 -0.064668 0.741406 -0.633682 0.221922 1.145538 -0.275966 0.434267 2.414718 -0.966804 0.731628 0.355089 -1.598469 0.156530 -0.247966 -0.176228 0.298140 0.112304 -1.065253 0.600130 0.021695 -0.467146 -0.493036 0.697996 0.153520 -0.587019 0.934451 0.515367 0.872005 0.173646 0.623039 0.035855 -0.165833 -0.035266 -0.290625 -0.495340 0.347333 -0.564673 -0.205737 -1.149737 0.476201 -0.801817 0.337844 -0.263353 -0.634366 0.091841 0.440798 1.063526 0.208108 0.465906 0.167471 0.336723 0.540803 0.544994 -0.143915 0.237679 0.519113 -0.185603 -0.139771 0.852326 -0.175393 0.046557 -0.555368 0.117614 0.041030 -1.084251 -1.299393 0.547585 -0.850314 -0.016459 -0.309922 0.207489 -0.272129 0.032160 0.350866 -0.149469 -0.903957 0.073584 -0.436988 -0.673924 -0.355372 0.007458 -0.822930 0.334062 0.685721 -1.041282 0.006861 0.495267 1.413444 -0.034495 0.234563 -1.199625 -0.307403 -0.151276 1.156151 -1.027577 -0.924000 -0.409292 0.211848 0.552861 -0.332457 -0.990893 -0.225310 -0.384475 0.556624 0.230246 -0.370278 -0.743466 -0.379690 -0.641604 -0.012962 0.814827 -0.448209 0.019797 -0.682907 -0.092040 -0.843066 0.625685 0.207112 0.483266 -0.294795 -0.650233 -0.410540 -0.006076 0.437577 -0.366900 -0.110768 -0.477041 -0.294701 -0.312733 0.141408 1.190972 1.491390 -0.179438 0.509687 0.141988 -0.884135 -0.506944 0.172639 -0.839777 0.161959 -0.444062 
jeans 0.034020 -0.619830 0.797043 0.195154 -0.541580 -0.246995 -0.087011 -0.202729 -0.305143 -2.925424 1.030023 -0.586018 0.333507 0.091814 -1.372014 0.772125 0.011186 -1.298391 -0.582067 -2.471805 0.412291 1.010648 -0.544669 0.026177 -0.885640 -0.860018 -0.953929 0.460590 0.357142 1.303779 0.505870 -0.072803 1.786209 -0.915909 -0.862028 0.506236 -1.004069 0.248005 -0.139198 0.093722 -0.499753 -0.708700 0.535577 0.133639 1.082267 -0.225917 0.801323 -0.171112 0.389221 -0.900958 0.218080 -1.584105 1.115101 -0.216222 0.997270 0.414704 -0.350384 -0.517826 0.449159 -1.120468 0.992452 -0.286048 -0.530864 0.500462 -0.281898 1.031614 0.293466 -0.492541 0.302218 1.886098 -0.200395 -0.266470 -0.693738 -0.511123 -0.874104 0.000687 -0.926991 -0.251403 0.668839 0.067524 -0.271122 -0.391912 -0.900007 0.083398 0.417425 -0.135042 0.431100 0.500390 0.270277 -0.406541 -0.278325 -0.722232 -0.248563 -0.491194 -0.843334 -0.455782 -0.544203 -0.219400 0.525461 -0.460414 -0.210842 1.052120 1.013079 -0.170300 -0.519276 0.470932 0.710061 -0.273369 -0.017898 -0.192171 -0.196286 -0.516623 1.448606 1.097555 0.441312 0.055279 -0.769992 -0.447710 0.124246 -0.262402 0.062127 1.157970 0.139488 0.212236 0.040541 -0.431199 0.898275 0.334569 -0.110383 0.751476 -0.286940 -0.357947 -0.965188 -0.235169 -0.346357 -1.378185 -0.620728 -1.053747 -0.172733 -0.422568 0.843509 -0.727109 -0.662799 0.382908 0.286426 -1.439786 0.530718 -1.529438 0.983140 0.672665 -0.974681 0.791769 0.741304 1.117435 0.895068 0.581107 -1.336947 0.933537 -0.036651 2.190196 0.488927 0.029076 -1.168503 -0.562949 0.312829 -0.102146 -0.364309 -0.041978 0.384837 0.232666 -0.119682 -0.048109 -1.229696 -0.160563 1.119796 -0.346573 -0.236808 -1.073946 -0.491385 0.750832 0.196759 -0.417458 0.993978 -0.225655 -0.250383 0.209652 0.135971 -0.226827 -0.012170 0.444980 -0.142809 0.169320 -1.816685 0.308072 -0.080832 -1.074267 0.963603 -1.156522 -0.423599 -0.397574 
back -1.170578 1.699052 0.320988 -0.157848 0.150978 -1.968160 0.296149 0.693389 -0.583681 -2.273973 -0.758402 0.479983 1.151888 -0.746204 -0.468782 -0.773686 0.485535 -2.831484 -1.415869 -0.739208 0.724206 0.622899 -0.902979 1.067574 -1.414397 -0.481538 -1.350228 1.800965 -1.274848 1.662841 -0.540503 -0.135301 -3.515049 -0.106190 -0.201920 0.301512 0.034118 -2.305963 1.216444 0.103225 -0.331966 0.391277 0.446664 -1.167481 0.075096 -0.001100 -0.201464 1.727023 -1.052053 0.540534 1.296244 -1.092812 -0.090718 0.594592 -1.848435 -0.219723 -0.940880 -0.419923 -2.614527 1.607556 -0.506592 -0.106100 1.259594 -1.184759 -1.032906 0.004933 0.370681 0.267374 -0.681827 -0.068406 2.599864 -2.072128 0.860757 0.016750 0.415075 -0.275824 0.599896 -0.032491 -0.333571 -0.042350 -0.687645 -0.574395 -1.277486 -1.986517 0.186943 -0.015030 -0.006384 1.161120 2.160751 -1.279155 2.047713 0.540781 -0.680624 -0.702901 -0.092259 1.757189 -0.717354 0.154104 -0.028940 0.596703 1.482739 -0.056991 0.822146 0.158331 -0.195117 0.701195 0.735121 -0.419977 -0.172734 -2.080987 -0.509807 -1.772688 -0.433938 1.463152 -0.230812 -0.916233 -0.852476 0.276936 0.130513 -0.280777 0.123720 0.267482 -0.590770 -0.282473 1.506494 0.626670 -0.606271 1.385876 -0.274020 -0.177318 -0.618430 -1.143295 -0.895113 0.436594 1.496511 0.119791 -0.503818 0.295723 0.359555 1.234586 0.740740 -0.189475 0.277345 0.066837 2.601356 1.298898 -1.117526 -0.445156 -0.290328 -1.256215 -1.973236 -0.739380 -0.256969 -0.151478 -2.189886 0.349804 1.293119 -0.406488 -0.967672 -1.179633 -0.057372 -0.933624 2.697932 -0.832524 -0.919076 0.559271 -0.107477 -0.301261 0.047222 1.084150 -0.814429 0.689587 -2.032381 0.651634 0.217578 -0.497664 -1.484654 -0.701188 0.160432 -1.659778 1.497215 -1.156449 -0.596119 0.511416 -0.006364 -0.432690 0.720746 -0.466160 -0.972262 1.153194 2.228287 -0.030006 -0.744384 0.065672 0.918888 -0.412613 0.839679 0.069816 1.066149 0.030266 
carries 0.954548 1.369993 -0.505379 0.979461 0.401086 1.523450 0.492242 1.385635 -0.335799 1.483467 -0.788516 -1.046559 -0.700715 1.192168 -2.274207 0.920882 -0.648254 -0.136420 0.881263 0.927481 2.097219 -1.846312 1.153341 -0.354915 -0.320057 -3.633324 -1.531300 -0.706012 2.033787 0.105920 -0.800168 -0.452016 -0.545666 0.395692 0.026655 -0.259701 0.446162 0.285494 -0.587412 0.395321 0.349280 -0.544359 0.468527 -0.482477 0.098928 -0.488748 -0.060290 1.095432 -1.796170 -0.177379 -1.874956 0.070714 0.498978 1.064537 -0.243495 0.347266 1.785952 0.649769 0.112026 -0.389264 2.279901 -0.419138 -0.450910 0.709662 -0.315378 -1.395537 1.852620 -0.035196 1.574496 1.455581 -3.218594 -1.822238 3.049942 1.305320 -1.198297 0.779953 -0.519677 0.330819 -0.235186 0.585594 1.573876 2.254982 0.581205 -0.867178 0.769196 2.505753 1.568690 -0.238373 0.122776 -1.277686 -0.612206 -0.145997 -0.360467 0.959798 0.418546 -1.625564 1.595668 -0.239883 -1.570171 -0.473271 -0.296672 2.285789 -0.885085 -0.498895 1.912591 0.543710 -1.308994 1.526433 -0.648818 2.362908 0.477863 2.444477 -2.012977 0.731911 -0.803205 -0.616389 0.110162 1.061256 -1.598556 -1.596383 -1.367244 -0.932197 -0.554196 -0.905833 2.620404 -1.484704 -2.233186 1.336303 0.906776 -1.276490 0.989446 -0.971869 0.367030 0.254461 0.410292 -1.554615 0.411184 1.831701 0.404585 -1.519990 -0.315424 -1.100774 1.815441 2.772686 0.295486 -0.989221 1.614424 -1.184147 1.138904 0.303787 0.356102 -0.983093 0.875885 1.352095 0.695272 -0.336072 -0.104752 0.501312 -1.793666 1.365217 -1.221752 -1.031678 -1.185631 2.613773 -0.487172 -1.027800 1.761455 0.713104 -0.352529 0.414563 1.596757 -0.569054 0.708652 2.452264 1.824055 0.105386 0.551216 0.940041 -1.999839 -1.909173 0.121393 1.186150 -1.261934 0.607315 0.608859 1.037698 -1.571359 -0.684129 -1.043522 1.825944 1.353368 -0.101619 -1.536837 -1.036275 0.133248 1.217208 -0.001867 -0.470835 1.144536 -0.657118 
blue -2.842324 0.146619 1.604926 1.450803 -0.054246 -0.378114 -0.203642 -1.490254 0.219881 -1.397496 1.384007 0.813803 -0.172424 -1.106460 0.546628 0.487579 -0.257218 0.293929 -0.859667 -0.946733 1.068538 0.605318 -0.504688 -0.069112 1.389631 -0.939022 0.481014 -0.382061 0.019371 0.207436 1.259149 -0.751715 -0.033492 0.005962 -0.744853 -1.333905 -0.907587 0.318268 -0.168675 -1.164038 0.236768 0.326370 0.598811 -1.245472 1.447992 0.126811 0.552785 0.851392 0.660221 0.106408 -0.645809 -0.313004 1.390546 1.338340 -0.245845 -0.641214 0.099194 -0.385737 1.428760 -0.705164 0.926568 -0.104968 -0.540613 -0.120991 -0.750331 0.300138 1.559228 -1.247441 0.299637 0.751148 0.151879 1.140849 0.216256 -0.093832 -0.731792 0.313220 -0.395335 -0.505647 -0.727955 -0.804428 -1.499366 -0.016148 -0.594130 -0.042832 -0.094355 0.609000 -0.093643 -0.491944 -0.068174 0.212609 0.035864 0.011331 -0.314157 -0.483251 -0.805191 0.681036 -1.021444 0.120373 -0.026415 -0.239267 -0.167490 0.389940 -1.248431 0.452962 -0.732007 0.206968 0.638843 0.800322 -0.099435 -0.719314 1.831767 -0.768028 -0.261679 1.210304 0.277575 -0.619003 -0.322694 1.206487 0.376121 0.378114 1.102431 0.296405 0.761503 -0.609892 0.032741 0.259044 0.187897 -0.306096 0.328735 0.174468 -0.296519 -0.400796 -0.683048 -0.903469 -0.770430 0.931289 -0.012406 -1.207166 0.671811 -0.511406 -0.155401 -0.431638 -0.954117 0.172935 0.248352 0.255841 0.319522 -0.207315 -0.841516 -0.342864 -0.456316 -0.060670 0.036804 -0.488345 -0.232581 -0.315841 -0.252925 -0.297241 -0.249399 -0.414914 0.042681 -0.312413 -0.076885 -0.357930 -0.099982 0.236416 -0.336978 -0.999613 -0.524213 -0.735704 0.830219 1.132820 -0.233317 -0.220715 -0.678304 0.312551 0.255148 -0.197764 -0.025097 0.409006 -0.494645 0.865533 -0.109918 -0.043436 0.121767 0.144680 -0.140694 0.684812 0.366063 0.380276 -0.165041 0.204268 0.310816 -0.076635 -0.158385 0.467354 0.264187 -1.120649 0.109563 -0.595732 
t-shirt 0.521202 0.111852 -0.686745 0.121052 0.542944 -0.831188 0.171749 0.193007 -0.276036 -3.046724 0.368814 -0.602751 0.280343 -1.482692 1.446003 -0.528967 -0.884954 -0.471188 1.257229 -0.856038 -0.560748 0.580976 0.775923 -0.927766 0.764824 1.022615 -0.739366 -0.667087 1.390347 0.886156 -0.538695 -0.672953 0.115558 1.724570 -0.116674 0.143372 1.193199 1.292764 -0.266292 -0.249333 1.330623 -0.047864 1.038346 -1.059364 -0.271986 -1.222607 0.299329 -1.039671 -1.786132 -0.706256 -0.711507 0.170193 -0.638689 -0.382840 -0.118433 -1.013015 -0.270915 -0.332165 -0.290292 0.096437 -0.001806 -0.229275 -0.116845 0.594783 -0.838965 -1.136484 -0.681851 1.035578 0.735298 0.070996 -0.487516 0.290166 1.146991 1.028643 -0.683612 0.478547 -1.498422 -0.272390 1.409055 1.416471 0.995313 -0.576772 -0.020175 1.436044 0.510572 0.613516 0.604967 -1.103853 -0.948007 -1.295861 -0.554212 -0.592976 0.846704 1.277697 0.803121 -0.351445 1.617960 2.137374 0.904778 0.075639 -0.061143 0.673581 -0.051078 1.135704 -0.613076 -0.023559 1.120305 -0.738394 -1.798636 0.041886 -0.389119 1.045892 -0.479716 -0.833549 -1.092206 0.368127 0.903819 0.121124 0.615249 -0.389963 -0.317467 -1.195655 -1.697653 -0.480593 0.555942 -1.242476 0.571974 -1.025564 1.046636 -0.161443 -0.447287 0.235965 -0.071100 -1.062898 0.005640 -1.115260 -0.936039 0.764556 0.850681 -0.539586 0.068120 0.172888 0.891719 0.385223 0.778847 -1.517844 -0.771751 -0.511817 0.956144 -1.100551 1.038051 -0.607400 0.794656 -1.189432 -0.978151 -0.849759 -0.178678 0.042291 0.136313 -1.741612 0.483531 -0.088968 -0.903637 -1.518101 0.020758 1.225809 -1.498546 0.634519 0.411095 -1.220481 0.939690 1.258494 0.346733 -0.377228 -0.675261 -0.944997 0.984717 -0.857175 -1.890787 -0.864036 -0.909792 0.255364 0.352537 -1.258017 0.119224 1.330163 -1.188281 -0.076607 -0.093612 1.173980 -0.491008 1.242555 -1.409370 0.274592 1.116942 1.578119 0.315642 0.602744 0.246932 -0.220386 
top -0.388820 -1.051771 -1.397217 0.350420 -0.484646 0.059377 -0.279716 0.391091 -0.046947 -3.024898 0.634438 0.678411 1.257488 -1.268238 0.138908 0.022970 0.021941 -1.905749 -0.041396 -0.863527 -0.179980 1.035307 0.821724 -0.067911 -0.944904 0.735168 -1.041021 -0.594461 0.298147 0.739691 -0.213918 -0.677044 -0.384744 -0.825449 -1.159707 0.231208 -0.406984 0.167723 -0.639682 -1.387351 0.032824 0.681819 -0.142322 -1.039638 -0.842481 -0.911078 0.109825 0.521519 -1.002944 -0.700941 0.915831 -1.072292 -0.982087 0.489679 -0.365203 -0.240640 0.701011 -0.684921 -0.367146 0.619938 0.523122 0.009966 0.158922 0.323094 -0.207154 -0.186883 0.941498 0.495759 0.660309 0.020343 1.034949 -0.564559 0.562391 -0.533775 0.521373 0.203048 -0.800033 -0.273493 0.665645 -0.214231 1.440276 -1.333464 -0.145587 1.162929 0.176690 -1.008478 0.397958 -0.997608 -1.449756 -0.983130 -1.660992 0.053862 -0.549361 -0.324434 0.520529 -1.129109 1.148018 1.302777 -1.319197 -0.479630 0.302516 0.346003 0.222097 0.898836 -0.130094 -0.067021 1.071343 0.117338 -0.342374 0.387406 -0.686713 0.625046 -0.918962 0.327760 -0.127406 1.046087 0.864314 0.574086 0.416608 1.073989 1.290583 -0.829897 -1.057820 -0.410584 0.842394 1.033131 0.145834 -0.836253 -1.077131 0.759446 -1.054296 -0.601125 -1.563608 -0.612083 -0.347981 0.315456 -0.954999 0.197723 -0.276515 0.863738 0.094633 0.582585 1.124258 0.351882 0.139379 -0.376732 -1.425344 0.520181 -0.649736 -0.481752 -0.086379 -0.785556 1.411795 0.543908 0.567098 0.694701 0.105092 -0.304758 0.057101 -0.489795 -0.017488 -0.927970 -1.371847 -0.945201 0.373015 1.141122 0.512662 -0.628281 0.816305 -1.817615 -0.315867 -0.217107 -2.086335 -0.085756 -1.553679 -0.088354 -0.254820 -0.231780 -1.272316 -0.389201 -1.064448 -0.138143 1.120322 -1.237215 0.142753 0.908595 -1.020879 0.013868 0.748433 1.546146 0.789872 0.574606 -0.741000 0.053086 -0.135082 0.266930 1.529148 1.380395 0.562089 -0.181990 
it 0.492095 -0.983055 0.474582 -1.242364 1.404161 -0.500909 -2.003540 -2.685589 -0.525468 -1.055105 0.155191 -0.201999 1.541982 -0.113720 0.477169 -1.268433 -1.110736 -3.018721 -1.268466 -0.299827 0.086520 1.008861 -0.436533 -1.460221 0.601182 0.756735 0.342670 -0.426577 0.343034 -0.285182 0.214997 0.121214 -0.543287 0.404743 0.413857 0.097843 -0.704622 -1.567095 1.552685 0.882562 -0.729526 0.273029 -0.890480 0.322645 1.989819 -1.191478 1.578348 0.759193 0.480246 0.320774 0.270661 -1.167974 0.390011 0.388223 -0.583262 -0.101175 0.202899 1.398019 0.411060 0.336162 0.653919 0.172532 0.730419 0.861588 0.178119 0.376598 -0.503905 0.170102 0.142038 1.331603 0.748246 -0.256716 -0.080381 -0.467405 1.874036 0.066929 -0.680357 0.864339 0.553720 -0.730332 0.285215 -0.850684 -0.882319 -1.151273 -0.190829 0.241254 -0.902435 0.487665 -0.050937 -0.344412 0.480484 -0.258512 -0.007273 -0.274468 -1.701208 0.680286 0.279657 0.103439 0.105459 0.934854 -0.521183 -0.446736 1.601682 -0.538117 -0.246300 -0.790317 1.462586 -0.328757 -0.538901 0.920915 -0.401727 0.520150 -0.300119 -0.190481 0.665624 0.409001 0.391471 -0.409874 0.831005 0.573855 -0.957728 0.750048 0.865160 -0.208459 0.036701 -0.543185 0.594348 0.745186 1.077843 0.101511 -1.132801 1.758290 1.671306 0.217036 -0.875552 -2.407944 -0.827190 0.406196 -0.811557 0.412163 0.389925 -0.485134 0.140629 0.427622 -0.605331 -1.069556 -1.536833 0.422338 -0.206381 0.018912 0.681450 0.018326 -1.370068 0.088961 0.527615 0.404378 -0.286609 0.160773 -0.817188 -0.082308 0.062146 -0.209201 0.359049 -0.650616 0.893807 0.703260 -1.439558 -0.183777 -0.387937 0.496105 -0.191420 -0.049980 0.006959 -0.416675 -0.291144 1.113232 -0.323196 -0.031407 -1.372246 -1.564645 0.729291 0.221791 -0.074574 -0.397475 0.833963 -1.562645 0.066477 -0.650262 -0.442711 0.952528 -0.189791 0.146952 1.156747 0.497353 -0.242220 0.415253 1.783138 -0.890800 0.972659 -0.279875 
jacket -0.693924 -0.505852 -0.085742 0.527286 0.232801 0.809636 -0.216044 0.605608 -0.647009 -3.065203 -0.460899 -1.094999 1.440741 -1.119587 0.386133 -0.365619 -0.511675 0.743712 1.019081 -1.200422 -1.480047 0.629090 -0.212173 -0.093477 -0.404960 0.573252 -1.077141 -0.028165 0.391300 1.177198 0.364380 -0.626528 -1.927914 1.268927 -0.687238 -0.151791 0.006877 0.041237 -0.141225 0.187412 0.045370 -0.964753 0.390712 -0.740039 -0.467094 -1.328570 0.518597 0.571536 -1.002105 -0.356151 0.250973 -1.195947 0.646692 -0.341637 -0.867743 -0.073517 -0.343616 -0.015224 1.275094 -0.799396 0.386197 -0.621140 0.013002 0.437664 0.724448 -0.341148 -0.364477 0.198544 0.344049 0.409063 0.558888 0.728892 -0.520561 -1.410232 -0.153514 -0.378645 -1.873346 0.852656 0.362882 -0.567354 0.756863 0.064507 -0.554345 0.066304 0.622629 0.535633 0.666464 -0.740303 -0.108239 -1.692484 0.078809 -0.843988 0.289418 -0.000724 -0.110666 -0.424253 0.478874 0.354944 -1.198214 -0.131268 -0.349386 0.779010 0.404304 0.242784 -0.772328 -0.155135 1.208328 -0.460837 -0.712183 0.000969 0.446145 0.315202 -1.090841 0.186345 -0.736292 0.476471 0.510680 0.593937 0.608455 0.734489 0.156507 -0.637394 -0.148599 -0.849256 0.129531 -0.329543 0.019581 -0.388089 0.658943 0.635863 -0.719443 0.605301 -0.891952 -0.405412 -0.077295 -0.827971 -0.686153 0.006157 0.868995 -0.345263 0.327005 -0.466557 -0.261697 0.682102 0.408812 -1.439049 0.004368 -0.816434 0.010612 -1.131777 -0.481139 -0.292069 0.549401 0.885173 0.582480 0.002551 -0.294924 -0.104694 0.014275 0.479849 -0.066089 -0.432826 -0.381808 -0.745620 -0.114884 0.098033 -0.263336 -0.610709 0.966848 -0.660007 0.157652 0.894770 -0.825245 -0.675931 -1.747920 -0.768684 0.200281 0.536699 -0.828613 1.427035 -1.164880 0.341647 0.249170 0.383835 0.200005 1.374377 -0.062512 0.257515 0.570784 1.660092 -0.047442 0.150856 -2.078865 -0.224243 -0.716963 0.276384 0.633615 0.911605 0.162580 -0.233830 
tall -0.384877 0.521170 0.377565 -1.338998 -0.230259 -2.058964 -0.263740 -0.440321 1.462421 -1.257775 -0.682932 0.851267 0.146168 -1.337626 -0.679653 -0.564819 0.506508 -2.692750 -1.224265 -1.184417 -1.596357 0.173243 -0.729802 1.739924 -1.181791 -0.491899 -1.141992 1.275427 0.254999 0.667441 0.325914 0.670227 0.316896 0.818639 -0.029637 0.909138 -0.341006 -0.679992 0.715071 -1.483626 0.566276 -0.019128 1.512531 -0.398785 -0.435961 0.521127 1.654711 0.005583 0.299509 0.103718 0.508055 -0.110157 1.875771 -0.071763 0.818830 -0.283604 -1.659226 -0.891931 -0.655718 -1.493332 -1.207324 -0.867363 -0.779497 -1.663205 -0.043779 1.344278 1.324076 -0.331799 0.153240 -0.632410 -0.873866 0.758606 -0.116957 0.445618 0.258099 -0.473271 -0.515353 -0.703125 -0.491117 0.081820 0.065974 0.436489 0.247560 0.472549 0.435317 -0.435314 -0.488261 -0.837888 -0.085262 0.653640 -0.170984 0.758554 -0.573133 0.599862 -0.654724 -1.108192 0.232171 0.792259 -0.726939 1.390035 0.361820 -0.952791 -0.596616 -0.164247 0.222980 1.652801 1.060933 -0.279234 -0.049959 1.476916 0.194474 1.332929 -0.659631 -0.293127 0.741686 -0.396958 0.085646 0.155657 0.400897 -0.111999 0.358505 0.260549 -0.549392 -0.288393 -1.591675 -0.004863 0.724518 -0.957830 -0.772090 0.276038 -0.666358 -0.681084 0.918586 -1.049953 0.259371 0.459696 -0.114143 -0.495562 0.029411 0.388256 -0.206412 0.084386 0.228065 -0.865879 -0.029418 0.344016 -0.175327 0.355067 0.213448 -0.231125 -0.261153 -0.020446 -0.423450 -0.033649 -0.627589 -0.273683 -0.470734 -0.367867 0.350347 -0.964220 0.737318 0.096859 0.120763 0.900678 -0.598378 -0.827649 -0.245850 0.545396 -0.173311 1.062039 -0.240568 1.706549 1.726529 -0.044444 -0.046401 0.883502 0.857642 0.318383 -0.189384 0.033368 -0.789338 -0.776247 -0.788388 -0.098668 -0.013640 0.363938 -0.159060 -0.803054 0.433160 -0.679032 0.061708 0.394921 0.908984 -1.789147 -1.146440 0.393527 1.999973 -0.991239 -0.385254 -1.151562 
of -0.703629 1.058671 -0.205256 -0.269036 0.748643 -0.630941 0.772141 1.947889 0.317776 0.268384 -1.340563 0.272674 0.576541 0.822509 -0.455054 2.189379 0.393989 0.321212 0.781322 1.224782 0.369550 0.016526 0.465962 0.195595 0.887779 -2.287949 -1.350452 1.815369 -0.678327 1.347166 1.319467 1.670979 -1.295346 0.390228 0.903474 -0.815582 1.107610 -0.803665 0.947296 1.177315 -0.474326 0.340978 0.836658 -0.952265 0.561360 -0.273465 0.537645 0.141489 0.379801 0.422019 0.225144 -0.278957 -0.298001 0.576978 -0.094345 -0.995983 0.410114 -0.217367 -0.284275 0.223117 -0.591914 0.777554 0.296672 -0.163957 2.464993 -0.939615 1.045923 -0.131026 -0.291153 0.309094 0.185832 -0.001467 1.084528 -1.354720 -1.012605 -0.366805 -1.445980 0.192652 -1.455144 1.346437 0.038684 0.846961 -0.777158 -0.869595 -0.279340 -0.025156 -0.319845 0.254686 -0.455158 -1.662742 0.537607 0.037345 0.615862 0.048241 1.010396 -0.088172 0.632241 -0.201432 -0.852266 0.422602 0.844551 0.746794 -0.081661 -0.127820 -0.608752 0.898360 -0.037036 -0.709130 -0.894322 -0.585617 0.361656 -0.236403 -0.702895 -0.312262 0.598560 -0.056705 -0.317178 -0.441623 0.805055 0.525991 -0.358992 0.593895 1.966582 -1.335006 -0.828986 -0.384530 0.461876 0.415549 0.361426 -0.374141 0.735801 -0.020158 -1.038539 0.885658 0.217731 2.325072 0.257616 -0.263915 0.667123 -0.394189 1.150054 0.609448 -1.360526 -0.098349 0.731350 0.238250 0.504022 0.612145 -1.477402 -0.348621 -0.696064 -0.280432 -0.239915 -0.712688 -0.526323 -0.531917 0.679204 -0.753453 -0.203752 -1.056158 0.867363 1.200942 0.283242 -0.268616 0.153816 0.056272 1.073123 0.024789 0.850184 -0.414539 0.595815 0.899055 -0.269768 0.160528 0.731992 0.170007 0.887634 -0.545737 0.213926 0.520603 0.637252 0.040085 -0.976354 0.098684 -0.330284 0.792385 -0.829376 -0.044333 -0.543072 -1.073248 -0.594315 0.315307 0.539834 0.146645 1.091742 -0.504205 -0.984670 0.956573 -0.214008 -0.518491 
right_hand 1.385181 1.235349 -0.382571 -1.478341 -1.349514 -1.526672 -0.179564 1.215246 -0.351298 -2.949093 -1.376337 -1.020560 0.802306 -1.415381 0.739244 -0.345042 0.795037 -2.988046 -1.884413 0.143744 -1.726483 -1.031846 -1.369234 2.241733 -1.526958 1.693374 0.333424 -0.761446 -1.032015 -1.211818 -1.621935 -0.706884 -3.825371 1.310022 1.582099 -0.946383 0.832516 -1.887827 0.658220 1.530036 -0.129324 0.155235 0.309070 0.433879 -0.138414 0.772143 -0.044011 0.772834 -0.822816 1.557408 0.387730 -1.488016 -0.445939 -0.811681 -0.046827 0.418976 -2.984030 -1.249935 -0.349120 0.545061 -2.095043 1.624214 0.506705 -1.274240 -2.504144 1.149010 0.730559 0.642383 -0.427984 0.500802 -0.042271 -0.969189 0.267152 -1.125436 0.136887 -0.683172 -0.433133 -0.309398 -0.496778 -1.437977 -1.000992 1.414767 -0.813410 -1.428698 0.752229 0.290906 -0.297736 0.932965 1.087298 -0.698877 0.472331 0.233820 0.084218 -0.184723 -1.685090 1.183593 -0.709940 -0.125040 0.533446 1.709288 -0.969577 -0.739900 0.398265 0.496654 0.721923 1.791761 1.005646 -1.389831 0.011715 -0.198044 -1.015521 0.129513 0.539711 -0.117364 -0.817458 -0.216638 -0.192435 -2.028653 0.176484 -0.163902 -0.146583 0.372089 -0.245075 1.286785 -0.575143 -0.539972 -0.284841 -0.136911 -1.521548 -0.021712 -0.908269 -0.932401 -0.511672 0.834982 0.046120 1.365075 0.256921 -0.859387 1.079346 -1.563699 0.280001 0.231771 -0.708481 -1.171496 -0.241781 0.151102 -1.942598 1.310305 0.861102 -0.296724 -0.657224 -0.036803 -0.574409 -0.286085 -1.710007 0.099352 0.075360 -0.286909 -1.542662 0.602547 0.387412 -0.832096 2.096592 -0.425239 -0.488078 1.052075 0.697142 -0.515262 -0.474772 -0.270105 0.953811 -0.005250 -1.904676 -0.713642 -0.100655 0.704940 -0.697468 0.739897 0.482835 0.395101 -0.173042 -0.375184 -1.306893 1.122688 1.314309 1.269948 0.073167 -0.400913 -0.096735 -0.536361 0.874163 1.571362 -0.762566 1.011521 1.588912 -0.718222 -0.725616 -0.530207 0.199434 -0.437127 
bag_on 0.376807 -0.708631 -0.082994 -0.476252 -0.165616 0.254912 0.485495 0.927609 0.258135 2.513958 -0.550286 -1.500795 0.173625 0.641330 1.173594 2.951284 -1.067875 3.705739 0.680396 0.145280 0.775677 1.378148 -0.391301 -0.492102 0.070247 0.330145 -0.944979 0.236136 -0.321370 1.211418 0.837112 0.031540 -1.375608 0.575727 0.433678 -1.228013 2.002898 0.439606 -1.031992 0.399097 -0.578152 1.260592 -0.561935 -1.442747 0.792124 0.948904 -0.689870 -1.655959 -2.982001 -1.359570 2.633767 -0.438226 1.082392 -0.250068 0.647347 -0.890611 0.753748 -1.884047 1.369830 -2.178972 1.273091 0.506632 -1.907033 -0.559753 -0.825042 1.670828 0.596244 -1.148813 2.938234 -1.235306 -1.405855 2.881114 -0.367100 -1.608599 0.091312 0.548394 -2.150414 -0.890013 -0.910226 -1.161706 1.070071 1.054056 0.822597 2.910020 1.659624 0.772405 0.247428 -3.694256 -1.979271 0.372489 0.543831 0.266781 1.974458 0.231738 -0.835411 0.425590 1.068679 -0.895205 0.011636 -1.008186 -0.482583 -1.010426 -0.692016 0.000144 -1.457556 -0.229816 0.695535 -0.767903 -0.570430 -0.333139 -0.682966 1.425005 -0.356417 -1.800798 -1.729193 1.195083 2.791250 -1.442404 0.459410 0.237969 0.023178 -1.876707 -1.028796 2.434670 0.407653 -1.787415 0.083639 -1.269281 1.848011 1.323711 -0.115289 -0.040468 -1.172826 -0.782967 -0.577278 -2.132637 -0.234213 1.007504 0.145526 0.007549 -1.301606 -0.724441 2.245925 1.928498 -0.889323 -1.424587 0.468787 -0.600781 1.126635 1.902440 1.382359 0.370803 0.058768 0.793276 1.522325 -0.249836 0.093278 0.042030 1.389411 1.212677 1.137154 0.225206 -0.583729 -0.601133 0.589584 0.334498 -0.500773 0.361921 -0.201603 -1.494557 -1.209759 -0.173817 1.306305 -1.593705 -2.285506 -1.750597 0.708574 -0.248674 0.162939 2.713751 -2.278656 0.361511 -1.281995 1.127293 1.094028 2.112084 -0.658889 0.176090 0.018518 -0.176957 -0.461615 0.947347 -2.106076 2.180287 3.106057 0.822812 -3.104892 1.556917 -1.694332 -0.435386 
girl 0.542333 -1.767969 1.515503 -0.529744 -0.882273 -0.128462 -0.613683 -1.736326 0.977402 1.355586 0.792405 -0.473745 0.572620 -0.274235 -0.270299 0.026169 0.012314 -0.782679 0.318462 0.478134 -1.795967 -0.013514 -0.023243 0.313596 -0.677880 1.505136 1.804704 -1.533366 0.323527 -2.109442 -2.768025 0.346005 -0.101205 0.645950 -0.225118 0.942667 -1.429160 -1.291631 -0.946030 0.227305 0.811679 -0.357967 0.388257 -0.547899 -0.624167 -1.954295 0.572623 -0.805184 -0.479063 0.512955 0.522924 -1.500585 -0.697519 0.119611 -1.775112 -1.721766 -0.618919 0.341836 0.581986 0.753291 -0.785750 1.565098 0.203516 -1.710587 -0.790333 0.345208 -1.393577 0.036290 0.112814 0.323876 2.174564 0.405002 -0.868389 -0.841325 0.239985 0.463938 -0.148616 0.431994 1.232175 1.216611 0.741091 -0.503769 1.330259 0.061265 0.194883 -0.776902 0.609502 -0.311782 1.256173 -0.781249 0.403315 -0.302607 0.882742 1.520475 0.742001 0.971936 1.555003 1.426913 -0.350793 -0.263182 1.123844 -0.149129 -0.877766 -0.277350 -1.327563 0.790497 1.695405 -0.134142 -0.234353 -0.743225 0.605671 -0.609171 1.096414 0.495055 -0.330079 -0.250543 0.498275 -0.624793 -0.585120 -0.312781 0.920288 -0.104687 -0.416086 0.514964 -0.085549 -0.657198 1.272282 -1.136739 0.132063 -0.334836 0.671854 -0.885149 -0.586230 -0.206921 0.409731 0.032781 0.175050 -1.154364 0.870337 -0.832154 -0.124379 -0.542327 0.387517 -0.034572 -0.631058 0.329008 -0.717739 0.035595 -0.430585 -1.452994 -0.668424 -1.063336 -0.051625 -0.521079 -0.333700 0.425708 -0.121224 -0.366727 0.534607 -0.112736 -1.110719 0.243993 0.081397 -1.400714 0.264237 1.321539 -0.081671 0.012905 0.732972 -0.180875 0.136058 0.968732 -0.292653 -0.532841 -1.731318 0.134798 0.570803 0.379078 -0.950572 0.067722 -1.210648 -0.313970 0.882104 0.351316 -0.282155 2.112092 -0.453268 1.681716 -0.291470 0.413217 -1.021523 1.208376 0.240108 -1.366041 -0.228929 -0.415576 0.621925 1.642887 -0.533806 0.779974 
shirt -0.278893 -0.805965 -0.240175 0.322853 0.674898 -0.167222 0.553493 0.376535 0.168560 -3.128612 1.048203 -0.643701 -0.262688 -1.255744 0.750693 -0.159077 -0.593334 0.217004 1.074015 -0.285538 -1.634934 0.868070 1.383902 -0.186451 -0.062200 0.430990 -0.229198 -0.931961 1.000264 0.717758 0.023763 -0.733037 -0.400500 0.967845 -0.344016 0.256454 -0.075136 1.222560 -0.111631 -0.810987 2.107356 -0.600629 0.564627 -1.300564 0.110014 -0.458586 0.373167 -0.952520 -1.338835 -1.025479 -0.568186 -0.688019 0.642171 0.087793 -0.487243 -1.547362 -0.090645 -0.500937 0.737063 -0.888680 0.340509 -0.726326 -0.780198 -0.184790 -0.496406 -0.032327 -1.498511 0.184647 0.833191 -0.489122 -0.826981 0.409603 0.567408 0.655784 -0.697125 0.966813 -1.403989 -0.406161 1.636357 -0.022821 0.670226 -1.524078 0.016964 1.625399 -0.089009 -0.236424 -0.436854 -0.730360 -0.281153 -1.805063 -0.036796 -1.261520 1.561645 0.196187 1.390672 -0.015051 1.017967 1.587286 0.335410 -0.724526 -0.860645 -0.175186 0.171826 0.374312 -0.671730 -0.495556 0.967709 0.071696 -1.372002 -0.470938 -0.135085 0.241317 -1.087024 -0.944842 -0.956427 1.626658 1.086936 0.164233 1.110463 0.016992 -0.649980 -1.304411 -1.216666 -0.648896 -0.127042 -0.472591 0.486126 0.019480 -0.438295 0.247293 0.263560 -0.676113 -0.840274 -1.355372 0.888350 -0.895801 -0.957487 0.592628 0.686134 0.656034 0.024546 -0.338583 0.625072 0.332320 0.581330 -0.900820 -0.422046 -0.163103 -0.530995 -1.736957 -0.271468 -0.375305 1.109800 -0.344483 -0.670040 -0.069381 0.011853 -0.337073 0.154406 -0.715861 0.266142 0.106709 -1.372743 -1.628150 0.200855 0.472881 -0.924528 -0.176891 0.770822 -1.054711 0.511759 0.167584 -1.128860 -1.014230 -1.898145 -0.651896 0.500737 -0.097319 -1.545560 -0.121860 -1.200961 0.716564 1.312191 -1.372137 -0.362169 1.286366 -0.659086 0.046382 0.254537 1.764755 -0.105389 0.729642 -1.171136 -0.414801 0.268233 0.778047 0.829810 1.134575 -0.174699 0.655730 
trousers -2.401932 -1.212466 0.535876 0.790155 1.033918 -0.573940 0.269098 1.018997 0.221054 -1.770762 0.258263 -0.140427 0.169448 -1.109117 0.077547 -0.517449 -0.446429 -1.497649 -1.021744 -2.591002 -0.500725 -0.137762 -1.932107 -0.456123 -0.357361 0.049615 -0.624535 0.223232 -0.614391 0.775003 1.363423 0.470170 -0.173852 -1.139862 -0.953892 -0.102999 -1.436424 0.623928 -0.381501 0.202345 0.545136 -0.310180 0.907667 -1.566020 0.258080 -0.060232 0.891457 -0.843656 -0.304825 -0.578304 0.343849 -2.534276 -0.612576 -1.081217 0.581511 0.073867 -0.579950 -1.449746 -0.042069 -0.039286 0.006295 -0.604391 -0.339585 1.094085 -1.221596 0.374428 0.448472 -0.614276 -0.213486 0.918622 0.461517 -0.714772 -0.701839 -0.934539 -0.739268 0.299108 0.083267 0.217464 0.039560 0.383760 -0.684519 0.014726 -0.045005 0.650415 0.596812 -0.644582 0.525397 -0.668215 -0.048303 -0.252503 -0.653026 0.209808 -0.318504 -0.089650 -0.243486 -0.868317 0.357000 0.506143 -1.835921 -0.338202 0.505286 0.836822 0.032920 -0.108098 0.846951 0.509540 1.138127 0.030784 -0.916602 0.423241 0.093836 0.071809 1.253939 0.638777 -0.978742 1.377361 -0.631701 -0.931232 -0.340531 -0.083756 0.100490 -0.351960 -0.900479 0.754584 -0.207967 -0.094036 0.940923 -0.423968 -0.737383 0.086064 -0.100921 -0.770253 0.507222 -0.058683 0.619404 -0.783168 -1.600139 -0.745520 0.451808 0.115630 0.155979 -0.683631 0.394903 0.020908 -0.185863 -0.721470 0.026390 -1.539144 1.400002 1.062044 0.422328 -0.190128 0.252327 0.677113 0.163377 0.247631 -1.248685 0.120127 0.149639 1.709181 -0.351931 0.608482 -1.724912 0.341314 1.298003 0.233777 0.136148 0.169425 -0.151533 -0.696021 0.294542 -0.002458 -0.662132 0.261007 0.566661 0.927157 0.663864 -0.947906 -0.115597 0.977592 -0.185440 -0.340938 0.807313 -1.049860 -0.160682 -0.118717 -0.066070 0.294854 -0.433885 0.813956 -0.409521 -0.557551 -0.400176 -0.732556 -1.042356 1.170777 0.801197 0.742563 -0.495260 -0.105731 
shorts -1.130653 -1.604639 0.127657 1.513672 0.833697 -0.272641 0.226181 0.329590 -0.590149 -2.148028 -0.066398 0.589412 0.666147 -0.093981 0.415294 -0.204168 -0.410799 -2.409231 -1.014724 -2.701641 0.510671 0.693067 -0.837987 -0.109671 0.122191 1.117088 -0.009053 0.380601 -0.175519 1.514947 1.154304 0.370120 -0.220080 -0.986054 -0.374253 -0.385628 0.012005 0.644815 -0.328660 0.186407 0.233700 0.889851 0.470813 -0.279119 0.744688 0.633850 0.357947 -0.228573 -0.874991 -0.520258 0.236076 -1.251485 -0.065109 -0.532352 0.418196 0.328002 -0.282952 -0.586751 -1.185909 0.489782 -0.031193 -0.605151 0.123042 0.248770 -1.094088 0.302711 0.009680 0.192264 -0.162081 0.311543 0.071352 -1.162202 -0.275142 0.027642 -0.469388 -0.223148 -0.162115 -0.085801 -0.202737 0.962103 -0.475561 -0.201187 -0.480048 0.751708 0.525071 -0.423924 1.169215 -0.400827 -0.533199 -0.616342 -0.247207 -0.167393 0.493874 -0.302194 0.520605 -1.168802 -0.340817 0.118311 0.048082 -0.824445 0.286211 0.808891 0.747549 0.853554 -0.046549 -0.120957 0.506445 -0.931154 -0.960651 -0.196846 -0.470939 -0.710255 1.740112 0.303311 -0.022945 0.458390 -1.186823 -0.422041 0.369911 -0.173180 0.458149 0.335528 -0.897393 1.107387 0.244451 0.541041 1.346803 -0.563655 -0.489079 -0.392128 0.154041 -0.915300 -0.767451 0.335922 1.846475 -1.303275 -0.951229 -0.729308 0.244647 0.142812 1.215054 -0.822114 0.265029 0.445486 -0.477945 -1.222175 -0.464210 -0.989300 1.379672 1.796916 -0.217613 1.067262 -0.155203 0.443146 0.025543 0.104508 -1.230569 -0.431924 0.452788 1.196152 0.256086 0.269598 -1.900599 -0.643124 0.595754 -0.325699 0.360325 0.883265 0.565994 0.260186 -0.443292 0.279189 -0.038642 0.141358 1.634401 0.152903 0.625519 -1.850463 -0.391380 -0.346041 0.808185 -0.357361 1.439240 -1.282349 -0.372932 0.628508 0.008428 -0.277407 -0.140247 0.924382 -0.538171 1.172953 -1.372548 0.010246 -0.897522 0.221861 1.275989 -0.339125 0.539069 -0.387484 
holding 2.401625 0.188203 0.029594 -0.193651 1.026921 0.721768 -0.888919 -0.775054 0.679713 -1.793318 -0.659501 -1.798235 -1.766000 0.289335 -1.140358 -0.724387 -1.058431 -1.097281 -1.225988 0.064499 0.422538 -2.059233 -0.374118 1.045516 -1.167219 -0.928484 -1.859999 -0.357659 0.693757 0.432035 0.458550 -0.649470 -1.541297 0.463993 -0.573682 0.076977 0.994876 -0.583870 -0.800092 0.125219 -0.110257 0.604335 0.598319 0.968713 -0.105020 2.058796 -0.015127 1.663262 -0.690587 -0.411695 -2.661566 -1.223104 0.079617 -0.983051 -0.690988 1.617380 0.502029 -0.630975 -0.128344 1.090986 1.044314 0.120396 -0.170124 -0.230597 -0.947744 0.480964 1.885784 -0.431394 0.714861 0.967974 -0.757749 -0.790936 2.077851 0.259305 -0.738480 0.150297 -1.484601 0.745698 -1.516655 0.731960 0.449492 1.350446 0.368877 0.336543 1.147832 0.937273 -0.870695 -1.627080 -0.926120 -1.124861 0.481752 0.872027 0.837878 1.861553 -0.447386 -0.237253 0.253712 1.934881 0.439911 1.498556 0.059742 0.759694 0.504339 -0.391436 0.741500 0.533539 -0.140419 -0.214115 -0.796100 2.833245 -0.345251 2.153733 0.830295 1.454017 0.313474 -1.048359 -1.295493 0.324254 -1.049622 0.292037 -0.869514 -0.359717 -0.605730 0.340376 -0.023482 0.114817 -0.605552 0.854535 -0.836568 -0.459796 0.815443 -1.167419 -0.857716 1.465480 -0.072963 0.121333 0.661503 0.635138 -0.320816 -0.789519 0.223199 -0.958249 0.406262 0.625944 -0.602485 -0.151285 -0.639236 1.434930 0.121143 0.346472 0.991995 -1.780864 -0.637922 -1.116579 1.184850 -0.156538 -0.437070 0.330232 -1.425065 1.006591 -0.900982 0.488427 1.241071 0.027812 -0.061997 0.608618 1.694535 0.045357 -1.914122 -1.083603 0.698396 -1.067537 0.415346 2.100547 1.576948 1.509459 -0.048940 1.478766 -0.043613 -1.486115 0.951773 -0.349896 -0.544770 1.635099 -0.374219 -0.631684 -0.558534 -0.040478 -1.455941 0.659811 0.382724 -0.067689 2.194542 0.269073 1.188415 -0.030577 0.658443 -0.038822 0.920403 -0.411849 
left_hand 1.429131 1.049600 -0.417475 -0.777788 -0.006388 -0.684870 -0.197368 1.538629 -0.156528 -3.104944 -0.567260 -0.428675 1.308456 -1.123264 0.652853 -0.375035 -0.112588 -2.649473 -1.784732 -0.407731 -2.039662 -0.428783 -0.608078 1.275511 -1.187336 1.888054 -0.103844 -0.374964 -1.054330 -1.465095 -1.717408 -0.941535 -3.865388 1.958733 1.193811 -0.667942 1.262557 -2.173980 0.632222 1.978063 -0.043412 0.623170 0.414186 0.058920 -0.058423 0.977268 -0.082474 0.875880 0.189454 1.473853 1.113458 -1.835979 -0.023922 -1.041515 0.124801 0.228341 -2.151528 -1.133823 -0.598996 0.035711 -1.677873 1.232996 1.104976 -1.760902 -1.800670 0.719972 0.591387 0.673499 -0.062584 0.664575 0.575436 -0.577262 0.498743 -1.725874 0.231831 -1.765486 -0.686921 -0.491893 -1.420388 -0.708143 -0.604959 0.721489 -0.767082 -1.092027 0.569132 0.495262 -0.504725 0.904009 1.202605 -0.914481 1.006940 -0.248098 -0.155271 0.615871 -1.472337 0.884229 -0.733734 -0.603407 0.290726 0.454408 -0.486852 -0.010655 0.595231 0.390220 -0.080327 1.205317 0.874821 -1.361925 -0.283377 -0.574898 -0.167638 0.133674 0.598975 0.072284 -0.634089 -0.134948 -0.507730 -0.874406 0.323069 0.004706 0.501545 0.580845 -0.366491 1.023871 0.424501 -0.480969 0.170484 -0.175015 -1.086044 0.162020 -0.481177 -0.985769 -1.169798 0.497461 0.368587 1.401497 -0.230304 -0.651275 0.929292 -1.619155 0.403141 0.209963 -0.971320 -1.066739 -0.000090 0.041991 -1.724305 0.903069 0.936020 -0.936575 -0.461711 -0.093951 -0.380536 -0.796821 -1.068308 -0.085268 -0.487966 -0.259352 -1.619602 0.138545 0.308848 -1.033503 2.118455 -1.303472 -0.403745 1.040986 0.470887 -0.687879 -0.503026 -0.595118 1.106789 0.029391 -0.865957 -0.826261 -0.075870 0.833554 -0.272095 0.703064 0.208188 0.547773 0.525276 -0.330472 -1.398440 0.931330 1.101297 1.241416 -0.122673 -0.244191 -0.450306 0.043740 0.644888 1.830472 -0.279771 1.409642 1.650704 0.088596 -0.608893 -0.187480 0.315538 -0.349594 
