784 300
</s> 0.001334 0.001473 -0.001277 -0.001093 0.000456 0.001007 0.000314 0.000070 -0.001201 0.000739 -0.001452 0.000417 -0.000250 -0.000319 -0.001105 -0.000627 0.000860 0.001008 0.000990 0.000532 0.000515 -0.001268 -0.001365 0.001657 0.001267 0.001030 -0.000201 0.001339 -0.000165 0.000245 -0.000050 -0.000994 0.000437 -0.000446 -0.001275 0.001585 0.001460 -0.000365 -0.000075 0.000170 -0.001213 -0.001336 0.001518 0.000021 -0.000861 -0.001014 -0.001025 0.000566 0.000067 0.000444 -0.001405 -0.001269 -0.000043 0.000381 0.000850 -0.001057 0.001360 0.000309 0.000373 -0.000203 0.000995 -0.000763 -0.000699 0.000719 -0.000251 0.000344 0.000602 -0.001363 -0.000661 0.000971 0.001411 0.001311 -0.001016 -0.000703 -0.000303 0.000667 -0.001263 0.000999 0.000929 -0.000533 -0.000517 -0.000746 0.001410 0.001304 -0.000393 0.001405 0.001607 0.000605 0.001661 -0.001037 -0.000511 -0.000702 -0.000969 0.000938 0.000526 0.000142 -0.000731 0.000508 0.001020 0.000065 0.000760 -0.001651 0.001438 0.000160 -0.000610 -0.000694 -0.000249 -0.000978 -0.001457 -0.000946 0.001426 -0.000590 -0.000893 0.000772 -0.000568 0.001586 -0.000535 -0.001530 0.000905 -0.000025 -0.001163 0.000325 0.000481 -0.000160 0.000608 -0.001319 0.000294 0.000606 -0.001003 0.000047 -0.000020 -0.000800 -0.000944 -0.001565 0.000008 0.000051 0.000003 -0.001311 -0.001654 -0.001582 -0.001442 -0.000182 0.000464 0.000395 -0.001061 0.001666 -0.000670 -0.000425 -0.000468 0.001578 -0.001255 0.000387 -0.000445 0.001063 0.000014 0.001423 -0.000940 -0.000868 -0.001397 -0.001222 -0.001066 -0.001038 0.000815 -0.000622 0.000893 0.001230 0.000452 0.000984 0.000825 0.000780 -0.001184 -0.001144 -0.001219 -0.000044 0.001377 -0.000912 -0.001020 -0.001399 0.001102 -0.001393 -0.000193 0.000726 -0.001539 -0.001493 0.000481 0.001175 0.001421 0.000715 0.001054 -0.001043 -0.001213 0.001325 -0.000922 0.000584 0.000191 0.000597 -0.000394 0.000066 -0.000562 -0.000376 -0.001478 -0.001087 0.001162 0.000335 -0.000788 -0.000531 0.000832 -0.001178 -0.000771 0.001578 0.001416 -0.001320 0.000290 -0.000750 0.000051 0.001002 0.001615 0.000662 0.001371 0.001049 -0.000077 0.001492 0.000845 0.001580 -0.000568 0.001582 0.001443 -0.000476 -0.001473 0.001611 0.000299 -0.000693 -0.000239 -0.000245 -0.001284 -0.000477 -0.000148 -0.001642 -0.001172 -0.000401 -0.000314 0.000597 0.000272 -0.000205 0.000982 0.000482 0.000183 0.001206 -0.000375 -0.000476 -0.000138 -0.000909 -0.001000 0.000067 0.001446 -0.000456 -0.000007 -0.001378 0.001236 -0.000507 0.000989 -0.000803 -0.000298 0.000031 0.001208 -0.000029 0.001478 -0.000248 0.000700 -0.000046 -0.001301 0.001417 0.000352 -0.001010 0.001003 -0.001382 -0.001451 0.001089 -0.001144 -0.000883 0.001176 0.001095 0.000228 0.001508 0.001619 0.001352 0.000588 -0.001450 0.000763 -0.001631 -0.000429 0.000504 0.000327 -0.000508 0.000979 -0.001536 -0.000470 -0.000437 -0.000552 0.001024 
a 3.080975 0.323582 -5.305720 2.356982 -1.051560 1.205359 1.099419 -0.784279 2.673835 -1.242496 1.192770 -2.096511 3.196835 -2.125311 1.195323 -0.920899 -0.215858 3.106369 0.989856 1.702477 -0.388715 0.023325 0.165910 1.103479 -0.361164 1.605714 0.016956 0.787890 -0.660718 3.228390 0.374452 -0.061798 -0.383739 1.391990 0.122642 0.104361 0.816777 0.139469 0.241931 0.759656 0.488382 2.260763 2.186028 -2.262958 -0.086053 -1.882494 -3.326824 -1.051691 3.083102 0.029790 -1.218745 -0.210586 -1.197554 -0.131190 0.376472 -2.442735 1.239922 1.018791 -1.963910 1.248511 0.413911 2.117250 -0.184474 -0.530420 -0.844732 2.263363 0.489468 -0.432540 -0.418560 0.624576 0.289975 2.158988 -1.414387 1.513306 -1.391343 0.583301 0.212278 -1.626461 0.193278 0.024485 -1.226631 1.783430 0.768120 -1.491311 2.560912 0.839666 1.077423 -1.668957 -0.213829 0.718902 0.983953 -1.326507 -0.786995 0.900651 -1.588519 0.586452 1.334352 -1.330822 -2.296903 -0.425306 0.004730 -0.705269 0.226526 -0.770522 -0.416993 -0.672244 0.957908 1.179975 -0.813880 -0.687082 0.383339 -0.338772 0.365756 -1.034988 -1.342625 0.403594 -0.206721 0.157985 -0.398906 0.431201 -0.703311 -0.819559 0.130310 0.024513 0.324897 -0.190728 -0.829232 0.849205 -1.183145 -0.374893 -1.534671 0.842861 -0.743031 0.386693 -0.159230 0.988119 -1.043033 0.333724 0.258965 0.322876 1.010400 -0.061936 0.924912 -2.012196 0.162582 1.131326 -0.006241 -0.398194 1.026318 1.242601 2.344922 1.443278 0.540862 0.930974 0.443904 0.499677 -0.632309 -0.420779 -0.122450 -0.023467 -1.134081 0.616386 0.295908 -1.876153 -1.202302 -0.187248 0.996846 0.200303 -0.234569 -1.732239 -1.365990 0.646773 0.006507 0.026977 -0.225308 -1.456329 0.275686 0.930285 -1.409865 0.416710 1.051446 -0.218683 -0.154532 -0.244214 0.035175 0.733703 0.280755 0.603747 1.131548 -0.521818 0.675203 -0.354948 0.326080 1.881203 -0.671529 -0.332029 0.751799 0.359906 0.346574 0.130908 -1.625804 0.702521 -0.402611 1.052545 -0.215721 -0.197231 0.011080 -0.033709 0.201278 -1.570867 -0.368579 0.286847 -1.007534 -0.435234 0.646328 0.509552 -0.583815 -0.694905 2.310951 -1.564276 -0.687014 0.739825 -1.981611 0.410088 0.686626 1.796043 1.792230 0.768977 0.718761 0.379325 -0.420897 -0.635434 -0.660533 -1.114566 0.486427 1.347248 -0.368610 0.340817 -0.956386 0.703958 1.529017 0.460782 -0.295059 -1.494472 1.141375 -0.590543 1.829442 -0.441233 -0.267837 1.264079 0.039568 1.273530 -0.479116 0.917169 0.988502 -0.415208 -0.738866 1.320179 -0.872467 -0.756340 -0.871545 -0.330636 0.190422 0.715678 0.629581 -1.894113 0.352686 -0.120513 -0.704820 -0.088368 2.355086 0.747425 -1.345877 -1.244644 -0.608278 2.489893 2.107469 -0.186613 1.485553 -2.118688 0.682223 -1.969929 -0.911390 -2.444251 0.877053 -2.105024 -0.855855 0.687252 1.205037 -0.307326 1.326733 1.155392 1.224058 -0.207069 0.873704 -2.435041 -0.848103 -0.294227 0.991063 2.106601 
is 0.302123 2.370503 -1.692401 2.093634 0.421256 0.864815 -0.117547 0.864541 -0.125616 -3.045528 2.919067 -0.689880 -0.264606 1.011199 0.625057 -1.277978 -2.157543 1.049034 0.396294 -1.961333 1.357967 0.046480 1.117697 -0.441658 0.744327 0.291775 0.433810 -2.163706 -2.452399 -1.160373 -0.403003 0.000046 1.394626 3.108048 -0.842611 0.176877 -0.708322 0.358208 1.263567 -1.615440 1.954105 -5.264369 -0.358286 4.418610 2.348261 -1.346256 -2.037045 1.685892 0.584930 1.996086 -0.666737 -0.495570 -1.418656 0.330650 -1.756000 1.616018 -1.097670 -2.723555 -0.241216 1.856279 1.902228 0.892069 1.779250 2.068229 -2.643622 0.068932 0.913469 -0.116840 -0.917542 0.413911 0.066175 -0.182831 0.395855 -3.674109 -0.834972 -0.196703 -1.158740 -0.497454 -0.095782 1.373720 -0.699653 -1.591030 -1.530020 1.357885 0.202557 0.071860 -0.011256 -1.159041 2.120001 1.485943 -0.530194 1.023881 -1.147713 0.159660 -1.164640 -0.837531 1.045395 1.848296 -0.102936 0.809967 0.037381 -1.051314 -0.284032 -0.787128 0.061913 2.327791 -1.709947 0.557312 1.592647 0.601070 0.463776 -0.740835 0.786051 0.961065 1.211066 -2.487728 0.096038 -2.997491 -0.837782 -0.849310 -1.462772 1.085788 -0.854299 0.594666 -0.434535 1.011664 0.428234 -0.673074 0.356722 0.499861 -0.180884 -0.082312 1.272524 2.363543 -1.435616 -1.134016 0.580283 -0.347697 0.448831 -0.450110 0.787084 -0.900222 0.112307 0.312602 0.624232 -0.516986 0.929290 -0.141734 -1.405708 1.296823 -1.192134 0.199290 -0.449789 -0.451556 0.146882 -0.026165 0.036819 1.040922 -0.290265 0.744689 -1.096657 2.611754 -0.953804 -2.240880 -0.870562 0.461755 -0.480632 -0.392675 -1.707575 -0.810529 0.153478 1.083511 -0.069171 -0.797848 0.460427 -1.732380 0.434381 1.620707 -0.594258 0.113091 0.606956 -1.334030 0.569114 0.233614 -0.776123 -0.470775 1.350124 -0.793635 -0.390991 2.532217 -1.088477 -0.461477 0.309995 0.408318 -1.549051 -0.751742 -1.236598 -0.865653 -0.475387 -1.197016 -0.287385 1.967361 0.952669 -1.919155 1.699833 0.726774 -0.663385 -0.742927 0.594118 2.375341 -0.488127 -1.168137 1.963703 -0.157395 0.669753 -2.591281 0.455575 0.381823 1.418029 0.231544 -0.154217 1.686550 0.132562 0.780033 -1.594581 -1.804371 2.678311 -1.949450 2.271667 -0.330219 -1.343943 0.084799 -0.314368 -2.099763 -0.385213 1.366755 0.112336 -0.046462 -0.189273 1.417909 -0.319089 0.273345 -0.818940 -0.306026 0.478574 0.386899 0.772868 -1.713726 -0.316322 -0.507479 -0.176986 -1.391742 1.323019 0.842693 0.687051 0.915466 0.610358 -1.197089 1.974162 -0.987238 0.985351 0.983953 -0.500384 0.260502 -1.345727 0.337592 1.553385 0.989200 2.020480 -1.998348 0.293631 -1.651950 -0.136356 -0.526356 1.567088 -1.801413 -0.998051 0.718216 -1.342790 0.571278 -2.326776 0.804545 1.480638 -0.264948 -2.176222 0.777458 -0.356541 -2.821965 0.799436 0.384776 -0.624335 -1.369977 -0.298673 0.636270 -0.342639 -0.032553 -0.268133 2.193546 -1.076268 -3.028212 
black 1.810014 -1.543534 -1.764717 1.096649 -2.387872 -0.657142 -0.734352 2.420605 -0.583055 -0.510604 2.089891 -2.209420 -1.666406 1.924348 -0.559075 2.689808 0.611339 -2.151443 -0.375802 -1.080609 -2.346548 1.825643 1.209052 -0.063103 0.704649 -2.440547 -1.318604 0.043638 -3.189375 0.033014 1.123818 -0.619352 0.337492 0.602571 -0.134924 0.130746 1.416338 0.019576 -0.061618 -0.783903 -2.154266 0.258598 3.364019 -0.397841 -0.188443 -2.221429 -0.932153 0.385123 -0.590680 1.885925 -0.205840 -0.166473 2.054215 0.767591 0.379714 0.040029 -0.813863 0.429544 -1.112458 -0.315999 -0.281368 0.953110 -1.195470 0.263494 -1.378609 -0.843381 1.510982 1.057533 -1.246652 -0.562720 1.936976 -2.033120 0.031129 -1.223919 -1.742040 -0.846388 0.961005 0.419379 -0.472573 -1.249791 2.313796 -0.050359 -0.333441 0.691161 1.191108 1.676728 -0.579029 0.420828 -0.483226 -0.000259 -0.264283 0.646514 1.845372 -1.030577 -0.059015 -1.073367 2.215465 -0.563155 -0.039077 -0.162074 1.558147 -0.147649 -0.488125 -0.686203 -0.423066 -0.901815 0.883797 -1.797340 0.759511 -0.039576 0.087593 0.128776 0.374674 -0.387196 -0.187310 0.178107 1.296703 -0.082592 -0.575093 -0.114308 0.127175 -0.363291 -1.199333 0.266487 0.415596 -1.989266 -1.900193 -0.895388 0.386284 -1.133896 0.478700 1.240090 -0.663913 -1.472310 0.725512 0.020395 0.097109 -1.770917 -0.117327 0.149455 -0.393528 1.277574 1.006799 -1.406815 -0.986250 -0.039298 -0.231569 -0.005073 -0.241014 -1.040042 -0.068077 -1.314500 0.498515 -0.431470 1.131276 -0.408286 -1.026800 -0.254370 1.134219 0.619346 0.838674 -0.847090 -0.298224 -0.370314 0.900367 0.220286 -1.001055 1.112275 0.355830 0.737799 0.330428 -0.639342 0.787926 -0.876811 1.913490 0.060924 0.644257 0.512946 -0.859707 0.531820 -0.527183 0.094820 -0.611712 2.282332 1.353199 -0.052300 -0.307013 -1.951859 -1.958711 0.976609 0.086882 -0.955995 0.251751 -0.115895 -0.775939 -0.151510 -0.972984 -0.696127 1.468047 0.738772 0.881142 -1.526981 -0.780680 -0.380403 0.038364 -0.003593 1.875958 2.404979 -0.899839 2.512141 1.438392 -0.175518 -1.613940 -0.697015 0.777364 0.169756 -1.854087 0.335644 -0.403124 -0.127661 -1.327329 -1.585504 0.223927 1.797757 -0.475517 1.096137 1.496239 0.483359 -0.367909 0.627925 0.279628 -1.009793 -0.803159 -0.246313 -0.736423 1.415224 -0.373678 -0.117004 -0.884999 0.498917 1.402625 0.230558 1.009194 1.089825 -0.193623 0.144513 0.349761 0.300146 0.150530 -0.523872 -0.720160 -0.218216 0.971837 0.636102 0.353503 1.351397 -1.053023 1.632578 1.677651 0.041270 -0.608482 -0.439696 -0.225580 -0.406302 1.676323 -0.366581 -0.044135 0.276526 1.202661 0.769797 -1.694759 -0.419093 0.081174 0.722169 1.339121 0.320987 -0.994458 1.770483 -2.326569 0.677775 -0.294454 0.618357 -0.548330 0.742709 0.393013 1.607532 0.659378 -2.698765 0.518691 0.189115 0.341913 1.626339 -0.764516 1.337647 -0.235248 -0.207174 -1.401723 -0.282564 -2.075429 -1.434247 
and 2.320080 1.529722 1.123427 -2.058776 -1.001318 0.527171 -1.646964 0.218674 0.619620 1.305280 -0.269160 3.325021 -0.500951 -1.095183 -0.323180 0.100418 0.728625 0.109022 3.003799 1.969373 0.917542 0.786799 1.774724 -1.237258 -0.905851 0.422270 2.183932 -0.079533 2.021567 -1.266708 -1.694552 -0.747875 0.090978 -1.455500 1.606327 1.053852 -0.774309 -1.173456 -2.398996 2.538422 1.336929 -1.809888 -1.355598 0.609203 -1.109842 0.884535 2.140710 0.208500 0.153990 -0.980077 0.651194 -0.590908 0.735379 -1.063974 -0.684645 -0.758338 0.414450 0.679796 0.185573 -0.727924 0.423781 -2.462809 0.885087 1.146842 0.022392 -0.139537 0.546010 -0.338504 1.324827 -1.400512 -3.072711 2.119240 0.445492 0.253038 0.740719 -0.903540 1.238924 0.203368 1.072392 0.675441 -0.336639 1.284396 0.660842 -1.459524 0.680451 -1.078417 -0.198927 0.550941 0.227177 0.176365 0.225057 -1.566450 0.980222 0.885284 -0.249725 0.344500 0.260837 -0.203649 -0.307838 -0.548455 0.007712 -0.232347 -0.463135 0.700608 1.391619 1.576792 -0.445031 0.963055 -2.656089 0.499030 -0.425033 -0.829859 0.408396 -0.558108 0.171927 -0.587917 0.110252 -0.737492 -0.548567 0.905555 -0.877479 0.259508 1.738678 -1.110215 0.910503 -0.605958 -0.396332 -0.132282 1.382511 0.871412 -0.703232 -1.096975 0.409260 2.279327 -0.774904 -1.582294 0.393115 1.511963 0.934087 -0.438920 -0.407572 0.363933 -0.307257 0.969857 1.132883 -0.806174 0.173585 -1.527716 1.374419 0.744257 -0.265669 0.154229 -0.100951 -0.041344 0.780973 0.163181 0.638931 0.200511 1.151315 -0.090896 -0.162721 0.277854 -0.029127 -0.284897 -0.058049 0.972676 0.362893 -0.506337 -0.741607 -0.580930 -0.204628 1.938490 -0.018540 1.157559 -0.992691 -0.351309 -0.227404 0.350420 0.288998 -0.387854 -0.190932 0.074581 0.010760 0.711310 0.148343 -0.228141 -0.545467 0.286826 0.920324 -0.052467 0.774469 0.183033 0.058464 0.285558 -0.472712 1.252963 0.186210 0.118943 -0.801152 0.457735 -0.493133 1.004345 0.649066 -0.375475 1.002324 0.474323 -1.442239 -1.099334 0.798024 0.097283 -0.706601 -0.537152 1.166072 0.440764 -0.869900 -1.655612 -0.287085 0.084961 0.412399 -0.478732 -0.330521 0.487638 -0.881292 -0.967466 1.295321 0.329657 -0.681848 0.007882 0.185554 -0.474099 -0.277973 1.374401 -0.205299 1.155240 0.523460 -0.807338 0.397900 -0.483650 0.508234 -1.165992 -1.703647 -0.615243 -0.587621 0.408932 0.317742 0.636508 -0.984012 -0.362934 0.210722 -0.191728 -0.065834 -0.378555 -1.791263 -0.044003 -0.200094 0.642837 -0.591131 -1.395839 0.511404 0.457414 -0.942734 -0.511249 -0.182913 0.424914 -0.576373 -0.462984 -0.424425 -0.179164 0.040968 -0.218269 1.082736 2.009611 1.329100 0.008004 -1.430113 0.570425 0.073245 -1.534217 1.628549 0.754792 1.454278 -0.073634 -0.298858 1.154924 0.262729 -2.779447 1.086199 2.144114 -1.078128 1.356783 -0.949295 -0.823833 0.323326 -0.011948 1.129529 1.178327 0.278130 -0.253248 2.412761 0.359004 
with -0.255873 1.314036 3.702226 -2.118505 1.808721 -0.458019 1.188076 -2.185977 1.011591 -0.290633 -0.894479 4.289141 -3.366058 1.033941 -0.106136 1.186549 1.772424 1.040182 0.386088 3.432331 0.805866 2.181856 -1.885480 -1.001253 2.864557 0.252407 1.852051 -1.399436 0.856384 -4.026722 0.926387 -0.304501 -0.784918 -3.852158 1.642714 -0.461405 -0.440290 0.211090 -3.640205 0.631048 1.160600 -1.344579 -2.297186 -0.297383 0.277185 1.380470 2.896467 -0.385184 1.117942 -0.446036 0.824590 1.371518 2.249942 0.252236 -0.990558 0.632293 1.006151 -3.659450 2.794512 2.809797 -0.881380 -2.267403 2.530588 -1.894864 -0.136528 -1.011445 0.446454 -1.847328 0.040681 -0.438106 -1.877507 0.177796 0.308393 -0.169637 2.079755 -1.043862 -1.828241 0.622950 -1.780289 1.432984 0.236019 -1.379589 -0.349040 1.160696 -0.140719 0.892083 -0.951136 -0.288017 1.626802 2.263809 1.149279 0.398720 0.803597 0.838350 0.252451 0.345715 -1.510126 0.288188 1.497782 -0.717790 1.662195 0.927114 0.881543 2.370070 -0.649553 -0.216267 0.707843 0.019705 -1.117110 -0.702383 -0.965051 -1.602589 -1.099433 1.605848 0.998990 -0.667453 0.153679 -1.276694 -1.072854 -1.275823 -2.397339 -0.275370 -0.183944 0.460252 -1.196205 0.427505 1.171483 0.721240 1.126212 1.260609 1.685097 -1.913018 1.328478 1.411000 -1.195468 0.400610 0.205154 -1.355650 -0.957276 -0.877083 0.579212 -0.552083 -1.621901 3.384486 -0.754368 0.019712 -2.340483 0.857433 -0.262045 1.353506 -0.820185 -0.663247 -0.720477 -0.451026 0.112543 -0.292800 1.123761 2.066734 -1.224971 0.234451 0.030915 -0.537168 -0.130389 0.934750 -1.632401 -1.606124 0.053099 0.516890 -0.826532 0.401026 0.263421 0.225996 1.271046 0.310733 0.473059 -1.128643 0.832092 1.246609 -0.065840 -0.509058 0.476130 -0.715917 0.604882 0.351090 0.430928 0.834925 -1.051489 1.379423 0.057978 0.239656 -0.282386 0.992976 0.246499 -0.946664 1.499392 0.539759 0.126570 0.522028 -0.187484 0.060301 -0.346069 2.578409 0.888312 -0.710617 1.297023 0.508614 -0.565996 -0.507140 1.802527 1.254494 -0.506745 -1.159877 1.244784 -0.362496 1.001154 -1.079310 0.025482 0.393033 -0.737091 -0.606178 1.478999 0.007458 -0.009731 -1.041514 0.692448 -0.504158 -1.366309 1.132848 -0.575905 -0.948984 1.036125 3.363154 -0.029031 0.110191 0.592040 -1.914736 -2.029350 -0.524357 0.887089 -1.244390 0.465991 -0.252444 -1.159992 0.424666 0.864486 0.808511 0.190679 0.024164 2.267352 -0.288660 0.422826 -1.135107 -2.277169 -0.399877 0.670421 0.066882 -1.345890 0.787066 -0.899174 -0.183024 0.486463 -0.317866 1.160354 1.779843 0.279413 2.881326 -1.388854 -0.022918 -0.655689 0.604490 -0.213534 0.475892 0.611795 -1.331095 -1.244295 -1.684789 0.484958 -1.640015 -0.105083 -0.659108 -0.887112 -1.055152 0.218083 -0.466615 0.772439 -0.987555 -0.505811 0.121864 -2.183186 -1.337778 0.031093 0.283823 -2.919994 2.214393 2.028812 0.133278 1.837945 0.356719 -1.024412 -0.573282 
he -1.559405 -0.550256 0.768875 -4.557012 -0.164365 -0.259740 -1.841604 -0.066783 1.365679 -2.941968 -4.344798 1.607714 -4.016513 -0.206382 -0.660746 1.630646 1.490109 -1.343572 1.884784 2.143326 1.574170 -1.003387 0.902643 1.048774 -0.227280 1.480530 -1.186925 -1.946363 -0.977983 1.499224 -1.947013 -0.522150 -0.134221 -2.596288 -1.210012 1.571153 1.393252 1.435035 1.037687 -0.256352 -2.218709 2.387240 1.856371 -2.434441 -2.045058 1.919340 2.941147 -0.080498 -0.297618 -2.939080 0.855414 1.598819 1.726415 1.879392 1.324717 -0.272302 1.082048 3.216028 0.720441 -4.083410 -3.146410 -3.417813 0.075981 0.065356 2.059592 0.123129 -0.335022 -2.462013 2.901086 -0.696406 -2.038780 1.370060 1.173612 0.174458 2.237666 0.010992 1.028504 -0.312386 1.370172 -0.048887 0.412164 0.481715 1.388288 -0.553830 1.001281 0.833150 0.575146 1.059418 -1.278444 0.592605 1.578196 1.419716 0.394717 -1.729468 0.438828 -0.191075 -1.416972 -1.433531 0.658349 -0.634710 0.508075 -1.014365 0.193778 1.562196 0.847458 0.048308 0.636913 -0.287249 -2.271441 -1.158099 -1.178751 -0.265109 -0.274308 -0.428529 -1.059138 -1.129660 -0.647253 2.947168 1.396910 1.969168 1.599417 0.098143 2.511356 -2.521599 1.143454 -1.729635 -0.143302 -1.383672 1.936787 -0.109671 -0.503102 -1.164659 -2.152595 1.848460 -0.212971 1.570979 -0.243437 2.181842 0.017970 -0.785545 0.745640 0.619974 0.629463 0.791091 -1.603629 -0.693864 0.532773 0.356443 1.406013 1.621402 1.134209 -0.329390 -1.160726 1.294389 0.706757 1.217846 -0.170913 -1.124937 0.545988 -0.271119 0.331222 -1.580997 0.370567 1.178291 0.049342 -0.479343 1.423951 1.948634 0.754732 -0.134694 0.519318 -1.615866 1.267918 -0.280973 2.677306 0.926535 0.546651 1.094014 -1.072756 1.772617 -1.161670 1.819162 -0.532747 1.515606 1.200815 0.422279 1.527057 0.212848 -1.094762 -0.594747 -1.476164 1.678149 0.261400 -2.047913 2.931880 1.265795 0.635711 -0.719023 1.190942 0.861696 -0.881456 -2.072542 -1.041936 1.585006 -1.331845 0.031636 0.764342 2.088780 0.682588 -1.191417 2.144744 -0.412013 -1.672232 -0.151940 -0.595189 2.273909 -0.256307 -2.620999 0.470828 1.213193 0.265320 -2.771554 1.019380 0.026772 3.481108 0.811240 -1.612591 1.610946 0.750202 -0.560972 0.061590 0.471411 -0.641216 0.512720 0.827714 -0.594728 -0.049795 -1.940828 -2.213890 -1.533312 -0.906399 1.148193 -0.111487 -0.146332 -0.285518 -0.420562 0.234965 2.218861 0.399648 -0.014343 1.108788 2.078733 -0.398506 1.196806 0.579777 1.273961 0.778443 0.557050 0.515510 0.474757 -0.559857 -0.007888 -0.214595 -0.675358 0.196777 0.078468 -2.256430 1.527086 1.114393 1.460391 -1.184088 2.395013 0.243113 -0.054678 0.248107 0.161478 -0.472808 0.127703 1.310481 1.023852 0.794514 1.129149 -0.034904 -0.549181 1.547274 1.316989 0.463820 0.386369 0.012795 -0.882351 -1.036569 2.071298 -0.456064 0.412461 0.909899 -0.796795 0.981015 0.879700 -0.371704 1.652041 
wearing 3.065735 0.964601 2.775576 -0.991540 1.093124 -0.686111 2.645823 -2.676901 -0.726683 2.684326 -0.398311 1.311943 1.370869 -0.983233 -1.630735 1.661686 3.222763 -2.423007 -0.626221 0.232907 -0.477836 1.989577 -2.369638 -0.075617 0.291799 -3.396331 1.124265 2.838480 4.473509 -2.918865 -0.408820 -0.214048 -0.612698 -3.936724 1.090171 0.032403 -1.476913 -0.860889 -3.056931 0.921970 2.156452 0.766598 -2.772971 -0.821549 0.601589 1.226839 2.525223 -1.168157 -1.433674 -0.555793 1.276581 0.377470 -1.888979 -0.319412 0.803899 -0.021155 0.088930 3.124109 1.260213 -2.200861 -2.247702 0.778332 1.011713 -2.112817 1.267126 0.286681 -0.192557 1.877435 -1.086864 -0.239289 -0.006525 -3.604141 -0.788347 3.014359 -1.135927 -0.812815 -1.405988 0.734372 -1.426146 0.817019 0.121681 1.989210 -1.005515 0.074190 -1.185560 -0.618127 -2.572621 1.291729 -0.451571 1.401303 0.292040 0.388121 -0.567072 2.031953 4.041374 2.935790 -1.972451 -0.076551 0.802328 0.858600 -1.002624 2.814353 -0.892316 -0.846305 -0.288637 -1.474496 1.007862 -0.629782 0.881432 1.342343 0.191988 -0.557130 0.445045 -0.607797 -0.940958 4.067082 1.712089 -1.338556 2.308038 0.236373 -0.612390 -0.669393 -2.626638 1.798859 -0.872636 -1.141015 -2.099231 2.264929 -0.182101 -0.069879 -0.287603 0.704283 0.673895 -2.222391 1.455923 0.482440 0.498453 0.112805 -0.798932 1.488113 -0.337864 -0.547108 -2.583189 0.974213 0.814780 1.277177 -2.849110 -0.872952 -0.554916 -3.190626 -1.268000 -1.013141 1.966922 -1.651739 0.070665 -1.782626 -0.399325 -1.257354 0.376346 0.609794 0.126166 -1.787197 1.327955 2.295008 -0.135721 -1.009477 -0.507090 -1.075400 1.266333 2.242941 0.172325 -0.328311 0.478830 0.234140 -2.002284 2.417972 -0.658309 -1.961175 0.813860 -0.470725 -0.680895 0.076822 -0.944968 -2.070863 -0.190935 -0.842405 -1.839172 0.205328 0.556769 -2.019263 2.979555 -0.516384 -0.494620 1.736465 -0.557314 -0.941869 -0.306558 1.481587 0.828507 0.949834 1.952970 0.668554 -0.148556 -0.873870 -0.160921 0.386050 1.090426 -0.692973 -0.375002 0.249563 -1.042785 -0.515552 0.191130 0.891015 -0.594879 -2.298852 0.857601 -0.377483 -2.173704 2.789034 0.743944 -2.023929 1.060714 -1.581808 -1.525854 1.385264 -2.514685 0.522993 -3.455051 0.202857 1.835517 -0.127007 0.391062 1.714220 -1.429420 -1.393878 0.114724 0.599357 2.454365 0.772199 -0.485429 -1.562211 1.013644 1.567244 -2.253864 -0.424103 -2.771995 1.143858 0.544730 -0.696799 -2.335371 -0.272293 -0.313200 0.774450 0.926089 -0.573492 -2.393879 0.966565 -2.097428 -1.041441 -1.946069 -2.105802 -1.328075 1.077415 0.902047 -0.307037 -1.428176 -1.192072 -3.363849 1.958434 0.892425 0.281783 1.222537 0.283023 -3.766251 2.760006 1.694256 -2.743098 -3.214733 -0.816629 1.524054 -1.637741 0.109203 0.584787 0.917612 0.395226 0.645946 2.419627 -2.498796 -0.082399 0.567225 0.907915 0.744101 -3.203789 -2.364473 2.484930 1.438756 -1.720353 2.262567 2.227988 
his -1.443782 -5.679548 -1.259472 -3.895673 1.654857 -2.149287 1.294167 1.116902 1.611363 1.241911 0.784967 -1.605657 0.028691 -1.376045 0.257285 0.891006 -1.397965 0.373975 0.003683 1.003887 -1.073162 0.289651 -0.264859 -0.144230 0.006855 1.631378 -0.105404 0.160094 1.164035 -2.180610 -0.478165 -2.918197 -0.303432 1.086224 -1.355705 -2.781998 -0.304466 1.158134 0.577277 -1.849108 1.452548 0.909003 2.057028 0.685176 -0.389809 -1.310434 -0.458299 0.831311 -0.517786 -1.435051 -0.290464 -0.117144 -0.484680 -1.538322 -0.999116 -2.584466 1.537318 -0.518287 -0.999714 -0.020049 -1.690567 -3.384487 0.999693 3.272896 -1.644654 1.440142 0.265187 -1.429837 -0.261445 2.317909 1.692201 -1.496961 -1.483114 -0.043099 -0.014143 0.152476 1.250803 -3.532903 -0.347479 -1.149498 0.550871 2.670395 2.473697 0.567536 1.216589 0.896400 0.401816 0.653961 -1.927398 -1.723694 1.358645 -0.297414 -1.540616 -1.211259 1.855713 -0.570975 2.111098 0.892556 -0.949040 -0.918057 0.312575 -0.390750 0.330296 2.616008 -0.351849 -0.627035 2.251715 0.279885 -3.324171 -0.524589 -0.276240 -1.547551 1.923358 0.370581 0.704046 0.386979 0.548117 2.475352 0.520822 -0.080480 1.645744 0.573109 -0.280386 0.172191 -0.700456 -1.548480 -1.275188 1.713468 0.817778 0.103173 -2.420881 -0.158363 -0.549067 1.634656 0.062090 2.347129 0.084975 0.796314 -2.195086 -0.277985 0.945897 -1.805765 -1.064982 -0.409710 -0.425576 1.223979 -0.843371 0.864704 1.555775 -0.474285 1.788160 0.585739 2.334801 0.866185 0.714520 0.855932 -1.398112 -0.117273 -0.005065 1.237965 -1.487077 1.443257 -1.421587 -0.295806 0.423966 1.352409 2.042907 -0.101120 0.453404 -0.778869 0.867700 -1.292272 0.750072 -0.033497 0.645366 -0.978645 0.650452 -0.657789 -0.529408 1.163009 2.027915 1.484125 0.343715 0.367796 1.850118 -0.253604 0.937537 0.530114 -1.690797 1.809450 1.101268 0.666902 -0.433506 0.451579 0.033640 -0.951390 -0.483904 0.212449 0.389934 0.164457 -1.397181 0.574091 -1.083729 0.782931 -1.173928 -0.014413 2.447830 1.638838 1.049371 -0.564381 1.331628 0.485563 -1.277323 0.415121 -1.076600 0.162658 0.189703 -0.307919 0.996456 1.687285 1.009325 0.206456 -1.051239 -0.004156 0.605590 2.832568 0.186014 2.428623 -0.755395 0.067162 -0.415610 1.420784 -1.105054 0.217059 -0.738183 -0.204966 -0.419196 -2.315001 -0.316017 -1.128518 -0.041483 -1.199467 0.808012 0.689098 -0.896959 0.960867 0.661375 -0.570613 2.247944 -1.206837 -1.176550 1.396832 2.086549 0.755683 0.826946 -1.512848 -1.575866 0.308917 1.092502 -1.481101 -0.967969 -0.637723 -1.312958 -1.431398 0.541486 -0.863509 -2.263457 -0.494061 -0.416155 1.569532 1.253220 1.485589 -0.533833 -0.554692 -0.360684 0.470362 0.556103 0.597261 -1.070647 -1.018364 0.085015 -0.456141 -0.725230 1.665554 -1.111969 -1.677574 -2.087361 1.502175 0.487286 -0.372413 0.792527 1.564451 1.477969 -5.155612 0.598110 -1.155728 1.893919 -1.115780 1.319145 4.373517 
she 0.947993 0.416807 1.131286 -0.390174 -2.424328 -0.405999 -1.731684 -1.556925 2.491045 -2.077299 -1.687838 1.353139 -4.438457 -0.299368 -1.981798 1.708379 0.940446 -0.717779 -1.386596 -0.135591 0.972892 -2.052873 0.394929 1.325176 -1.522382 0.532667 0.356763 0.089179 -0.845833 -1.148896 -1.809657 -0.797668 -0.681861 -3.017297 -1.539478 0.561700 0.872616 1.046625 0.761939 1.150157 -2.051035 2.101445 1.137315 -3.317774 -2.309966 -0.282714 -0.532073 -0.230399 -1.244133 -1.777911 -2.577869 0.855417 2.954715 1.996178 0.297489 -0.609353 1.122728 1.472691 0.971006 -1.776994 -2.447157 -1.822325 -1.008828 -0.424077 2.967134 -0.058846 -0.871737 -1.303800 3.098471 0.066871 -0.146621 0.049895 0.856580 0.310613 2.159805 -0.619810 2.122659 -0.358262 0.180465 -2.338696 -0.383641 0.659230 3.085515 -0.266138 -0.156585 -1.319498 -0.708746 0.748314 -2.392778 -1.184785 0.493097 0.754140 -1.200303 -1.520843 0.760154 0.130662 -1.175415 -0.113658 -1.698820 -1.853945 0.296331 -1.542224 -0.104448 1.314824 0.440255 -0.453223 -0.248935 -0.505418 -2.599561 -2.472825 -1.657732 0.482492 -2.126895 0.102574 -1.793073 0.774009 0.961500 4.088223 0.959002 1.129057 3.063109 0.195133 1.909288 -1.607622 0.270011 -1.002251 0.885350 -1.156601 1.640709 -0.470788 0.395755 -0.696807 -0.634679 0.247455 0.828898 -0.050001 -0.729491 0.517560 -0.436836 -0.259125 -0.338458 -1.496884 0.478680 0.178093 -1.305786 -1.224342 0.492097 1.141839 1.918229 1.597397 0.005788 1.198134 -0.479292 2.481442 -0.663744 1.502614 -0.717649 -0.484564 -0.558031 -0.928793 1.168311 -2.059391 0.408827 1.243252 -0.419028 -0.976654 0.926233 2.408035 0.550896 0.512531 0.088849 -1.700911 1.420599 -0.136371 2.587051 -0.998991 -0.312812 -0.607833 0.954318 2.519509 -0.905720 1.847209 0.240355 2.279472 3.047197 -0.038791 -0.580305 0.277153 -1.524575 -0.642401 -2.179806 1.466489 -0.806125 -1.620097 3.116804 -0.179434 1.451706 -0.746501 1.169065 -0.249808 -1.471318 -1.205726 -1.653295 2.089129 -0.829952 -0.079015 0.269236 2.175940 -1.310297 -1.316795 2.428605 1.337532 -0.007021 0.341537 -1.888287 3.675343 -1.662541 -1.387705 0.334610 -0.491520 0.642094 -0.683090 -0.475101 0.429371 2.869691 -0.057844 -0.554179 1.516773 0.935148 -0.224229 2.336820 -0.318181 0.052129 0.201035 0.426707 -0.157943 -0.692899 -2.118904 -2.022330 -2.488151 -0.397706 2.084669 -0.068723 -1.427238 -0.131825 -0.375805 -0.344551 1.541586 0.332929 -0.277407 0.189257 1.189129 0.694002 0.269562 1.310190 1.487704 0.261003 -1.421641 1.300885 1.771721 -1.250845 -0.346403 0.726486 -1.481261 -0.584450 2.175935 -3.253577 1.485202 1.008421 0.914622 -1.079645 2.216855 -3.266048 0.009282 0.387348 0.485909 -0.406895 0.137867 3.815195 0.454227 0.678440 1.416689 -0.588007 -1.834286 2.576706 1.435256 0.848070 3.206480 0.762905 -0.285131 0.893284 2.004147 0.012231 0.273856 1.430402 -1.615789 0.667574 0.299945 -0.040759 2.158688 
of 1.872232 1.290353 2.919138 -2.105846 -0.108785 -0.948751 2.380059 -2.221151 1.840856 1.181328 -1.782393 2.256440 0.484287 0.777317 0.389961 0.383650 -2.452423 -2.603009 -0.211811 -4.550585 -0.111802 0.061632 -1.190774 0.167663 1.170991 -0.815592 3.027013 -3.675301 -1.024888 -4.806748 -2.394599 -0.485551 -0.788815 0.637951 -0.539811 1.019313 -1.892620 -0.878053 1.791430 -2.256150 0.158379 -3.910836 -2.419939 3.259738 1.478205 -0.363340 -1.471716 -1.507052 0.426718 -1.008846 0.576696 -0.606939 -1.787065 -1.519841 0.642765 1.530596 -1.748083 1.810759 1.677384 0.120983 0.917311 1.091687 3.108342 2.610246 0.241234 -3.761329 1.036359 0.223782 0.974127 -0.134705 -0.760343 0.425829 0.715387 -0.115620 1.025309 1.365457 1.921260 -0.137571 -1.052155 -1.289608 1.037118 -0.906713 -0.452133 1.654597 -1.577925 -0.870133 -2.728708 1.878290 -1.870235 1.710050 -0.223340 -0.324001 1.757519 1.477904 0.941113 -0.226952 -1.455477 -1.094187 2.431894 -0.332281 0.267972 0.846941 -0.152799 1.891439 -0.228272 -1.184003 2.684090 -1.862274 0.783699 -0.311098 -0.719076 -1.120154 -0.816172 0.114331 -0.247908 2.204198 -0.933171 -0.394595 -1.109767 0.197513 -2.718033 -0.007463 -1.576092 -1.916802 0.121869 1.360989 0.999438 1.207841 0.510491 1.596409 -1.732215 -0.643567 -1.136769 -0.276225 0.599665 -0.576536 -0.723525 -1.174932 0.401741 -1.581913 0.969680 -2.806952 -1.182596 4.544244 -2.489250 0.164768 -1.132582 0.127521 1.541750 -0.668663 -3.387836 -0.321046 0.483591 -1.202183 -1.159260 -0.322357 -1.799268 -0.415479 2.230825 2.556245 -0.966302 0.523528 1.876667 0.127831 -1.182155 3.349360 0.832403 0.548944 1.300638 0.233169 2.072616 1.352268 0.626598 0.609219 2.017062 -2.543693 -0.439203 -0.904776 1.537979 -0.163822 -1.366494 0.288869 1.442303 0.610448 0.470931 -2.195676 0.192911 -0.546149 0.377898 -0.217706 1.338574 0.055891 0.535736 1.615756 -2.503672 0.515814 0.580684 -2.348994 0.432267 -1.333576 1.373961 0.353541 -0.081828 -0.058602 -0.734648 0.881100 -0.620419 0.754595 -0.357762 -0.253775 -1.724098 1.364234 1.420721 -0.194181 -1.814733 0.223250 -1.703439 0.452468 0.032839 -0.714135 -1.301592 -0.135288 0.078074 -0.760113 -0.694939 -0.228407 -2.720653 1.256098 1.298528 -1.967271 1.119958 0.874120 0.688989 1.928021 -1.791114 0.128358 1.056964 -1.250089 -2.146651 1.735221 -3.065608 0.736398 1.454916 -1.120908 -0.683739 -0.158963 -0.540109 1.792697 1.550797 0.118496 -0.118624 -2.014965 -2.595312 0.037455 1.688929 1.992930 -2.443335 0.907265 -1.358229 -0.183128 -1.472142 -0.363599 1.610206 0.860612 -0.126899 -1.194033 1.329487 -0.703151 -0.454356 -0.964279 -0.117541 -2.721691 1.020000 -0.182179 -1.706289 -1.737688 0.702019 -3.150358 -0.336892 0.723772 0.174209 0.158693 1.404142 0.055779 -0.859424 -0.863769 -0.543753 0.844643 -0.560435 0.102418 -1.850517 1.066851 0.917637 2.251773 -1.306477 2.112190 2.035138 1.520747 -0.617120 -5.199679 
the 0.390624 -0.664135 -4.102962 0.813321 1.416569 -0.522620 0.341046 -1.733328 0.496812 -2.288760 0.484104 -2.719216 0.882803 -1.593263 -1.696595 -0.528006 -0.720163 1.451924 1.711964 1.669810 0.964359 1.092378 -0.618815 -1.233502 0.064685 2.032865 1.104906 0.343135 1.537773 0.238986 -1.338316 -1.287407 -0.273232 -1.353051 -1.805068 -0.441103 -0.535333 0.024932 -1.848257 -0.212132 -1.072066 1.657113 1.765130 -0.502452 -0.772529 -1.653788 -0.377155 -2.487164 -1.504412 -0.580642 -1.230943 0.105332 -1.303828 0.094418 -2.557324 -1.283724 1.173262 -1.525770 -0.399477 -0.464777 1.248774 -2.841377 -0.571392 1.456667 -1.226094 0.886909 -0.555579 2.153092 0.794356 1.536309 -0.097993 1.383921 -1.357238 -0.284570 -0.113297 -0.392744 1.064837 0.220219 -0.993323 -0.740212 1.091677 1.275415 0.663065 -0.294951 0.190712 -0.878543 -0.144833 0.095413 -0.046558 -0.461209 0.460725 0.958461 0.761062 -1.107336 -1.945623 0.080549 2.530740 -0.361601 0.225344 -1.609348 -0.455824 -0.285078 0.681322 0.410795 -0.053708 -0.330919 0.291339 1.263711 -0.323680 -0.038927 -0.166108 -0.581743 -0.120722 1.374448 0.425146 -1.073930 0.656883 -0.405262 -0.174255 0.459262 0.084731 0.087773 0.236797 0.505676 -0.428002 -0.634915 -0.345531 0.102838 1.053537 -0.922995 -1.640967 -0.639446 -0.121761 -2.174757 1.274016 2.517376 -0.565471 0.110946 -0.485929 -0.914230 0.221358 -0.596903 -0.122980 -0.013709 0.204261 1.669551 0.777730 -1.207641 0.875567 -1.187618 0.703786 0.377442 2.055872 0.020106 1.247078 -0.715636 0.321372 -2.368251 -0.316590 -0.658358 -0.729473 1.299975 -1.048687 1.760135 -0.757887 -2.242306 1.178043 -0.245850 -0.013118 0.934317 0.418802 -2.395764 1.468091 0.373381 -0.422149 1.349630 0.635722 0.659740 -0.732535 0.925509 1.841449 0.712506 -1.118055 -0.195963 0.628436 -0.274099 -0.370149 0.552302 0.061225 1.226230 -0.431137 -0.804923 -1.708955 0.712430 -1.730395 -1.102427 0.489759 1.326240 -0.672579 -0.314846 -1.618097 -0.371778 -1.146431 2.357757 -1.468131 1.025894 0.481697 0.635068 -1.811894 -0.200097 -0.724179 0.594792 -2.244246 -1.710801 1.682598 1.051523 0.528930 -1.415764 0.770945 0.442216 1.957437 0.628316 -1.006897 -0.554347 1.899726 1.903134 0.437598 1.426565 -1.152323 -1.891280 -1.132115 0.363476 0.094063 0.789164 -1.045082 0.706770 -0.633028 -0.036338 0.949071 -1.244486 0.666035 1.992717 -0.742456 -0.521019 -0.732371 0.024681 0.182503 1.118070 0.589676 -0.177130 -0.806132 1.439049 0.487331 0.178849 0.661068 -0.731372 1.099293 -1.867354 -0.009376 -2.195865 -0.930191 -0.547329 -0.773171 -0.098310 0.436462 0.667007 -2.284642 -0.096874 -0.866677 0.116386 1.065244 1.186731 -1.389794 0.183062 0.475993 1.309482 1.131484 0.128794 0.853591 -1.832957 0.267800 -1.519637 -0.019153 -1.222988 0.218359 -2.586294 -0.378654 1.363648 -0.714246 0.252250 1.177419 1.546699 -0.457268 -2.232121 0.272939 -1.771463 0.014103 0.087417 0.870139 4.572762 
white -0.494793 2.569941 -1.675895 1.893119 0.668986 -0.014745 -0.955498 -0.921048 -1.988060 -0.239467 2.430475 -2.453789 -1.437405 1.568060 -1.687826 -0.462479 0.126332 -1.083468 -0.076952 0.661856 -1.013053 -0.884415 -0.639341 1.130439 0.034250 -1.343266 -0.070196 -0.057749 0.030791 1.178631 -0.746616 1.888111 1.644523 2.182905 -0.567263 1.351211 -0.626815 0.216006 2.537735 -1.136498 -3.149087 -0.937609 0.615436 1.293820 -0.729517 0.696423 0.874613 -1.004321 -0.204024 2.434880 0.038441 0.154276 -0.663460 -1.755355 -0.996670 1.541495 0.045612 -1.020942 -3.560055 -2.392081 -0.759619 -0.770318 -2.408238 1.867745 -1.931182 -0.837586 0.284240 0.639636 0.687513 1.481434 1.739331 -1.478026 0.086176 -1.951115 0.864493 2.639360 -1.211692 -0.666053 -0.233757 -1.385038 -0.165797 -1.680255 -0.571721 0.988128 -1.785863 1.609217 -0.886112 -0.811275 -1.372699 -0.452070 0.798887 0.214163 0.152571 -3.014988 -1.034792 -1.166089 -0.710593 -0.154128 2.276644 -0.521282 -1.038452 0.935020 -0.251176 -0.244557 -0.045617 -1.206841 0.265572 -0.991934 -0.051803 0.111209 0.726695 -0.445570 1.226521 0.974793 -0.539221 0.846907 0.067503 -0.393673 -0.385193 1.634029 0.324197 -0.981810 -1.381277 -0.134417 1.837996 -2.224509 -1.279246 1.265700 0.190415 -1.379801 -0.850600 -0.519949 -0.522733 -1.865922 0.664205 0.420400 0.911684 -0.615163 -1.425598 0.306019 0.761780 0.988312 0.608135 -0.666389 -0.092371 0.298168 0.984616 0.696475 -1.027428 -1.950419 0.067653 -2.061440 0.448186 0.047666 0.173482 -0.502149 -0.954831 -1.519079 -0.578685 0.898548 0.297661 -1.081970 0.243705 0.607089 0.151194 -0.282666 -0.658213 -0.105881 2.174486 0.703013 1.450862 0.102399 -0.958316 -0.753859 1.353908 2.489866 -0.494453 -1.051136 0.753082 -0.671562 0.006280 0.062673 -0.149186 -0.175998 0.353723 -0.130348 0.147736 -0.911127 -2.201210 0.099184 1.214021 0.310027 0.012681 -0.226730 0.207570 1.067201 -1.301019 -0.427312 1.388123 0.849190 -0.230980 -3.034645 -0.400474 0.464035 -1.021008 -0.803601 1.245441 1.766588 -0.586477 -0.306394 0.581661 -0.142605 -1.872177 -0.942483 0.505138 1.209942 -1.160829 -0.968425 -0.758028 0.168328 -0.292484 -0.682601 1.074129 1.336980 -0.546724 -0.305436 0.240867 0.237590 -0.592081 0.239976 -1.619945 -2.313489 1.272607 0.392466 -0.708525 1.018418 0.269641 0.207696 -0.412626 -0.338403 1.437873 -0.106715 -0.030916 -0.078442 -1.573454 0.919600 0.927336 -1.480702 0.475065 -0.197044 0.175070 0.012899 0.524731 0.797333 0.627861 1.515220 -0.968398 -0.467998 0.704911 -0.545791 -0.861268 1.119074 -1.343578 -0.291784 0.441169 -0.520317 0.839729 0.265388 1.891172 1.433984 -0.860558 -0.651792 -0.333651 1.426139 1.083607 -0.519387 -0.874687 1.890753 -0.998786 0.491292 0.721462 -0.211916 -0.690241 0.847258 -0.834520 0.767015 -0.614621 -2.614280 0.753612 -0.970305 0.072482 0.868628 -0.078152 0.059173 0.396121 -0.036159 -0.124415 1.288566 -2.583276 -3.248950 
on -0.384593 2.763451 2.026629 -4.012812 -0.068125 -1.374342 0.674786 -1.387922 1.711279 -1.803759 0.343371 0.838614 0.588086 -1.137460 -1.309760 0.788207 0.625762 0.458645 -2.618190 -1.145289 -4.111509 2.284778 0.428254 -6.501692 1.018184 -2.012650 1.718653 2.395593 2.421252 -0.238865 -0.773960 -0.921269 0.653847 -2.900293 0.430406 0.651764 -0.885089 -0.303142 0.524988 -0.175933 0.670940 -1.564628 0.129449 0.532729 0.237399 0.056219 -1.141466 2.561811 -0.764771 -0.030316 0.918790 1.116816 -0.118648 -0.107192 0.448945 1.374495 -1.227193 -1.717436 -2.234921 0.171715 -2.967756 -0.985843 -1.896587 -1.197469 2.265696 -0.023627 0.371171 -1.097042 -0.756634 0.311431 3.286092 -1.524144 2.248818 -1.785069 -1.572976 -0.403801 1.706635 0.860063 -1.645296 -2.011979 -0.622674 -0.834372 2.345153 -0.684355 -1.854771 -1.015050 -0.845891 0.470420 0.631096 1.161603 -0.729139 -0.486832 2.057390 1.063004 0.321744 0.286894 -2.749142 -0.051260 2.147663 1.456638 -0.525793 0.396543 0.104770 0.863937 0.736966 0.828226 0.274955 0.691501 0.576457 -0.097375 0.742111 0.580094 0.346424 -1.136102 -1.554238 0.193981 -1.386043 0.299115 1.194774 0.909319 0.770548 1.001414 0.974677 0.214125 0.204859 1.630053 0.114912 0.854096 -1.451173 -0.699641 2.475584 -0.012255 0.117467 3.107450 0.357919 -0.895793 0.911089 -0.231885 2.106793 0.746786 -1.573889 3.255258 0.841122 -1.310086 1.179690 -1.140262 1.398862 -2.304385 2.084552 0.291693 0.337755 -0.033077 -0.117312 -0.062081 0.521985 -0.052808 1.031283 2.403605 0.066690 -0.515163 0.407057 -0.011009 0.962186 -0.849140 -0.166843 1.595391 0.416486 1.392992 -0.549862 -0.688024 -0.926049 0.649822 -0.237378 -0.383655 0.090805 1.232218 0.187976 0.225128 0.459374 -0.764029 -0.746020 0.417370 -0.390072 0.187602 0.263679 1.267797 0.225502 1.414557 3.092073 -2.360798 0.887918 -0.439563 0.528760 1.892948 -0.440535 2.277761 -1.197579 0.011160 1.728390 1.103782 0.035592 0.296676 0.985270 -0.913803 0.605110 0.286859 -1.995095 -1.391880 1.139625 -1.792053 0.419405 -2.914964 2.956357 -0.914480 -1.258369 -2.872612 -4.875058 -0.638142 0.570235 -2.805673 0.037374 -1.398617 -0.097717 1.373088 0.937176 1.980034 -0.840230 -0.389375 1.083850 0.317152 2.169525 0.724446 -0.205200 1.112946 0.763171 -1.662933 0.439425 0.721344 -1.157645 0.024249 0.597525 0.543531 1.148034 -1.343157 -1.779957 1.671069 -1.692492 0.555626 -0.365132 0.865689 0.262386 0.666545 -1.299382 -0.963335 0.050238 0.444440 -0.651858 0.297211 -1.417693 1.679267 1.240685 1.026186 0.735243 1.052855 -1.359014 -1.833680 2.709779 0.017900 0.948927 0.690889 0.403720 -1.916707 1.820246 -1.732583 -0.385230 -1.183769 -0.260270 0.872446 0.121280 1.460649 0.545560 0.982938 0.561284 2.219848 -0.630414 -0.393145 -0.707040 -0.330402 0.175831 -1.762032 0.204071 -0.313357 -0.368578 4.580013 1.153131 1.072848 1.359426 0.079060 -0.093862 -0.992641 
hair -1.263955 1.901863 -0.006172 -0.617608 -3.434999 0.247927 -1.241508 -2.925856 -0.702319 4.265332 -1.963944 2.426004 -0.475174 -2.001487 -0.597475 -2.360004 1.102836 -1.220805 -0.254288 -0.470452 -1.328593 -3.567002 -1.553860 1.284485 -0.140257 2.767057 1.780442 3.373430 1.756122 3.232134 -1.138182 3.294361 2.987753 1.771920 -1.200088 4.059097 -3.476327 -1.095833 4.677597 2.381604 -0.475035 -0.915563 -0.561827 0.041930 1.797567 0.787637 -0.244680 -1.384964 0.256116 -2.485664 -0.216225 2.812101 -0.289251 -3.696646 -4.525724 -0.370319 0.396201 -1.469261 -1.204753 -1.523655 -3.708194 1.037529 -3.685247 0.090429 0.972165 -1.383199 -1.385613 1.902599 0.110225 -1.161441 -1.611124 2.867140 -1.374588 4.272569 2.884523 1.689863 1.673237 0.542809 3.960464 1.355491 -1.426723 1.471056 -2.123283 -3.514181 -0.384579 0.274592 -0.430844 -0.181802 -1.254736 0.903636 0.578904 -0.704692 0.331245 0.276347 -0.673314 -0.424490 -3.286203 -0.276059 -1.451267 1.631849 -0.659513 -0.005901 0.383992 -1.610611 -0.566117 0.897648 0.975472 0.674111 0.578524 2.760429 -2.825004 0.955017 1.382182 -0.920218 -1.077476 -1.962988 0.095443 -1.927151 4.442185 1.000714 1.082190 -1.338972 0.430467 -0.286920 1.338211 1.548875 0.227345 -0.268822 0.689334 1.087912 0.408819 -0.535814 -0.614004 -0.186129 -1.090528 1.225685 1.072264 3.013936 0.895876 -0.065832 0.772765 1.365272 1.640696 -1.977259 -0.266703 0.644541 1.487777 0.047229 0.702999 0.248344 1.030903 0.028275 -0.621536 -0.252884 0.252687 1.223104 -0.157811 -0.554563 -0.932830 -0.078149 -0.989632 -0.071666 1.127344 0.316446 -2.265274 0.121348 -0.888097 -0.604288 -0.516885 -0.688873 2.114313 0.450605 0.337125 1.026876 -0.800223 0.084938 0.396410 0.390286 -0.708441 -1.806371 -1.356170 -0.049479 0.979432 -0.213899 2.329608 -1.445850 0.207527 -0.050197 0.882936 -1.234720 -1.385302 1.248882 1.133469 1.807984 -0.003077 0.057489 2.986050 -0.358552 -0.904635 1.457161 0.474764 0.637911 1.858283 1.379138 -0.122856 -0.814291 -2.959501 -1.754177 -0.326867 -0.318734 -2.041959 1.336182 0.146400 0.250294 -1.440896 -0.660240 3.076905 0.158582 -1.340532 -1.028318 -1.649356 -0.646657 0.353802 -1.525205 -0.106167 -0.940284 -2.089906 -2.754150 1.243308 -0.541909 -3.208683 0.956301 0.520262 0.199424 0.396634 1.223317 0.741697 -0.104865 -3.325989 0.078739 -1.566848 1.670837 1.272097 -1.870781 0.076171 -0.390897 -0.431151 0.394874 -2.310971 -2.438342 -2.071719 0.129643 0.791806 0.634043 -1.212948 -1.318834 0.558267 -0.373902 1.226212 -0.712799 -1.505654 0.971456 0.372172 -0.047477 -2.443441 1.121943 1.477426 0.294438 0.284218 -1.803748 -0.129291 -2.113399 0.657411 -0.037904 -2.181520 0.397851 -0.552886 -1.508684 2.502145 0.476014 -0.715002 0.186031 1.714512 -1.991952 2.422919 0.945493 -0.409548 1.053303 1.083407 -0.908995 -1.405627 0.543283 2.637018 3.164062 0.285519 0.639663 1.183968 0.118796 -0.542103 1.111610 
in -0.721305 3.085207 5.076555 -0.885637 -0.581743 0.494258 0.015786 -2.893592 -0.351503 -0.688533 -0.785216 1.318561 1.052687 1.011959 -2.251542 1.441682 0.145687 -0.709830 -0.259268 -1.716710 -0.055790 0.340581 -2.928849 0.133500 0.655847 -0.116238 -0.406987 -1.458658 1.980566 -0.602406 0.599824 -1.138829 1.814907 -3.209591 -0.964988 2.223900 -0.667905 1.530039 -2.487073 0.259641 1.456123 -0.547849 1.408922 0.672022 1.283403 0.805335 -1.215894 2.058223 -0.285654 -2.617692 1.828427 1.583700 -1.978256 -0.420812 -0.012234 -0.716965 -1.167802 -0.070519 -0.695802 1.405831 1.842541 -1.174398 -0.515839 -1.444600 1.179583 0.312720 -1.724532 0.727536 0.576596 -1.595984 0.439564 -2.847604 2.851031 -2.059357 -1.327879 -0.728088 1.703171 0.777325 -0.069444 0.027156 1.612898 0.410357 1.029471 -1.207203 -2.075970 -2.318676 -1.929282 0.880154 1.086730 -1.269626 -0.989815 0.031521 0.301388 3.322733 0.167438 0.185226 -2.343722 -0.525041 1.249751 2.694732 -2.244447 -1.349061 -1.544629 1.211511 1.074791 -1.167669 -0.070237 2.318910 2.667203 0.299603 -0.371400 1.344877 -0.731378 0.285719 -1.766106 2.663911 -2.619790 -0.234647 -0.685224 -1.010891 0.127350 -0.214875 -0.154989 -1.634641 1.000220 1.707349 -0.046120 0.977585 -2.452624 0.340240 1.066620 0.491329 -1.657726 -0.328519 1.654713 -1.149383 0.269454 -0.770754 0.320572 1.080015 -0.523630 1.961476 0.860748 -1.325874 0.527100 1.609147 -2.014348 -0.667561 -0.853431 2.079772 1.055986 -0.022931 -0.174651 -0.131265 -0.321097 1.221909 0.993542 -0.009401 -0.603966 0.535782 1.731998 -1.149847 0.492369 0.549325 0.370498 1.714054 -0.953635 -0.176939 -1.411867 0.058215 0.421558 -0.737660 1.136556 -0.197609 -1.317070 -0.526425 -0.136482 -0.542377 0.288316 -0.393742 -0.283312 -0.672875 0.721778 -0.218397 0.296244 -1.237195 -1.417730 0.422487 1.458779 -0.448545 0.769972 0.115941 0.718519 2.341090 -1.317057 -0.240783 0.355947 1.331148 0.065964 0.077536 2.004144 4.028701 -0.114446 -0.140717 0.366800 -0.921148 -1.016948 -1.096958 0.910342 1.127757 0.123805 -0.636804 1.805811 0.116808 -0.803952 -1.918829 -3.861256 0.579195 0.948633 -3.288558 -0.573173 1.353738 -1.044223 0.213569 0.304178 1.061656 0.781350 -0.096931 -1.468895 1.534498 0.947163 0.057463 0.283112 -2.094507 0.267605 -2.016499 -0.394506 -0.801512 -1.257392 0.964555 0.399672 -0.580380 -1.057037 -0.196724 -0.975455 0.314903 -0.206900 0.416768 0.325142 1.992289 1.581863 0.676571 -2.731164 -0.569143 1.250471 -0.487252 -0.367946 1.302769 0.316114 -0.865979 1.862600 -0.285549 -0.046553 1.508537 -0.202988 -0.359613 -0.155846 -1.096440 -1.335699 -1.240859 1.106146 -2.381135 2.163355 -1.459705 -0.784730 -0.092235 -0.829968 1.648056 -2.080268 0.954904 0.033278 1.218965 1.089330 0.643524 -1.446816 1.007911 0.847077 -2.813660 -1.536599 -0.020065 -1.604352 -0.200209 -1.890930 1.817479 0.564408 -0.395378 0.608395 -1.345656 -1.322016 -0.673085 
her -2.359971 -4.022160 -0.513215 0.177483 1.879785 -0.495606 -0.222695 1.386636 -0.662209 -0.634652 0.244567 -2.186227 0.165439 -2.254414 -0.639980 0.820932 -0.713461 0.269293 0.511102 0.010704 0.576596 -0.159282 -0.275479 0.658144 -0.834478 1.491011 -1.359412 -2.358342 -0.990842 -1.551769 0.225267 -1.287396 -0.305419 0.271147 -0.743832 -2.596403 -0.352070 2.425205 -0.515470 -0.972585 0.268070 3.255281 0.711747 -0.021296 0.112846 -0.950352 -0.699440 0.406748 -0.513189 -0.191083 -1.272163 -0.301173 -0.757895 -0.787520 -1.177885 -0.932192 2.700837 -0.534202 -2.209539 0.145956 -1.655867 -2.337099 1.003957 2.098675 -1.955149 1.096419 0.301758 -0.939605 -1.102289 2.599499 2.922896 -2.767895 -1.790813 1.318135 -0.061240 -1.610138 -0.138132 -2.602520 -2.376537 -1.772681 1.426407 2.670147 2.723423 3.799431 0.178896 0.189342 -0.334804 0.921260 -1.746842 -0.385534 1.398898 0.750522 -1.502188 0.107021 0.400316 -1.861113 1.476378 2.185266 -0.552911 -1.642405 0.837211 0.674739 -0.041994 0.719196 -0.923996 -0.632158 0.643770 -0.412419 -2.478009 -1.037310 0.502171 -1.516187 1.391277 -1.249679 -0.447164 -0.021899 1.134362 2.131909 0.491733 1.291810 1.312788 -0.060823 0.510168 -0.869462 -1.933235 -0.750452 -0.722293 0.850098 1.228890 -0.091084 -0.461796 1.022640 -0.531211 0.918891 -0.234183 1.353242 -0.275215 0.989894 -1.354559 0.648324 -0.784581 -2.241222 -1.840767 -0.773667 0.518750 1.598940 -0.196986 -0.412326 1.251510 0.838886 0.521285 1.103721 0.089000 2.027493 -0.111490 0.006896 -0.764520 -0.077737 0.231219 0.757436 -0.380309 0.932421 -1.545564 0.692527 -0.767512 0.128739 0.904104 -0.776755 0.498908 -0.841558 0.951897 -1.476426 0.370132 -0.004578 0.870628 -1.005748 0.568353 -1.164277 -0.118377 2.124677 2.029263 0.676298 0.159617 0.494628 1.938560 0.185103 0.551053 0.718916 -2.046638 1.090201 1.156672 1.390732 0.429816 -2.047689 0.343430 -1.202304 -0.685277 -0.131147 -0.890952 1.252611 -1.703393 -0.318976 0.202241 0.505439 0.303989 -0.358715 2.420968 0.218950 -0.051760 0.387286 1.423066 0.426060 0.757325 0.647650 -0.280167 -0.256630 -1.805960 -0.237550 0.421180 1.462271 2.038105 -0.732934 -0.706466 0.494746 1.058246 1.583361 0.287975 2.182045 -0.967149 0.072426 0.085439 0.600754 -1.063212 -0.640445 -0.135294 0.216205 0.201193 -1.729480 0.714657 -0.653371 -1.110271 -0.961813 0.651659 -0.552915 -0.495667 0.732893 -0.929203 0.581136 1.369217 -0.676237 -1.230730 0.495384 1.860243 0.323827 0.052288 -0.993357 -0.845035 -1.760972 0.725693 -0.557809 -1.078432 -1.672224 -0.128896 -0.858787 0.063739 -0.656996 -1.825823 -0.362132 0.164126 2.406413 1.195278 1.640980 -1.421047 0.482315 -0.072963 0.634044 0.271812 0.842829 -1.030806 -1.553311 0.607069 0.125896 -0.726107 1.502898 -2.138571 -0.190597 -1.392689 2.000120 0.667361 0.020348 1.806448 0.089628 0.269185 -5.934042 1.758445 -2.075113 1.877181 0.354972 0.511937 2.881353 
dark 0.257665 -0.926846 -1.035581 -0.111433 0.827101 -1.000849 -0.267200 -0.755532 0.637185 0.457696 1.136078 -3.027735 -0.622446 0.845235 -1.397994 0.982352 -0.474553 -1.203508 0.777066 0.765042 -2.590221 0.878567 0.805762 1.380929 -0.706403 -2.326561 -0.331490 1.348749 -1.115227 -0.205235 0.661811 -0.796514 -1.760827 0.045302 0.156952 -0.817190 1.995043 1.038447 1.421141 -1.785529 -1.342251 0.753135 -0.437521 0.140606 -0.948035 -0.588349 -0.970397 0.609393 2.165828 -0.708667 -0.878741 0.747246 -0.857757 1.520325 1.136998 0.023448 -0.519283 2.301169 -0.363219 0.172798 2.837283 -0.677210 -0.078504 -1.183499 -1.649551 -0.855759 1.908383 0.984085 0.726699 0.880604 -0.431489 -1.904330 0.948607 -1.533293 -3.759593 0.483912 -0.570969 -0.715660 -0.601738 -0.871390 0.722686 -0.104717 -0.035006 1.007257 1.557721 1.327275 -0.191296 -0.322890 0.119647 0.357099 -0.014625 1.295676 2.029660 0.702396 -1.431160 -0.179605 -0.246975 -1.132624 -0.629023 1.238587 0.140918 -0.350058 0.101833 -1.221421 -0.093281 -0.375675 -0.455087 0.425655 -0.030870 -0.697925 2.112520 -0.023774 -0.900842 0.616979 0.824589 -0.725500 1.070242 0.229248 -1.037602 -0.675550 -0.740676 -0.689254 -0.202485 0.252107 -0.482662 -0.354333 0.075941 -1.455931 -2.505047 -0.006579 0.656650 0.942457 -0.066561 -1.174831 0.445354 -0.653430 -1.240677 -1.401473 0.825130 -0.339999 0.724754 0.481315 0.360112 -1.449191 -0.197772 0.830430 0.314280 -1.020800 -0.161149 -1.905594 1.449180 0.821150 -0.227812 0.781304 0.401070 -0.636588 -0.215252 -1.724931 -0.084947 1.095688 0.207267 0.381613 -0.985500 -0.385142 0.477191 0.184516 -0.561764 -0.666009 -0.061347 -0.928144 -1.452024 0.290465 -0.586496 0.118962 1.033356 0.162879 -0.518383 1.101058 -0.210539 1.977556 0.691955 -1.342113 -0.167896 1.525247 0.215918 0.420768 -0.713230 0.486847 0.152079 1.728572 -0.332666 0.106324 -0.284924 0.438433 -0.066392 -1.148373 0.221097 -0.549200 -0.322165 -1.023369 -0.251409 -1.731298 -1.079487 0.119578 -0.033670 0.323403 0.452754 0.801902 -0.365033 -0.014522 1.322698 0.021341 -0.062284 -0.155191 -0.500424 -0.424465 -1.835535 -0.749707 0.729032 -1.005249 -0.871644 -0.803288 -1.588181 1.245543 -1.141531 1.138847 -0.251019 0.724212 -2.206920 0.506818 -1.104559 -0.395163 0.424139 1.205486 -1.783969 1.283885 0.764639 0.356162 0.367112 0.122354 0.998032 -0.236452 -0.033338 0.510514 -0.601141 0.195282 0.528371 -0.303311 0.351589 0.383201 1.022519 1.161762 1.774408 -0.455051 -0.183206 -0.096124 -0.097599 2.365498 0.911847 -0.321616 0.463569 -0.080802 0.460664 -0.842722 1.990464 1.038630 -0.102668 0.289456 0.554308 1.149233 -0.454167 -0.186728 -1.231237 1.314817 1.154395 0.437070 -0.992182 0.703570 -1.921512 0.919620 -0.439691 -0.003188 -0.073580 0.271098 -0.954238 -0.851998 0.133948 -0.821680 -0.085696 0.546810 -0.263801 -0.728491 -0.173678 -0.073436 -0.125754 -0.875158 -0.616925 0.419938 -0.732826 0.476622 
coloured 0.418080 -0.894369 -2.668094 -0.706447 0.757787 -0.709646 -1.675998 2.666877 1.674496 0.309766 1.614487 -1.896402 1.476318 -0.065935 -0.013977 0.877392 -3.108593 1.611099 0.998169 -1.061743 -1.170199 -0.097447 -0.043874 -2.452735 1.363721 -1.427915 0.795443 -1.480460 2.006105 1.217458 1.712748 0.114865 0.542818 -0.651496 0.388916 1.102504 -1.761151 1.480342 -1.757992 2.739616 1.112013 1.572371 -0.437362 0.127499 1.509101 -1.347675 0.236140 -0.021244 0.656939 -0.578022 1.500651 -0.397909 0.384922 -1.656676 0.591119 -1.829140 -0.535408 1.233999 -1.181109 0.302734 0.905961 0.250438 0.426983 1.666675 -1.101080 -0.277883 1.034302 -0.792409 -0.060972 0.897022 -1.216959 2.003564 -1.144036 1.918875 -0.249600 0.379927 -0.595470 -1.477058 1.169334 3.186165 -2.739315 -1.568378 0.512180 -0.447748 -0.755532 0.420215 1.279337 0.081846 -2.267639 -0.390933 1.251726 -0.451309 -0.209638 0.382099 -0.055845 -0.567851 1.096848 0.001090 -0.713137 -1.314035 1.162576 -0.383614 1.021564 2.063495 0.302966 1.224797 -0.327273 0.522129 -3.116068 -0.798941 -0.946362 -0.752361 0.887646 -0.274886 -0.492985 0.693642 -0.777806 1.859324 1.836708 1.153738 1.554541 -0.358597 1.374141 -1.268052 0.514440 -1.672830 -0.253435 -0.240524 0.637928 -1.192515 0.477650 0.649217 -0.192707 0.180089 0.222604 -0.797036 -0.605786 0.154581 0.406256 -0.843255 -0.269503 0.297545 1.409116 -0.539232 -0.069640 0.243869 -0.311018 0.102425 1.108004 0.499935 -0.720468 0.479798 -0.672787 -0.575669 -0.419785 0.838726 1.069530 -0.485778 0.648854 1.157578 1.648341 -1.084901 0.577350 -0.022909 -1.002045 -0.397909 -0.455757 -0.028190 1.516158 -0.342395 0.444856 2.382156 -0.587670 -0.204199 0.021870 0.095344 -1.657284 0.864195 0.900013 1.089940 1.229100 -0.276322 -0.216873 -0.342405 -0.549624 0.224481 -0.077689 -0.116807 1.119416 -1.304286 -0.656577 0.063599 -0.486149 -0.512682 -0.408990 2.330337 1.292987 -1.039386 -0.983510 -0.807321 0.181203 -0.834590 1.459485 -1.117641 0.889057 0.407461 -0.667697 0.807321 0.098212 -0.193009 -0.704424 -1.476179 -2.245101 -1.029277 0.002080 0.668156 -0.407071 1.101714 0.037577 -1.575763 -0.058193 -0.844294 0.750070 0.316126 -0.085357 1.332030 0.344051 1.021542 0.944735 0.174970 0.206805 1.445274 0.626038 -0.536966 -2.206975 -0.942523 -1.174138 -0.458358 -1.460536 0.807432 1.003988 0.224368 -0.732503 -0.113319 0.707577 -0.069977 2.047148 -2.477044 1.823581 0.361997 -0.225605 -1.176799 -0.232373 0.680181 -0.041314 0.794381 0.350407 -0.197378 0.474802 -1.074850 -0.659090 0.117159 -0.796845 0.429223 -0.015232 0.963174 0.680079 1.420334 2.047477 1.118760 0.734958 0.452057 0.176715 1.169266 0.280472 -0.481063 0.070317 -0.729432 1.025360 0.305063 0.515848 -0.923176 -2.250140 -0.694135 1.099263 -0.331303 -0.014032 1.161268 0.940843 2.256906 1.875750 -0.169295 -0.978557 0.814759 1.932008 0.558664 0.220049 -1.697623 -0.912449 -0.886180 
colour 0.516647 -1.791157 -1.828300 -0.648753 0.751211 -1.855916 0.484794 3.433489 -0.634084 -1.866173 0.798723 -1.691253 0.112602 -0.986173 -0.056296 -0.139413 -0.340698 -0.475902 1.135624 1.137866 0.939669 -1.965565 1.592339 -2.457812 -1.330768 -1.329677 -1.762108 0.882853 2.254284 2.289454 0.487847 0.151709 -1.151379 -0.682673 0.130672 -0.200936 0.510337 0.460904 -1.062399 1.324947 -0.386151 2.304890 -0.197526 -1.328316 0.818215 1.434433 -1.209825 1.139257 0.171047 -0.203001 1.264376 -1.112659 -0.772186 1.203855 1.963415 -0.387071 1.095322 0.476948 -2.203605 0.008245 -0.695870 -0.597377 -0.752116 2.321703 -1.677408 0.837553 1.159409 0.660977 -0.008555 1.902117 -0.475248 1.914193 -3.169086 2.034657 -0.620006 -2.098261 -3.173614 -1.163980 0.882053 2.946069 -1.497787 -0.890029 0.017807 -1.161843 -1.323248 1.281627 1.020972 -1.385950 -1.754164 -1.105982 1.574899 0.272069 -0.097766 -0.585120 0.411703 0.330313 0.738495 -0.848269 -0.661465 -0.608476 1.045416 0.110521 0.667133 -0.790115 1.186527 0.724213 -1.606417 -0.053778 -1.899347 -0.204913 1.574374 0.082025 0.545382 -0.689991 1.258967 -0.468759 0.497164 1.291503 0.268886 1.280136 -0.825159 -1.396995 -0.182842 0.444127 1.225620 -0.532589 -1.506945 0.945067 -0.612140 -1.037354 0.779061 0.458865 -0.643955 -0.299421 -0.906196 1.528325 -0.501194 1.579535 -0.476888 0.812880 0.546445 -0.337935 0.269075 0.370507 -0.406199 -0.187165 0.628984 -0.056226 1.786736 -1.200624 -0.677853 1.424064 -0.221697 -0.607165 -0.232547 0.725033 -0.050487 0.169929 -1.681384 1.227634 0.390642 -0.022661 -1.302760 -1.380572 -1.295701 -2.187869 0.900996 0.251847 2.683655 0.630769 1.414394 0.297686 -0.305386 -0.226174 -0.456953 0.336107 -0.761097 0.020568 -0.307867 -1.673793 0.056064 0.169301 -0.161457 -1.200342 -0.417754 0.026393 0.982743 -0.147139 0.282454 0.510300 0.439995 -0.160276 0.455285 -0.776152 1.022744 1.338654 1.798041 -0.938205 -1.392572 0.386002 -0.646278 -0.037548 1.406077 -0.312289 1.131099 -0.779116 1.202324 -0.398940 1.390021 -0.205122 1.196131 -0.476377 -1.912117 -0.596505 0.042129 -0.187435 1.502657 0.224946 0.601655 1.031897 1.524794 -1.176517 1.089680 0.374724 0.301382 -0.465186 -1.860801 0.079131 -0.213210 0.042435 -0.748824 -0.244265 -0.564131 -0.012716 0.610607 -0.758065 1.842647 -1.509545 -0.106756 -0.167770 0.565426 -1.113252 -0.698552 1.911013 -0.300118 0.716852 0.246418 -1.276340 0.196233 -0.763872 0.259626 -1.099788 2.642543 1.399777 -1.366889 -1.366750 1.549282 -0.122323 0.167897 0.245481 1.087057 1.065054 -0.940083 -0.052441 -0.335043 -0.216027 -0.663537 0.581177 1.026382 -0.535412 -1.445506 2.166239 -0.629051 -0.335882 0.038491 1.074565 1.754128 -1.805706 2.185457 -0.044334 0.066947 -0.970934 -1.463194 -1.321606 1.071030 -2.569322 0.125906 1.488792 1.508477 1.359993 1.736635 -0.120374 -0.079745 0.900508 1.200189 0.835205 -2.163834 1.024150 -0.151056 0.221714 
shoes -2.559428 0.693414 -3.852868 6.448217 -3.808689 1.465284 2.810902 -7.828980 -1.474202 0.371237 -1.638423 -1.217781 0.951063 -2.904191 -2.548001 -3.137093 -3.349411 -0.103811 0.433279 -1.083844 2.379350 0.010160 -3.219138 0.914994 -2.483497 -1.271323 -1.268136 4.635535 0.458941 0.923821 1.147280 -1.975652 0.310090 3.426868 -0.285644 -1.413535 2.085670 -2.822437 3.301679 -4.292102 -2.033108 -1.449757 0.040439 -0.320472 2.384536 2.148276 -1.747757 -1.048012 0.190418 -4.653486 -0.041222 1.071497 -0.145084 -0.283221 0.709791 -0.958993 0.357477 -0.455584 1.974344 1.643181 2.057287 2.206336 0.311969 -0.215625 1.174322 1.606385 -0.424276 -1.251111 0.407302 0.369910 -0.726073 1.285415 0.849109 2.071024 2.144090 3.146830 1.173825 1.767234 -0.389202 -2.025674 1.501510 1.103506 -1.697768 1.433110 -1.230980 -0.514465 1.053518 -0.791690 1.775767 -1.472249 -0.618710 1.220702 0.985898 1.837285 -0.903678 0.406250 -1.444851 -0.912911 0.169373 1.767422 0.627465 0.255205 0.011487 -0.290343 1.270269 0.364810 0.660899 1.788542 -1.816810 -1.040419 1.875504 0.731987 0.363299 -1.902807 0.985530 -0.202234 -0.705356 0.137798 -0.958138 -1.266255 1.653940 1.405794 2.230199 -0.198012 0.217905 2.029801 0.845478 -0.647584 -3.731005 -0.001129 1.569939 -0.202966 -2.112004 0.143449 -0.739821 1.802112 -0.484865 0.748267 0.029168 0.883016 -0.352429 -1.460757 -0.916548 1.306125 -1.392139 -0.991105 -1.693481 -1.445003 0.095346 -0.076769 -0.622321 0.746751 0.231423 -0.686033 -1.558221 0.401199 -0.751070 1.365844 -0.842172 -2.185477 -2.143759 1.963739 -1.827752 -3.225318 1.287799 0.874430 -2.017620 -2.323048 -0.524207 1.359488 -1.373662 -0.002349 -0.725484 1.310630 -2.895081 0.791966 1.738264 -1.421664 -0.424271 0.282381 -2.236650 0.468371 1.407688 0.115471 -0.416366 -0.560816 0.904620 2.764514 2.600338 0.568985 -1.172495 -2.086697 -2.401963 0.949080 1.616641 0.418954 2.309137 -0.404722 -1.076750 0.877474 1.083860 0.026790 1.555126 0.148306 0.407638 -0.702779 -0.725353 -2.095921 1.917305 -3.306945 0.759069 0.019529 1.324727 1.423272 -3.104773 0.132595 1.906515 1.715801 -0.681009 -0.477757 0.566346 1.639654 -0.422724 -0.658557 0.603005 -0.993922 -0.179289 -0.899783 0.175380 -0.627093 1.938865 -0.636452 1.181243 0.577269 1.049284 -2.059487 0.745028 0.462325 1.223092 0.227278 -1.133715 -1.140748 -0.387943 -2.051522 1.267660 0.232180 0.502767 -0.208356 -1.147241 0.200348 -0.277087 -0.129505 -1.404967 -0.501859 -0.858612 -1.804628 2.533588 1.416390 -2.135773 0.571152 3.215217 0.118559 0.919406 -0.959914 0.633207 -1.201268 -1.539430 -1.445951 -0.389319 -1.704630 -0.459656 -0.096899 -0.761448 -2.168735 0.405728 0.374566 0.489522 -0.853547 1.520658 0.197323 -1.039296 0.357126 -0.908339 -1.463466 0.461202 1.861104 -0.456842 -0.194729 2.215047 0.443142 0.138805 -1.084332 3.447099 1.665353 -1.553115 -0.946579 -0.373119 -0.476522 2.041966 2.451422 
pair -2.564486 -0.659002 0.343402 0.142270 0.159863 1.419385 -4.556005 2.269685 -3.785139 -1.582502 2.259615 -1.992709 -4.204247 -1.744967 -2.176691 2.038931 1.532646 0.695414 0.320973 4.167753 -4.020705 1.664625 1.690040 -3.205715 -2.506600 -0.186827 -4.984741 4.106346 2.873895 5.651356 -0.031023 1.614537 1.621664 -0.468409 1.324629 -1.289999 0.648594 -2.173162 -2.734806 3.755963 0.310232 -1.455844 -4.246818 0.186399 1.115262 -0.194943 4.578617 0.344213 -0.500891 0.767857 -1.949250 -0.386461 1.141819 -0.366784 -0.921395 -0.517439 0.779844 -1.544976 0.071917 -1.676773 0.167781 -6.277059 -4.431730 -1.837242 0.908844 3.137495 -1.614330 1.654765 0.832978 -2.206732 -1.827242 -0.762603 -0.503322 1.159190 2.235465 -0.883976 -2.263075 0.947279 2.565128 1.379024 -1.484026 -0.541570 -0.703392 -1.962225 1.476565 -0.054719 0.661583 -1.217746 2.359584 -1.693357 -0.189471 1.305919 -0.462866 -2.288993 -0.622575 -2.049161 2.203584 2.729329 -2.588479 1.610793 -0.040121 0.694885 0.973531 -3.087357 -1.082383 1.100648 -2.807930 0.881298 -0.262476 1.717999 -0.254580 1.185584 -1.467969 1.340310 2.200317 -0.750205 2.786362 1.767666 1.846282 0.560186 3.553253 1.373279 0.446949 1.765643 0.503314 -0.539711 -0.335542 -0.713881 -0.662764 -0.621294 4.311891 1.859399 3.151263 -0.434095 0.448285 -0.192696 1.961050 1.144485 -0.977128 2.889574 -1.322239 3.320358 0.805543 -5.270160 1.775222 -0.461584 1.989927 1.807755 -3.437618 -1.104592 2.263941 -0.410558 -0.263693 2.181833 1.863714 0.013372 3.559047 1.873277 -2.793819 -2.701925 3.288726 -1.724441 -2.184871 -0.297021 1.945044 -3.105954 -1.277648 -0.726745 1.286238 2.553192 -0.918426 -2.800098 -0.696955 -0.047619 -2.450067 6.750603 -0.786887 0.817282 -1.427680 -0.907620 -2.280510 -1.290923 -2.080012 -0.753492 -2.245523 2.063149 -2.564595 -1.103284 -0.392562 -1.854693 -0.953999 0.744913 -0.780589 -3.828392 4.465409 0.683572 -0.930963 3.667727 -0.266696 2.743577 -1.508157 1.032356 1.004651 -1.809656 0.449388 0.375700 -0.190686 -2.842214 0.065262 2.509642 1.672661 -0.829754 -0.162155 1.103129 0.672229 -0.924485 1.106814 0.997457 -1.361423 -1.233976 0.290332 0.419582 -0.429642 0.589426 -2.081025 -3.211975 2.006564 -2.502332 -1.024403 0.801394 -0.144367 0.814716 -2.052449 0.991110 -0.264635 -0.585035 0.298996 2.177876 1.242400 -2.289276 3.850862 -0.928742 -3.027301 1.970237 0.628248 0.464385 0.326668 -3.268598 -3.950469 -1.005161 -0.962027 -1.423523 2.957500 -1.796893 -3.044658 -1.902544 4.455498 -2.714339 3.519247 1.704261 1.264287 -0.111801 -2.347133 -3.069369 0.689112 2.426498 -2.513447 1.254771 1.935100 1.943761 -2.973153 3.197843 0.889244 2.819365 3.351785 -1.890318 -4.002985 3.149573 -1.803627 3.222357 1.542473 2.150023 -0.419985 3.148189 -1.977757 2.589465 2.652684 0.535758 -1.084975 0.119496 0.079916 -2.772847 -0.254315 -4.289166 2.489975 0.051097 -1.494635 -2.687194 3.888817 4.284143 
short -2.029449 -2.732209 -0.149569 1.580375 2.134493 -0.594712 1.185839 -2.430425 -0.745035 0.423297 0.639825 -5.129713 2.197223 0.415340 -1.150638 -1.013552 -1.225658 -1.391659 0.973287 -0.471537 -2.314578 2.021881 0.184957 -2.555551 -0.143680 1.201035 -1.937513 -0.785408 1.336023 0.753574 1.086871 -1.753238 2.119292 1.280109 0.633414 -0.923684 1.144527 -1.281522 -0.647989 -2.058513 -1.100804 0.995387 0.169892 -0.469946 -0.035685 0.151464 -1.569962 0.750179 -0.705068 -0.554878 1.049118 -3.375564 -1.114560 3.744062 3.377339 -1.151285 -0.058904 1.447373 -0.096361 0.858969 2.704008 -1.038569 1.508290 -0.286347 0.734327 0.623020 -0.914534 -1.744878 2.277643 0.127135 1.208710 -0.359678 2.054962 -2.874969 -1.694045 -1.200927 -0.260011 0.555414 -0.327812 -1.947216 -1.348938 -1.375463 -1.550537 0.443029 -2.817177 0.304642 0.028929 -1.898586 0.003798 -3.258672 -2.056186 -1.000415 -0.833480 -0.980665 1.083461 1.948975 0.854122 -2.393804 0.728976 -2.515705 -0.889243 0.005760 -0.021437 0.801098 -0.240067 -1.405259 0.080366 0.166714 1.875311 -1.946841 1.018658 0.158474 -1.105692 1.328924 -0.535262 0.740847 -1.838105 2.748899 -3.227989 -0.466841 -0.531979 0.769972 -0.821001 0.512760 -0.868959 0.996798 1.765877 1.675332 -0.694853 -0.770132 0.800121 0.164069 0.829056 0.788249 1.427915 -0.380784 -1.099179 -0.950148 -1.476090 1.371975 0.449533 -1.424104 -0.146811 -0.173978 -0.810649 -2.804137 0.154012 0.648304 -2.510230 -0.644702 0.246252 1.363387 -0.344466 0.489465 0.022979 0.000957 -0.251545 -1.000374 0.237133 0.683687 0.054532 -0.491861 -0.290226 -0.949341 0.461765 0.228876 2.578554 0.425994 1.310724 1.005216 0.056564 -1.057412 -1.365718 0.536555 1.329804 0.008603 -0.840094 -1.488657 2.220755 0.306476 1.272360 -0.393245 -0.455268 -2.341218 -2.311880 1.127943 0.340137 1.592987 -0.009522 -0.423473 0.765268 -0.249949 -0.804628 -0.503172 1.286212 1.101931 -1.268268 1.357439 2.163521 0.126028 1.108928 -3.328093 -1.001607 -2.147529 -1.361422 0.684245 1.494398 -0.087010 -0.134060 -2.257470 0.947598 -0.463205 -0.761599 0.466423 1.911137 1.056330 0.728870 -0.105173 0.175088 2.305556 2.633115 0.738420 1.027096 -0.862649 0.009228 -0.893659 0.597594 0.115436 0.984394 0.311481 1.169722 -1.059574 -0.687781 0.324628 1.098446 -1.762877 -0.350521 0.629255 1.287935 0.474829 0.709599 -2.087964 0.112474 0.626526 -0.904022 0.116513 1.473199 -0.796925 -0.138918 1.262494 0.801331 1.156982 -0.819611 -0.502517 1.616263 0.843921 0.445308 0.688216 -2.439555 1.067293 0.699354 -0.617547 -2.331944 -0.565335 1.070021 -2.308301 0.231518 0.005321 -3.110808 0.513630 -2.225674 1.788773 -2.647949 1.633909 -0.377218 2.035547 2.372592 0.090027 0.591039 -0.123029 0.548130 -0.730913 -1.105515 -0.953798 0.471109 1.726785 0.312023 -0.386326 1.271088 0.252172 0.482431 0.616618 -0.908979 -2.769530 -1.390512 -0.599478 -0.382440 0.984651 1.961615 -1.680806 
has 2.159367 1.774010 1.858327 2.045498 5.138237 0.827205 3.604713 2.138798 -2.041940 2.519772 1.773663 2.017076 -0.362007 0.973597 0.542466 0.380636 -0.748989 1.376463 -1.232433 -0.721586 -1.194888 1.167248 0.206513 -1.515628 1.997764 -1.498937 1.866857 0.580943 0.167584 -2.209716 1.080572 0.531569 0.649141 -0.525971 1.138056 -0.624044 -0.309463 -0.324270 -1.056747 -0.254699 2.572919 -3.674012 -1.642146 2.393596 2.672240 -2.434239 -1.077695 0.882200 -0.966603 1.795355 0.131363 0.142746 -2.199091 0.402237 0.360847 1.800221 -0.573187 -0.989925 0.133062 2.135324 1.766290 -1.891544 0.674138 0.747287 -2.459690 0.636365 0.541840 0.668984 -1.375052 1.189110 1.800121 0.044355 -0.975226 -2.168193 -2.051587 -1.814211 -3.548522 0.115663 -1.211913 1.977909 -1.803253 -2.540627 -0.201182 1.437676 -2.633265 -0.027045 -0.730984 -0.809376 1.644898 1.572995 0.892187 0.251462 -0.493645 1.909539 2.373064 -0.571009 0.003713 2.619910 2.259137 1.836765 0.778089 1.292368 0.140678 -0.238322 0.131893 0.293013 -0.287806 -1.008028 0.895147 0.375110 1.793574 1.331692 1.328341 0.076178 1.633423 0.278792 -0.762602 -2.625824 0.632479 -1.371655 -0.639135 1.006848 -2.034297 1.688886 -1.599532 0.824024 1.251362 0.609430 0.674166 -0.217722 -0.756748 0.507699 1.007634 0.305178 -0.103300 -2.143674 0.769444 -2.091100 -0.880765 0.569569 -0.637765 0.079055 -1.812390 0.123294 0.910773 0.579810 -0.364847 0.297868 0.473225 -1.804575 0.168413 -0.206246 0.573573 -0.577767 0.572230 -1.574603 0.421353 0.090559 -1.338385 0.437934 -0.035438 2.405716 0.243962 -1.216362 -0.635882 0.774527 -0.502435 -0.147250 -1.127090 -0.227389 0.447637 1.069865 -0.450944 -2.365875 -1.741624 -0.832864 -0.191047 -1.231139 0.425982 -0.869187 0.488481 -1.676127 1.059058 -0.458595 -2.407418 -1.554496 0.896421 -0.033396 0.363345 0.440665 1.120283 0.742648 0.571252 1.817617 -3.060199 -1.189300 0.213968 0.522301 -0.693095 -2.326818 2.308648 2.932566 0.520515 -1.988397 1.038926 0.396026 0.346105 -0.729954 0.040213 2.169053 -2.569835 -2.760848 0.899091 0.315521 0.239048 -1.743579 0.008270 0.031069 0.460515 1.010562 -0.507913 0.722574 1.390793 0.394339 -3.402318 0.438001 1.181251 -1.206419 0.001718 -0.331010 0.197975 -0.379582 2.580209 -1.254568 -0.626940 0.254821 -0.677951 1.018988 1.297920 1.736556 -0.190188 -0.850717 1.451963 0.644809 0.193521 -0.376673 -0.314426 -1.457201 1.415198 -0.075700 0.027350 -0.645799 -1.091209 -1.538850 -0.675226 0.012211 0.069514 -0.564954 -2.006332 -0.591894 1.163397 0.618508 -1.275537 1.041671 -0.447648 1.449986 2.013455 0.596829 -0.198606 -0.968886 1.338034 -3.078310 0.808830 0.304378 0.015682 -1.513262 0.863399 -0.263797 -1.542760 -0.200536 0.211991 -1.421961 0.158282 2.333956 -1.990748 -2.672803 -0.849507 -1.049010 -1.467273 -0.804476 0.658517 -1.345499 -0.281423 -1.068493 -0.698178 1.951088 -0.160974 -0.865327 0.163426 -2.083397 
or 0.807631 2.506269 -0.162048 1.166958 1.170948 -3.184268 -0.747689 0.283919 -0.437712 0.508677 1.023551 3.985073 -0.522337 -1.354882 1.105654 -1.821920 -2.117197 3.113515 0.726035 1.420488 0.039084 0.987698 -1.001708 -0.155280 -0.082887 0.127860 -0.289224 0.686580 0.680636 0.739278 0.672412 -0.688493 0.902737 0.012407 0.941420 2.113200 -0.210894 0.072439 -0.519879 0.806227 1.852317 1.196491 -1.269632 -0.156509 0.204729 0.242408 0.444639 -1.130503 0.653170 -2.150435 1.239263 -1.231036 -1.237461 -1.314180 0.729784 -0.537843 0.726222 -0.461988 -0.909223 -1.402000 0.624506 -1.693244 0.902088 0.069899 0.759791 1.943083 -1.073959 -0.186122 1.325277 -0.473945 -0.952976 0.842829 -0.950379 0.399055 -0.586969 0.478186 -0.436051 -1.539627 0.257042 1.557781 -2.442741 -1.009933 -0.921207 -0.628025 -1.691065 -0.477110 -0.539656 0.330055 -0.372883 1.335820 -0.319313 -0.293996 -1.737109 -0.054535 0.885765 -0.753165 -1.247836 -0.185382 0.282493 -0.060317 -0.736731 0.147150 -0.287053 1.747680 0.217412 0.983985 0.000671 0.812919 -0.938734 0.691123 -1.937121 -0.156888 -0.545070 -1.118403 0.833733 -0.329604 -0.806577 -0.567307 0.545672 -0.228140 -0.223501 0.131908 0.402218 -0.052469 -0.223503 0.500720 0.611568 0.225164 0.654565 -0.327309 2.077600 -0.811785 0.455756 0.179606 0.523829 0.153991 -0.944265 0.897650 0.142828 0.088829 -1.597484 -1.325106 -1.234933 1.299397 0.103077 -0.337177 0.873496 0.024543 1.528531 0.434070 -0.510238 0.636686 -0.530233 -0.728776 -0.850572 0.175397 1.377244 0.649303 2.177583 -2.110416 -1.290735 -0.274583 -1.205480 -1.113583 -0.623782 0.397820 0.546121 -0.184536 -1.361416 1.477844 -1.282052 -0.729430 -0.153734 2.588214 -0.448942 2.427531 -0.314018 0.612871 0.233131 -0.609983 0.294426 0.530371 -0.214705 -0.711309 1.432719 -0.131338 1.461848 0.794609 -0.378741 -0.067755 -0.109724 -0.518268 -1.096831 -1.553473 2.049913 -0.342373 0.309318 1.105516 -0.301497 1.737841 1.020702 1.778831 -1.538731 -0.607546 0.795648 1.039600 0.069590 -1.019394 1.233121 0.510467 1.740746 0.366346 -0.493999 0.247506 -1.014451 0.032226 0.251243 2.106638 -0.318120 -1.965806 1.194156 0.519055 -0.277066 -0.704291 2.875420 0.273283 -2.264235 -0.590018 -0.947486 -0.063450 1.979523 1.325300 -0.154835 0.069000 -0.405737 -0.494404 -1.093149 0.856655 0.098863 -0.272707 -2.957273 -0.093318 -1.462042 -0.189390 0.536952 -1.519262 -0.298053 0.131602 0.150676 1.170982 1.171546 0.383477 -2.190068 0.412741 0.551160 1.226735 -1.452041 -0.255925 1.218205 0.328524 -0.833734 -0.900414 0.706618 0.186135 -1.348775 -0.881804 -1.215356 0.327226 -0.562342 1.460485 1.441930 0.008907 0.648378 -1.388162 -1.106110 -1.110968 0.011533 -1.276898 0.892933 1.268784 -1.736522 1.781223 0.192379 1.058926 -0.980479 -1.695417 -0.178496 4.069340 0.245660 1.756559 0.044674 -0.893579 -0.923130 1.318650 1.807938 1.265450 1.249010 -0.983388 2.243153 2.172439 
grey 0.324208 1.072430 -1.599288 1.086520 0.958586 -0.033173 -0.714123 0.185893 -1.090555 -1.215391 -0.474194 -2.898455 -2.134861 -0.561091 -1.242314 1.174266 -1.104969 -4.414826 0.364002 -1.416809 -1.667183 -0.528687 -1.163463 -0.341161 1.286129 -0.015498 0.255236 -0.370087 -2.468463 1.752370 0.073477 0.600792 1.992668 -0.547625 -0.889273 -0.221752 2.063797 -1.961642 0.167453 -0.799220 -0.873852 -0.346802 0.475008 2.022866 0.481404 0.142728 0.813361 -0.989871 -0.896360 0.972042 -0.135245 0.610217 0.238145 -1.229141 -0.647988 1.530327 0.429544 -0.246508 -1.108095 -0.819503 0.812076 2.082337 -0.985404 0.599809 -0.759611 -0.514367 -1.537187 -0.239337 -1.463023 -0.241834 0.964510 -1.657777 1.058612 0.066609 0.449588 -1.802307 -0.533083 0.384031 -0.719289 -1.604815 0.454406 0.125423 0.748712 1.264369 -0.204020 0.268772 1.206043 0.172669 0.828624 -1.207773 -0.132584 -0.990326 0.364487 -0.603621 0.898038 0.565074 2.083029 0.464531 0.938149 1.018229 1.214826 -1.263389 0.632937 -1.098092 0.484180 -0.985850 1.468462 -1.171421 0.310362 -1.123981 -0.218103 -0.657037 1.201697 0.295032 -1.107010 -0.058704 0.350500 -0.775232 1.826967 0.949367 0.322772 -1.307679 -0.672111 1.342617 -0.346318 -0.502127 0.880317 0.354780 -1.207902 0.312903 0.582111 0.405795 0.003806 -0.565593 0.681014 0.220001 0.450275 -0.357875 -0.696350 0.055392 3.200237 -0.635550 0.906357 -1.085367 -0.250360 0.077328 0.231453 0.821060 -0.827881 -0.951673 0.587438 -1.446438 -0.238873 -0.886271 0.226316 -0.492644 -0.377408 -0.554696 -0.464114 0.668088 0.282073 -0.365895 -0.684138 -1.026016 1.183999 -0.675704 -2.011313 -0.134350 0.841413 -0.743775 0.759745 0.409285 -0.392324 -1.907245 1.195622 0.154914 0.521696 0.801227 -0.681401 0.893259 0.061279 0.034175 -1.345950 0.245770 0.470942 1.127458 0.819828 -1.272548 -0.418012 -0.250479 -0.060488 0.118034 0.336727 0.873073 1.158048 0.376001 -1.218530 -0.670772 0.621830 0.378321 0.002103 -1.178128 -0.944331 0.233284 -1.216951 0.971818 0.446892 0.995227 0.421569 0.605717 0.788995 -0.376776 -2.576539 0.497140 1.757388 1.918475 1.392498 -0.202137 -0.002530 0.458687 -0.772463 -0.707309 1.858683 1.552767 -1.945898 -0.372645 0.395236 0.046243 -0.958378 0.087365 -0.388668 -0.042738 -1.386454 0.905010 -0.002958 0.678719 1.792808 -0.926952 -2.189250 0.638129 2.653408 0.796466 1.070473 0.824468 -0.204111 -0.371844 1.895613 -1.152147 -0.584240 -1.038141 0.162440 -0.456198 1.848572 1.035335 -0.423200 -0.581094 1.634748 -0.249186 -1.406680 0.134966 1.122656 1.291391 -0.801632 -0.588330 1.738457 0.984078 -0.995232 0.299622 1.801166 1.035677 -1.818760 0.038285 -1.087068 0.749322 -0.196712 1.440440 0.792127 0.531265 -0.964750 -0.346426 0.094879 -1.469486 -0.855614 0.141562 -1.052162 0.755135 0.058333 -2.058679 0.614413 -0.445697 -0.257053 0.614561 -0.808798 0.590851 -0.375890 -0.597857 0.286007 0.535603 -3.053980 -1.951712 
bag -1.422411 -0.194042 3.946974 5.221845 0.073932 1.088911 -4.272064 0.044416 -4.969639 -0.342418 -3.619149 -0.114886 -2.120233 2.421244 -1.010390 -1.563739 -1.040319 -0.025112 1.274247 1.030860 2.040208 -1.285887 -1.755721 2.467294 -0.077564 0.332229 1.056132 3.348351 2.798516 -2.299636 -3.110830 0.851770 0.958581 2.225656 -0.894492 -0.696237 -0.813662 0.115587 1.968213 1.649073 0.320680 -1.115838 -2.272432 -0.186215 -2.280325 3.751268 2.912786 0.427834 -0.597191 -0.661934 -0.025187 3.576772 1.419392 0.778620 -2.664887 -1.693484 -1.184449 2.439189 0.456214 -0.542233 -1.327696 3.242435 0.987782 -0.833247 3.493176 -2.114089 0.606080 -2.090614 1.406491 -1.140957 0.033095 -0.323723 -1.232988 -0.904744 -1.527729 -0.886334 0.045538 -2.467773 1.805829 2.961061 0.582767 0.292667 -3.266268 -2.001720 1.395337 -1.093454 -2.734695 0.121656 1.299145 -1.639496 -1.956144 2.406644 1.871012 0.055689 2.595998 3.302361 -0.071562 0.664583 0.357337 0.805000 -0.665090 0.883097 0.971663 1.282019 -0.314942 2.935369 -1.662868 1.232643 -1.141503 1.504228 -2.830805 1.030164 -1.770062 2.577936 1.280620 -1.835108 1.972596 -2.254685 -1.968271 -0.421812 -1.167683 0.394114 0.462522 -1.068241 -1.138283 -0.343824 0.016541 -1.189659 -0.571080 0.629026 2.027208 0.945190 -1.337640 -1.228231 0.297559 0.506109 1.393509 -0.275919 -1.686312 -0.395914 -0.379702 -0.095903 -1.341703 1.763891 -1.202267 -0.931611 -3.015055 0.922319 -0.896093 2.974060 -2.383878 -1.719787 -2.625488 0.021743 0.510092 -0.055357 -0.994055 -1.715605 -0.181793 0.659217 -0.832460 2.241477 -0.241205 -0.244879 -1.122596 0.583291 -1.742004 -0.388326 1.216033 0.789804 3.939504 0.923260 -0.317247 -0.176197 -1.477310 0.082502 -2.017775 -0.490203 1.138917 -1.352224 -2.580627 -3.015957 1.161669 -1.454162 -0.385586 -0.161357 -3.263170 0.734980 -3.442802 0.452734 0.557975 0.335588 -0.346873 -0.833689 -2.086260 -3.189360 0.576485 -4.024166 0.271921 -2.426640 -0.859732 -1.567318 1.214060 -0.615328 0.536183 1.594328 -0.385174 -0.944629 -0.325580 -0.147558 0.023477 1.074242 0.516696 -0.979184 1.198531 -0.141830 2.714755 -1.755999 -0.801548 0.032148 2.248794 1.384249 0.237891 -0.658495 2.727773 -3.260346 -0.832059 0.542696 3.179039 -4.909001 0.806713 0.423807 2.028484 2.770103 1.773053 0.456125 -1.787333 -0.087368 2.068515 -2.221301 -1.546563 -0.641903 -3.146809 1.023473 -0.242312 -0.485360 0.629066 -1.848416 0.501275 -2.854442 0.117117 -2.512628 -0.301585 -0.571804 -0.564185 2.124148 0.935317 -0.703621 0.240159 -0.128022 -0.123323 1.798673 -0.835610 -0.885160 -2.264787 3.058561 2.764084 0.268579 -0.436863 -0.624676 -0.576056 -1.774813 -0.463810 1.223024 0.822130 -2.158226 -1.750348 0.006549 0.707898 2.179184 -2.407968 2.271508 0.502221 -0.051715 -0.552556 1.494378 -0.529856 2.416363 -0.329833 -1.580504 -0.151368 -2.105188 -0.890951 -1.608451 -2.030681 1.545587 3.338701 1.639082 2.177809 -0.487897 
right -0.635312 1.358330 1.966392 3.196941 -2.396876 -0.228319 -2.639610 -1.564327 -2.109587 0.500497 2.324742 -1.026861 0.661826 3.273981 -1.739830 -1.885795 1.525946 -0.127384 -2.057473 4.561206 -1.260573 -0.757661 -4.117471 2.927441 -0.466649 -1.884920 1.388020 -0.208219 -1.796058 3.682466 3.626169 2.636638 0.221811 0.238930 0.479210 3.472279 0.741727 -1.049074 -0.706271 1.367412 -1.656276 0.395473 3.003935 0.566206 1.259881 1.997633 -0.900266 -0.909422 0.973854 2.945120 0.496270 -2.648277 -0.238047 1.109581 1.485822 3.454688 -0.953656 1.580919 0.308527 0.590702 4.137008 1.840415 -0.631458 0.719796 0.714536 -1.046044 -0.538463 1.434447 -0.251917 -1.406477 -2.017432 -0.207298 -0.332945 -0.836506 0.859224 -1.174819 2.089436 0.062890 3.055622 2.058205 0.512858 -2.069471 -4.043659 -3.239457 -1.411621 -0.044068 4.034647 -0.914545 -0.867842 -2.602377 1.303288 -1.441457 0.130403 -2.864467 0.001643 0.933913 -1.526785 -2.694306 -1.879294 -1.564682 -1.832972 -0.763836 -3.272853 -1.947213 0.980843 -0.343340 -3.594823 0.019573 -1.382188 1.196108 0.380461 -0.930357 0.002150 1.145948 -2.145821 -1.345343 0.819188 -2.322921 -0.613415 -1.760463 -2.415935 -1.763127 -1.316649 2.427153 -1.188530 2.428828 -1.128529 -1.008652 0.176783 -1.171652 -2.162565 -0.155969 -0.598921 1.198137 -3.134420 -2.047348 -0.096635 -1.688611 0.570539 -2.135085 1.633317 -1.123537 -0.043076 1.185500 -2.027017 -0.774902 1.140229 0.530249 1.093549 -1.743446 -2.616500 0.990598 1.143345 -0.415163 0.382791 -0.038918 -0.123622 -1.048872 1.270940 1.563640 -0.736136 0.720311 -2.177019 -1.022206 -1.419347 -2.165170 -0.438036 -0.172787 1.223696 -0.115364 1.534341 -0.649358 0.708120 -0.708188 -1.443503 -1.777635 1.337348 -0.454492 0.673712 0.556774 0.319884 1.194360 0.340649 1.436103 -0.877250 -1.038657 0.815217 -2.633416 0.518322 -1.366334 -0.013436 -0.869196 -0.688258 -0.722964 0.479727 -1.635760 1.266708 -0.067297 -0.293336 0.718587 0.472348 0.512241 0.246119 1.394037 1.760774 0.581184 0.641476 -1.935263 -0.716545 -1.202629 0.769096 1.307781 2.584225 0.160579 -1.242546 -0.736191 0.025231 -1.129104 -1.054854 1.923348 -1.011219 -0.344284 1.293101 0.288002 -1.201622 -1.812476 1.184486 0.299944 -1.465869 -1.179372 -1.023034 -3.273463 1.203965 -0.717097 0.481368 1.365853 3.390381 1.016209 -1.891177 2.763677 1.493837 1.858004 -2.692588 0.016574 -1.278017 1.820178 1.370080 -0.084304 -3.120028 1.210454 -1.415752 -2.464923 1.885182 -0.163373 -1.662446 0.163459 0.680207 -0.996332 -1.750382 1.093007 0.917874 0.344249 -0.486801 -0.096195 -3.517541 2.900532 -0.319436 0.788252 0.765528 -1.271941 -2.727818 -0.441898 -1.554434 0.241069 -0.588411 2.746874 -0.091404 -0.293525 1.008064 1.808360 0.412638 0.366906 1.609280 -1.432121 0.757348 -0.116139 -0.674925 -1.431424 1.848301 0.843459 -1.005884 -3.619475 -0.671860 0.283445 0.760706 -0.388119 -1.877427 -1.562568 -0.200824 -0.930258 
wears 3.656566 3.656548 2.456532 2.805515 3.269594 -0.615125 1.261366 0.010893 -1.765729 3.155859 1.215305 0.923529 3.433907 1.258317 0.922943 0.709348 -1.119489 -0.333117 -1.422365 -2.497996 0.522312 2.821268 -1.713215 -0.400493 0.691738 -4.085210 0.349718 1.726114 1.717380 -1.213880 -0.028002 -0.326663 0.290122 0.502950 1.895366 -0.469092 -2.188777 -1.054385 -2.732071 -1.415418 1.734115 -3.275449 -4.113585 3.380712 0.734430 -0.196405 1.602542 0.166158 0.699928 2.110762 0.415308 1.322652 -3.296260 -1.164096 0.084555 1.071967 -1.165649 -1.154480 -0.055511 0.012694 0.594998 0.432369 2.035781 0.901661 -3.312230 -0.964453 0.161171 3.134976 -1.397588 -0.152237 -2.111686 -1.551177 1.070537 0.916360 -1.922381 0.834141 -2.203838 1.439888 -1.628059 2.362236 -0.893967 -1.346830 -3.483829 0.920067 -0.802545 0.232570 -2.198913 0.665926 1.545325 3.333451 -1.151299 -0.490396 -1.527102 2.156842 2.912092 0.810418 -1.556121 2.885438 0.241675 1.992760 -0.693222 1.887432 0.324020 0.238692 -1.957906 -0.912600 -0.764045 -0.306703 1.517877 2.069723 0.432098 -1.687394 -0.150987 2.477953 2.611756 1.658863 1.721576 -3.219712 1.424975 -0.521861 -1.633848 1.470517 -3.237034 3.677551 -1.228106 -1.281968 -1.476616 2.115045 0.066965 1.532405 -0.946060 1.219657 3.869747 0.581551 -1.448175 -0.191916 2.152233 -1.965990 -1.096240 0.409222 1.274414 -0.976977 -4.541482 2.865952 1.798233 2.240309 -2.740163 0.295432 -2.169112 -2.956906 -2.424423 -1.275901 1.267890 -0.384664 -1.214257 -0.560081 1.194432 0.118902 -0.661655 2.591340 -1.733374 0.972366 0.178831 0.057312 -0.228568 0.199545 1.504464 -1.155403 -0.728146 1.386995 -0.987138 2.131079 0.248911 0.919979 -1.612402 0.983641 -0.010033 -0.866343 1.569619 -1.002216 2.287851 -0.034509 0.702735 -2.274124 -2.551095 -0.299277 -1.289951 0.181595 2.070229 0.250056 2.699995 -0.851338 0.090643 1.848237 -0.638816 -0.832260 -2.751047 3.056558 -0.538614 0.165305 2.373232 3.349952 1.361485 -2.900297 2.225461 0.747720 -0.142431 -3.004195 0.094219 2.368997 -1.312644 -1.951965 2.646706 -0.182060 0.797345 -5.254798 0.507902 1.364769 -0.356871 2.440176 0.569732 0.205737 -1.330410 0.210950 -5.836804 0.547487 -0.701446 0.158227 -0.757817 0.241821 -0.735608 2.232778 0.590955 0.885472 -2.292387 -1.715201 -0.508121 2.031390 3.620957 2.222074 -1.665234 -1.930582 1.670105 2.928085 -2.610347 0.033332 -2.686811 -0.181212 1.361703 -0.178550 -1.201894 -1.529759 -1.046870 0.100077 1.720459 0.458442 -2.950279 0.075026 -0.208987 -2.148050 -0.194250 0.875696 -1.908595 1.952694 -2.054288 0.803365 0.719263 -0.630797 -1.875086 0.100521 1.191542 -1.844348 1.669574 -0.354498 -0.411394 -0.601721 1.151612 -1.582276 -4.067564 0.046631 -0.638877 -1.654615 2.288179 1.612117 -0.304571 -0.895578 -0.048585 0.434903 -2.310180 -0.276521 -0.985681 -0.734102 0.278606 -4.050014 -1.987321 3.203392 2.491848 -0.293849 1.654139 -1.329792 
man -2.838432 0.483315 1.891033 -0.084194 -1.585215 4.717692 -1.788705 1.480081 -2.036795 0.569343 -1.032338 0.859507 -1.563864 -0.641259 -2.048186 -0.477101 1.004026 -1.638936 -2.630851 -2.614780 2.645451 -1.425091 3.159993 0.480234 -1.586736 -1.624555 -1.021384 1.408668 0.787697 -3.356868 -3.863793 -0.931301 1.533293 -0.039767 -2.209413 -1.436486 -1.305478 0.207041 1.824857 0.427750 -1.187845 -1.853772 1.020609 1.667554 1.478500 3.653184 2.715957 2.033128 1.665509 2.346881 1.966385 -3.776733 -1.587976 -1.278987 -0.132778 0.418310 2.950786 4.787277 0.977287 -4.261682 1.937254 0.423469 -0.127924 2.765546 1.921614 2.503956 -0.258175 -2.647341 0.244790 -0.496431 -0.168687 1.198373 -1.260211 -0.169099 -0.886603 -2.905097 0.776351 -2.832680 2.265680 -0.113410 0.522211 0.785943 1.864820 -2.321555 -2.323813 0.081550 -0.123114 -0.015572 -1.882174 -0.438171 -0.168741 0.760932 -2.554857 -3.168984 1.382127 -1.360425 -2.928253 2.122981 -0.711071 1.896012 -1.955918 1.341070 -0.905341 -0.559582 -0.612085 1.034777 -2.703079 -1.065813 -0.946836 -0.093258 2.274117 0.338310 -0.493405 0.398111 2.162323 0.460027 1.456673 2.450067 2.023362 1.511099 2.928003 1.539392 0.986746 1.749261 0.355069 -0.867773 -0.682456 -0.315897 -0.096481 -0.698953 -1.855191 -0.303155 -0.264514 3.548647 -2.286414 -1.476485 -0.430866 1.184701 1.150209 1.382514 0.171781 -0.519261 0.780194 -0.345644 0.858254 -2.302853 2.910985 0.044394 0.401961 -2.535739 -0.930467 -0.185387 1.751646 0.957222 0.359903 1.396596 0.529665 0.948364 0.894541 -0.209726 0.173042 -0.225875 1.222430 1.055822 0.339038 -0.156109 1.282127 1.730736 0.924635 -0.132357 -1.847854 2.666989 -2.683587 0.199562 3.081583 1.081668 0.493114 -1.060258 0.336347 0.277131 -0.997706 1.434565 0.099653 0.630689 0.861155 0.190824 2.381931 -1.657676 -1.328377 -0.458487 -0.153260 -1.258174 -0.162660 -0.930178 0.371580 0.129879 -0.350947 -2.614305 0.156372 -0.634700 1.142628 -3.223008 -1.842482 0.950234 -0.493873 -0.444388 0.314217 1.422565 0.978700 0.074201 2.583703 0.796430 -1.798270 0.002686 -1.279628 0.583221 2.283528 -0.295025 -1.391238 1.084235 -2.219994 0.553709 1.796976 1.501771 -1.501084 -1.160585 -1.310779 -2.364168 2.435205 0.938601 -0.798168 -0.987152 -0.534408 0.153614 -1.202140 0.822070 -0.870642 -1.836956 -0.817099 0.641552 0.299103 1.198291 1.236197 -0.295209 -1.412811 -1.860414 0.716160 0.183491 -0.930614 2.622800 2.075673 2.298511 2.298545 0.330095 -1.001371 -0.113460 1.062992 1.404042 0.995455 0.451026 0.886013 0.193945 -0.331636 0.651607 -0.332556 -0.631516 -1.460869 1.201506 2.783366 1.875700 0.164239 0.949239 2.566645 0.721715 2.603292 -1.527924 -2.306007 -1.346674 -1.390305 3.505695 -0.688266 2.956803 2.441155 0.150092 -2.508418 0.869241 -0.476713 -0.196663 1.287585 -0.520532 -0.401187 -1.361275 1.637668 3.844172 -1.329351 3.051058 -0.886341 0.156887 1.256153 -1.445318 
left -0.194532 1.873416 1.012460 2.039843 -1.533912 -0.681340 -2.746926 -0.201272 -0.347748 1.006440 0.722868 0.503362 0.470308 3.241303 -1.836460 -0.904576 3.714355 0.364636 -1.686035 3.922512 0.616465 -0.723678 -2.659344 3.535929 -1.024738 -2.830533 0.892526 2.589127 0.307686 2.727070 3.978290 1.750628 0.652556 1.007926 0.113122 2.600646 -0.653555 -0.753072 -0.908874 2.659766 -1.089110 3.315787 0.667528 -1.733402 0.516319 2.495470 0.508522 -1.323112 0.811857 1.106398 0.306121 -2.966038 -1.022874 0.775491 0.696528 1.014524 1.154507 0.169196 -0.955978 0.444444 2.974408 2.071856 -0.418792 0.768235 -0.384154 -2.198719 1.030577 1.713627 -1.751012 -0.855420 -2.400987 0.454412 0.081185 1.168139 0.600077 -0.845812 1.938101 -0.147814 2.790621 0.495100 -0.459664 -1.030878 -2.965386 -2.792468 -1.566491 -0.604983 3.910929 -1.280721 1.206620 -2.151097 0.187120 -1.070853 0.589726 -1.270692 1.036932 0.028124 -1.006195 -1.284118 -0.599633 -0.664194 -2.833920 -1.146937 -3.012434 -1.580330 1.121758 0.853140 -3.058627 -0.954797 -0.310598 1.509673 0.171097 -1.030599 -0.823960 1.249159 -2.594751 -0.863196 0.128615 -0.754668 -0.840865 -1.878439 -2.299539 -0.141131 -1.029614 1.255041 -0.151229 2.324243 -1.115837 -0.982567 0.310215 -0.644602 -1.919491 1.176944 1.199943 -1.082343 -2.391612 -0.050196 -1.786371 -3.759240 0.327719 -2.430171 2.209237 -1.996251 -0.593816 2.149181 -2.556287 -1.648719 1.363508 1.450325 -0.738111 -2.120240 -3.786666 0.614456 -0.137391 -0.929600 0.567386 -0.435689 -0.174780 -1.743728 1.033241 1.952522 -0.091499 -0.985789 -0.533385 0.298931 -1.645839 -2.287780 -0.524920 0.145699 2.811199 0.280243 2.496381 -0.544361 1.308324 -2.235949 -1.282174 -1.597464 0.721561 0.440046 0.073289 -0.552354 -0.675284 1.100558 -0.571623 0.989719 -0.954117 -0.495930 0.905784 -2.596674 -0.052112 -1.228646 0.586285 -0.367515 -0.683739 -0.576109 0.879137 -0.151185 1.462248 -1.095599 0.748658 -0.064445 0.061436 0.703229 -0.247510 1.364655 1.592914 0.307145 -0.551953 -2.817654 -0.144160 -2.478131 0.035481 0.798168 2.162406 0.357070 -1.074222 -0.084367 -0.161686 -1.170914 -0.919470 0.677346 -1.835474 -0.264137 1.150926 1.074041 0.271062 -1.825549 0.382417 0.737223 -0.850156 -1.279725 -0.306645 -2.619335 0.855338 -1.803420 1.375523 2.171178 2.487350 0.600540 -0.262963 2.927903 1.154378 1.397658 -2.719468 0.838392 -0.545458 1.056200 1.054406 -0.054122 -3.016454 0.715377 -0.766942 -3.034401 1.922756 1.442881 -1.120516 0.937216 0.974582 0.212199 -2.140513 0.931047 1.624871 0.292360 1.043228 -0.984853 -2.468901 2.268986 -0.846960 1.215960 0.931020 -1.510985 -3.509499 0.477393 -2.214999 0.816993 0.029992 1.927095 -1.044702 -1.208134 -0.259359 2.597049 0.354631 -0.035424 1.521296 -1.590496 0.500695 -1.131662 -0.521603 -0.248556 1.443718 0.124157 -0.482756 -3.659599 -0.774971 1.911061 -0.731885 -0.013464 -2.451784 0.129510 -2.239000 -1.617985 
carrying 0.757200 -0.782195 2.696739 -4.458656 2.191963 -0.520410 2.615103 4.335991 -0.638878 5.554472 -1.987886 0.972761 1.147347 -0.375388 -0.482665 2.895998 2.953579 -2.797265 -2.144564 -0.731967 -0.608615 2.261276 2.611771 -4.964168 0.191803 -2.108834 -0.903467 -0.412346 4.831481 -1.913287 1.858889 -1.001480 -2.950462 1.916623 2.858684 -2.458359 -1.644098 -3.622357 -3.042107 2.377308 1.912612 2.143109 -0.631044 0.823248 1.795374 1.065184 0.114605 -0.648849 -0.444297 -1.815148 2.559935 -0.575575 -0.980359 -1.081262 0.214625 -0.892608 0.862663 0.397044 1.464649 -1.548351 1.602778 -2.517502 0.770282 -2.105820 1.241351 0.966674 -1.067097 -1.148753 0.278354 1.523120 1.022820 -1.398886 -0.736893 3.912616 0.881170 -1.649909 0.689375 1.038917 -1.579649 -1.921789 -0.185274 1.913981 1.048738 -1.202537 -1.415130 -0.231657 -0.172035 0.000823 0.307396 -0.237476 1.669239 -0.938308 -0.058677 -1.062031 2.582548 0.984907 -0.359980 -0.529643 3.335097 -1.917337 -0.321205 3.042739 -0.838041 -2.052438 -1.277713 -1.214452 1.926210 -2.647429 0.926685 0.413481 1.885905 -1.071276 -0.669992 -1.131014 -0.234045 2.974997 0.928107 1.485414 0.406628 -1.954007 -1.129773 -3.458732 -2.393181 1.386389 0.492173 0.435059 -1.872241 0.872392 0.136298 1.788290 0.988280 -0.892007 0.421023 -2.672954 0.907919 1.418523 -0.958494 2.525071 -1.418266 1.428261 0.046432 0.368174 -1.553913 -0.853443 -0.916214 0.999594 -1.337971 1.998963 -2.140210 -5.007939 -0.815801 -1.083259 1.928098 -0.791712 -1.075857 -0.218757 -0.893258 1.883808 -1.568181 0.359296 0.821698 -2.207697 -0.158615 2.025064 -1.135126 -1.620151 1.638997 0.996472 3.203131 1.753697 1.376740 -1.570993 0.957373 -0.545798 -3.072412 5.266019 0.397585 -2.502710 0.225422 -0.763180 -2.528059 0.094362 0.306607 -0.068920 0.093033 -0.445299 -1.426291 0.578359 -0.479323 -1.271154 1.216799 -0.631343 1.566639 -1.148384 1.638364 0.728402 0.191266 3.911735 0.056208 0.869589 2.050672 0.730030 -0.515351 0.977251 -0.851412 -1.394091 1.627635 0.923390 -1.432043 -0.268245 -1.454531 0.296712 -1.285862 -0.472021 -0.222978 0.149837 0.876434 0.429799 -2.422519 1.622980 -0.947235 -1.255945 -1.304296 -0.539009 -1.951424 1.729560 -3.990192 2.395997 -2.320267 0.489167 0.323355 2.728379 2.069208 0.847129 -1.608916 -1.959968 2.188997 0.266349 1.659870 0.509497 -2.519699 -1.235817 3.634888 -0.420085 0.148343 0.930989 -3.168059 1.362384 0.725251 -1.777748 -0.252477 -0.069048 -3.205931 0.033985 -1.006060 -1.726213 -2.027839 0.662104 -2.340900 0.327634 -1.440578 -1.926148 2.164999 0.120903 0.689674 0.579310 -2.387213 -2.747456 -3.698289 1.091172 -0.925873 0.284154 0.851311 0.908776 0.313540 -2.091357 0.738175 -0.256653 -1.307651 -1.725387 1.384120 -2.355258 1.334172 3.137045 -0.163644 -2.584746 0.090667 1.477470 -1.352423 -1.680981 -2.192689 -0.501743 -2.446780 -4.204622 0.302291 1.381970 -1.380640 -1.016071 -0.224420 -0.896093 
to 0.854608 1.707574 -0.554113 -1.722892 0.133768 2.018299 1.648215 -3.654978 -1.127038 1.137496 -2.656218 -2.186338 -0.820386 -0.046768 0.236223 1.076415 -1.176575 -1.863604 -2.241121 0.055912 0.171589 1.974986 0.094400 -0.002396 -1.731983 -2.453423 0.382154 3.177723 0.693196 -1.105697 -0.763630 -1.373780 0.418356 -3.578042 1.354025 -0.795605 0.206172 0.614449 -0.305722 1.013620 3.913750 0.616550 -1.357866 -1.479131 0.640099 -1.814027 -1.165410 2.703494 0.834242 -0.777040 1.862644 0.163845 -0.670693 -0.080257 3.390140 -2.655455 -3.367671 -2.408268 -3.018771 1.535823 -1.209922 1.208898 -1.007349 -3.898321 1.121446 -3.639453 1.394920 -1.183140 0.779598 -0.677592 -1.216127 2.610918 3.235312 0.919837 -1.640872 2.526705 -0.123886 1.395825 -1.105116 0.925579 -0.932666 -0.914355 -1.461328 -1.002013 -0.091495 0.432613 -1.935841 -0.657183 1.530049 0.384584 -0.309854 0.778177 0.894360 1.016000 1.977003 0.267419 -2.684303 0.358854 -0.066840 1.797898 -0.637590 -0.083827 -1.246900 0.037013 1.240912 -0.176730 -1.384621 0.596466 0.139857 1.164441 1.048948 0.936207 0.152062 1.852020 0.356241 1.982348 -0.701664 0.247269 -0.460424 -1.751100 2.715011 -0.049329 1.429315 -1.189001 0.446178 0.772841 1.323914 0.706929 -0.762073 0.043191 0.739022 1.734117 -1.765289 2.218536 0.589749 -1.548630 1.651621 2.958084 0.519544 -0.483985 -1.149197 2.805944 1.642507 0.052837 1.030032 -0.356081 0.681773 2.594190 -2.454759 1.614094 0.977753 -2.557356 2.384882 0.151443 -0.044543 1.953284 -0.125494 -1.251540 0.370780 -1.212691 -0.016895 1.825695 0.398158 0.518971 -0.914704 3.318551 1.117449 -1.029918 -0.490736 -2.248677 -1.613691 2.151844 -1.654854 -0.027331 -0.104625 2.177253 -1.159415 -0.557580 -0.908940 -2.248746 -2.223202 -0.983887 0.234791 0.341734 1.460624 -2.031830 0.176263 -0.183994 -1.253020 1.365377 2.069505 0.571627 0.767099 0.069763 0.251115 2.891819 -0.669766 -0.584600 1.482887 0.585473 0.970309 0.843870 0.781306 -1.452008 0.971144 0.775213 -0.517175 0.343420 1.121011 -0.195656 -0.657225 -0.932361 -1.211833 -1.473240 2.073676 1.145792 1.883881 0.867495 -0.215772 -1.032411 -0.858797 -0.250498 -0.738457 -1.342828 2.501368 1.683008 -0.719421 -0.732311 0.977248 0.333853 1.111128 0.090178 1.769703 0.705653 0.602083 0.368224 0.997728 0.671385 -1.605945 -0.877956 -1.110845 -1.145145 2.903453 -1.243373 -1.736067 1.263873 -1.397121 -0.381122 -1.635832 0.244884 1.467836 1.041499 -4.147946 0.075639 1.755831 0.725959 -0.701111 -1.423704 -1.088169 2.196646 -1.653608 2.098183 0.639006 0.291987 1.172109 -1.847267 0.217589 -0.262336 1.977097 0.238788 1.967838 -0.508984 0.997648 0.811920 0.719751 -0.593879 0.736704 1.838709 -0.684359 0.271642 1.417170 0.428791 -0.306594 1.969771 0.368980 0.159498 -0.536848 0.298422 1.772338 2.359700 -0.624704 0.653760 0.625656 0.021741 -0.128609 0.081163 -0.235602 0.047214 2.099163 -2.520365 
hand 0.345122 -2.592146 -4.090466 0.498485 -2.864993 1.518214 0.850980 1.731791 0.706655 -3.568506 -1.073111 -1.163213 -2.187150 -0.755908 -0.681634 2.178715 -1.943139 0.812831 0.601686 -3.539023 3.080003 -0.918125 4.349671 0.163236 1.553033 -0.596552 1.624830 3.536253 0.501456 1.694517 -2.508568 2.665313 -4.426801 0.680609 1.225966 -0.978552 1.488107 -0.907264 5.509478 -2.380227 -0.684939 -0.012274 -3.351181 0.259584 1.825291 -0.359237 -3.055738 0.160208 2.340414 -0.935877 0.881965 2.696844 2.202759 0.585198 1.016260 -0.405719 -2.548707 1.612001 0.519088 -2.669425 -2.722200 -2.628472 -1.569381 -1.631688 2.762335 1.181443 -0.788920 0.558711 -0.163165 0.567164 4.246964 -1.669764 0.488579 1.939881 -3.274279 1.976836 -3.339002 2.450774 -1.579859 0.840432 -1.229356 -1.275989 1.673464 -0.339253 -0.159658 1.040667 -3.359965 1.180631 -0.205169 1.704448 -1.453074 0.170498 0.892822 -1.966657 -2.107990 0.422695 0.292135 -1.067739 1.533071 -0.821316 2.121357 1.440871 2.038158 -0.405486 0.657942 0.659182 0.714625 0.536094 2.556674 0.082051 1.388397 2.227615 -0.358378 -2.443318 1.533960 -0.663204 0.326003 -1.559351 -0.519342 1.780935 1.801927 1.789506 2.504037 -0.459019 1.759562 1.135231 0.892926 0.427282 -1.090257 -0.802673 1.313107 -0.536662 -1.281666 -0.249159 2.520292 -0.154973 0.649488 0.470964 1.398847 1.056930 -3.731848 2.561797 -0.867362 0.244254 1.453919 0.652435 -0.500054 0.381358 2.664093 2.096616 0.488270 -0.328182 -0.668109 -1.014311 0.679052 -1.493780 -0.710290 1.782801 0.043983 -2.913979 0.628573 -1.472834 4.204545 -0.471940 1.340427 1.330652 0.851217 0.533783 -1.322595 -0.377257 -1.625238 1.849457 -1.505008 1.794173 -0.377476 -2.863391 -2.679303 -1.300064 0.267467 -3.980451 -0.680243 0.468022 0.971968 -2.572864 -1.230408 1.111903 0.059416 1.986407 1.421607 -1.111042 -1.289024 -0.355477 0.631678 0.086366 -1.446297 1.507540 0.009662 -0.357701 -0.066722 -0.859292 0.833433 -2.389633 0.157831 -1.115913 -1.540029 -1.532620 0.584835 2.477630 -0.154676 2.491639 -2.639708 1.310140 -4.593704 -1.652290 1.523623 1.610705 1.756734 2.529632 -1.355312 -0.830717 -0.042790 -0.862794 1.449096 -0.084549 -0.295882 0.214957 -2.781188 -2.817733 1.296155 0.902767 0.313290 1.466074 0.088024 3.458564 -0.247343 -0.937839 -1.329926 0.435854 -1.453229 -0.648987 0.434159 -0.254741 3.264305 -0.295509 -0.072654 -1.754240 -1.035810 2.016386 0.660926 -0.225223 1.648050 1.822183 -1.562303 -0.661174 -0.377899 0.694261 -0.179985 0.942697 -1.861207 0.231734 0.802849 0.140501 0.140593 -0.065228 2.996196 -2.834793 1.480493 0.780975 -1.452701 -0.048276 0.489111 -1.201140 1.627447 1.047032 2.568742 -2.705685 2.191165 0.870273 0.503926 -1.888276 -0.457176 0.889127 -2.404124 1.659420 0.972174 -1.339881 0.470571 0.605861 -0.101333 -0.690384 2.370785 1.505126 0.941748 -0.420444 -0.983428 0.655485 -0.392985 -0.220439 -1.290130 1.052041 
be 4.131547 -4.963208 4.031515 2.593409 0.758458 0.781187 -1.958761 4.871664 -2.602873 -0.943101 0.900238 -0.837927 -0.406849 0.503852 -1.431851 0.038937 -2.146392 -0.300277 2.312470 -1.577122 -2.097401 3.099078 0.947671 2.200498 1.916004 1.648797 -0.060985 -6.145249 -3.742856 0.137049 -1.189616 1.589895 -0.924528 3.225064 2.006060 0.712793 -2.070657 3.428553 5.507456 -2.214535 0.810117 -0.613379 -1.414684 0.944867 -1.929891 0.048086 4.771289 1.038235 -2.227810 0.079778 -4.679094 4.266984 1.840175 2.557006 -3.185638 2.031442 3.789398 -1.192315 0.965723 -0.006369 -2.104734 2.129595 0.857531 -1.088222 0.544019 2.298903 3.661657 0.558484 2.330348 2.171038 -3.451593 1.270434 -2.716497 -3.271509 1.965241 1.003436 -3.462657 2.092604 -1.201678 -1.515780 -1.672676 -0.758606 -4.754751 0.379349 0.868068 2.257538 0.733697 -2.682248 -0.901825 0.017674 2.666335 -0.165472 2.184144 -1.603224 -2.404800 -0.714565 0.578585 -0.785982 0.912671 -0.523685 0.510368 1.997639 4.358930 0.036720 -2.410266 -0.662485 -0.570413 -0.563083 -0.161937 -0.508951 -0.744509 3.372309 -0.594106 -0.668319 1.628398 0.557681 -1.067948 3.378303 0.130000 1.552269 -0.535553 -0.306502 -0.940764 2.408223 1.774145 -1.976028 0.040370 -1.001130 2.288325 1.174819 0.500662 -3.349714 -1.237071 1.233399 -2.810871 -2.355697 -0.176588 -2.410206 -1.181043 1.997349 -2.333271 -1.235429 -0.755524 2.182786 0.678899 -1.046840 2.932990 -4.107563 -0.094049 0.180437 -0.084770 1.488575 -2.445735 0.806219 0.317377 -3.727810 -1.740103 1.586125 0.424783 -0.455172 -1.301854 1.245417 -0.838951 -0.250375 0.718845 -2.016469 1.360157 2.725512 -1.956914 1.462055 -0.681481 -3.177497 2.795318 2.314552 -0.709158 -2.554278 2.356255 -0.587884 0.463693 -1.849192 0.725185 1.845854 0.997435 -0.181554 -4.820649 1.812326 -0.461238 0.867479 1.373194 -2.140994 0.297576 -2.735310 -0.269803 3.344036 -0.103852 -0.653666 1.932144 1.656815 -0.428757 -0.229610 -1.563804 0.310059 -2.072320 0.116619 -0.771678 -1.077888 -3.794244 -1.785005 0.021980 -1.273978 0.659576 -1.460572 1.336686 1.463526 -1.818657 0.149951 -0.517983 1.572896 0.910272 -0.629350 -0.542405 1.368356 1.159630 1.339845 -4.938445 -2.883128 -2.826969 1.251547 -0.568161 -0.603434 -0.242336 0.027402 -3.291990 -0.097005 -0.227644 1.132480 -0.286950 1.823776 2.931087 0.851805 3.628051 -0.593540 -4.017680 1.395231 2.594233 0.077814 0.722317 -0.712110 -1.389607 1.432634 -2.258859 -2.458440 6.321775 -1.606771 -0.424308 -2.817558 1.743197 -0.732084 -0.342642 -1.730332 2.045746 -1.925352 -0.918953 0.435949 -2.497083 3.659514 -1.585444 -1.242052 -1.407498 -2.087888 -1.915340 0.939528 -1.450141 -1.061404 2.030262 -1.722552 -2.800300 -0.544057 -0.317342 0.361541 -1.392018 1.702414 1.562900 -2.107950 -1.887689 -3.211617 -1.680205 -0.988455 -2.082670 -0.792850 3.634490 -3.363425 1.739677 0.765698 -0.829059 0.577688 1.790469 0.072874 -3.005529 -1.798571 
