878 100
</s> 0.004003 0.004419 -0.003830 -0.003278 0.001367 0.003021 0.000941 0.000211 -0.003604 0.002218 -0.004356 0.001250 -0.000751 -0.000957 -0.003316 -0.001882 0.002579 0.003025 0.002969 0.001597 0.001545 -0.003803 -0.004096 0.004970 0.003801 0.003090 -0.000604 0.004016 -0.000495 0.000735 -0.000149 -0.002983 0.001312 -0.001337 -0.003825 0.004754 0.004379 -0.001095 -0.000226 0.000509 -0.003638 -0.004007 0.004555 0.000063 -0.002582 -0.003042 -0.003076 0.001697 0.000201 0.001331 -0.004214 -0.003808 -0.000130 0.001144 0.002550 -0.003170 0.004080 0.000927 0.001120 -0.000608 0.002986 -0.002288 -0.002097 0.002158 -0.000753 0.001031 0.001805 -0.004089 -0.001983 0.002914 0.004232 0.003932 -0.003047 -0.002108 -0.000909 0.002001 -0.003788 0.002998 0.002788 -0.001599 -0.001552 -0.002238 0.004229 0.003912 -0.001180 0.004215 0.004820 0.001815 0.004983 -0.003111 -0.001532 -0.002107 -0.002907 0.002815 0.001579 0.000425 -0.002194 0.001524 0.003059 0.000194 
a -1.279137 1.629304 0.088288 2.271307 -1.497639 -1.038355 0.182352 -0.663467 0.225091 -3.541073 1.134496 -1.436135 -2.274549 -0.264738 -1.205241 2.468102 0.407205 -1.183724 0.201956 1.378289 0.190913 1.546740 1.703139 1.985463 -2.465149 2.222433 1.167925 0.850443 -4.629115 -1.519866 3.400304 2.182499 1.012907 -1.962146 3.889167 -1.175562 0.868627 -2.111358 -0.546941 2.033849 -1.580751 -0.819540 1.052750 0.501519 0.883763 2.290691 -2.405138 2.828112 -0.934838 1.065652 -0.384021 1.477160 -0.242596 0.170393 -1.364773 0.715868 0.868776 1.050188 -0.449209 1.408202 -0.272727 0.991959 -0.894418 1.642636 0.797118 0.086693 -2.268634 -2.528414 -0.043188 -0.163203 -1.331161 -2.479551 -0.070488 3.399709 6.135334 -0.909525 -0.793285 0.788933 0.396427 -0.241211 -1.578165 0.450871 0.920657 2.275120 -1.957989 -2.757471 -2.077758 -0.350187 0.850285 -0.115500 -1.460228 -2.533509 0.724172 -0.424074 1.378004 -0.624397 0.720700 -1.179775 -0.436862 2.318706 
is 1.222847 -3.920912 -1.641210 -4.140995 1.655476 -2.012640 0.484805 1.372470 -0.770769 -3.632551 -0.013637 0.279735 0.257660 -1.781234 1.110772 2.768735 0.428674 -0.682537 -2.404416 1.581392 -2.574565 -1.702381 -3.763976 -3.055199 2.730277 0.907359 -1.867295 3.192223 -3.358155 -0.440201 0.399409 0.371244 0.134209 2.121818 0.410300 -2.861658 1.252131 -0.921103 -2.373229 -5.095964 0.381767 -0.462991 0.900986 0.361864 0.470396 3.003921 -2.263232 -0.058260 -0.222830 0.927459 -0.177011 -0.323382 -0.115290 -0.557481 -1.373582 -0.841729 -1.905824 1.606337 0.017340 -0.528077 -3.239676 -0.241045 2.211756 -2.319492 0.746843 0.288367 0.236873 -1.707582 3.254230 -0.291446 0.053007 0.413475 1.935176 -3.065826 -1.612766 4.613477 -2.674025 0.700988 -2.829929 -1.027935 -0.217083 -0.258971 -2.090092 -1.023307 -0.510037 -2.620987 -1.604645 -2.104619 -4.072920 0.702433 2.659464 0.469631 -0.162668 2.967959 -0.514478 0.807410 -2.527349 -2.168786 0.184449 0.775052 
black -3.281771 -1.049291 -0.414959 -2.374604 -0.123402 0.150896 -1.733526 0.764376 -0.478530 -1.579293 -0.217696 -0.424068 0.448346 -0.555503 2.198455 -3.603712 1.162220 1.806330 -2.210490 -0.361147 -0.994581 0.516868 2.977801 -2.480084 0.883422 -1.661763 -1.238177 0.476299 -1.870820 -0.520161 0.427915 0.255330 0.921984 -1.875777 -1.877365 2.950507 -1.112269 2.619910 1.812884 0.167419 -0.722008 -2.149071 -0.398285 2.075991 1.093419 -1.059729 -0.145613 -0.210267 -0.262490 -2.483151 -0.618483 -0.904723 1.769657 -0.924861 -0.660461 1.124966 0.931917 1.769789 -1.342134 0.519431 0.101549 -0.487476 0.532454 -0.703288 1.720617 0.570640 -0.290324 -1.440820 0.809926 2.521307 0.777829 -0.498429 0.118225 -0.483073 0.319528 -0.536503 0.260127 1.608148 -0.276868 0.639784 -2.660034 2.808641 1.390939 -3.955615 2.090847 1.491068 0.773219 2.398417 2.684591 -0.679910 -1.237587 1.500927 0.942293 0.603525 1.462659 0.281231 1.039772 -0.489257 0.136958 -2.150911 
and 0.383213 -0.964100 -1.063203 0.017775 0.265713 -2.734536 -0.825221 -0.862684 -1.207552 1.860755 -0.067447 0.185216 -0.462876 0.328326 -0.036086 3.015348 1.986363 -1.514963 2.153477 2.458994 2.050419 -0.757325 -0.619103 3.011132 1.420521 0.265028 -2.678602 1.048914 0.919364 0.511908 -0.666357 1.123720 -2.532727 0.090214 0.477238 0.318187 -0.762106 0.116533 0.268908 0.432611 1.054684 0.410880 -0.737077 0.649474 0.392203 0.178684 -2.668983 1.160349 0.634505 1.724454 1.630156 -0.409352 -0.635659 0.863298 1.470329 -0.623263 0.786920 -1.624827 -0.524000 0.383921 3.165627 1.340258 0.972912 1.128906 0.232537 -2.112233 -2.068280 0.310215 -1.872412 -1.037395 -0.059874 0.464724 -0.923304 -0.008959 -0.795519 -0.511614 -0.486237 0.665280 0.624089 0.226680 0.678129 -2.569373 0.629251 1.729484 -1.810439 0.866000 1.293112 -1.151455 0.072149 -0.861578 -0.545486 0.011987 -0.656755 1.498131 -0.101678 0.261742 1.134660 -0.246286 0.614683 -0.923969 
with 4.250252 -3.724753 1.273246 1.022257 0.177452 -2.493238 -0.708621 0.279869 -1.531595 4.504442 2.623912 -1.039225 1.188252 0.088837 2.424100 1.487793 0.912763 -2.271047 -0.533973 -0.664564 1.403056 -1.649038 -2.216716 2.406960 -1.413188 4.190019 -3.490219 -1.229064 -0.228576 1.095574 -2.380257 -0.995686 2.135549 -0.038637 -0.182332 0.285911 -1.936032 0.385867 -1.983169 -1.649881 2.085733 -0.351517 -0.126048 2.769124 -0.696442 -4.424797 -0.450694 -0.376840 -0.389013 1.278793 1.442760 -1.349462 -2.894576 -0.022686 -0.103906 0.160309 0.210796 2.260936 -0.889878 -2.799083 -0.286460 3.597085 -0.654500 -0.199860 0.486994 -1.701054 -0.830104 1.346000 0.898024 0.609670 0.135859 -0.720088 -0.066733 -2.176442 -1.616676 0.330765 -0.312385 0.149421 -1.373354 1.743373 2.081724 -2.998678 0.341396 1.130094 -2.741033 1.903187 0.440920 -1.942282 -2.543169 0.125258 0.439820 -2.989021 0.905970 2.206737 0.139099 1.355757 1.895474 -0.616494 0.780673 2.699701 
he 2.150579 1.809496 0.451946 0.321920 -1.233283 -2.127305 1.950941 -2.933185 2.219407 4.595170 -1.779709 1.739504 1.299029 -0.445621 -0.564300 0.689893 -0.945704 -4.039912 2.590591 -3.381050 -0.788155 0.408653 1.967797 1.265754 -0.460603 2.337509 0.386725 -1.325737 3.353889 -2.094649 -2.532769 2.939561 -2.684467 -0.548801 -0.756236 3.340810 -1.964829 2.674532 2.309048 2.485590 -1.177384 1.596348 -2.483233 2.458378 0.435213 1.367805 0.442468 -0.740745 -0.378550 -0.930003 -0.798824 -2.100068 -0.907794 0.540875 1.134713 1.320540 1.341993 -0.759345 -0.906429 2.169599 2.446122 0.481280 -2.890220 -0.422719 -0.485315 -1.112875 1.635620 1.159018 -0.654375 0.734164 0.453525 -1.101278 -4.041388 0.657208 3.109807 -1.051652 1.351578 2.002987 1.261852 0.775686 3.187436 -0.085413 2.318128 1.054093 -0.165394 -2.357043 3.849499 0.686661 -0.155946 -1.168942 0.667983 -1.612494 -0.656168 -2.166835 -0.733757 0.874931 1.777654 2.436994 1.540473 -2.556559 
wearing -0.728454 0.426105 1.960313 -0.141279 -1.280472 1.578614 -1.066830 2.024644 -4.148256 3.645584 1.597172 1.222054 -0.713760 1.602814 1.247929 0.915566 -0.769370 1.565064 3.399604 2.861525 1.495935 0.330667 1.079420 2.067148 -3.437418 -1.756856 2.357016 -1.589623 2.459508 2.984747 0.777754 -1.858235 2.552204 -1.326031 0.669854 -1.438169 2.333598 -2.127734 -1.168029 6.571312 0.734499 -1.658616 0.377939 -5.824619 0.077189 -2.470634 0.296454 -0.150568 0.184802 1.453507 0.865476 -1.811736 -0.692068 -0.604812 -0.160155 1.872806 -1.115052 0.468133 2.586688 -0.618248 1.149369 0.925167 0.841887 -0.819009 -0.976022 0.562092 0.642272 2.730267 -3.506350 -2.129384 0.852165 4.367681 -1.733636 0.109910 -2.509196 -1.188328 1.372008 -0.799844 2.139420 2.892714 -1.505138 -2.700089 -0.190424 0.684805 -0.243757 2.554058 0.666007 -0.759645 1.643596 0.594156 0.588341 0.297549 -0.320994 3.184886 4.124658 2.267183 2.272284 0.572243 -0.634855 3.723001 
his 0.336973 2.130512 4.338133 -1.820066 0.143387 -2.125620 0.202472 -2.965310 2.227404 -3.426115 -0.214227 -2.205055 1.771511 0.403467 -1.994416 1.583491 -1.899804 1.714190 -0.702831 -3.017565 -5.246410 3.165336 0.744105 1.379752 -0.751229 -1.653356 0.849536 -0.995803 -0.331475 1.015345 -0.598727 0.555831 4.105565 1.041322 -0.493988 -0.924495 -0.910191 1.592742 -0.472767 3.292377 -0.427486 2.941600 -0.354716 -0.754776 -0.062649 0.945281 -0.629506 1.112258 -0.752114 -0.399166 -0.371232 -2.155782 1.795715 3.334869 -2.224650 0.227160 -0.944994 1.665732 1.382240 -0.713467 4.908669 -1.722046 -0.485115 1.087888 0.195455 -1.243217 0.580298 0.743224 -0.849432 -0.600699 -3.072546 0.007286 -1.438993 2.037980 2.199976 -0.941448 -1.617435 2.040907 1.862217 -1.085327 -2.379724 1.795015 -1.693388 -2.487688 -1.334440 0.502295 -0.867119 1.840976 0.725942 -0.714610 -3.109923 0.900848 -2.663964 2.757628 -3.593458 2.491951 0.668489 0.178448 0.475871 0.263041 
she -0.695872 2.073603 1.086153 2.482395 -0.473692 -3.105056 0.411545 0.828926 4.235018 4.089418 -1.164048 1.083693 0.033201 -0.539358 -0.303708 -0.090828 4.173329 -2.480010 2.563140 -3.380579 1.504880 0.870131 3.493624 0.631367 -0.593322 2.801873 1.410612 -0.301764 2.858157 -1.602873 -4.176550 2.516348 -1.081740 -0.169397 -2.172336 0.786431 -1.290643 5.994862 3.605605 3.272794 -0.944882 0.838928 0.313003 3.957760 0.541072 0.773694 1.798325 0.619454 -1.595492 -1.262527 -0.209727 -0.307139 -0.858347 1.636611 1.368498 -0.036151 1.848329 2.111854 -0.062308 -0.353779 1.799896 1.220027 -1.535043 1.775057 -0.654841 0.716856 2.133771 -0.721719 -1.703136 1.439946 1.471946 -1.425519 -5.540673 -1.631385 2.792969 -0.829825 1.860989 0.251854 -0.463624 -1.925187 1.441631 -0.373712 0.826750 -0.177359 -0.923741 -1.592388 1.981704 1.122484 2.012642 -2.443989 -0.099668 -1.786210 1.111370 -2.169498 0.783938 -0.741060 0.915162 0.876526 1.465022 -3.533321 
of -1.307302 -1.060838 -2.833817 -1.503759 0.676115 -0.858371 -2.849886 2.273871 -3.944783 1.802510 -0.512899 0.717508 4.962541 0.690094 0.612302 -6.622567 3.207674 -0.604571 -0.621675 0.582471 -6.062745 0.470535 -1.983112 2.337157 -0.720341 4.595356 1.978997 2.502584 0.604557 2.153954 -2.552563 -2.588949 -1.571959 -1.007682 0.988466 2.186936 -2.351743 -0.995001 0.436137 3.278775 -3.298369 -1.226509 0.135191 2.420725 -0.031888 -1.224036 0.305459 -0.061140 4.334790 1.492723 1.772356 1.132291 0.532323 2.234173 -0.738588 -3.522101 -5.938292 -0.172940 -3.679194 1.027448 0.970084 -1.255129 0.929715 0.008688 -2.236355 -0.675139 3.557344 5.272743 -2.625495 0.461405 2.584500 -1.445058 -2.805287 -4.621211 -3.219608 -0.336969 -4.751886 -6.495100 -1.194478 1.532221 4.073980 -3.257604 -1.134421 -0.516776 0.747628 1.020250 -1.593100 -0.284567 2.277911 -1.858138 -0.136897 -0.051920 0.852528 -0.056979 1.004134 2.804124 -1.627964 -1.476839 0.632949 2.939386 
the -2.641016 1.503112 -0.825444 0.031245 -0.077097 -0.128015 0.745289 -3.634894 1.738309 3.131117 2.793489 2.091860 -1.195875 -1.864875 -0.089134 1.358694 0.265660 0.483406 -1.993878 -1.836042 -2.194894 0.978481 -0.420898 0.542718 -0.906087 -1.128623 -1.289653 -2.156677 -2.001552 -0.003182 -0.115226 0.089259 0.788140 1.092160 2.535575 0.095193 0.806621 0.003084 -1.476618 2.475909 1.993726 1.499119 -0.374024 1.300201 -3.869697 -0.775644 0.859676 0.885580 0.109384 -0.685627 -0.055355 2.017756 -3.481588 0.364560 -1.277019 1.138748 -1.259060 -1.459762 1.694600 3.749921 3.317020 1.613791 -1.803607 -0.043079 -0.351379 1.011122 -1.412988 1.061235 -2.327221 -0.028330 0.445215 1.155046 -1.733410 0.962832 2.641796 -0.062375 -0.391437 0.760604 1.857505 -2.603288 -1.831830 0.641231 2.531307 -1.447038 -2.600056 0.255770 0.054341 -0.495642 1.081838 2.940040 -1.572793 -1.752678 -1.546182 1.301640 -0.341398 -0.284492 0.592955 0.573551 -0.284877 0.010096 
white 0.269062 0.693814 0.634154 0.557361 -2.240552 0.386279 1.630600 0.064882 -0.348414 0.033942 -0.903352 1.820652 1.216105 -0.281333 0.591885 -4.060038 -0.577950 0.331701 -2.558918 -2.391820 -1.850701 1.219726 -1.646190 -2.074506 0.745344 -2.805051 -0.038192 3.245272 -0.777643 0.038022 2.199056 -0.815646 0.239924 -1.460963 -0.851834 2.116454 -2.842522 2.426990 -0.453776 -1.334358 -1.543178 -0.838377 -1.268169 1.611858 0.485863 0.663631 -0.746213 0.085061 -0.572632 -3.311174 -0.452449 0.153484 1.857337 -1.627634 -0.697748 -2.070054 -0.943882 0.272262 -1.123104 0.865934 -1.803937 0.043227 3.122853 1.701246 2.794950 3.410949 2.660459 0.449028 2.378183 -0.252019 0.507267 -3.103999 1.077888 1.033860 0.941737 0.020985 0.397977 2.297903 -1.347296 -0.187168 -1.513966 2.433357 0.838898 -2.894481 1.362882 -0.948828 1.380231 -1.513401 2.234979 1.500299 -0.822804 0.179725 1.044369 0.477187 1.337264 0.563699 0.890269 -0.015802 1.979774 -2.260965 
on 1.294979 1.792265 -1.132905 -0.087819 3.010923 0.930103 -1.293210 -0.910767 0.217447 0.163917 -4.936941 3.328730 -5.932147 0.779297 0.342374 1.546316 1.940348 -1.442755 3.844457 2.632418 -0.906536 -1.351061 -1.463680 -2.219135 -2.044240 -1.230859 -1.079136 -1.811899 1.633279 -1.959686 0.989513 -3.045851 -2.894345 1.295945 0.724950 -1.289412 -0.194560 -0.570663 1.243779 -4.784952 2.241065 -1.227193 2.712980 2.714486 -0.332997 -1.896457 2.418094 -0.680742 -1.504615 -0.745599 1.826751 6.036283 1.482225 -0.208679 0.520259 -3.914371 -1.426025 -0.101543 -1.972033 -1.826915 -3.822512 3.923572 -1.005414 -0.485574 1.497425 0.497795 -1.109389 2.092201 -0.753469 -1.722830 2.851811 1.453153 -0.475907 -1.480955 -0.358640 -1.587661 2.008363 1.398365 0.751094 6.021371 -0.107486 4.202820 1.657243 0.976465 -0.081876 1.207017 -4.558425 -0.009337 -2.427002 -2.891370 0.991990 1.488253 0.013664 -0.285421 1.618596 2.093607 0.443429 -0.509282 0.632529 -0.417069 
hair 1.803595 0.350776 0.419928 0.495654 2.424698 1.011143 1.970277 0.324284 -0.664510 0.697064 1.505167 1.653181 -2.489048 -4.527578 -3.129589 -0.680292 0.900631 0.538853 0.173469 -0.155005 0.386544 1.025472 -2.560658 3.328593 -3.092783 0.910308 1.201998 0.092511 2.450847 -1.985687 0.342416 -2.731247 -3.981231 0.218500 1.066099 -0.840655 -0.425466 -3.122404 -2.804348 -0.238508 -3.649855 0.564993 -3.680736 -0.943528 -1.455429 1.292716 -1.147815 -1.468249 1.632342 1.290864 -5.256079 3.550915 -1.620160 -2.113556 1.642028 0.878674 1.613834 1.428134 -5.201727 -0.332612 -1.816126 0.816261 -0.657948 1.393182 -0.750501 0.471515 -2.466719 1.079877 1.684292 0.419028 -0.313861 0.697089 1.376531 0.966486 -2.968933 2.935816 0.884426 -2.354924 0.691004 -2.725896 -1.020638 -0.254715 -5.449827 1.169614 -0.869311 -4.873233 -1.506616 -0.390048 1.399500 0.294545 3.011889 0.926584 1.872623 0.597191 -1.700153 -2.853497 0.130658 2.773316 2.196957 -1.994718 
in 3.240001 1.554199 2.774483 3.173731 -0.025945 -0.842222 -1.573261 3.442765 -0.207945 -0.436164 0.041923 5.649680 -4.251586 2.852429 -0.207506 2.308038 -1.633452 1.780658 1.631436 0.787071 -0.267791 -4.808669 -1.477926 0.702394 1.503888 1.137978 -0.532634 -1.250280 1.045187 1.843805 -0.865226 0.262912 -0.082836 -0.051241 0.944384 -0.380936 0.075352 -0.000780 0.439547 -1.883384 1.341476 -1.432169 2.466456 -1.605501 -3.709458 -2.739908 -0.363349 -1.362210 2.528956 2.213143 0.147596 4.355590 1.784281 -2.067073 2.039039 0.420996 -0.905154 -2.011208 -1.228672 0.344583 -1.671379 2.344117 -0.651387 -0.075289 -2.329399 -1.229413 -0.943855 3.074281 0.337602 1.208011 4.524902 -1.025782 -1.970626 -1.133811 -1.304296 -1.085325 4.428696 -0.313155 -1.852989 1.375776 1.422105 0.088627 0.609344 1.052306 1.092798 0.506739 -3.063278 0.985749 -1.728605 -1.264777 4.126103 0.786007 -0.006813 -0.914403 2.087228 -0.227690 0.790617 -0.370600 0.147582 0.648764 
her -0.769264 1.065530 5.067655 0.400719 -2.871739 -2.147154 -0.304394 -2.141736 1.282277 0.426129 -0.773401 -2.150536 1.782952 -1.015570 0.279748 -0.487452 -1.951263 0.501534 0.262347 -2.960097 -6.079772 4.930011 3.601151 1.226971 1.723010 -3.802403 0.871127 -1.146202 -0.033755 0.649696 -1.506254 0.817002 4.733226 0.536128 0.764786 -3.882640 -0.939127 0.458277 -2.296969 3.190668 0.034552 0.748179 1.845061 1.066536 0.280424 0.835538 0.068921 0.398350 -1.576122 -0.099043 -0.317994 -1.366325 2.023442 3.264894 -0.805185 1.338938 -0.462222 0.025231 0.470506 -2.106164 6.440821 -1.408853 0.592282 1.247887 0.806243 0.556679 0.846319 1.961699 -0.164313 -0.717124 -1.013445 -0.290886 0.051676 1.142099 3.404283 -0.628543 -1.998321 1.229643 2.116794 -1.404304 -2.516122 -0.979762 -1.151768 -1.512745 -1.047992 -1.213529 -1.276401 0.791424 1.240886 -2.942421 -2.809024 -0.100329 -3.136992 0.479388 -2.274146 -0.721033 -0.085808 -0.186566 0.260199 0.375408 
dark -0.337060 -0.112084 -0.605142 -0.088548 -1.718333 3.082239 -3.130810 -0.324408 -0.520107 -0.707084 -0.994993 1.161500 0.252879 0.905544 3.683750 -2.723054 -0.226016 0.214525 -4.732274 -1.715279 2.290250 1.225075 2.983847 -2.860159 0.444291 -3.164057 -1.159914 0.798774 -2.264707 0.789943 1.427035 2.737943 1.580839 -1.479521 -2.291669 1.697027 -1.744790 2.582382 0.945876 2.001375 -1.615462 -2.772415 0.491640 -0.127533 0.850181 -1.681149 -1.044449 -0.768780 0.419094 -2.378627 0.328444 -0.415864 2.634690 -0.016083 -0.129385 0.838524 -1.908957 2.776568 0.859532 1.278247 0.495426 -0.194695 1.003973 -0.985695 0.395281 1.129514 -1.930468 -1.192661 -0.073626 -0.375304 0.812901 -0.112241 0.046862 -0.012965 1.849150 1.718759 -0.169317 2.256966 1.392392 1.752974 -0.488205 3.586999 1.155037 -2.819782 0.748040 -0.200483 -1.818369 2.965957 1.596980 -1.009002 -0.047262 -0.246185 -0.118383 -0.574314 -0.669758 0.901458 0.695879 0.700951 -2.276903 -1.336891 
coloured -0.408425 0.443606 0.038935 -0.903813 0.437838 -0.792161 1.512108 0.552576 -0.772971 -0.349728 -2.854894 -2.518717 -0.345790 -0.871831 -0.592448 0.611347 -1.213030 -0.992141 1.556060 0.619477 -1.003094 0.327249 0.851515 -0.316637 0.329487 0.752339 0.954986 -0.620546 2.070435 -1.624880 2.899327 -1.031409 -0.720585 0.488009 -0.007564 0.824047 0.196203 -2.057120 2.278782 -1.814447 0.045264 -0.774885 -1.488486 2.082146 -0.992962 -0.766851 -2.023314 1.012334 -1.208205 0.903424 0.566700 -0.032894 -2.556733 2.283262 1.722155 2.070651 -0.187314 -2.174896 -1.293942 2.111984 -0.051045 -0.983190 2.088619 0.386494 0.018182 -1.762795 0.241372 -0.213269 0.438770 -0.662332 0.206804 -0.271902 -0.583731 -0.352222 -1.121961 -2.355042 -0.775550 -0.541483 -1.983199 -0.870560 0.282952 -2.255774 -0.257775 -0.190672 0.113093 -0.949227 0.140093 -0.280773 0.074158 0.202571 -3.581103 0.587226 0.292747 0.149179 1.899585 -0.722100 0.613236 1.530889 0.023215 -0.401586 
colour -1.035403 1.258758 -1.734847 -2.621158 0.308089 1.620929 3.042309 0.287147 -0.825132 -2.192665 0.174161 -3.972075 -0.840732 -2.003141 -0.977660 0.899688 1.115772 -2.531033 1.308728 -0.324389 0.496125 -0.062091 2.701408 -1.431586 -1.520756 0.154428 1.353483 0.056281 1.137356 -2.341917 2.908431 -1.025685 -0.873209 -0.251221 -1.138763 -0.398330 -1.521977 -0.945866 0.704096 -0.090019 0.688077 0.188067 -0.704120 1.833044 0.611665 0.559739 -0.932656 0.267296 -1.604641 0.324575 0.946741 -2.005265 -1.845668 3.410318 2.441915 -0.064787 0.314981 -1.216599 -0.865606 1.603481 1.827252 -1.180036 0.170143 -0.045413 2.219497 -1.181514 1.408814 -2.415297 1.607660 -1.416145 -1.536482 -1.491523 0.716676 -0.660755 -0.688957 -0.967765 -0.783501 -1.371867 0.120714 0.627934 -1.125409 -2.906554 1.010472 0.564249 0.331971 0.221124 -0.434405 -1.139592 -1.475343 1.148460 -1.768135 0.429700 -1.429151 1.709801 1.292927 0.094252 1.933493 1.795234 0.292905 0.056749 
shoes 3.093360 0.457632 -2.615776 2.190403 -2.384322 1.599646 0.045682 -1.206672 -0.583341 -0.807347 3.047620 0.684381 -6.521049 -0.781559 -1.090782 2.000765 3.578236 2.680704 -2.377671 -0.243785 1.948354 -1.112196 0.936095 1.006732 0.155732 1.603345 3.720884 -2.224720 0.663853 1.843172 -0.457867 1.120030 -2.634281 -0.663465 -0.787915 -1.246088 -0.209288 -5.255994 -1.001791 -0.289257 1.190495 -0.441794 0.341370 -2.348928 -2.063367 0.684228 2.082638 0.364438 1.629761 0.684519 0.840795 -0.131795 -1.704717 0.268254 -1.427970 1.215555 -0.627441 -1.070095 -1.340778 -2.438094 -0.720580 -1.870797 -2.189817 -2.901937 0.251502 2.811614 1.365504 -3.081001 -4.636653 0.009798 -2.452724 -0.745864 2.564517 2.470429 0.063658 0.098688 -0.892147 -2.811870 -0.889987 -3.729891 1.292684 2.024391 -0.554194 0.818685 -0.301322 -0.638852 -3.396578 -1.325415 0.250704 -2.258426 3.609717 -0.862414 2.559692 -3.995938 -3.650192 -1.043863 -2.692283 -3.013105 -0.496198 3.251655 
pair 1.255014 1.853092 0.076837 -0.829332 0.785605 0.630547 -1.179707 0.246126 1.602010 3.856338 -4.168809 -1.128966 -4.296885 -0.550484 -4.935648 6.651505 1.270512 2.667640 1.805961 -0.459861 0.780232 0.905933 1.433399 -6.658243 2.474821 -5.796522 1.945665 -0.273088 2.977269 3.726443 0.576997 2.249141 0.126130 2.456941 -4.175975 -1.048102 1.832639 0.212271 -1.752991 -7.206532 5.086223 1.066549 -5.094893 -4.213710 -0.222604 1.923909 0.786006 -1.353611 -3.874318 -2.717999 -1.168762 -3.619339 -1.660194 -3.350495 2.057497 4.951040 6.386633 -2.754882 3.026110 -1.408666 -1.123445 0.223867 3.198165 -0.011143 2.773727 0.714643 3.160026 -4.049980 1.015254 0.545502 -0.443316 2.113930 -0.998378 1.831339 -3.931192 -1.332886 6.394642 5.373470 -0.040156 -0.393497 -0.659489 2.635576 1.247347 -0.532452 0.184453 1.173760 1.956669 1.425197 -0.650650 2.811346 2.668867 3.019503 -0.936137 -3.132606 -4.693813 -3.247616 -0.521602 3.546689 2.899513 -6.799377 
short 0.554867 1.203333 -0.843403 0.406188 -1.115828 4.661684 1.797358 1.557712 1.554205 -0.755798 -0.018320 0.393445 0.749919 1.908940 -4.263030 -2.312700 -2.266112 0.580371 -2.475172 1.048482 0.858168 -2.477238 -0.669582 -2.504984 -1.646605 -1.992248 -0.330032 1.122484 -1.132429 -0.211710 1.347011 0.042641 2.185662 -4.178197 3.063089 1.175107 0.740816 -0.581380 -0.332086 2.489956 1.704685 0.506180 0.764035 -1.346599 -0.567802 -0.976184 0.998961 4.994876 -2.106040 -1.783003 3.098939 0.477252 -0.255481 0.808405 -1.815200 -1.856474 -2.274888 -1.643236 2.568408 2.495707 -0.159088 -0.859449 -3.424875 -1.495070 1.620754 -1.704907 2.971314 -1.704590 -1.219769 -0.453075 -1.565410 -0.641649 -0.617365 -1.594495 1.994788 -2.257797 0.562991 0.020287 -1.495635 -2.769842 0.487603 2.250751 -0.368791 0.145088 0.740366 1.362692 -0.528005 -1.777826 -2.225317 -1.723051 -2.719329 0.590741 -3.091540 -0.872447 -1.016166 -1.496151 -3.738678 -0.833231 -2.407858 0.344814 
has -0.642721 -4.759005 1.118515 -1.403946 2.214711 1.198732 -0.693517 3.016519 -3.500074 -2.506411 3.019343 -1.294357 1.852109 -1.370906 1.745704 1.305619 -1.628799 1.689636 0.864375 2.325619 -0.699806 -1.822639 -2.190889 0.511741 -1.876302 -0.830847 -0.261645 -0.153215 -2.140338 0.766951 1.018875 -2.046715 4.289948 1.298070 -0.750384 -1.761149 2.333152 -1.405436 -1.337379 -3.620682 4.212399 -2.715899 2.833157 -0.477229 -0.810894 1.327261 -2.506328 -0.606630 -0.991575 1.673462 0.476753 0.070764 0.927605 -3.915252 -1.227637 2.220438 0.160849 -0.477525 -0.537301 0.972584 -2.579604 1.419502 -0.084058 -2.160604 0.171842 -1.684145 -0.977614 1.438136 -0.312020 -0.603671 -0.994054 1.650725 5.221036 0.455192 -1.871491 0.095255 -2.928001 0.322294 -3.991215 3.295003 1.217906 -0.495786 -2.118842 3.410017 -1.704007 1.300958 -1.538598 -1.989061 -2.860164 -0.993771 0.234527 1.373398 -0.587318 4.379870 2.252612 3.243975 -0.292346 -3.079697 0.466747 2.141428 
or 1.907398 0.133012 1.239883 -0.392449 -0.311533 -1.892097 0.449205 -0.708459 -0.843394 1.332108 -0.386927 0.366480 -1.136935 1.927587 2.170449 1.372183 1.515661 2.815087 2.457279 1.549388 0.126590 -1.245014 0.555931 3.011415 -1.817704 -0.618780 1.246668 2.390579 0.978051 -1.094584 -0.361389 0.702985 -1.532622 3.313974 -1.300333 -1.038441 -0.298190 -2.101846 -0.214235 -2.197544 0.215915 -0.635891 -1.898139 1.131920 -0.511406 -1.572323 -2.667345 0.085109 2.312827 -0.861248 1.804385 -1.529133 -1.627718 1.341918 -0.155079 -1.352796 -2.168591 1.579896 2.437037 -1.465133 1.033335 1.652107 -0.544238 -0.551564 -0.060462 -0.746168 0.387787 0.668768 -0.256171 -1.457340 0.134217 1.246235 -3.648821 -0.803815 -0.243708 -0.255162 -0.954363 -3.167130 1.431086 -2.321834 -0.328419 -1.260725 -0.257947 -1.666978 -1.206624 1.279030 -0.289582 -1.644248 -1.101043 0.070112 2.213740 0.220410 -0.777520 0.619990 0.733904 -1.459044 0.031038 -0.527473 -0.046957 1.674627 
grey -1.244299 -2.295369 -1.117404 -1.046990 0.397346 0.698070 -1.687036 0.118716 1.466150 0.492231 0.283863 -0.764412 0.674239 -1.489488 -0.292863 -0.487164 -0.317080 -0.261381 -2.107661 0.075386 -3.353618 0.701068 1.204521 -2.338201 -0.310752 1.155650 -0.213460 1.558266 -0.036131 0.786845 -0.568589 -0.715915 0.618992 -2.538275 -0.792844 2.531981 -0.656960 1.247571 1.063560 2.845778 1.155313 -2.423783 0.054030 1.162962 1.625715 0.765104 0.171859 -0.149489 -0.095022 -1.674481 -1.802142 -1.705395 2.236820 -1.984195 -0.500526 0.900555 0.939006 -0.698736 -1.482502 0.262063 -0.602246 -3.049819 1.771248 2.681734 1.047765 2.123015 0.514933 -1.439628 0.505170 3.143764 0.926588 -1.801292 1.017786 1.009122 0.276468 0.950368 0.109341 3.059083 -0.448848 2.086148 -0.040683 2.968866 0.398991 -1.922266 -0.695378 0.071231 -0.579824 1.579728 3.572940 1.789570 -0.049779 0.717891 0.188422 -1.482853 2.486349 1.054522 -0.033628 0.623344 0.213481 -1.355894 
bag 1.496924 2.693297 -1.290236 1.982100 -4.547433 0.781594 -0.746503 1.211594 -3.040169 3.381937 5.199843 3.454627 2.671907 -2.841741 -2.059077 2.041112 -1.212148 -1.114112 -2.316657 -1.205580 0.801804 2.619689 -2.808213 -0.066332 1.417945 2.008222 0.755079 -0.601497 1.970500 -0.193214 -1.669313 1.563637 -2.217254 6.911554 -3.709099 -3.121449 -0.502932 3.383107 -0.222507 4.517365 2.911054 2.394274 0.943208 -4.172533 0.313644 2.535998 1.675609 -1.870633 1.964816 -0.062960 -0.184329 -2.282565 -2.842234 -0.337144 3.156771 -0.957391 0.821371 1.706914 0.844023 -3.733053 -1.160676 -4.349981 0.594543 -2.041087 -1.774682 -0.196701 2.340350 -1.181180 1.791376 0.353658 -0.254763 4.718877 2.476696 0.569385 -1.513797 -0.911055 -3.662612 -3.380879 -4.505365 -1.931183 1.756228 -0.430851 3.101475 0.645490 3.198343 0.014225 -0.059959 -1.328069 0.638297 3.876565 1.144335 -3.580455 1.259364 0.748227 4.728167 -3.095471 -1.658601 0.238210 -2.330917 -2.126504 
right -3.394704 -1.808348 -3.508666 1.042815 1.897158 -2.429474 1.453143 1.432835 2.110057 -0.010745 3.709630 -1.870973 -1.432862 2.075277 4.049203 -4.860491 -0.247277 1.029337 -2.526394 2.595143 -0.030616 -1.576887 -2.387049 -3.017716 2.124659 -1.661254 1.621137 2.388465 3.288717 -4.315239 1.549994 -0.531806 -2.558107 -0.908332 -1.417189 -3.656706 1.459132 1.115438 0.756971 3.149880 -3.554537 -1.873810 1.388420 -2.145216 -0.950534 3.526097 1.175173 -2.405432 2.254971 0.455713 -0.410562 -0.500451 -1.664796 -0.861013 -2.723689 1.013774 -0.815812 -2.606106 2.232202 0.575650 -0.213195 2.300414 -0.251478 -2.304045 -0.427895 -3.661159 0.087574 -0.617192 2.552931 0.692695 -1.373000 -3.984255 3.400049 -2.412208 -1.403038 -2.092067 4.046833 -1.390685 1.677679 -1.975759 1.653073 -0.612705 0.549202 0.519715 0.659304 0.967012 1.767973 -0.774258 -0.934547 2.249710 -0.658302 -4.000036 5.083210 -1.230461 0.133918 -4.025280 -0.308222 -1.189978 1.406808 -1.941746 
wears -0.454571 -5.357007 1.821775 -4.416921 0.339466 -0.011175 -0.770363 2.115643 -3.880273 -0.418346 1.707971 2.721546 2.030959 1.344327 1.639614 1.298975 -0.661681 2.354883 -0.195041 5.860791 0.257600 -0.439713 -2.778423 -0.652080 -0.793487 -2.763414 -0.108865 1.030790 0.157492 3.823179 1.292279 -1.668309 4.221135 1.256803 1.729963 -5.065988 2.058302 -4.002689 -2.926929 -1.739452 3.574649 -1.679842 0.756133 -4.187843 0.812674 -1.642778 -0.928417 0.033100 1.517348 2.267419 1.275688 -1.542013 -0.300212 -0.494814 -0.624129 -1.179551 -1.770492 -1.076925 3.377522 0.630628 -0.571099 -0.721808 1.930801 -2.346607 -1.442599 1.590511 0.698007 1.051516 -1.288692 -1.823349 0.251994 2.535839 3.099413 0.637024 -7.522530 1.854868 -2.289983 -0.040178 2.346497 3.273185 -1.571590 -2.657511 -1.271441 -1.285178 1.151897 3.043044 -1.039137 -2.256491 -2.514026 0.257605 0.993293 1.558439 -0.914444 5.255939 2.366806 3.700910 -1.373317 -0.710232 -0.299545 4.876040 
man 2.070206 0.706982 -1.361666 0.631858 1.638427 2.761538 1.010594 -1.565488 0.782954 -4.543102 -2.380141 2.106931 5.814871 -1.508520 -0.131906 1.602027 1.542638 -0.727703 5.783449 1.127603 0.998539 0.787771 0.005825 -0.705190 4.368169 -1.732748 0.914374 1.019084 3.935405 1.290682 -1.911065 2.802905 -6.258503 -4.321013 -0.079406 0.494690 -0.001612 2.122921 1.380301 -0.072840 -2.609966 1.591687 -3.021581 -0.304527 1.960942 3.811904 -0.960873 -4.064804 0.956665 -0.908146 1.748242 -1.910606 3.636718 -3.395230 0.198739 -0.149689 1.983100 2.008353 -1.725884 -0.510556 -1.393680 -3.352522 0.895468 0.788864 2.724117 -1.417125 -0.107434 0.549891 -2.003125 -1.458266 1.430921 1.527337 1.543273 1.424519 -2.030407 -2.427842 1.295084 -1.464028 0.775216 1.134967 -0.346873 -0.408426 3.582259 -0.513411 0.475184 -2.100125 -0.025264 -0.066123 -3.775855 0.710658 0.621363 1.277038 -2.526445 -0.398611 -1.929576 0.005369 -1.206755 0.587111 2.338243 1.613484 
left -2.338142 -2.161155 -3.527275 0.244914 2.209277 -0.525651 1.592642 0.735081 1.369271 1.014569 4.108451 -1.167873 -1.177184 1.442259 4.458780 -4.401305 -1.194582 0.289406 -0.722570 3.545696 0.512224 -0.923791 -1.311485 -2.277150 2.926046 -1.852331 2.822356 3.799282 3.328892 -4.219708 0.126642 -1.089476 -2.532115 -1.742080 -1.098153 -2.973079 1.276110 0.284112 1.096853 2.925837 -2.298813 -0.520463 0.960534 -1.747076 -1.284783 1.871718 0.773414 -3.038418 2.140971 -0.159192 -0.094077 0.413604 -2.215257 -1.559741 -1.917927 -0.381904 -0.334070 -1.244900 -0.058889 0.289102 -1.303617 1.488142 0.424792 -2.272414 -1.599353 -3.423305 -0.185427 -3.168397 3.405972 -0.255799 -0.846920 -2.784447 2.449040 -2.456613 -2.100478 -1.727018 3.408296 0.145184 1.111850 -1.297597 2.169933 -1.060216 2.883201 1.690948 1.268359 0.811871 0.437243 -0.665450 -1.316493 2.692322 0.877054 -5.236048 4.113548 -0.772815 0.447570 -3.774844 -0.204743 -2.014428 0.983159 -3.547165 
carrying -2.889333 0.075901 4.645278 2.242821 1.519173 4.976076 0.454680 -0.764876 -3.766576 0.655489 1.341107 -0.521946 -1.668344 2.120933 -0.442692 -3.388770 1.499222 1.925773 4.052560 -0.726686 1.015917 -2.120464 -1.269615 0.696012 -1.294620 -6.045344 2.628330 -0.232533 4.729410 0.572464 -0.794405 -6.390850 3.865628 2.325421 -1.468435 0.794594 -2.058209 -0.253566 0.739466 2.817189 2.218966 0.483787 -0.100191 -2.528249 -0.848583 -3.936401 3.466774 -0.148483 -0.290884 1.141113 2.145077 -3.541246 -1.772163 -0.610582 0.365939 2.691478 0.110493 -3.738004 1.333649 -1.453334 1.367877 -3.082544 3.837335 0.395119 -5.431765 -0.632307 -1.773066 5.227549 1.272572 -0.703444 2.269834 1.670891 0.396971 0.161031 -5.135513 1.417739 2.028916 -1.770967 1.212798 2.767548 -0.940415 -2.612616 -1.720597 2.124890 -1.076044 5.921693 5.118214 0.344374 1.475362 0.262758 -0.594809 0.388102 -1.707607 1.195363 -1.377172 0.735874 -1.736998 -1.469814 4.381749 1.950749 
to 4.105508 -1.217999 1.238171 -0.127267 -0.145176 0.292456 -2.907404 3.112692 -3.134378 -2.691690 2.563345 3.171365 1.127282 0.092621 0.325516 -1.217746 -1.961133 -2.521396 1.253172 2.727945 -2.924149 -2.084286 0.324062 -0.176138 -3.809017 1.163995 1.008722 -0.104851 -0.319075 -2.688982 -0.349274 -0.230774 -2.246859 0.226617 -0.608457 -3.495095 1.519586 -2.579116 2.352383 -0.927055 -1.630515 1.414596 1.860826 5.293209 -1.345131 -3.600580 1.115826 3.088420 -5.159708 -0.460997 -3.108533 0.237544 -0.885605 -3.673303 5.858008 2.930384 -1.322929 -1.477938 -1.540140 -0.314351 -2.442117 -1.805676 2.641109 0.860102 -3.410849 3.287701 0.393562 0.490277 -3.024757 -4.741363 -0.837163 -1.032925 2.049258 -2.559734 0.446051 2.225800 2.368808 -1.843939 -1.217169 0.946530 -2.119600 4.375657 4.066600 -0.135570 4.258905 5.763330 -0.051071 2.190333 -2.260420 0.446561 0.845715 -0.170108 0.875295 0.980467 -6.050195 -3.302487 -1.226584 2.305668 -0.567468 0.299573 
hand -2.473421 0.732401 -4.323228 -1.442230 -1.983427 6.429003 -0.454713 -1.182789 -2.128297 -2.158307 1.558090 -0.809527 -1.662594 -3.617034 -2.526755 2.153217 -0.441634 -4.298180 3.012940 -1.695677 2.629853 -0.511621 1.477319 1.889325 -0.938405 1.926590 -0.576827 -0.597141 -5.398090 2.527958 1.863114 -3.350792 -1.614817 2.127447 -2.271374 2.683428 -1.222174 -2.100947 0.401430 -4.275655 -0.609799 -2.183681 -1.032759 3.360520 2.026975 2.248746 0.752408 -2.384970 -1.282476 -3.082600 -2.032320 0.692261 2.047851 -0.394736 1.945826 -5.341393 -0.500977 -1.518634 4.179026 -0.562047 -0.389562 -2.398308 -1.102806 0.558074 0.825905 4.216810 1.608098 3.185699 -1.342631 -1.466343 0.921800 3.691220 -1.122207 -3.072498 2.362285 1.182487 0.711325 -0.856894 -0.836377 -0.108722 -4.516152 0.652124 -3.068087 0.541460 -0.497444 1.050801 2.078523 1.379176 0.530376 -2.554830 2.656265 1.966394 -1.554647 -2.060091 -1.204305 0.531261 0.696266 0.790832 -1.536048 -1.159759 
be 2.192643 0.168969 -0.362446 -5.332821 0.396241 2.016181 2.056900 1.387777 3.975139 -2.037860 4.716454 -3.462928 2.914858 -2.501283 -0.527960 1.923062 -2.661074 3.017247 -3.024125 0.603490 -0.951353 0.061719 -0.434197 -2.712911 4.820929 -0.210277 -2.277165 -0.076028 -1.871406 -1.415415 0.488427 0.326427 -3.763261 0.333844 -0.080425 1.739757 0.759829 2.707961 4.176459 0.897319 4.973302 -2.193471 -3.716904 -4.637101 0.376750 4.673747 -1.416622 -1.931586 2.655373 -2.497660 5.671013 1.374959 0.501975 6.339864 -5.339419 -2.019066 3.471231 -0.652841 1.292130 1.971397 -0.709408 4.262724 -1.681802 1.673086 4.806174 -1.740560 0.562576 0.243618 5.953821 4.495727 3.439621 4.004785 -3.357589 -0.875697 -1.770490 4.924110 0.331376 -0.403211 0.658554 1.547683 -3.110170 -0.483034 -4.779234 -0.222760 -6.357019 -2.189105 -2.465046 0.209215 -0.626660 1.472551 1.185992 0.436411 2.065350 -3.682885 0.167983 2.126096 -1.483148 -1.638264 0.234783 0.514922 
shoulder 1.829714 -1.608808 -1.357585 1.907588 -3.971383 1.631455 1.418125 4.365592 -0.596995 -0.748889 1.340650 1.017960 1.135168 -1.334741 -4.112740 1.718670 1.874484 0.335259 1.400826 -1.484121 6.040683 -1.023557 1.307953 1.432217 1.265180 1.821910 -1.144125 -3.242805 -6.061893 2.454844 0.078308 -1.937126 0.875476 1.938917 -0.474105 2.896417 -1.066240 -1.577181 -0.152312 -1.927872 -0.005011 -1.596547 -0.065863 1.557666 -1.009144 1.965150 -0.130833 -1.503684 1.340274 1.674781 -1.082815 -1.529745 1.018006 -2.188987 1.915198 -1.085526 0.463663 -1.281322 1.664099 1.441376 -1.513735 -0.795179 -2.578040 -0.851635 -3.537203 5.880016 0.233776 1.131599 4.377567 -0.198501 0.909741 -1.239738 0.359796 -3.171767 2.421958 1.684736 0.321780 -2.513852 0.082259 -2.502977 -2.873625 -1.187194 -1.846612 0.240428 0.289977 -1.268220 5.582278 2.548969 6.397631 -1.064243 0.070264 2.494976 -1.289240 0.879536 -3.052019 1.734802 -2.382910 -1.996402 -0.356785 5.274841 
blue -1.495607 -0.474124 -0.021569 -0.501829 -0.311359 -1.830292 -1.896286 1.272612 -0.239514 -1.918822 -0.024179 -2.458210 2.019002 -2.307404 -1.868922 -2.502032 2.098923 0.876772 -0.838717 0.582649 -3.249235 0.947564 -0.194741 -3.177337 -1.788058 0.623613 -2.690287 -0.621136 -0.259456 1.414841 0.710567 -2.095958 0.307427 -3.778877 -0.752074 2.136768 -0.183754 -2.560809 1.418028 0.673245 -0.845421 0.754810 0.622127 0.564924 0.520062 -0.752142 2.026026 -0.680983 -1.653840 -2.719101 -1.242387 0.896033 1.535196 -1.326009 -0.533798 2.002663 1.379656 0.184543 0.049296 0.673613 -0.812735 -0.322411 1.042894 -0.305995 2.046999 0.425462 1.192261 -1.111576 -0.097685 5.221801 1.606485 -1.736143 1.156148 2.455521 0.368802 -0.647128 0.520561 0.639944 -1.651537 -0.136044 -1.650360 1.347165 1.679842 0.378201 1.769134 -3.301419 0.324959 -1.840224 2.843698 2.346453 1.062325 1.972501 -0.290151 -1.288388 -1.028521 0.765395 -0.363013 0.328671 -0.548570 -2.680323 
long 1.273869 4.299289 1.696087 -1.746638 0.096600 1.452697 5.056965 -2.603513 -0.272806 1.372434 -1.741169 2.500165 3.102732 2.294065 0.426551 -0.640872 -0.043593 -0.723543 -0.214286 0.158456 0.274594 1.125832 2.297461 -1.856260 -0.576322 -1.796960 -0.038102 -0.731953 -2.612016 -0.402768 0.544978 -0.116044 -1.274358 -3.124915 2.008647 -0.525020 1.135143 -0.114929 -1.451609 -0.826337 0.692470 -0.297286 2.491046 -2.173748 -1.144534 -1.043014 3.381049 3.132113 -2.378256 0.138617 2.991169 -0.933538 1.618969 0.976891 0.113768 -1.360121 -3.912779 -0.963314 1.077085 2.660479 0.538749 -1.108349 -0.242394 -3.545608 0.628507 -0.618855 4.272337 -1.955903 0.164678 1.610704 0.603659 0.570430 -1.368984 -1.833983 0.086967 -1.756591 0.075098 -0.336466 -1.841113 0.131820 1.920879 -0.942515 1.746344 1.007770 0.326665 0.746452 -1.529212 -4.769788 -0.220400 -2.847094 -3.808785 1.003804 -1.069562 -1.672050 -2.204818 -1.068508 -5.421199 -2.614015 -0.982659 -1.529376 
probably 1.256088 3.172512 0.815467 -2.856889 1.541127 2.474908 -0.056594 1.404036 -1.019110 1.227640 -0.641703 0.815569 0.997441 0.242833 -1.339046 -1.336883 -0.830067 0.415087 -2.609689 1.112082 0.079497 -1.494592 -1.589931 -1.244823 -2.499400 -0.835214 -1.392959 0.640833 0.281333 2.026248 -0.626126 0.677187 -2.711696 1.327972 -3.131114 1.549392 1.460469 -0.086128 -2.203340 0.774144 3.809388 -2.258911 1.284948 2.536239 -1.317309 2.100237 0.707829 0.496004 0.507513 -2.269812 1.300997 0.944184 0.681464 -0.590382 -0.377877 -0.639113 1.845527 -1.642108 -0.796962 -1.135830 1.218361 -0.075112 -0.470065 0.138651 -0.428019 -0.792023 -0.942123 0.764409 0.743923 2.717409 -1.399618 -0.583403 1.314162 0.355451 -1.647789 -1.818753 2.284450 0.709323 1.536953 -1.619492 -1.769438 -4.356901 0.362018 -2.020307 -1.856274 1.355776 1.150831 1.245316 -1.188275 -1.322910 0.876823 -2.476150 0.131659 0.616422 -1.767630 -1.077958 0.375907 1.003210 -0.248555 -1.141044 
jeans -2.517456 1.392236 2.936770 3.122668 2.140551 2.497281 2.961474 -2.540013 2.554663 0.160045 -2.799754 1.715121 -1.639071 -2.503701 -4.335607 1.650807 -3.388619 2.933141 -0.266899 -2.919734 1.628431 -2.393623 -1.739957 3.921974 0.229471 -2.605228 3.135929 2.975624 -2.553158 -3.468943 0.136412 -0.196536 1.239730 -1.090915 3.906261 -3.187347 1.014975 -3.067599 -2.649160 1.371783 -2.094367 0.556896 -1.273965 -0.738342 4.294914 -0.440322 2.127940 0.684433 -1.269794 2.002522 -0.439624 -1.070543 -0.545726 2.407001 1.575704 -2.658249 1.813119 1.598418 1.835356 -2.696630 -5.173470 1.540531 -1.089110 3.265547 0.513989 3.748611 0.564846 -2.111054 2.071706 2.331507 -1.625323 -2.584641 1.540993 0.108177 0.266741 2.177269 -1.087249 -0.440889 -0.603695 0.684617 -0.212715 -1.218623 -1.503754 -0.065484 1.054407 1.364007 -0.542589 -1.487548 -2.853269 0.410517 -1.045303 -2.260336 4.145730 -1.630983 3.271436 -1.307965 0.708450 0.141524 -1.224455 4.770082 
pants -0.840571 2.580810 0.763104 0.882096 1.835187 -1.892748 5.385752 -2.532415 -1.610257 -1.320919 -0.790594 1.632980 -0.429676 -2.682909 -4.079261 1.772131 -1.629548 0.758180 0.775334 -2.556282 0.788605 -3.478202 -4.334504 2.820568 -2.331353 -0.520692 0.791383 1.286183 1.106401 -0.411564 0.037815 -2.295005 0.485287 -0.928644 5.266385 -2.851052 0.704439 -2.906527 -3.135081 1.678527 0.373210 2.552952 0.498734 -1.901499 1.620485 -0.085455 4.567863 -0.746048 -2.185054 0.398471 0.984730 1.239881 -0.400810 2.014919 -0.459606 -3.204202 0.827909 1.132262 2.551674 -4.290930 -2.954422 2.336808 -1.474791 2.721425 0.546742 2.947617 1.453069 0.469287 0.431193 1.269478 0.855806 -2.049281 2.945348 1.760419 -0.992516 1.863334 4.252876 -0.755484 -3.088273 -1.923428 0.696814 0.317042 0.269007 0.659310 2.786232 -2.529326 -0.414708 -0.635206 -2.244619 2.270181 0.164328 -1.949873 4.167321 -2.368909 0.600833 0.504701 -0.000100 -2.498180 -3.224913 6.020507 
young -1.372203 -1.876414 0.243466 -0.525706 -1.493384 2.389567 1.814958 -1.801504 -1.207603 -0.734550 0.390339 -1.041605 -0.996380 1.068648 0.479831 1.890946 -3.420072 -0.588731 -4.498825 -3.371573 -1.159754 2.649950 0.263326 -2.050863 -1.418817 -1.524461 0.421031 -0.569913 0.768443 1.086247 0.128711 -1.763388 -0.400447 1.418765 0.149091 0.270637 4.362583 1.811096 -1.487318 1.387602 -1.572968 1.118741 0.188339 -1.566503 -1.494200 -1.277851 -0.632084 2.612439 -1.832133 1.448085 -1.965352 1.887806 1.270038 0.094862 1.433267 -1.807316 0.315358 -2.064278 -0.660898 1.320160 0.695028 2.819462 -0.805333 -3.472970 1.013919 -0.624339 -2.099881 -2.089093 0.415721 0.698816 -1.429137 2.178572 0.901134 -3.286622 -1.807107 0.959317 -0.453426 -0.352557 0.934050 -1.657393 0.365975 0.667545 -0.935301 0.107898 -0.346905 0.189359 2.155198 0.823789 1.927406 -2.554184 3.660299 2.568867 1.613876 -1.259356 0.861530 -0.113166 0.683527 0.149922 0.470394 -2.001710 
it -0.544222 3.257702 0.698977 1.064306 -5.580137 1.411158 1.641296 1.663013 1.276765 0.777620 0.249268 -3.468741 2.072038 -1.999690 -1.284221 -2.830318 1.929733 0.991027 -1.507013 0.544132 0.852088 0.907067 -0.795459 3.453685 1.799477 -0.989000 2.518966 -0.659877 -0.346668 -0.302661 -1.785479 -0.378311 1.532495 -0.725475 1.809648 1.261319 -0.808124 -1.125312 -1.244337 -0.199654 -1.221163 2.187816 0.379371 -1.410643 1.086846 -0.023698 -2.817350 -1.807340 1.413614 0.266591 2.079470 -6.459044 -4.274155 -1.904407 0.758804 4.592478 0.274865 1.651323 0.656667 1.831214 3.555747 0.654521 0.364758 -3.058631 1.114128 2.671811 -0.272295 -3.480861 1.674211 1.785791 -3.389569 -0.439619 1.920561 1.745098 -0.356865 0.237959 -0.245891 -0.672840 -0.561874 -0.980681 -2.528071 0.601441 -1.001890 -2.216848 -0.756317 3.116774 0.271500 -0.485952 5.060635 5.044687 -2.515391 -0.371467 1.976288 -4.594254 -2.499395 -1.921564 1.272368 3.416760 -1.614937 -0.633077 
backpack 3.553146 3.568067 -0.321669 1.380302 -4.941751 0.228009 0.660797 2.165535 -2.247375 3.398085 0.160932 6.014818 0.216824 -5.471317 -2.851544 0.499617 -4.162418 0.869401 -2.740099 0.560806 2.457128 0.242351 -2.330886 -1.794427 0.044986 3.362827 4.058164 -1.678624 2.433016 -1.232738 -2.455093 0.645159 -1.868998 3.169829 -5.832549 -1.334235 0.772743 0.208014 -0.514879 0.511677 0.533219 -0.501541 -0.421287 -3.835080 1.745844 4.586917 3.316099 -2.086688 2.542189 -0.754200 -1.612893 -2.048101 -2.686681 -0.914937 -0.449928 -1.853047 -0.615152 -2.347717 3.757948 -2.084979 -3.377937 -0.701725 -2.258607 -0.136706 -1.527108 0.754729 0.277294 0.145379 -1.813945 -0.571155 0.884779 3.154465 1.159655 -4.189094 -3.483949 0.316037 -3.674674 -2.237687 -2.131443 -1.891714 3.406531 1.348353 0.016857 -0.882619 2.626721 -2.208588 1.257223 -1.733888 1.567541 1.783017 -0.606743 -3.834869 0.739657 -1.063616 0.921641 -0.566762 -1.525023 2.114509 -0.726613 2.043839 
shirt 0.553048 0.483756 0.020194 -1.299919 2.844198 1.394449 -1.228128 0.699416 3.808794 -1.612319 -4.070329 -1.237481 -1.108552 0.148681 -2.683862 2.558990 3.699820 -0.501611 -1.564947 -2.953272 -1.157505 -2.056812 3.761691 -0.900560 -0.254212 1.624189 3.244028 -2.480766 3.138960 -0.970929 -0.618083 3.216810 -4.092881 0.281925 1.197762 0.016279 1.878734 1.323084 0.166358 3.071067 0.929035 1.402891 -0.567383 -0.631419 2.470114 0.615180 -1.727452 -1.014682 3.016692 0.275165 -0.637668 -0.233674 1.365302 -1.023383 -3.152120 -0.473760 2.167460 -1.271816 2.320971 2.507935 1.901600 -3.864914 2.906425 -2.230615 3.119138 3.190423 -0.389321 -1.340463 2.124418 -1.806810 -0.720532 -0.738020 -1.223665 -0.730660 -1.880289 3.157121 -0.164314 -1.536873 -4.761582 -2.114889 2.047125 -0.580743 -0.227729 1.658780 3.335444 0.454150 0.552536 -0.341158 0.182533 -2.873669 0.718017 -1.601290 0.539143 -1.044635 -0.221628 -3.710744 -3.350787 0.936704 1.701451 0.477102 
brown -3.208508 -0.405423 0.422688 -1.447711 -1.157400 0.816229 -0.579688 2.157639 0.422431 -0.452863 -1.696490 0.842567 0.196024 0.087154 0.319215 -1.206012 0.416696 -0.421217 -1.944287 -0.434531 -1.768009 2.285011 0.532992 -3.453659 1.242926 0.385773 -2.260590 -1.349110 0.056460 2.541358 -2.131617 0.845725 2.656150 -3.047872 0.217479 1.003607 0.509531 1.801894 2.386027 1.483654 -1.119409 -2.838655 0.639895 -0.712971 -0.097990 1.211653 1.986597 -0.773418 -1.217227 -2.608134 -1.030692 -1.264453 2.005122 -0.654850 1.289535 0.923844 1.001295 1.197657 -2.092577 -1.656290 -1.111011 -0.095207 -0.308764 1.274856 -0.915197 0.963798 0.615595 0.449007 1.614279 0.729491 1.113585 -1.390365 2.739293 0.501804 1.799851 0.370075 -0.433561 1.825084 0.221816 -0.001465 -0.195850 0.751991 0.501931 -1.013384 2.062523 0.733923 -0.207737 1.504796 2.358494 -0.202468 -0.161296 1.550552 1.590048 -0.361133 2.008625 0.571749 -1.782247 -0.395011 -0.476894 -1.130143 
back -0.155570 -2.717740 -3.387968 1.351978 -0.263508 -0.279765 3.298888 3.081139 -1.893957 0.196449 4.489387 -3.735830 0.799381 0.966289 0.082531 -4.040499 0.594890 -0.132690 -1.206113 1.085104 6.033115 -2.841654 0.595519 0.540774 3.767563 -0.619324 0.309019 1.588014 -2.484950 0.425131 0.150428 0.006900 -4.403675 -1.535578 -0.703964 6.594425 -0.242798 0.267495 -0.572167 1.296752 -3.578578 -0.653921 0.219923 -2.657642 -0.285321 1.993001 0.936977 -3.607255 0.993266 3.880787 -2.458179 -1.690907 -1.577253 -1.113263 2.259053 1.259338 -1.678328 -2.379625 1.886522 3.433867 -1.879051 0.271422 -0.360528 -2.228058 -2.833017 1.296548 -0.099463 -2.359927 8.086184 -2.193832 -1.537417 -2.223512 1.968221 -0.609567 0.441193 1.323009 1.462319 -2.439773 0.027347 -2.802293 1.183329 -0.706068 -0.228302 -0.053506 -0.386123 -0.591196 3.238459 1.340267 0.246454 3.394482 4.317651 -1.215044 2.584044 0.040987 -0.977611 -2.463837 1.841956 -3.212526 0.368072 2.542161 
girl -2.013406 0.148017 0.160291 0.439350 1.395928 1.997265 -0.441416 3.218797 1.107326 -2.205317 -0.046658 -0.789879 5.905199 1.063188 -0.280102 6.045060 1.964003 0.413174 3.099291 -0.774771 0.032001 2.223679 2.417073 -2.427611 4.594368 -2.530321 -2.198263 2.664026 6.165563 -0.090938 -4.020003 0.506543 -2.439484 -3.401854 -1.726074 1.135502 0.454758 2.329835 2.848499 -0.942312 -1.925102 -0.089047 -1.413475 -0.668920 3.060766 4.943501 -0.608329 -3.334507 -1.482934 0.054694 1.366298 0.771713 0.204947 -4.854359 0.012385 -2.057495 2.242334 0.385650 -0.486871 -2.330873 1.112834 -2.039076 0.270671 -0.396341 1.311341 2.389960 2.597647 0.708112 -2.192376 0.268380 1.108866 0.631704 -1.902930 -1.137736 -1.386462 -0.892021 0.354023 -3.938627 1.099909 -2.207003 -0.689762 -0.666070 1.590171 -1.007690 1.288366 -3.338568 0.589045 2.032736 -2.832801 0.876272 -0.676743 -1.196012 -1.763271 0.617350 -0.243034 -0.212486 1.725764 2.331137 4.640236 -4.105539 
red -1.846640 0.337757 -0.351522 -0.260372 -1.592512 2.197204 -1.667139 1.102627 -0.291783 0.561464 0.160423 0.684168 0.440112 0.175875 -1.750923 -3.532639 2.425730 0.553291 -3.234163 -1.572606 -2.971490 1.604760 0.789293 -2.165413 1.475033 -1.000369 -0.719215 0.479133 -1.413334 0.249771 -0.096942 -1.415704 -0.711884 -1.988970 0.094904 -0.108502 -2.039016 1.576800 -0.008799 -1.503088 -0.922114 -1.352246 0.765122 1.123311 0.457413 -0.499996 0.172664 0.039452 0.598102 -0.224655 -1.344107 -0.074057 1.734404 0.433294 1.500313 0.468369 2.453277 0.624742 1.431143 -1.025271 -1.578707 -0.908317 2.040642 0.807270 -0.620835 1.139436 0.511859 -1.175157 1.745678 1.938752 -0.255657 -1.241661 2.361022 0.496428 0.629581 2.576090 2.674363 2.281323 -1.220734 0.715994 -0.655495 1.553321 1.303904 -3.581728 -0.631810 -0.752985 -2.208723 -0.133338 3.077080 -0.794458 0.770223 0.191879 -0.769784 0.540134 1.085132 1.365313 0.445370 -2.533110 -1.130320 -2.612062 
t-shirt 2.183176 -2.026794 2.159663 1.522354 2.765599 0.685752 3.163305 -0.751109 1.196112 1.202939 -4.234943 -2.356518 -0.715736 -1.427676 -0.499115 2.813873 0.313564 1.206823 6.075463 -1.896587 3.032296 1.271275 -2.042136 -0.698744 -1.206818 2.218305 4.211881 -2.177335 4.617099 3.259902 -1.161075 3.328327 -2.734523 2.093829 -2.132538 -0.754979 1.417339 -0.006913 2.688468 -2.567226 3.603749 1.184579 -1.115846 -0.961437 0.239771 0.690504 2.549040 0.396361 4.268842 0.935330 3.058257 -2.993496 -2.768734 -0.385930 -1.728600 2.266105 -1.111227 -0.860667 2.273567 3.156987 4.491168 -3.370887 1.383853 -4.148175 1.353745 0.478690 1.552194 -0.919455 0.449985 1.089324 1.951995 -1.118614 4.363964 -4.087646 -5.250317 2.992362 -4.455089 -1.909934 -2.102254 -3.361192 4.533795 -1.350819 -0.190923 1.141530 0.288532 -1.066080 1.723103 -0.088722 -0.495237 -3.859129 1.179951 -0.212695 -2.070230 -0.939678 -3.747565 -1.137632 -3.016088 3.732095 -1.365581 -0.672438 
camera 2.209294 2.261600 1.381369 4.142666 1.092510 2.511701 -1.123145 -4.034499 -5.155657 -2.451514 -2.460866 -2.884307 -3.201739 1.267334 -0.221431 -0.638536 0.103289 0.014671 3.880353 -1.811773 5.531919 -0.732454 -2.272519 1.493048 3.731836 2.368694 -1.675811 3.537892 0.989035 -3.497965 -1.530705 -5.602060 2.187325 -3.449619 0.421034 -3.386055 -0.692379 3.699982 2.150520 0.604815 -6.345357 -5.163265 3.062954 -1.386561 1.305148 1.482449 1.562281 -7.554337 -1.689853 0.889576 2.473778 5.534186 2.291883 0.559779 -0.964687 -1.462325 3.488466 -4.450376 -3.263749 -0.079365 -4.486403 -1.559963 -3.131424 -0.600272 3.252289 -0.086747 0.255543 -2.349603 -2.516188 0.519267 -2.639335 4.347580 -0.535326 -1.663555 -3.589960 -5.089056 -3.550216 -2.575228 -1.214404 3.340101 0.458705 3.513597 -5.029409 -7.395083 -1.685410 -0.724926 1.200658 -2.581041 0.741159 0.913507 5.282403 -2.711865 -2.783803 -3.460936 -4.131195 1.576388 -2.626312 -1.919520 -0.541245 -3.095406 
jacket -0.691942 -0.715073 -0.264116 0.553184 1.060604 0.578037 -2.758983 2.156663 -0.428387 0.752119 -3.234061 -0.716373 1.138958 0.069045 -1.144968 2.298172 -0.465965 0.189162 -2.907593 0.096982 1.143986 4.210107 1.517823 -1.161686 -0.353774 -2.671693 5.022384 -1.661358 1.591352 0.670885 -2.273430 -1.020591 -2.710729 1.498826 -0.136012 0.521027 -2.101568 0.395418 0.739284 -0.475434 -0.420538 0.584168 -0.307616 -2.342851 -1.269610 0.838261 -0.317357 -0.916444 0.775372 -1.064427 -0.752153 -0.240988 1.380777 0.993851 0.143975 -1.889381 1.509295 -0.420901 2.315329 -0.566965 -0.276742 -0.505608 1.875817 -1.931848 -1.056146 3.632853 3.333108 2.125875 0.223171 0.026032 0.542659 0.772648 1.755911 -0.596224 -0.866720 0.710514 -0.717252 -1.039867 -2.380584 1.077332 4.903005 -0.131513 -0.930064 1.214523 1.949409 -1.109276 3.305245 1.136755 -1.131017 1.548025 3.561603 -3.617246 -0.662782 -2.581115 0.202707 -1.126919 -4.490140 -0.252997 0.905489 0.913875 
top 1.111445 -2.243830 2.050809 -1.288322 -0.154173 -2.084847 -0.214987 -0.885911 -0.664715 -0.440402 0.185892 -2.136453 0.205407 -2.146859 -2.279523 1.629258 0.232673 3.058657 -1.337667 -2.191695 4.288497 -0.641100 3.073558 -2.005431 -0.613322 0.157520 3.921668 -0.174649 2.174693 1.045483 -1.612786 0.733287 1.501341 0.878239 -0.406628 -2.711017 1.431314 0.530465 -1.885847 0.812636 -0.003092 3.311996 -2.488585 -2.709814 2.186127 1.935006 -1.228013 -2.884121 -0.580484 -0.581054 -1.131051 1.296376 -1.186828 -2.190656 0.623150 1.203784 1.294292 0.376191 3.133823 -0.883520 0.213654 0.183074 1.359355 0.770157 3.073204 2.824111 0.154800 -3.254759 1.898977 0.250174 -1.825434 -2.651376 0.580854 2.193854 1.464956 1.586728 -1.466335 -1.371919 -0.279995 -3.583884 -1.147921 -2.308156 -3.142177 1.465291 0.656055 -1.454006 4.832529 0.738542 -1.559454 -0.610529 -0.298322 -0.974321 -0.566891 -1.982905 -1.014469 -5.752810 -0.403983 2.821644 1.287223 -0.622362 
light -2.966521 0.052339 1.796749 -0.729857 -1.839182 -0.206324 -0.929507 -2.527143 -1.896491 0.577111 1.174085 0.748201 1.185254 0.928958 0.852396 0.124103 1.220908 3.258495 0.244364 -3.129823 1.891995 -0.013295 -0.554250 -0.390818 -1.226675 -2.973470 0.938929 -0.008942 -0.845404 0.522858 2.348546 1.854763 -1.733995 0.177530 0.300239 0.489547 -1.267360 0.122127 0.525197 -2.611454 -1.113785 0.181901 -0.780565 1.827713 1.500060 -0.826197 0.603679 -0.885965 1.054945 -1.466196 1.395531 -1.209579 -2.462222 2.159791 1.095313 0.366323 1.848386 1.207997 0.158836 0.266350 0.720435 0.068529 1.785205 0.425570 0.780700 0.413178 -0.605486 -1.250650 0.157788 0.408976 0.126082 -1.333121 -0.879083 -4.331164 0.497359 -0.934221 -0.005466 0.989124 1.050828 -0.123608 1.855032 -1.249379 0.984002 -2.051469 1.668537 1.331548 0.014935 1.932482 -0.201323 -1.586654 -0.044630 -0.943112 1.265132 1.491706 -0.959275 1.572905 -1.482500 1.057630 -1.706074 -2.749154 
carries -1.588097 -4.967844 2.924499 -2.036137 3.176230 2.592684 2.308808 -0.017320 -3.979245 -2.846989 1.718323 0.399846 0.333179 -0.838971 -1.680104 -0.004825 0.173694 3.375436 0.456232 1.103935 -1.571454 -1.113692 -2.940578 -3.109238 1.259830 -2.924861 -1.318704 2.697893 1.117643 1.656714 -0.539693 -5.595321 4.328125 4.007994 0.684699 -2.277458 -0.171227 -0.956168 -1.811701 -3.863247 3.501552 1.386059 0.039071 -1.879564 -1.433181 -3.718773 3.191194 -1.474546 1.378125 3.032471 1.622001 -4.426503 -0.844061 -2.103855 -1.016488 2.084031 0.874008 -1.443886 2.379055 -0.929016 -0.108751 0.453834 4.661823 -0.960415 -3.209252 1.618808 -1.633138 1.805358 3.362779 -1.898819 2.538856 -1.441423 2.704990 -1.778911 -6.310262 3.227764 -1.001008 -1.469039 1.556471 3.555724 1.024420 -4.285291 -2.388675 0.245985 -2.941561 1.596813 2.678734 -1.135433 -3.944138 1.080367 2.472383 1.645862 -2.603885 5.325769 -1.734295 2.373677 -4.115453 -2.191555 3.822251 1.798879 
holding -4.139766 1.268439 3.968283 1.639364 2.689894 6.603464 -1.979053 -0.544711 -2.151178 0.766335 6.630332 -2.579743 1.123039 2.443591 -1.646399 -2.427830 0.536528 0.282274 1.966909 -0.801107 0.109732 -0.283016 -4.135459 0.628764 -1.683698 -4.360353 5.703425 -1.274929 5.029718 -1.154128 0.804654 -3.874566 3.377090 3.032227 -4.147692 1.327129 0.595779 -1.777120 0.790063 1.663915 1.644759 2.020113 2.806477 -1.975470 2.609283 -3.908241 1.434071 -3.319237 -2.549537 -0.471049 -1.008963 -1.225017 0.920204 -1.634587 1.893510 2.519684 -1.185686 -2.504165 4.024555 -1.379424 1.158079 -0.834558 2.210709 3.201096 -1.011089 0.186723 -0.354832 6.460102 -3.082673 -2.310255 1.592026 1.305152 1.178092 2.747449 -2.421574 -1.335416 2.375033 -1.086120 -0.972895 -0.261444 -3.946957 -3.434620 -0.531786 0.364434 -4.032479 6.108377 -1.315376 1.470600 0.965014 -2.482347 -1.209679 -1.106741 -0.069525 -1.291612 1.945522 0.579883 -1.687811 0.034856 -0.581773 -1.545571 
walking -4.497692 4.488170 2.469106 4.883267 3.174252 3.597458 -0.548123 1.700567 -5.242201 2.654334 1.853691 -6.127832 -0.711451 2.417835 1.521156 -0.461515 -0.987945 -4.968870 -2.234453 1.115147 4.627137 -0.123213 0.718482 0.201787 -2.071127 0.074429 5.500795 0.426407 0.565474 0.758694 -0.482967 1.640317 -2.886928 -1.098410 0.339540 -1.184087 1.383369 -1.095889 -2.323357 1.017426 1.839461 1.195172 -1.233611 -0.128070 2.238778 0.366874 0.229004 1.558668 -1.781784 -0.894231 0.251367 -0.361305 -0.223803 -0.808509 -0.172968 1.134329 -1.361250 0.663055 0.588024 0.780765 0.026650 -1.093073 -0.077041 -3.140162 -1.815898 -2.771033 0.281362 3.413114 2.065288 -0.309447 0.181457 0.104961 1.603507 -1.311434 -0.530425 -0.571151 -1.317382 0.989764 1.208388 -0.225349 -3.263508 4.120772 -0.414402 -2.090583 1.623426 2.153336 2.929155 0.922057 0.458171 -1.329734 -2.942878 2.590118 2.459201 -1.128450 -0.901007 1.373344 0.040590 -0.345039 0.640544 1.122276 
tall 0.650300 -0.085020 -1.203978 2.034504 0.695473 1.901147 -1.471826 -0.128908 2.320782 -1.701478 0.868605 -0.511801 1.518542 -1.008930 -0.878182 -1.962821 -3.256243 1.920929 -3.976798 -2.886741 -2.077263 1.864505 1.026377 -2.860631 -2.777050 -0.616259 -1.763336 0.570690 -1.836618 -0.458216 -0.747637 -0.626683 1.292490 -0.457089 2.660131 2.703920 1.120750 -0.683668 -0.403449 2.827335 0.121048 2.764609 -0.112241 -0.271927 -2.216343 -2.836854 -0.393436 1.862921 -3.181743 -0.859211 -1.367620 2.078114 -1.176762 -2.060119 0.361736 -1.229010 2.137081 -2.333658 0.009958 0.511320 -0.702603 2.196852 -2.718452 -0.939542 1.181481 0.603567 -0.811597 -2.826283 0.811820 0.698668 0.186471 1.392442 -0.500113 -4.031396 -0.816752 -1.269852 -1.584651 0.484746 0.607969 -2.375964 -2.165859 0.384975 -2.612994 -2.527818 1.814377 0.090784 -1.040794 1.427493 -0.470441 -2.824095 3.228756 -0.496451 1.260853 -0.546335 2.034700 -2.222604 -0.624327 0.891872 -0.188501 -1.235679 
shorts -2.159632 3.143448 0.348736 0.944736 1.043773 -0.047515 2.350019 0.224959 -3.819464 0.935921 -0.299582 -1.586344 -0.839494 -0.086771 -5.177049 2.983466 -1.258461 1.534933 1.686247 -2.207507 2.465196 -2.342024 -1.550109 3.552240 -1.455374 -2.278598 2.811841 -0.132581 1.536245 -2.359219 3.048673 -0.904998 -0.726673 -0.131526 0.469987 -2.170278 2.477096 -2.988678 1.773807 3.199551 -0.810517 -0.178587 0.359677 0.140302 2.461642 -4.239332 2.474315 -0.860255 -1.136643 -0.567495 -1.143105 0.007977 0.283341 1.435939 -2.058904 -2.819484 -1.154289 4.768850 1.843785 -1.627434 -2.640650 0.135111 -1.483438 4.126373 1.153763 1.516552 -3.629506 -2.123558 -0.254269 1.783872 -0.820085 0.135026 3.207530 0.074945 -0.982518 1.193982 -0.084164 -0.262720 -2.978272 0.787805 -0.568344 2.605421 -0.183621 -0.809528 1.763359 -5.189378 1.651432 -1.307172 -3.398215 1.155270 -0.580276 -1.880779 2.323106 -1.437458 0.995778 -1.922787 -2.072466 0.105346 -2.751382 3.527190 
slim 1.662131 -3.437095 3.673690 -3.224915 3.287466 1.971084 2.663635 1.545729 -1.961007 -0.036606 0.502926 2.213734 -2.313959 1.130496 0.160095 -3.161587 -2.481531 -1.522807 -3.002013 -6.168691 -1.685734 3.975322 -0.249159 -1.924426 0.877150 0.103595 1.685540 0.443079 0.357514 2.065304 2.020708 1.387090 -4.185764 2.272407 -0.415973 -0.754430 -1.519661 -1.580711 -1.008313 0.178391 -0.225585 -1.338909 -2.311186 0.557027 -1.593967 0.333187 -0.758216 -1.546086 2.687255 -1.175252 -0.993882 1.156289 1.730134 -2.200977 -1.857071 1.427624 0.548839 1.626335 0.130887 0.823156 -1.498890 1.058462 -2.583551 0.263513 -2.091980 1.524523 0.423752 1.126874 -0.604333 0.130754 -0.942595 2.942157 -0.107812 1.335148 0.071686 0.203059 -0.503948 0.099606 -0.311653 1.181140 1.973676 0.985742 -1.936599 0.477624 1.991074 -2.840550 -1.375695 -2.431648 0.568874 1.368395 -3.715523 1.677564 -0.629299 -0.490261 -2.352358 -2.818621 1.988515 0.122370 -3.689675 -2.051998 
trousers -1.603314 4.070615 0.709174 -2.388220 3.816705 -1.141400 2.166039 0.560361 -3.311114 -3.026288 -0.554009 -1.494076 -0.614208 -3.616739 -3.827167 3.102089 -1.218811 0.968545 1.175941 -3.565143 1.873541 -3.117329 -3.962985 4.542212 -3.503255 -3.389016 2.401931 0.014198 1.754872 -0.454066 3.483757 -0.268607 1.327446 -2.551013 2.661257 -1.475983 1.312494 -0.909482 -0.531695 1.917637 -4.133458 1.962051 -1.835075 -3.005431 3.463282 -1.110297 2.692108 1.588366 -0.177085 -2.129869 -1.482185 1.736437 -2.262737 0.828610 -2.296118 -0.990491 0.900394 1.670025 3.700757 -4.080532 -4.329246 0.089778 -0.681817 0.229653 -2.243472 3.197844 1.396613 -0.666492 0.858610 -0.504204 2.208515 1.186156 0.347615 -1.336736 -0.275821 0.503881 1.230404 -0.233791 -2.649537 -0.632498 -1.593027 0.547184 -0.065327 0.717086 2.168149 -1.177946 0.926906 -1.329111 -2.209318 1.629689 1.699241 -1.926572 2.162666 -1.558882 1.654218 -1.976218 0.577209 -0.191510 -3.588396 3.586919 
boy 0.881840 3.202718 -0.339054 -2.484906 -0.653649 1.433422 -2.883701 -1.629000 0.595901 -3.003081 -0.656099 1.266297 4.397557 0.755368 1.371968 2.449825 0.843937 -0.025985 3.562701 -0.561515 -0.279159 1.468978 -0.632534 0.366881 3.345586 -1.677797 -1.918966 0.952558 3.036996 -1.326423 -3.156947 -0.700109 -5.705310 -4.245162 -3.660061 2.290514 -0.441957 1.127456 2.195056 -3.009598 -0.651728 1.909084 -2.364721 -1.731109 2.538394 5.140868 -0.595341 -3.531873 0.892812 -1.666396 1.269745 -1.381452 -0.114230 -5.515932 0.013128 -1.495892 2.314928 1.884837 -1.780677 -1.211149 1.288758 -4.095086 1.724153 1.566712 0.195853 -0.329519 1.691050 1.364545 -0.081880 0.503959 -2.772542 -1.166976 -1.124443 -1.260891 -2.686827 -1.370165 1.623340 -4.364137 -0.899111 2.479714 -3.151062 1.712168 5.810048 -0.370749 2.018353 -3.158664 1.655159 -0.043094 -4.658419 -0.293759 -1.025482 -1.541470 -1.909120 -1.130444 -0.210739 -0.469644 0.837631 0.343148 3.527200 0.319109 
appears -4.497754 0.858586 -4.291193 0.836425 1.964757 -1.998518 0.182482 -3.552747 -0.528887 1.021069 -2.868319 2.313861 -2.415917 6.133148 3.158795 3.345322 -0.544620 3.003162 -4.176805 0.432707 1.535523 2.391061 -2.607335 -1.497959 0.878591 -3.482660 -0.618939 2.442774 -0.517086 3.269634 2.554628 -1.938058 4.143697 -1.437562 1.704084 1.792632 -0.066495 1.664997 -5.036134 0.455860 -1.261891 1.617010 1.099148 2.851600 -0.357993 0.905677 0.158153 -2.384989 1.516556 2.187966 -1.503947 -0.809012 3.980679 -6.064024 0.428785 -0.939935 -2.133100 0.531414 0.957476 -4.461966 -2.373187 -3.284920 0.792140 -4.482187 -0.584558 -4.030437 -2.736521 -0.821300 -1.151284 -1.165225 -3.826576 -2.527378 2.098194 0.110464 0.376640 -4.599754 -2.238166 3.355800 -5.578795 -1.187274 2.062662 -4.310579 -3.337914 1.890777 -1.693434 -3.970271 -1.992312 -2.946217 0.211775 -0.804459 -1.381329 2.557251 -3.568745 6.406247 1.374510 1.681400 3.586156 -2.060599 0.037444 0.359335 
woman -2.249123 0.707920 -0.835868 1.688005 1.217902 0.866331 2.081299 4.574458 1.636463 -2.824006 0.443248 1.676544 5.850356 -0.037671 0.316267 1.745312 2.597112 -1.370650 5.050655 1.766716 2.310295 1.281802 0.858326 -1.000920 5.813583 -2.784012 -1.234278 1.923154 3.722096 2.039270 -2.440014 0.968545 -4.559303 -3.727844 -0.435143 0.653908 0.868537 2.440912 0.886500 1.077555 -0.158353 1.490783 -2.305498 -0.431463 3.463567 3.390659 -0.779913 -4.564990 0.602813 -0.277805 2.364498 -1.066707 0.900143 -2.826828 -0.361084 -2.237449 2.495536 2.056159 -2.291715 -2.300686 -1.331330 -2.019748 2.895738 1.221444 2.582484 2.389579 2.442354 0.401620 -2.176091 -2.583153 1.412550 1.351715 -0.572903 0.168848 -0.767778 -1.506993 -0.100055 -2.545142 0.373089 -2.196869 -1.109889 -0.830004 1.583332 -1.666387 0.479526 -3.920354 -1.827632 2.525424 -3.826030 0.376400 -1.789553 -1.549706 -2.325770 0.508075 -2.180928 -0.364129 0.105536 2.662111 4.357581 -2.922239 
tshirt 0.560014 1.431131 0.386705 -2.879092 0.294149 1.916116 -0.312613 1.077976 0.828019 -4.252894 -7.014250 -1.866181 -1.846663 1.196210 -2.083719 1.368549 0.592080 0.623819 -0.648112 -4.354763 1.141236 -2.788400 1.726567 0.046950 2.150034 -0.726064 2.943732 0.562514 3.496881 -0.756095 -1.367376 0.692664 -4.154483 1.384205 2.375316 0.316791 0.431831 -0.205696 0.872094 2.585537 1.300394 4.284001 -0.610281 -3.994732 4.550535 2.686642 -2.602344 -1.227294 1.586813 0.365513 -0.684356 -1.238740 1.114553 -3.678277 2.049583 -1.033483 -1.242168 1.980718 2.245461 1.616911 1.661494 -2.424246 -2.050669 -2.742452 -1.366982 3.004370 0.592250 -0.428170 -1.175407 0.082635 0.282845 -2.290009 1.237103 -2.430230 1.065107 3.672314 -5.022358 -0.687136 -1.560585 -1.835836 4.236829 0.360555 0.243260 1.926062 -1.035003 -0.790640 -0.195705 -1.769326 -0.096787 -0.452651 2.690374 0.379640 1.786792 -3.926507 -3.396172 -4.636245 -2.551590 3.139102 0.916797 -1.251058 
something -3.791251 0.604272 -0.609863 2.433183 -2.182031 -3.090854 0.965079 -0.959892 -3.703926 0.688085 3.345101 0.417620 -4.433576 -2.548645 2.310773 1.473202 -1.586559 -0.500636 -0.197738 1.329707 1.341803 -0.247826 2.742705 -0.207966 2.466948 0.505836 -1.135366 -2.777451 -2.033026 -1.824813 0.032894 -2.937174 -0.066585 0.340273 3.766588 -0.149691 0.307911 -1.684163 -0.238876 3.072047 -1.907449 -0.435838 -0.021143 -0.073774 -0.894924 2.837405 -1.017358 2.908607 2.664268 -2.916909 -2.692215 -2.238593 1.710950 1.590756 -0.448577 -1.835804 1.393582 1.122609 -0.413948 1.229871 -0.578206 -4.904286 -2.032132 -0.823097 2.412617 -1.274187 1.308368 1.080688 0.246148 1.214364 0.912550 3.969215 0.635784 -1.693632 0.606433 0.444357 -0.999834 3.099892 -0.280721 -0.879618 -2.387912 3.564363 0.301760 -1.175949 3.962643 0.741310 0.042787 0.106074 -2.325566 3.396999 -0.114134 1.045364 -0.699045 0.115209 -2.175826 -0.462536 1.582422 2.595853 2.982171 -0.119589 
this -1.478063 1.493243 2.125157 3.406430 0.531965 3.272188 -1.435523 -1.107253 -1.511858 3.990360 3.832521 -1.282689 -2.148134 1.260626 0.626727 -2.391222 -1.916837 -1.908143 -0.674264 -4.515561 -0.657165 0.895290 2.459345 -0.669554 -2.814744 0.331778 -0.070255 1.193862 2.705670 -0.646614 -0.461307 0.434545 0.079028 2.866660 2.378833 4.566019 2.437279 1.380649 -2.608324 2.975075 2.084303 -0.042124 -0.161412 1.699599 -2.673223 -2.675972 3.067633 0.698962 0.041451 -0.832939 1.505422 -3.050382 0.938374 3.087545 2.242948 3.410326 0.649687 -5.054532 1.489862 -3.435328 0.820519 1.863071 -3.218167 1.481983 -0.968041 -1.204515 -1.559528 -0.063345 -2.356330 1.208300 0.259847 -1.300960 -3.266633 -2.404608 1.615981 -2.154369 1.906890 1.995802 0.345241 -1.037452 0.607273 0.488049 1.877850 -3.309787 0.771723 -0.980800 2.870872 0.707346 3.547439 2.430091 -2.515103 0.944390 1.363242 -4.393253 -3.824820 -2.142008 3.153564 4.733135 1.572130 -1.387803 
green -0.575985 -0.045782 -0.866803 -1.243733 -0.300450 0.661841 -0.828801 -1.714262 3.025755 -0.309724 0.901321 0.139906 -1.448796 -0.065784 -1.009194 -2.080832 0.854102 0.406167 -1.068679 -1.575517 -2.422665 -1.593962 0.447212 -2.168793 -0.008008 -0.552211 -1.700960 1.587148 -1.281300 2.670316 0.134488 -2.153230 0.886507 -4.163287 -0.756079 -0.137544 -0.270500 0.576795 -0.759270 2.138595 -0.072464 -0.492350 0.547810 0.199833 1.810978 1.268803 -1.297764 0.641282 0.663574 -0.526791 -1.579681 -0.926823 0.061225 -1.245130 1.651999 -1.266022 0.796590 -0.020845 -1.963184 -0.522430 -0.928079 -2.846732 -0.028610 2.172152 1.948087 1.830578 0.790655 -0.550830 1.738607 2.500926 1.256001 -1.795344 1.336287 0.965075 1.501919 0.436925 1.061283 2.579024 -0.818581 0.287990 0.211513 2.048620 -0.588762 -1.483145 2.600802 1.011491 -0.827733 0.720136 1.956270 1.080054 -1.597437 -1.326989 -0.731803 -0.368187 1.368919 1.187420 -0.293685 -1.177096 0.806341 -3.667870 
beige -2.833663 0.806598 -1.202736 -1.166646 1.479476 2.515239 -3.034797 1.101897 -0.168364 0.043284 0.630826 -0.136911 -1.983600 -0.301849 2.383725 -0.664278 0.745133 1.521071 -1.454597 1.867706 -3.457615 1.188932 2.305718 -2.381956 -0.173123 2.796515 -2.369531 0.133844 -0.845974 0.406819 -0.972515 0.546866 2.194002 -3.926647 -0.373042 0.631489 -2.111681 1.744408 -0.607740 4.219802 1.521284 -1.230090 1.456793 0.406660 -0.112444 0.512572 -0.658961 -0.743946 0.524913 -2.008541 -1.796025 -2.913478 3.997241 -1.846721 0.820220 0.858426 0.493043 0.760295 -0.167355 -0.470089 -1.160371 -1.699673 1.990330 3.127521 -0.275956 2.961021 -1.361405 -1.867759 1.358564 3.451458 1.367016 -2.887375 1.623372 -0.926839 1.026814 -0.541640 1.406931 2.041889 2.735282 1.218557 0.338922 3.093378 1.433889 -0.633884 -0.403951 0.014932 -1.127095 1.619142 3.338466 -1.075884 0.220835 2.590046 1.158813 -1.945112 2.208853 0.027238 -0.988211 0.380895 -0.803861 -1.914100 
which 1.926962 1.455154 2.079881 1.487736 0.346899 0.856907 2.216834 -2.190349 0.163813 3.815777 1.443498 -0.389609 -0.750881 -1.353219 0.760274 -0.853414 2.377354 -0.480742 3.606330 -1.138437 2.627535 1.232596 1.329847 3.690076 -0.321324 0.535767 -1.530833 -0.363234 2.688021 -0.965201 -1.572456 0.046345 0.951530 -1.548429 -0.040193 0.311741 -0.756373 0.303477 1.947894 3.073935 -1.536592 1.123715 -1.149711 0.098352 1.373592 -1.520038 -1.696317 -0.748106 -0.249286 1.340084 1.986999 -0.355003 0.325919 5.794214 0.783050 2.194985 0.532951 -1.260753 -1.265062 -1.615451 3.181664 1.028807 -0.198198 0.398672 -0.572166 1.464003 0.132233 0.976930 -2.129882 -0.512796 -1.160494 -1.157659 0.323265 0.656133 2.601686 0.768309 1.579141 0.388326 1.344628 -1.270242 -1.808859 3.441296 1.182597 -1.764464 -0.270032 4.366811 2.062907 3.209224 0.545384 0.115182 -1.903188 -1.797475 -0.377057 -0.844877 -3.384590 -1.914671 1.917841 1.984493 1.507792 -2.301380 
are -2.909160 -1.063320 -2.297317 -0.934325 2.399236 -1.119919 1.573933 -1.578357 -3.399190 2.540962 -0.198885 3.697477 1.647477 -1.266834 3.059897 -0.487029 -0.334641 -2.280609 1.624785 4.518553 0.183898 -3.009390 -1.964435 -1.763030 -1.175942 3.193661 -0.521202 -0.530076 -0.919357 -2.511781 1.066037 -1.225309 0.575180 3.823391 -0.878338 -0.919794 3.041915 1.551265 5.576296 -1.770277 0.360945 -2.273644 0.963940 2.010423 1.389372 4.155296 -2.180200 -1.119777 -1.301006 -0.063466 0.755340 -1.837414 -3.787596 -2.641074 0.461818 0.843747 1.603001 -1.286585 4.947128 4.320248 -1.552447 1.729930 3.425027 -1.822831 -0.361648 0.610128 1.939367 -1.299882 2.764811 -3.418537 4.241062 0.737084 0.248591 -3.282528 -2.638175 -0.780392 0.098550 1.741109 -1.258622 4.479764 0.211739 -2.731154 -0.609577 3.715442 0.499840 -1.421695 0.083598 -1.938096 -2.371485 1.911691 3.673380 -0.403669 -0.967547 4.508168 3.810588 0.044392 1.123669 -0.687449 1.345751 1.043871 
who 1.879180 4.154618 1.901722 2.676894 1.385173 3.910838 -0.025848 -2.683575 2.617868 5.871940 2.312987 4.013011 -2.657792 1.940993 -1.275601 -0.557601 -3.030761 -2.214833 -1.376080 -2.234296 2.928307 1.309203 1.783620 1.288938 -0.682314 3.690265 -1.676723 -1.727116 -0.072298 -1.182870 -0.867297 1.852371 0.723238 -0.692042 0.105041 2.853620 3.160313 2.611818 -1.714892 2.399929 0.035221 3.163854 1.667989 0.540867 -1.967436 -3.633131 -0.423790 -0.287377 -0.130648 0.083811 -0.602469 -0.747204 -1.206851 3.223526 -1.545255 1.864873 -0.987329 -0.247633 -0.843552 -0.480232 3.141626 2.309054 -1.677258 -0.726009 1.941266 0.859371 -0.974592 1.645387 -1.097275 3.003258 0.962452 -3.361186 -2.514277 -2.639271 0.419468 -0.067731 3.603113 -1.018309 1.742921 0.347442 0.284950 1.159357 1.306540 -2.261026 -0.336745 0.025636 4.188823 1.313612 0.933537 3.719782 -1.683270 -0.721176 1.497660 -0.669416 -4.608795 -2.698764 1.588153 1.361374 0.357135 -1.524459 
color -0.086502 -0.713275 1.841538 -3.093209 -0.679488 0.603557 2.495607 0.609471 0.359252 1.036887 1.498385 -0.066370 -1.738686 -1.282265 2.210017 1.211312 2.821244 4.191360 2.059924 1.228280 1.865234 1.337234 -0.598889 -0.685662 -0.943303 -0.470320 2.931911 -1.572453 1.264222 -1.084589 0.093019 0.764777 0.075721 2.771968 -0.535658 -0.708215 -3.354702 -0.380982 -1.905559 -1.129879 -2.279920 1.427739 1.432500 1.422160 -0.299120 -1.099933 1.956803 1.421118 1.990537 1.177203 2.744616 -2.140573 -0.852871 0.963429 -1.564204 1.280032 -0.483684 -0.654611 0.875499 0.988306 -1.362294 -1.384578 1.148956 -0.025112 -0.638452 -0.266950 3.226417 -0.473015 2.847606 -0.433514 -0.467231 -0.585607 0.077085 -0.205494 -2.416652 -4.664567 -1.611033 -1.439171 2.145543 -1.453666 -1.806455 -3.109710 -0.328789 0.853310 -0.942757 3.059626 2.429089 -0.182759 -2.888394 0.598543 0.320528 -1.316634 -0.106998 -0.991147 -2.218323 1.652557 0.406253 0.540445 0.309219 -1.185550 
glasses 1.049518 1.932449 -0.975710 2.803598 1.358428 2.226343 0.986264 0.279698 -0.485102 -5.976953 0.427942 -2.355572 -3.655746 0.661236 0.674340 -2.467412 -0.964120 2.608850 -1.109802 -3.435847 2.159618 -1.008164 1.137300 0.023135 0.649370 0.871740 1.942357 1.683694 -2.554537 -2.271355 -2.678893 1.546906 -2.025225 -0.828579 1.340788 2.168767 -2.425599 1.335997 1.924052 1.194816 -3.216782 0.059248 0.899823 4.411563 2.608927 -3.536505 -3.094987 2.845224 -2.784689 -3.722809 -2.168604 -0.421295 0.249909 -3.144618 0.298395 -2.702727 0.352514 1.326719 -2.490826 2.024945 -0.681112 -1.839719 -1.745887 -2.108715 -0.769374 1.182349 0.119093 -2.266810 2.041519 -1.085928 0.046778 -0.652952 3.763461 -0.082416 0.327107 -0.024926 0.533007 -0.746717 -4.370076 -3.280058 2.110457 1.500991 0.485051 1.145672 -1.499110 -1.226735 1.835679 -2.171606 1.989789 2.219608 -2.367674 1.218971 2.687868 -6.028552 -0.182890 -0.066621 -2.120874 2.067188 -3.321362 0.594212 
arm -0.366667 -0.841487 -3.587209 -1.421935 -4.514588 6.214252 0.551217 -2.234472 -1.028651 -2.673332 2.289573 -0.710008 0.080985 -1.722444 -3.537802 2.061102 1.441199 -4.273939 4.459208 -0.788169 4.279455 -1.007127 0.902204 0.788602 -2.086221 3.067637 0.448982 -3.252954 -9.028507 4.619350 0.842916 -3.781646 -1.644053 2.993636 -1.297715 3.046728 -0.606301 -2.751165 0.924488 -5.489027 1.450399 -1.749311 1.169356 2.460256 1.967624 2.468728 2.083397 -1.266625 0.313088 -1.911889 -2.486524 -0.417670 2.051605 -0.535785 1.542302 -2.419357 0.292544 -0.597313 1.456983 0.149714 -1.867504 -1.714852 -0.964810 0.372068 -0.795626 6.132378 0.887342 2.025486 1.897115 -1.900020 -0.528804 2.087076 -1.412035 -3.463071 1.652797 1.582611 -0.886866 -1.650941 -1.322079 -2.794611 -3.460144 0.365460 -3.745505 -1.918828 -1.231966 -0.572160 2.432949 0.637632 3.122116 -1.188136 0.457559 -0.070080 -0.109646 -0.007540 -2.225561 1.860282 -0.335974 0.238150 -0.131894 -0.689374 
watch 1.851276 1.595730 -0.542758 -0.707712 1.718402 3.610280 -1.621775 -1.557372 -3.051752 0.200608 3.423509 -2.586275 2.251583 0.284369 -7.189591 -3.724160 -2.565367 0.954972 -2.909592 -2.053680 6.770888 0.530876 -2.946098 -2.225904 2.817144 -0.708468 -0.539124 -1.541271 2.404064 -2.638359 -7.714415 1.687304 2.809554 4.897798 0.365144 0.578567 -2.591105 -1.908627 -1.735063 1.091149 -0.541996 0.563908 -2.992947 5.095328 0.919410 1.418051 1.866417 -1.405969 4.081147 -1.083838 -2.588681 -4.251712 -4.403257 -3.842659 0.720049 0.546282 1.271269 1.323073 2.490699 0.339254 2.706854 -1.385900 1.654447 1.901252 -1.640892 1.115731 1.175732 -0.117273 5.247264 0.813594 1.601667 0.829969 2.748554 -3.551545 -4.198567 1.869928 -4.680382 0.779727 -8.614969 -4.911285 4.276148 1.568169 3.011387 6.168412 -2.444505 -0.190559 0.340056 2.532488 3.856881 4.168918 3.588208 -0.677544 -0.665228 -4.596584 -4.365805 0.388799 -1.638276 -0.758396 5.199992 -2.221515 
wrist 2.329429 -2.875949 0.341913 0.270997 -4.614170 7.542194 5.820114 4.256007 -1.379734 -1.108205 2.448703 1.701661 -1.703640 0.661470 1.168498 3.486254 1.718496 -1.617412 3.578984 1.715588 1.932293 -0.791158 -0.455397 -0.208059 -1.498154 0.787500 -0.331139 -2.576661 -3.787438 2.763014 -0.799178 -0.351490 -1.925270 -1.235036 -3.388492 2.267392 -5.529719 1.101640 -0.992130 -5.444060 0.750234 -0.017180 -1.049795 -2.815364 0.194071 -0.713309 4.558743 -0.262071 -1.362728 -0.939795 -4.416093 0.947830 -0.566397 -1.156297 2.806441 -4.313559 3.149878 -3.583694 0.609184 0.358179 -3.143049 -5.534631 -0.252286 -3.008753 1.422249 2.426766 1.104874 0.546532 0.439421 0.058206 2.878527 0.183828 -0.221284 -1.319299 2.769643 3.050286 -4.048287 -1.892736 -3.171476 -1.436614 -2.619461 0.150062 -3.153592 -3.060205 -1.005538 2.279381 3.602861 1.822861 3.517030 3.110001 1.405960 0.379961 -0.407242 4.398715 1.909696 -4.253964 -0.981050 2.683031 -6.544196 5.528305 
pink -1.784535 0.785760 0.339063 0.815908 -0.194797 -0.855828 -0.885058 2.465629 1.489217 -1.237168 -1.412165 -0.727796 -1.177731 -2.507926 1.337568 -1.066406 -0.788291 -1.825713 -1.644423 -0.832173 -1.582470 1.374727 0.188746 -4.314629 0.269977 -0.959915 -0.351836 -2.278055 0.405738 1.503092 0.022870 -0.635093 1.871841 -4.488197 -1.788586 0.788474 -1.384888 0.354492 -0.413444 2.377563 -0.562942 -0.129352 1.510737 -1.375626 0.762366 1.354292 2.587669 0.930890 -1.404798 -2.363261 -1.427441 -0.389861 1.830875 -1.438821 3.260085 0.888521 -0.037838 2.384564 -0.755311 -1.206999 -1.020982 0.919228 0.309090 0.180737 0.408975 1.650593 -0.953347 -0.057308 2.141396 2.893255 2.706312 -1.874004 0.924854 -0.307968 2.988173 0.115754 -0.043539 1.672557 0.395109 0.920495 -1.597452 -0.660144 -1.164346 -0.569281 2.876313 -0.565287 0.068774 0.514254 2.658920 2.185686 -0.653172 1.657914 0.182597 -2.203668 1.141946 0.803114 -1.070437 -0.382680 0.274262 -2.533208 
that 1.230815 0.323774 -0.976298 -0.971691 -0.095440 -0.703381 2.026065 -0.148970 -0.994292 0.407915 0.873002 -0.198718 -1.321913 3.631256 1.090870 -0.837173 0.083328 -2.583277 1.331158 -1.726176 4.053041 1.372868 -2.110011 1.353551 -2.215477 0.044777 -0.458124 -1.409742 -0.140808 0.413746 -3.663658 2.062164 -0.311228 2.809414 -1.319434 0.113685 -0.363994 -1.671591 1.739933 1.758502 -0.980882 0.139311 0.548865 2.858848 0.029641 2.239758 -1.789794 -1.115769 -0.981267 1.419026 2.628135 1.631417 0.353439 2.969356 0.141215 1.875449 -1.249382 -1.827413 -1.043770 -3.033665 2.275918 -0.063260 0.561637 0.036657 2.811238 2.132203 2.663436 -0.664841 -0.466819 -1.244562 -0.526688 -2.606959 1.129200 3.777859 -0.623239 -1.120644 4.134041 1.765262 1.568821 2.594621 -2.269267 1.369507 -1.503789 -2.056113 -0.668818 0.926022 -0.397588 1.716299 -1.945413 3.854102 -4.054808 -1.588326 -0.997249 -0.921437 2.844960 1.176284 -1.200908 1.287790 -1.776877 -0.189884 
very 0.393535 0.913503 1.252228 0.059773 0.738546 1.956269 0.317655 -1.670589 1.039036 -4.130906 1.294322 2.438303 0.040019 -1.316674 1.125361 -1.418163 -0.994254 -2.209785 0.547502 1.012567 1.941178 0.239680 1.421263 -0.989913 0.030688 0.614143 -0.374268 -0.773093 -0.299179 -0.499643 1.123763 -0.102883 -0.179721 -0.032613 -0.648728 0.639777 1.124711 1.419573 0.416402 0.175585 0.767415 0.882681 -0.471898 1.026742 -1.115860 0.190740 -2.028652 -2.721998 -1.156126 -0.474775 0.224967 -1.387441 1.078369 -0.839698 0.588721 0.378450 -0.664630 -0.528981 -0.765561 -1.603991 0.304716 0.647259 -0.742177 0.774599 2.389727 0.074203 -2.547762 1.162613 -0.907828 2.308402 -0.677335 -0.189311 0.478674 -0.440060 -3.165460 -0.802348 0.538612 -0.096009 0.730099 -0.879543 1.935927 0.800112 0.966097 0.093471 0.130322 -0.018388 3.850266 -0.243173 1.211727 1.514258 0.161083 -0.496249 2.309925 1.746285 1.856837 -0.172055 -1.495008 0.602120 -0.679148 1.566788 
spectacles 2.428949 2.411955 -0.848981 3.453538 1.808982 5.214127 -0.684843 0.657855 3.904418 -7.342814 -2.514093 -3.869040 -4.322784 -0.290178 1.119402 -0.488542 -1.414386 0.681520 -1.541764 -4.009081 -0.521207 -0.189106 -0.393795 0.391447 -0.455959 -2.009197 -0.101029 2.264682 -1.047086 -3.322357 0.580778 -0.629955 -0.360641 -2.078014 1.354249 2.778387 -1.726648 1.200855 0.988796 0.453232 -2.415651 -0.934237 -0.330498 4.082879 3.100852 -2.520942 -1.067780 1.477738 -1.757099 -1.193700 0.041476 0.926699 -1.174049 0.414946 1.889152 -0.726566 -0.394359 2.444653 -2.589997 1.089732 -0.786853 -0.104283 -2.952745 -0.508223 1.543134 0.979266 0.563804 -2.460058 2.352741 3.525714 -1.522433 -2.830925 2.630371 0.891193 -0.895037 -1.029660 -1.200927 -1.112912 -6.832061 -5.298467 1.508755 1.483326 -1.219840 -1.698412 -1.876653 -1.712395 0.378577 -0.971568 0.561395 2.757347 -5.130021 0.953636 2.668435 -2.502094 -1.663321 -2.327308 -0.514850 1.152296 -1.530530 -1.360711 
an_asian -2.255707 -0.261689 0.653076 1.833391 -5.033693 2.718872 3.255941 1.402726 0.842896 -4.118809 2.838554 0.604447 -2.703719 3.232651 3.873562 0.856043 -1.517880 -1.123555 -1.221812 -3.565331 -0.330026 2.479724 1.634106 -0.024055 1.903328 -0.293327 -0.446965 2.094652 -0.909857 -1.848268 3.427277 -2.291877 0.051549 -3.058670 3.189521 1.526402 2.567015 -4.073490 -1.390754 2.362487 -4.893832 1.083851 -0.466119 -2.135174 -0.485383 -2.655411 -3.838793 1.141180 -0.588100 0.532303 -1.368196 0.272165 -0.786367 -1.353797 0.557133 0.827146 0.678451 -3.631345 1.190423 -0.554447 0.777992 0.847165 -1.217161 -0.261617 -0.437694 -2.400984 -1.460125 -1.459219 -2.529532 1.238732 -0.548333 1.189270 1.142291 0.264593 -0.000214 1.538973 -1.786590 -2.697422 -4.320676 0.182404 -3.391521 2.986904 -1.935871 -0.425076 -0.894547 -1.298298 1.279305 -2.980701 -2.356783 -1.155628 -0.362249 2.641894 0.652575 -2.615405 2.579079 0.891429 0.387162 3.171299 3.453525 0.990336 
large 0.581749 -0.248857 1.788991 1.000123 1.896638 -1.910569 2.261765 -1.041113 1.369353 0.976755 0.558923 -2.371932 0.778094 1.290583 -2.708373 -1.055184 -0.893905 -1.354580 1.056159 -0.409803 -1.182686 -0.499776 -0.278107 -1.233214 1.920462 -2.289663 0.806653 -0.335367 0.985439 0.819265 1.770076 -0.642835 -2.702479 0.010316 0.182606 1.464728 -2.834044 2.172308 1.625459 -2.097289 0.551048 0.392967 3.203832 0.169382 0.749602 -0.044170 4.705936 0.279110 2.660368 -0.385149 0.008316 -0.646137 -1.292308 2.477156 0.999197 -0.053605 -0.054113 -1.357848 0.282989 -1.329802 0.440509 -1.037038 -1.712503 0.137004 -2.395252 0.733738 0.179094 0.089505 0.029520 -1.028774 -0.721889 1.173741 1.302447 0.534461 -0.743955 1.117271 -0.169577 -1.591724 2.787591 -2.017692 -0.239079 0.178830 0.183633 -3.763623 1.971308 0.334592 -1.394922 0.691746 -1.469880 -1.247197 2.651352 0.859219 0.443885 1.841146 -1.637477 3.115962 2.383177 -1.286006 -1.884719 -1.650728 
straight -1.327369 -1.942490 0.216760 3.368895 -2.448392 4.148071 -1.771770 0.391633 -1.267429 -1.832283 -0.741453 1.135731 -0.898228 -1.594847 0.940642 -1.567620 -0.721962 -1.617215 -1.491973 -1.181789 -1.758136 -0.890192 0.043219 -1.916655 1.418887 -4.419191 -0.330748 2.275292 -0.486285 1.067096 -1.606990 5.234338 0.391030 -2.009098 0.650534 -1.702757 3.789218 1.494662 -3.262593 1.639143 0.125944 1.831481 0.541472 0.279739 -2.332852 1.280673 -1.654884 2.549698 -2.105854 -2.287838 -0.121873 1.750202 -0.578534 -0.206458 -0.545781 -2.432385 2.328315 -0.369950 -1.347712 1.939626 1.079096 2.233059 -4.742969 -0.107096 1.399144 1.561578 -1.535152 0.538820 1.761937 -0.579879 -2.527677 -1.876562 2.572898 1.070040 -2.929172 1.761610 -1.573515 -0.184638 2.508512 -0.866584 0.700910 -0.915331 -1.821272 3.101974 2.107243 -0.955629 -0.056941 -0.162697 -2.105870 -2.024242 -0.189853 -1.113154 -5.711413 -0.405184 1.982902 -0.887465 -2.389196 -1.818299 -3.820601 0.930744 
tee 1.137981 1.293362 1.393477 -1.630687 1.662725 1.799994 -2.480214 0.641877 0.757350 -2.104971 -7.012871 -2.094230 -2.716087 -0.685674 -2.007237 2.755758 -0.041031 1.371901 -1.056692 -3.373319 -0.180005 -0.938930 0.413270 0.588954 1.408444 -1.479425 4.655411 1.382537 2.218261 0.047444 0.927045 0.323774 -3.001579 -0.330082 -0.773875 1.017170 0.618262 -0.492783 -0.299485 2.055573 -0.090855 4.765168 -1.582293 -4.734772 4.526157 2.702213 -0.140703 0.908732 3.413942 0.459068 1.836920 -0.288809 -0.181274 -1.886919 1.109386 0.731619 0.010900 3.044054 1.993092 1.077202 1.974802 -1.191337 -3.152496 -2.782728 -1.568722 2.888209 1.384966 -0.298882 -2.116457 -0.092843 2.039210 -2.414366 0.614860 -2.929950 1.488050 2.583892 -4.821006 -0.868458 -1.961456 -1.884089 1.822720 0.785327 0.696739 2.516533 1.171156 -0.326218 1.365628 -2.557487 -0.591187 1.178838 3.279917 0.814491 2.558568 -2.854226 -3.124922 -4.069287 -1.414922 3.359274 -0.951567 -0.987638 
an 1.838918 0.219320 -0.663654 1.506093 -4.010742 -0.168436 2.461889 2.496646 -1.041524 0.992954 0.806596 -1.943149 -5.425098 -1.357079 -0.484255 -1.698580 -1.837963 5.729894 -2.634114 -0.478077 -2.475122 0.233681 0.341350 1.561137 1.184345 -0.342725 1.795300 -1.431347 -2.998181 -2.192770 0.544092 -0.140368 -1.003348 -5.133435 3.200322 1.708952 1.069768 0.514677 2.874766 0.016920 -0.196410 1.016128 0.487178 3.642477 -1.139027 -2.343871 -2.843422 -3.318208 -2.414215 -1.472737 -0.511884 2.044300 0.419722 -0.704634 2.952605 3.402271 0.307456 -0.166291 2.481295 -1.274427 1.890622 0.680509 -0.005728 -1.499701 -0.454279 0.927594 -1.475451 0.177239 -1.064942 -0.549690 -2.590701 2.870206 -2.952555 -1.080451 5.621050 -1.191714 -0.330053 2.583700 1.995847 -3.546490 -1.899573 -0.004821 0.024823 0.898245 1.003191 0.189259 -2.226249 -3.530914 -0.165725 1.097830 -4.596417 2.480396 1.782153 -2.021719 -0.801163 0.464772 0.452092 -1.582036 1.574026 -0.397160 
sneakers 1.266373 0.705349 0.117712 1.065264 1.676079 0.776206 -1.265061 -1.097439 1.274687 -3.484612 0.990789 -0.872942 -6.351808 -0.043213 -1.238447 -3.151659 -2.882649 1.417591 0.307418 2.211112 2.068860 -1.059647 2.729913 -0.815338 -3.373078 4.080918 7.018747 -3.282688 1.340826 0.662856 -0.270961 0.593468 -1.041479 1.564742 -2.179534 -2.128383 -0.790472 -2.867263 0.538786 0.006776 -1.503827 0.095484 2.057572 -2.927067 0.210771 1.294241 1.552623 0.658091 2.560281 1.618655 1.030130 0.340168 -3.340962 0.690819 -4.903374 3.696263 -0.403401 -1.087372 1.605960 0.720985 1.068330 -1.748580 -2.158085 -3.697111 0.521680 5.409044 -0.775999 -4.829260 -1.469447 0.296599 -3.218040 0.950592 1.298048 -0.283158 0.357100 0.324704 -3.463416 -3.316866 -0.997242 -1.314278 0.275399 -1.537290 -0.380367 2.828035 0.196228 -4.109238 -0.739929 0.396612 -3.873320 -2.338297 2.376566 -0.053680 0.480523 -2.508774 -1.933832 1.141739 -0.767308 -1.101247 -4.997520 2.472782 
seems -3.962051 0.436954 -3.981219 2.061921 1.953519 -2.234298 0.260850 -6.358881 -1.776317 -0.021164 -1.293204 0.272326 -3.804120 6.562387 1.273369 -0.559512 -1.363505 2.780058 -1.377120 0.536361 1.569086 3.233606 -2.179547 -2.179404 2.099463 -3.977295 0.712716 3.212517 -3.560940 5.298609 -0.252776 -2.363963 5.006696 -1.982153 2.502015 2.128222 -2.076204 0.290812 -6.796658 -4.121851 -5.096586 1.788742 3.005988 4.384626 -2.993618 1.156961 3.063772 -2.185747 3.553837 2.708414 -0.809772 1.535054 4.377291 -3.939409 -1.899829 -1.534426 -0.278937 -0.354577 3.177764 -1.161367 -1.832565 -5.186671 1.389829 -5.545689 0.582809 -2.282848 -4.788033 -0.483213 -0.860944 -1.413507 -4.352544 -2.625751 7.554737 3.496684 -0.478464 -4.193607 -3.097749 4.219891 -4.498071 -2.461867 4.171513 -5.340896 -6.341466 1.113614 1.774953 -3.857805 -1.661436 0.486893 -0.719312 0.636558 -1.947336 1.062565 -2.671123 6.413056 3.389115 0.875624 1.954093 -0.121688 0.288562 -2.345176 
might -2.393222 -1.868681 -2.277759 0.147207 2.842440 -3.545333 -1.303010 0.091274 -2.373769 -2.068077 0.148089 3.471408 -4.971307 1.372645 -0.035015 -0.391265 -0.286524 -0.181062 -1.744410 2.644105 -1.064809 -0.351598 -3.346454 -3.637010 -3.024794 -5.181259 -1.358786 2.121188 -0.986390 4.222605 -0.029500 -1.136514 3.525495 2.308809 0.255367 0.898353 -1.544706 -1.143530 -3.912153 -6.102502 -3.148102 1.371275 2.860379 8.352704 -1.802287 -1.435906 2.497183 1.156526 -2.476812 4.085299 -4.691177 -0.387692 1.823807 -6.486970 1.746430 2.008726 -4.271502 -1.654883 2.167170 -2.785927 -3.409734 -8.864295 3.861687 -2.600081 -2.643113 2.324358 -1.606005 -1.111401 -2.847879 -2.619728 -6.427717 -7.818379 6.767489 -0.931700 -0.620459 -4.012928 -2.605923 0.711122 -3.837913 -2.509938 3.465227 -1.123079 2.441231 -1.866103 5.281432 2.387161 -1.397056 -2.395642 -2.062492 0.629777 0.175421 -1.278769 -0.833825 6.420845 -4.185546 -2.366792 1.030672 0.050358 0.218394 0.338302 
thin 0.492147 -5.612151 4.377975 -1.162209 -0.270696 1.030815 0.719221 0.475691 -2.046716 2.107569 -1.272981 1.323659 -2.917377 2.091206 1.645249 -3.730824 -1.525122 1.479918 -3.160765 -4.341061 -3.512590 2.125062 -0.439158 -3.309359 0.160125 0.099999 0.887887 0.314167 -0.084230 1.901379 0.635462 1.417063 -3.198163 0.992188 -0.703656 -2.369869 -0.731219 -0.501426 0.127584 0.110897 1.288484 -0.708814 -1.964677 1.515803 -0.179631 -1.057618 0.179454 -0.927767 2.044945 -4.077025 0.274989 0.944009 1.696060 -0.566094 -0.306855 0.036095 2.699533 1.374578 0.437155 0.162376 0.599203 -2.630117 -3.297361 -2.125104 -4.113562 0.321044 -2.125450 0.540122 -0.691171 -1.330034 -1.207094 1.446951 -0.433565 -0.681529 -0.207058 0.851281 1.245883 0.551169 -1.632558 -0.529280 2.172353 1.265209 -1.759737 -0.852427 1.398876 -3.455667 -0.923647 -2.296246 0.521558 1.759419 -2.995454 2.910895 1.175738 0.419978 -0.422925 -0.652750 0.754375 -0.238041 -0.757391 -2.858951 
skinny 0.565593 -3.282629 5.459735 0.471223 1.614032 -1.225370 2.398731 1.551020 -2.093726 2.846956 -0.479386 2.195199 0.020352 0.245775 -0.416120 -1.412478 -0.560464 0.556445 -2.555677 -3.683729 -1.967147 -0.409104 0.244094 -2.969410 0.238211 1.368132 0.769789 1.368104 0.406440 1.150050 1.086628 1.289554 -1.009405 0.261126 0.046246 -0.908491 -1.878429 -2.304569 -0.779678 -0.849827 2.399972 -2.113479 -2.183674 0.913505 -1.550311 0.335008 0.812307 0.473139 3.569531 -1.455848 2.854479 1.078107 0.912087 -0.792138 1.234556 0.608703 -1.066096 -1.067472 0.047750 1.904521 -0.019025 0.256908 -0.324661 -2.040348 -0.821108 1.544640 0.867555 -1.637131 -2.801574 -0.439403 -1.418719 1.204763 -0.458904 2.943706 0.819933 1.714106 -0.061809 1.443733 -1.467444 0.606476 1.260674 -0.819634 -1.412138 2.602182 0.309980 -2.397415 -0.335764 -1.875106 0.577770 1.016369 -0.987487 2.374568 0.965076 0.233941 -2.038926 -1.871354 2.252064 -0.233277 -2.350571 -0.971152 
looking -1.163074 2.154629 -0.610344 4.479072 2.328658 3.087568 0.132742 -0.317632 -4.417233 2.664047 1.200642 -2.180494 0.137632 0.932581 0.688072 2.166344 -1.422634 -4.197668 -1.879367 -1.092272 4.347529 -0.498758 -0.674955 1.001175 2.227164 2.224988 0.428803 -0.362595 -0.599766 1.722242 2.460797 -0.476801 0.062164 0.417969 -0.352936 3.354545 -0.444517 -0.289245 -1.476077 1.895641 3.692703 1.573224 -0.786153 0.224321 -1.088800 -0.047040 2.010605 -0.021362 0.048106 1.757768 1.120783 1.776824 2.212852 -0.253586 -1.538884 1.017615 -0.279487 -0.370120 0.653600 3.410547 0.582534 -1.576427 -3.160733 -3.097137 -0.169183 -0.278182 -1.146817 2.275122 0.600236 0.868227 -1.564824 -0.625913 -3.067325 0.284217 -0.237631 0.597226 -0.083971 -0.535608 2.330298 -1.734144 -1.541041 0.434447 -1.642090 2.324231 -0.715452 0.066124 0.414638 0.603756 2.550925 -2.385671 -2.366141 2.918586 0.113817 1.946440 2.740589 2.330530 1.155220 -1.411982 -0.398994 -0.287226 
can -4.337643 -2.516654 -2.052392 0.738534 2.576816 -3.057641 -3.750381 2.885558 -2.930332 -0.109946 -0.796758 3.277033 -6.105901 1.556031 1.796610 -1.215964 -1.801475 0.883397 0.159928 1.561537 -2.112101 2.706058 -3.289432 0.801677 -2.437860 0.712591 0.965772 5.241530 -0.707152 -0.426756 -3.640219 6.793371 4.755873 1.154730 3.952900 -1.547057 0.356348 -0.297671 -1.885719 -4.798933 -4.186249 1.306432 3.009547 -2.297677 3.210737 -6.581899 1.086749 4.213778 -3.442578 2.158339 -2.213118 -1.243952 0.595830 -10.092014 8.610426 -0.597492 -5.691463 -1.858132 -1.494128 -0.702308 -3.294345 -6.314808 4.967238 -4.227705 4.746315 1.517303 2.354466 4.469017 -5.377273 -0.274798 -8.302098 1.318777 7.686337 -5.863973 -1.577662 -3.808989 1.274288 3.679548 -2.538427 -2.040763 -0.349943 -4.671171 1.996208 0.898057 1.998024 -3.349159 0.323203 2.381857 2.827956 -0.000838 -3.335729 -1.842268 -2.556872 6.686874 -1.318516 0.415165 1.639909 -1.045457 -2.304926 -2.106622 
seen 3.067040 -0.558094 -0.183180 2.736112 -0.901490 -0.358250 -1.920252 0.011937 -0.083089 -1.912005 -0.931768 1.623819 -0.853469 3.083546 -1.530129 2.113613 4.444640 -4.546901 -0.029138 -1.146130 0.890806 1.122035 -3.305061 -2.915816 1.006179 -3.813543 -0.660619 -0.269609 -1.755830 0.127640 3.724835 -3.848310 -0.349964 1.942546 -3.505546 3.672384 0.990664 0.863513 -2.237050 0.532914 -3.487602 -0.692163 1.211854 7.790373 -1.464220 0.247255 2.279306 -2.061874 1.006348 4.124483 -2.895597 1.804796 -2.961241 1.087172 -2.086614 2.198789 2.139946 -0.325072 -0.274714 -3.098149 0.706332 -2.590568 1.593230 1.216410 -2.485554 0.502020 1.952726 -6.291124 1.057561 0.917978 0.458634 -3.408965 0.877460 0.206407 1.215405 -0.859254 -4.141752 -0.972372 2.268797 -2.190879 1.012603 1.954994 0.136541 2.152803 4.733115 2.266368 -3.920527 -4.257366 -2.250366 2.385369 0.570893 1.007442 1.466801 -1.795835 2.017885 -2.140842 -1.749505 3.614955 0.742914 2.923406 
facing 1.065264 4.196456 1.278229 5.910916 -0.624401 7.655180 -2.670966 2.878446 -6.339997 2.543808 2.154424 5.535961 1.960009 4.052954 0.095552 -4.131787 0.435781 -1.431704 2.899224 1.908162 -0.201618 0.203354 -0.665958 -0.345845 -3.405459 -0.368850 0.241737 -2.079256 -2.643109 2.291655 2.965797 0.517028 -4.081880 0.095751 2.816425 0.803677 -1.434646 -1.454750 0.859621 -2.542688 2.715568 2.792288 1.558685 0.543695 4.268182 -0.198512 4.301692 2.098986 -1.545179 -0.599185 -2.045865 1.346331 -0.672846 1.042819 -1.816881 2.864323 -3.372687 0.328745 -3.968632 -1.266274 3.368225 -1.192258 -0.183233 1.088667 -2.338270 -2.521419 -0.456060 5.434141 -0.594368 -1.991904 0.324481 -1.530249 -0.625016 1.030641 -0.932488 0.717811 -1.399635 0.162484 -4.115810 -1.356276 -3.762609 1.187301 -1.076450 5.486531 0.606687 2.200196 -0.035548 5.654961 1.651621 -0.773175 -2.180815 3.350216 2.664972 -0.778506 7.091034 5.144928 0.194614 -0.147533 -0.709589 2.109215 
profile 0.340537 -0.720632 2.208820 -0.145461 -1.198975 1.489120 -3.006104 -0.161019 -2.269238 -0.219467 -0.007585 4.401414 -1.729276 3.854697 -5.752330 5.185135 -5.030487 -0.813292 4.082949 -2.612870 5.571899 2.373877 3.006206 -2.001674 2.720007 0.401865 -2.285923 -3.398513 -0.229729 4.079867 -0.719042 -0.686786 0.624998 3.911758 -2.708398 1.454218 0.678076 1.660444 1.401493 -6.055667 4.972680 3.579485 -3.158856 -1.708166 3.383487 -0.630278 3.143770 -0.115267 -3.599633 -0.956816 -4.125495 -1.071690 3.797174 -4.086784 -0.909183 -0.861811 4.759031 -3.781095 3.795592 -2.823170 -0.439483 1.102398 -1.374065 -0.480981 2.532323 4.071591 -3.359597 -1.099913 6.625806 -1.210023 -0.917338 5.038607 2.566709 1.905745 -0.283060 -3.432642 4.632041 -0.552007 0.003453 3.427164 -1.700988 3.309802 0.263855 -4.330945 -0.862176 1.316105 4.035053 2.878373 -2.239792 1.422228 1.287414 2.174606 -0.281783 -3.147530 -0.918539 -3.827720 2.019973 4.120985 0.256520 -1.876389 
along -0.412285 1.849286 0.204959 -2.787420 -3.353835 0.070741 0.710582 -0.996332 0.861977 -2.665625 -3.756076 -2.038911 0.733033 -0.301832 -3.358063 -2.134377 0.903291 1.917540 2.948673 2.049508 -0.780921 1.850145 0.345872 -3.174992 0.707846 -2.926557 6.150938 2.244210 0.060789 -1.376287 3.139903 1.975400 -3.263384 1.538070 1.335240 0.334504 0.142352 0.290645 -0.339766 2.208074 -0.940533 1.051126 -1.357834 -3.364175 1.342832 2.508617 -0.432193 3.810740 4.472693 0.592396 -1.236109 1.277462 1.150627 -1.928295 1.230470 0.335616 -1.270887 -0.911532 0.832029 5.002118 2.269936 -2.260761 2.103740 -0.249711 3.536128 4.941328 1.367748 -0.945614 -7.264653 -0.391830 2.247349 0.381598 -3.419703 1.916781 0.009166 -1.604185 -1.209064 0.355927 4.609880 1.153769 -1.364421 1.346571 -0.487351 2.003356 4.533553 -4.017180 1.413035 -1.645334 0.587858 -1.370780 3.058467 3.450462 -0.311955 0.133621 1.360193 2.308253 -2.305907 2.373927 -1.963237 -2.176458 
s -2.979577 -2.480598 4.606395 -1.462337 0.599797 -0.853972 -3.542445 0.055160 -3.351125 -0.325584 0.262072 -0.508861 -0.778868 0.892714 -0.793170 -1.024366 -2.550314 -2.369416 -1.820923 -2.138393 -4.020913 -1.396436 -0.246006 -0.108879 -1.322206 -1.001166 -0.839301 -0.985139 -3.283053 1.256515 0.697883 -2.563599 1.366192 2.358663 0.726162 -3.182408 -1.373907 0.601997 1.968620 0.113599 -0.241370 -0.200117 2.796462 -1.367901 -0.520864 0.237982 0.740996 0.090188 -1.151145 1.515749 1.605274 0.587273 1.661704 2.162935 -1.630945 0.233365 -0.494665 -2.571744 -2.538045 -1.008434 -0.740461 0.268736 -1.745313 1.921687 0.278107 -2.129709 0.005152 -0.273372 0.262113 1.211209 -0.999071 -0.312644 -0.281781 -0.320788 -0.059315 -0.363175 -2.755193 1.744851 -1.946966 -1.384949 2.533812 1.409488 -3.337862 -0.377553 0.263927 2.021039 -1.643392 0.624340 0.087793 -1.006443 -0.869208 1.463371 0.830067 -0.191256 -1.565577 2.655022 -0.437186 0.775245 -0.232270 2.969483 
colored -1.025589 -0.674576 2.237703 -0.324309 -1.119305 -2.617440 4.914254 -0.112029 2.057430 0.714006 1.980708 0.531483 -0.016599 -0.911395 -1.444677 0.165915 -0.707664 1.750293 4.123009 2.596103 0.378851 0.673795 -1.167298 -1.989218 -3.116346 1.753770 -1.555587 -0.678122 1.488866 -1.718835 0.737395 -0.499613 0.649039 -0.607489 -0.000679 1.750817 -0.179994 -0.111195 -1.226839 -2.152352 0.427316 -0.515192 -0.983333 2.828302 0.136798 -1.144577 0.860708 -0.091144 -0.011312 -0.683552 -1.271708 -1.066276 -2.102208 -1.372447 0.179666 1.334377 0.033934 -2.939272 -1.111207 0.086234 0.457264 0.672061 0.254872 0.980088 1.256289 -0.521832 -0.509004 1.813294 -0.210191 3.989244 -0.938267 -0.407630 -0.828028 0.637940 -2.429693 -2.396292 0.765558 -1.068881 -1.067555 -2.824779 0.366375 -0.039236 -2.415607 -2.291260 0.543191 -0.421812 0.893543 -0.630299 -1.266460 -1.645298 -0.275554 2.405958 -1.078079 2.379123 0.441540 1.781909 -1.687753 -3.021242 -0.773309 -2.276819 
eye_glasses 2.802451 2.184474 -1.575342 4.829644 2.142057 7.270193 0.282659 0.298599 3.581195 -7.491159 -1.471478 -2.704788 -5.490233 -0.498467 1.147525 0.200104 -1.600001 0.398563 -4.210502 -4.860633 0.164591 1.415969 -0.526870 -0.701099 -1.733808 -0.987014 -1.537280 1.631919 -2.110902 -3.892082 2.568592 -0.596217 -0.029171 -2.741726 -0.425228 4.133696 0.627442 -1.199274 -0.057607 -0.572812 -2.185008 0.172721 -1.870784 4.063848 1.457391 -0.549758 -1.136730 1.987217 -1.221468 -2.856219 -1.040866 -1.146965 -0.992908 1.215067 1.554370 -0.043022 -0.431219 3.582966 -3.660537 2.736002 -2.048945 -1.126666 0.291235 0.147011 2.438263 0.784919 -1.814310 -2.020302 -0.353375 2.635143 -0.224107 -2.844235 2.762711 -1.220605 -0.903498 0.793909 -0.744663 -0.268459 -8.746638 -4.411920 0.483178 1.601171 -2.301485 -0.358880 -0.202584 -0.912670 -3.873228 -0.903564 -0.442375 2.655418 -2.819070 -1.032710 -0.198839 -2.781811 -1.943116 -2.597414 -1.352484 -0.571312 0.002204 -1.504252 
over 2.112068 -1.073380 -0.260685 0.842862 5.382196 -0.255243 -2.041146 -1.091300 0.814990 -0.560928 -1.717008 2.190084 -2.281366 0.765402 -1.112996 0.088597 3.095070 -0.826363 3.511180 2.226206 1.717105 0.596879 -1.218974 -0.794826 -2.668298 1.301322 0.593378 0.098636 1.096797 0.261933 -0.647204 -2.983887 0.557335 0.820599 -0.457301 -0.045904 -1.772798 -1.635766 1.461944 -3.971883 0.351293 -2.048413 2.252722 0.370250 -0.021536 -0.153963 -0.719148 1.387986 -0.657796 -0.939100 0.790479 4.941611 -0.013123 2.918677 -1.186530 -2.832467 -2.469785 -3.520376 -0.503287 -4.853960 -0.386681 2.533889 1.262379 0.452424 -0.612626 -1.240915 0.704488 2.989895 0.316319 -2.833923 2.803718 0.512416 0.204000 -1.130704 -2.646821 -2.950214 -0.738557 -3.912737 1.598294 4.243551 2.870680 0.976882 -1.876451 1.162327 -1.345581 -0.262011 -3.935684 -2.156207 -2.277278 -0.203843 -1.934365 1.216276 -0.813406 0.413861 1.041920 2.390059 -0.753149 0.105572 -2.942152 -3.030900 
also 0.473319 0.847803 0.098452 0.125937 -0.730193 -0.567064 1.319425 1.109420 0.456918 -0.649884 0.901030 -0.021431 -2.269695 -0.906707 2.099436 -0.800106 2.185545 0.507301 2.761410 0.433353 -0.589565 -0.914650 0.363448 -0.466980 -0.107108 -0.796004 0.008696 -0.044232 -0.167742 -2.729316 0.097997 0.711620 -0.120049 0.626734 0.167410 1.162524 -1.829636 -1.447956 1.939295 -0.456307 2.394276 -0.502348 0.504075 0.823911 -2.033797 -0.579549 1.368990 1.288594 -0.818942 -0.741145 -0.589167 1.922536 3.086384 1.017472 -0.281058 -1.183057 0.547016 -0.354555 -0.569221 1.123673 0.026859 -2.287608 -0.231187 2.234402 1.429476 -0.819024 0.147799 -0.832489 1.351156 0.095718 0.209924 0.366088 0.376424 1.492763 0.204426 -1.060589 -1.389452 -0.691875 -1.134788 0.010774 -1.278231 -0.518431 0.415291 -0.476852 0.380110 -0.900183 0.572059 1.376399 1.772626 0.870157 -1.182519 -0.051193 1.587280 -0.223705 -1.430705 -0.170250 0.255067 -0.959411 1.336321 0.098641 
while 0.074292 -3.131213 -3.642841 0.461166 -0.705368 1.566017 -2.752546 0.468408 -2.652471 -1.619571 2.540606 3.807492 -3.481827 1.014717 -4.809053 3.698010 -5.569355 5.637352 3.187678 0.627461 -1.528437 -1.082256 -1.946619 -1.702135 -0.592429 0.239765 -5.297202 -0.732753 -0.847507 0.008869 3.274708 -0.762457 -1.730571 -1.166100 0.628087 1.285554 1.821568 0.005533 -2.714289 0.129093 -2.133130 -2.123666 5.186650 0.015681 -1.533274 -0.110298 -3.179638 -3.689658 2.648234 -1.005988 -1.964386 2.015650 2.409739 2.466427 2.589668 -2.465753 -2.404708 0.951586 -2.462405 1.170846 0.519666 -0.385427 -3.601744 -0.641021 -0.260416 -0.337336 1.252513 -0.907317 -2.662247 -0.225447 -0.009272 1.481923 1.967998 2.223423 -2.508669 2.480355 0.133069 1.289131 -1.698084 0.941615 -2.584733 -3.872170 -2.071099 2.108423 -2.378942 2.618000 0.842552 0.062816 1.714173 1.292869 0.764245 -3.159967 -0.139036 2.420424 2.204990 -0.902205 -0.388181 -0.990834 0.164026 0.401614 
full_sleeve 0.575929 0.447660 -0.320275 -1.589606 0.697604 3.848745 -1.485708 0.246295 0.265148 1.025697 -2.695260 0.788511 1.542477 -0.842968 0.488776 1.793930 0.992638 1.582651 -0.664013 0.512880 -0.821426 0.691149 -1.011948 0.811590 -0.506051 -1.288114 1.979832 1.065664 -1.836970 2.797056 -1.864858 -0.438869 -1.334926 -2.016931 -0.038431 -0.251184 -2.156536 -0.561330 -0.902897 0.839703 -1.850472 0.931792 -0.568773 0.705706 2.253836 0.375952 -1.803462 0.867255 -1.573367 -0.292044 0.234849 0.763209 -0.890953 -2.336808 3.319860 -3.147678 -3.098834 2.453193 -0.295029 -1.922328 -1.370815 3.654962 -0.280849 0.433932 1.235117 0.122821 0.632154 -0.210776 -0.363006 0.157239 0.271962 1.595917 -2.523496 0.423910 -0.351512 -1.774804 0.043540 -0.860715 1.493884 -0.133573 2.125873 0.616994 0.130662 -2.077525 -0.834970 0.571576 -0.555622 -0.170834 0.505961 1.750187 1.477062 0.923643 -0.433753 -5.217053 -1.083065 -0.439966 -0.258014 0.424882 -1.714779 -0.356377 
