1007 400
</s> 0.001001 0.001105 -0.000958 -0.000820 0.000342 0.000755 0.000235 0.000053 -0.000901 0.000555 -0.001089 0.000312 -0.000188 -0.000239 -0.000829 -0.000471 0.000645 0.000756 0.000742 0.000399 0.000386 -0.000951 -0.001024 0.001242 0.000950 0.000773 -0.000151 0.001004 -0.000124 0.000184 -0.000037 -0.000746 0.000328 -0.000334 -0.000956 0.001189 0.001095 -0.000274 -0.000057 0.000127 -0.000909 -0.001002 0.001139 0.000016 -0.000646 -0.000761 -0.000769 0.000424 0.000050 0.000333 -0.001053 -0.000952 -0.000033 0.000286 0.000637 -0.000793 0.001020 0.000232 0.000280 -0.000152 0.000747 -0.000572 -0.000524 0.000540 -0.000188 0.000258 0.000451 -0.001022 -0.000496 0.000728 0.001058 0.000983 -0.000762 -0.000527 -0.000227 0.000500 -0.000947 0.000749 0.000697 -0.000400 -0.000388 -0.000560 0.001057 0.000978 -0.000295 0.001054 0.001205 0.000454 0.001246 -0.000778 -0.000383 -0.000527 -0.000727 0.000704 0.000395 0.000106 -0.000548 0.000381 0.000765 0.000048 0.000570 -0.001238 0.001079 0.000120 -0.000458 -0.000521 -0.000187 -0.000734 -0.001092 -0.000709 0.001069 -0.000442 -0.000670 0.000579 -0.000426 0.001189 -0.000401 -0.001147 0.000679 -0.000019 -0.000872 0.000244 0.000360 -0.000120 0.000456 -0.000989 0.000220 0.000454 -0.000752 0.000036 -0.000015 -0.000600 -0.000708 -0.001173 0.000006 0.000038 0.000002 -0.000983 -0.001240 -0.001187 -0.001081 -0.000137 0.000348 0.000296 -0.000796 0.001250 -0.000503 -0.000318 -0.000351 0.001183 -0.000941 0.000290 -0.000334 0.000797 0.000010 0.001067 -0.000705 -0.000651 -0.001048 -0.000917 -0.000800 -0.000779 0.000611 -0.000467 0.000670 0.000923 0.000339 0.000738 0.000619 0.000585 -0.000888 -0.000858 -0.000914 -0.000033 0.001033 -0.000684 -0.000765 -0.001049 0.000826 -0.001045 -0.000145 0.000545 -0.001155 -0.001120 0.000361 0.000881 0.001066 0.000536 0.000791 -0.000782 -0.000910 0.000994 -0.000691 0.000438 0.000144 0.000448 -0.000296 0.000050 -0.000422 -0.000282 -0.001108 -0.000815 0.000871 0.000251 -0.000591 -0.000398 0.000624 -0.000883 -0.000578 0.001184 0.001062 -0.000990 0.000218 -0.000562 0.000038 0.000752 0.001212 0.000497 0.001028 0.000787 -0.000058 0.001119 0.000634 0.001185 -0.000426 0.001187 0.001082 -0.000357 -0.001105 0.001208 0.000224 -0.000520 -0.000179 -0.000184 -0.000963 -0.000358 -0.000111 -0.001232 -0.000879 -0.000301 -0.000235 0.000448 0.000204 -0.000154 0.000737 0.000362 0.000137 0.000904 -0.000281 -0.000357 -0.000103 -0.000682 -0.000750 0.000051 0.001085 -0.000342 -0.000005 -0.001034 0.000927 -0.000380 0.000742 -0.000602 -0.000224 0.000024 0.000906 -0.000022 0.001108 -0.000186 0.000525 -0.000034 -0.000975 0.001063 0.000264 -0.000757 0.000752 -0.001036 -0.001088 0.000817 -0.000858 -0.000662 0.000882 0.000821 0.000171 0.001131 0.001214 0.001014 0.000441 -0.001088 0.000572 -0.001223 -0.000322 0.000378 0.000245 -0.000381 0.000734 -0.001152 -0.000353 -0.000328 -0.000414 0.000768 -0.001183 0.000695 0.000334 0.000707 0.000919 0.000069 0.000206 -0.001138 -0.000257 0.000803 -0.000447 0.001053 -0.000298 -0.000969 -0.000648 0.001225 0.000835 -0.000992 0.001204 -0.001052 -0.001194 0.000619 -0.000164 -0.000583 -0.000095 -0.000629 0.000599 0.000954 0.001045 -0.001103 -0.000530 0.000002 -0.000234 0.000955 0.000550 0.001133 -0.000769 0.000427 0.001067 -0.000458 0.000730 0.000321 -0.001129 0.001050 0.001177 -0.000729 -0.000061 -0.000400 0.000611 -0.000966 0.000873 -0.000236 -0.000304 -0.000508 -0.001100 -0.000762 -0.000280 0.001154 -0.000630 -0.001159 0.000099 0.000153 0.000760 0.000018 0.000871 0.000746 -0.000327 -0.000159 0.000199 0.000316 0.000834 0.001004 -0.000626 -0.000630 -0.000405 -0.000673 0.000309 -0.000957 -0.000567 -0.001243 0.000544 0.001091 -0.000551 -0.001138 0.000742 0.000397 -0.000630 -0.000160 -0.000308 -0.000031 -0.000453 0.000009 -0.000691 0.000940 0.000957 0.000815 -0.000368 0.000068 0.000201 -0.000671 
a 0.283352 2.070750 -0.285268 0.384907 -0.356117 -0.534243 1.208565 -0.484168 -0.158205 -0.375549 -0.274930 0.370739 -1.704382 -0.580931 -0.294871 -0.092628 -1.445377 1.619143 1.484394 -0.128892 0.094650 0.733091 0.200242 0.201285 -0.699657 2.068511 0.932697 -0.445653 -4.389000 -0.851005 0.608304 0.235555 1.852604 2.113089 -2.277498 -0.292417 0.619599 -0.485369 -0.405560 -0.691437 -0.548072 0.195001 1.587589 -0.290365 -1.326028 1.160501 -0.438074 0.786238 1.062348 -1.506352 -2.458750 0.366516 -1.704522 -1.761017 -0.841727 1.929055 -0.469929 0.013343 0.774995 3.073945 1.368649 1.654920 -0.699150 -2.057644 0.552728 1.657821 -0.087882 -0.286433 0.589554 -1.383088 -0.552979 1.213595 2.564924 1.290074 -2.789428 2.195352 0.610331 -0.325364 1.062658 -0.331376 -0.634758 0.002387 -1.274916 -0.081097 0.487374 -0.288693 0.251921 0.949289 0.900501 -0.145937 0.830016 0.851798 0.176994 -0.279035 -1.308747 0.714084 0.424276 -0.579414 -1.272741 1.106728 -0.195914 -0.563573 0.359417 -0.384818 0.454028 0.895764 -1.245639 -0.599703 -0.532077 0.129855 -0.106120 1.468943 -0.086171 0.027342 -0.363892 0.333824 -1.996987 0.453954 1.646406 -1.299308 -0.168765 0.554948 -0.758363 -0.028340 -1.135787 0.302613 -0.690257 0.155665 -0.064290 0.864450 -0.169269 -0.126640 -1.092804 0.528985 -0.827660 1.055128 0.968647 -0.034331 -0.227033 0.727282 -0.382263 0.607463 -0.010181 0.226079 0.777066 1.810232 1.058709 0.505844 -0.125454 -1.062166 -1.419184 1.919868 -0.861834 1.019464 -0.720753 0.249016 0.178112 0.161372 -0.906353 -1.597965 0.795349 0.730155 -1.659590 -0.282048 -1.608907 -1.147254 -1.737199 -0.660570 1.111982 1.089194 -0.301394 -0.280568 0.757372 0.027480 -0.284895 0.187674 -0.115647 0.627380 -0.426801 -0.486207 -0.666280 0.650836 -0.243206 1.679865 -0.108429 -1.555409 1.049702 -0.380061 -0.527654 -0.935201 0.355632 -0.529399 1.914889 2.664972 -2.632442 -0.858600 0.241922 1.126230 1.390121 2.207827 -0.081944 1.614080 -0.006490 0.365884 -0.812849 -0.077493 0.555161 -0.250822 -1.174850 -0.548201 -0.208119 0.292645 1.029773 0.756104 -0.483869 -0.682370 -0.276287 0.228166 -0.046756 -0.707004 -0.725221 0.688604 0.110130 -0.181779 -0.265051 -0.379957 0.384093 -1.128981 0.137082 0.343843 0.028952 -1.135296 0.200637 -0.083183 0.327643 0.958521 -0.777217 -0.018492 -0.856257 0.972300 0.040720 -0.178197 1.818282 0.334565 -0.492675 -2.325233 1.086010 0.400952 -0.554826 1.340368 0.219519 -0.552230 0.919533 1.720935 1.202786 -0.528987 -1.678220 0.083315 1.150731 -0.029798 0.467669 -0.270447 -0.130584 0.799054 1.383074 0.963841 -0.403433 0.316499 0.511118 -0.527062 -1.462544 -0.158030 0.365622 0.089483 -0.379397 -0.523359 0.255134 -0.931624 0.440065 0.665494 -0.649462 -0.432891 0.352189 -0.395348 -1.175853 0.073591 -0.598663 1.023673 -0.335298 0.141150 -0.735413 -0.726268 -1.362155 -0.634041 -0.318432 -0.840230 1.017683 0.911010 -1.189429 -1.857281 0.442249 0.581660 -0.192732 -0.160928 0.081981 0.687698 -0.619845 -0.593541 0.760425 -0.396037 0.076845 0.513219 -1.220700 -0.191352 0.606640 -0.009222 0.278004 -0.139833 0.818302 -0.087630 0.295571 0.492161 0.100841 0.488750 1.209397 0.028715 0.532260 0.231387 -0.741895 0.389096 -0.266440 -1.284131 0.770377 0.512977 1.361272 0.031448 0.384725 0.185595 0.271708 -0.433993 0.108968 -1.260859 0.604942 1.072574 0.950969 -0.431226 0.541289 -0.248435 -0.461712 0.438830 0.245766 0.134117 0.310529 0.026815 -0.578761 1.702473 -0.545288 0.237405 -1.443242 -0.221109 -0.402772 -0.730413 0.116277 1.055317 -0.453079 0.414534 -0.065875 0.770104 -0.381658 0.362543 0.060990 0.586066 0.210780 0.245423 0.404318 0.060776 -0.574000 -0.188954 0.658587 0.008139 -0.302676 -0.258060 -1.949603 1.229655 0.927749 -0.375151 -1.430616 0.273015 -2.760540 0.642414 2.274272 -2.175979 0.874590 -1.134512 1.675847 -0.129468 0.996086 -1.137680 0.559747 -0.644957 
is -3.292224 -0.094850 -1.926871 0.386792 -0.256641 -1.976844 -1.071913 -0.484564 -1.300534 -0.384539 1.719314 -0.719729 -1.021519 -0.060220 1.458696 0.754661 -1.069086 1.776888 0.098382 -1.373503 -0.527450 -1.631891 -0.849054 -1.695129 0.205563 -4.542508 -1.737121 1.116912 6.839722 0.990129 0.381765 1.453641 0.151750 0.194235 0.478450 0.107879 1.376377 -0.875960 -1.736441 2.006121 -1.194162 1.973466 -1.285382 -0.693953 1.856751 -1.578620 -1.273016 -0.879058 -0.340054 0.849707 0.202625 -0.979868 -0.686984 -2.910717 -0.888853 0.776094 0.749843 -0.957705 -0.238600 1.986087 0.954288 -0.062403 0.716906 -1.649008 1.349713 -0.039789 -0.442268 -0.719477 0.994795 -0.266268 -0.401727 1.197512 -0.798760 0.749018 3.008954 -0.091605 1.721018 0.003712 -1.012749 -3.412376 -1.407770 -0.905092 1.795301 0.991903 0.816115 0.476537 -1.479520 0.388577 0.134398 -0.618192 0.144380 -1.733710 0.522917 -1.668089 0.214737 -0.415039 -0.906424 -0.025161 0.509699 0.422980 -1.028863 -0.760376 0.309807 -0.248638 0.806403 1.012784 -1.641712 0.937225 0.092541 1.567625 0.159729 2.308660 -0.498536 -0.564699 0.158590 -0.650373 0.726261 -0.384991 -1.377309 0.823216 0.512549 0.920149 0.044276 -0.163044 -0.535845 1.195155 -0.008484 -0.702582 -0.117320 -0.558896 -0.292745 0.083644 0.595549 -0.039475 0.486938 -0.487782 -0.381650 -0.224199 -1.287600 0.805902 0.537296 0.022755 -1.240464 -0.032782 -1.153139 -0.262607 -1.762188 0.192132 0.343478 0.267737 1.755323 -1.053070 -0.493466 -0.280871 -0.819012 -0.229145 0.556724 0.659985 -1.023169 1.614156 -0.893094 -1.196417 0.110929 -0.154281 0.571832 0.813468 0.298818 0.279032 -1.152949 1.672185 -1.478206 -0.043696 -1.622317 -1.074182 -0.519927 -0.671603 0.201513 -1.164075 0.999950 0.509189 0.239331 0.560775 0.670631 -0.880406 0.705871 0.115651 -0.325563 0.371982 -0.550617 0.420684 -0.733927 0.569747 0.943015 1.864456 -0.825709 -0.320750 -0.730383 0.178921 1.474980 -0.219565 -0.417677 0.089784 -1.403102 1.231583 -0.210921 1.057784 1.144814 -0.171702 -0.891593 -0.040883 -0.216160 0.419744 2.095095 0.263392 -0.345737 0.266117 0.299772 -1.019083 0.184231 -0.947034 0.389145 -0.575104 -0.667608 -0.973848 -0.159535 0.978391 -0.753108 0.634332 -0.288681 0.897569 -0.869781 0.415437 0.773331 -0.711829 0.270251 0.403878 -1.517457 -1.048645 -0.571522 0.898838 -1.704263 0.360926 2.006824 0.200962 -0.644684 0.000153 -1.849077 0.857757 -0.006459 1.746688 1.000360 0.533234 0.063754 0.777440 -0.451644 -0.030986 -1.123635 1.891319 -1.227162 0.438285 0.225194 -0.821093 1.366840 -0.725909 -1.953029 -0.128218 0.571256 0.262630 -1.113118 0.395533 1.927601 -0.097455 1.086657 -0.654582 -0.446017 0.571327 -1.109844 -0.818333 0.613887 0.449682 0.095126 -1.399809 1.083214 0.598327 0.001826 0.004305 1.107057 -0.345058 0.375384 0.427389 -0.380196 -0.056234 0.124989 0.067401 0.175357 0.343317 -0.465746 -0.210830 0.287169 1.236374 2.245631 0.425413 -0.150310 -0.223536 0.316530 1.022319 -0.292873 -0.055397 -0.292937 -0.872094 -0.204193 0.409889 0.686772 0.474082 -0.837205 1.221403 0.572475 -0.805938 0.573219 0.065514 0.730032 1.261383 -0.247827 0.454437 0.472997 0.929349 1.167966 0.201610 -0.577263 -0.465181 0.288914 -0.340074 0.821669 0.290705 -0.465075 0.206447 0.665708 -0.391121 -0.048630 -0.463348 0.226760 0.026298 0.600518 1.377035 -0.984039 -1.059699 -0.448806 0.012543 1.849430 0.928787 2.260544 0.408004 -1.097523 -0.909593 0.217232 -2.119461 0.157772 -0.243922 1.032934 -0.002567 -0.564960 -0.829516 0.419081 0.579355 0.257345 0.939446 -0.521018 0.860707 -0.248325 -0.029984 0.139887 -0.647075 -0.055138 1.315887 1.214213 0.921715 -0.599857 1.357880 1.490017 0.702265 -0.804385 -0.627606 -1.261578 1.424108 0.391342 0.418609 0.503778 0.239442 0.609011 -0.081597 -0.356761 0.367232 -0.823844 1.073306 -0.113972 0.239497 0.319364 -0.227841 -0.462429 2.525271 
black -0.015248 0.140399 1.576769 0.614155 -0.037121 0.552061 1.129312 -1.076294 -0.823804 0.944564 -0.332724 1.511409 0.550230 -1.207195 0.114343 0.509650 -0.099215 0.200575 -0.372945 0.277647 0.857263 -0.341994 -0.422260 0.628894 0.388182 -1.430055 -0.506486 0.263243 0.869554 0.034422 -0.364312 0.215445 0.306169 0.208717 0.022646 0.551445 -0.475849 0.355652 0.109169 -0.580271 0.026069 0.732713 -0.388667 -1.097836 -0.431898 -1.255876 1.026495 -0.543537 0.495289 0.203563 -0.135575 -0.956447 2.444863 1.399098 -0.498586 0.527958 0.619776 2.409515 0.678304 -2.166914 -0.870100 -4.021942 1.314411 1.557281 -1.387815 -1.209674 0.294840 0.112421 0.191907 0.364392 0.705203 -1.078181 -0.161807 0.775851 0.325657 0.339018 0.590555 -0.504993 -0.096106 -1.295949 -1.237192 -0.534367 0.548580 -0.868206 1.106564 -0.127520 -0.464709 -0.700315 0.051437 1.799964 -0.174785 0.290050 -0.787839 -0.211759 -0.984641 -1.298694 -1.601796 -1.789829 -0.201761 -0.032791 -1.952591 -1.031487 -0.544362 0.001361 0.494316 -0.306863 -0.256688 0.800790 0.867769 -0.408337 -0.097772 0.264401 0.212029 -0.338721 2.183189 0.058192 -0.541094 0.365889 -0.346882 0.816559 0.277771 0.327624 -0.008096 -0.385808 -1.047071 0.703639 -0.544836 -1.196808 0.847396 -0.510759 -0.512702 1.515553 -0.033776 0.548639 -0.661074 0.123893 0.078458 -1.045192 0.442036 -0.422378 0.635485 0.911276 -0.524286 0.573449 0.086772 -0.850807 0.339009 -0.062214 0.245228 0.099421 -0.412923 1.269689 -0.047924 -0.217850 0.389338 -0.841742 -0.011904 -0.269893 -0.674127 -0.858144 0.777360 -0.580324 -0.428230 0.229624 -0.678111 -1.619761 -0.130632 0.608260 1.226980 1.151329 -0.033570 0.420854 0.645658 -0.113163 -1.042645 -0.000025 1.257798 0.574654 -0.920994 0.867517 -1.346320 0.620965 0.971562 0.764366 0.322657 -0.403058 0.519518 -0.189397 -0.273610 -1.005932 -0.646219 0.171250 1.317742 -0.094047 -0.647911 0.049060 1.438742 -1.142583 0.104876 0.381448 -0.270580 0.832181 -0.439510 0.165215 -0.772573 -1.130525 0.336822 -0.667311 -0.293081 -0.180021 0.400547 0.480282 0.836035 0.698667 0.786401 0.467386 0.130008 0.401075 0.012091 -0.383695 -0.088975 0.443094 0.694377 -0.622313 0.025783 -0.098979 0.753312 -0.270102 0.843423 -0.019840 -0.624910 -0.186935 -0.797334 0.140241 -0.518380 -0.305145 0.275918 0.750617 -1.317021 -0.811155 0.168921 0.666318 -1.447559 -0.121262 1.190438 1.370102 -0.038923 -1.272812 0.053884 -0.281738 0.814388 0.107364 0.021241 -0.066558 -0.288817 0.489295 0.340942 -0.693996 0.678151 -0.472966 0.224454 0.332310 -1.030966 0.092828 -0.108355 0.769142 0.410844 0.801995 0.055553 -0.645016 -0.517000 -0.653917 1.052617 -0.635713 0.473407 0.551301 -0.354537 -0.671544 -0.093595 -0.406245 -0.296145 0.237822 -0.023094 0.007515 0.103403 0.117569 0.410581 0.208445 1.448725 0.839183 0.847220 -1.100434 0.300654 0.158167 0.826348 1.839406 0.138660 -0.063627 0.513841 -1.059996 -0.322884 0.548859 -0.311613 0.162141 -0.053492 -1.574374 0.354464 1.304677 -0.162303 0.020446 -0.819569 0.604339 0.346132 -0.786797 0.272438 0.387913 -0.457372 -0.176412 -0.017124 0.640378 -0.642338 0.104540 0.101786 -0.692701 -0.633915 0.185070 0.935889 -0.595948 -0.152438 0.087011 0.793569 -0.535334 0.159968 0.325761 0.130581 -0.520176 0.097663 0.462753 0.430943 -0.402249 0.205841 -1.035415 1.162449 -0.215070 -0.670920 -1.310950 -0.356378 -0.585316 0.230446 0.743391 0.742143 0.762762 -0.456840 -0.168912 -0.198341 0.249808 -0.526993 0.447412 0.048950 -0.044254 0.512681 0.217165 -0.644278 0.087248 0.482588 0.195609 -0.709996 0.429459 0.060979 0.150106 0.260480 0.123556 0.132985 -1.045703 0.009350 -0.815330 0.593050 0.121674 -0.020842 -0.079472 0.935554 0.313433 0.419818 -0.214530 -0.608658 -0.724332 -0.245384 -0.415936 0.584714 0.113366 -0.855304 -0.019146 -0.232294 -0.967018 0.621063 0.505723 -0.331358 0.616787 0.218065 0.512535 
and 1.589553 0.365131 -0.209586 0.116343 -0.702641 1.197687 0.618610 1.231461 0.566117 0.160196 0.165637 0.155745 -0.316224 0.366228 -0.481640 -0.760406 0.751323 -1.491881 0.534557 -0.858940 0.033226 -1.413967 1.549633 -0.107428 -0.365934 2.401504 1.936494 -0.438333 -3.253622 -0.697648 1.044116 0.801066 0.048060 0.879450 1.138904 0.643624 0.085300 -0.202355 0.108146 1.267462 -0.057980 0.101083 -0.550586 1.061907 1.201462 0.387784 -0.704510 -0.306749 0.008704 0.971428 0.105310 0.397598 -0.097513 -0.674758 -0.466246 0.054474 -0.132160 -1.189814 0.285160 1.339727 -0.091455 0.577990 -0.193155 -1.276801 1.615268 -0.065170 0.353083 -1.305630 0.411067 0.042408 -1.241671 1.555542 -1.106341 -0.207332 2.305031 -0.976452 -0.363870 0.233344 -2.106945 -0.692136 0.972484 0.858527 0.510003 0.524871 -0.546348 -0.152500 -0.333576 0.461751 0.459335 0.659733 -0.826349 -0.242855 -0.787374 -0.079903 -0.516668 1.037755 1.091410 0.089451 0.204039 -1.299231 0.330626 1.277452 -0.360861 -0.854580 -0.028376 -0.879602 -0.222803 -0.473430 -0.503982 -1.217182 -1.138595 -1.770493 -0.845629 -1.695477 -0.729860 -1.494834 0.275557 -0.195172 -1.238075 0.213334 0.513272 -0.441546 1.304348 2.514868 -0.219667 -0.275217 0.050802 1.386405 -0.143314 0.168106 -0.178817 -0.296600 0.371073 -0.428137 0.542179 0.076771 -0.183782 1.995767 -1.365415 0.788802 0.299088 0.000562 -0.002351 0.329960 0.991477 0.630697 0.352682 -0.180939 -0.083610 0.044500 -0.258626 -1.316191 0.683169 0.165078 0.376126 -0.643980 0.138175 -0.524457 -0.123019 0.909929 -0.729444 -0.008619 0.591323 0.794768 -0.584244 0.912533 0.636038 0.301239 -0.945123 -0.128431 0.568916 0.410865 -0.940658 0.191901 0.130911 -0.365564 0.007925 -0.012554 0.639410 -0.067525 0.469808 1.998689 -0.223284 -0.587105 -0.387685 1.573031 -0.750202 -0.846573 0.338321 1.476866 0.777180 0.649508 -1.248119 -2.196597 1.870034 0.925552 -0.456822 -0.793412 -0.818661 -1.782672 0.583826 -1.515553 -0.217741 -0.567738 1.089548 1.245119 -0.656380 -0.882830 -0.577990 1.487918 -0.405439 -0.413310 -1.937299 -0.105553 0.351336 -0.071857 0.930114 0.772124 -0.362886 0.460047 0.115974 0.414191 0.492727 0.307385 0.322862 0.684347 -0.312575 0.571173 -0.303682 -0.527716 0.105409 0.964260 -0.203844 -0.171220 0.507491 0.690940 0.380627 -0.250163 1.016909 -0.585413 -0.773407 0.438557 -0.091001 -0.395149 0.234247 0.543707 -0.882695 0.201635 0.876930 -0.001857 -1.271415 -0.403125 1.060461 0.292228 -0.083409 -0.503792 0.409121 1.557682 -0.340917 0.656526 0.181152 0.408143 0.147013 -0.549688 -0.594003 -0.427956 0.114416 -0.670330 -0.565272 0.233362 1.126890 0.850551 -0.277097 0.332695 0.097611 -0.467538 0.120598 0.609353 0.754479 0.304874 0.067867 -0.833496 1.369966 0.272789 0.161785 0.203284 0.261651 -1.156269 -0.252000 0.586549 0.925771 0.419252 0.746951 0.061430 -0.406331 -1.604136 -0.307794 1.300605 -1.047630 1.553025 -0.432353 -0.223385 -0.466185 -0.321056 0.517893 1.744036 -0.530765 -0.286275 -0.610682 0.331990 1.024220 -0.469548 0.146550 0.745849 -0.996945 0.320906 -0.078277 0.861893 -0.613623 0.204435 -0.799741 -0.186914 -0.128856 -0.315686 -0.162239 0.230647 -1.386423 0.755705 -0.020913 -0.934082 0.313433 0.732773 0.359443 -0.018135 0.135735 0.629118 0.515365 0.118703 -0.028455 0.915585 0.662149 1.434109 -0.928855 -0.254767 -0.674511 0.872690 -0.978789 -0.054916 0.209986 -0.663667 0.785011 0.455532 1.161102 -0.736438 -0.232685 1.182014 0.185725 0.153880 -1.291020 0.038445 -0.767494 -0.318781 -0.043543 0.159220 -0.689592 -0.434838 0.296613 -0.537474 -1.102099 -0.463242 0.194965 -0.348759 -1.459644 0.813451 1.138327 2.053959 -0.492349 -0.799659 -0.801456 -0.634458 -0.591259 0.444918 1.456175 -0.593154 -0.412915 0.655012 0.623137 0.291683 -0.477254 0.766119 1.312917 1.004737 0.116043 -0.303294 0.253633 0.386397 2.149800 -1.689040 0.599172 -0.178951 
with 0.225715 -1.173753 -2.398199 -0.552037 -0.847960 -1.877001 0.085140 1.834480 0.502254 -0.732416 -0.498026 0.170269 0.931415 -0.300232 0.604216 0.005096 0.113251 -1.475094 0.859228 -0.944340 0.612413 -2.289434 0.113983 -0.396361 -0.918545 1.697115 0.703809 -0.002865 -0.682477 0.426950 1.965406 1.123094 -0.512585 -0.586264 2.509701 -0.858267 -0.559924 0.118870 -0.384956 1.453939 0.605946 -0.252605 -0.248768 1.735259 1.952444 0.290447 0.404520 1.037753 -0.785100 0.891992 0.366277 0.172749 -0.101939 -0.763800 0.707776 -0.162967 -1.666119 -3.168207 -0.703807 4.998190 1.049518 3.868701 -2.643636 -4.056161 3.170765 0.051304 -0.169025 -1.407054 -0.063963 -1.351676 -1.351192 2.051605 -2.324759 -0.455287 3.071573 -1.867012 0.254652 -0.740626 -1.381857 -0.601656 1.277786 0.590059 1.218257 0.537582 -0.776894 -0.683552 -0.790019 0.142263 -0.716004 -0.103287 -1.213260 -0.971510 0.239256 -0.493824 0.207953 0.233306 -0.296558 -1.971506 1.396870 -0.886901 -2.961074 -0.867842 0.610108 -0.934115 -0.440648 -0.305055 0.939396 -0.328568 -0.129844 0.898099 -1.414640 -0.906479 0.923818 0.627179 -0.235972 -0.567587 -1.242128 -0.684323 0.204227 -1.038320 -0.018717 -0.841548 0.906089 -0.778284 -0.207112 -0.514478 0.477661 -1.228302 -0.257985 -0.514030 0.084597 0.469455 0.195426 -0.443145 1.285941 -0.162673 -0.323312 -0.254947 0.300712 0.162135 0.169609 -0.175219 0.400895 -0.263357 1.055115 -0.003653 -0.023004 -1.502448 -0.360534 -0.368313 -0.529337 -0.383612 0.236537 -0.483546 0.303475 0.064844 -0.827136 -0.190250 0.292634 0.889205 -1.231482 -0.369816 1.738378 -0.969721 1.822476 3.442311 -0.178925 0.750357 -2.136364 -0.108200 -0.985741 0.857567 -1.888400 -1.135394 -1.492181 -0.243035 -0.319950 -1.459506 1.566053 -0.915692 0.935891 0.737233 -0.838169 -1.963924 0.332417 0.897288 -0.254397 1.575408 -0.448613 0.162283 0.391381 0.169399 0.346161 -0.688256 0.400481 -1.090626 -0.907939 0.443601 1.341358 -0.829151 -0.283891 -1.193455 -0.387006 -0.528682 0.541034 0.685888 -1.104975 -0.761577 0.011537 -0.076701 0.398393 0.134719 -0.827583 0.654437 -0.149456 0.499323 0.247558 -1.110481 0.466263 -0.740211 0.875678 -0.366231 0.529046 -0.252681 0.506655 1.437402 -0.020895 1.032288 -0.235020 -0.092664 -0.219656 0.393076 -0.625479 -0.478870 0.828005 -0.022497 0.840838 0.097243 -0.271657 -0.286092 0.752475 -0.001403 -1.304090 -0.215245 -0.196074 -0.266741 0.360041 -0.463482 0.370886 0.441151 -1.452549 -0.572592 0.229645 -0.019639 -0.011196 -0.460408 0.614042 0.153982 0.812435 -0.049199 -0.332686 -0.885100 1.092266 -0.264279 -0.439265 -0.864684 0.286604 -1.016120 -0.287872 0.370365 0.851819 0.227341 -0.647758 -0.059781 1.133615 0.217292 -0.256736 0.969566 -0.424383 -0.214310 -0.089276 -0.872868 0.390069 0.138989 0.365332 -0.243496 0.568196 -1.018195 -0.291469 0.523108 -0.201053 -0.022768 0.128060 -0.028253 -0.779901 -0.763732 0.520204 0.523366 -0.299973 1.224095 -0.044501 -0.913448 0.257325 -1.704170 -0.253853 0.489431 0.358839 0.210995 -0.913554 0.062504 1.575657 0.012197 0.446812 1.030075 0.512431 -0.521513 -0.458145 1.056000 -0.599096 -0.087669 1.037133 -0.968087 0.819371 0.737560 -1.137516 1.641732 -1.108751 0.799646 0.210172 -0.546466 -0.093981 -0.331097 0.000164 0.342856 -1.445265 0.587635 -0.651827 0.206424 0.553703 0.249476 -1.307207 1.391479 -0.302751 -0.648175 0.439212 1.181570 0.206573 0.100367 -0.837415 0.069180 0.568766 -0.498501 -0.268402 -0.052456 -0.308464 -2.366110 1.951972 -1.802855 1.886993 -0.993717 1.229326 1.751064 -0.325004 -2.391937 1.366026 -1.563785 0.213285 -1.808216 0.752587 -0.308528 -1.019776 0.023503 -0.779261 -1.625825 -1.177184 0.463788 0.356210 -0.099020 -1.157771 -0.626043 -0.023431 0.872199 2.087038 -1.477655 -0.821865 -0.385627 -0.777361 0.659567 0.254609 1.234707 -0.933666 -0.393452 -0.153779 0.036871 0.447376 -0.549888 0.314169 -0.259183 -0.114548 0.029784 
he 0.378086 0.531545 0.108441 0.593970 -0.463576 -0.829134 -1.216514 2.601094 -0.569039 0.030159 -0.759105 1.528427 -0.547901 0.767975 -0.925428 -1.563156 0.320299 -0.383894 0.968070 2.456118 0.327920 0.048671 0.711012 -1.929643 0.557773 2.572941 0.136814 -0.394365 -3.664012 -0.774553 0.664892 1.131869 -0.556133 2.083023 0.509717 -3.383868 -0.738918 -0.677018 1.519691 -2.151648 1.003501 -3.980166 0.043631 1.354920 -3.265608 3.096132 0.319662 2.700433 -0.265702 -1.125495 0.387966 -1.296449 -0.108359 1.448230 1.819571 0.279237 -0.218439 1.617705 0.904784 -2.001262 -1.012126 0.987957 0.430385 3.361406 -0.668753 -1.011566 0.500224 -0.007612 -0.666682 -0.332937 0.822517 -0.567443 0.485762 0.138728 -0.111291 1.788358 -0.772327 1.861298 0.037016 2.717968 2.041647 0.143587 -0.380454 -0.139157 0.441467 -0.754960 0.599100 -1.229861 -0.896538 -0.905148 -0.428303 1.537415 -1.323135 -0.518883 2.400304 -0.450859 -0.792390 -0.855832 -0.044959 -1.173014 0.445610 2.237679 0.193540 0.584260 -1.412854 -0.531677 0.234501 -0.840796 -0.363383 -1.833634 -1.081059 -2.776491 -0.036389 -1.896023 0.724065 -1.619601 -0.415701 1.365987 -0.992244 0.049957 0.465169 -0.798417 1.867450 2.992838 -0.928351 0.387872 0.497031 1.096298 0.615852 -0.116667 0.630629 -0.333550 0.465998 -0.576610 0.072304 -0.583089 -0.074538 1.973473 0.017845 -0.151994 0.523134 0.732567 0.984533 0.040687 2.316018 0.637795 1.414716 0.081890 -1.304464 0.491807 -2.358032 1.822195 -0.515067 0.606957 2.351092 -0.038940 -0.471053 -0.008257 1.334347 -1.670638 0.916526 0.291432 -0.469409 1.472224 -1.183186 -0.310940 -0.218871 0.805321 0.242467 -1.908582 2.091382 0.597585 -0.411029 1.364716 -0.151307 -1.354771 0.793118 1.302926 -0.475660 -0.388807 0.055955 -0.117041 0.239740 -0.030213 -0.606852 -0.199143 -0.634403 0.195648 1.704487 0.256900 -0.258298 -0.223534 -1.712485 -3.092729 2.510787 0.885258 0.602674 -0.099293 -1.675384 -0.732684 0.051240 -0.446447 0.602312 -0.334271 0.678830 -0.963599 -0.453923 -0.713243 -0.753496 0.555275 -0.615476 0.369592 -1.383769 -0.068031 0.516009 0.220795 1.188740 -0.774790 -0.092907 1.257769 0.237658 0.344964 0.539827 0.290246 0.103311 -0.559619 0.664429 0.408863 0.802996 -1.236171 -0.883011 0.939157 1.116866 0.701661 -0.305899 -0.170902 -0.535810 -0.928689 -0.748890 -0.950685 0.258329 0.648718 -0.910081 0.166551 -0.007362 -0.567755 -0.422456 0.332996 1.937175 -1.074169 -1.876619 -0.850434 0.745558 -1.405628 0.772045 -0.328281 0.313086 -0.435459 1.476123 -0.962305 -0.695984 1.029785 -0.532884 0.370679 1.569734 -0.463907 -0.027445 0.615382 0.006311 0.329735 -1.040386 -0.230558 0.248686 2.118057 1.185480 -1.101672 1.307523 0.456725 1.192430 0.107404 -0.433920 1.010803 -0.658235 0.311815 -1.050323 -0.548949 -1.171551 0.569778 -1.235330 -1.762409 -0.316109 1.099437 -0.550060 1.451167 1.445763 -0.935670 -0.343629 -0.518763 -0.847141 -0.277449 -0.874928 0.113688 -0.383664 -0.215249 0.627978 0.268958 0.461359 -0.760345 -1.412735 0.660811 0.167963 -1.028246 0.540605 0.244486 0.410409 -0.948775 0.061766 0.276643 -1.962178 -0.202174 -1.249617 0.462400 0.046058 -0.710687 0.063589 -1.101581 -0.039807 -0.353799 -0.532424 -0.064438 -0.498564 0.480171 -0.766925 -0.080134 0.498086 1.441232 -0.408233 -0.010968 0.580760 -0.629597 0.256606 -1.158982 -0.318212 -0.813954 -0.575966 0.134896 0.012265 -0.196072 0.131730 -1.096943 0.269703 0.678281 0.463913 0.945629 -0.159402 -2.032898 0.925340 -1.187851 1.445332 -0.450608 0.668657 0.629165 -0.099391 -1.418136 1.327295 -0.091286 0.176814 -1.345024 2.336444 -0.521760 -1.725021 1.130216 1.652123 -1.484890 -2.505073 -1.718474 0.789045 -0.852279 0.568809 0.556214 0.620952 0.261800 1.218781 -1.604849 -0.707389 -0.766856 0.445514 -0.457581 1.646905 0.036139 -1.859827 1.390316 0.656424 0.258391 0.768667 -0.452773 1.230408 0.295362 -0.182508 0.268232 
wearing 4.467627 -1.810450 0.084868 -1.179121 -1.711854 3.851889 2.003751 0.558596 0.349167 -0.104098 -1.635314 0.712346 1.246876 0.300125 -0.051328 0.815375 0.420901 -1.231171 0.226945 1.929405 0.326755 1.684852 1.846048 2.931953 -1.974535 3.524850 2.302319 -0.608365 -3.965495 0.029472 0.265502 0.264586 0.148360 -1.713368 0.887673 0.867337 -0.482394 0.752990 1.295505 0.704331 0.263057 -0.066730 0.377262 0.965532 1.962887 -0.317747 -0.622804 -2.529044 -1.902525 0.302614 -2.068875 0.587686 -1.977266 -0.942792 -0.554159 0.634723 1.066488 -0.849992 -1.619219 -1.525334 0.095088 -0.001180 -0.794284 -1.009770 0.447338 0.026330 -0.042824 0.139313 -0.513470 0.624637 -0.851449 0.707910 -0.727228 -2.222439 -1.485616 -2.803570 -1.835497 -1.765481 1.939105 0.772898 1.360581 0.458339 0.073793 -0.125069 -1.328775 0.443926 1.590228 1.202897 -0.009421 0.801724 -1.057451 -0.397094 -0.357266 1.410551 -0.531717 0.445189 2.641780 0.087112 -0.912038 0.760653 -0.447562 -0.421789 0.008528 -1.428834 0.613675 -1.921667 1.211666 0.274053 0.794027 -0.062145 -0.017123 -2.625517 0.662881 1.254870 -0.112429 -0.063250 -1.326655 -0.759152 2.453197 -1.070632 -0.560361 -1.335168 -0.439821 -1.687957 2.113438 -2.494163 0.071555 1.323259 -0.365651 0.944702 -0.501937 -0.179008 0.019814 -0.052214 0.516250 0.218517 -0.528014 -0.125620 0.885036 0.273906 -1.692118 -1.689886 -1.414825 -0.722723 -0.009963 1.003197 0.439646 -1.352626 0.648444 -0.430036 0.863300 -0.595645 1.564694 -0.575501 -1.112462 0.753040 0.730542 -0.842771 -0.664203 0.812638 -0.184610 0.416133 1.210664 0.096368 1.359719 -1.061836 1.454659 -1.096847 -0.782341 0.398179 -0.706098 -0.385486 -0.042739 -0.269732 -0.359933 1.382917 -1.360487 -1.229947 0.552174 -1.421035 0.111819 -0.501947 -1.672388 0.026042 0.391768 0.502938 -0.724474 -1.385638 -0.730055 0.386982 0.321105 0.149241 -0.343736 0.190486 -0.205369 -0.015694 -0.615318 0.790466 0.535214 1.557019 0.470428 -0.744150 1.001337 -0.044538 0.063004 0.045606 -0.483135 0.978035 0.588363 0.956156 0.561064 -1.068322 -1.231522 -0.103259 0.766621 -0.606940 -0.651555 1.199027 -0.764918 0.576642 -0.626799 0.609872 0.199348 0.472094 0.530650 0.126526 -1.224353 -0.524497 -0.070589 -0.209377 0.929063 0.069607 -1.287292 0.095105 -0.061291 0.425244 2.376443 1.248214 2.202599 -0.946930 1.125934 -1.067261 -2.017523 0.054875 0.599681 1.351214 1.032948 -0.873870 -0.362169 -1.578335 2.577407 1.854558 -0.757890 -1.156922 -2.105604 1.425783 0.620523 0.037107 0.028956 1.788699 1.558562 -0.058187 -0.452300 0.351586 1.120648 -0.895602 0.194407 0.522566 0.398407 0.200716 -0.434002 -0.308991 -1.508654 -0.495240 0.233510 0.624677 -0.921119 0.770602 -0.722676 -0.165862 0.921769 -0.222156 0.445580 -0.994507 2.109559 0.984644 0.454690 -1.310739 1.238706 1.535956 1.257809 0.235346 0.762191 -1.147360 -1.910413 -0.268099 -0.547807 0.142064 1.107065 2.045660 -1.362222 -0.384883 -0.119052 0.021067 -0.003420 -0.537889 0.392019 0.318419 0.763826 0.820706 -0.045899 0.958090 -1.099228 -0.624963 -0.489038 -0.882213 -1.476836 1.170386 -0.544538 -0.055436 0.785767 -3.205543 0.879436 0.368207 -0.817426 -0.644328 -2.472032 -0.119724 1.635453 0.105360 1.032824 0.671841 -0.997828 -0.310549 -0.510533 -0.079012 0.437848 -0.314950 -0.056978 0.904595 -1.030084 2.057810 -2.013787 0.456917 1.454849 2.496227 1.203580 1.161381 -3.575747 -0.347817 -4.612791 0.101334 0.425689 -0.348190 0.429844 3.066886 0.445268 0.525558 -2.661315 0.517239 -0.462030 0.071596 -0.582681 -0.423706 -2.030797 -1.686585 0.787887 -0.627945 -0.692859 1.628958 0.760793 -0.510185 -0.640768 0.275417 0.635374 1.985820 -0.665973 -0.260079 -1.188359 -0.857657 0.196202 0.050355 1.296082 -1.007960 -0.090963 -0.055901 1.189136 -0.858588 -0.768746 0.397345 1.811013 -0.120275 -0.062513 1.682588 -2.186563 0.573775 -1.056228 -1.871612 -0.224415 -0.995951 
his 1.208672 0.295547 0.923164 1.075705 -0.248133 3.488225 0.783091 0.002755 0.395838 -1.320906 -1.651085 -0.598140 -1.539808 -0.807062 0.297012 0.811129 1.867881 -2.651854 -1.409831 -1.476789 0.299092 0.207958 -0.182010 2.960286 -0.222237 0.103961 -0.046845 -0.436881 -0.951901 -0.995105 -0.370638 0.092262 0.162447 1.150934 -0.301490 -2.212542 0.075340 0.793725 0.954848 -0.123538 0.185012 -1.607397 0.535223 2.578772 -1.167021 1.674568 0.207563 1.429370 2.267681 1.503571 1.367832 -0.490846 -0.412593 1.263088 0.567260 -0.701444 -0.138931 -0.651240 0.730096 0.021625 0.267722 0.219609 -1.036128 0.477770 -1.024890 0.299896 1.179462 0.661030 0.762502 1.142588 0.388826 -0.963963 1.099312 0.397729 -2.125587 0.035980 -2.123851 -0.787289 1.957002 1.519346 1.458328 1.473352 -1.013014 -0.584326 1.641489 -0.868843 1.751314 1.317991 0.379374 0.399938 -0.728561 -0.018238 0.436635 1.234524 -0.927177 0.720083 0.137065 -0.019037 2.099515 -0.065047 -0.198387 0.160232 0.138233 0.480301 -0.351134 0.586435 -1.352058 -1.533648 -0.852031 -1.120857 -0.131700 -0.819298 0.522278 -0.600314 0.670859 -0.642599 -0.147662 0.146804 0.387560 -1.711562 0.031623 0.239156 0.256576 0.732616 -0.359623 0.204476 -0.366969 1.438383 -0.852236 0.089737 0.031715 -0.024061 0.112992 -0.637235 -0.561478 0.559411 -1.113286 1.287293 -0.362892 0.613773 -1.273020 -0.992558 -0.523087 0.244610 1.038719 1.171770 0.662793 -1.143990 2.271017 -0.321347 -1.018996 0.786255 -0.356167 1.739415 -0.804765 0.428887 1.356694 0.128875 -0.118932 -0.883250 -0.498555 0.053879 -2.138891 0.821969 0.550213 0.642040 0.155722 0.498587 0.546283 0.516959 0.344174 0.516927 0.078825 -0.459737 0.306015 -0.271134 -0.467811 0.754855 0.646674 -0.205472 0.782137 0.511697 -0.083628 0.494769 -0.200404 0.162789 -0.668634 -0.207041 0.048883 -0.079872 1.170356 -0.501168 -1.622677 -1.079911 -0.462448 -0.410161 -0.752593 0.757144 -0.372980 -0.321015 0.672734 -0.782893 1.578539 -0.962543 0.535075 0.466107 -1.657763 -0.039734 -1.409028 0.172871 -0.136202 -0.168757 0.983848 0.600826 -0.516664 0.217632 -0.421296 0.241971 -0.238521 -0.150553 -0.802773 0.121267 -0.407141 0.255699 -0.011814 -1.472819 -0.418370 -0.334665 -0.911852 -0.236228 0.044925 -0.976429 -0.777516 1.376236 0.451935 0.546228 1.929459 1.145753 1.254655 -0.180725 1.445417 -0.603990 -0.076096 0.107637 -1.167032 0.889016 -0.025335 -1.613337 -0.366230 -0.402993 0.444419 0.709965 -0.491962 0.154763 0.361725 -0.329746 1.177247 -0.304594 -1.657361 -0.890173 -0.194425 0.186866 -0.884455 -0.532195 -0.417034 -0.208012 -0.470509 -1.957571 0.862858 0.610825 -0.062881 1.581757 -0.958703 -0.470440 -0.230976 -0.349835 0.098160 -0.085910 -0.060584 0.749787 -0.606028 -1.350325 0.987446 -0.215665 0.267333 0.554055 0.174223 -0.267823 1.159481 1.373884 -1.274299 -1.410230 -1.542360 -0.714874 0.951460 0.597666 -0.427002 -1.077994 -0.667612 2.028450 -0.382753 -0.740806 1.531891 0.736321 0.015348 -2.087373 0.355296 -0.475868 0.416842 -0.750562 0.027011 0.384334 -0.319445 0.052264 0.578110 -0.586194 -0.612084 0.331151 -0.801232 0.389524 3.099540 -1.813918 1.646531 1.675656 -0.772978 1.506601 -2.363766 -0.810783 -1.435712 0.685091 1.282963 -1.360761 0.768336 0.239836 1.591805 0.493673 0.997656 0.448664 0.506296 -1.403616 0.297554 -2.636012 0.686115 -0.087642 0.305073 1.295242 -0.125508 -0.233299 -1.117728 0.315947 -0.467211 -0.409558 0.602652 -0.958553 -0.738967 -2.275099 -0.548767 -0.816559 0.586210 -0.934235 0.284007 -0.416629 -0.020591 -0.107134 0.299650 1.205287 0.487469 0.342761 -0.445968 -0.511193 -0.769444 0.085400 0.138606 -0.187281 -0.176861 0.424984 0.419525 1.043826 0.022655 0.146206 0.034977 -0.308362 -1.189419 1.261961 -0.696233 1.349183 -0.981331 0.310047 0.451912 -0.783883 -0.801116 0.338138 -0.211670 0.742847 -0.021271 -0.112991 -0.966353 -0.109852 -1.183194 0.563925 
she -0.962016 -0.549812 -0.384945 0.914447 1.166333 -2.148131 -1.080896 3.310463 -0.286080 0.719959 -1.166256 1.063074 0.850986 -0.709618 -0.014213 -2.723478 2.036277 -0.652050 0.812110 1.338182 1.095706 -1.298238 0.453748 -2.765422 -0.120203 3.229125 1.216775 0.141544 -5.644110 -0.637507 -0.244457 -0.632800 -0.773520 1.532295 -0.257065 -1.214953 -0.528659 -0.643181 1.942669 -1.896309 0.326289 -3.089737 1.361545 0.499304 -2.016198 2.112567 0.553011 2.868773 0.212009 -1.998740 0.524652 -1.140973 -0.654216 2.286301 1.337987 0.666202 -1.043918 0.637468 -0.893856 -1.481665 -1.105165 0.943480 -0.301103 1.837572 -0.709454 -0.996085 1.276655 0.496737 -0.830852 0.823735 0.272447 -1.895257 1.159323 0.830784 -1.534490 1.512737 -0.341804 0.556758 1.225348 2.686517 2.141507 0.310253 -0.747440 -1.280943 0.358578 0.122629 1.093617 -1.812218 -0.585791 -0.051837 0.258966 1.648447 -0.391110 0.379541 1.879606 -0.695218 -1.264853 -0.573214 1.120326 -1.426802 0.005881 0.970648 -0.506184 0.934633 -0.886982 -1.425851 0.393325 -1.261687 -0.352325 -2.998964 -1.339318 -2.805524 0.118531 -0.188157 0.974119 -0.627252 0.419846 1.265589 -0.336511 0.378562 1.145638 0.282781 2.077862 2.439057 -1.214586 0.489056 0.579728 0.116482 1.374099 -0.226396 -0.030311 0.388454 -0.447334 -0.448521 -0.004439 -0.098100 -0.139674 1.135884 0.235479 0.351313 0.963645 1.525957 0.951850 -0.347673 1.712738 -0.414908 1.977864 -0.393177 -0.839743 -0.097590 -2.551473 1.541862 -0.174390 -0.691575 2.614838 -0.138061 -0.119387 -0.896776 1.553407 -1.526525 -0.227914 0.056234 -0.003381 0.406187 -0.620729 -0.675530 0.445556 1.913222 -0.418366 -1.314225 2.459175 -0.646717 -0.782974 1.638284 -1.159731 -1.550528 1.168724 1.468242 -1.375373 0.086949 -0.524891 -0.098421 0.130453 -0.188697 -1.244785 0.596173 -1.386616 -0.763164 1.624769 0.490782 -0.942187 -0.032587 -0.911070 -3.429449 2.520948 0.294432 1.400731 -0.255432 -2.530975 -0.536142 -0.172970 -1.615942 1.124294 -0.700369 0.101396 -0.925208 -1.437953 0.365921 -0.593519 -0.383727 -0.149303 -0.066656 -3.187946 -0.900651 1.120376 0.435761 0.688702 0.426418 -0.489213 0.603530 0.348724 -0.206441 0.338346 -0.052025 -0.429705 0.184017 0.424936 0.940933 -0.032531 -1.425342 0.153906 0.873028 0.372150 1.691574 -1.136556 -0.343638 -0.544025 -0.336512 -1.133054 -0.238955 0.812400 1.541300 -1.380117 1.236112 0.788651 0.301548 -0.077315 0.190522 1.347794 0.112920 -1.103752 -0.664553 0.591976 -1.287943 1.634082 -0.216626 0.249835 -0.289750 -0.122789 -2.499551 -1.442960 0.035978 -1.337397 -0.673931 0.507867 -0.664615 -0.022489 1.958367 -0.506714 0.959550 -1.687302 1.014725 1.373614 2.341965 1.102433 -1.335362 1.349599 0.900700 0.896426 -1.574999 -0.519359 1.394990 -1.582023 0.170529 -0.467856 -0.771720 -0.739740 0.612421 -0.190393 -1.086115 0.255946 0.920223 -0.274262 1.406847 2.225355 0.104612 -1.152772 0.421528 -0.391131 -0.627995 -1.479892 0.944612 -0.496791 1.472469 -0.425275 -0.331169 -0.776380 -0.340247 -0.125004 0.931035 -0.622640 -2.090791 0.633006 -0.095429 0.020188 -1.007034 -0.314766 0.616948 -2.129153 -0.487227 -1.217327 0.987137 -1.435974 -0.663539 0.735666 -0.862060 -0.217172 0.515438 -0.754843 0.468398 -0.880469 1.719448 -0.463263 -0.109894 1.350677 0.052161 -0.898906 0.441400 -0.262872 -0.372493 0.606070 -2.445840 -0.213945 -1.655691 -0.302683 0.269000 -0.395994 -0.412487 0.467142 -0.949209 0.077320 0.204977 0.738806 0.238860 0.063519 -1.378393 -1.172829 -0.194198 0.446477 -0.736103 0.233083 0.066769 0.973805 -0.824375 1.589082 0.192367 0.137491 -0.854463 0.750260 -1.412495 -1.126434 0.734102 1.719086 0.292998 -1.769726 -1.351521 0.762373 -1.298866 0.245052 1.039103 0.220848 0.404240 0.678689 -1.368368 -0.700552 0.399410 0.841401 0.209871 2.080708 -0.584354 -2.006548 2.180890 0.214321 -0.471550 0.731749 -0.861577 0.894101 0.696296 -0.729984 0.009127 
white -1.356457 0.586828 1.966495 0.655079 0.835972 -0.425927 -0.489190 -1.612658 1.103537 -0.863819 -0.769837 -1.034705 -1.984097 0.352177 -0.535478 -0.769217 1.521846 -1.278507 -1.025512 -0.502209 -0.058859 0.981072 -0.500309 0.953067 1.948354 -2.322118 -1.594409 0.240024 3.293734 -0.084888 0.075339 0.965082 0.681593 0.866755 -0.283085 -0.085034 0.509970 -0.385856 -0.086189 -1.144157 1.176592 -0.544384 -0.349998 -0.749390 -1.944255 1.134455 0.852734 0.599071 1.576195 -0.683513 -0.531897 -0.915744 1.096725 0.963628 -0.705432 0.539618 0.720296 1.247038 0.139324 -2.150187 0.096700 -0.820623 0.797826 1.767427 -1.090187 -0.436999 -0.112277 -0.285029 0.020781 -0.108876 0.792180 -0.640661 -0.407650 0.596192 -0.109378 -0.138442 0.681251 -0.377860 0.158422 -1.923366 -1.216303 -0.493786 -0.682735 -0.194050 -0.065531 0.017328 -0.617204 0.121186 0.548675 0.978026 0.486609 0.000765 -0.783486 0.276439 -1.307107 -0.234552 0.035554 -0.589804 -1.008516 0.889835 -0.904075 -0.392072 -0.082012 -0.297768 0.599132 -0.251667 -0.300564 -0.324621 0.864741 0.274595 -0.480829 -0.068423 0.890720 0.451754 0.951901 0.529120 -1.139912 -0.244855 0.919895 -0.650533 -0.170825 0.912773 -0.308447 -2.062156 -0.642089 0.408596 -0.233522 -1.467216 0.096257 -0.468607 -0.127022 1.492595 -0.437767 0.486787 -0.625277 0.036518 0.994635 -0.938811 0.417434 -0.832301 0.333867 0.428336 0.435322 -0.017707 0.256478 -0.909782 -0.119787 -0.162695 0.123578 0.988802 -0.204187 1.462650 -0.442196 0.315448 -0.444034 0.105074 0.115092 0.268425 -0.541551 -0.386147 -0.074509 -0.120723 -0.172794 -0.268992 0.094699 -1.153235 -0.283644 -0.280239 0.688345 1.389604 -0.972974 -0.295710 -0.092724 0.055405 -0.760698 0.846884 1.239424 -0.136270 -0.743422 0.206896 -0.655486 0.369383 -0.203396 0.057202 0.061364 -0.175983 -0.841534 -0.771332 -0.089648 -1.239794 -0.220712 -0.012324 1.426394 0.786559 0.245806 -0.707162 0.631260 0.196087 0.635675 0.761629 0.237193 0.906932 -0.002776 0.201554 0.050566 -0.506704 0.631294 -0.297726 -0.300491 -0.699530 0.154486 0.124699 0.781054 -0.040907 -0.313585 -0.316131 -0.432488 0.155940 -0.057373 -0.181378 0.197086 -0.063324 -0.251488 0.054699 -0.208407 0.975874 0.066044 0.519958 0.724172 -0.218625 0.418792 -0.295873 -1.117536 0.489450 -0.524842 0.128821 0.743240 0.605412 -0.117594 0.053869 0.159145 -0.406999 0.189487 -0.023263 0.420339 0.960421 0.437533 -0.569300 1.473220 -0.555149 0.276235 0.336365 -0.084625 -0.056418 -1.003481 0.937502 -0.790204 0.405782 -0.131841 -0.888191 -0.260094 -0.018452 -0.783631 -0.617272 -0.606337 -0.597445 -0.552267 0.371902 0.121682 -0.583615 -0.743244 -0.527529 -0.271292 -1.614957 -0.239895 0.375615 -0.542751 -0.095305 -1.678230 0.029241 -0.697441 -0.844885 0.966561 -0.816013 -0.232800 0.844228 0.205293 0.626368 0.605921 0.922744 -0.194723 -1.701742 -0.431187 -0.630041 -0.734704 1.241794 0.445140 -0.638956 0.636620 0.367210 0.729246 0.286114 0.238275 -0.094296 -0.041200 -0.390027 0.150910 1.281621 -0.311344 -0.159407 -0.077037 0.255953 -0.773200 -0.786331 0.515886 0.236894 -0.778842 0.338870 0.880116 0.606389 -4.074306 2.214055 -1.257365 -2.270616 -0.125803 -0.786851 2.536606 0.234276 0.346840 1.463004 -0.219182 -0.053405 -0.206082 -0.057547 -0.287174 -1.168049 0.141750 -0.901548 -0.279650 0.246406 -0.188776 0.997572 0.548875 -0.182896 -0.660168 -1.366750 -0.820925 -0.939464 1.040138 0.779980 1.513521 -0.188778 -0.809810 -0.766651 0.108425 -0.080514 -0.849110 0.253611 -0.467707 0.065809 -0.420250 0.020025 -0.132496 0.047218 -0.013603 0.248016 -0.500634 0.009487 -0.231831 0.198623 -0.041424 0.532972 0.948296 -0.813913 -0.319894 -1.098942 0.271346 1.102407 1.037277 0.383738 0.120011 -0.877929 -1.927056 1.944484 0.953642 -0.669900 0.340603 -0.024139 -0.195202 0.458300 0.362453 -1.208213 0.644382 -1.350658 0.576467 -0.108184 -0.039391 0.231418 0.292122 0.820151 
on -3.264218 1.022908 -1.574449 1.786855 -1.103510 -3.067402 -1.650545 0.808032 -1.155983 1.280453 0.496171 0.598261 2.790392 0.238331 -1.769271 1.142552 -1.875636 -0.067759 0.443070 -2.289800 -1.009629 -1.820873 0.991256 -2.013183 2.331256 1.088539 0.226645 -0.465243 -1.330880 -1.020470 0.981201 2.166524 -0.974922 -0.027961 0.973069 1.600651 0.280730 0.135509 -2.024284 0.443682 -0.084074 -1.217696 -1.687624 0.984913 0.294320 -0.283388 -1.181994 -1.837963 0.460206 -0.149517 -4.530055 -0.361326 -2.363048 -3.817356 -0.646532 2.773782 -0.527142 -1.792187 1.088649 1.662022 0.506282 0.355299 -0.805420 -0.055608 1.708455 0.115446 -0.009762 -0.383597 -0.016710 -2.106321 -1.018267 0.423088 0.822771 -0.974543 0.428957 0.494964 0.746926 0.564942 -1.020987 0.315744 -1.318568 0.478292 1.290003 1.118457 -0.225053 -0.076822 -0.731980 -0.546615 -0.360509 -0.022093 2.314334 -0.175489 0.959877 0.117620 0.045656 -0.256217 0.006954 -0.058008 0.506315 0.704284 1.130961 0.835013 -1.028396 -0.100223 -0.249463 -1.555386 0.316585 0.640637 0.636392 1.245055 0.421740 -0.102361 0.175879 0.108270 0.304265 -0.046621 0.346001 0.152686 -0.178359 -1.918528 1.801790 0.732768 1.236881 2.983839 0.164025 1.075559 -0.299929 1.148182 -0.797651 -0.424644 -1.170400 -0.170565 1.100318 -0.146644 1.024971 0.226329 0.364423 -0.569706 -0.605408 -0.311868 -0.006960 -0.014698 0.805106 0.080803 -1.138270 0.693128 -0.451467 2.529059 -1.580797 -2.189292 1.079665 -2.768016 0.873009 -1.486272 -1.231005 -1.887764 -0.866489 -0.601986 0.486481 0.363321 0.335088 1.275304 3.435442 0.617908 0.645175 -0.680101 2.327967 1.643585 0.210725 -0.896081 -1.366637 0.693564 0.995093 -0.545566 0.603477 0.253108 0.615598 1.436550 -0.193747 2.131083 -0.102712 -0.007688 1.827091 0.769983 -0.636369 -0.751549 -0.110746 0.230145 0.608798 0.910651 -0.868706 0.035116 0.098241 0.023992 1.198172 0.974555 -0.328634 -1.718712 -0.028209 -1.166619 -0.573884 -0.307526 -0.919760 0.700360 0.669252 -0.220458 0.969873 -0.982737 1.327555 0.280031 0.030666 -0.340948 -0.897174 -0.923078 -0.551064 -0.362662 0.655407 1.526706 1.478241 -0.256827 1.036928 0.837257 0.666699 -0.807791 0.074539 2.600713 1.682854 0.208186 1.356960 0.301216 0.299686 1.197181 -0.174133 -0.064494 0.666877 -0.199345 -0.635904 -0.041375 1.732561 -0.453100 0.672840 0.890170 0.478188 -0.486358 0.511310 0.025783 0.916116 -0.322369 0.190603 -0.722614 1.688919 1.167137 -0.943298 0.063566 -1.914791 0.096847 1.242817 -0.882036 -1.450613 1.015980 1.026715 1.736564 -0.944571 -0.190414 -0.237855 1.130441 0.592616 -0.899390 -0.621337 -0.826068 1.119687 -0.184961 -0.791905 -0.404626 -1.461126 0.314494 -1.032205 -0.671273 0.144497 0.815130 0.832611 0.185239 -0.864121 -0.247572 -0.667140 -0.339810 0.470424 0.471746 -0.130190 -0.385214 1.161415 0.629400 0.993205 0.805394 -1.513013 1.440054 -1.400505 -0.077525 0.704128 -1.749668 1.300919 -0.260935 -2.864833 0.345248 0.445387 1.428395 0.063780 1.039764 -0.895615 -0.535261 0.700970 0.315204 -0.145944 -0.814754 -1.216891 1.391634 -0.028231 -0.273310 1.083384 0.129535 -3.461903 1.558684 -2.063700 -1.980060 0.487468 -0.727129 3.024158 0.073236 1.930021 0.901214 -0.446872 0.976903 -0.958469 -1.682037 -1.773600 0.125785 -0.265970 -1.677890 -0.728824 0.187034 0.395258 1.163733 -0.818553 -0.503896 -1.243438 -0.795438 -0.562618 -1.167199 1.283291 1.121717 0.092513 0.236818 0.912239 -0.370544 0.475847 1.550366 0.000349 3.038376 -1.480676 2.232833 -0.048952 -0.554244 0.513308 1.146143 0.100152 -1.335886 -0.319068 0.498773 2.492707 2.026527 1.815922 -0.364435 1.560964 -1.443536 -0.684430 -1.324695 0.844352 0.107214 1.723488 1.442843 0.440183 0.275308 1.093697 0.066180 0.388906 -2.125724 1.147069 0.326701 -0.081273 0.694020 1.040119 -1.180522 -1.894411 -2.541239 -1.157510 1.662888 0.626878 -0.301815 1.616800 -0.178562 
hair 0.300147 1.880569 2.791802 -0.553741 0.746610 0.228712 -1.218888 -1.958324 -0.121058 0.671991 1.411815 -2.003654 0.276011 1.156662 -0.153995 -0.866612 -0.537755 -0.051617 0.130471 -0.109079 -0.711735 2.206136 -1.514504 -2.784156 0.871807 -1.029977 -1.403271 0.494172 0.140304 1.039845 -2.072350 0.647471 -1.614148 -1.659675 -1.798527 1.512949 1.294239 -0.378017 -0.490746 -2.186056 0.104589 0.498169 -0.318646 -0.979674 1.049930 -2.045238 -0.393108 -1.767144 -1.740419 -0.921496 -3.340274 2.007742 -6.506461 -3.243204 -0.531222 -0.555650 -0.725136 0.365547 -0.846252 -1.494190 -0.007157 -0.642714 0.808704 1.270712 0.038899 -0.444275 -0.725767 -0.326314 -1.292684 -0.795850 0.254526 -0.305139 0.768905 0.198477 -2.711000 0.611894 0.977922 1.313397 -0.714726 0.618316 1.653521 0.814277 -2.097360 -0.724833 0.173308 -0.622576 1.351858 -1.471840 0.800540 -0.400850 0.942107 1.638961 -0.436520 0.213349 -0.045317 1.195032 0.974510 0.568746 -0.861149 -1.270945 1.512549 1.664596 0.854542 0.815909 -0.420440 1.347543 0.366962 1.327479 -0.812750 2.207185 2.138729 2.635825 -0.858481 0.571479 -0.953363 0.637490 2.439874 0.556717 -0.639915 1.304323 -2.225296 -0.114982 -1.960266 -1.125716 2.104971 -2.100111 -0.409175 -0.280832 -0.043524 -0.873514 0.120047 -1.114499 0.175168 0.128710 0.285340 -0.803367 -0.237885 0.367555 0.150773 -0.776048 -1.065261 0.621332 1.153674 -0.687891 0.571779 -0.455958 1.340387 0.803248 -0.437519 1.050775 -1.192861 -0.221445 0.045130 -0.009439 -1.772043 0.976449 0.042521 -0.436487 1.103578 -1.381515 0.865462 2.299015 -0.889341 1.533094 -1.842303 -2.176667 -0.839136 0.952422 1.991621 0.768038 0.505208 0.872316 1.571543 0.159459 2.818192 0.136989 0.164236 0.407304 -0.162680 -0.751122 0.345251 -0.551481 -0.206643 0.553386 -0.607377 0.555420 0.714907 0.009031 0.223635 -0.899370 1.682170 -1.374156 -0.924860 -2.894549 0.186806 0.742321 -0.654908 -0.090548 -0.954470 -0.716280 -0.695343 -0.120965 0.022348 0.043076 0.792732 -0.852644 0.696428 -0.151330 -1.008253 -0.879711 -1.224557 0.340878 0.871112 0.017365 1.019548 0.449431 0.769700 0.944319 -0.100329 0.433841 0.355511 1.151534 1.279765 0.138162 0.740333 -0.830342 -0.080968 -0.177655 0.363458 0.244694 0.275278 -0.803087 -0.012716 2.095532 0.280247 -1.093288 1.621194 1.211251 0.066404 -2.097223 -0.034632 0.522791 0.399273 -0.450996 0.255139 -1.064539 -1.685685 0.669331 -0.728524 0.976842 -1.094772 -1.228511 0.502262 0.126339 1.767566 -1.054037 -0.877337 -1.036840 1.616342 -0.571693 -0.134688 -0.296470 -0.356894 -0.005311 -0.275262 -0.270536 0.635100 0.449876 0.398673 0.987893 -0.951521 1.462950 -1.309382 -0.445364 -0.586660 2.707691 -0.673680 2.146657 -1.831670 0.263199 0.433724 -0.073854 -1.415946 1.680312 1.948216 -0.039947 0.063474 -0.815865 -2.460870 -2.101331 -1.757514 0.825952 -0.791835 -0.784968 -0.210587 -1.885869 -0.301165 1.623168 -2.570523 -2.485065 -0.624031 -1.193901 -0.509218 -0.480370 0.839826 3.148244 -1.120995 -1.937729 -2.386917 -0.408119 1.789432 -0.778516 0.567021 1.148621 -0.560127 0.575533 2.382710 -0.944342 0.893876 -1.003732 -1.240509 2.778788 -0.559142 -1.191331 -0.158317 1.223976 2.858780 1.781252 1.174392 -0.992553 -2.231502 3.212469 -0.769502 0.518792 -1.562529 1.456099 -1.120326 -0.422546 0.004615 0.690336 2.099443 2.442362 -1.501677 1.332556 0.389436 0.777530 0.376608 1.133601 -0.581814 -3.104026 0.319604 -0.163326 1.629453 2.961971 -1.462014 1.583256 -0.012012 0.514142 0.182133 1.351056 0.165771 1.056274 -0.136297 -2.819872 0.121907 -0.224275 -0.894633 -1.763860 1.171514 -1.364872 -1.876080 0.376271 0.752389 -0.672086 -0.640149 0.554628 -0.904229 -2.498745 -0.268258 -0.274234 0.342047 -1.052391 0.855698 -1.215405 1.166856 1.243311 1.440161 -0.293560 -0.666765 -0.203379 1.183079 -0.665927 -0.564883 0.183349 0.487554 0.474578 1.185049 1.371437 -1.400812 1.270603 
in -0.170391 1.157948 -1.902387 0.332127 -0.939853 -3.277659 -2.509935 1.643904 -0.278379 -0.013136 1.441342 -2.769846 1.035141 0.990436 0.266135 -0.314426 -0.984213 -0.372498 1.284837 -1.669396 -1.331342 -0.562316 -0.010649 -1.966720 0.976828 1.334451 -0.050982 -0.611504 -1.229357 0.341198 0.859360 0.295604 -0.048022 -0.681403 1.149574 2.089343 0.580240 -1.124828 -1.121462 -0.978696 1.496513 0.695509 -0.804121 0.012493 0.940002 -0.824138 -0.380462 -1.343872 -0.662693 -0.062222 -0.848538 0.319048 1.502115 -1.421299 -1.069298 -0.331717 1.213187 -0.970804 -1.090284 0.778809 2.086928 -0.403916 -0.847709 -1.014125 0.676779 0.523890 -1.320020 -0.258863 0.465978 -0.832218 -0.591867 2.106205 -0.047486 -0.416995 0.805474 0.363429 0.593071 0.877159 -0.080304 -0.218059 -0.152091 -0.440805 0.758422 -1.188891 -0.930279 0.371413 0.013000 -0.271532 -1.322850 -1.771720 0.987396 0.240327 0.800696 0.429033 2.818941 -0.654242 1.093032 1.070770 -1.673110 1.273614 1.355339 1.594376 -0.016744 -0.505388 0.314037 0.524342 0.535680 2.092939 0.145812 2.981087 0.858134 0.456085 0.060133 1.157941 1.081472 0.148754 -0.423467 0.267974 0.604915 -0.079589 1.638093 0.336460 0.076778 3.129562 -1.421439 1.413179 1.081627 2.399248 -0.956818 0.468078 -0.424182 -1.036401 0.653098 0.154960 1.444940 -0.369046 0.672014 -1.600681 1.278366 -0.009132 0.270047 -1.033434 -0.889018 -1.388005 -0.187416 1.130082 -0.376018 0.681884 -2.926344 -1.057523 0.971060 -0.163377 1.253306 -1.808456 0.704984 -0.560452 -1.160450 -0.161353 0.925880 0.360194 0.306813 0.890799 2.138048 1.017853 2.498604 0.038833 1.894241 -0.358250 -0.073151 -0.617372 -0.723880 0.262858 0.518989 -0.468952 -0.715604 -0.442268 0.531979 0.558901 0.239970 0.995682 -0.537254 -0.714597 -0.295501 0.665437 0.149772 0.632870 -1.812371 -0.271234 0.639862 -0.833925 -0.687391 0.110537 -1.057529 0.048330 0.298164 0.393924 -0.069995 -0.144633 0.961731 -0.143449 -0.488388 -0.495257 0.148514 0.299114 -0.543418 -0.755253 1.036681 0.501501 2.006318 -0.426521 0.936736 -0.096722 -1.405069 -0.316721 0.776288 0.399543 -0.625113 2.395470 0.244764 -0.569191 -0.030991 0.151493 1.091803 -0.341958 0.764795 0.768731 1.434768 -0.344920 1.114896 0.350386 1.071842 0.496069 -1.249107 -0.345536 0.977835 -0.464146 0.495573 1.377525 1.729251 -0.233794 0.834980 -0.062843 -2.134680 0.128614 1.128857 1.070412 0.407274 0.325162 -0.179380 -0.146101 0.834358 -0.481003 -0.662147 0.082797 -0.533108 0.654931 -0.552481 -0.048780 0.778899 0.506749 0.409031 -0.451382 0.545776 0.751950 0.861531 0.530000 0.156900 0.200550 -0.967888 0.583033 0.500260 -0.264165 -0.227396 -0.372315 0.068618 0.665301 0.217274 -0.048597 -0.213511 -1.287550 0.419247 0.733632 -0.734189 0.078669 1.122169 -0.451087 -0.484745 -0.206531 0.006913 0.250909 0.954376 2.098131 1.084656 -0.607780 -0.976315 1.430286 -0.130682 -0.669116 1.608158 0.263733 1.074185 0.180174 -0.352868 -0.098102 -0.169964 -2.139468 1.256625 0.604765 -0.211907 1.226991 1.149942 -0.560298 -0.143877 -1.156193 0.341659 -0.268862 -1.719649 0.810014 -0.990368 -0.113593 1.060891 -0.544025 -0.150462 -1.270068 0.351133 -0.745743 0.098183 0.103646 1.920809 1.127772 0.067034 1.217570 -1.978899 -1.252223 -1.792826 -0.847422 -0.789330 0.179716 -0.979726 -0.044943 -0.982423 1.619020 -1.524269 0.893572 0.327841 0.712133 0.419228 -0.252538 0.238197 0.290772 -1.057064 -0.302216 -0.385210 0.534744 1.534265 0.321030 0.027731 0.006383 -0.069532 -0.355048 0.039922 0.209595 -0.053759 0.036829 -1.265435 -0.257456 0.479476 0.208962 0.143425 1.583463 2.693608 -0.440225 0.203880 0.963755 0.067282 0.721701 0.446912 -0.898965 -0.560034 0.983058 -0.798565 0.512521 2.177844 -0.733082 -0.258966 -0.034705 1.292013 0.091188 -0.104394 0.050226 0.300856 0.765516 -0.711892 0.496402 -1.516403 0.708671 -0.477993 1.417869 -0.164697 -0.250609 
her 0.341159 -1.292081 0.366339 0.174624 1.735274 1.663680 -0.760901 -0.821823 0.479485 -0.804755 -1.865025 0.943206 -0.304608 -1.560995 -0.212238 0.655909 2.600997 -2.478641 -0.919457 -2.284113 1.673078 -0.176454 -0.912054 2.894547 -0.613678 -0.198292 -1.036346 -1.186309 -0.625230 -0.507701 0.817797 0.626112 -0.242894 2.099599 -0.169955 -2.050784 -0.053503 0.398176 0.634311 -0.191893 -0.620196 -1.666776 -0.288340 2.192026 -1.651120 1.983706 -0.017019 1.823466 1.089918 -0.048826 0.444270 -1.717798 0.824231 0.553343 -0.048449 0.080440 -0.935180 -0.499747 0.573236 1.331028 0.611730 0.531416 -0.595134 -0.831964 -1.310913 0.924963 1.274422 1.697767 1.656372 2.354667 0.415721 -1.338357 2.056383 1.093612 -3.669615 1.193064 -2.268294 -0.717532 2.677772 2.914498 2.015237 1.197955 -2.278814 -0.767554 1.248742 -0.582887 2.324919 0.260805 0.314381 -0.154719 -0.906758 0.839953 -1.253535 0.764060 -1.031884 0.374500 -0.612688 -0.437734 1.335486 -0.912929 -1.015464 -0.090643 0.075877 -0.010732 -0.379145 0.297289 -1.186300 -3.372590 -0.893958 -2.529356 -1.683361 -1.935303 0.305111 0.841456 0.486471 -0.498844 -1.084653 0.316207 2.394180 -1.593651 -0.082132 0.446479 -0.025984 -2.269608 0.214474 -1.083645 -0.471347 -0.722223 -0.613249 -0.846233 -0.547415 0.756120 -1.152818 -0.888774 -0.890553 1.494248 0.259270 0.620825 -0.030629 1.424022 0.402104 0.231670 0.702332 0.707782 1.298375 -0.199976 0.920018 -0.313629 1.031199 -1.054802 -1.447081 1.034719 0.838170 0.836435 -0.124987 0.268253 0.241566 -0.032420 0.318214 -0.453720 -1.366311 0.780514 0.319937 0.494486 0.027911 0.058807 1.488024 0.668258 0.663872 -0.126535 0.630730 -0.034593 -0.026505 -0.312413 0.035185 -1.217268 0.445455 1.035263 -0.008824 0.979504 -0.271813 0.895793 1.015009 0.024984 -0.696441 0.114516 0.267346 0.494453 -0.433799 -0.056115 0.835416 0.157776 -0.963710 -0.782942 -0.802329 0.332402 -0.027310 0.118964 -1.020210 0.280803 -0.409227 0.464109 0.837936 -0.017323 -0.002761 -0.367569 0.076548 0.755069 -1.807005 0.538150 -0.253063 -0.074959 1.133080 0.617070 -0.132431 0.413524 -0.093306 -0.656895 -0.271135 -0.674251 -1.144073 0.219976 -0.956292 -1.154846 -0.071298 -1.599127 -0.248507 -0.213671 -1.620628 -0.080298 -0.003252 -0.730292 0.222223 1.069528 0.583048 -0.248397 0.583918 0.661016 -0.690030 1.016996 0.554312 -1.109073 0.371270 0.903007 -0.872549 0.865994 0.813939 -1.255208 -0.732289 0.618380 -0.732679 0.095724 -0.376669 0.874593 1.741942 -0.993495 -0.472124 0.430760 -1.552977 -1.166884 -0.558512 -0.641051 -0.491390 -1.594595 0.118929 0.069878 -0.943915 -0.843808 1.000116 0.284895 -0.733356 1.235978 -0.454666 -1.120618 -0.347089 0.119641 -0.192091 0.800354 -0.660320 -0.019053 -0.818241 -1.518611 0.916215 0.508927 0.728153 0.904009 -0.500451 -0.343694 1.226756 2.263544 -0.133522 -1.763604 -1.730905 0.033472 2.511248 1.828848 -0.522345 -0.429149 -0.429646 2.436399 -0.219017 -0.393081 1.279547 1.982222 -1.003928 -1.992137 0.333330 0.503956 0.566712 0.701221 0.090295 -0.713822 -0.082653 -0.675059 1.776308 -0.947879 -0.288081 0.700431 -1.103884 1.143858 2.677567 -0.217305 1.155932 1.653519 0.377560 0.888939 -1.947226 -0.243914 -2.108856 0.977256 1.956506 -1.688269 0.658798 0.047684 2.090761 0.222700 0.860356 0.460739 -0.471257 -1.481774 0.619883 -3.336963 0.676618 0.172183 -0.667140 -0.051007 -1.206713 -0.623734 -0.070330 0.750735 0.178235 -0.106697 -0.096959 -0.483169 0.283932 -2.612129 -1.216448 -0.326885 0.600710 -0.894595 -0.044688 -0.964023 -0.150313 0.645511 -0.617717 1.500066 0.068124 0.537833 -2.228076 -1.539285 0.025034 0.723866 -1.161453 0.534502 0.451643 1.030667 0.536042 0.980301 -0.277572 0.004897 -0.577861 -0.290275 -1.922574 0.850553 -1.179929 0.593292 -0.635079 -0.606080 1.090628 -1.933776 -0.395896 0.599714 1.292246 2.066407 0.913792 -0.783541 -1.668340 0.209041 -2.875242 0.409961 
dark -0.241597 0.575235 0.533581 1.064631 2.077200 -0.188300 0.287280 -0.988531 0.398533 2.142606 -0.327235 1.482823 0.510696 -1.989028 -0.872403 -0.079410 0.465684 -0.590668 -0.381006 1.173553 1.156065 1.050549 -0.944259 0.250568 -0.116203 0.285560 1.100653 -0.678795 -1.066652 -0.024168 -0.801637 -1.143839 1.225566 2.440657 -0.972999 -2.382453 0.016655 0.269887 0.888346 -1.034209 -0.345445 1.275262 1.279913 -2.315736 -0.606075 -0.710935 1.315573 -0.491572 0.458417 -0.348557 0.024390 0.282318 0.206022 0.805327 -0.408945 1.399306 0.844460 2.618420 0.250218 -2.339035 -0.422459 -1.003478 0.491163 1.465769 -1.083660 -0.304026 -0.983108 -1.244152 -0.181027 0.301867 0.818921 0.500070 -0.502584 0.700613 1.418514 0.496099 0.363228 -0.196004 0.228543 -1.437779 -1.103793 -1.406070 0.916456 0.036341 0.268309 -0.675828 -1.140135 0.195609 0.060445 1.102253 -0.680158 0.317967 -0.479123 0.074180 -1.086804 -1.017551 -1.322387 -1.385293 0.379028 0.312516 -1.655100 -1.577385 -0.086370 -0.332588 -0.418559 -0.943937 -0.190953 -0.000282 1.021619 -0.921558 -0.634522 -1.018158 -0.572692 0.041174 1.969003 0.734385 0.260469 0.795469 -0.879356 1.031793 0.923998 0.834099 0.606961 0.244204 -1.705944 0.961267 -0.157936 0.166207 0.421795 0.241525 -0.942522 1.716734 -0.048302 0.401149 -0.610515 0.244366 0.431938 -1.214275 -0.044944 0.352860 0.837370 0.377454 0.181048 1.469630 -0.397581 -0.627460 -0.101305 0.303605 0.572379 0.485250 0.926990 -0.056597 -0.388569 0.679206 -0.141635 -0.524413 -0.781996 0.032992 -0.415335 -0.245087 0.692776 -0.997906 0.374967 -0.090805 -1.021683 -2.056371 0.464919 0.164499 0.469292 0.924192 0.096651 -0.037348 0.257456 -0.300161 -1.319659 0.854737 0.469942 0.059714 0.119745 0.760813 0.141947 -0.806277 0.716189 -1.536759 -0.020043 -0.415518 0.020435 -0.261137 -0.200144 -1.066374 -0.894859 0.715626 2.553682 1.073786 0.313299 -0.185614 1.192713 0.048684 -0.223179 1.210349 -1.036015 1.777233 -0.316201 0.491919 -1.636689 -1.336717 2.005170 0.190457 1.102247 -1.050191 0.809080 0.248926 1.349654 -0.819603 -0.210529 -0.330972 0.221485 1.848394 0.634441 0.154404 -0.519135 -0.097634 0.064089 -1.019094 -0.334766 -0.435145 0.334391 -0.333437 1.908376 0.113005 -0.517512 -0.351139 0.039239 -0.288928 0.059598 -0.201088 0.175294 0.401126 -1.413897 -0.514572 0.204909 -0.189992 -0.759576 0.083882 1.005946 1.044109 -0.919938 -1.022441 -0.011460 0.185009 0.128074 0.359527 -0.705708 -0.364483 -0.238346 0.589604 -0.285705 -0.583180 0.392058 -1.131552 0.044731 0.437444 0.053107 0.936873 0.134128 0.142580 -0.332034 1.096040 0.056289 0.152630 -0.181726 -1.034048 0.285145 -1.311428 0.239521 -0.100100 -0.443478 -1.047588 -0.109115 -0.056752 0.885612 0.217125 0.136971 -0.665967 0.708463 0.382083 0.024068 0.280298 0.795646 0.467286 0.045994 -1.723572 -0.021758 -0.096041 0.626227 1.836291 0.259135 -1.495239 1.359726 -0.693246 0.269710 0.183573 -0.254774 -0.505163 -0.807976 -2.402623 0.214074 2.128934 1.491794 -0.029416 -2.014160 0.850414 -0.690454 -1.580351 0.608245 -0.189848 -1.671985 0.141169 -0.480805 0.495305 1.453313 -1.252896 1.708149 0.742401 0.743275 0.414858 -0.143377 -0.828131 0.008286 -0.168952 0.580076 -0.545655 0.441369 -0.202562 0.003436 -1.090770 0.020833 0.001485 -0.250272 -0.530142 -0.349754 0.022744 0.917619 0.051191 0.111603 -1.825748 -0.174336 0.223949 0.050341 0.547880 0.554454 0.529804 -0.852309 -1.054595 0.026255 -0.242917 -1.092364 -0.088788 0.257138 0.097633 0.585434 0.560804 -1.213119 0.498604 0.731364 0.171449 -0.685273 1.463869 -1.492893 0.232059 0.605621 0.796723 -0.059093 0.199012 -0.350065 -0.953990 0.506917 1.478513 0.203154 -0.654554 0.952859 0.175318 -0.396748 0.358880 0.017649 -0.790654 -0.669429 -0.983382 0.541623 0.169304 -1.155376 -0.325059 0.721405 0.549628 0.583820 -0.769199 -1.336254 -0.276584 0.188864 0.230443 
coloured -1.110765 0.074225 -0.624485 1.824053 -0.509389 0.934723 0.151655 0.896511 -0.314942 0.711036 -0.239884 0.878567 -0.398272 0.838976 0.196562 -0.753265 -0.107416 1.574807 0.320196 0.566146 0.382038 -1.206526 1.449163 -0.799865 0.749586 -0.997602 -0.475211 1.361509 0.041255 0.710431 -0.142804 0.065192 0.126012 1.167706 -0.308672 -0.407514 1.144194 -0.895281 0.524108 0.592192 0.008151 0.951110 -0.110449 0.754653 1.412671 0.042276 -1.696078 -0.285561 0.103179 0.782160 0.606650 0.535871 2.022650 0.490472 -0.924278 -0.479490 0.432286 1.355930 0.514650 -1.167573 -1.169447 -2.096699 1.449074 0.024709 0.734695 -0.107285 0.548570 0.779233 0.504644 -0.119968 -1.039096 -0.210071 1.486598 0.218328 -1.361169 0.687690 0.390842 0.403900 0.228981 0.570959 -0.648760 0.626641 0.321516 -0.104877 -0.057968 -0.349808 -0.597753 -0.178959 -0.178031 1.086644 -0.115932 -0.384973 -0.438394 -0.718002 -2.489336 -0.130975 0.087494 -0.828522 -0.698818 0.105985 -1.179998 0.034109 0.391533 -0.469445 0.288690 -0.615016 0.404395 0.758594 -0.267198 0.632421 -0.228945 0.551608 0.390695 -0.064743 -0.389789 0.028285 -0.643059 -0.223330 -0.148089 -0.650675 -0.505202 -1.092037 -0.234263 -0.449856 -0.526665 0.083938 -0.278797 0.172715 -0.665288 0.103294 -0.346684 0.172559 0.448815 0.048096 0.417446 0.737195 -0.121717 0.805376 -0.822949 1.320869 -0.079071 -0.177251 0.034159 -0.559616 -0.551872 0.142123 -0.406372 0.565270 -0.823340 0.252898 0.283349 -1.266916 0.445673 -0.517471 0.511636 -0.415157 0.275396 -0.174387 0.397123 -0.116104 -0.136571 0.879322 -0.202343 0.059329 -0.184071 1.294209 -0.970735 0.278212 -0.068372 0.597391 -1.460654 -0.517293 -0.038845 0.287913 -1.356677 -0.321606 0.727515 -1.293333 0.474095 -0.407627 -0.133280 1.014321 -0.474647 0.611175 -1.205686 -0.234568 0.081702 -0.112691 -0.724520 0.273879 0.425981 -0.901050 0.086705 -0.056152 -1.570864 -0.307101 -0.582436 0.621553 -0.444683 0.172947 -0.857884 -0.446160 -1.060099 -0.375000 0.569454 2.127584 0.400388 -0.247672 -0.015488 -0.439291 1.517433 0.304029 0.038709 -0.542889 0.584753 0.794958 0.651698 -1.029536 0.320225 -0.456733 -0.667245 -0.073272 -0.132603 0.313029 -0.083732 1.099435 1.463975 0.854139 -0.232144 -1.195843 0.099774 1.512267 0.435804 -1.006869 0.420142 0.596847 -1.413935 -1.049231 -0.953301 0.145589 0.391831 1.685012 0.012897 -1.138180 0.954550 -0.484777 -0.856707 0.080380 0.299456 0.145776 0.016084 -0.423648 0.447691 0.200107 -0.290503 -0.525531 0.068768 0.237385 0.551874 -0.713633 -0.743885 -0.102869 -0.133955 -0.506049 0.582197 0.393766 0.210152 0.241095 -0.572344 -0.277304 -0.074028 0.441242 0.766366 0.779504 -0.564430 -0.816281 0.640122 -0.029326 0.610655 0.363483 -0.407570 -0.236002 -0.011383 -0.245143 -0.448913 -0.213609 -0.103472 -0.020622 -0.616419 -1.523389 -0.680518 -0.563813 -0.100653 -0.408486 -1.197187 -1.647206 0.069530 1.346467 -1.278067 1.031824 0.147808 -0.216675 0.045806 0.063719 -0.326290 1.647156 -1.009868 -0.623238 -0.030811 -0.589743 1.048990 -0.701894 -0.147714 0.250927 -0.385428 0.478498 0.454193 0.267743 0.419590 -0.632900 0.074833 0.614002 -0.980004 -0.058974 0.791225 0.659060 -0.212224 0.808079 0.606297 0.156960 -0.480537 0.059013 0.536342 -0.608160 0.106961 -0.986349 -0.614124 -0.877700 0.077760 0.793990 0.253929 -0.291836 -0.658506 -0.017603 0.449998 0.226454 0.561822 -1.043060 0.749265 0.656669 0.987987 -0.361814 0.307785 0.433602 -1.251582 0.711351 0.403569 -0.005954 -0.624901 0.088785 0.453041 0.483624 0.748183 0.309934 0.928797 0.071502 -0.194364 0.822120 -0.454049 0.286323 1.450999 -0.268643 -0.034947 0.571472 0.646582 -0.250204 0.875952 0.076380 0.990735 1.379941 -0.358351 0.160422 -0.273778 1.211869 0.179422 -0.715387 -0.569891 0.893686 -0.893539 0.781769 1.042684 -0.876884 0.007279 -2.131785 1.166307 0.572740 1.992095 0.298562 1.111501 -0.499537 
the 0.567933 -0.586322 0.434453 -0.899541 0.852536 0.088361 2.506924 1.386337 1.285038 0.110861 -1.312930 0.860820 -1.212972 -0.733728 0.589471 0.648155 0.729088 -0.620022 -1.339161 -0.749047 -0.212631 -0.244372 -1.736737 1.969056 -0.876898 2.391983 1.710972 -0.829893 -4.566014 -1.477967 0.191985 -0.415148 0.493634 1.927612 -1.216137 -2.200348 -0.634348 0.892142 0.650056 0.399052 -0.542141 0.894112 0.746960 -1.204244 -0.280361 -0.486971 1.556929 1.850582 2.112894 0.132480 0.472097 0.363152 1.522179 1.594947 -0.263876 -1.048214 -0.054991 -0.276469 0.491645 0.761657 0.008983 1.131465 -0.006856 -0.189668 0.983492 0.669814 1.037173 -0.001553 0.003765 0.332878 0.399679 -0.567114 1.559815 1.394247 -3.016971 -0.002072 0.099388 -1.152591 2.362052 0.396737 0.360158 -0.203997 -0.639340 -0.657159 0.674985 -0.371872 0.929521 0.722208 0.627206 -0.796903 0.208672 -0.289777 0.949489 0.273552 -0.297843 0.252613 0.882710 0.592946 -0.050016 0.843565 0.691077 1.295422 0.184187 -0.337614 -0.090274 -0.879144 0.005292 -1.859091 -0.414894 -1.503755 -1.006778 -1.856207 0.286169 0.199481 -0.550509 0.524137 -1.275308 -0.063264 1.552480 -0.996084 -1.306326 -0.088048 -0.785231 -1.985474 0.319522 -0.218088 -0.156180 -1.123243 -0.310967 0.786287 0.106757 -0.366798 -0.979392 0.438715 -0.215291 0.682847 0.149868 0.106634 -0.188281 0.985315 -0.065278 0.282630 -0.633714 -0.283764 -0.249578 -0.623939 -0.336499 -0.283406 1.282890 0.385810 -1.099697 1.710585 -1.052729 0.420322 -1.217772 0.202231 0.207953 0.730676 -0.112139 -0.485093 -0.614274 0.574555 -0.490834 -0.775787 0.150571 1.110852 -0.731892 -0.087430 -0.321058 0.912669 0.379012 -0.356409 0.253277 0.456096 -0.047081 -1.182553 -0.147745 0.462832 0.031396 -0.657182 1.009163 0.300210 0.119701 0.238969 -0.019124 0.704529 0.234581 -0.733951 -0.565256 -0.320935 0.936300 0.061735 0.176118 0.159700 0.335099 -0.347424 -0.106079 0.960657 0.241358 0.417611 0.492627 0.357623 0.386457 0.017120 0.448273 -0.053480 -0.308153 -0.626833 -1.446019 -0.107045 -0.421997 0.548694 1.782438 0.764996 -1.017309 -0.906269 -0.754887 0.261051 0.294227 0.103282 0.003155 1.109132 -0.295833 0.253199 -0.620470 -0.007966 0.213569 -0.216159 -0.661164 0.068111 -0.368468 -0.872125 0.233889 0.821859 0.356143 -0.314848 -0.368933 -0.086706 -1.232040 0.193370 0.394149 -0.011204 0.643360 0.496336 -0.678515 -0.924278 1.015444 -1.283363 0.187994 1.100538 -0.295842 -0.055020 0.271926 0.334609 0.692009 0.190038 -1.913890 0.249460 1.342755 0.819070 0.397826 -0.387825 0.794754 0.928104 0.815373 -0.065179 -0.617350 0.936376 1.240508 -0.937482 -2.104841 -1.691409 0.460469 0.557467 -0.655231 -1.102473 0.064645 0.173901 0.800775 0.734776 -0.209508 -1.019719 0.352890 0.597562 -0.890244 0.779301 -0.663562 0.483509 1.382712 0.849096 -0.577883 -1.932759 -1.294497 -0.412405 0.257724 0.387950 0.923670 0.243242 -0.312934 -1.147197 -0.740461 0.186798 0.522899 0.310118 -0.073079 0.094442 -1.315946 0.188271 1.020966 0.595027 -0.268454 -0.073207 -0.539154 0.036953 -0.191283 -0.158022 1.395964 0.140120 0.345296 0.060813 -1.464034 0.953603 -0.805898 0.068464 -0.359742 0.812220 1.685856 0.225225 1.128657 1.062164 -0.970765 0.355117 -0.334377 0.267283 -0.312776 -0.194628 0.288694 -0.414865 0.566172 -0.064777 -0.354960 0.270063 -0.099011 -1.008750 0.403250 0.456023 -0.012447 0.172780 -1.444312 0.879942 -0.951365 0.987419 -0.175265 -0.185499 -0.266471 -0.596704 -0.703993 -0.450918 0.163931 0.055061 -0.622054 0.419225 -0.796320 0.036762 0.089136 -0.279598 -0.658267 0.018944 -0.066702 -0.142375 -0.482359 -0.111764 0.366954 -0.514519 -0.824343 -0.225866 -0.465014 0.012432 -0.807581 -0.356748 -0.251836 -0.491879 -0.294886 -0.352112 -0.225716 -0.440756 -0.898271 0.044689 0.675713 -0.740290 -0.523790 -0.780184 -0.077077 0.497905 0.018160 -0.854276 -0.349910 -0.063481 -0.218012 0.170106 
colour -1.121678 -1.844454 0.167771 0.588181 0.361717 1.387363 0.820218 -0.238874 -0.027078 -0.006639 -0.326139 2.440629 0.070389 -0.439260 -0.245131 0.174091 -0.075716 0.328944 -0.086186 0.041921 0.479770 -0.701203 0.983132 0.249107 -0.465275 0.121944 0.313969 0.283230 0.030398 0.379611 -1.244811 -0.737610 0.269415 0.269480 -0.861747 -1.115318 0.091262 -0.065610 0.141600 0.647109 -0.026866 -0.687581 -0.272415 0.510559 -0.199754 0.173043 -1.056646 -0.096241 0.418147 -0.792041 0.510788 0.230834 2.068116 0.198892 0.185655 0.018302 0.493234 1.693390 0.530710 -0.967777 -0.503983 -0.895301 1.157641 0.956920 0.531507 -0.020517 0.331661 -0.063407 0.026856 -0.451654 -0.349654 -0.069675 0.870266 0.177554 -0.239095 0.429479 -0.343284 0.081571 -0.370721 -0.710698 -0.045962 0.315104 0.245890 0.576498 -0.731180 0.137403 -0.438174 0.318301 0.505221 1.026627 0.181371 0.058509 -0.527179 0.098953 -0.719851 0.270939 -0.006332 -0.141323 -0.143972 -0.260710 -0.166619 -0.107750 -0.934602 -0.730306 -0.086466 -0.486956 -0.241292 -0.042391 -0.145171 -0.697820 0.019340 0.706002 0.135860 -0.102480 -0.018256 -0.735497 -0.692600 0.042764 0.986424 -0.922082 0.251994 -0.252665 0.997032 -0.975186 1.067555 -0.244597 -0.592447 -0.682493 0.173112 -0.844731 0.367016 -0.287426 0.160698 -0.788161 0.041369 0.024494 0.246882 0.900116 -0.636411 0.414389 -0.021722 0.073804 0.817290 0.362365 -0.194635 0.460389 0.380862 0.030954 -1.172600 0.144812 -1.051710 -0.349195 1.020363 -0.465072 0.612588 0.412835 0.616147 -0.804322 -0.086951 0.445693 -0.724762 0.476386 -1.101180 -0.206041 -0.949526 0.365205 -1.119820 0.215797 -0.116459 -0.181455 -0.323472 -0.594437 -0.491390 0.459145 0.094367 0.746930 0.201518 -1.195013 0.458993 -0.970866 0.836495 0.156006 -0.172427 -0.038394 -0.641292 -0.012812 -0.436817 -0.813725 -0.008868 0.669491 -0.183034 -0.419843 -0.343703 -0.442188 -1.398533 0.524474 0.152941 0.919332 -0.385735 -0.665137 -0.569530 -0.945025 -0.568579 -0.213891 0.822897 0.889726 0.108243 -0.313114 -0.872582 0.217592 -0.673568 0.266731 0.293925 0.227449 0.306060 0.564411 1.338923 -0.383295 -0.201587 0.428547 -0.451487 -0.431102 0.089996 -0.463788 0.230205 0.250181 0.732857 -0.006905 -0.658000 -0.810834 -0.187484 1.121572 0.868647 -0.566091 -0.309498 0.091677 -1.129289 -1.779948 -0.727159 0.409029 -0.496790 1.620913 0.046538 0.054825 1.052988 0.147404 -0.640757 0.340526 0.250957 -0.182065 -0.570545 -0.703393 0.883018 0.590767 -0.356435 -1.035041 0.601877 0.469119 -0.069468 0.019879 -0.149120 0.457665 -0.729825 -1.442341 0.196512 1.055245 0.191955 -0.515666 -0.107474 -1.028558 0.667180 0.581750 -0.075736 0.416948 -0.420331 -0.200511 -0.159001 0.660245 0.411559 0.838726 -0.060926 -0.460095 0.249391 0.813824 -1.579375 -0.279242 0.685956 0.208395 -1.299083 -0.859934 -0.572031 -0.494819 0.756614 1.003191 0.306170 -0.850850 -1.417637 0.739150 -0.498640 2.117491 0.106605 -0.457505 -1.078587 0.831232 -0.066418 2.315822 -0.589673 0.173326 -0.039821 -0.234549 1.058940 0.585931 -0.421142 0.589072 -0.466326 -0.200634 0.791556 1.165356 0.402836 -0.292020 0.447897 -0.696221 0.048595 -0.028097 -0.116784 1.049151 -0.296751 -0.443735 0.451777 0.212001 -0.754717 0.520697 -0.081681 -0.636717 0.244273 -0.875077 -0.101162 -0.008257 -0.016380 0.321493 0.504653 0.048890 0.570274 -0.620040 -0.143411 -0.304620 -0.272100 -0.530373 -0.114970 0.665753 -0.072858 -0.280440 0.212641 0.418010 -0.483970 1.235556 0.240387 0.086046 -0.627447 -0.057344 -0.261629 0.300673 0.603933 0.642689 -0.080850 0.174962 -0.447286 0.400221 0.180095 0.695935 0.310347 0.475792 0.746526 -0.489930 -1.223936 -0.990703 0.000767 0.169462 1.276587 1.252382 0.334480 -0.656346 -2.071545 1.799931 -0.076489 0.102632 -0.361448 1.291527 -0.159363 -0.107336 0.478023 0.571170 -0.019600 -0.319842 0.804106 0.538588 1.527680 -0.193847 -0.295285 0.231537 
pair_of -2.854627 -1.892152 1.061506 1.101137 1.268072 0.540565 -1.303791 -0.082110 1.252182 1.781240 0.651393 -2.218747 1.001274 0.819158 -0.080365 -2.501184 1.675225 -2.915275 -0.717652 1.160115 -0.177262 -0.837014 0.712391 -0.398476 2.017123 -2.480181 -1.213432 0.428297 4.001313 0.924844 -0.701040 1.263441 -1.195314 -2.261170 2.157575 -2.292217 0.366295 -0.267457 -0.794715 1.095420 0.682045 -0.234115 -2.163296 -0.647213 0.030718 -2.192550 -0.215834 -0.178892 0.088093 0.474605 -0.093919 0.485025 0.145469 -0.919566 0.269803 -2.829103 1.824680 -0.098214 -0.475275 -3.559343 -1.497195 -1.390220 1.033815 2.210778 -1.734269 -1.471389 -0.196855 -1.671529 -1.303844 2.513859 0.540703 -0.925467 -0.992091 -0.767873 0.164397 -0.875606 -0.853599 0.129239 -0.905264 1.345242 1.089206 1.292682 -0.132693 0.052387 0.346015 0.655101 -0.228791 -1.482340 1.848721 1.641634 -1.132507 0.368966 -0.809094 0.988485 0.046134 0.170396 -0.096421 -0.056642 1.363769 -1.394591 -0.600364 -0.794686 0.192582 0.053597 -0.784408 -1.604813 1.412565 -0.455852 1.793036 -1.658605 -0.376464 -1.942063 -0.009383 -0.910475 0.276044 -0.644271 0.731589 0.210110 -0.575882 0.009304 1.045883 -0.068221 0.726408 0.774326 -0.020719 0.544608 0.860031 1.234987 0.624085 -1.242869 0.050807 -0.355740 1.127558 -0.663294 0.962425 -1.152879 -2.222956 1.263894 -1.849288 2.250988 0.214189 -0.754061 -2.072880 -1.451361 -2.869716 -3.327182 -1.970326 -0.216429 1.182425 3.547072 3.973730 -3.589178 0.587531 0.443056 2.067835 0.330382 -0.550733 -0.851264 0.122085 0.104540 0.778686 -0.989853 -0.108411 0.291333 0.116155 -0.337928 0.269591 0.199489 -1.397859 0.653984 0.156409 1.515076 -1.725847 -0.823310 0.073226 -1.042549 -0.541208 -0.186771 -0.199851 0.399837 -0.185473 0.722726 -0.754208 -1.401886 0.008402 0.820971 -0.731383 0.168805 1.307523 0.006908 -0.482868 0.662709 -0.700958 -2.482854 2.343454 0.933442 0.684734 -2.051885 -1.229125 -2.508168 -0.077123 -0.731977 0.629545 1.409894 0.469863 -1.034380 0.009760 -0.246644 -0.326548 1.289832 -1.524536 0.359140 -1.084646 0.793658 1.137384 0.139369 0.010907 2.640145 -0.770388 0.371345 0.753752 0.539377 0.571288 0.224201 0.334342 0.167355 0.130003 -0.247528 -0.734794 -0.630638 -0.804553 0.667045 -0.806713 1.297095 -0.182946 1.182833 1.545229 1.056744 0.374538 -2.978635 -0.008098 -1.077016 -0.451285 0.372908 -1.219204 -0.852758 -0.176768 0.963017 1.461025 -2.509498 -0.672016 0.569762 -0.356636 -2.396659 -3.805350 1.811561 0.849808 0.751421 0.644412 0.409246 1.011681 -0.751572 0.611723 -0.930779 -0.112001 -0.479524 0.304080 -0.129633 0.699588 0.051397 -0.833699 -0.574386 -0.851003 -0.451262 1.393713 -0.666748 -1.108239 3.139717 -0.565967 -1.929308 0.767116 -0.516924 0.019152 0.105813 1.969549 -0.021738 1.001697 -1.152158 0.899424 0.740388 0.884232 -0.100403 1.595647 -0.036625 -1.333771 1.388241 -0.385400 0.127717 1.343994 0.396885 -0.424108 0.428998 1.143806 -0.259767 -0.377316 2.569668 -0.495061 0.712691 0.304212 1.104468 0.293593 -0.264413 -0.452577 -0.365644 -0.281686 -0.440879 -0.240685 -1.081853 0.157628 -0.339724 -1.986573 0.664252 -0.942621 -0.541717 -1.598594 -1.900430 1.604489 -1.723437 -0.320507 0.635037 -0.102576 0.373298 -1.240509 0.669607 -0.296678 -1.042287 0.818106 0.187299 -0.143953 1.034845 0.645519 0.675603 -0.733116 -0.308873 -0.308804 0.354035 -0.761258 0.385434 0.040249 -0.607840 -1.030990 -0.966738 -0.453948 0.849954 0.684397 -1.648546 1.302690 -1.396525 1.973439 0.529498 0.089054 -1.145523 0.780740 -1.094441 -0.326841 -0.236015 0.295354 -1.437675 0.152734 -0.337989 -0.533117 -0.948654 -1.091256 -0.923703 0.203137 2.016059 -0.877280 -0.995909 0.282101 -0.740545 -0.533527 0.271435 0.664645 -2.142514 -0.301340 1.965464 1.161973 -0.552593 1.125767 -1.333135 -0.407514 1.760756 -0.265772 1.818676 -2.076169 0.763595 -1.408931 1.364400 -0.798452 0.300726 
short -1.623573 -0.272510 -1.545413 -0.397755 -0.340979 -2.164809 -0.782840 -0.015978 0.376444 -1.224657 0.700425 0.434453 0.459935 -0.019596 0.312532 1.468152 -1.468307 1.198339 -0.128042 1.133023 -2.208338 0.500268 0.653266 0.135918 0.186814 0.518872 -0.283236 -0.349871 0.684692 -0.573647 0.280076 -2.256460 -1.227870 -1.391885 0.091281 1.981996 1.057908 -0.338206 -1.988587 0.721425 0.004718 -0.931130 -0.053086 1.117511 -2.593724 1.591290 0.415943 2.162686 1.029520 0.761031 2.678070 -0.257736 3.638880 1.093979 0.431186 -1.111012 1.090014 0.139598 0.422779 -0.975857 0.501539 1.560687 -0.490991 0.798706 -1.120379 0.646317 0.000645 1.059639 -0.429730 -1.976913 0.005753 0.069949 1.095277 -0.560020 -1.572678 0.386420 -0.744419 -1.875235 3.341883 0.584643 -1.309730 -0.179202 -0.101526 1.496793 0.563525 0.196943 0.147290 1.342769 0.277526 -0.798770 0.230037 -1.130645 0.822381 0.647670 -0.389514 -0.235819 -0.477209 0.731737 0.147617 1.589742 1.243825 -0.583713 -0.586522 -0.102283 -0.950643 0.343300 0.947027 -1.408120 0.772924 -0.260978 -0.773233 -1.282202 1.261620 1.669699 0.891832 -0.193790 -2.249967 -0.696701 2.336899 -2.004244 1.702801 0.608543 -0.380289 1.188784 -0.007501 1.943100 0.392323 0.801353 0.173592 1.485334 1.064616 0.115534 -1.162559 0.231946 -0.637196 -0.242473 -0.063390 -1.871402 -0.896585 0.925405 -0.478927 -0.331037 -1.422101 -0.350509 -1.078479 1.756220 -0.996914 -1.211735 0.616410 -1.249747 1.476200 -0.659649 -0.696415 1.168347 1.433231 1.167318 -1.364151 1.175641 -0.816050 1.036390 -0.063323 -0.115818 -1.910592 -0.599269 -0.369402 0.173981 -0.459937 -1.158812 -0.330997 -0.532973 -0.804657 0.335117 0.568850 -1.147566 0.672033 0.928357 -1.454092 0.152761 0.106357 0.697976 0.697248 -0.719575 0.551952 0.360096 1.018454 0.540897 -0.064783 0.965720 -0.129891 -1.188619 -0.055954 0.492094 1.626026 2.223796 -0.003177 0.245164 0.578821 -0.449665 1.240222 -0.486811 0.613472 0.564241 0.159641 0.127728 0.343114 0.091480 -1.029416 -0.339676 0.532423 -0.102374 0.305030 -0.119108 -0.004920 0.268820 -1.905854 -0.314547 -2.059117 2.219051 -0.047182 -0.011146 0.837283 -0.669092 0.366653 0.756481 0.396855 0.092399 -0.112582 0.135474 0.963694 1.435295 0.311531 -0.944839 1.300791 -1.124113 -0.775243 -0.581899 -1.857451 -1.671324 -0.445476 0.524194 1.448262 0.699949 -3.293160 1.058879 0.464901 1.634261 1.165510 -0.543710 -0.271014 -3.652576 3.076868 2.646170 -1.082293 0.093878 -2.168915 2.233279 1.334526 -0.398479 -1.942027 0.542437 -0.113225 0.786769 -1.506387 0.014345 0.881340 -1.230153 -1.529094 -0.860371 -0.096907 0.424236 0.038315 -1.243693 0.747513 1.822717 -0.888381 -3.313910 2.526865 -1.517355 2.545898 2.001719 -0.749505 1.859368 0.586331 -1.581833 -3.906201 0.169382 -0.678001 2.731158 1.687344 0.149784 0.803744 -0.807833 -0.673522 0.220031 0.238666 1.452627 0.532272 -0.928067 1.283091 -0.591605 0.907372 2.928531 0.341417 0.407237 0.135625 -1.287918 0.541511 1.551900 3.032301 -0.000321 -0.754376 -0.554242 -0.537795 -0.397789 0.683045 -0.533710 -1.496104 -0.726851 0.673048 -0.231780 -0.925046 0.670669 -1.564366 -0.020578 0.612464 -2.133589 0.923456 -1.565996 -2.433619 0.821966 0.334969 -3.985021 0.119651 -0.657712 1.748621 -1.495524 -0.120619 0.001855 -1.173467 0.211741 -1.956283 -1.098888 -0.188146 -1.173509 0.134605 -1.444787 1.205486 -1.193811 0.731880 2.266273 -0.027473 0.183557 -0.788192 0.610943 0.893904 0.835485 1.073472 -1.109906 0.683840 0.199699 0.190531 -0.929374 -0.586481 2.276196 -0.836675 0.466628 0.934483 2.071433 0.198396 0.818051 1.243813 -0.357240 -0.951469 -0.268508 0.453036 -0.890993 -0.919791 1.498358 1.592354 0.405031 -0.225505 -0.749369 -2.913350 0.859737 -0.662851 0.911721 -1.203481 -0.851963 0.233283 -2.048546 -0.566648 -0.701654 -0.175530 0.821888 -0.511130 0.004279 -0.375207 0.642977 1.284875 -1.526029 
has 0.606953 -1.810719 -1.403162 -0.471100 0.140479 3.213404 1.984362 -0.385175 1.134173 -1.128106 0.566118 0.148599 -1.349468 0.447351 1.731124 1.460605 -0.356502 -0.212508 -0.230579 -0.403477 0.426373 -1.279990 -0.795689 1.530017 -0.224699 -2.213266 -0.845542 0.903061 5.670228 1.135027 -0.373173 0.688584 0.830809 -2.525692 -0.040030 2.952854 0.860316 0.444519 -1.202424 2.496932 0.869698 1.514944 -0.183200 0.789148 2.936454 -0.255735 -0.816107 -1.628002 0.236199 1.021297 -0.760904 1.076277 -2.043878 -2.661763 -1.387745 0.618360 0.681685 -2.118992 -0.904558 1.880668 1.815772 2.214041 -0.873150 -4.271244 1.612400 0.052593 -0.098704 -0.843854 0.773874 0.487640 -0.395979 1.415534 -3.182677 -1.237243 2.142111 -2.611978 -0.685594 -1.166377 0.294242 -2.298841 -1.279675 0.183174 0.793369 -0.016037 -0.862374 0.847054 -0.971666 1.683839 0.137192 -0.204961 -0.208197 -1.427903 0.562012 0.182761 -1.060867 -0.332955 -1.444503 -1.026801 0.325431 0.254031 -2.888667 -3.655121 0.453346 -0.592350 1.109753 0.238119 -0.904274 -0.005891 -0.095879 1.758405 0.291041 1.236606 -0.205589 1.558727 -0.210918 -0.035046 -0.644769 -1.238985 1.102423 -0.662456 0.020308 -0.007476 -0.421599 -3.108505 0.798665 -0.616202 -0.203849 -0.783484 -0.729827 0.163191 -0.577189 0.451615 -0.241818 -0.704583 0.156237 0.420501 -1.528062 0.090176 -0.545748 1.327526 -0.404882 -1.512333 -1.872144 -0.801287 -1.276575 -1.005155 -2.483082 0.510777 -0.289131 0.988411 1.678687 -1.675621 0.961364 0.287557 -1.396238 0.466288 0.377090 0.236803 -1.152655 2.280453 -0.997984 -0.852148 0.298098 -1.656342 2.000024 1.818118 0.081632 -0.548282 -1.398529 1.388276 -2.691300 -0.450846 -1.021129 -1.724148 -0.775215 1.092394 0.026620 -0.985448 0.402697 0.195104 0.333896 -0.378310 -0.003808 -0.630452 0.274276 -0.193172 -0.587225 -0.507097 -0.111462 0.652893 -0.206632 0.006361 1.306672 2.510170 -0.618378 -0.544599 -1.275645 0.382309 2.306156 0.399512 0.009682 0.117562 -0.622851 0.971404 0.034133 0.686218 0.031951 -0.134638 -0.294700 0.775754 0.143450 0.332833 -0.053852 0.543632 0.256502 0.070863 -0.826357 -2.849760 0.641746 -0.940477 1.112981 -0.110886 -0.731389 -0.373838 0.205806 1.506625 -0.921597 0.275067 -0.331053 0.488702 0.212191 0.591644 -0.619004 -1.518643 1.244656 0.354885 0.833288 0.616862 0.967688 0.312907 -0.556100 -0.225863 -0.398993 -0.477820 0.715775 1.114851 0.028508 -0.868831 0.530698 -0.571479 1.086152 1.614534 -0.861661 -0.626522 -2.171899 0.362035 -0.942115 2.102969 0.476453 0.854503 0.446670 -0.821280 1.368726 -0.942351 -1.270953 -0.430958 0.237914 -0.986596 -0.660390 -0.262881 1.212141 0.005569 -1.155190 -1.461956 0.565049 0.513240 -1.497376 1.044349 -0.353083 0.729165 0.371452 -1.989734 1.372948 -0.927613 0.429734 -0.091402 1.533747 -0.386090 0.771950 1.332745 1.094949 1.092878 1.102451 -0.602941 -2.273100 -0.112899 -0.006455 0.569862 1.356786 2.239418 1.420657 0.350296 -0.540191 -0.584917 -0.497589 1.884658 -0.654516 0.091321 0.419708 -0.067289 1.240577 1.060696 -0.749303 0.654300 -0.299911 0.315482 0.128499 0.676475 2.449490 -0.220522 2.723034 -1.386974 1.866215 1.390655 -0.374483 2.192252 -0.610205 -0.340224 1.622588 1.191605 -0.415960 0.595464 -1.004442 -0.205341 -2.642774 -1.234506 0.470459 -0.614429 -1.313003 0.180801 -0.952317 1.687868 0.391981 0.758630 1.073247 0.597360 1.603582 1.183563 -1.509481 1.751796 -1.263809 0.338667 -0.454098 -1.118094 1.269919 0.239156 -0.177601 0.610989 -1.068079 1.138762 -0.302645 -0.072397 0.651112 0.999348 -0.657652 -1.480224 -0.153821 -0.363410 -1.428017 1.659820 2.869063 -1.424896 -1.083873 0.827886 1.960947 2.320703 0.518371 1.615600 0.291377 0.713775 -0.223063 -0.048159 -0.257154 1.549446 1.670284 -0.271122 -0.298904 0.653533 -2.018547 0.608510 2.082898 -1.219601 -0.135432 -1.064375 -1.013532 -0.022376 -1.186969 -1.265719 0.521655 -1.116034 
or 0.463705 0.315009 -0.705755 -0.447183 -1.637992 -1.583882 -0.445116 0.475593 0.076666 -1.059206 0.597031 0.467042 0.449513 -0.914746 1.373376 -0.699312 0.202468 0.252061 0.487314 -2.063529 -1.570921 -1.226504 -1.031018 -0.926812 -1.418159 2.136318 0.606155 0.311872 -2.963001 -0.469586 1.314097 0.169555 -0.044522 -0.224879 1.112310 0.320355 0.385924 -0.251983 -0.401088 0.621985 -0.452733 -0.578318 -0.099539 1.048486 0.658663 -0.181965 -0.967851 0.554919 -0.646181 0.530819 -0.311674 -0.833020 -1.578499 -2.171973 -0.254984 0.431607 -0.559187 -0.271449 0.644441 2.581669 -0.773924 1.893882 -0.092952 0.083040 0.771629 -0.003602 -0.690015 -0.191232 0.469310 -0.880073 -0.851835 -0.382801 1.058391 0.470976 -0.530937 1.344112 0.122678 0.362739 2.578035 0.882149 0.415291 -0.332616 1.009246 0.995345 0.430261 0.636105 -1.193240 -0.530764 0.023293 -0.907655 -0.920816 0.030321 -0.111760 -0.068644 0.391443 0.327174 -0.184227 1.026958 -0.594368 -0.833861 0.191571 0.908444 0.283459 0.339688 -0.872667 -1.206751 0.268251 0.604587 1.520579 -0.372439 -0.793976 0.497585 -0.297314 -0.669283 -0.328820 -0.488603 1.508284 -0.721429 -2.062361 1.273082 -0.432731 -0.286283 0.047475 1.569668 0.523080 0.086864 0.148632 1.005531 0.179173 0.417010 -0.213281 -0.711185 1.016401 0.283785 0.874908 -0.698307 -0.441354 1.289498 -0.642465 0.136618 -0.379242 -1.048161 -0.108127 0.496368 -0.497423 0.414948 0.360255 -1.810895 -0.054483 0.738844 0.904250 -0.121766 -0.013885 -1.507277 0.392273 -0.474691 -0.135206 -0.681615 -0.275747 1.831489 -0.082613 0.468947 -0.294984 0.095512 1.185644 1.733930 -0.443605 0.038187 -1.304392 0.215721 0.218750 0.040015 -0.244063 -0.556342 -0.308794 -1.209720 0.024185 -1.748729 0.689209 -0.224684 -0.328131 1.176295 -1.563004 0.427392 -0.242465 0.464430 -0.538931 0.124420 -1.074007 0.361785 0.020327 -0.477228 -2.909103 -0.687442 -0.664944 -0.168017 -0.904786 2.215807 -0.371469 -1.354954 0.295826 -1.982820 -0.076659 -1.046122 0.726631 1.624032 -0.536903 0.195596 0.183188 -0.222010 1.200919 0.408884 -0.037819 -0.268594 0.348800 0.299880 0.750769 2.968142 -0.640314 0.890991 -0.746518 0.232855 0.846371 1.524903 0.327138 0.881980 0.238729 0.238524 -0.086622 -1.156299 0.226745 0.733599 -0.272416 0.620881 -0.080084 0.155368 -0.724003 0.287466 0.659674 0.517712 -0.440833 0.195522 -0.413009 -0.915202 0.124161 -0.398752 -1.318268 -0.274507 -1.011415 0.785513 0.601857 -0.556071 0.343526 0.040053 -0.403482 0.264349 0.483095 -0.445955 1.104697 -0.126222 -0.678052 -0.900821 1.457137 0.217797 0.703846 0.732199 0.761504 -0.382587 0.008816 0.210513 0.808860 0.564493 0.259572 0.233942 -0.367808 -0.419735 -0.217451 0.334473 -0.263723 0.594095 -0.190227 0.159310 -0.259835 1.622365 0.401480 -0.512666 -0.004568 -0.800879 -0.653932 0.472855 -0.414190 0.657939 0.465355 -0.656534 -1.365762 -0.558033 -0.205112 -0.033845 0.143168 -0.016928 0.069216 -1.907600 0.339601 0.010065 0.029699 1.409194 0.209175 -0.741179 -0.261831 -0.728149 1.468374 0.223994 0.237623 0.762368 -0.282404 0.009609 0.774581 0.221274 0.324982 -0.255521 0.983462 0.187014 0.377333 1.634405 0.493812 -0.129979 0.103366 -0.171932 1.301988 -0.649421 -0.071132 0.268183 1.074289 -0.354845 -1.604174 -0.579110 -0.265276 -0.193187 0.126352 1.153092 0.039539 0.262207 -0.349409 -0.327754 -0.060994 1.228428 0.075912 0.656638 -0.712983 -0.093602 -1.371432 0.496783 -0.824202 -0.063585 0.504809 -0.306385 0.997734 0.001369 -0.197832 -0.705117 -1.091082 -0.534279 1.216573 1.097858 -1.182179 -0.243427 0.295318 0.779994 -0.934254 -0.277325 0.861507 -1.519585 -1.969407 1.189630 2.396542 0.963658 -0.697452 -0.232171 0.723159 1.319224 -1.343780 -0.585426 0.020565 0.650972 -0.129803 0.193165 0.847566 0.177152 -0.961934 -0.866657 1.969928 0.047164 -1.209485 0.460493 0.000640 2.203822 2.671445 0.878998 -0.555791 0.762288 
grey -1.035746 0.228531 0.625542 0.224038 -1.314986 -0.799635 0.881135 -0.663750 -0.087023 1.006729 0.248664 0.444291 -0.237944 -0.243215 -1.100667 -0.534659 0.512073 -0.563733 0.111567 -0.468765 0.689386 0.879271 -0.174488 -1.153428 1.150692 -1.477831 -0.979549 -0.418579 2.810359 0.584288 -0.481478 0.491563 1.435510 1.203545 0.535978 -0.961820 -0.109057 -0.345955 0.136129 -1.118409 0.801970 0.644209 0.309042 -0.789775 -0.186483 -0.020146 1.412299 0.714059 -0.052469 -1.495757 0.928195 -0.486122 3.365873 1.995863 -0.280912 -1.394398 1.066036 0.981455 -0.726581 -1.534342 -0.597433 -1.554276 0.620513 0.156612 -0.876482 -1.025085 0.339657 -0.668085 -0.695185 0.094581 0.381996 -0.461342 -0.436850 -0.148242 0.296448 -1.181936 0.170482 -0.607676 -1.208473 -2.075741 -0.930886 -0.548626 -0.450354 0.303485 -0.097883 -1.008256 -0.451644 0.008990 -0.200839 1.119280 0.241946 -0.060775 -0.589758 -0.204605 -1.792653 -0.516263 -0.920616 -0.663888 0.312880 0.086889 0.087894 -0.445813 -0.591814 0.353718 0.014376 0.528126 0.922324 0.589188 -0.296518 -0.042633 0.661131 -0.146996 0.849500 0.151101 1.166384 0.471585 -0.960166 0.993494 1.012514 -0.750037 0.650735 0.644574 -0.715120 -0.116111 -1.118096 0.920840 0.246205 -1.169782 0.503685 0.052105 -0.667228 0.705416 -0.346453 0.072731 -0.392147 0.401640 0.291396 -1.188557 -0.048276 -0.474157 0.055795 1.670215 0.421567 -0.839893 0.490724 -0.587965 -0.571648 1.225649 0.040347 0.453709 0.290527 -0.208776 2.278562 -0.258644 0.487375 0.513609 -0.769877 -0.119316 -0.457769 -0.950514 1.028412 0.553623 0.452843 0.914829 -0.256851 -2.909347 1.286330 0.698789 1.718131 -0.206785 -0.010918 -0.182339 0.868919 0.855959 0.323286 0.987238 0.726925 0.851784 0.076612 0.163248 -0.649029 -0.455395 0.101039 0.983720 0.034282 -0.366415 -0.640030 0.305812 0.089467 -1.068039 0.564069 -0.501928 1.275493 -1.591483 1.022020 0.175126 0.313351 -1.390552 -0.854964 -0.020020 -0.333927 1.282578 -0.225714 0.303162 0.176153 -0.923249 0.648454 -0.385302 -0.755819 -0.038609 -0.656745 0.303573 0.567782 -0.318544 0.593338 -0.021029 -0.535341 -0.718017 -0.032767 0.248484 0.289551 -0.233548 -0.344979 -0.675913 -0.232211 0.005332 -0.026549 0.309867 -0.601745 0.218843 -0.430455 -0.052041 0.140904 -0.796982 0.195095 -0.777476 0.587874 0.618007 -0.548620 -0.685240 0.692972 -0.471530 0.413661 0.094380 0.489985 0.316850 0.328730 -0.229387 0.191078 -0.955942 0.221911 1.200852 0.013422 0.039922 -0.050510 0.138000 0.003794 -0.200490 0.038927 -0.124512 0.969858 0.847804 -1.873405 -0.014360 -0.491273 -0.232791 -0.693370 0.844090 0.306629 -0.367142 -1.001557 -0.606911 0.876660 -0.621150 1.416736 0.349189 0.133064 -1.877891 -0.120510 -0.400015 0.038662 0.000117 0.623098 -0.649809 -0.576471 0.631233 0.760586 0.161337 -0.111176 0.614383 -0.012366 -1.756248 0.092287 -0.653414 0.638617 -0.067383 0.696973 0.228365 -0.138788 -0.293651 0.596120 1.403185 0.105840 -0.292476 0.130930 -0.442191 -0.003552 1.729396 -0.458341 0.337231 -0.714307 0.739749 -0.189780 -0.925641 0.330608 0.310915 -0.289359 -0.317249 -0.106251 -0.060088 -0.481041 0.003618 0.818881 -0.793684 -0.759425 -0.098003 -0.819205 0.169582 -0.896043 0.159614 0.795203 -0.824696 -0.443603 0.278839 0.660251 0.220931 0.305479 0.821782 0.597731 -0.224110 -0.065497 0.121199 0.176309 -0.016298 0.123369 -0.614035 0.452628 -0.715932 -0.158432 0.172095 1.470626 0.627862 0.328385 0.534112 -0.425606 1.099330 -1.213995 -0.269451 -0.838254 0.023569 -0.005433 0.474754 -0.942478 0.297530 -0.200269 0.461277 -0.614568 0.381069 0.783294 0.058857 -0.814872 1.269247 1.313623 -2.129138 -0.664055 -0.159797 -0.378996 -0.261706 0.333090 -0.429172 0.473698 -0.206528 -0.739309 -0.047713 -0.533436 0.352868 0.693584 -0.336179 0.743699 0.630003 -0.956722 0.417647 0.859363 -0.206379 -0.060572 0.207624 -0.728148 -0.780561 0.473576 -0.247598 
shoes -2.362526 -2.364752 -2.150498 -0.433796 -2.216194 -2.473298 -1.335877 0.644624 -0.763164 -2.305261 -1.331168 -0.201488 0.180951 -0.642973 0.706065 0.229267 -1.505664 1.243549 -0.840331 -2.698866 -1.468500 -1.490949 -0.433270 -0.918545 0.054843 1.257822 -0.102467 0.411201 -1.984051 -0.839671 0.111949 -2.456603 0.559351 -2.003582 -1.223162 3.136314 -0.660718 -0.870974 -1.582395 -0.307608 -0.629850 -1.392819 0.895927 1.013399 -0.915167 0.146578 -0.768159 0.908807 -1.753004 0.544246 -1.695569 -0.030402 -1.994824 -0.698875 0.922385 -0.609957 -2.755145 -1.595458 -0.661872 1.601255 -1.411975 0.980113 0.098385 -1.897817 1.860046 0.569103 -0.912015 1.202708 -1.567151 -1.936260 -1.144867 0.873267 0.107101 -1.016814 0.956037 -0.848923 0.740715 0.388874 0.271011 0.937711 -0.350039 -1.878317 0.733952 0.009869 1.007372 -0.343405 0.292458 0.221084 -0.033566 -0.827721 -0.041894 -0.742651 1.930469 0.623037 0.456103 -0.226242 1.359534 2.953984 -1.012956 -0.082430 3.642170 2.274530 -1.115633 -0.515706 0.247098 0.686534 -0.783917 0.606896 -0.096946 0.367893 0.678598 0.730825 -0.913926 1.297498 -1.296877 1.346249 2.523596 -0.909082 -1.730894 1.355590 -0.036437 0.767059 -2.693600 -0.532463 1.877783 0.248759 -0.896456 0.287859 -0.381064 2.098566 -0.386650 -1.091777 1.216430 0.300751 0.031128 -0.083595 -1.244502 -0.068965 -1.450241 1.030853 -0.021324 -0.668761 -1.385991 -2.705336 -0.390391 2.098304 -0.232581 -0.569701 1.542625 -0.656952 0.807906 -0.248311 -0.585543 0.852404 -2.468837 0.781274 -0.130826 0.926224 0.868595 -0.661798 -0.492486 0.549225 0.339104 0.275505 -0.273576 1.178818 0.112777 -1.019735 0.903702 0.221873 -1.360458 0.468137 0.978828 -1.104638 1.986401 0.013324 -1.927311 -0.246173 0.434413 0.446703 0.970257 -2.177419 2.192677 -1.072180 0.900674 0.118041 1.845390 1.641795 -2.587023 0.607293 1.159596 0.881232 -0.719867 1.826339 -0.138984 0.573606 -0.674583 -0.768510 0.707347 1.439541 -0.516745 0.456371 -0.856479 0.072537 0.659528 -0.335857 0.499521 -0.001472 1.524594 1.145742 0.046914 -0.702445 -1.067804 -0.181233 -0.916389 -0.754343 -0.465000 2.550437 0.080669 0.871839 -0.479935 1.379040 1.164127 0.064925 0.162636 0.546711 0.483787 0.718375 3.317426 0.533029 1.469606 -1.252895 0.536011 0.300597 0.829823 -1.140177 -0.096428 -1.451604 -0.680483 0.203273 -0.125658 -0.848657 0.286590 0.333505 -0.583953 -0.652558 2.245530 -0.108900 -0.754271 -0.214828 1.922093 1.007120 -0.070658 2.084052 2.441720 0.477240 -0.042419 -0.663360 1.244171 0.546107 0.148728 0.244210 -1.833983 -0.344888 -0.270933 -1.145784 -0.484953 0.487237 -0.044612 1.469131 -1.627034 0.333746 0.144007 0.108248 0.941912 -0.607519 0.577752 0.980474 0.493082 -0.481564 -0.121816 -0.327348 0.077674 -0.390805 -0.266497 1.409135 -1.184445 0.719938 -0.666127 -2.894622 -2.003655 0.171822 -0.612815 -0.464020 -0.117851 -1.481043 -0.633998 -0.342556 -0.313312 -3.105339 -2.083868 -1.138189 -0.384219 -0.428498 -0.792950 -0.241112 0.833014 0.041896 0.631945 0.229877 -1.445580 -0.320452 0.634105 -0.103547 0.143588 0.143874 1.484077 -1.991897 -0.622952 -1.155476 3.233756 -1.725950 1.882436 0.901853 1.051867 1.172365 1.421600 -0.022225 1.144886 -0.135549 -2.027446 1.481521 -0.391225 0.397383 0.933405 1.879683 0.239308 0.000974 0.534887 0.632940 -1.455360 1.182755 -0.947584 0.158863 2.399249 -0.732477 0.416166 1.245762 0.946255 0.289139 -2.227975 -0.817733 -0.703803 1.927049 -0.477295 1.592073 -1.431550 0.119240 -0.159404 0.409322 0.217877 -0.136602 -1.401517 -1.456887 0.607808 0.229207 -0.104056 -0.953035 -0.531141 -0.399251 -0.742183 -0.356999 -1.111792 0.771481 0.830437 0.517545 -1.227348 -0.053214 -0.214624 -2.275547 -0.363469 -0.527249 -0.530707 -1.180922 -1.095222 -0.797468 -1.157763 -1.191250 0.527014 -0.016495 -0.776697 -0.292996 0.074000 0.631997 0.982301 -0.482401 0.264276 -1.209906 0.233674 -0.341768 
wears 1.880471 -0.996302 -1.701808 -0.969010 -1.520016 1.810579 0.736461 -1.148780 -1.271229 -0.304824 1.182888 -0.794427 0.633527 -0.386952 1.071201 2.597972 -0.178268 0.240053 0.402487 0.032565 0.819061 -0.724846 1.644255 2.366318 -1.776798 -1.601082 1.472296 -0.986644 3.537838 1.325965 0.199242 0.743265 0.814084 -1.104641 2.320758 0.668315 1.009497 0.808586 -0.684054 3.467038 -0.896887 1.935259 -0.572469 1.995995 4.897646 -1.069914 -2.312686 -3.274666 -2.441837 1.981969 -0.548614 0.378396 -3.763104 -3.438901 -1.161025 0.420201 0.882012 -2.674927 -1.714435 3.018610 0.693803 0.691222 -0.004114 -3.717247 0.770509 0.013634 0.063418 0.468723 1.084574 1.201660 -0.697579 1.104305 -1.187816 -1.606249 1.591524 -3.172524 -1.342104 -1.270958 -0.567599 -2.159051 0.165528 0.375560 1.055346 0.945883 -1.079174 0.187530 -0.345525 1.978867 -0.500150 -0.328090 -1.138216 -2.172227 -0.112420 -0.234625 -1.679233 0.804556 0.071326 0.090960 -0.102424 0.849747 -2.338398 -2.421487 0.967605 -0.626078 0.873328 0.314757 0.056949 0.314187 0.084490 1.291856 0.725910 0.480275 1.124240 1.550329 0.150302 -0.891683 -1.173480 -1.166973 1.725101 -1.102185 -0.470615 -1.166740 -1.835184 -2.920530 1.437059 -1.340419 -0.463876 -0.705887 -1.350491 -0.125357 -1.171712 0.294492 0.496358 0.269400 0.479893 0.754849 -1.222091 -0.921454 -0.018636 0.922875 -1.166962 -1.635514 -1.267613 -0.680313 -1.506290 0.348961 -1.348587 -0.650211 1.150240 -0.279695 2.650595 -1.291632 2.975755 -0.551276 -1.176235 0.628876 1.441474 -0.753905 -1.712191 1.958072 -0.611676 -0.687085 1.680037 0.689442 1.946409 -1.272045 1.935737 -0.768623 -0.983399 0.720827 -2.032167 -0.539336 -0.808689 -1.256008 -0.452562 1.443586 -0.153652 -1.727180 1.691909 -0.962488 0.266497 -0.105225 -0.914425 0.363342 0.457748 0.078261 -0.985209 0.316789 -0.712734 0.340390 -0.079810 -0.255454 1.011345 1.509756 -1.625177 -0.906055 -1.185272 0.554865 1.827499 0.501091 -0.531437 0.263807 -0.288704 0.551467 -0.722324 1.224536 0.108002 0.772460 0.945060 0.855609 0.608647 -0.554702 0.207066 0.499770 0.500889 0.855340 0.195185 -2.179285 -0.343756 0.157273 -0.934105 -2.039218 -1.196390 -0.833611 0.991798 1.034995 -2.680680 0.473293 -1.800212 0.520381 1.287369 1.039962 -1.327279 -0.398764 -0.187485 1.046338 1.354799 0.834696 1.818980 0.350344 -0.266349 -1.451898 0.279321 0.358932 -0.284528 0.898996 0.046974 0.409106 -0.786061 -1.248429 3.410824 2.092840 -0.461829 -0.365122 -2.980684 1.026432 0.444326 1.240105 -1.862592 1.257869 1.226512 -1.226123 0.224952 -0.920743 -1.748260 -0.719257 -0.139813 -0.157269 -0.496889 0.770236 1.653604 0.877443 -0.852495 -1.306266 0.234890 1.772256 -1.883124 -0.414887 -1.428195 0.715718 0.902834 -1.113079 1.377574 -0.172131 2.541222 1.123043 1.990189 -1.912827 1.784037 2.955985 0.906502 -0.818389 0.578885 -1.370092 -2.111148 0.700327 0.137103 0.162092 0.812355 3.003342 0.848091 -0.076844 0.800096 0.283525 0.471056 -0.441275 0.388093 0.971918 -0.196652 -0.574354 -0.282570 1.828552 -0.377256 0.182331 -0.055674 0.831114 -0.939317 -0.086415 -0.212562 0.323464 1.466967 -1.453687 0.336855 0.404705 -0.350682 0.102046 -1.193869 0.028808 0.879130 -0.608930 0.955407 -0.279037 0.619720 0.638767 -0.947151 -0.325442 0.074649 0.008136 0.542933 0.634802 -1.171486 2.585565 -1.458731 1.674872 0.788660 1.541930 1.646358 0.682330 -1.467982 0.908657 -0.901539 -0.849865 -0.037364 -0.354744 -0.055309 0.814680 0.595816 -0.379927 -1.652748 -0.612821 -0.604722 0.327507 -0.135133 0.016278 -2.209513 -0.371067 0.449711 -0.222555 -1.637064 0.813155 1.449689 -0.817334 -1.578912 0.662602 2.096055 2.737814 -1.344904 0.980872 -0.336464 -0.151250 -0.628954 -0.222182 -0.510910 0.823096 0.537444 0.708023 0.375441 -0.373565 -1.143546 0.450002 1.542292 0.089300 0.319782 2.578082 -2.327496 0.599718 -2.102167 -1.300677 -0.459209 0.417218 
